tree
version=v4
num_class=3
num_tree_per_iteration=3
label_index=0
max_feature_idx=49
objective=multiclass num_class:3
feature_names=returns_1 returns_2 returns_3 returns_5 returns_10 returns_20 returns_50 returns_100 returns_200 price_to_sma_20 price_to_sma_50 price_to_sma_200 sma_20_slope sma_50_slope sma_200_slope price_to_ema_12 price_to_ema_26 ema_12_26_spread macd macd_signal macd_hist rsi_14 atr_14 atr_pct_14 bollinger_width_20 bollinger_percent_b_20 volume_20 volume_ratio_20 vwap_distance adx_14 high_low_range close_open_range gap_open day_of_week day_of_month days_to_month_end news_sentiment_1d news_sentiment_7d news_article_count_7d earnings_proximity_days congress_buy_score congress_cluster_30d days_since_last_congress insider_buy_score insider_cluster_60d insider_value_60d ceo_bought_90d analyst_upgrade_score consensus_rating watchlist_research_score
feature_infos=[-0.27035830618892509:0.21719457013574647] [-0.45338309499372126:0.32491437681762192] [-0.40283128034760934:0.42574020335308904] [-0.36574992992103028:0.71546794211337239] [-0.35394835733476154:0.83401120329705458] [-0.48961061842382037:1.9049676025917928] [-0.37473593073593076:8.2321689401629001] [-0.28023422647444424:16.140369047619046] [-0.59922680412371143:22.551344827586206] [-0.28975728094945419:0.7304702966579768] [-0.28983918768412142:1.6178424203142696] [-0.13066290080134602:5.7333477092468206] [-0.038082357374132:0.054012061223957283] [-0.0092723999494118223:0.048340474985885055] [-0.0067825615354458885:0.031470179568182766] [-0.28009684072524893:0.39083365198441872] [-0.26279227587053938:0.73563722724232516] [-12.744241341867564:69.154491637899582] [-12.744241341867564:69.154491637899582] [-11.194898670738716:58.731163135096033] [-14.452517933347934:15.096459177718472] [31.168725785068389:90.976324575746446] [0.096397759065430771:55.653397554970716] [0.015323762335710277:0.18565854351145528] [0.030168322664002697:1.3204862199434233] [-0.33820878369622148:1.4902903933678022] [25.449999999999999:3303.8000000000002] [0.12508686587908269:8.351920693928129] [-0.77607451779455838:1.0708036191387258] [55.844155844155843:99.477684528867471] [0.0061866238773372797:0.51980130293159621] [-0.26985886111020568:0.21719457013574647] [-0.064156885518689283:0.042425133123252676] [0:6] [1:31] [1:31] none none none none none none none none none none none none none none
tree_sizes=2312 1677 2207 2036 2398 2352 2361 2510 2351 2361 2389 2355 2156 2387 2244 2255 2286 2248 2242 2286 2255 2355 2282 2263 2240 2178 2150 2245 2169 2165 2153 2289 2262 2364 2403 1934 2246 2168 2254 2159 2494 2156 2451 2508 2256 2364 2188 2144 2267 2384 2260 2472 2391 2350 2163 2184 2161 2367 2282 2152 2141 2511 2262 2144 2076 2156 2362 2288 2361 2261 2186 2045 2369 2403 2358 2262 2397 2352 2366 2722 2158 2265 2397 2269 2260 2505 2033

Tree=0
num_leaves=21
num_cat=0
split_feature=31 31 14 21 1 32 3 8 22 17 34 34 27 31 6 22 21 27 7 34
split_gain=8.25869 10.0922 6.56272 4.81902 7.21114 5.80655 5.16013 4.5979 4.39811 3.95962 3.76716 3.65003 3.58286 3.81607 2.81467 2.48314 2.19288 1.73417 2.65387 1.61216
threshold=0.024519301195323768 0.049116819505496831 0.0027128128898466363 67.108262676478276 0.01213768555797127 0.00098251248081861263 -0.00040034097967824435 11.837211563527424 1.1245644420431549 0.6059921217337384 5.5000000000000009 17.500000000000004 0.70449152464390086 0.0011023723943481777 -0.028712994339704773 1.106555448250842 51.60864854881428 0.80246815027142204 0.17549478449867043 18.500000000000004
decision_type=2 2 2 2 2 2 2 2 2 2 2 2 2 2 2 2 2 2 2 2
left_child=2 -2 3 4 6 11 10 9 -3 14 -1 -6 13 -8 -4 -9 17 -12 -19 -11
right_child=1 8 7 -5 5 -7 12 15 -10 19 16 -13 -14 -15 -16 -17 -18 18 -20 -21
leaf_value=-0.85860267125954626 -0.80592517335084202 -0.88383762871147609 -0.84286793308363706 -0.9111507591300354 -0.84969621568827691 -0.87559659798173828 -0.86739917058919502 -0.89196653657414249 -0.83792331464579439 -0.87245715770374299 -0.91797904173467526 -0.80189823745579802 -0.88106940603391937 -0.82043214738267756 -0.80003597856362352 -0.85266503421203332 -0.87245715770374299 -0.91177151209409357 -0.87018106350219637 -0.84078976011700757
leaf_weight=8.4208582639694196 14.278846621513365 10.251479625701906 7.3224854469299308 7.3224854469299308 8.7869825363159233 10.617603898048399 9.885355353355413 7.6886097192764309 10.617603898048399 7.6886097192764309 10.983728170394899 7.3224854469299308 13.546598076820372 7.6886097192764273 8.0547339916229266 8.4208582639694196 7.6886097192764273 8.054733991622923 7.3224854469299308 8.4208582639694196
leaf_count=23 39 28 20 20 24 29 27 21 29 21 30 20 37 21 22 23 21 22 20 23
internal_value=-0.860201 -0.838316 -0.865156 -0.871993 -0.869134 -0.84689 -0.877213 -0.849696 -0.860478 -0.83858 -0.888547 -0.82797 -0.861746 -0.846851 -0.820432 -0.871423 -0.895952 -0.902805 -0.891967 -0.855904
internal_weight=190.385 35.1479 155.237 107.641 100.318 26.7271 73.591 47.5962 20.8691 31.4867 42.4704 16.1095 31.1206 17.574 15.3772 16.1095 34.0496 26.3609 15.3772 16.1095
internal_count=520 96 424 294 274 73 201 130 57 86 116 44 85 48 42 44 93 72 42 44
is_linear=0
shrinkage=1


Tree=1
num_leaves=15
num_cat=0
split_feature=30 9 21 21 28 21 22 28 6 15 3 2 2 2
split_gain=25.5123 10.0005 10.3232 18.2678 5.448 5.38114 3.95443 2.59407 4.45784 0.725139 4.06708 1.77636e-15 8.88178e-16 8.88178e-16
threshold=0.024358478037879636 0.020972801969172956 48.788302253864089 51.268634818655521 -0.58052144262259131 54.772728223307432 0.24071884857225814 -0.72215752364274366 -0.02265204647238633 0.032867596338442627 0.070065409766712092 -0.0033936728708721933 0.13178744708280349 0.028989535633744529
decision_type=2 2 2 2 2 2 2 2 2 2 2 2 2 2
left_child=1 2 -1 -4 6 -5 7 8 -2 11 -11 -6 -12 -13
right_child=4 -3 3 5 9 -7 -8 -9 -10 10 12 13 -14 -15
leaf_value=-2.4741756742161698 -2.49170861322709 -2.5060537451451155 -2.2650555289222853 -2.4538896290795678 -2.5060537451451155 -2.3626024259648597 -2.4138350399578083 -2.5060537451451155 -2.4035885171592186 -2.4398454439849973 -2.5060537451451155 -2.5060537451451155 -2.5060537451451155 -2.5060537451451155
leaf_weight=3.1369526088237754 3.4855028986930838 2.4398520290851584 2.9045857489109022 3.8340531885623932 11.618342995643614 2.7884023189544678 3.2531360387802115 4.4149703383445731 2.4398520290851593 3.0207691788673392 6.1577217876911146 4.298786908388144 3.8340531885623932 2.7884023189544678
leaf_count=27 30 21 25 33 100 24 28 38 21 26 53 37 33 24
internal_value=-2.46964 -2.41336 -2.3955 -2.3696 -2.4884 -2.41545 -2.46191 -2.47704 -2.45542 -2.49975 -2.49068 -2.50605 -2.50605 -2.50605
internal_weight=60.4154 15.1038 12.664 9.52704 45.3115 6.62246 13.5935 10.3403 5.92535 31.7181 13.0125 18.7055 9.99177 7.08719
internal_count=520 130 109 82 390 57 117 89 51 273 112 161 86 61
is_linear=0
shrinkage=1


Tree=2
num_leaves=20
num_cat=0
split_feature=21 25 22 14 26 17 11 30 25 21 23 14 21 31 31 5 20 33 0
split_gain=6.93563 7.09458 7.57691 10.4711 5.06392 7.20774 7.00166 5.78944 4.83882 4.79469 4.75139 4.23687 4.16887 3.49548 5.2279 3.48027 2.00344 1.43086 0.674724
threshold=67.108262676478276 0.44962176070096044 1.8857752944583674 0.00083582364080362834 59.050000000000004 1.1875136208749526 0.1435939126278892 0.05272350738380218 0.25834638203515409 52.913341466018615 0.068961199139075224 0.002299256423709168 59.206061916565538 0.01955277142486048 0.050272855581414942 0.11815489846831299 0.0092656317647273872 2.5000000000000004 -1.0000000180025095e-35
decision_type=2 2 2 2 2 2 2 2 2 2 2 2 2 2 2 2 2 2 2
left_child=1 2 3 10 -3 7 -7 9 -5 -6 -1 -4 15 18 -15 -9 -11 -8 -2
right_child=13 4 11 8 5 6 17 12 -10 16 -12 -13 -14 14 -16 -17 -18 -19 -20
leaf_value=-0.70392090077019953 -0.680952501187711 -0.75279746387757629 -0.69752207977214553 -0.70977652813514192 -0.71873922308148241 -0.7028624491765364 -0.76850945780090008 -0.73187364513011954 -0.75325031583275981 -0.65427952102740172 -0.65427952102740172 -0.65473939999568287 -0.75430319662856149 -0.73429846150832945 -0.67828520317168006 -0.68539799788109579 -0.68895439523580371 -0.74197704670599429 -0.65999515963318223
leaf_weight=13.496804952621462 7.4982249736785889 11.622248709201811 12.372071206569673 11.622248709201815 8.9978699684143084 10.497514963150026 8.622958719730379 8.2480474710464531 14.246627449989317 7.4982249736785915 7.498224973678588 10.872426211833952 7.498224973678588 7.4982249736785915 9.3727812170982343 7.8731362223625174 9.3727812170982343 12.37207120656967 7.8731362223625165
leaf_count=36 20 31 33 31 24 28 23 22 38 20 20 29 20 20 25 21 25 33 21
internal_value=-0.708651 -0.712849 -0.70085 -0.712427 -0.721934 -0.717504 -0.736204 -0.705605 -0.733719 -0.689264 -0.686192 -0.677511 -0.723502 -0.687466 -0.70318 -0.709176 -0.673543 -0.752874 -0.670218
internal_weight=194.954 162.711 70.1084 46.8639 92.6031 80.9808 31.4925 49.4883 25.8689 25.8689 20.995 23.2445 23.6194 32.2424 16.871 16.1212 16.871 20.995 15.3714
internal_count=520 434 187 125 247 216 84 132 69 69 56 62 63 86 45 43 45 56 41
is_linear=0
shrinkage=1


Tree=3
num_leaves=18
num_cat=0
split_feature=31 31 23 0 2 22 3 25 10 21 22 8 34 11 31 1 5
split_gain=7.45545 9.05342 5.63626 6.91578 5.36339 4.10137 3.92042 3.82254 5.14005 3.7908 3.653 4.42874 3.96259 3.34474 3.11857 1.92019 1.16936
threshold=0.024519301195323768 0.049116819505496831 0.080172029983807805 -0.049030554995738745 -0.020956036042704591 1.1245644420431549 0.048756806546576874 0.45533740784850102 -0.064759039664995313 70.052178436265365 14.73902101319071 0.17883902163537002 15.500000000000002 -0.0023103742002200311 0.0006335532501914366 -0.0091242184112091933 -0.15580006771788665
decision_type=2 2 2 2 2 2 2 2 2 2 2 2 2 2 2 2 2
left_child=2 -2 7 -4 16 -3 -6 8 -1 10 11 13 14 -9 -13 -10 -5
right_child=1 5 3 4 6 -7 -8 9 15 -11 -12 12 -14 -15 -16 -17 -18
leaf_value=0.0027554512888706877 0.051202633941175406 -0.02295447798858077 -0.026224214092238171 0.02968251211243568 -0.019186102886354115 0.021390989468700883 0.029871773654857943 -0.0084507941122386101 -0.051930129347418197 -0.027751185088697006 0.028393183834151986 -0.051201812371767033 0.0065965281933070526 0.034581836595741371 -0.011970615959860074 -0.02408754242553204 0.057528834504467254
leaf_weight=12.427210569381712 14.42482268810272 10.211892634630205 9.5092037320137006 7.3565685749053955 9.129915803670885 10.653434783220289 7.3517101407051078 8.064691513776781 11.232856601476669 13.803980946540831 10.312433481216429 8.733808249235155 13.178649455308912 10.26043179631233 12.060984611511229 13.800453513860703 7.7331999242305773
leaf_count=34 39 28 26 20 25 29 20 22 31 38 28 24 36 28 33 38 21
internal_value=3.40291e-06 0.0207443 -0.00472018 0.0111564 0.0224154 -0.000312535 0.0026964 -0.0104477 -0.0235314 -0.00403368 0.00119537 -0.0041676 -0.0148537 0.0156436 -0.0284477 -0.036581 0.0439532
internal_weight=190.246 35.2902 154.956 41.0806 31.5714 20.8653 16.4816 113.876 37.4605 76.415 62.611 52.2986 33.9734 18.3251 20.7948 25.0333 15.0898
internal_count=520 96 424 112 86 57 45 312 103 209 171 143 93 50 57 69 41
is_linear=0
shrinkage=0.05


Tree=4
num_leaves=21
num_cat=0
split_feature=30 16 21 21 13 11 1 6 33 5 13 5 23 26 3 15 14 25 21 16
split_gain=22.7776 8.64399 8.27508 12.1778 6.15851 5.0315 5.52204 2.65335 1.22654 2.12667 0.672753 0.930291 1.11498e-05 6.71629e-06 4.16104e-06 1.98455e-05 3.04179e-06 1.73389e-06 1.70704e-06 6.19334e-07
threshold=0.024358478037879636 0.031801631806496075 48.788302253864089 51.268634818655521 0.0013058182788194875 0.14460136156677819 0.0045914167760738233 0.061249213146713992 5.5000000000000009 0.10533996863616422 -0.0012019754828245055 -0.010592706381958078 0.054113806724104825 73.850000000000009 0.062056738117786468 0.029998162619263437 0.0024443164325207087 0.27320667789256176 74.975285545949831 0.13015839165540563
decision_type=2 2 2 2 2 2 2 2 2 2 2 2 2 2 2 2 2 2 2 2
left_child=1 2 -1 -4 -5 6 7 12 10 -10 11 -7 -2 -12 15 16 -15 -18 19 -16
right_child=5 -3 3 4 -6 8 -8 -9 9 -11 13 -13 -14 14 18 -17 17 -19 -20 -21
leaf_value=-0.0044835023548083462 -0.036372791649132152 -0.036348001049439568 0.16472802846756759 -0.0035578192904332862 0.091459646819986362 -0.036319020617741088 0.053426667401569594 0.027528273163333089 -0.036318977843622272 0.02996984838759828 -0.036401210394438652 0.0074018908997068623 -0.036519078365872315 -0.036340553091561464 -0.036287817782613592 -0.036462213013416699 -0.036245017333983248 -0.036299275798285471 -0.036258098590999731 -0.03632364392015279
leaf_weight=3.1322037428617469 2.8702613711357099 2.3918770402669898 3.4671552777290326 3.0279544666409492 3.9041129425168037 2.6020819991827011 4.450392059981823 2.3443137630820274 2.6004443615674964 2.2627154588699341 2.4251357316970887 2.285225696861743 2.3848289549350739 3.1858263462781924 2.5797490552067739 2.3505931571125975 2.2160813584923744 4.3876315876841545 3.3368458077311516 2.2658879980444908
leaf_count=27 25 21 25 25 32 23 38 20 23 20 21 20 20 28 23 20 20 39 30 20
internal_value=-5.31697e-05 0.0512739 0.0667624 0.0882214 0.0499556 -0.0183996 0.00919628 -0.0167061 -0.0286317 -0.00547632 -0.0327065 -0.0158758 -0.0364392 -0.0363226 -0.0363132 -0.0363318 -0.0363004 -0.0362811 -0.0362856 -0.0363046
internal_weight=60.4713 15.9233 13.5314 10.3992 6.93207 44.548 12.0498 7.5994 32.4982 4.86316 27.6351 4.88731 5.25509 22.7478 20.3226 12.1401 9.78954 6.60371 8.18248 4.84564
internal_count=520 130 109 82 57 390 103 65 287 43 244 43 45 201 180 107 87 59 73 43
is_linear=0
shrinkage=0.05


Tree=5
num_leaves=21
num_cat=0
split_feature=21 3 11 0 15 3 6 27 25 21 23 20 10 23 22 4 33 30 22 0
split_gain=6.2881 6.48834 6.03866 4.08768 3.44904 3.43834 4.21171 5.15343 4.713 5.69487 4.36505 3.30416 3.1833 2.90097 2.62959 2.44361 2.27974 2.24683 2.24221 0.888513
threshold=67.108262676478276 -0.0099650368860333214 0.16578932886027567 -0.030107748783834657 -0.028003873730084609 -0.0061023411100677655 -0.054931792400850755 0.72197878314615782 0.782661474411669 54.454765080946665 0.04127631203352445 -0.4466624653205592 0.24459125028552828 0.074631404558158559 0.2296652453292117 0.0043628698759593095 3.5000000000000004 0.072764974566252166 1.195120909335224 0.0027344666382992165
decision_type=2 2 2 2 2 2 2 2 2 2 2 2 2 2 2 2 2 2 2 2
left_child=1 2 4 -3 -1 -5 7 -7 9 10 -8 -4 -2 -14 -6 -12 -10 -13 -19 -11
right_child=12 3 11 5 14 6 8 -9 16 19 15 17 13 -15 -16 -17 -18 18 -20 -21
leaf_value=0.054040620819252143 0.037848843777995252 0.017202616632026768 0.019243543798684447 -0.046834260298476718 -0.0056686127881916291 -0.015164657560070917 0.0033832026259377384 0.040971176445888845 -0.020072383774057193 0.027368527376124337 -0.021596600936976948 0.0073765814915153884 -0.011502902457637383 0.028971519433536205 0.03342010667806531 -0.057700819041504814 -0.054398728176372063 -0.044926644873332838 -0.0085438407447151459 0.0038289245852264017
leaf_weight=8.2463886737823504 14.241773456335066 10.86457324028015 10.49452295899391 7.8704237937927237 8.2466064393520373 8.9929731786251086 10.866842627525331 7.496543586254119 8.9842317700386065 7.4953311383724239 11.607402682304384 8.2424592375755328 10.117669045925142 7.8713378906249991 8.9961455762386304 7.8601770699024192 10.478225022554396 7.4926719963550594 9.7389911711215955 8.617723345756529
leaf_count=22 38 29 28 21 22 24 29 20 24 20 31 22 27 21 24 21 28 20 26 23
internal_value=1.31802e-05 -0.00398622 0.0088267 -0.0117724 0.0274448 -0.0152598 -0.0122439 0.0103561 -0.017898 -0.00924316 -0.0220032 -0.00436703 0.0201887 0.00620724 0.0147253 -0.0361739 -0.038553 -0.0140938 -0.0243638 0.0147789
internal_weight=194.823 162.592 61.4578 101.134 25.4891 90.2699 82.3995 16.4895 65.9099 46.4475 30.3344 35.9686 32.2308 17.989 17.2428 19.4676 19.4625 25.4741 17.2317 16.1131
internal_count=520 434 164 270 68 241 220 44 176 124 81 96 86 48 46 52 52 68 46 43
is_linear=0
shrinkage=0.05


Tree=6
num_leaves=21
num_cat=0
split_feature=31 31 14 21 1 32 3 8 22 17 9 21 27 15 9 31 17 22 34 7
split_gain=6.76378 8.15111 5.62464 4.19459 6.34024 5.79561 4.82659 4.19131 3.79819 3.28706 3.22392 3.07383 3.02267 4.19191 3.00992 3.00701 2.72475 2.1746 1.36804 1.22633
threshold=0.024519301195323768 0.049116819505496831 0.0027128128898466363 67.108262676478276 0.021151366429939939 0.00087400221584476472 0.0017312837627728578 11.837211563527424 1.1245644420431549 0.6059921217337384 -0.0049145302493203502 53.302877339786839 0.70449152464390086 0.006800800592893297 0.0083734555290968151 -0.014547770110594004 -0.42252195724756886 1.106555448250842 18.500000000000004 0.2706947435120835
decision_type=2 2 2 2 2 2 2 2 2 2 2 2 2 2 2 2 2 2 2 2
left_child=2 -2 3 4 6 -6 10 9 -3 16 15 -12 14 -14 -8 -1 -4 -9 -11 -17
right_child=1 8 7 -5 5 -7 12 17 -10 18 11 -13 13 -15 -16 19 -18 -19 -20 -21
leaf_value=-0.012365313709905486 0.048487508382535002 -0.022187701305182314 0.014773495057299042 -0.047867451248639503 0.047617106691603094 -0.011772509368286751 0.038570334598980051 -0.030386012597952067 0.020508243999953407 -0.010857305705781969 0.011129006612248405 -0.027682199742412896 -0.042797078211866235 0.0095642063582649095 -0.0030746290433498118 -0.055673908198698101 0.056707022411045915 0.006448613135982658 0.018356434611261543 -0.029943092819142869
leaf_weight=10.420089095830919 14.523571878671644 10.162165611982347 7.3912271559238425 7.1504932641983023 8.8574210405349749 7.6607963740825644 7.7164584696292904 7.6186787784099606 10.686509519815443 7.6250870525836971 10.210314840078356 10.196051359176634 7.2526772618293753 8.0815571844577772 9.9122900366783124 11.881218165159227 8.1403431892395037 8.4520496129989606 8.4465451538562757 7.5880492627620688
leaf_count=29 39 28 20 20 24 21 21 21 29 21 28 28 20 22 27 33 22 23 23 21
internal_value=6.17405e-06 0.0197301 -0.00450659 -0.0108746 -0.00822356 0.0200735 -0.0138376 0.00977625 -0.000302827 0.0203482 -0.0235835 -0.00826303 0.00103298 -0.0152013 0.0151542 -0.0340433 0.0367515 -0.0110136 0.00449616 -0.0456455
internal_weight=189.974 35.3722 154.601 106.927 99.7769 16.5182 83.2587 47.6739 20.8487 31.6032 50.2957 20.4064 32.963 15.3342 17.6287 29.8894 15.5316 16.0707 16.0716 19.4693
internal_count=520 96 424 294 274 45 229 130 57 86 139 56 90 42 48 83 42 44 44 54
is_linear=0
shrinkage=0.05


Tree=7
num_leaves=22
num_cat=0
split_feature=30 16 19 14 28 23 1 23 26 28 15 15 28 4 3 5 13 26 13 13 25
split_gain=20.3888 7.46341 6.83003 7.62776 5.13471 4.27462 8.15644 4.08757 3.87748 1.69795 0.749909 4.07848 1.64735e-05 9.67653e-06 7.82194e-06 4.68908e-06 3.44762e-06 2.29681e-06 2.19707e-06 1.58603e-06 1.18105e-06
threshold=0.024358478037879636 0.031801631806496075 -0.0050932673413856483 0.0024269428939895084 -0.58052144262259131 0.062082576507892138 -0.0061965696671220814 0.032013463766731295 1311.9500000000003 -0.72974830064414065 0.032867596338442627 0.058014536391613809 -0.66301552404463793 -0.064172243240855339 0.090706089237958254 0.01139228512423931 0.0019622897062324209 818.55000000000007 0.0062769398568854051 0.0036192762688767263 0.9910991499145424
decision_type=2 2 2 2 2 2 2 2 2 2 2 2 2 2 2 2 2 2 2 2 2
left_child=1 2 -1 7 5 9 -7 -4 -5 -2 13 -12 -11 19 -13 17 -17 -15 -16 -6 -20
right_child=4 -3 3 8 10 6 -8 -9 -10 12 11 14 -14 15 18 16 -18 -19 20 -21 -22
leaf_value=-0.015913934061428159 0.011317807167518337 -0.036246271846636327 0.072318959493839513 0.076091473487603214 -0.036193023012831248 -0.019548871047767084 0.097749487100262933 0.15611124219869776 -0.0036676125015238123 -0.036412795786398028 0.030911164392104853 -0.03629946872851398 -0.036224069036362029 -0.036242775327765445 -0.036234387549144736 -0.036308073316621885 -0.036228451472923494 -0.036176746371002273 -0.036201719925846629 -0.036143420582868686 -0.036149552821247634
leaf_weight=2.4382007345557239 3.1409977003931999 2.3229397088289252 2.7453754022717458 3.0927519127726555 2.6182648465037373 2.9525959938764572 2.9756071120500565 3.0976611226797104 3.0037620440125465 2.3172582164406776 2.9727467224001876 2.5844314098358137 2.3078504577279073 2.323366582393648 2.539056695997715 2.931476779282093 2.5354152843356133 3.0406882539391518 2.186254009604454 4.1913557574152946 2.1538291051983833
leaf_count=21 27 21 21 23 24 25 24 21 23 20 26 23 21 21 23 26 23 28 20 39 20
internal_value=-9.13834e-05 0.0469105 0.0603458 0.0759189 -0.0180247 0.00735457 0.039328 0.116741 0.036794 -0.0170521 -0.0295802 -0.0201772 -0.0363186 -0.0362092 -0.0362253 -0.0362386 -0.0362711 -0.0362053 -0.0361974 -0.0361625 -0.0361758
internal_weight=60.4719 16.7007 14.3778 11.9396 43.7712 13.6943 5.9282 5.84304 6.09651 7.76611 30.0769 12.4363 4.62511 17.6406 9.46357 10.8309 5.46689 5.36405 6.87914 6.80962 4.34008
internal_count=520 130 109 88 390 117 49 42 46 68 273 112 41 161 86 98 49 49 63 63 40
is_linear=0
shrinkage=0.05


Tree=8
num_leaves=21
num_cat=0
split_feature=21 3 13 35 11 1 17 24 23 8 7 31 10 31 31 2 35 31 11 27
split_gain=5.65418 5.8565 4.79399 3.95947 4.87476 6.56652 6.04777 5.17902 4.77711 4.20005 4.26314 3.85053 3.52115 2.88972 4.60066 2.57757 4.60366 2.05764 1.95727 0.632434
threshold=67.108262676478276 0.0011793313550091673 -0.0010324419185606375 27.500000000000004 1.2269272632965948 0.01213768555797127 0.12084953688494872 0.078844658023065742 0.0473933037229873 0.15229651721961324 0.53667554878072465 -0.010441367113704565 -0.061727824783598416 0.01955277142486048 0.050272855581414942 0.012197082234477385 8.5000000000000018 0.0043312491486311054 0.19625996228810319 1.127306058911292
decision_type=2 2 2 2 2 2 2 2 2 2 2 2 2 2 2 2 2 2 2 2
left_child=1 3 12 4 5 7 -7 -1 -9 -10 -11 -4 -3 19 -15 17 -17 -13 -18 -2
right_child=13 2 11 -5 -6 6 -8 8 9 10 -12 15 -14 14 -16 16 18 -19 -20 -21
leaf_value=-0.0028239403071220752 0.044774972961805382 -0.013020051446906034 0.0050922634941230642 -0.024664117375521419 -0.027088493707476426 -0.045396642034084847 0.015269323836583519 0.065290856529723759 0.052440724033843901 -0.01086226294538398 0.036842757388765461 -0.022966584387770415 0.032183426428539628 -0.024364313333014077 0.028219605076454508 0.014808381821908679 -0.049901899051327574 -0.054402343300243197 -0.01726844180033358 0.024466097229288129
leaf_weight=14.226943761110304 7.8551833331584913 8.6123522222042102 11.977062940597532 9.7348590195178968 8.222585052251814 7.8578055202960995 8.6090027689933759 8.6117264330387098 8.2307795882225054 10.858235806226732 8.2349497973918897 9.7216953039169329 8.6198719441890699 7.4818618893623379 9.3677173554897291 8.2266312241554278 7.4675664901733425 11.205468565225599 11.943803101778029 7.4872294664382935
leaf_count=38 21 23 32 26 22 21 23 23 22 29 22 26 23 20 25 22 20 30 32 20
internal_value=2.23755e-05 -0.00377312 -0.0136764 0.00533261 0.00923382 0.0137163 -0.0136799 0.0227096 0.0328183 0.0225839 0.00971306 -0.0202992 0.00959155 0.0191651 0.00487032 -0.0265612 -0.0165379 -0.0397989 -0.0298226 0.0348641
internal_weight=194.553 162.361 77.7745 84.5869 74.852 66.6294 16.4668 50.1626 35.9357 27.324 19.0932 60.5422 17.2322 32.192 16.8496 48.5652 27.638 20.9272 19.4114 15.3424
internal_count=520 434 208 226 200 178 44 134 96 73 51 162 46 86 45 130 74 56 52 41
is_linear=0
shrinkage=0.05


Tree=9
num_leaves=21
num_cat=0
split_feature=11 1 21 25 16 26 10 21 1 20 31 15 15 20 4 25 31 25 4 27
split_gain=6.33892 6.03914 4.08211 6.00101 5.20955 3.69039 4.33885 3.33475 4.09024 2.61269 2.47479 2.46236 3.13072 3.18396 3.02602 2.42836 2.30361 1.67504 1.0729 0.836084
threshold=0.16578932886027567 0.020708498148465312 45.849580011232547 0.3871414872102516 -0.10951694006873418 75.175000000000011 0.01814793141226867 67.108262676478276 0.015451393330293774 0.0052456774075900362 0.051731701672326207 0.043910887503113394 0.015163056204649987 -0.022509124292588011 -0.0059465437803545894 0.41367461689743706 0.0043312491486311054 0.82833259134942983 0.018010503010305733 0.68410362826181104
decision_type=2 2 2 2 2 2 2 2 2 2 2 2 2 2 2 2 2 2 2 2
left_child=1 5 4 -4 -2 9 19 11 -9 15 -10 12 13 14 -5 -1 -14 -13 -8 -7
right_child=2 -3 3 7 -6 6 18 8 10 -11 -12 17 16 -15 -16 -17 -18 -19 -20 -21
leaf_value=-0.029262595850971292 0.0052286974313860164 0.019208435298731494 -0.034885999486210309 -0.010488649588544287 0.057664341029717792 -0.033461794891701147 0.0049891460593482458 -0.033911198991360025 0.021599319802828892 0.018732598011822404 -0.014337731791723832 0.048665992525867507 -0.029860836614233624 0.044990507373311152 0.030929106683666781 0.0070806958004379682 0.0074434277550187306 0.014951546157029103 -0.022197121451111069 -0.054524389020660313
leaf_weight=11.456618756055837 10.722007602453234 13.26053002476692 9.3621077239513379 10.284331172704695 8.4856544435024244 8.6764513850212115 7.2668063938617689 9.303700119256975 11.285864830017092 8.4264895021915418 8.3240115940570814 7.3783803284168226 7.2743887305259731 8.1171746253967303 7.7206827402114895 7.6756548285484305 9.5995821654796583 7.3581110835075378 7.2496176660060883 10.310466945171354
leaf_count=32 29 36 26 28 23 24 20 26 31 23 23 20 20 22 21 21 26 20 20 29
internal_value=8.63965e-06 -0.0113761 0.00735264 0.00314306 0.028394 -0.018018 -0.0291663 0.00725209 -0.00660866 -0.00446505 0.00634474 0.0141938 0.00814853 0.0189923 0.00727159 -0.0146821 -0.00863848 0.031832 -0.00858789 -0.0448994
internal_weight=189.539 74.3226 115.216 96.0083 19.2077 61.0621 33.5033 86.6462 28.9136 27.5588 19.6099 57.7327 42.9962 26.1222 18.005 19.1323 16.874 14.7365 14.5164 18.9869
internal_count=520 205 315 263 52 169 93 237 80 76 54 157 117 71 49 53 46 40 40 53
is_linear=0
shrinkage=0.05


Tree=10
num_leaves=21
num_cat=0
split_feature=30 32 31 6 32 28 6 24 24 4 9 5 17 26 26 9 32 14 31 5
split_gain=18.4368 9.67374 6.5105 6.30009 9.00831 4.7045 4.86395 2.30429 0.981282 1.46335 3.61036 1.1707 0.392409 7.92596e-05 4.9449e-05 6.13621e-06 5.73024e-06 5.42491e-06 4.11544e-06 3.9573e-06
threshold=0.026436590544731537 0.0026149259315844972 0.0080204523682045926 0.054755321518373735 -0.00036109287941822631 -0.72215752364274366 -0.02265204647238633 0.083173396442710115 0.39336310290285298 0.13253459185228525 0.11739094934787342 -0.13039555630062735 9.1364745285380895 72.075000000000017 564.30000000000007 0.046457946436022059 -0.0034192785884397657 0.0024844991636407436 0.027977215164535944 0.28963544603654695
decision_type=2 2 2 2 2 2 2 2 2 2 2 2 2 2 2 2 2 2 2 2
left_child=1 2 3 7 -5 6 -2 -1 9 11 -11 -7 13 -13 -10 17 -16 -15 19 -18
right_child=5 -3 -4 4 -6 8 -8 -9 14 10 -12 12 -14 15 16 -17 18 -19 -20 -21
leaf_value=0.029188848496576165 -0.020634022016331771 0.1270788025757939 -0.036772124694205439 0.13440303252616473 0.025938515971219697 0.005570761120742695 0.069549784958562955 -0.036271036004905839 -0.036337471513344606 0.050079241015129707 -0.036126596629894404 -0.036431280138728102 -0.012906236139681164 -0.036170001353904656 -0.036159654404420281 -0.036221010372065425 -0.036062681887777101 -0.036064652331239053 -0.036029084159981455 -0.036143501425338946
leaf_weight=2.9884297326207214 3.1827746853232384 2.7368357479572287 3.3401908650994292 3.203213438391689 4.7573735564947093 2.3926638364791861 2.8196208849549285 2.4437626823782921 2.3723005428910247 2.3119586929678908 2.5587675720453262 3.9359232410788554 2.1508285850286475 2.5984216183423996 2.2627616450190535 2.1966409906744957 3.6703026890754682 2.306907445192337 3.6280454397201538 2.5788455605506897
leaf_count=20 28 20 27 23 36 22 22 22 21 20 24 34 20 24 21 20 35 22 35 24
internal_value=-0.000126165 0.0399326 0.025679 0.0412545 0.0695829 -0.0191644 0.0217298 -0.000259376 -0.0261848 -0.0191289 0.00479222 -0.0266066 -0.0324442 -0.0362513 -0.0361287 -0.0361516 -0.0360879 -0.0361205 -0.0360714 -0.036096
internal_weight=60.4366 19.4698 16.733 13.3928 7.96059 40.9668 6.0024 5.43219 34.9644 20.4521 4.87073 15.5814 13.1887 11.0379 14.5123 7.10197 12.14 4.90533 9.87719 6.24915
internal_count=520 148 128 101 59 372 50 42 322 186 44 142 120 100 136 66 115 46 94 59
is_linear=0
shrinkage=0.05


Tree=11
num_leaves=21
num_cat=0
split_feature=26 28 28 11 18 10 34 25 6 34 20 25 11 11 32 30 0 4 11 30
split_gain=4.95995 3.9478 3.92208 5.38914 7.39965 3.91745 3.81442 3.69259 3.64084 4.53284 4.44152 8.33341 3.43714 3.0987 2.29602 3.49743 2.53255 2.20984 1.56492 0.983185
threshold=59.050000000000004 -0.73620453231230554 -0.67529845999172788 0.16578932886027567 1.7821666644732932 0.11338316949664302 26.500000000000004 0.40331468685677174 -0.058034000689534862 10.500000000000002 -0.4466624653205592 0.39715915359199405 0.270228154782504 0.41830360789061694 -1.0000000180025095e-35 0.10959993017215283 0.011502871785892705 0.011376590822983352 0.34435962034241557 0.029066097489480906
decision_type=2 2 2 2 2 2 2 2 2 2 2 2 2 2 2 2 2 2 2 2
left_child=7 -2 -3 4 17 6 8 -1 9 -5 11 -10 -12 18 -15 16 -16 -4 -7 -9
right_child=1 2 3 5 -6 13 -8 19 10 -11 12 -13 -14 14 15 -17 -18 -19 -20 -21
leaf_value=0.0054855297163100463 0.038523559322394686 -0.027725936818051397 0.050212505210023253 -0.012701640347943391 -0.0074960112898537698 0.011149003711378568 -0.040651259519415998 -0.048485640963670348 0.044619620342932369 0.041665840038328711 -0.0011840088867601289 -0.030082517936811777 -0.042247752982642099 -0.015482623259652059 0.015310578176741065 0.033903440428083978 -0.024883777456723696 0.017147576956859919 0.043543931660835838 -0.023087159770915921
leaf_weight=8.2241933047771472 7.4763236641883841 10.816447138786314 14.185999423265459 7.482446223497389 14.565346479415892 7.4499731957912427 8.9516704082488996 7.8020867109298688 7.481622874736777 7.862229198217392 7.8435310423374274 7.4517636895179749 14.54698210954666 14.192269384860991 7.856040686368944 9.3459515869617444 7.81976518034935 7.8491351604461661 7.4621183276176453 7.4473881125450134
leaf_count=22 20 29 38 20 39 20 24 21 20 21 21 20 39 38 21 25 21 21 20 20
internal_value=3.08452e-05 0.00299521 0.00136726 0.00343285 0.0201562 -0.00185529 -0.0104763 -0.0215183 -0.00534774 0.0151549 -0.0137768 0.00734323 -0.0278629 0.0079594 0.000581975 0.00969377 -0.00474009 0.0384344 0.0273597 -0.0360818
internal_weight=194.113 170.64 163.163 152.347 36.6005 115.746 61.6202 23.4737 52.6686 15.3447 37.3239 14.9334 22.3905 54.1261 39.214 25.0218 15.6758 22.0351 14.9121 15.2495
internal_count=520 457 437 408 98 310 165 63 141 41 100 40 60 145 105 67 42 59 40 41
is_linear=0
shrinkage=0.05


Tree=12
num_leaves=19
num_cat=0
split_feature=31 31 14 8 21 1 32 22 2 2 35 11 0 22 17 13 22 32
split_gain=5.79797 7.05555 4.70667 3.93784 3.83055 5.35654 5.23763 3.49273 3.34321 6.00454 3.31519 2.98671 2.93147 3.59383 2.82636 2.43511 1.9503 1.54443
threshold=0.024519301195323768 0.049116819505496831 0.0027128128898466363 11.837211563527424 67.108262676478276 0.021151366429939939 0.00087400221584476472 1.1245644420431549 -0.0041204108800903085 0.0058342872344682379 18.500000000000004 0.15701363249727449 -0.0097005885714884759 1.1666235444652664 0.13428644050395436 -0.0014998686919290404 1.106555448250842 -0.0006406641092089367
decision_type=2 2 2 2 2 2 2 2 2 2 2 2 2 2 2 2 2 2
left_child=2 -2 4 12 5 8 -7 -3 11 -10 14 15 13 -4 -11 -1 -5 -17
right_child=1 7 3 16 -6 6 -8 -9 9 10 -12 -13 -14 -15 -16 17 -18 -19
leaf_value=-0.0068397303823467736 0.04490135031561264 -0.021529150867674134 0.033860383631503933 -0.0297587567311236 -0.045836069572638194 0.044431549839777859 -0.011951914382426494 0.019454532241617476 0.023565891699703492 -0.046141399123983969 0.0065611162123808495 -0.0021094224157860884 0.038924986562040249 -0.0096439815873599812 -0.0061119930797551084 -0.022402137049188878 0.0051534130379192744 -0.050712831803616035
leaf_weight=7.1711453795433071 14.595716714859007 10.103702276945116 7.8077366054058137 7.5742433369159725 6.9898904263973227 8.9212612211704272 7.65127009153366 10.708086133003233 14.187338292598723 10.397377669811254 10.141270190477369 11.89663106203079 11.72069990634918 12.11014088988304 7.6573065519332877 7.4978072345256832 8.4776584208011609 13.474944472312925
leaf_count=20 39 28 21 21 20 24 21 29 39 29 28 33 32 33 21 21 23 38
internal_value=8.85389e-06 0.0182494 -0.0041938 0.00885082 -0.0100635 -0.00753766 0.0184002 -0.000442217 -0.0127529 -0.00296522 -0.0163149 -0.0231132 0.0190846 0.00740957 -0.0291642 -0.0319916 -0.0113202 -0.0405917
internal_weight=189.084 35.4075 153.677 47.6905 105.986 98.9964 16.5725 20.8118 82.4238 42.3833 28.196 40.0405 31.6386 19.9179 18.0547 28.1439 16.0519 20.9728
internal_count=520 96 424 130 294 274 45 57 229 117 78 112 86 54 50 79 44 59
is_linear=0
shrinkage=0.05


Tree=13
num_leaves=21
num_cat=0
split_feature=24 6 27 19 24 35 14 2 23 0 24 32 22 6 11 24 6 27 2 34
split_gain=17.3059 6.83467 7.03438 7.66019 6.86094 5.81587 5.29801 3.97684 1.13954 0.673631 0.532917 1.16241 0.327385 0.271628 0.000124306 3.53381e-05 1.93773e-05 5.05932e-06 4.50227e-06 2.53679e-06
threshold=0.14969588899118783 -0.065412516788156433 1.0534834162488778 1.0000000180025095e-35 0.056193817390199519 23.500000000000004 0.002544727115111211 0.0058342872344682379 0.038807096260308815 -0.049030554995738745 0.27871352323955872 -0.00013518939842290084 12.516970118595388 -0.15098488976796232 0.19858425899278748 0.40981907212123359 0.48823453073361944 1.391484669158163 -0.022255816773254809 15.500000000000002
decision_type=2 2 2 2 2 2 2 2 2 2 2 2 2 2 2 2 2 2 2 2
left_child=1 13 3 -3 -4 6 7 -5 -2 -10 11 -11 -6 -1 -12 16 -16 18 -17 -20
right_child=8 2 4 5 12 -7 -8 -9 9 10 14 -13 -14 -15 15 17 -18 -19 19 -21
leaf_value=-0.012650170165935877 0.0076304519655887651 0.13029028340837553 0.065494736068587606 0.0122660074953656 -0.03655844570358277 0.10470522023142555 -0.036963653611432827 0.08692909938156107 -0.0092636707286164882 0.010392069295082296 -0.036424630378778744 -0.036174280059063299 -0.011929664509828578 -0.036231862027591905 -0.036056203176430011 -0.035941086692280334 -0.036233478969203058 -0.035921481483491086 -0.035989333899739379 -0.036060800124529301
leaf_weight=2.1298170834779739 2.2809086218476322 2.9801638796925571 2.9080756455659849 4.0133778229355794 3.9349602311849594 2.8097778335213652 2.6717052385210991 3.2098874598741531 3.7229016572237077 2.1469620019197464 2.3137194439768818 3.5662043169140807 2.0534517168998718 2.862165346741679 3.9678099304437664 2.3203333765268441 2.5207728147506714 3.004425011575222 2.4572630450129376 2.5101768299937248
leaf_count=20 21 21 20 28 33 19 21 22 35 20 20 33 19 26 38 23 23 30 24 24
internal_value=-0.000153526 0.0271682 0.0380003 0.0581444 0.00248532 0.0412211 0.0231941 0.0454449 -0.0263774 -0.0290962 -0.0320725 -0.018675 -0.0281131 -0.0261708 -0.0360811 -0.0360337 -0.0361251 -0.0359761 -0.0359986 -0.0360254
internal_weight=60.3849 29.5734 24.5814 15.6849 8.89649 12.7047 9.89497 7.22327 30.8115 28.5306 24.8077 5.71317 5.98841 4.99198 19.0945 16.7808 6.48858 10.2922 7.28777 4.96744
internal_count=520 229 183 111 72 90 71 50 291 270 235 53 52 46 182 162 61 101 71 48
is_linear=0
shrinkage=0.05


Tree=14
num_leaves=20
num_cat=0
split_feature=21 25 10 25 14 34 17 8 11 4 25 11 8 10 30 23 20 25 33
split_gain=4.81211 5.00312 5.33337 5.66091 8.05916 3.72969 3.34982 7.42463 5.9108 4.99052 3.16136 3.02296 2.92489 2.64895 2.56601 2.50239 2.11021 1.62879 1.28372
threshold=67.108262676478276 0.44962176070096044 -0.005491552890420478 0.25081709345513781 0.00083582364080362834 9.5000000000000018 1.1875136208749526 0.17883902163537002 0.1435939126278892 0.13253459185228525 0.70557427394366967 0.16578932886027567 11.623763608527266 0.24459125028552828 0.072764974566252166 0.074631404558158559 -0.044820436714910199 0.3871414872102516 2.5000000000000004
decision_type=2 2 2 2 2 2 2 2 2 2 2 2 2 2 2 2 2 2 2
left_child=1 2 3 14 -5 -4 7 10 -8 11 -3 -9 -13 -2 -1 -15 -6 -7 -10
right_child=13 6 5 4 16 17 8 9 18 -11 -12 12 -14 15 -16 -17 -18 -19 -20
leaf_value=0.030521651397280893 0.033925959057175818 -0.044833611200102118 -0.0025165637183660349 0.01810254624893343 -0.061590949284271529 0.055998655265372344 0.0062095175794186323 0.046295632325876745 -0.054754340005371077 -0.021397590149808465 -0.0052002425500516335 -0.0050673656371967111 0.032287507654588363 -0.011496742144632871 -0.003449279492667242 0.026175275400926623 -0.023935807787183506 0.024101956682755443 -0.029495031594668111
leaf_weight=11.917989641427996 14.130174219608305 12.22325572371483 7.803797215223315 8.5801592171192187 7.4326000809669495 7.8021255433559444 10.474714189767839 7.4844100475311306 8.5236184597015399 10.427310943603514 8.5514646470546705 13.42544209957123 8.5952008664607984 10.083415776491167 10.418064087629316 7.8321327269077292 7.4499672055244428 8.2179847657680494 12.272054612636564
leaf_count=32 38 33 21 23 20 21 28 20 23 28 23 36 23 27 28 21 20 22 33
internal_value=3.9229e-05 -0.0034707 0.00664126 -0.00333977 -0.0204912 0.0258286 -0.011125 -0.00427661 -0.0244201 0.00833565 -0.0285194 0.0188436 0.00951316 0.0177391 0.0146768 0.00497232 -0.0427414 0.0396363 -0.0398482
internal_weight=193.646 161.6 69.6227 45.7988 23.4627 23.8239 91.9775 60.7071 31.2704 39.9324 20.7747 29.5051 22.0206 32.0457 22.3361 17.9155 14.8826 16.0201 20.7957
internal_count=520 434 187 123 63 64 247 163 84 107 56 79 59 86 60 48 40 43 56
is_linear=0
shrinkage=0.05


Tree=15
num_leaves=20
num_cat=0
split_feature=31 31 14 21 1 0 35 4 20 14 11 27 0 31 6 26 20 34 20
split_gain=5.33467 6.52263 4.29058 3.52151 4.96323 5.06076 3.15587 3.42599 2.96864 3.56195 4.00209 4.12342 2.88406 2.92458 2.77064 2.74704 2.71492 2.56949 2.52047
threshold=0.024519301195323768 0.049116819505496831 0.0027128128898466363 67.108262676478276 0.01213768555797127 0.001627158595588142 22.500000000000004 0.016194841114924963 0.26140588422790639 0.0071358104500901997 1.1424616415031543 0.72572300095609266 0.0021990453053101727 -0.002130302138958361 0.023123565298138606 1044.3000000000004 0.0033343304726034047 20.500000000000004 0.02326982630141217
decision_type=2 2 2 2 2 2 2 2 2 2 2 2 2 2 2 2 2 2 2
left_child=2 -2 3 4 6 -6 7 12 9 -4 -11 -12 13 17 -8 -3 -7 -1 -9
right_child=1 15 8 -5 5 16 14 18 -10 10 11 -13 -14 -15 -16 -17 -18 -19 -20
leaf_value=-0.048669594955675445 0.043121670325761224 -0.015637417120274159 0.039331758096693197 -0.044321260609373303 0.04104928983351859 -0.023751814767502918 0.024084174061667605 0.019253994293844365 -0.014631023191352023 -0.019217958921891289 -0.0041207695615737821 0.046875139677664046 -0.052981733485294752 0.003916590235627476 -0.013370087929086453 0.021331255794507814 0.015621990523704922 -0.010899757854703119 -0.0207822918588756
leaf_weight=10.155604630708696 14.600846618413923 12.261477589607241 10.789292126893995 6.8516594767570487 9.2472154200077075 9.0323074758052844 8.6374165117740649 7.6970624327659598 10.806735575199125 10.224582552909853 8.0795171558856946 7.781820982694625 9.3937500417232496 8.273414611816408 11.52714830636978 8.5143775343894941 8.4963158965110761 8.0900076925754529 8.0345855355262739
leaf_count=29 39 34 29 20 25 25 24 21 30 28 22 21 27 23 32 23 23 23 22
internal_value=1.18281e-05 0.0175115 -0.00403131 -0.00965985 -0.00725088 0.0111215 -0.0141015 -0.0206512 0.00841477 0.0151686 0.00517461 0.0208986 -0.0291746 -0.0207415 0.00267331 -0.000486886 -0.0046669 -0.0319226 -0.00119364
internal_weight=188.495 35.3767 153.118 105.436 98.5848 26.7758 71.809 51.6444 47.6819 36.8752 26.0859 15.8613 35.9128 26.519 20.1646 20.7759 17.5286 18.2456 15.7316
internal_count=520 96 424 294 274 73 201 145 130 100 71 43 102 75 56 57 48 52 43
is_linear=0
shrinkage=0.05


Tree=16
num_leaves=20
num_cat=0
split_feature=24 30 32 31 6 34 1 8 23 31 24 16 11 23 24 4 3 30 26
split_gain=16.0374 7.37762 4.61228 7.04898 5.4377 4.50141 3.44337 5.36891 1.09844 0.701431 0.537535 1.14737 0.000104917 9.09249e-05 3.69727e-05 1.89423e-05 3.38181e-05 8.03254e-06 2.85026e-06
threshold=0.14969588899118783 0.026804310375231 0.0018115763675148823 0.0080204523682045926 0.054755321518373735 16.500000000000004 -0.0032442245039815435 0.17883902163537002 0.038807096260308815 -0.049513341371583232 0.27871352323955872 0.065239955034938887 0.19858425899278748 0.055588323342214106 0.41421320814158236 0.048438046895064944 0.074078460470352978 0.11352788803997906 818.55000000000007
decision_type=2 2 2 2 2 2 2 2 2 2 2 2 2 2 2 2 2 2 2
left_child=1 2 3 4 -1 -6 13 -8 -2 -10 11 -11 -12 -3 15 -14 -17 18 -16
right_child=8 6 -4 -5 5 -7 7 -9 9 10 12 -13 14 -15 17 16 -18 -19 -20
leaf_value=0.0074016227124323666 0.0070993431359826489 -0.036027779007905401 0.099885001173113011 -0.036761864742080215 0.10951528815677321 0.029763231359692617 0.05149703481177284 -0.036106972292210694 -0.0081529868541419855 -0.036083186631558239 -0.036296280866680991 0.010435431631982187 -0.035892955369813344 -0.036457274342248228 -0.035948807324898607 -0.036206585110569615 -0.035941327415259731 -0.035807281914121664 -0.035876269265102949
leaf_weight=4.4447958245873505 2.3063889667391804 2.7930048629641533 3.2538053989410392 2.8326373100280753 4.3995860815048218 2.9594862908124924 4.512929715216158 2.8556358143687248 3.5786716490984025 3.4709872901439658 2.2333878353238132 2.1444943398237228 2.0820602998137501 2.2052039802074432 2.1207601800560933 2.3949726223945618 2.4114032611250877 3.5594892278313637 3.7467455640435219
leaf_count=32 21 27 20 23 27 20 34 27 34 33 20 20 21 19 21 22 24 37 38
internal_value=-0.00018256 0.025513 0.0460404 0.0340704 0.0510684 0.0774426 -0.00418277 0.0175467 -0.0260558 -0.0288121 -0.0318717 -0.0183182 -0.0359749 -0.0362173 -0.0359309 -0.0360189 -0.0360735 -0.0358665 -0.0359025
internal_weight=60.3064 30.2571 17.8903 14.6365 11.8039 7.35907 12.3668 7.36857 30.0494 27.743 24.1643 5.61548 18.5488 4.99821 16.3154 6.88844 4.80638 9.42699 5.86751
internal_count=520 229 122 102 79 47 107 61 291 270 236 53 183 46 163 67 46 96 59
is_linear=0
shrinkage=0.05


Tree=17
num_leaves=20
num_cat=0
split_feature=21 25 22 14 14 26 17 11 30 21 21 21 5 30 1 0 0 1 1
split_gain=4.4285 4.59996 5.66775 7.11359 3.90765 3.60643 5.47256 5.49021 4.68796 4.13059 3.56261 3.3666 2.96827 2.86949 2.45028 2.31834 1.35706 1.27583 1.14175
threshold=67.108262676478276 0.44962176070096044 1.8857752944583674 0.00070534247775405547 0.002299256423709168 59.050000000000004 1.1875136208749526 0.1435939126278892 0.05272350738380218 52.913341466018615 59.206061916565538 39.975131794123492 0.11815489846831299 0.042443984479836445 0.015451393330293774 0.073276722586392909 0.0042602510731154994 -0.010370419090563089 0.011711555251658573
decision_type=2 2 2 2 2 2 2 2 2 2 2 2 2 2 2 2 2 2 2
left_child=1 2 3 13 -4 -3 8 -8 9 -7 12 -5 -10 -1 -2 -16 -11 -13 -9
right_child=14 5 4 11 -6 6 7 18 10 16 -12 17 -14 -15 15 -17 -18 -19 -20
leaf_value=0.00070546653100868936 0.037049812180371823 -0.037017740134338298 0.0073630975318163712 0.0090919695638591921 0.048651720508396376 -0.0092662139608112662 0.0061527156937371645 -0.028857933306153563 -0.02056151448962943 0.046683331657048383 -0.041441917773907669 -0.019176111924600604 0.022503041901237392 0.040033451171963795 -0.0044372417428731768 0.03003409833724769 0.018255825553271033 -0.044400766770102101 -0.052932038763537193
leaf_weight=9.3077955543994921 10.354502767324449 11.381729841232298 12.256499499082567 7.4523673951625851 10.762602806091307 8.9529837369918841 10.471303373575212 12.576513379812242 8.1779108643531853 8.5850826799869555 7.3993574976921073 11.49094527959824 7.8347529470920554 9.2448465228080732 14.130555748939516 7.4486452639102927 8.2158081829547864 8.8917459845542872 8.0951220989227277
leaf_count=25 28 31 33 20 29 24 28 34 22 23 20 31 21 25 38 20 22 24 22
internal_value=4.54849e-05 -0.00332634 0.00638466 -0.00368041 0.0266676 -0.0106773 -0.00694417 -0.0233439 0.00344382 0.0181645 -0.0127493 -0.0196657 0.000509318 0.0203027 0.0170555 0.00746147 0.032782 -0.0301801 -0.0382855
internal_weight=193.031 161.097 69.4068 46.3877 23.0191 91.6906 80.3088 31.1429 49.1659 25.7539 23.412 27.8351 16.0127 18.5526 31.9337 21.5792 16.8009 20.3827 20.6716
internal_count=520 434 187 125 62 247 216 84 132 69 63 75 43 50 86 58 45 55 56
is_linear=0
shrinkage=0.05


Tree=18
num_leaves=20
num_cat=0
split_feature=11 22 7 26 0 27 9 25 31 5 31 0 17 30 3 31 8 5 5
split_gain=5.05139 5.02655 5.18206 4.49632 3.4978 3.72251 3.49355 3.32399 3.07787 5.75391 4.77957 5.79545 4.5482 3.99872 3.92451 4.63947 2.97607 2.38658 0.408863
threshold=-0.01761167695194996 1.8857752944583674 0.15115544408189521 1467.575 0.0061770227657973629 0.85419245113380526 0.0080411943579454161 0.71832816230642715 0.00031097690675345371 0.031415032427391083 -0.01580210526315784 -0.049030554995738745 -0.11189540331091317 0.072764974566252166 0.04982964848377934 0.050272855581414942 0.19557726493132707 0.0086303211611051967 -0.016800488208704206
decision_type=2 2 2 2 2 2 2 2 2 2 2 2 2 2 2 2 2 2 2
left_child=-1 3 6 8 7 -6 18 17 10 12 11 -2 -10 -13 -11 -16 -12 -4 -3
right_child=1 2 4 -5 5 -7 -8 -9 9 14 16 13 -14 -15 15 -17 -18 -19 -20
leaf_value=-0.032058899848655356 -0.021721916144608038 -0.031529217013545004 -0.01485301609513557 0.044577407391567112 0.046050701031364286 -0.001633394090227678 -0.0050069933239974308 -0.036643536483741128 0.0074444454340096711 -0.023695314953258311 -0.0029877768797262776 0.0018158697076326943 0.056737150024698903 0.051845123871449489 0.034900873406306793 -0.011378172781614047 -0.040800945145232026 0.020487289818864739 -0.04781309090044894
leaf_weight=11.525015741586683 8.5870049595832842 6.8993349075317374 9.6749762892723137 8.2085853815078718 7.7459997534751919 8.6784488856792432 12.297863781452177 7.5202230811119071 8.0578588247299212 10.442488998174666 10.892194241285326 7.3141681253910091 11.162188500165938 8.7988276183605176 11.756542295217516 10.040577352046965 9.9632679224014264 9.4369150996208173 8.7355280220508593
leaf_count=33 24 20 27 22 21 24 34 21 22 29 30 20 30 24 32 28 28 26 25
internal_value=1.10062e-05 0.0021085 -0.00817276 0.00904477 0.00270807 0.0208551 -0.0249449 -0.00848349 0.0060383 0.0144177 -0.00342709 0.0114547 0.0360716 0.0291354 0.00150846 0.013583 -0.0210522 0.00259703 -0.0406274
internal_weight=187.738 176.213 70.9893 105.224 43.0566 16.4244 27.9327 26.6321 97.0151 51.4597 45.5555 24.7 19.22 16.113 32.2396 21.7971 20.8555 19.1119 15.6349
internal_count=520 487 198 289 119 45 79 74 267 141 126 68 52 44 89 60 58 53 45
is_linear=0
shrinkage=0.05


Tree=19
num_leaves=20
num_cat=0
split_feature=30 9 32 28 1 6 32 1 33 16 13 32 17 26 14 1 22 30 31
split_gain=14.1105 6.82386 6.62712 4.12886 5.48838 4.00751 4.79163 2.67224 0.842574 2.37748 1.02249 1.43128 1.56333 0.000118143 6.49213e-05 3.75617e-05 1.47049e-05 1.35208e-05 1.4229e-05
threshold=0.026436590544731537 0.020972801969172956 0.0022364074670900391 -0.72215752364274366 0.0016268240602861595 0.054755321518373735 -0.00036109287941822631 -0.00038341450321974858 5.5000000000000009 0.04771132981579488 0.0014976399370003053 -1.0000000180025095e-35 0.04707815225801238 70.975000000000009 0.0056001721633365245 0.06099047668763876 1.0980227529122002 0.058306018361715811 -0.038999189081747092
decision_type=2 2 2 2 2 2 2 2 2 2 2 2 2 2 2 2 2 2 2
left_child=1 2 5 4 -2 7 -7 -1 10 -10 11 14 -13 -12 -5 16 -15 -18 -19
right_child=3 -3 -4 8 -6 6 -8 -9 9 -11 13 12 -14 15 -16 -17 17 18 -20
leaf_value=0.031533376528258231 -0.022314195714539381 -0.036177956804162172 0.11257371190353421 -0.036239675449273305 0.072122782823819162 0.090000097194114101 0.018840018017345819 -0.03698486691732171 -0.035980250422831553 0.033224229909729446 -0.03624870767861451 -0.02023697313413509 0.035619079636920868 -0.035979859720738937 -0.035864445856888021 -0.035710297266682109 -0.035940960161799096 -0.035906242246186208 -0.035737504082295438
leaf_weight=2.8766069859266281 3.508015237748622 3.0930898934602729 2.9628711044788352 2.175378255546093 2.7403356432914734 4.2743779048323658 5.2976055964827493 2.8160111382603707 2.9183066412806502 2.1593281179666519 2.1880133226513889 3.1241116002202052 2.091269850730896 3.7549902424216262 2.4521521478891373 3.4330910146236411 3.2138210386037809 2.1906844899058333 2.9075374230742463
leaf_count=20 30 29 16 20 20 25 36 22 29 20 20 29 20 37 25 37 32 22 31
internal_value=-0.000196068 0.0324898 0.0441423 -0.0181305 0.019103 0.0308597 0.0506166 -0.00236107 -0.0252651 -0.00655017 -0.0287167 -0.0157995 0.00216025 -0.0359048 -0.0360408 -0.0358562 -0.0358977 -0.0358606 -0.03581
internal_weight=60.1776 21.3206 18.2275 38.857 6.24835 15.2646 9.57198 5.69262 32.6087 5.07763 27.531 9.84291 5.21538 17.6881 4.62753 15.5001 12.067 8.31204 5.09822
internal_count=520 148 119 372 50 103 61 42 322 49 273 94 49 179 45 159 122 85 53
is_linear=0
shrinkage=0.05


Tree=20
num_leaves=20
num_cat=0
split_feature=26 28 28 11 17 17 31 22 2 2 20 1 22 15 17 4 7 2 31
split_gain=4.00528 3.40988 3.7814 4.2387 6.22793 3.12507 3.03376 3.20696 3.15497 3.12738 3.00467 3.95586 2.61931 5.76825 2.39831 4.45609 2.8883 1.93071 1.31433
threshold=59.050000000000004 -0.73620453231230554 -0.67529845999172788 0.16578932886027567 1.7821666644732932 12.106865772648122 -0.059490432826036908 0.94767128137289347 0.020833616401963621 0.050294870211344732 0.0060122167508943848 -0.0032442245039815435 1.195120909335224 0.043910887503113394 0.49968175286007194 -0.0093324590733255813 0.31852207294684459 -0.030046443895930298 0.0043312491486311054
decision_type=2 2 2 2 2 2 2 2 2 2 2 2 2 2 2 2 2 2 2
left_child=10 -2 -3 4 17 6 -5 9 14 18 11 -1 -10 -14 16 -16 -9 -4 -8
right_child=1 2 3 5 -6 -7 7 8 12 -11 -12 -13 13 -15 15 -17 -18 -19 -20
leaf_value=0.019946982278399444 0.035880626086516335 -0.027482037918891977 0.014187848484617641 0.026098831028858821 -0.0072897572317233914 0.020313439092394931 0.036868710600289248 -0.011755659846375111 0.023781661266563919 -0.014874676020828146 -0.04324435069538736 -0.031882142204203774 0.011796931410702609 -0.04052690274215958 0.016359560452263413 -0.030816575159457418 -0.051793838932591298 0.045659230455713455 0.0073837173251517542
leaf_weight=7.4053915441036224 7.4131991267204276 10.7280036509037 7.3589062392711648 7.451195389032363 14.466419070959089 14.396939486265181 7.7561964392662066 7.7619991302490261 8.1673734188079852 8.8835257887840253 8.4350162744522077 7.3213553130626696 12.998647868633272 8.8557685911655408 8.9223656356334651 11.402333289384845 10.73259714245796 14.428265899419785 7.3718313574790955
leaf_count=20 20 29 20 20 39 39 21 21 22 24 23 20 35 24 24 31 29 39 20
internal_value=5.06231e-05 0.00272157 0.00120121 0.00323967 0.0181426 -0.00147071 -0.00459746 -0.00706077 -0.0125487 0.00867303 -0.019449 -0.0058197 -0.000377026 -0.00940555 -0.0219619 -0.0101067 -0.0349902 0.0350294 0.0225008
internal_weight=192.257 169.096 161.682 150.954 36.2536 114.701 100.304 92.8526 68.8411 24.0116 23.1618 14.7267 30.0218 21.8544 38.8193 20.3247 18.4946 21.7872 15.128
internal_count=520 457 437 408 98 310 271 251 186 65 63 40 81 59 105 55 50 59 41
is_linear=0
shrinkage=0.05


Tree=21
num_leaves=21
num_cat=0
split_feature=11 22 16 9 31 22 21 5 23 27 31 0 34 14 6 24 27 34 11 5
split_gain=4.60614 4.48806 6.13467 4.68676 3.83774 3.29094 3.24192 5.64834 3.74985 4.08517 3.88228 5.65842 3.39039 2.38132 2.30224 2.2256 2.20138 1.89967 1.73864 1.61954
threshold=-0.01761167695194996 1.8857752944583674 0.01433002074560945 0.045500604667138463 0.0062587704354992186 1.4810248159947774 39.721848352705756 -0.0039532613981802913 0.10311410997319449 0.72197878314615782 -0.001686472298852195 0.012434831920384337 19.500000000000004 0.0024205007991276342 0.09629509757825086 0.2528086616916686 0.72096815199684217 17.500000000000004 0.16578932886027567 0.055246512981620248
decision_type=2 2 2 2 2 2 2 2 2 2 2 2 2 2 2 2 2 2 2 2
left_child=-1 5 13 19 -5 6 -2 12 9 10 -9 -12 14 18 -8 -11 -15 -17 -3 -4
right_child=1 2 3 4 -6 -7 7 8 -10 15 11 -13 -14 16 -16 17 -18 -19 -20 -21
leaf_value=-0.030810905349849191 -0.025680375861336081 -0.0270922716963896 0.044341071187571635 -0.036400869811894936 0.010582254290872728 0.035842832691679358 0.00047820748232124352 -0.037314294170661885 -0.032061503466798195 0.00022564067506905327 0.03217258623419543 -0.026291474431061768 0.053704260628685933 -0.012989079090766232 0.036858377192213625 0.014144820706414899 -0.048664597347864519 0.047617339498129949 0.0038062897324109865 0.01258642955182206
leaf_weight=11.382912933826445 7.5780250728130332 7.9080641269683865 7.379703193902972 7.7950817644596126 9.8243029713630659 10.002894461154936 10.611380249261854 8.4940291643142718 7.9180491268634787 10.829038470983507 8.6660551726818174 7.9218812286853781 8.5034967660903913 7.0920783877372768 7.3684261441230765 9.4342020153999346 11.079004734754561 7.6971004903316489 10.730247735977171 8.8073508739471418
leaf_count=33 21 23 20 22 27 27 29 24 22 30 24 22 23 20 20 26 32 21 30 24
internal_value=1.21872e-05 0.00200977 -0.00773746 0.00764034 -0.0102038 0.00856356 0.00569188 0.00841066 3.48131e-05 0.00482609 -0.00982448 0.00425197 0.0276905 -0.0218607 0.0153874 0.0179685 -0.0347406 0.029184 -0.00930369 0.0270634
internal_weight=187.023 175.64 70.6158 33.8064 17.6194 105.025 95.0217 87.4437 60.9604 53.0423 25.082 16.5879 26.4833 36.8094 17.9798 27.9603 18.1711 17.1313 18.6383 16.1871
internal_count=520 487 198 93 49 289 262 241 169 147 70 46 72 105 49 77 52 47 53 44
is_linear=0
shrinkage=0.05


Tree=22
num_leaves=20
num_cat=0
split_feature=30 9 32 28 1 6 34 1 26 26 0 26 28 6 19 9 15 23 0
split_gain=12.9378 6.15743 6.58183 3.89067 5.23047 3.30452 4.55942 2.49279 0.804818 1.0327 1.16769 0.40148 1.2862 3.12569e-05 2.95109e-05 1.21947e-05 2.21056e-05 1.09825e-05 8.60722e-06
threshold=0.026436590544731537 0.020972801969172956 0.0026149259315844972 -0.72215752364274366 0.0045914167760738233 0.054755321518373735 16.500000000000004 -0.00038341450321974858 1044.3000000000004 879.75000000000011 -0.048564066143735429 75.700000000000003 -0.60201292252669336 0.099973695888833577 -0.20148918741018226 -0.010773728574767332 0.059259601781722668 0.084344535462436046 -0.021975373117907936
decision_type=2 2 2 2 2 2 2 2 2 2 2 2 2 2 2 2 2 2 2
left_child=1 2 5 4 -2 7 -7 -1 9 10 -5 12 -12 14 -13 18 -17 -15 -10
right_child=3 -3 -4 8 -6 6 -8 -9 15 -11 11 13 -14 17 -16 16 -18 -19 -20
leaf_value=0.029418959483138465 -0.022431106234706254 -0.036075710036852497 0.10863363404158735 0.01001219342315347 0.068798069849973678 0.074717522412769161 0.0071357631263328052 -0.036838945154501833 -0.035743390228150172 0.0051078195876106541 -0.036223326188029259 -0.035810075336390121 0.013202995048988262 -0.035839908603202596 -0.036060507635078405 -0.035885478541189557 -0.035696348911933462 -0.035679696969059024 -0.035611461401558769
leaf_weight=2.9588245749473572 3.5547068342566481 2.9994879364967337 3.0246875137090674 2.1698994189500871 2.8155817613005638 5.7216539010405523 4.4264219626784325 2.7286813184619012 2.6372372731566429 3.637644834816455 3.7744178622961044 2.3098054900765455 2.0210062116384533 1.9369807988405225 2.3972755819559044 2.9591011777520162 3.2329434156417847 2.3889334872364998 2.327308215200901
leaf_count=20 31 29 15 21 19 33 29 22 28 35 35 24 19 20 23 30 35 26 26
internal_value=-0.000205341 0.0304666 0.0410493 -0.0177743 0.017891 0.0281403 0.0452395 -0.00236944 -0.0249205 -0.0190712 -0.0242455 -0.0292585 -0.0189872 -0.0358485 -0.0359376 -0.0357399 -0.0357867 -0.0357514 -0.0356815
internal_weight=60.0226 21.8598 18.8603 38.1628 6.37029 15.8356 10.1481 5.68751 31.7926 20.636 16.9983 14.8284 5.79542 9.033 4.70708 11.1566 6.19204 4.32591 4.96455
internal_count=520 148 119 372 50 104 62 42 322 203 168 147 54 93 47 119 65 46 54
is_linear=0
shrinkage=0.05


Tree=23
num_leaves=20
num_cat=0
split_feature=27 31 31 25 3 31 34 13 3 30 27 31 34 25 17 9 3 3 16
split_gain=3.19829 3.27088 3.52409 2.4178 3.87336 3.1889 4.72902 3.98885 2.69474 2.7608 2.92979 4.9555 2.64973 2.37835 1.98398 1.83162 3.45124 3.95773 1.51042
threshold=1.5788052433756505 0.024096907069546206 0.049116819505496831 0.95293372882461402 0.0011793313550091673 0.0043312491486311054 15.500000000000002 0.0015183396407286657 -0.0035715873283653859 0.024358478037879636 0.39332255712299097 -0.009963706076847741 21.500000000000004 0.25081709345513781 0.13428644050395436 -0.0084427750996988061 0.031596659883299176 0.14790944759106828 0.0011558310938146589
decision_type=2 2 2 2 2 2 2 2 2 2 2 2 2 2 2 2 2 2 2
left_child=1 3 -3 4 8 6 7 -6 9 18 -11 13 -8 -12 -7 -2 -17 -18 -1
right_child=15 2 -4 -5 5 14 12 -9 -10 10 11 -13 -14 -15 -16 16 17 -19 -20
leaf_value=0.000524708309062568 0.033105817217483978 -0.037575479368876563 -0.00018672561654007721 0.023008725498771827 -0.0052911660648457216 -0.012067747470286735 -0.039431342934457471 0.039127365945540282 0.03253206932325977 -0.016713656072759767 0.02212481403161291 0.046045642034542617 -0.0029508377119881338 -0.012605752917232328 -0.044602021135827549 -0.021684586602615647 0.045672297938830389 -0.0023263638089404078 -0.030643309213988945
leaf_weight=7.7718534469604474 9.1437484025955182 12.99549859762192 12.236851423978804 10.681088268756865 11.819121390581133 9.5696679353714007 9.5577252805233019 8.8305473029613477 8.8059124946594221 8.1064313948154432 8.868940055370329 9.9281684756279045 10.387184530496596 11.097229748964308 9.1820638477802259 7.3961080312728908 7.756390035152438 9.6226136088371259 7.7762781381607056
leaf_count=21 25 36 33 29 32 26 26 24 24 22 24 27 28 30 25 20 21 26 21
internal_value=5.24495e-05 -0.00294484 -0.0194432 0.000199775 -0.00180205 -0.0109454 -0.00306804 0.0137038 0.00690014 0.00268507 0.00994705 0.0171766 -0.0204325 0.00282151 -0.0279986 0.0139803 0.00692166 0.0190958 -0.0150637
internal_weight=191.533 157.615 25.2324 132.382 121.701 59.3463 40.5946 20.6497 62.3548 53.5489 38.0008 29.8943 19.9449 19.9662 18.7517 33.9189 24.7751 17.379 15.5481
internal_count=520 428 69 359 330 161 110 56 169 145 103 81 54 54 51 92 67 47 42
is_linear=0
shrinkage=0.05


Tree=24
num_leaves=20
num_cat=0
split_feature=11 22 25 11 20 27 22 21 5 23 27 20 8 14 35 0 21 35 23
split_gain=4.25273 4.17327 4.61632 4.55283 7.73078 3.30428 2.97257 2.96085 5.20257 3.70742 3.42101 4.28032 4.47853 2.89462 2.781 2.07857 1.76792 1.69139 2.44752
threshold=-0.01761167695194996 1.8857752944583674 0.44962176070096044 0.1626492549587972 2.5293035257405694 0.86751735528535978 1.4810248159947774 39.721848352705756 -0.010592706381958078 0.10311410997319449 0.72197878314615782 0.0092656317647273872 0.14844779676781775 0.002299256423709168 17.500000000000004 0.0092723914808928668 55.810288949739089 10.500000000000002 0.061449931338973689
decision_type=2 2 2 2 2 2 2 2 2 2 2 2 2 2 2 2 2 2 2
left_child=-1 6 13 16 5 -5 7 -2 14 10 11 12 -10 -3 -9 -6 -4 -12 -19
right_child=1 2 3 4 15 -7 -8 8 9 -11 17 -13 -14 -15 -16 -17 -18 18 -20
leaf_value=-0.029794222136466004 -0.024568298951554605 -0.0098530192549030858 -0.035745611800750879 0.056106327146597815 -0.033216666905538199 0.011994775784745778 0.034158203989795695 0.044813546142364505 0.0019384189501931084 -0.03137237871751062 0.033438874160294028 0.014153159118942639 -0.053502612895133167 -0.046864323336676394 0.010131324988510014 0.004029546987726459 -0.0034693521067474219 0.030085510816865276 -0.0063988016216335796
leaf_weight=11.244323849678038 7.5308066308498374 11.426948934793474 8.6903901398181933 8.9156091809272784 7.3131898343563062 8.10438024997711 10.012602150440214 12.215111821889879 7.2389962077140826 7.8726257383823386 10.251059204339983 12.23501533269882 7.3320305347442627 9.8249299526214582 10.971560567617415 7.6788070201873779 8.2896200120449048 7.6866359412670162 11.435445070266722
leaf_count=33 21 33 25 24 21 22 27 33 20 22 28 34 21 29 30 21 23 21 32
internal_value=1.26545e-05 0.00192756 -0.00750211 0.000939984 0.0120409 0.0351018 0.00824904 0.00551167 0.00810831 0.000761846 0.00526495 -0.00765076 -0.0259591 -0.0269637 0.0284025 -0.0141394 -0.0199884 0.0170519 0.00826705
internal_weight=186.27 175.026 70.2439 48.992 32.012 17.02 104.782 94.7693 87.2385 64.0518 56.1792 26.806 14.571 21.2519 23.1867 14.992 16.98 29.3731 19.1221
internal_count=520 487 198 136 88 46 289 262 241 178 156 75 41 62 63 42 48 81 53
is_linear=0
shrinkage=0.05


Tree=25
num_leaves=19
num_cat=0
split_feature=24 31 15 6 0 20 22 0 33 23 0 23 11 30 6 22 24 33
split_gain=12.9153 5.87738 5.86074 4.1968 4.72901 5.33706 5.43951 4.22329 1.16144 1.98301 1.02452 0.396492 0.000154142 3.37027e-05 1.86639e-05 1.42369e-05 7.21786e-06 6.04773e-06
threshold=0.14969588899118783 -0.011576259927016148 0.016044556233141324 -0.065412516788156433 -0.0050743677561790749 -0.030072129961944496 13.593963195056523 0.0030000399120388055 5.5000000000000009 0.093913980955930884 -0.049030554995738745 0.039751639020536071 0.14460136156677819 0.058306018361715811 0.080969491825390733 1.2492899347330462 0.54387588496248906 1.5000000000000002
decision_type=2 2 2 2 2 2 2 2 2 2 2 2 2 2 2 2 2 2
left_child=1 -1 3 -3 -5 6 -6 -7 10 -10 -2 -12 -13 15 -15 -14 17 -16
right_child=8 2 -4 4 5 7 -8 -9 9 -11 11 12 13 14 16 -17 -18 -19
leaf_value=-0.036516988835025736 -0.0016966699823452191 -0.018441392675628412 -0.024662253811724641 0.10295218038510286 -0.027337911955248241 0.034578407403387204 0.052744393911679732 0.10297254087492745 0.032125182732010898 -0.035815395050091174 -0.013195870502234183 -0.036109950230425833 -0.035847516267723777 -0.035733752813522139 -0.035682150672832091 -0.035679077842712091 -0.035523538989236131 -0.035572807011142279
leaf_weight=3.8437644019722965 2.916457034647471 2.8022207990288797 4.2541050761938086 3.1724687442183592 4.7663114368915682 5.438817791640739 3.8197974041104317 3.8583143875002861 2.1909411698579779 2.1067300587892532 2.1824094802141216 2.3283585458993938 3.1071940064430263 2.9033368006348601 2.2914592176675779 2.1039662510156631 2.9447218626737595 2.8218685686588287
leaf_count=35 29 26 39 19 32 32 24 22 20 22 21 22 32 31 25 23 34 32
internal_value=-0.000228067 0.0214733 0.0294023 0.0390425 0.0466928 0.0367125 0.00828919 0.062962 -0.0250864 -0.00117947 -0.02944 -0.0333519 -0.0357296 -0.0356748 -0.0356251 -0.0357795 -0.0355859 -0.0356218
internal_weight=59.8532 31.9558 28.112 23.8579 21.0557 17.8832 8.58611 9.29713 27.8974 4.29767 23.5998 20.6833 18.5009 16.1725 10.9614 5.21116 8.05805 5.11333
internal_count=520 229 194 155 129 110 56 54 291 42 249 220 199 177 122 55 91 57
is_linear=0
shrinkage=0.05


Tree=26
num_leaves=19
num_cat=0
split_feature=21 4 23 3 23 4 31 35 34 1 34 14 11 5 14 1 0 1
split_gain=3.71333 4.11242 5.60728 5.58162 4.1845 3.43718 4.70578 5.23946 4.79492 2.92418 2.40239 3.66786 2.92633 6.07104 2.39148 2.13719 2.16392 2.01309
threshold=67.108262676478276 -0.033660026701095455 0.11535241982165197 -0.018154339312115294 0.13487745900364848 -0.022640021491299792 0.0043312491486311054 22.500000000000004 14.500000000000002 0.036725575712375634 15.500000000000002 0.00067778404481969045 0.2836199708800618 0.031415032427391083 0.0025706585587473864 0.015451393330293774 0.073276722586392909 0.01213768555797127
decision_type=2 2 2 2 2 2 2 2 2 2 2 2 2 2 2 2 2 2
left_child=1 2 3 -1 -4 -3 10 8 -8 17 11 -7 13 -12 -13 -2 -17 -10
right_child=15 5 4 -5 -6 6 7 -9 9 -11 12 14 -14 -15 -16 16 -18 -19
leaf_value=0.048282388564097917 0.034569130559347121 -0.036155363475469902 -0.028355769089141194 -0.00048338035297459378 0.015870361130993018 -0.015828046665487677 0.02307302904669194 -0.046524746366828906 -0.01511079529278035 0.0070305215036179855 -0.016224054745296531 0.039492414854334877 -0.025915651700052302 0.040339136592464186 0.0045142130485586497 -0.0047967107059570541 0.028629353293218945 -0.049988393333338106
leaf_weight=13.114426732063295 10.185793310403826 9.9777259230613691 12.044906526803972 10.618896096944807 9.6201637089252454 7.2925383448600796 9.2440526485443097 11.622827976942061 9.1676403284072929 7.3293277323245993 12.124149471521383 12.213411360979082 11.334937423467634 7.793186128139495 8.1458885669708234 14.01945534348488 7.3962740600109091 7.5398934185504904
leaf_count=36 28 27 33 29 26 20 25 32 25 20 33 33 31 21 22 38 20 21
internal_value=5.91943e-05 -0.00304882 0.00967426 0.0264633 -0.00871759 -0.0081251 -0.00543091 -0.0176237 -0.00753045 -0.0192999 0.00386387 0.0145988 -0.0056343 0.00590779 0.0254974 0.015715 0.00674753 -0.0308506
internal_weight=190.785 159.184 45.3984 23.7333 21.6651 113.786 103.808 44.9037 33.2809 24.0369 58.9041 27.6518 31.2523 19.9173 20.3593 31.6015 21.4157 16.7075
internal_count=520 434 124 65 59 310 283 123 91 66 160 75 85 54 55 86 58 46
is_linear=0
shrinkage=0.05


Tree=27
num_leaves=20
num_cat=0
split_feature=11 0 32 30 17 16 21 27 5 0 0 10 6 14 6 7 6 9 7
split_gain=4.0012 3.69884 3.7104 4.18374 3.64936 6.173 5.52319 4.40318 4.06827 3.61804 2.83545 2.82367 2.95902 2.53835 2.45192 3.51541 5.09929 3.13496 1.87704
threshold=-0.01761167695194996 0.025333337298943576 0.0026149259315844972 0.06558761132184697 0.6059921217337384 0.013940466894379723 67.108262676478276 0.45182996757019506 -0.0039532613981802913 -0.00028551118865137931 0.040717063885545149 0.030253297610629528 0.51279719829403414 0.0024205007991276342 -0.1421922881328167 0.45460658356369282 0.023123565298138606 0.010722156961300706 0.25706883240163836
decision_type=2 2 2 2 2 2 2 2 2 2 2 2 2 2 2 2 2 2 2
left_child=-1 2 4 18 7 13 9 8 -2 -7 -3 -12 -13 -6 -9 16 -16 -18 -4
right_child=1 10 3 -5 5 6 -8 14 -10 -11 11 12 -14 -15 15 -17 17 -19 -20
leaf_value=-0.0290520624182188 0.053221931676234992 0.039305605996325502 -0.017639404106677893 0.0069070599411041947 -0.0086109369234704785 0.00073495381707531897 -0.024071519826016935 -0.022339711530052989 0.004740607360271743 0.041693774525736957 0.03235926646723794 -0.021220430323633716 0.018525423731258605 -0.044118607791057821 0.028046287791346516 0.032128872585975653 -0.03822559423294232 0.0059537151879672425 -0.053557120933011487
leaf_weight=11.127421855926512 9.5926862657070178 9.6221246719360334 6.9357918202877062 8.9782322049140912 8.706410616636278 11.267936199903492 10.360679239034651 8.554002642631529 7.8831229209899893 10.338490158319473 8.109448194503786 10.173125773668291 8.6768226623535138 11.930090576410292 8.831018805503847 10.276677519083021 9.2764942646026629 7.0802054703235617 7.6488440632820129
leaf_count=33 26 26 20 25 25 31 30 24 22 28 22 28 24 35 24 28 27 20 22
internal_value=1.66222e-05 0.001873 -0.00188236 -0.0199458 0.001848 -0.00782027 0.00594157 0.0101185 0.0313526 0.0203334 0.0160049 0.00768858 -0.00292501 -0.0291381 0.00168828 0.00748383 -0.00257144 -0.019102 -0.0364763
internal_weight=185.37 174.242 137.661 23.5629 114.098 52.6036 31.9671 61.4942 17.4758 21.6064 36.5815 26.9594 18.8499 20.6365 44.0184 35.4644 25.1877 16.3567 14.5846
internal_count=520 487 387 67 320 149 89 171 48 59 100 74 52 60 123 99 71 47 42
is_linear=0
shrinkage=0.05


Tree=28
num_leaves=19
num_cat=0
split_feature=24 31 15 25 21 16 5 33 4 0 0 20 11 30 6 24 24 22
split_gain=11.9943 5.40422 5.26132 3.8749 5.6625 3.20893 3.03117 1.14136 2.30192 1.13279 1.01475 0.314426 0.000124844 5.69339e-05 1.98241e-05 1.78682e-05 1.05429e-05 1.3799e-06
threshold=0.14969588899118783 -0.011576259927016148 0.016044556233141324 0.36325941957278068 51.268634818655521 0.011576570989542519 -0.0071227198812757386 5.5000000000000009 0.10381160501285742 0.0035553618384935597 -0.049030554995738745 2.5293035257405694 0.14460136156677819 0.055835115640391023 0.080969491825390733 0.31150479016077309 0.41741685591072547 1.2000184114591677
decision_type=2 2 2 2 2 2 2 2 2 2 2 2 2 2 2 2 2 2
left_child=1 -1 3 9 6 -6 -5 10 -9 -3 -2 12 -12 15 -15 -14 -16 -18
right_child=7 2 -4 4 5 -7 -8 8 -10 -11 11 -13 13 14 16 -17 17 -19
leaf_value=-0.03641250476109921 -0.0015600973070768144 -0.021078825087676775 -0.02434669984677296 0.043104775678412317 -0.012788341611474375 0.043945548916589333 0.10327052337931922 -0.035763628057317677 0.037689353051613791 0.024948235698203345 -0.0359987993341708 -0.017266071291514608 -0.035843473963184123 -0.035644340505735152 -0.03556234924872953 -0.035652311146184355 -0.035469931126393718 -0.035413947928572796
leaf_weight=3.7231196388602248 2.9054446667432847 3.0456626713275972 4.1665902435779563 3.6822186335921288 3.9939054772257787 6.6295080035924911 4.8516019508242625 2.2563549429178229 2.0228861048817635 2.382508747279644 2.2462709471583429 2.6863196268677703 2.2249812409281722 2.8084400594234449 2.8927314952015877 2.7128236889839172 2.0342903584241867 2.3984580188989639
leaf_count=35 29 23 39 25 27 39 24 24 18 17 22 28 23 31 33 30 24 29
internal_value=-0.000243594 0.0202691 0.0276088 0.0364139 0.0469802 0.0226163 0.0773099 -0.0247443 -0.00104088 -0.000876833 -0.0291718 -0.0331822 -0.0356511 -0.0355992 -0.0355314 -0.0357384 -0.0354881 -0.0354396
internal_weight=59.6641 32.4751 28.752 24.5854 19.1572 10.6234 8.53382 27.189 4.27924 5.42817 22.9098 20.0043 17.318 15.0717 10.1339 4.9378 7.32548 4.43275
internal_count=520 229 194 155 115 66 49 291 42 40 249 220 192 170 117 53 86 53
is_linear=0
shrinkage=0.05


Tree=29
num_leaves=19
num_cat=0
split_feature=21 4 23 15 23 31 19 4 1 11 3 17 19 16 23 31 1 0
split_gain=3.42101 3.7788 5.16631 5.21448 3.8635 3.21866 3.78596 3.41202 4.80547 4.78722 3.37896 3.14942 2.91801 2.87576 3.19931 2.08172 1.96025 2.03718
threshold=67.108262676478276 -0.033660026701095455 0.11535241982165197 -0.020172277925957525 0.13487745900364848 0.024096907069546206 -0.25587818041165561 -0.022640021491299792 -0.017683487062551826 0.270228154782504 -0.0099650368860333214 1.0000000180025095e-35 0.060990057761526231 0.013102993766173928 0.055981303486773729 0.046186556516360867 0.015451393330293774 0.073276722586392909
decision_type=2 2 2 2 2 2 2 2 2 2 2 2 2 2 2 2 2 2
left_child=1 2 3 -1 -4 6 -3 -8 9 -9 -10 -12 -13 -14 -15 -7 -2 -18
right_child=16 5 4 -5 -6 15 7 8 10 -11 11 12 13 14 -16 -17 17 -19
leaf_value=0.047365831812103319 0.033255397714395299 0.028240367135382305 -0.027335566564828051 0.00021524628706210392 0.015259096017180632 -0.047387045958855442 -0.03688757289700309 0.048428367022589146 0.011387627439114291 -0.0041485054989552064 0.0097928772797564265 -0.044446102402303581 0.0056683145336718192 -0.046866967056078429 -0.0048930929217156759 -0.010668697759886991 -0.0046647121047714108 0.027814016155870938
leaf_weight=12.631779551506044 10.109319210052492 8.1176202595233899 11.968295484781267 10.944120764732359 9.5889733135700208 7.7180002927780134 8.8524917364120466 7.7180298864841417 13.675193160772315 9.861053138971327 9.1568087637424593 11.152387589216231 11.095659881830217 9.4173102378845233 8.7653336524963361 7.722276896238327 14.003196924924852 7.368633270263671
leaf_count=35 28 22 33 30 26 22 24 21 37 27 25 31 30 26 24 21 38 20
internal_value=6.03192e-05 -0.00293188 0.00930201 0.0254782 -0.00838887 -0.00780733 -0.00445832 -0.00741766 -0.00419059 0.0189352 -0.0106166 -0.016685 -0.0226817 -0.0143914 -0.0266326 -0.0290228 0.0151144 0.00653339
internal_weight=189.866 158.385 45.1332 23.5759 21.5573 113.252 97.8119 89.6943 80.8418 17.5791 63.2627 49.5875 40.4307 29.2783 18.1826 15.4403 31.4811 21.3718
internal_count=520 434 124 65 59 310 267 245 221 48 173 136 111 80 50 43 86 58
is_linear=0
shrinkage=0.05


Tree=30
num_leaves=19
num_cat=0
split_feature=0 31 32 30 26 24 16 27 25 0 31 31 22 15 7 5 22 14
split_gain=3.56162 3.6821 3.0456 3.79579 3.26823 3.66516 4.87537 2.89626 2.78206 4.19531 2.77962 6.53316 2.7096 2.22524 1.91474 1.90426 1.88837 1.5528
threshold=0.025333337298943576 0.049116819505496831 0.0026149259315844972 0.06558761132184697 36.000000000000007 0.12835603617977012 0.013940466894379723 0.61081030075225429 0.94039622814761614 -0.049030554995738745 -0.019629298618775357 -0.00059899871186094671 1.1245644420431549 0.048168321849893787 0.25706883240163836 0.10533996863616422 1.158951108717748 0.0019937040301880563
decision_type=2 2 2 2 2 2 2 2 2 2 2 2 2 2 2 2 2 2
left_child=2 13 4 14 -1 6 7 -6 9 -7 -11 16 -3 -2 -4 -13 -12 -9
right_child=1 12 3 -5 5 8 -8 17 -10 10 11 15 -14 -15 -16 -17 -18 -19
leaf_value=0.0322319220245691 0.014698876469078637 -0.020172230244868014 -0.017757593609401972 0.0066536527579819406 -0.0034448257147447871 -0.017856750014658394 0.012421901214744194 -0.020124461319251219 -0.02353294686176325 0.036297693002469274 -0.034718508554526205 0.043427122396029479 0.016392300738393286 0.050313267052753768 -0.052344599411618488 0.01241687769202186 0.0010166143242217505 -0.046653907733146933
leaf_weight=7.2810537219047538 10.076173037290575 9.6254148781299609 8.5513114631176048 8.9726443886756879 12.331915676593779 11.636073619127272 13.693044543266295 10.781729489564897 7.4004134535789481 12.124942511320112 7.3213085532188327 9.4780128002166837 10.697972685098646 7.7666475176811209 7.5208148360252371 10.363889336585997 7.4677217900753021 11.292894333600996
leaf_count=20 28 27 25 25 35 33 38 32 21 33 21 26 29 21 22 29 21 34
internal_value=2.48237e-05 0.0136265 -0.00352553 -0.0193982 -0.000244866 -0.00232109 -0.0128114 -0.0228537 0.00534816 0.00900847 0.0156944 0.00848077 -0.000925126 0.0302012 -0.0339423 0.0272297 -0.0166741 -0.0336963
internal_weight=184.384 38.1662 146.218 25.0448 121.173 113.892 48.0996 34.4065 65.7924 58.3919 46.7559 34.6309 20.3234 17.8428 16.0721 19.8419 14.789 22.0746
internal_count=520 105 415 72 343 323 139 101 184 163 130 97 56 49 47 55 42 66
is_linear=0
shrinkage=0.05


Tree=31
num_leaves=20
num_cat=0
split_feature=24 6 9 30 23 9 20 27 31 23 30 24 22 33 5 20 6 24 8
split_gain=11.2235 4.87435 3.52687 5.60629 4.52953 3.58023 3.25683 4.05662 0.905987 0.802495 0.367128 0.334877 7.56482e-05 3.17667e-05 1.80359e-05 1.51445e-05 1.42705e-05 5.28882e-06 2.98213e-06
threshold=0.22459126400034105 -0.065412516788156433 0.013666593879467387 0.042443984479836445 0.062082576507892138 0.068725270724512302 0.0017006335658543415 0.89403533192305107 -0.049513341371583232 0.022785400563891705 0.029388489747565378 0.13675727765209442 0.9935147387302653 4.5000000000000009 0.16645952035887293 0.38014213776000805 0.12093328922370897 0.40981907212123359 12.222914868866331
decision_type=2 2 2 2 2 2 2 2 2 2 2 2 2 2 2 2 2 2 2
left_child=1 11 3 4 6 9 7 -3 -2 -4 -10 -1 13 14 -12 16 -14 -18 -19
right_child=8 2 5 -5 -6 -7 -8 -9 10 -11 12 -13 15 -15 -16 -17 17 18 -20
leaf_value=-0.036032383030898396 -0.0037983103657385471 -0.012018951477667022 -0.0009232783195067979 -0.023022694381374439 0.094190267711947551 0.050887217420077208 0.068560836790383717 0.047970349089270441 -0.014259171333656071 -0.036367451145469291 -0.035711854266954259 -0.010163809580715609 -0.035546539073783974 -0.035844970944324504 -0.035505735534677181 -0.035574291307084102 -0.035464770667942666 -0.035324411468276001 -0.035408855168927576
leaf_weight=3.6154672279953948 3.1140881627798107 5.5386112406849914 2.7175351828336698 3.6344463229179373 3.7273485437035552 2.2842964828014374 4.5650089457631102 5.7373118475079536 2.3104887604713467 3.8727923408150673 2.0294358208775547 1.9130400493741033 1.9187708869576434 2.0172346606850624 2.2247873321175575 2.2777967751026154 1.686752066016197 2.4645293354988098 1.8158540129661558
leaf_count=36 32 32 21 32 20 20 23 36 24 36 22 18 22 21 26 26 20 31 22
internal_value=-0.000281706 0.0162796 0.0237528 0.0340063 0.0445984 -0.00305491 0.0329295 0.0185043 -0.0287726 -0.021752 -0.0329214 -0.027081 -0.035545 -0.0356816 -0.0356041 -0.0354607 -0.0354279 -0.0353898 -0.0353602
internal_weight=59.4656 37.6059 32.0774 23.2027 19.5683 8.87462 15.8409 11.2759 21.8597 6.59033 18.7456 5.52851 16.4352 6.27146 4.25422 10.1637 7.88591 5.96714 4.28038
internal_count=520 274 220 143 111 77 91 68 246 57 214 54 190 69 48 121 95 73 53
is_linear=0
shrinkage=0.05


Tree=32
num_leaves=20
num_cat=0
split_feature=26 20 1 28 28 14 24 21 21 0 35 28 14 4 27 27 13 25 20
split_gain=3.20717 2.59733 3.35724 2.5148 3.09777 4.10726 4.43805 3.12843 3.83484 2.49683 2.3445 3.31452 3.09488 2.19406 3.24008 4.0319 2.19628 1.87238 1.68721
threshold=59.050000000000004 0.0060122167508943848 -0.0032442245039815435 -0.73620453231230554 -0.67529845999172788 0.0013645520931849957 0.29087232001116714 67.108262676478276 61.204984703490872 0.020739377929614347 23.500000000000004 -0.10274817438077076 0.0024269428939895084 0.018010503010305733 1.1127083392939445 0.69903889259389684 0.0020455259823984645 0.94039622814761614 -0.3533168718498037
decision_type=2 2 2 2 2 2 2 2 2 2 2 2 2 2 2 2 2 2 2
left_child=1 2 -1 -2 -5 6 -6 8 10 17 11 -7 -13 14 15 -14 -15 -9 -12
right_child=3 -3 -4 4 5 7 -8 9 -10 -11 18 12 13 16 -16 -17 -18 -19 -20
leaf_value=0.019114900673893886 0.031257949227419042 -0.040065504740039913 -0.02916514086097349 -0.025000783288377848 0.05122509510976328 0.03197423614460642 0.0024824383497976149 0.0098042195738276897 -0.031006242589826497 -0.00098648445812301081 0.0029693566901412239 -0.023474300556256905 0.019252679560987751 0.0066122414125854541 0.040519878695216262 -0.026982462765534444 -0.029964521584070022 0.044980250345192506 -0.025571843041502236
leaf_weight=7.2641995549201965 7.2537982761859885 8.201797276735304 7.1396654844284075 10.568700283765791 8.6309680044651049 9.0953765213489444 10.175802797079085 7.1894544064998644 11.883548617362974 13.96073344349861 8.2847148180007952 11.687154829502111 13.634343922138219 9.593167185783388 8.1046836078166944 7.2080754637718192 7.1726338267326346 7.9842948913574219 13.808485329151152
leaf_count=20 20 23 20 29 24 25 28 20 33 38 23 32 37 26 22 20 20 22 38
internal_value=6.44706e-05 -0.0176055 -0.00481641 0.00246733 0.00115371 0.00301621 0.0248518 -0.000152286 -0.00433541 0.0142735 -0.0007577 0.00393086 -0.000512772 0.00535767 0.0136942 0.00326287 -0.00903579 0.0283135 -0.0148692
internal_weight=188.842 22.6057 14.4039 166.236 158.982 148.413 18.8068 129.607 100.472 29.1345 88.5886 66.4954 57.4001 45.7129 28.9471 20.8424 16.7658 15.1737 22.0932
internal_count=520 63 40 457 437 408 52 356 276 80 243 182 157 125 79 57 46 42 61
is_linear=0
shrinkage=0.05


Tree=33
num_leaves=21
num_cat=0
split_feature=0 31 32 3 26 24 15 25 0 8 27 3 27 8 31 31 6 26 19 33
split_gain=3.27502 3.4323 2.81585 3.64202 3.00283 3.36438 3.14869 2.49487 3.89064 2.71945 2.45856 2.29821 2.28438 2.27095 2.24168 7.10722 2.18774 2.13786 1.49499 1.23699
threshold=0.025333337298943576 0.049116819505496831 0.0026149259315844972 -0.027893031620130723 36.000000000000007 0.12835603617977012 -0.0056416964569445784 0.94039622814761614 -0.049030554995738745 12.571590634171104 0.70449152464390086 0.029167317488021635 0.92943037472242385 12.082043727931508 -0.015421307187175543 -0.00059899871186094671 0.089370728831639504 680.67500000000007 0.076157405165619779 2.5000000000000004
decision_type=2 2 2 2 2 2 2 2 2 2 2 2 2 2 2 2 2 2 2 2
left_child=2 11 4 -4 -1 6 -6 8 -7 14 16 -2 -12 -3 -10 -16 -8 -14 -5 -17
right_child=1 13 3 18 5 7 10 -9 9 -11 12 -13 17 -15 15 19 -18 -19 -20 -21
leaf_value=0.030912486417458057 0.0072368831737685546 -0.013491556507968773 0.0079979951011319248 -0.015710886105145861 -0.038090220005359131 -0.017366435776157575 -0.011460635490462777 -0.022396390814171677 0.038121749852943587 -0.012530118867892341 -0.040257301700810336 0.043895830453401986 0.0137553300550457 0.021374994881419744 -0.019202242747153184 0.04654492051707837 0.024448540814824782 -0.025416542521615432 -0.046051961398520677 0.018903623394125966
leaf_weight=7.2731594443321219 7.1593410968780544 13.000914067029955 8.4284624457359332 7.3643868863582638 9.5002639889717084 11.577247589826582 7.7635797560215023 7.3174121379852286 12.166740477085108 7.51704517006874 7.1783857047557857 10.613234251737593 7.0716881752014142 7.2881649136543265 10.775162100791926 8.378786683082593 9.3496412932872754 6.8639296889305115 9.0479996502399427 7.8299194276332846
leaf_count=20 20 36 24 21 30 33 22 21 33 21 21 29 20 20 31 23 26 20 27 22
internal_value=2.88576e-05 0.0130859 -0.00338901 -0.0187179 -0.000230645 -0.00223002 -0.0123288 0.00512162 0.00857876 0.0150152 -0.00592658 0.0291285 -0.0173423 -0.000966928 0.020304 0.0122702 0.00815799 -0.00553861 -0.0324376 0.0331923
internal_weight=183.465 38.0617 145.404 24.8408 120.563 113.29 47.7275 65.5623 58.2449 46.6677 38.2272 17.7726 21.114 20.2891 39.1506 26.9839 17.1132 13.9356 16.4124 16.2087
internal_count=520 105 415 72 343 323 139 184 163 130 109 49 61 56 109 76 48 40 48 45
is_linear=0
shrinkage=0.05


Tree=34
num_leaves=21
num_cat=0
split_feature=30 9 32 28 1 6 32 31 26 33 13 17 0 11 23 0 1 4 23 15
split_gain=9.17103 4.40675 3.98804 3.27244 4.09706 2.67806 3.40812 2.21809 0.852423 1.26988 1.17226 1.92442 0.328843 7.00088e-05 4.81049e-05 3.78508e-05 2.05858e-05 1.15035e-05 8.15292e-06 4.01424e-06
threshold=0.026436590544731537 0.020972801969172956 0.0026149259315844972 -0.72215752364274366 0.0045914167760738233 0.054755321518373735 -0.00036109287941822631 -0.00022155387513376478 1044.3000000000004 5.5000000000000009 0.0014976399370003053 0.04707815225801238 0.017294560090977417 0.19236013113006553 0.066245973104874359 -0.040144074887027814 0.050114300300050034 0.052461231886084946 0.082937801721724921 -0.019394143960263222
decision_type=2 2 2 2 2 2 2 2 2 2 2 2 2 2 2 2 2 2 2 2
left_child=1 2 5 4 -2 7 -7 -1 9 10 11 12 -5 -12 -10 -16 18 19 -15 -17
right_child=3 -3 -4 8 -6 6 -8 -9 14 -11 13 -13 -14 16 15 17 -18 -19 -20 -21
leaf_value=0.023290474464749713 -0.022152288847620095 -0.035832801623106772 0.078731575127820599 -0.035804786379160028 0.05665451989815147 0.065785080398332724 0.010538312388362336 -0.037372693615841689 -0.035630170504244288 0.011712179339702873 -0.035779565347127194 0.029772216940853809 -0.0091223987848443322 -0.035623759148407985 -0.035588243082612596 -0.035206620346063915 -0.035338413467456739 -0.035425831356544334 -0.035478324050968991 -0.035320491628104071
leaf_weight=3.1900553926825523 3.4664075076580039 2.7444499209523192 3.6897573173046103 3.0864173844456735 3.1460855528712273 5.161021336913115 6.0802222862839619 2.8558170795440772 3.2842805609107 3.1245584934949866 3.0087965950369817 2.2745892181992531 1.8450007811188696 1.7793728634715082 1.8594881221652029 1.5082554072141645 1.7494567111134527 1.735953241586685 2.1020041182637215 1.5896975174546244
leaf_count=21 31 29 15 33 19 25 37 21 37 30 32 22 19 20 21 20 22 21 25 20
internal_value=-0.000331213 0.0237474 0.0315425 -0.0163934 0.0153423 0.0214704 0.0359029 -0.00536427 -0.0236427 -0.0174202 -0.0231647 -0.00827362 -0.0258221 -0.0355849 -0.0354734 -0.0353965 -0.0354808 -0.0353228 -0.035545 -0.0352651
internal_weight=59.2817 23.7213 20.9769 35.5604 6.61249 17.2871 11.2412 6.04587 28.9479 18.9702 15.8456 7.20601 4.93142 8.63963 9.97767 6.69339 5.63083 4.83391 3.88138 3.09795
internal_count=520 148 119 372 50 104 62 42 322 203 173 74 52 99 119 82 67 61 45 40
is_linear=0
shrinkage=0.05


Tree=35
num_leaves=17
num_cat=0
split_feature=26 11 11 11 17 27 6 6 11 34 35 34 1 6 8 31
split_gain=2.92676 2.05062 4.43753 2.99761 3.96476 2.71293 2.68806 3.99553 3.58154 3.0555 3.03595 5.07612 3.52196 2.8176 1.77558 1.62565
threshold=36.000000000000007 -0.0085246625266611545 0.034281394427125675 0.16578932886027567 1.7821666644732932 0.83211528210697383 0.25329813433265486 0.4970946813516976 2.6339789908416442 16.500000000000004 10.500000000000002 6.5000000000000009 -0.0038788886964575527 -0.031705643945297547 11.222433428236478 0.0043312491486311054
decision_type=2 2 2 2 2 2 2 2 2 2 2 2 2 2 2 2
left_child=-1 -2 -3 4 5 -4 10 9 14 15 12 -12 -5 -13 -9 -8
right_child=1 2 3 6 -6 -7 7 8 -10 -11 11 13 -14 -15 -16 -17
leaf_value=-0.025877765205089227 0.020361040373423567 -0.02908423964925266 0.012611824142602771 -0.0015616307571627111 -0.006405000424576264 0.046791079787691266 0.047409189407417451 -0.038113790399909427 0.011789989925253271 0.00039384316514582454 -0.030058165218438095 0.032831967834537318 -0.040792370775901227 -0.0036822915417898797 -0.0049494412347755277 0.016740247971466345
leaf_weight=10.268659204244612 13.430138051509855 12.114019125699995 13.810567378997805 10.248436272144319 14.188832402229307 10.01636892557144 8.6374703943729454 9.0151286721229607 13.159439027309416 13.610741555690764 9.3905988931655902 10.308266103267673 12.950156480073927 10.837618023157116 7.3071143329143515 8.6459899544715864
leaf_count=29 37 34 38 28 39 28 24 25 36 38 26 28 36 30 20 24
internal_value=7.63034e-05 0.00157634 4.02993e-05 0.00235952 0.0145196 0.0269801 -0.00169158 0.00554816 -0.00761887 0.0181132 -0.00982603 0.00053278 -0.0234614 0.0141178 -0.0232668 0.0320672
internal_weight=187.94 177.671 164.241 152.127 38.0158 23.8269 114.111 60.3759 29.4817 30.8942 53.7351 30.5365 23.1986 21.1459 16.3222 17.2835
internal_count=520 491 454 420 105 66 315 167 81 86 148 84 64 58 45 48
is_linear=0
shrinkage=0.05


Tree=36
num_leaves=20
num_cat=0
split_feature=11 22 16 4 26 26 0 7 28 27 14 35 20 22 31 14 27 24 6
split_gain=3.38409 3.02646 4.31814 3.86602 4.65726 3.3838 2.56596 2.1604 3.92175 3.27454 2.15703 2.14108 4.10925 3.03004 3.14709 2.80017 1.89512 1.59058 1.52737
threshold=-0.01761167695194996 1.8857752944583674 0.01433002074560945 0.015200741963324335 1425.8750000000002 1467.575 0.0065229347996703319 0.18188875864490844 -0.63464194598745705 0.9078068829106839 0.0024205007991276342 13.500000000000002 -0.073260242616463175 1.1245644420431549 -0.00059899871186094671 0.0030726916739464579 0.72096815199684217 0.25964145737249783 0.050842361079758314
decision_type=2 2 2 2 2 2 2 2 2 2 2 2 2 2 2 2 2 2 2
left_child=-1 5 10 -4 6 7 -5 9 -9 -2 18 12 -10 14 -13 -16 -12 -14 -3
right_child=1 2 3 4 -6 -7 -8 8 11 -11 16 13 17 -15 15 -17 -18 -19 -20
leaf_value=-0.027117936130401352 0.0034947030537951875 0.010718379446899726 0.034862481856923082 -0.040609491302770084 0.030032833215756241 0.03815533423134556 -0.0014670638170890915 -0.033257578628638533 -0.018331176888578878 0.043616153390756918 -0.010984023947863584 -0.036941955235066389 0.0077028658565341844 0.018067711085807018 0.01908499053901843 -0.021494189454452976 -0.044853379441214224 0.036080610248386394 -0.01884476617201826
leaf_weight=10.802816689014433 13.78225687146187 7.4923551678657558 8.8250794112682325 7.2134140133857789 7.1899434328079215 8.1013202965259534 9.979171156883238 7.7474341392517081 7.0614126622676876 8.0593972802162153 6.8887910544872311 8.9424822032451576 7.7910862267017391 11.327054768800734 8.892786532640466 8.145069092512129 10.313460677862166 13.483478516340254 10.480493962764738
leaf_count=33 38 22 24 21 20 22 28 23 20 22 20 26 22 31 25 23 32 37 31
internal_value=2.60855e-05 0.00173374 -0.00642606 0.0065053 -0.00375838 0.00713361 -0.0178899 0.00449462 0.000386277 0.0182992 -0.0186341 0.00435703 0.0147185 -0.00351276 -0.0129215 -0.000314178 -0.0312901 0.0256882 -0.00652076
internal_weight=182.519 171.716 68.3827 33.2076 24.3825 103.334 17.1926 95.2325 73.3908 21.8417 35.1751 65.6434 28.336 37.3074 25.9803 17.0379 17.2023 21.2746 17.9728
internal_count=520 487 198 93 69 289 49 267 207 60 105 184 79 105 74 48 52 59 53
is_linear=0
shrinkage=0.05


Tree=37
num_leaves=19
num_cat=0
split_feature=30 9 25 21 8 31 1 6 15 9 4 23 0 13 17 22 33 20
split_gain=8.49872 4.05422 3.59835 4.24226 3.19933 4.30497 2.51029 1.72014 1.31017 3.86386 2.64276 0.000109089 7.91049e-05 7.34049e-05 5.16539e-05 3.96861e-05 2.86462e-05 9.03743e-06
threshold=0.026436590544731537 0.020972801969172956 0.36325941957278068 51.268634818655521 0.17129639561796509 0.0068859140697142595 0.0069975154009569674 0.029980574713654937 0.032867596338442627 0.1154322364928707 0.13253459185228525 0.068961199139075224 -0.050668699386576359 0.004737043123499411 6.2123950350618609 1.0053885617614922 3.5000000000000004 -0.27554981863876454
decision_type=2 2 2 2 2 2 2 2 2 2 2 2 2 2 2 2 2 2
left_child=1 2 -1 -4 5 7 -5 -2 11 10 -10 14 -13 -11 -6 -14 -15 -17
right_child=4 -3 3 6 8 -7 -8 -9 9 13 -12 12 15 16 -16 17 -18 -19
leaf_value=-0.013071829588736856 -0.036215841487701586 -0.035741277432992193 0.069150380303864126 -0.0035688913780900899 -0.035558865840679764 0.055659577692992658 0.046129502239775036 0.014873811258980678 -0.011809888893424663 -0.035740704230864971 0.069881454579164073 -0.035684436873713324 -0.035514456671997173 -0.03527823304911766 -0.035881874945332556 -0.03518386172382082 -0.035532574499924953 -0.035314760146126188
leaf_weight=3.986013323068625 3.9167369753122312 2.6538484469056121 7.1517823562026051 5.6011226177215558 3.379970237612727 3.2011256217956543 4.6504375785589218 2.8437615931034088 2.0992776900529848 2.199310764670372 1.8736303746700285 1.8365957736968965 1.8712817728519446 2.5565399155020714 1.9527686759829519 2.7551762610673873 1.9526043757796285 2.528946988284591
leaf_count=28 38 29 33 32 39 23 26 21 24 24 16 20 22 33 20 37 23 32
internal_value=-0.000335329 0.0225479 0.0297801 0.0395948 -0.0160695 0.00789258 0.0189759 -0.0147253 -0.0256152 -0.0123614 0.0267159 -0.035498 -0.0353917 -0.0355039 -0.0356771 -0.0353166 -0.0353884 -0.0352465
internal_weight=59.0109 24.0432 21.3894 17.4033 34.9677 9.96162 10.2516 6.7605 25.0061 10.6814 3.97291 14.3247 8.992 6.70846 5.33274 7.15541 4.50914 5.28412
internal_count=520 148 119 91 372 82 58 59 290 120 40 170 111 80 59 91 56 69
is_linear=0
shrinkage=0.05


Tree=38
num_leaves=20
num_cat=0
split_feature=21 4 19 32 4 31 35 34 1 21 34 14 11 5 8 16 1 1 0
split_gain=2.85468 3.25637 3.74864 3.87349 2.92069 3.72826 4.5024 3.73871 2.62792 2.57216 2.12111 3.02739 2.49042 5.21811 2.06822 1.87433 1.70508 1.66348 1.89849
threshold=67.108262676478276 -0.033660026701095455 0.51571715085200487 2.8584375216360973e-06 -0.022640021491299792 0.0043312491486311054 22.500000000000004 14.500000000000002 0.036725575712375634 41.900433551634315 15.500000000000002 0.00067778404481969045 0.2836199708800618 0.031415032427391083 0.82277023157139961 -0.0033568160754086393 0.01213768555797127 0.015451393330293774 0.073276722586392909
decision_type=2 2 2 2 2 2 2 2 2 2 2 2 2 2 2 2 2 2 2
left_child=1 2 3 9 -3 10 7 -7 16 -1 11 -6 13 -12 -13 -4 -9 -2 -19
right_child=17 4 15 -5 5 6 -8 8 -10 -11 12 14 -14 -15 -16 -17 -18 18 -20
leaf_value=0.0013437029352533518 0.030869578337445431 -0.033264551367925714 0.047907269085746843 0.024150080599819358 -0.01427484589975239 0.020860247204551229 -0.043012281607948892 -0.013604445151992004 0.0081419726650426797 -0.035203079400324404 -0.015418259378261762 0.036865266003243177 -0.024239403955072583 0.037422854869844382 0.0041401071071530899 0.012592331962555575 -0.046292833595317953 -0.0048819262898550904 0.02662393200250919
leaf_weight=11.150246083736425 9.8810645937919634 9.8275455534458143 7.0210860371589652 9.7283724546432477 7.1048883497715023 9.1152534484863263 11.241929769515989 8.9962096214294487 7.2432218194007865 8.4726346433162671 11.887675702571874 12.002247154712679 11.166076481342314 7.6972011923789969 8.0772534012794477 8.082485616207121 7.1678414344787589 13.822440356016161 7.3103657066822043
leaf_count=31 28 27 20 27 20 25 32 25 20 24 33 33 31 21 22 22 21 38 20
internal_value=8.03598e-05 -0.00267433 0.00876843 -0.00164692 -0.00723542 -0.00472015 -0.0157349 -0.00630602 -0.0168851 -0.0144362 0.0036004 0.0137758 -0.00539479 0.00534923 0.0237011 0.0290089 -0.0280999 0.0139349 0.00601674
internal_weight=186.996 155.982 44.4548 29.3513 111.527 101.7 43.7645 32.5225 23.4073 19.6229 57.9353 27.1844 30.751 19.5849 20.0795 15.1036 16.1641 31.0139 21.1328
internal_count=520 434 124 82 310 283 123 91 66 55 160 75 85 54 55 42 46 86 58
is_linear=0
shrinkage=0.05


Tree=39
num_leaves=19
num_cat=0
split_feature=11 22 11 3 14 2 19 28 17 6 12 31 35 30 2 31 0 22
split_gain=3.2584 3.34185 3.84387 2.78306 3.93219 2.50918 3.34958 3.40185 2.46847 2.24176 2.08819 3.82898 3.20645 5.03826 2.49406 3.53103 1.2769 0.984137
threshold=-0.0085246625266611545 0.20111051029622684 0.16578932886027567 -0.034502559290942252 0.00097377836515117092 -0.016864555774977519 0.55158945983631658 0.278456824000679 1.7821666644732932 -0.054931792400850755 -0.0011743391368754376 0.01955277142486048 14.500000000000002 0.037021957257243811 0.050294870211344732 0.070888599896567345 -0.0021885780921619795 0.14566014025022342
decision_type=2 2 2 2 2 2 2 2 2 2 2 2 2 2 2 2 2 2
left_child=17 -2 3 -3 -5 6 9 -8 -6 -4 -7 12 13 -12 -13 -16 -14 -1
right_child=1 2 5 4 8 10 7 -9 -10 -11 11 14 16 -15 15 -17 -18 -19
leaf_value=-0.010108931767821553 0.029816353815847452 -0.041930038402640174 0.0097798603796169156 0.015594257201625189 -0.034674520426750836 0.0186595402854987 -0.021712362042439842 0.022149407159099424 -0.0034049985473839786 0.04559538869034415 0.02850324840328965 -0.011168926396547853 -0.014259818710093356 -0.024084984611291844 0.045034715677233335 0.00029346016707942359 -0.040650917930897312 -0.035773681942554494
leaf_weight=7.8629058599472028 10.171619832515715 6.6679819226264945 7.3109579384326961 12.858870238065718 12.099748224020006 12.563772678375242 8.683609217405321 9.0046697556972486 13.193116515874861 10.857525646686552 8.6399857997894305 8.6006683111190814 8.3508685231208766 9.6320031583309156 8.4408119618892687 9.2342818081378919 10.159050256013874 7.1154516637325287
leaf_count=23 28 21 20 36 37 35 25 25 38 30 24 24 24 28 23 26 31 22
internal_value=3.64125e-05 0.00204625 0.000239017 -0.0121272 -0.00691845 0.00521086 0.0161046 0.000616591 -0.0183639 0.0311833 4.54617e-05 -0.00366326 -0.0140769 0.00078158 0.0109142 0.0216598 -0.0287444 -0.0223009
internal_weight=181.448 166.47 156.298 44.8197 38.1517 111.478 35.8568 17.6883 25.2929 18.1685 75.6214 63.0577 36.7819 18.272 26.2758 17.6751 18.5099 14.9784
internal_count=520 475 447 132 111 315 100 50 75 50 215 180 107 52 73 49 55 45
is_linear=0
shrinkage=0.05


Tree=40
num_leaves=22
num_cat=0
split_feature=14 9 9 21 10 3 2 10 2 15 35 6 6 9 9 23 12 0 22 23 4
split_gain=7.07498 3.56808 5.51416 2.12537 2.89759 1.98296 3.13801 3.75524 2.95328 3.03807 1.23397 0.425384 0.367666 0.00133028 0.00028883 0.000101793 0.000115292 4.2444e-05 1.84031e-05 1.48848e-05 8.03924e-06
threshold=0.0027128128898466363 -0.025477304116306092 0.013666593879467387 59.65467925223215 0.078218401525450801 0.016841375648890999 0.0038893707638637566 0.01257777601486528 -0.005196150731679154 -0.0038341470537490564 25.500000000000004 0.07843120952763101 0.27052944128092671 0.024784078930238974 -0.035552191660974987 0.099709816428337469 0.010519376717078413 -0.046512515526853392 1.0980227529122002 0.14212317320705878 -0.044881657450793047
decision_type=2 2 2 2 2 2 2 2 2 2 2 2 2 2 2 2 2 2 2 2 2
left_child=1 11 5 13 -5 6 8 -8 9 -3 15 14 -6 -4 -1 16 -2 -17 -18 20 -19
right_child=10 2 3 4 12 -7 7 -9 -10 -11 -12 -13 -14 -15 -16 17 18 19 -20 -21 -22
leaf_value=-0.035509442645530152 -0.035799735132022448 0.007336408748682053 -0.037432239734813695 0.041544149395620809 -0.035774754473508467 -0.0025275124985598431 0.093199232235346596 0.026864129423585348 -0.015598502775641142 0.067278032656898676 0.0020167972201564524 -0.0059500955732938298 -0.004630060669132882 -0.035813790123958328 -0.036364315495827963 -0.035496331893398313 -0.035502704734120566 -0.035180136645992836 -0.035280258024948268 -0.035068358466479127 -0.035336271495448004
leaf_weight=2.0438002496957779 2.8765587285161001 4.3966451138257954 2.3782086521387082 3.142827607691288 2.2981787323951726 4.1659207642078391 4.088356137275694 4.461932048201561 4.0867033675313058 4.0713884085416803 2.64693609625101 1.6891779229044912 1.612464018166065 2.7238163650035858 1.9127479791641229 1.6992040053009976 1.6759490445256235 1.5589296296238888 2.088343657553196 1.4029021747410295 1.7498127073049565
leaf_count=24 31 33 19 24 25 29 22 24 24 18 31 20 19 29 18 20 20 21 27 20 22
internal_value=-0.000375777 0.0100975 0.0156869 -0.0119854 0.00579623 0.0289974 0.0352201 0.0585825 0.0193094 0.036156 -0.0291113 -0.026955 -0.022933 -0.0365682 -0.0359227 -0.0354242 -0.0355614 -0.0352821 -0.0353793 -0.0352048 -0.0352627
internal_weight=58.7708 43.0722 37.4264 12.1555 7.05347 25.2709 21.105 8.55029 12.5547 8.46803 15.6986 5.64573 3.91064 5.10203 3.95655 13.0517 6.64085 6.41085 3.76429 4.71164 3.30874
internal_count=520 328 266 116 68 150 121 46 75 51 192 62 44 48 42 161 78 83 47 63 43
is_linear=0
shrinkage=0.05


Tree=41
num_leaves=19
num_cat=0
split_feature=21 9 27 22 8 8 21 31 35 31 31 31 10 23 17 26 6 14
split_gain=2.67846 2.99986 4.86097 2.84657 2.70912 5.10594 2.96907 2.55894 2.4887 2.29816 2.12349 2.99119 1.70658 1.9769 1.65158 1.44074 2.48746 1.91238
threshold=67.108262676478276 -0.0080010596071735853 1.1434249735459387 14.73902101319071 0.16453015037593985 0.33635483540195449 59.65467925223215 -0.0045365124540558011 15.500000000000002 -0.014046072651699206 -0.01580210526315784 -0.038999189081747092 0.24459125028552828 0.073301279189977406 -0.092728711600051014 1425.8750000000002 -0.031705643945297547 0.0025706585587473864
decision_type=2 2 2 2 2 2 2 2 2 2 2 2 2 2 2 2 2 2
left_child=1 2 7 4 8 -6 15 10 -3 -4 11 -1 -2 -14 -9 16 -7 -18
right_child=12 3 9 -5 5 6 -8 14 -10 -11 -12 -13 13 -15 -16 -17 17 -19
leaf_value=0.018692478168990178 0.026949131562319085 -0.0064393027532995799 0.0069507941706276888 -0.029866556445216304 0.037116698851997358 0.031167400377257643 -0.025953176388044938 -0.027298847424827355 -0.042284636422077297 0.043111771834385693 0.030401656543910877 -0.022431865224278313 -0.012758653844251611 0.020931625580148806 -0.00047395625126627692 -0.015682660010618844 0.012037244037653896 -0.021392541399476977
leaf_weight=9.1081711351871526 13.407904833555223 12.416185408830644 7.6699049472808865 13.371915012598036 8.2815375328063947 8.0589063465595192 12.842618614435194 12.354194939136507 7.9380268752574912 10.286603629589079 7.5482343137264243 8.5934635400772095 9.1742533743381518 8.2878392338752729 10.714486837387083 8.3979857563972455 9.8887532949447721 7.5399838387966147
leaf_count=25 38 35 22 38 23 22 36 35 23 29 21 24 25 23 30 23 27 21
internal_value=8.32671e-05 -0.00259517 0.0054533 -0.00860642 -0.00483421 0.000932251 -0.00548063 -0.00280157 -0.0204188 0.027666 0.0081967 -0.00127181 0.0135328 0.00323139 -0.0148398 0.00227844 0.00819648 -0.00242508
internal_weight=185.881 155.011 66.2751 88.7359 75.364 55.0098 46.7282 48.3186 20.3542 17.9565 25.2499 17.7016 30.87 17.4621 23.0687 33.8856 25.4876 17.4287
internal_count=520 434 186 248 210 152 129 135 58 51 70 49 86 48 65 93 70 48
is_linear=0
shrinkage=0.05


Tree=42
num_leaves=22
num_cat=0
split_feature=1 8 22 27 19 6 6 33 17 6 25 5 0 0 1 27 30 2 7 33 24
split_gain=2.75101 3.48082 4.01767 3.42776 2.23782 2.29298 3.50754 2.08213 2.55889 2.04158 2.6646 4.17892 2.04052 2.65746 1.70248 1.86095 1.57781 1.5745 1.24157 1.13294 0.361516
threshold=0.013826667806203903 7.1912036784391242 1.106555448250842 0.97846358403750944 0.12820840878709103 0.4970946813516976 0.31222827881569548 2.5000000000000004 6.7473216285245039 -0.05190591889160668 0.41367461689743706 0.017841512941297513 0.0035553618384935597 -0.0029259940583989713 0.028222607935350037 1.1715732201869506 0.031084245830389726 0.0058342872344682379 1.8911603343399814 3.5000000000000004 0.11455775648724709
decision_type=2 2 2 2 2 2 2 2 2 2 2 2 2 2 2 2 2 2 2 2 2
left_child=1 7 -3 -4 14 6 19 8 12 -9 20 -12 13 16 -2 -16 -1 -13 -7 -6 -11
right_child=4 2 3 -5 5 18 -8 9 -10 10 11 17 -14 -15 15 -17 -18 -19 -20 -21 -22
leaf_value=-0.031023248327580064 0.03579957228267687 -0.017167537630868774 0.038959420361355725 -0.0038891487055715858 -0.010565811082061049 0.030036450531417753 -0.03374672192121491 0.0053499208465965179 0.023603611091941538 -0.032268466567914787 0.018260729824178337 -0.012052616934278679 -0.029859155744537288 0.021288256230145023 -0.0058373501654662091 0.02606997209879465 0.0013378830202411445 -0.044276227948034402 0.0010473153523463637 0.016225691010856479 -0.049137919391583761
leaf_weight=6.898672521114352 9.668702572584154 9.21227875351906 12.363001316785814 7.4982783794403067 6.7378204762935701 7.6476631760597211 9.0242022573947889 7.9370733201503745 7.9732874333858481 6.1215264499187452 7.4470016360282925 7.9272939860820753 8.0348941683769208 8.7084963023662585 9.2901821434497851 8.993663936853407 8.2961750328540784 7.2649068534374237 7.1436311900615692 9.5230164527893049 6.600052684545517
leaf_count=21 27 26 34 21 20 21 26 23 23 20 21 23 24 25 26 25 24 22 20 27 21
internal_value=3.79411e-05 -0.00476928 0.010124 0.0227827 0.00797235 0.00039874 -0.00874866 -0.00997303 -0.00173504 -0.0175667 -0.0227106 -0.0124218 -0.00806076 -0.000733421 0.0188308 0.00985758 -0.0133545 -0.0274619 0.0160358 0.0051244 -0.0410205
internal_weight=180.312 112.283 29.0736 19.8613 68.0289 40.0763 25.285 83.2094 39.9115 43.2979 35.3608 22.6392 31.9382 23.9033 27.9525 18.2838 15.1948 15.1922 14.7913 16.2608 12.7216
internal_count=520 328 81 55 192 114 73 247 117 130 107 66 94 70 78 51 45 45 41 47 41
is_linear=0
shrinkage=0.05


Tree=43
num_leaves=22
num_cat=0
split_feature=24 9 16 30 9 34 6 34 33 31 30 7 9 22 30 33 12 24 4 23 31
