tree
version=v4
num_class=3
num_tree_per_iteration=3
label_index=0
max_feature_idx=49
objective=multiclass num_class:3
feature_names=returns_1 returns_2 returns_3 returns_5 returns_10 returns_20 returns_50 returns_100 returns_200 price_to_sma_20 price_to_sma_50 price_to_sma_200 sma_20_slope sma_50_slope sma_200_slope price_to_ema_12 price_to_ema_26 ema_12_26_spread macd macd_signal macd_hist rsi_14 atr_14 atr_pct_14 bollinger_width_20 bollinger_percent_b_20 volume_20 volume_ratio_20 vwap_distance adx_14 high_low_range close_open_range gap_open day_of_week day_of_month days_to_month_end news_sentiment_1d news_sentiment_7d news_article_count_7d earnings_proximity_days congress_buy_score congress_cluster_30d days_since_last_congress insider_buy_score insider_cluster_60d insider_value_60d ceo_bought_90d analyst_upgrade_score consensus_rating watchlist_research_score
feature_infos=[-0.21931064579812218:0.75048579970104634] [-0.26036979282691025:0.7873635309997471] [-0.23779012227436708:0.84614778286294212] [-0.22358699186991865:1.1085046150840043] [-0.28000110514028376:2.0864197530864197] [-0.33281538790272469:2.4429916061260553] [-0.43437635393301105:3.8270739519985146] [-0.4334186999804801:6.3791832587728265] [-0.59020813902810543:5.6097293340002086] [-0.23994265356327962:1.2145455247666834] [-0.33871253862552791:1.8979240999269802] [-0.43173352123242192:3.0042500813067239] [-0.018604491662213507:0.081141306340101402] [-0.010054722537413765:0.046453092958054554] [-0.0054522686111799015:0.016934072010718112] [-0.17366681520452848:0.67043063546791704] [-0.24992593378983619:1.0911720476623559] [-48.43701984054178:72.670334022574707] [-48.43701984054178:72.670334022574707] [-32.561358206345041:62.377873980022045] [-32.89670548233444:20.820886944112694] [22.392716741640783:92.797813081525845] [0.092445544617059117:100.68535047456361] [0.016337051562391926:0.15698353162526715] [0.037272253637496276:1.7714490453491059] [-0.4811292705613478:1.5603675587280261] [26.699999999999999:6550.5500000000002] [0.048750761730652042:7.5687103594080343] [-0.62241275792000483:2.3492252602254386] [55.844155844155843:99.477684528867471] [0.0020000737840131086:0.62976325171316949] [-0.21931964042900037:0.72864358696404274] [-0.039673213711262902:0.041752986161258679] [0:6] [1:31] [1:31] none none none none none none none none none none none none none none
tree_sizes=2328 1365 2336 2580 2395 2554 2470 2385 2361 2363 2281 2474 2570 2406 2364 2479 2606 2366 2471 2491 2693 2164 2505 2266 2171 2502 2252 2576 2499 2571 2585 2484 2262 2362 2386 2366 2471 2495 2464 2372 2388 2585 2582 2385 2260 2476 2491 2262 2578 2599 2362 2478 2490 2267 2493 2706 2258 2479 2603 2257 2358 2371 2377 2250 2479 2469

Tree=0
num_leaves=21
num_cat=0
split_feature=22 2 32 7 6 2 14 32 3 5 15 6 9 27 15 23 31 1 10 6
split_gain=7.60424 7.50641 6.07227 6.03495 7.48982 5.36194 4.3482 4.70761 4.08453 4.6378 4.68198 3.53522 5.35513 3.44688 3.36553 2.54322 2.46855 1.72397 1.57785 1.32485
threshold=4.9474256974291828 -0.002761555130958728 -0.0009225599894857739 0.29829354231463118 1.7310514416963454 0.060546513480429505 -8.1783435713856569e-05 0.00089357199637143112 0.10062798633015212 0.069896280730459739 0.011337340995911722 0.18375614480214156 0.10246537539670976 0.9201651320452332 -0.051990152445169684 0.047547521433965845 -0.0022738926748162133 0.0064207525494514896 0.09767052649600802 -0.0063716091655268989
decision_type=2 2 2 2 2 2 2 2 2 2 2 2 2 2 2 2 2 2 2 2
left_child=1 6 -2 8 -5 11 14 15 9 10 16 13 18 17 -1 -8 -3 -4 -13 -16
right_child=2 3 5 4 -6 -7 7 -9 -10 -11 -12 12 -14 -15 19 -17 -18 -19 -20 -21
leaf_value=-0.88514307654117197 -0.93899670324907636 -0.85312643871177762 -0.92323466616383598 -0.93038596076732472 -0.8714109987775156 -0.86461959075309869 -0.92323466616383598 -0.85487539663110912 -0.83260295292370434 -0.89808494522635707 -0.82669218901673924 -0.89171059199335545 -0.93013055738862871 -0.94530151808317242 -0.90995369047164276 -0.88591572541789942 -0.88812831083761901 -0.8887552100398729 -0.86117164514070232 -0.93459260465172977
leaf_weight=7.6132293641567257 12.68871560692787 8.7008335590362567 7.2506946325302142 9.7884377539157885 11.963646143674849 8.7008335590362531 7.2506946325302186 8.3382988274097425 7.6132293641567221 12.326180875301359 7.2506946325302115 10.150972485542303 7.2506946325302115 9.0633682906627637 9.7884377539157921 12.326180875301359 11.963646143674852 7.2506946325302124 7.2506946325302115 12.326180875301356
leaf_count=21 35 24 20 27 33 24 20 23 21 34 20 28 20 25 27 34 33 20 20 34
internal_value=-0.894432 -0.887164 -0.907719 -0.876113 -0.89795 -0.900746 -0.900509 -0.886337 -0.866187 -0.872541 -0.861261 -0.907265 -0.894029 -0.921113 -0.913816 -0.899738 -0.873391 -0.905995 -0.878986 -0.923687
internal_weight=196.856 127.25 69.6067 69.6067 21.7521 56.918 57.643 27.9152 47.8546 40.2414 27.9152 48.2171 24.6524 23.5648 29.7278 19.5769 20.6645 14.5014 17.4017 22.1146
internal_count=543 351 192 192 60 157 159 77 132 111 77 133 68 65 82 54 57 40 48 61
is_linear=0
shrinkage=1


Tree=1
num_leaves=12
num_cat=0
split_feature=28 8 30 30 31 26 7 20 7 34 4
split_gain=12.8804 6.92323 6.59956 5.91755 5.36128 4.43323 3.1236 16.8687 1.44089 0.827089 0.374827
threshold=-0.55880740097739168 0.017644671168317649 0.020701075083665237 0.057744298859799405 -0.017475914784363295 4270.3000000000002 0.31384211756105879 0.04133129225081409 -0.12664212458399629 24.500000000000004 0.016891402500677218
decision_type=2 2 2 2 2 2 2 2 2 2 2
left_child=1 2 -1 4 -2 6 7 8 -6 -5 -8
right_child=3 -3 -4 9 5 -7 10 -9 -10 -11 -12
leaf_value=-2.6195930303488497 -2.5134776581060776 -2.4534994042297282 -2.5081718894939389 -2.6195930303488497 -2.5741150136733761 -2.524089195330355 -2.5957170715942262 -2.4869488150453845 -2.6195930303488497 -2.5937811830465538 -2.6195930303488497
leaf_weight=2.3035724163055411 2.8271116018295315 2.4082802534103394 3.1412351131439209 15.601467728614809 2.1988645792007473 2.6176959276199332 2.0941567420959455 3.7694821357727042 8.3766269683837908 3.8741899728775016 7.6436721086502075
leaf_count=22 27 23 30 149 21 25 20 36 80 37 73
internal_value=-2.58354 -2.52409 -2.55531 -2.59306 -2.57895 -2.58589 -2.5926 -2.57777 -2.61014 -2.61446 -2.61446
internal_weight=56.8564 7.85309 5.44481 49.0033 29.5276 26.7005 24.0828 14.345 10.5755 19.4757 9.73783
internal_count=543 75 52 468 282 255 230 137 101 186 93
is_linear=0
shrinkage=1


Tree=2
num_leaves=21
num_cat=0
split_feature=22 2 32 5 5 14 3 33 32 27 32 11 20 1 27 23 31 9 28 2
split_gain=12.2514 8.20705 8.07867 5.71842 4.84784 4.39392 3.8351 3.65567 4.50656 3.67279 3.46523 3.70163 4.52751 4.31203 3.87106 3.26987 1.83893 1.43548 1.07482 0.914363
threshold=0.65723629542987982 -0.0084946680432616741 -0.0009225599894857739 1.3168113260249454 -0.11225640396807636 -8.1783435713856569e-05 0.10465988004067342 1.0000000180025095e-35 -0.00328502946602359 1.1586072394572053 0.002807561564626936 0.19084039741837533 -0.18534159110657952 0.0035970276448619777 1.2397331872433897 0.068502508543391669 -0.010787146066789681 0.045421366139589289 -0.53796721469211584 0.0082631297199856849
decision_type=2 2 2 2 2 2 2 2 2 2 2 2 2 2 2 2 2 2 2 2
left_child=1 4 6 10 -1 16 19 -3 -9 18 11 -4 15 -14 17 -13 -6 -15 -10 -2
right_child=2 7 3 -5 5 -7 -8 8 9 -11 -12 12 13 14 -16 -17 -18 -19 -20 -21
leaf_value=-0.68665296081547034 -0.62529013473772455 -0.65834238423869218 -0.63407617574431085 -0.69936383193157481 -0.64852034746715692 -0.67047548848588279 -0.65773572902633259 -0.66671004234020292 -0.73114100972183604 -0.68424820141512621 -0.62733556227364939 -0.66440893636228748 -0.62733556227364939 -0.66440893636228748 -0.64355516343742858 -0.71112138771397149 -0.61508522996609949 -0.69377104864048889 -0.70730812637914009 -0.60347965199052578
leaf_weight=11.238973438739775 10.864340990781789 8.2419138550758344 12.362870782613752 7.8672814071178427 7.8672814071178463 12.362870782613756 7.4926489591598502 10.864340990781782 8.6165463030338234 13.861400574445723 10.115076094865797 7.4926489591598422 10.115076094865804 7.4926489591598573 11.98823833465576 7.4926489591598511 8.616546303033827 9.3658111989498121 10.489708542823797 8.616546303033827
leaf_count=30 29 22 33 21 21 33 20 29 23 37 27 20 27 20 32 20 23 25 28 23
internal_value=-0.66232 -0.675802 -0.651152 -0.658774 -0.658796 -0.647943 -0.627336 -0.688893 -0.694638 -0.703842 -0.654595 -0.658754 -0.664409 -0.655426 -0.665276 -0.687765 -0.631043 -0.680721 -0.718056 -0.615643
internal_weight=203.425 92.1596 111.266 84.2923 40.0857 28.8467 26.9735 52.0739 43.832 32.9677 76.425 66.3099 53.9471 38.9618 28.8467 14.9853 16.4838 16.8585 19.1063 19.4809
internal_count=543 246 297 225 107 77 72 139 117 88 204 177 144 104 77 40 44 45 51 52
is_linear=0
shrinkage=1


Tree=3
num_leaves=23
num_cat=0
split_feature=19 2 6 32 13 31 23 34 2 7 12 0 10 13 8 23 8 31 20 33 8 3
split_gain=6.79433 7.43929 7.20556 4.18378 3.47054 5.91308 5.63833 5.67093 4.11695 4.85539 4.07838 3.09194 3.53832 5.04615 5.11514 3.03862 5.00539 1.98331 1.9745 1.84945 1.30412 1.12974
threshold=0.11494890571073425 0.011749610393492449 1.7310514416963454 -0.00074864718640377476 0.0033059838965988696 -0.0079000524665273908 0.061304169091097614 3.5000000000000004 0.0014485827366467383 0.27183923766331525 0.0070821281900359965 0.016925048686639039 -0.024102659376199705 -0.0018703958744777911 -0.15597046696996722 0.056552970638045076 1.0000000180025095e-35 0.0047193184322758359 -1.0000000180025095e-35 3.5000000000000004 2.6415490903884535 0.0041750269606549784
decision_type=2 2 2 2 2 2 2 2 2 2 2 2 2 2 2 2 2 2 2 2 2 2
left_child=1 11 4 -4 10 21 7 -7 -9 -10 19 12 13 14 -1 17 -17 -3 -14 -2 -5 -6
right_child=2 15 3 20 5 6 -8 8 9 -11 -12 -13 18 -15 -16 16 -18 -19 -20 -21 -22 -23
leaf_value=-0.030068250345772818 -0.05114263974133635 0.029052076988437953 -0.012058455970775352 0.017710609167178305 -0.021152435089695772 -0.028316969838682537 -0.029450515083931705 -0.010153989673838466 0.065658654553233053 0.014974626265451013 0.0041942675677830096 0.028713113997751595 -0.003842367705369068 -0.042336033769509229 0.02454537677638546 0.041874679460050329 -0.015387332367187407 0.065003806080190879 0.032595827117203012 -0.022900938260465509 0.047236877913639813 -0.049124477033129776
leaf_weight=7.6079681813716897 12.543991357088094 8.0553514361381549 7.9532678127288845 7.3087969422340375 7.2121087014675123 7.2242782413959494 11.213885843753813 7.5982380807399776 7.3072918355464962 13.372396379709242 7.5476416349411002 7.6186645925045005 7.6103053987026215 11.172568529844286 9.8232099711894989 8.0428930222988111 7.2622163593769065 7.3238486349582663 7.2686584889888746 10.777660578489302 7.6583293974399567 7.2267374396324158
leaf_count=21 35 22 22 20 20 20 31 21 20 37 21 21 21 31 27 22 20 20 20 30 21 20
internal_value=2.00813e-07 0.0110159 -0.00783774 0.0172464 -0.0140854 -0.00718677 0.00145682 0.0112193 0.0213199 0.0328841 -0.0277523 -0.00066934 -0.00581748 -0.0161044 0.00070885 0.0304765 0.0147041 0.0461729 0.0139584 -0.0380913 0.0328185 -0.0351526
internal_weight=196.73 81.7857 114.945 22.9204 92.0242 61.1549 46.7161 35.5022 28.2779 20.6797 30.8693 51.1014 43.4827 28.6037 17.4312 30.6843 15.3051 15.3792 14.879 23.3217 14.9671 14.4388
internal_count=543 225 318 63 255 169 129 98 78 57 86 141 120 79 48 84 42 42 41 65 41 40
is_linear=0
shrinkage=0.05


Tree=4
num_leaves=21
num_cat=0
split_feature=30 31 26 3 1 31 3 26 2 14 30 0 13 22 17 21 24 1 24 5
split_gain=11.8047 7.02611 9.04107 3.57768 6.09992 9.41872 5.08247 2.43718 1.18944 0.823412 0.338891 0.311752 0.272386 1.90076e-05 9.26778e-06 2.95772e-06 2.62024e-06 2.06481e-06 8.93649e-07 4.75954e-07
threshold=0.045715812554128259 -0.015923210870327217 36.300000000000004 -0.0066654784754170754 0.019173511942821318 0.0074625199297256896 0.013598812559191627 4815.5000000000009 0.020916119618347051 -0.0014231474805880987 0.020496371527475809 0.020610437953888294 0.00024842740495873518 0.23922931807540024 -0.018757554378195703 66.038320583579903 0.2456284413226385 0.054553724621763715 0.65363579161047658 0.26285768910840307
decision_type=2 2 2 2 2 2 2 2 2 2 2 2 2 2 2 2 2 2 2 2
left_child=1 -1 -3 10 5 6 -5 9 -8 -2 -4 -6 -11 -14 -12 16 -15 -17 -19 -18
right_child=7 2 3 4 11 -7 8 -9 -10 12 14 -13 13 15 -16 17 19 18 -20 -21
leaf_value=0.085822490122451217 -0.0071060437475854296 0.092406085925054227 -0.011886734723777647 0.068443317447936733 -0.03604497902404593 0.11014975190718981 -0.036066960207252995 0.021130325112826642 0.011301724217437609 -0.019884399678156292 -0.036181937072778315 -0.011869329737412795 -0.036129275872003534 -0.035985404674712972 -0.036042013321205761 -0.036026505986219905 -0.035940951180231329 -0.035951027463437278 -0.035996748089324369 -0.035907652437783842
leaf_weight=3.6855470091104534 3.4532194659113946 3.1085679009556797 2.0712617486715414 2.392665550112719 3.7483329325914374 3.0767630264163008 3.5630493313074112 2.6224786713719359 2.1100961267948151 3.0991319119930294 2.170397974550724 2.0698761492967606 2.2401073724031475 3.1724993288516981 2.602300338447094 3.1089243218302727 2.3206086307764053 2.2267662808299065 2.055174931883812 1.9962501674890516
leaf_count=33 33 28 20 23 36 29 34 25 20 30 20 20 21 31 25 30 23 22 20 20
internal_value=-3.56603e-05 0.0210773 0.012211 0.00173862 0.0140518 0.0357194 0.00732739 -0.0246041 -0.0184484 -0.0296706 -0.028776 -0.0274443 -0.0335244 -0.0359935 -0.0361056 -0.0359731 -0.0359509 -0.0359955 -0.035973 -0.0359256
internal_weight=56.894 30.5989 26.9133 23.8047 16.9608 11.1426 8.06581 26.2952 5.67315 23.6727 6.84396 5.81821 20.2195 17.1203 4.7727 14.8802 7.48936 7.39087 4.28194 4.31686
internal_count=543 288 255 227 162 106 77 255 54 230 65 56 197 167 45 146 74 72 42 43
is_linear=0
shrinkage=0.05


Tree=5
num_leaves=23
num_cat=0
split_feature=22 5 20 11 10 0 5 15 33 13 5 7 35 11 20 35 35 4 8 0 0 27
split_gain=10.8986 5.44552 4.9414 4.69088 4.8835 4.62232 4.30411 6.139 4.26555 3.86409 5.98062 3.30948 3.24932 2.54364 5.98177 2.53975 2.3611 2.88718 2.93005 1.91704 1.9168 1.1751
threshold=0.65723629542987982 1.5706417393928942 11.478515939578969 1.785541404749494 0.22813747048988306 -0.037450630508803394 -0.11225640396807636 -0.02443198882625592 1.0000000180025095e-35 0.0033059838965988696 0.099376983130277763 0.074785143219525688 7.5000000000000009 0.20236352794680676 1.3846051542322406 20.500000000000004 26.500000000000004 0.068345490919721821 0.021498624636994323 0.0049209235790724669 0.0024656227671793021 1.2718952104242245
decision_type=2 2 2 2 2 2 2 2 2 2 2 2 2 2 2 2 2 2 2 2 2 2
left_child=5 2 3 4 9 -1 -7 -8 -9 11 19 -2 20 -13 -15 -12 17 18 -14 -11 -10 -6
right_child=1 -3 -4 -5 21 6 7 8 12 10 15 13 16 14 -16 -17 -18 -19 -20 -21 -22 -23
leaf_value=0.024938306724486291 -0.0031123931057752659 -0.029535315991323176 -0.024492312760592664 -0.011989053215350624 0.030787866223839097 -0.043287240247112696 0.024769035569468752 0.014615111404446586 0.0140134954021051 -0.0021578314374370001 0.044473751971070341 0.056962739997145975 -0.011475725610158362 -0.0032696189142405541 0.052753521667061334 0.0037646731459576367 -0.0068367459267134724 -0.061452079308656177 -0.049456053566824261 -0.036667437744026525 -0.021326817491385416 0.057619491560175831
leaf_weight=7.4927920103073111 7.4808428287506095 7.8712707161903372 7.861863285303115 12.360140413045881 7.4848437309265163 12.370678871870039 10.107833564281462 8.9874117374420148 7.8641557693481428 8.2385474741458946 7.8530701994895917 8.5906619429588336 12.359576225280767 9.7193751931190508 9.3466913104057294 7.4812290966510773 8.245860815048216 8.6198870539665204 8.6194338500499708 7.8672556579112998 7.492273360490799 8.9717717468738538
leaf_count=20 20 21 21 33 20 33 27 24 21 22 21 23 33 26 25 20 22 23 23 21 20 24
internal_value=9.78566e-06 0.0105527 0.0136086 0.0167487 0.0210265 -0.012703 -0.0160341 -0.0113708 -0.0172449 0.0149979 0.00226368 0.0263922 -0.022627 0.0343728 0.0241944 0.0246128 -0.0304984 -0.0370902 -0.0270803 -0.0190149 -0.00322875 0.0454159
internal_weight=203.287 111.128 103.256 95.3944 83.0343 92.1599 84.6671 72.2964 62.1886 66.5777 31.4401 35.1376 53.2012 27.6567 19.0661 15.3343 37.8448 29.5989 20.979 16.1058 15.3564 16.4566
internal_count=543 297 276 255 222 246 226 193 166 178 84 94 142 74 51 41 101 79 56 43 41 44
is_linear=0
shrinkage=0.05


Tree=6
num_leaves=22
num_cat=0
split_feature=27 6 21 7 22 23 11 24 1 32 3 23 34 6 23 14 30 32 9 24 35
split_gain=6.46795 5.16343 7.10583 4.87219 4.08134 4.41966 3.704 3.36919 3.36934 3.2722 2.45495 2.32799 4.8028 3.05893 2.69525 4.02796 2.19479 1.92404 1.76319 1.22496 1.06688
threshold=2.5029042371097261 -0.14116723940751227 41.942391447466072 -0.30608161715550514 0.20077687927532623 0.079169924994173232 -0.034518695632604728 0.33319117557123068 0.042094242615240619 -0.00074864718640377476 0.012367463206184681 0.041886375450811288 18.500000000000004 0.17872938532460458 0.037763276022235344 0.0023393610650266172 0.028821746651757477 -7.0733805414227736e-07 0.031101172602678428 0.37946202749973529 14.500000000000002
decision_type=2 2 2 2 2 2 2 2 2 2 2 2 2 2 2 2 2 2 2 2 2
left_child=1 3 -3 -1 6 7 -4 8 11 -7 -11 13 18 -6 15 -15 -14 -2 -13 -9 -5
right_child=17 2 4 20 5 9 -8 19 -10 10 -12 12 16 14 -16 -17 -18 -19 -20 -21 -22
leaf_value=-0.010382142859886373 0.012571726451881244 -0.049221890659505302 -0.0037001774810960066 0.023366284272700183 -0.039346676029806175 -0.010871417152419334 0.037087559845081448 -0.048269878889137433 0.015486910424778667 0.046008963528542363 0.0082843994146916625 0.0010601880307859778 -0.0011959756906068427 0.028065821200036617 -0.035127949163258773 -0.021727874596573729 -0.038522063914162262 0.048126496230803541 0.034749629165305621 -0.0202834197529401 0.050313988572103077
leaf_weight=8.6902489662170428 7.2386391758918753 8.9230360686779004 11.263891816139223 7.3415121734142286 13.78506365418434 11.159540742635729 11.003600537776945 7.1731201112270346 13.079733699560164 7.2721624374389675 10.59656301140785 7.9161281585693377 7.2357971072196952 7.6325226724147859 7.2168874442577353 8.6804045736789686 8.6419176161289197 8.0216332674026471 7.6243369877338409 8.5946283936500532 7.3502035737037659
leaf_count=24 20 25 31 20 39 31 30 20 36 20 29 22 20 21 20 24 24 22 21 24 20
internal_value=-4.21127e-07 -0.00263348 -0.00588264 0.0192943 -0.00328506 -0.00675692 0.0164553 -0.0118521 -0.00777339 0.010371 0.0236374 -0.0121998 -0.00217145 -0.0206434 -0.00968593 0.00156969 -0.0215118 0.0312613 0.0175886 -0.0330151 0.0368481
internal_weight=196.442 181.181 157.799 23.382 148.876 126.609 22.2675 97.5805 81.8128 29.0283 17.8687 68.7331 31.4182 37.3149 23.5298 16.3129 15.8777 15.2603 15.5405 15.7677 14.6917
internal_count=543 501 437 64 412 351 61 271 227 80 49 191 87 104 65 45 44 42 43 44 40
is_linear=0
shrinkage=0.05


Tree=7
num_leaves=21
num_cat=0
split_feature=30 32 7 28 13 1 24 28 33 34 0 26 24 26 26 35 17 5 0 32
split_gain=11.1644 8.37024 4.66042 5.5515 6.06644 5.70224 4.94886 2.39253 1.03297 0.819703 0.338543 1.99432e-05 1.79423e-05 1.13281e-05 1.11337e-05 4.6575e-06 3.25874e-06 1.04807e-06 1.49171e-06 3.96441e-07
threshold=0.057744298859799405 0.011652867490495813 0.47046049994536443 0.3460466438119556 0.0026853741744105402 -0.0071653691238186398 0.14157767941808683 -0.55880740097739168 4.5000000000000009 24.500000000000004 0.0043582005392710363 95.725000000000009 0.10999993558442868 4311.4500000000016 2796.5250000000005 14.500000000000002 0.017512398905302321 0.99984918083033913 0.061905387525751442 -0.0015831864567163894
decision_type=2 2 2 2 2 2 2 2 2 2 2 2 2 2 2 2 2 2 2 2
left_child=1 2 3 5 -5 6 -1 -7 12 11 -4 -2 -9 16 -12 -14 -13 18 19 -18
right_child=9 -3 10 4 -6 7 -8 8 -10 -11 14 13 15 -15 -16 -17 17 -19 -20 -21
leaf_value=0.0008019771566601633 -0.036039686409182529 0.10461319701404931 -0.011395610251036109 0.0086670569651672007 0.10209718775862553 0.022270840517283355 0.079920870694047422 -0.035890470487045086 -0.00024260004227912854 -0.01021429465571505 -0.035871922492069802 -0.035905824619973201 -0.036007645369263999 -0.035981729602249345 -0.036028763168136191 -0.036103597664412797 -0.035827369904640714 -0.035872471741718946 -0.03579362568895985 -0.0358559456043262
leaf_weight=4.0399341359734562 2.0767039284110096 2.4831114113330832 2.0339177548885337 3.3455137982964507 3.6144870296120644 3.410465449094775 3.8695131689310074 1.9815330654382686 2.7850379049777985 3.8810510262846938 2.3652194514870644 2.3930968940258017 2.056919701397419 2.0427603647112837 2.1693219169974327 3.2835663259029388 1.9421716332435583 1.9725603535771368 1.919721759855747 3.23609271645546
leaf_count=36 20 22 20 31 33 30 34 20 26 38 24 24 20 20 21 31 20 20 20 33
internal_value=-5.8922e-05 0.0159101 0.00960897 0.0183911 0.0571875 0.00578904 0.0395091 -0.0139414 -0.0261607 -0.0307747 -0.0283447 -0.0358954 -0.036019 -0.0358733 -0.035947 -0.0360666 -0.0358539 -0.0358402 -0.0358313 -0.0358452
internal_weight=56.9027 37.4385 34.9554 28.387 6.96 21.427 7.90945 13.5175 10.1071 19.4642 6.56846 15.5831 7.32202 13.5064 4.53454 5.34049 11.4636 9.07055 7.09799 5.17826
internal_count=543 348 326 261 64 197 70 127 97 195 65 157 71 137 45 51 117 93 73 53
is_linear=0
shrinkage=0.05


Tree=8
num_leaves=21
num_cat=0
split_feature=19 2 13 12 21 5 32 1 1 5 7 28 33 15 32 5 17 33 33 32
split_gain=10.2932 7.32265 5.65509 4.70248 6.5709 4.51667 3.91759 3.81854 7.51541 3.69701 4.42699 5.1737 3.23064 3.09335 4.16103 2.43203 1.89622 2.78837 1.42701 1.40223
threshold=0.11494890571073425 -0.0084946680432616741 0.0033059838965988696 0.0042094913021512416 60.992959790514348 0.13276576701125606 -0.0031060110213310507 -0.0060229862456796695 -0.046704499528444403 1.5706417393928942 0.2638959876258577 0.56086493839104123 3.5000000000000004 0.021511237248945367 -1.0000000180025095e-35 -0.070765978150374206 -0.39576035122815062 1.5000000000000002 4.5000000000000009 3.1174357347306385e-05
decision_type=2 2 2 2 2 2 2 2 2 2 2 2 2 2 2 2 2 2 2 2
left_child=1 7 5 13 -5 12 -3 8 -1 10 -6 -12 -2 14 -4 -10 -8 -18 -13 -19
right_child=2 6 3 4 9 -7 16 -9 15 -11 11 18 -14 -15 -16 -17 17 19 -20 -21
leaf_value=0.030719894467916221 0.06045319422060963 -0.00050174052655171714 -0.030050692560409781 0.050832470659180985 -0.018097425289051217 0.0025021498434983354 -0.013182842473717857 0.029617498666744957 -0.047090022618977177 -0.027946420221546944 0.045311310760809298 -0.0051491042690750043 0.02064249371580858 -0.04145704039144895 0.019767127247350694 -0.0094944042277340709 -0.015202930049724199 -0.033786713126829092 0.020914842593921013 -0.060795436004716624
leaf_weight=8.9771531820297223 10.756041914224626 11.240329623222349 7.8594907820224806 8.5813361406326276 11.224390983581541 11.574470460414885 8.2355709671974164 10.094415783882139 7.4909851253032711 7.8707035183906546 11.563345104455946 14.568567097187044 9.6841318607330305 7.8682118952274314 8.9813209474086761 10.103515625000002 7.8636476993560818 7.8639710545539883 8.2116133868694288 12.35686272382736
leaf_count=24 29 30 21 23 30 31 22 27 20 21 31 39 26 21 24 27 21 21 22 33
internal_value=1.69265e-05 -0.0133524 0.00949998 0.00287054 0.0102193 0.0274594 -0.026297 0.00343836 -0.00650695 0.0036975 0.00916319 0.0180727 0.0415917 -0.0155749 -0.00348251 -0.025501 -0.0342802 -0.0404668 0.00424621 -0.0502916
internal_weight=202.97 84.2265 118.744 86.729 62.02 32.0146 47.5604 36.6661 26.5717 53.4386 45.5679 34.3435 20.4402 24.709 16.8408 17.5945 36.3201 28.0845 22.7802 20.2208
internal_count=543 225 318 232 166 86 127 98 71 143 122 92 55 66 45 47 97 75 61 54
is_linear=0
shrinkage=0.05


Tree=9
num_leaves=21
num_cat=0
split_feature=27 6 21 28 22 2 33 6 25 0 0 1 6 27 2 4 10 6 22 1
split_gain=5.89306 4.70909 6.65037 4.44443 3.59899 3.85541 3.48561 4.32912 4.20007 3.75154 3.49198 3.68782 3.41484 3.85214 3.35548 3.01188 1.76054 3.65795 1.72312 1.24812
threshold=2.5029042371097261 -0.14116723940751227 41.942391447466072 -0.25808519627050636 0.20077687927532623 0.0095144672267603904 1.0000000180025095e-35 2.7252353817764634 0.39121645095966345 -0.019937206199362057 0.048869250812993266 0.043661406248159944 0.46968630028643193 0.77407526694034434 0.0014485827366467383 0.075896851585809874 0.13220999600880148 0.18542426664141701 0.65723629542987982 0.009086223669723845
decision_type=2 2 2 2 2 2 2 2 2 2 2 2 2 2 2 2 2 2 2 2
left_child=1 3 -3 -1 5 -4 15 8 -8 -10 11 12 13 14 -11 -6 17 -15 -2 -16
right_child=18 2 4 -5 6 -7 7 -9 9 10 -12 -13 -14 16 19 -17 -18 -19 -20 -21
leaf_value=-0.0028936429910102943 0.045624646379735678 -0.047896501055071893 -0.0015220672177984644 0.040657013506822728 -0.044535306151335184 0.040909008912683897 0.022830699717325993 0.031419085335184026 -0.039091512286670925 -0.022672681863640871 -0.034698262589848761 0.025633429433581795 0.02345366516639617 -0.031510872492562368 0.032635802489302861 -0.002938009959998883 -0.042815240011801543 0.012792798460130509 0.012049835105437813 0.0035891063470164658
leaf_weight=11.99381259083748 8.0876621901988965 8.7915662527084333 13.461995631456377 11.451653510332106 10.269348293542864 8.8882217407226545 11.252407461404799 8.4043768346309644 9.6125651597976667 7.8284115791320827 9.3525604605674726 10.189545840024946 8.0079896450042707 13.099529653787618 7.2429102063178998 7.5514964163303366 8.5323497951030713 7.230826497077941 7.2444804310798636 7.556998997926712
leaf_count=33 22 25 37 31 29 24 31 23 27 22 26 28 22 37 20 21 24 20 20 21
internal_value=-1.1494e-06 -0.00252612 -0.00564242 0.0183781 -0.00314056 0.0153519 -0.00641739 -0.00304587 -0.00594515 -0.00959754 -0.00601064 -0.00216061 -0.0069205 -0.0116444 0.00380099 -0.0269087 -0.0237535 -0.0157535 0.0297605 0.0178042
internal_weight=196.051 180.719 157.273 23.4455 148.482 22.3502 126.131 108.31 99.9061 88.6537 79.0411 69.6886 59.499 51.491 22.6283 17.8208 28.8627 20.3304 15.3321 14.7999
internal_count=543 501 437 64 412 61 351 301 278 247 220 194 166 144 63 50 81 57 42 41
is_linear=0
shrinkage=0.05


Tree=10
num_leaves=20
num_cat=0
split_feature=30 28 30 7 28 27 2 27 34 27 2 30 31 26 26 25 5 24 26
split_gain=10.4633 7.45459 9.12284 3.50982 6.28704 11.625 3.10497 4.75185 0.816982 0.399907 0.346885 3.3877e-05 2.667e-05 1.8471e-05 1.20729e-05 9.23228e-06 3.41018e-06 2.97362e-06 6.90022e-07
threshold=0.057744298859799405 -0.56335179257218215 0.020701075083665237 0.47046049994536443 0.3460466438119556 0.73506280284097281 -0.020917249170863326 0.40731516617590618 24.500000000000004 1.3360562572442902 0.011749610393492449 0.02590264378374987 -0.0040940999413836008 95.725000000000009 4241.1500000000005 0.91811779541106409 0.078842211934009934 0.56112804719627485 697.80000000000007
decision_type=2 2 2 2 2 2 2 2 2 2 2 2 2 2 2 2 2 2 2
left_child=1 2 -1 4 6 -6 -3 -8 13 11 -5 -9 -13 -2 16 -12 18 -18 -15
right_child=8 3 -4 10 5 -7 7 9 -10 -11 15 12 -14 14 -16 -17 17 -19 -20
leaf_value=-0.0019307809761717797 -0.035930018741472808 0.034996743915396041 0.11752807957805317 -0.010687192519587222 -0.0094662298028563747 0.11660794986284917 0.037013974653867375 -0.035935935961474097 -0.0099645670518137552 -0.011235180174525223 -0.035943345187255553 -0.036271236009888908 -0.036037046226796661 -0.035804041314677591 -0.035874653015052667 -0.035798172903213486 -0.035690266812948873 -0.035755844448897581 -0.035762069868739345
leaf_weight=2.897690273821353 2.0041758865118053 4.2028099894523683 3.563809797167778 1.9824789389967907 3.7229360938072196 3.5931255668401718 3.4055477455258396 3.314599007368086 3.8473884686827651 2.0211037620902053 2.0145339742302895 2.217226460576061 2.6913835853338206 1.9254650622606262 2.1685404628515235 2.3997648283839226 3.3283780813217163 3.5967318266630173 1.9927044510841367
leaf_count=25 20 37 28 20 33 31 30 33 38 20 20 20 26 20 22 25 36 38 21
internal_value=-7.62996e-05 0.0150262 0.0639562 0.00501013 0.0134155 0.0524524 -0.00258192 -0.0141524 -0.0305216 -0.0311619 -0.0280615 -0.0360594 -0.0361428 -0.0357887 -0.035767 -0.0358644 -0.0357454 -0.0357243 -0.0357827
internal_weight=56.8904 38.027 6.4615 31.5655 25.1687 7.31606 17.8527 13.6499 18.8634 10.2443 6.39678 8.22321 4.90861 15.016 13.0118 4.4143 10.8433 6.92511 3.91817
internal_count=543 348 53 295 230 64 166 129 195 99 65 79 46 157 137 45 115 74 41
is_linear=0
shrinkage=0.05


Tree=11
num_leaves=22
num_cat=0
split_feature=19 1 32 33 11 30 30 35 6 35 26 33 1 35 23 18 19 34 4 15 30
split_gain=9.20213 5.82402 5.44994 5.39455 5.64549 4.90123 6.12719 4.92362 3.60274 3.67411 3.60898 2.51448 2.60527 2.39474 2.34211 2.09569 5.29687 3.90771 1.62483 1.28601 1.05239
threshold=0.11494890571073425 -0.043146074304333093 -0.0031060110213310507 1.0000000180025095e-35 2.0426697918952121 0.051864340318115668 0.038240164841630633 22.500000000000004 0.18375614480214156 13.500000000000002 1793.7250000000001 3.5000000000000004 0.021155933819342432 20.500000000000004 0.065900557965696854 -0.0062475601791451832 -0.34569699788444203 14.500000000000002 0.075896851585809874 0.0055773928142687544 0.049393304217161309
decision_type=2 2 2 2 2 2 2 2 2 2 2 2 2 2 2 2 2 2 2 2 2
left_child=1 -1 -3 18 5 6 7 8 9 -5 -10 13 -13 -7 15 16 -4 -18 -2 -17 -16
right_child=3 2 14 4 -6 11 -8 -9 10 -11 -12 12 -14 -15 20 19 17 -19 -20 -21 -22
leaf_value=0.020311781928721358 0.049931107641420044 0.0098638934670382556 -0.052762142542144168 0.040388389574910782 -0.033163945137464915 0.024766648473947519 -0.032431988890409179 0.040592295904767567 -0.039008632699971568 -0.0081937853828248346 0.0074161158803034456 0.051742129924289608 0.014048030457904046 -0.0097082330977440543 0.0056858347778262555 -0.059004537144344976 0.018494976004933345 -0.02919922778626341 0.018703974536116635 -0.031551741128404441 -0.020843545914119847
leaf_weight=11.573841631412504 8.8987752199172991 14.226271390914915 8.9728333055973 7.7585269808769208 8.986372381448744 11.545977652072908 12.310963898897169 8.9441961646079999 8.9763344228267687 7.8083978891372681 7.844802498817443 10.396585941314699 8.1991419792175275 8.9356639981269819 7.4697529971599561 7.8580253124237158 8.5853551626205462 8.5933672487735731 7.8319139182567588 9.3319055736064893 7.4830717146396637
leaf_count=31 24 38 24 21 24 31 33 24 24 21 21 28 22 24 20 21 23 23 21 25 20
internal_value=2.25449e-05 -0.0126257 -0.0178823 0.00900316 0.00467519 0.00834251 -0.00146908 0.00775334 -0.00131538 0.0160195 -0.0173577 0.0218113 0.0351222 0.00972606 -0.0246535 -0.0305402 -0.0216262 -0.00536325 0.0353132 -0.0441012 -0.00759067
internal_weight=202.532 84.0944 72.5206 118.438 101.707 92.7206 53.6432 41.3323 32.3881 15.5669 16.8211 39.0774 18.5957 20.4816 58.2943 43.3415 26.1516 17.1787 16.7307 17.1899 14.9528
internal_count=543 225 194 318 273 249 144 111 87 42 45 105 50 55 156 116 70 46 45 46 40
is_linear=0
shrinkage=0.05


Tree=12
num_leaves=23
num_cat=0
split_feature=19 2 6 32 0 14 31 34 13 31 23 34 13 2 6 28 26 11 2 31 8 34
split_gain=4.76545 5.99226 5.45379 3.6371 2.64236 3.60188 3.67723 2.64675 2.59683 5.16559 4.79522 4.85289 3.64172 3.59208 3.35435 2.82789 2.44627 2.52251 2.372 2.00546 1.16215 1.14729
threshold=0.11494890571073425 0.011749610393492449 1.7310514416963454 -0.00074864718640377476 0.016925048686639039 -0.0007265008745066774 0.0022390454687011524 18.500000000000004 0.0033059838965988696 -0.0079000524665273908 0.061304169091097614 3.5000000000000004 0.0024308031228581881 0.0014485827366467383 0.053726460524279464 0.32374770724492119 181.15000000000003 -0.018348279203905801 -0.020917249170863326 0.0047193184322758359 0.55146173454300251 18.500000000000004
decision_type=2 2 2 2 2 2 2 2 2 2 2 2 2 2 2 2 2 2 2 2 2 2
left_child=1 4 8 -4 5 -1 7 18 12 20 11 -11 14 -13 -2 -15 19 -18 -7 -3 -10 -5
right_child=2 16 3 21 -6 6 -8 -9 9 10 -12 13 -14 15 -16 -17 17 -19 -20 -21 -22 -23
leaf_value=-0.033710120108377949 -0.034646431257801182 0.02247779321885229 -0.012323370198554492 0.042852792605499693 0.025678751858493321 0.0056506903708354326 -0.029430426643983338 -0.010565031039769107 -0.047022795308100912 -0.026183061268175239 -0.027045446346636793 -0.0095141127258602382 -0.047174547161597816 0.054622918655900701 0.0077983177983637353 0.016508304244905646 0.031474102796304491 -0.0090555801409395731 0.043552785754863987 0.058314592173411575 -0.018337071427232149 0.01530506099573916
leaf_weight=9.3053754270076734 8.3348791301250511 7.7830631732940692 7.9534900188446072 7.763227164745329 7.6800989210605612 9.46636253595352 7.5385131239891043 9.7603235840797407 7.0754267573356611 7.1025641262531272 10.979212224483488 7.5443068146705654 10.962512403726576 7.7744658291339901 10.542468279600142 13.010781228542326 8.1452356278896314 7.2617319226264945 7.3197403550148072 7.8325642347335815 7.0476974844932556 7.36548912525177
leaf_count=26 24 21 22 21 21 26 21 27 20 20 31 21 32 21 30 36 22 20 20 21 20 20
internal_value=-1.80227e-06 0.00917423 -0.00664125 0.0150502 -0.00135427 -0.00613912 0.00138791 0.0101395 -0.0121814 -0.00623071 0.00182645 0.0107729 -0.0242532 0.0200382 -0.0109422 0.0307646 0.0265066 0.0123713 0.0221783 0.040453 -0.0327081 0.029441
internal_weight=195.55 82.093 113.457 23.0822 51.0704 43.3903 34.0849 26.5464 90.3743 60.5345 46.4113 35.4321 29.8399 28.3296 18.8773 20.7852 31.0226 15.407 16.7861 15.6156 14.1231 15.1287
internal_count=543 225 318 63 141 120 94 73 255 169 129 98 86 78 54 57 84 42 46 42 40 41
is_linear=0
shrinkage=0.05


Tree=13
num_leaves=21
num_cat=0
split_feature=28 20 34 27 23 15 2 26 7 5 34 20 27 7 23 32 34 7 12 0
split_gain=8.64467 4.70879 5.63746 4.30496 4.62665 2.57821 4.19491 4.51341 1.52617 3.4329 1.42736 0.000105475 8.07861e-05 5.65323e-05 4.80305e-05 2.99942e-05 1.37269e-05 7.18471e-06 6.53185e-06 5.46912e-06
threshold=-0.55880740097739168 0.0020359636617133183 14.500000000000002 1.4441161790717587 0.027812445942594435 -0.025772816677352959 -0.021703590269703119 4270.3000000000002 0.43432600058286436 0.13276576701125606 23.500000000000004 -0.038698586442314394 0.55271787153249108 0.50688800272739598 0.042350008613310605 3.1174357347306385e-05 23.500000000000004 0.020146832162869485 0.0046656872146362653 0.0061577828552458773
decision_type=2 2 2 2 2 2 2 2 2 2 2 2 2 2 2 2 2 2 2 2
left_child=1 2 -1 4 -2 11 -7 8 9 10 12 -6 -8 -10 15 -5 18 -14 -16 -15
right_child=3 -3 -4 14 5 6 7 -9 13 -11 -12 -13 17 19 16 -17 -18 -19 -20 -21
leaf_value=0.020647663835928996 0.056979254283519735 -0.015961790358417129 0.1112863656765746 -0.036061291752839501 -0.035816785175149829 0.046267668426840644 -0.036256477310505818 0.041579262511562798 -0.036025526259244982 0.034641367085888788 0.011620615294640509 -0.036248271658033696 -0.03594797241542147 -0.035776131242793177 -0.035745742043928982 -0.035785821716257431 -0.035826324389015146 -0.035815976012893332 -0.035629836348184445 -0.035672398819367367
leaf_weight=3.4913306385278684 3.2087333872914305 2.4173903614282608 3.3727985918521881 2.0565627887845026 3.4622056633234024 4.2402227371931067 2.1778258606791621 3.8479297012090674 2.0553939640521994 3.5286418572068206 2.095713883638382 2.3967596963047937 2.0043651014566422 2.1894794330000877 1.8815858513116834 1.9021121859550474 1.9375871196389196 2.1227105781435966 3.4338555112481117 3.0278736799955368
leaf_count=29 28 20 26 20 36 39 20 34 20 33 20 22 20 23 20 20 20 22 38 33
internal_value=-9.00139e-05 0.0440497 0.0651844 -0.00870233 -0.000349632 -0.00589889 0.000562122 -0.00784579 -0.0177502 -0.00674389 -0.0241276 -0.0359933 -0.0360101 -0.0358034 -0.0357889 -0.0359289 -0.0357124 -0.0358801 -0.0356709 -0.0357159
internal_weight=56.8511 9.28152 6.86413 47.5696 36.3579 33.1491 27.2902 23.0499 19.202 11.9293 8.40062 5.85897 6.3049 7.27275 11.2117 3.95867 7.25303 4.12708 5.31544 5.21735
internal_count=543 75 55 468 350 322 264 225 191 115 82 58 62 76 118 40 78 42 58 56
is_linear=0
shrinkage=0.05


Tree=14
num_leaves=21
num_cat=0
split_feature=19 6 0 6 33 11 30 30 27 11 17 10 32 19 5 31 33 20 4 32
split_gain=8.17894 4.88243 5.29315 4.99751 4.8809 5.05621 4.40136 5.72169 4.16911 3.80886 4.20789 3.71153 3.2807 3.7498 3.74027 2.82568 2.3086 1.67391 1.44788 1.40119
threshold=0.11494890571073425 0.00338908082008599 -0.023304676684551547 0.028436319640025878 1.0000000180025095e-35 2.0426697918952121 0.051864340318115668 0.038240164841630633 0.69101827568461871 0.38240551033620623 13.942939578074631 0.09767052649600802 0.0049631434837357673 -0.34569699788444203 -0.017575913051278088 0.001620731607618724 3.5000000000000004 0.24245326207957796 0.075896851585809874 -1.0000000180025095e-35
decision_type=2 2 2 2 2 2 2 2 2 2 2 2 2 2 2 2 2 2 2 2
left_child=1 2 -1 -3 18 6 7 9 -5 10 11 -6 13 -4 -15 -12 17 -8 -2 -18
right_child=4 3 12 8 5 -7 16 -9 -10 -11 15 -13 -14 14 -16 -17 19 -19 -20 -21
leaf_value=0.03210729432795658 0.047514170879557255 -0.049630521653932766 -0.021430198112485126 0.019097652486023322 0.041923024886339762 -0.031429100238403736 -0.0017214778686832949 -0.031348590392032603 -0.027513406629130911 0.035039164100439106 0.0029458920943240658 -0.0062903791219841715 -0.036405772268794261 0.035948560782077824 -0.010770899269607281 -0.039625185360337184 0.04568215861176074 0.028028376732915722 0.017957024821352408 0.017953201952971624
leaf_weight=9.3355879783630353 8.8108188807964343 13.795980900526045 13.788313537836073 7.4662148952484158 7.7702273428440121 8.9789339900016767 13.016537219285967 12.307387858629225 13.421030342578886 9.6244003474712354 7.4473273754119864 8.2085622847080213 8.9348881244659406 8.9490318894386274 8.2179948985576683 8.1786011159419996 10.343347012996675 7.425625652074813 7.8212966024875632 8.1422043442726117
leaf_count=25 24 37 37 20 21 24 35 33 36 26 20 22 24 24 22 22 28 20 21 22
internal_value=2.70805e-05 -0.0119083 -0.00178438 -0.026277 0.00850881 0.00439255 0.00787109 -0.00143101 -0.0108521 0.00749974 -0.000886674 0.017155 -0.00971612 -0.00201247 0.0135836 -0.0193358 0.0206641 0.00908517 0.0336148 0.0334686
internal_weight=201.984 83.909 49.2258 34.6832 118.075 101.443 92.4642 53.5365 20.8872 41.2291 31.6047 15.9788 39.8902 30.9553 17.167 15.6259 38.9277 20.4422 16.6321 18.4856
internal_count=543 225 132 93 318 273 249 144 56 111 85 43 107 83 46 42 105 55 45 50
is_linear=0
shrinkage=0.05


Tree=15
num_leaves=22
num_cat=0
split_feature=27 6 21 7 5 31 31 31 30 13 0 15 0 27 33 25 28 32 5 27 27
split_gain=5.09239 3.98122 6.12679 3.94251 3.00241 5.25843 3.81427 4.87003 2.93137 2.57832 3.71246 3.16496 2.70199 3.85207 3.53748 2.70453 1.87333 1.60173 1.4814 1.70727 1.02193
threshold=2.5029042371097261 -0.14116723940751227 41.942391447466072 -0.30608161715550514 0.025687049327993556 0.015513186331484385 -0.0032987577515255933 -0.015521684775702109 0.02248063828801285 0.02654779338942136 0.049934594294765454 0.077057062232505261 -0.0037885132968960367 0.95798394095723072 3.5000000000000004 0.99501922555257338 0.32374770724492119 -7.0733805414227736e-07 0.10633453024702039 0.82079202900956671 0.82079202900956671
decision_type=2 2 2 2 2 2 2 2 2 2 2 2 2 2 2 2 2 2 2 2 2
left_child=1 3 -3 -1 5 6 7 -4 -8 10 11 12 18 14 -14 16 -15 -2 -6 -20 -5
right_child=17 2 4 20 9 -7 8 -9 -10 -11 -12 -13 13 15 -16 -17 -18 -19 19 -21 -22
leaf_value=-0.010018444679967778 0.010583699270310592 -0.046278671488200022 -0.010175229639795839 0.045552076392621578 -0.0073339157927679796 0.042263115898602772 0.0074676872030193762 0.037160439090088697 -0.033876340834963541 0.015347396138540043 -0.042188437718984145 0.020627490703832029 -0.0089540707480334648 -0.0099350718949055145 0.028437118007019209 0.0073155965590302385 -0.043240103238803507 0.042911164920846886 -0.052886361637889123 -0.017894913927195093 0.019316571100476927
leaf_weight=8.6464427709579486 7.2713698446750632 8.6002093851566297 10.795941114425657 7.4338040947914106 7.1232425868511156 8.8144560456275922 7.0975613296031979 10.939744889736177 10.828054070472716 10.679103642702101 8.4457935094833356 8.9843193590641004 13.06860452890397 7.2563910782337251 12.259307205677031 7.1016033291816703 10.097273170948027 8.0998788774013502 6.960087060928343 6.9836611747741699 7.4133464992046356
leaf_count=24 20 25 30 20 20 24 20 30 30 29 24 25 37 20 34 20 29 22 20 20 20
internal_value=-2.20386e-06 -0.0023671 -0.00525627 0.0168217 -0.00286335 0.00733126 -0.000432107 0.0136492 -0.0175064 -0.00785723 -0.0106643 -0.00732927 -0.0108744 -0.00452252 0.00914415 -0.0186769 -0.0293137 0.0276187 -0.0258844 -0.0353611 0.0324524
internal_weight=194.9 179.529 156.035 23.4936 147.435 48.4758 39.6613 21.7357 17.9256 98.9594 88.2803 79.8345 70.8502 49.7832 25.3279 24.4553 17.3537 15.3712 21.067 13.9437 14.8472
internal_count=543 501 437 64 412 134 110 60 50 278 249 225 200 140 71 69 49 42 60 40 40
is_linear=0
shrinkage=0.05


Tree=16
num_leaves=23
num_cat=0
split_feature=30 32 7 11 1 1 11 4 30 12 16 34 31 20 10 26 26 1 8 1 12 24
split_gain=9.45503 5.64694 3.74903 3.67238 3.52755 4.91993 3.93518 5.49621 5.28629 5.07917 2.14633 0.816348 0.364053 0.315419 0.29309 2.46364e-05 2.58161e-05 1.46718e-05 5.66745e-06 3.13269e-06 4.09543e-06 3.51396e-06
threshold=0.057744298859799405 0.011652867490495813 0.47046049994536443 0.32047492486599155 0.021155933819342432 0.01362843708949432 -0.094104372366046907 0.012590980897108363 0.029393450397082133 0.00037323964125309618 0.046513837400743517 24.500000000000004 0.0015484447754225011 0.002670831756536957 0.061880633890828603 95.725000000000009 4311.4500000000016 0.023585087018169502 -0.13795563723654405 -0.05521415272023799 0.0050395360982711124 0.69192297422306914
decision_type=2 2 2 2 2 2 2 2 2 2 2 2 2 2 2 2 2 2 2 2 2 2
left_child=1 2 3 4 5 6 -1 8 9 -8 14 15 -4 -6 -9 -2 18 -14 -17 -20 -21 -22
right_child=11 -3 12 -5 13 -7 7 10 -10 -11 -12 -13 17 -15 -16 16 -18 -19 19 20 21 -23
leaf_value=-0.03640421329036022 -0.035800481606788004 0.079743787033375896 -0.009285457022639311 0.069925007814941417 -0.01102393778696649 0.085450177483214984 0.11650363161748718 -0.036327126591480075 -0.014718829424739184 0.022292339664982841 0.032022063659859608 -0.0094879540654419867 -0.035821467425768437 -0.036175206799332192 -0.012223764017575918 -0.035651926719151399 -0.035776817787538148 -0.035634403044125969 -0.035501641785584181 -0.035629177665734334 -0.035504535135262041 -0.035596577848489949
leaf_weight=3.65084483474494 1.9124485924839998 2.9930715784430495 1.8874672353267659 2.8131038621067992 2.0042682141065589 2.4574338644742957 3.2597199976444262 3.2113838121294966 2.2775616720318794 2.5496022552251816 2.1878559961915016 3.7832931429147711 2.1161928698420525 3.2972609475255013 2.0768390893936157 2.0022947266697875 1.9019844084978093 2.0769381448626518 1.8900239542126627 2.2552561163902292 2.3224590644240379 1.8734014704823492
leaf_count=32 20 22 20 23 20 21 26 29 19 22 19 38 22 31 19 22 20 23 22 25 27 21
internal_value=-9.76114e-05 0.0137636 0.00825752 0.0155614 0.00989158 0.018835 0.0103149 0.0212746 0.049844 0.0751561 -0.00962904 -0.0301202 -0.0275206 -0.0266667 -0.026861 -0.0356336 -0.0356075 -0.0357288 -0.0355764 -0.0355583 -0.0355748 -0.0355456
internal_weight=56.8007 38.8595 35.8665 29.7859 26.9728 21.6712 19.2138 15.563 8.08688 5.80932 7.47608 17.9412 6.0806 5.30153 5.28822 14.1579 12.2454 4.19313 10.3434 8.34114 6.45112 4.19586
internal_count=543 348 326 261 238 187 166 134 67 48 67 195 65 51 48 157 137 45 117 95 73 48
is_linear=0
shrinkage=0.05


Tree=17
num_leaves=21
num_cat=0
split_feature=19 2 13 5 5 1 1 5 23 32 22 31 34 22 22 26 26 35 35 0
split_gain=7.28729 6.11954 4.57038 4.30676 3.88187 3.52279 6.27695 3.44182 4.33473 3.15085 3.05308 3.0389 3.63247 4.94695 4.00099 1.86518 1.9579 1.85136 1.84221 0.984153
threshold=0.11494890571073425 -0.0084946680432616741 0.0033059838965988696 0.0036924720293243537 0.13276576701125606 -0.0060229862456796695 -0.046704499528444403 1.5706417393928942 0.029784702799674569 -0.0031060110213310507 0.2202923874647412 -0.006443158684084428 3.5000000000000004 0.55908564839726493 4.0875011531561265 120.52500000000002 697.80000000000007 21.500000000000004 13.500000000000002 0.0078112128539492816
decision_type=2 2 2 2 2 2 2 2 2 2 2 2 2 2 2 2 2 2 2 2
left_child=1 5 4 -4 18 6 -1 8 -5 -3 -8 17 -13 -14 -15 19 -17 -10 -2 -11
right_child=2 9 3 7 -6 -7 10 -9 11 15 -12 12 13 14 -16 16 -18 -19 -20 -21
leaf_value=0.028676865759169824 0.056313158841348722 -6.113579858854717e-06 -0.032356843749317382 -0.019288948837975401 0.0012015671607011717 0.029326782707335491 -0.00060426979574790913 -0.025697297595771936 0.049175188295587875 -0.030382576380331889 -0.042439972279429909 0.039582530624616856 -0.033136638941634516 0.031320796126025396 -0.0071466076241476599 -9.9514948337532441e-06 -0.033659811518697479 0.015353760047888066 0.025322327625671073 -0.053485612928271781
leaf_weight=8.9251287281513196 7.9582767486572328 11.219780683517454 8.2092595994472486 11.189869612455366 11.511203676462172 10.049459487199782 8.2041342556476646 7.8400166630744925 8.5018102228641457 9.6345499157905596 9.3095293939113599 7.3669635057449403 8.1652105748653394 12.962848991155626 14.125509679317473 7.8011958003044155 9.6949187815189344 7.7206129729747763 12.065078258514403 8.8382295668125135
leaf_count=24 22 30 22 30 31 27 22 21 23 26 25 20 22 35 38 21 26 21 33 24
internal_value=2.96777e-05 -0.0112493 0.00805397 0.00208844 0.0243385 0.00412761 -0.00545066 0.00571962 0.00923667 -0.0231394 -0.0228424 0.0146612 0.00765107 0.00097833 0.0112616 -0.0303553 -0.018656 0.0330788 0.0376396 -0.0414361
internal_weight=201.294 83.6769 117.617 86.0821 31.5346 36.4883 26.4388 77.8728 70.0328 47.1887 17.5137 58.843 42.6205 35.2536 27.0884 35.9689 17.4961 16.2224 20.0234 18.4728
internal_count=543 225 318 232 86 98 71 210 189 127 47 159 115 95 73 97 47 44 55 50
is_linear=0
shrinkage=0.05


Tree=18
num_leaves=22
num_cat=0
split_feature=27 6 21 7 22 23 2 24 13 31 17 34 4 14 30 13 17 22 31 24 27
split_gain=4.73238 3.62656 5.74639 3.63452 2.67711 3.4903 3.14142 2.93747 2.68578 4.35324 3.32667 2.61352 2.20502 2.39485 2.19776 1.79982 1.72798 1.40167 1.30766 1.19716 0.974832
threshold=2.5029042371097261 -0.14116723940751227 41.942391447466072 -0.30608161715550514 0.20077687927532623 0.079169924994173232 0.0095144672267603904 0.33319117557123068 0.0032620565818203503 -0.0079000524665273908 0.017512398905302321 21.500000000000004 0.1251673465236737 0.0025027181089824868 0.098792319863470535 0.0042553846398172704 26.605969517175996 0.65723629542987982 1.0000000180025095e-35 0.37946202749973529 0.82079202900956671
decision_type=2 2 2 2 2 2 2 2 2 2 2 2 2 2 2 2 2 2 2 2 2
left_child=1 3 -3 -1 6 7 -4 8 10 -10 -6 16 13 15 18 -11 -12 -2 -7 -9 -5
right_child=17 2 4 20 5 14 -8 19 9 12 11 -13 -14 -15 -16 -17 -18 -19 -20 -21 -22
leaf_value=-0.0097952966070610579 0.040881662159979314 -0.045156239470599262 -0.0021126676915371552 0.043767607076256841 0.0098616339587731579 0.0052220508066668954 0.036114491996762324 -0.045618347586709081 -0.030163162367419484 0.028805257285067151 -0.027583794802030659 -0.050985206012007171 0.031761252989747385 -0.017894868822596461 -0.006613705926998204 -0.002092070235653862 0.0038408419162900501 0.010629281267128799 0.033401616396928693 -0.017537560710170926 0.018166501745709
leaf_weight=8.6292293369770068 8.1266173422336561 8.4478330016136152 13.448410183191301 7.4531824886798841 8.7355524897575361 7.2112332284450593 8.951528072357176 6.9521794915199271 8.7133449316024691 9.1189980208873873 11.709291487932211 7.3794328868389121 8.3335928916931135 9.5465909540653211 12.135059326887129 9.755776107311247 6.9837168157100669 7.2398687899112693 9.5940797924995405 8.3592247664928419 7.4203593134880066
leaf_count=24 22 25 37 20 24 20 24 20 25 25 34 22 23 27 34 27 20 20 26 24 20
internal_value=1.07668e-06 -0.00228633 -0.00505522 0.0160187 -0.00274956 -0.00561202 0.0131638 -0.010218 -0.00638999 0.00161197 -0.0168426 -0.0257899 0.00914477 0.00251326 0.00960103 0.0128354 -0.0158435 0.0266284 0.0213096 -0.0302877 0.0309953
internal_weight=194.245 178.879 155.376 23.5028 146.928 124.528 22.3999 95.5877 80.2763 45.4683 34.808 26.0724 36.755 28.4214 28.9404 18.8748 18.693 15.3665 16.8053 15.3114 14.8735
internal_count=543 501 437 64 412 351 61 271 227 127 100 76 102 79 80 52 54 42 46 44 40
is_linear=0
shrinkage=0.05


Tree=19
num_leaves=22
num_cat=0
split_feature=30 28 30 32 17 3 1 16 6 1 32 26 32 31 16 1 35 2 27 17 20
split_gain=8.87822 5.11899 6.63062 3.22841 3.54455 4.19813 4.72643 7.42921 4.01799 2.80787 2.52085 2.4234 0.826553 1.18282 0.375734 9.20447e-05 8.44701e-05 7.86431e-05 2.09818e-05 9.75193e-06 2.0011e-06
threshold=0.057744298859799405 -0.56335179257218215 0.020701075083665237 -0.0027275329481370836 26.829614614251003 -0.0074124363120790749 0.019173511942821318 0.029686135976052113 0.19610713568923535 -0.0037930448881552058 0.00089357199637143112 2097.1500000000005 -0.0036244825416163798 0.004461643425641427 0.10724437337683225 -0.001598649303810589 6.5000000000000009 0.0082631297199856849 1.5107267273729945 0.65455927997806118 0.3198564305137977
decision_type=2 2 2 2 2 2 2 2 2 2 2 2 2 2 2 2 2 2 2 2 2
left_child=1 2 -1 17 5 10 7 9 -9 -7 15 -8 13 -2 -6 -5 -14 -3 19 -18 -20
right_child=12 3 -4 4 14 6 11 8 -10 -11 -12 -13 16 -15 -16 -17 18 -19 20 -21 -22
leaf_value=-0.0048093237254855327 0.020380773626242986 -0.036308015381508067 0.091042238236998807 -0.036269159716120589 -0.035964962889532284 0.040960808454655002 -0.035983321418931222 0.13618812667245794 0.053251661858289612 -0.036239820077487293 0.028466483745638073 0.03419697246885875 -0.035857780966691705 -0.035650334269278154 -0.0076814750607350456 -0.035811952208603157 -0.035657885277772576 -0.035878491868934416 -0.035487324410088214 -0.035537606180547576 -0.03541685232806837
leaf_weight=3.1252289339900008 1.7854822427034407 2.2274044230580357 4.2685498148202896 2.1951491385698318 3.4715915173292151 2.5702042803168297 2.9264251664280883 2.5948802307248116 3.3400972038507462 2.1741113364696485 2.3086079880595207 2.122062012553215 2.7223844304680815 1.9935166165232656 1.7744107544422147 2.2081260383129182 3.5422136485576612 2.0432559996843338 2.3901693299412727 3.2144637256860733 1.741137698292732
leaf_count=25 20 20 28 20 35 21 29 19 29 20 20 19 28 22 19 23 39 21 28 37 21
internal_value=-0.000112278 0.0130357 0.0505274 0.00436122 0.010603 0.0192532 0.0333812 0.0522269 0.089513 0.00558315 -0.0138524 -0.006484 -0.0298646 -0.00917704 -0.0263983 -0.0360399 -0.0356087 -0.0361025 -0.0355464 -0.0356007 -0.0354576
internal_weight=56.7395 39.3501 7.39378 31.9563 27.6857 22.4397 15.7278 10.6793 5.93498 4.74432 6.71188 5.04849 17.3894 3.779 5.246 4.40328 13.6104 4.27066 10.888 6.75668 4.13131
internal_count=543 348 53 295 254 200 137 89 48 41 63 48 195 42 54 43 153 41 125 76 49
is_linear=0
shrinkage=0.05


Tree=20
num_leaves=24
num_cat=0
split_feature=22 32 2 12 5 16 25 3 32 11 11 26 35 32 33 32 34 27 17 22 15 32 31
split_gain=6.36912 6.38079 5.42178 4.22903 3.56365 3.35074 4.74233 3.12769 3.05259 2.88105 5.30144 3.10147 3.52038 2.81567 2.72052 3.26489 3.30685 2.42572 2.106 1.95171 1.64417 0.80383 0.28863
threshold=0.65723629542987982 -0.0009225599894857739 -0.0084946680432616741 -0.0068246542171766129 1.3168113260249454 -0.025156406123314292 0.54347811001486901 0.10465988004067342 0.002807561564626936 0.19918715990283387 0.23486237889226072 2756.3500000000008 21.500000000000004 1.1206260194409908e-05 1.0000000180025095e-35 -0.00328502946602359 5.5000000000000009 1.1586072394572053 26.026610504262809 0.30752717776305211 0.0085296187055407466 -0.0038083427281061749 -0.0026188530908349077
decision_type=2 2 2 2 2 2 2 2 2 2 2 2 2 2 2 2 2 2 2 2 2 2 2
left_child=2 7 3 -1 8 19 -7 21 9 20 -11 18 13 -13 -4 -16 -17 22 -12 -5 -3 -2 -18
right_child=1 4 14 5 -6 6 -8 -9 -10 10 11 12 -14 -15 15 16 17 -19 -20 -21 -22 -23 -24
leaf_value=-0.026225105725985548 0.028325049484586119 0.0368785060846872 0.0060127718544628964 0.048190092041896927 -0.030780802095113937 -0.029458440758333617 0.024980327271698063 0.0019907075650056087 0.030525877467146263 -0.041878211942560389 0.033883225390785914 0.024668834643809267 -0.036189217444768336 -0.01801543274847393 -0.0017026865679331676 -0.0040011654273360781 -0.045845128931892021 -0.020314251420131338 -0.00074245720385175554 0.011902219608094891 0.0044497441240892175 0.049133665192874973 -0.059140486030149542
leaf_weight=8.9030525088310224 8.0579866170883214 7.2557838857173911 8.1587423980236036 7.4031309187412244 7.8160170912742606 8.2193006277084404 7.7940368056297293 7.3983463943004599 9.9256929159164411 8.2002969384193403 9.5578739941120165 8.1066837310791033 8.2002989649772626 7.3814370036125174 10.828322649002073 7.375582128763198 7.3395180106163016 8.4534339308738691 8.1239511668682081 7.4184229969978333 8.4729375243186933 10.944835543632507 9.1975826323032432
leaf_count=24 22 20 22 20 21 22 21 20 27 22 26 22 22 20 29 20 20 23 22 20 23 30 25
internal_value=3.07251e-05 0.00816019 -0.00973649 0.00413055 0.00135281 0.0128952 -0.00296192 0.0295718 0.00469155 0.000764653 -0.00515132 0.00212859 -0.00969924 0.00432607 -0.020467 -0.0254686 -0.0334197 -0.0421022 0.0179744 0.0300274 0.0194094 0.0403099 -0.0532397
internal_weight=200.533 109.442 91.0911 39.7379 83.041 30.8349 16.0133 26.4012 75.225 65.2993 49.5705 41.3702 23.6884 15.4881 51.3532 43.1944 32.3661 24.9905 17.6818 14.8216 15.7287 19.0028 16.5371
internal_count=543 297 246 107 225 83 43 72 204 177 134 112 64 42 139 117 88 68 48 40 43 52 45
is_linear=0
shrinkage=0.05


Tree=21
num_leaves=19
num_cat=0
split_feature=27 33 13 21 28 34 15 23 30 24 1 22 3 12 9 12 10 14
split_gain=4.38964 3.55533 3.54784 4.55118 3.6507 3.18367 2.93421 2.90555 4.19958 3.61473 2.31107 2.39613 3.06179 3.2352 2.94242 3.42976 3.15566 1.28447
threshold=2.5029042371097261 1.0000000180025095e-35 -0.0018703958744777911 41.942391447466072 -0.25808519627050636 22.500000000000004 0.01643840157928347 0.079169924994173232 0.09352489836102125 0.33319117557123068 0.042094242615240619 0.15570876251932997 -0.0023107065659662622 0.0025068807571963715 0.031101172602678428 0.0050395360982711124 0.13220999600880148 0.0010520204041087901
decision_type=2 2 2 2 2 2 2 2 2 2 2 2 2 2 2 2 2 2
left_child=1 5 4 -4 -3 6 -1 9 -9 10 11 -5 13 -13 -14 -16 -17 -2
right_child=17 2 3 7 -6 -7 -8 8 -10 -11 -12 12 14 -15 15 16 -18 -19
leaf_value=-0.048520612552772568 0.039279894480321279 0.0006765979954115052 -0.042154451511643064 0.015541039540782007 0.040628308770482534 0.0083773839032335578 -0.006759524819028283 0.03422914320380329 -0.0065432617613839662 -0.029104890554758484 0.01910915195248419 -0.0092174856034739489 -0.037239819923334548 0.03316408823007308 0.011948105637614309 0.00052823823789204785 -0.042501598591578711 0.010317975443588742
leaf_weight=10.269393503665929 8.1295063197612745 12.697161585092546 6.8852473795413962 12.903141915798185 10.402798205614088 7.0690690279006949 7.1240864098072043 13.199800401926042 12.109494298696516 12.756742328405378 12.699537903070448 10.625466644763941 11.505167245864873 7.8144184947013846 12.91483184695244 8.0700759589672106 9.0266408026218397 7.2358428835868827
leaf_count=30 22 35 21 35 28 20 20 36 34 37 35 30 33 22 36 23 26 20
internal_value=-1.85488e-07 -0.00221269 0.000606671 -0.0025902 0.0186684 -0.0199167 -0.031416 -0.000386685 0.0147212 -0.00427587 -0.000573903 -0.00400468 -0.00821108 0.00874289 -0.0157413 -0.00749965 -0.0221904 0.0256412
internal_weight=193.438 178.073 153.611 130.511 23.1 24.4625 17.3935 123.625 25.3093 98.316 85.5593 72.8597 59.9566 18.4399 41.5167 30.0115 17.0967 15.3653
internal_count=543 501 431 368 63 70 50 347 70 277 240 205 170 52 118 85 49 42
is_linear=0
shrinkage=0.05


Tree=22
num_leaves=22
num_cat=0
split_feature=30 32 7 28 27 28 30 2 28 34 12 28 8 27 26 22 1 8 5 5 30
split_gain=8.37881 4.51206 3.37554 3.37614 7.9774 4.24626 4.9184 4.13221 2.29056 0.84306 0.405219 0.38383 7.89154e-05 4.77094e-05 1.68324e-05 2.33166e-05 1.21349e-05 5.83422e-06 4.34182e-06 3.60869e-06 2.2847e-06
threshold=0.057744298859799405 0.013267943815267571 0.47046049994536443 0.3460466438119556 0.73506280284097281 -0.55880740097739168 0.023549621249832283 -0.0098618347223762351 -0.048300831873908857 24.500000000000004 0.0070821281900359965 0.73819175234170642 -0.057750488731517287 0.94152321667565586 4311.4500000000016 0.34849210486795568 0.019173511942821318 -0.14613007635421471 0.99984918083033913 0.03999464888642517 0.11329914928585318
decision_type=2 2 2 2 2 2 2 2 2 2 2 2 2 2 2 2 2 2 2 2 2
left_child=1 2 3 5 -5 6 -1 8 -7 14 12 16 -9 -14 15 -2 -4 -17 19 -19 -21
right_child=9 -3 11 4 -6 7 -8 10 -10 -11 -12 -13 13 -15 -16 17 -18 18 -20 20 -22
leaf_value=-0.0082108268875927294 -0.035578325533518251 0.075532367897784405 -0.035658610802927253 -0.01056519810133294 0.088078074018045002 -0.0057165028178245321 0.072663564998006691 -0.036195284615510762 0.056681385895535501 -0.0082820331402568351 -0.010268266878970381 -0.0076964876461421521 -0.035961563314973903 -0.035662171702493799 -0.035612883491430956 -0.035489494951864868 -0.035485041960025158 -0.035427511216844336 -0.03545840829324326 -0.035375847973982959 -0.035296968571123938
leaf_weight=3.4926088750362423 2.6394291743636158 2.6436527594923964 1.9118060618638981 3.8524867072701436 4.3796148598194122 3.270001158118248 4.0714045837521553 2.1401669606566429 2.6730113551020631 3.6328439190983763 1.9259945750236509 1.779524467885494 3.2048864215612411 2.2753790393471718 1.7879109457135189 1.7916535809636105 2.1277529671788216 1.6632820069789875 1.685415096580982 1.9538242444396021 1.7315678447484968
leaf_count=28 30 17 21 33 31 30 27 20 22 38 18 19 32 25 20 21 25 20 20 24 22
internal_value=-0.000114368 0.0124206 0.00792403 0.0144281 0.0419147 0.00461295 0.0353206 -0.0103826 0.0223484 -0.0296209 -0.030759 -0.0270441 -0.0359378 -0.0358373 -0.0354702 -0.0354479 -0.0355672 -0.0354089 -0.0353884 -0.0353664 -0.0353388
internal_weight=56.6342 39.7483 37.1046 31.2856 8.2321 23.0535 7.56401 15.4894 5.94301 16.8859 9.54643 5.81908 7.62043 5.48027 13.2531 11.4652 4.03956 8.82574 7.03409 5.34867 3.68539
internal_count=543 348 331 266 64 202 55 147 52 195 95 65 77 57 157 137 46 107 86 66 46
is_linear=0
shrinkage=0.05


Tree=23
num_leaves=20
num_cat=0
split_feature=7 2 32 30 30 34 3 15 3 24 32 27 8 32 0 14 7 3 29
split_gain=5.19139 6.83919 4.37213 4.00814 3.99965 3.66478 3.08663 2.98467 3.91182 2.71968 2.71249 3.80682 3.68431 2.64864 2.52603 2.31267 2.15728 2.08064 1.89659
threshold=0.31655166655870254 0.0016494715612258768 -0.0009225599894857739 0.040169540607496418 0.021099484515218685 3.5000000000000004 0.01128768247202382 0.062122355156086252 0.047225937484046791 0.27538500592371273 -0.00328502946602359 1.32278616144703 -0.035187561566998621 -0.0031926821899540985 -0.001920424610824215 0.010488956645435889 0.066609393829928448 0.007870985469351742 78.251316293119601
decision_type=2 2 2 2 2 2 2 2 2 2 2 2 2 2 2 2 2 2 2
left_child=1 9 13 4 -4 -3 -5 8 14 10 -1 12 -12 -2 -7 18 -14 -16 -8
right_child=2 5 3 6 -6 7 15 -9 -10 -11 11 -13 16 -15 17 -17 -18 -19 -20
leaf_value=0.024720938530492051 0.014648160103674973 0.012303814367058082 -0.0084418968473401104 -0.032102790819055808 0.036631588472852999 -0.0061823812297853399 0.02581550826737207 -0.053344487457250005 0.0055961473794700605 0.025500967227951567 0.0065947138903935847 0.024290122516619279 -0.040661944356257196 0.050903165161740122 -0.021252607247672778 -0.022346196566576843 -0.0066282017753813427 -0.052282075996042211 -0.0053730049327274619
leaf_weight=8.9295589923858625 12.071031302213671 8.1353120207786542 7.7415313124656704 9.2277912795543653 13.512333542108534 9.1519932448863965 9.8917610347271001 7.3351088464260092 11.850734502077101 12.815044254064558 13.697343707084647 8.4618284404277784 11.808037430047998 8.6458446681499463 10.309643834829336 7.4229242801666251 7.6874919831752768 11.35004088282585 9.6100248694419861
leaf_count=24 33 22 21 25 37 25 27 20 32 35 37 23 32 24 28 20 21 31 26
internal_value=3.26213e-05 -0.00643159 0.0100887 0.00298293 0.020214 -0.0188184 -0.00714711 -0.0238824 -0.0188169 0.00492624 -0.000286176 -0.00564698 -0.0132788 0.0297786 -0.0282066 0.00140585 -0.0272417 -0.0375126 0.0104465
internal_weight=199.655 121.532 78.1232 57.4064 21.2539 58.1328 36.1525 49.9975 42.6624 63.3993 50.5843 41.6547 33.1929 20.7169 30.8117 26.9247 19.4955 21.6597 19.5018
internal_count=543 330 213 156 58 158 98 136 116 172 137 113 90 57 84 73 53 59 53
is_linear=0
shrinkage=0.05


Tree=24
num_leaves=19
num_cat=0
split_feature=27 33 13 21 28 34 23 30 24 20 1 35 30 30 17 25 32 32
split_gain=4.08965 3.32717 3.27297 4.2581 3.33522 3.01078 2.72716 3.85375 3.32875 2.62052 2.11092 2.65139 2.39374 2.55926 2.14949 3.57871 1.43882 1.33866
threshold=2.5029042371097261 1.0000000180025095e-35 -0.0018703958744777911 41.942391447466072 -0.25808519627050636 22.500000000000004 0.079169924994173232 0.09352489836102125 0.33319117557123068 0.015661544834500222 0.042094242615240619 16.500000000000004 0.020701075083665237 0.035298174104560966 24.829748055301369 0.7009105146534248 0.00011426949997220288 -7.0733805414227736e-07
decision_type=2 2 2 2 2 2 2 2 2 2 2 2 2 2 2 2 2 2
left_child=1 5 4 -4 -3 9 8 -8 10 -1 11 14 -13 -14 15 16 -5 -2
right_child=17 2 3 6 -6 -7 7 -9 -10 -11 -12 12 13 -15 -16 -17 -18 -19
leaf_value=-0.048037315433195046 0.0091995970252182046 0.00071694373459569791 -0.041174311212870518 -0.031985497492969903 0.038914365065259256 0.0081271949211585131 0.032894452327575291 -0.0061824367887946914 -0.028136966587081147 -0.0087689005383736907 0.018177731932760784 0.028443980228615846 -0.019528673527721304 0.013078100013669245 -0.034147745151083597 0.014506537148840874 -0.0031217586124531026 0.038782653517332823
leaf_weight=9.580170571804052 7.2676956355571738 12.680418074131014 6.7475267648696891 10.855327039957052 10.403198063373564 7.0721363723278037 13.227740347385408 12.063221782445906 12.61289471387863 7.6340298056602469 12.713052570819853 9.0324108302593213 11.009370625019075 13.272904217243193 9.0083482265472394 12.265042722225187 7.1689760088920584 8.0705453455448133
leaf_count=28 20 35 21 31 28 20 36 34 37 22 35 25 31 37 27 34 20 22
internal_value=-3.88951e-06 -0.00214611 0.000581892 -0.00249937 0.0179315 -0.0193389 -0.000381692 0.0142557 -0.00416155 -0.0306228 -0.000617473 -0.00390816 0.00646873 -0.00170553 -0.0127052 -0.00632795 -0.0205053 0.0247654
internal_weight=192.685 177.347 153.06 129.977 23.0836 24.2863 123.229 25.291 97.9383 17.2142 85.3254 72.6124 33.3147 24.2823 39.2977 30.2893 18.0243 15.3382
internal_count=543 501 431 368 63 70 347 70 277 50 240 205 93 68 112 85 51 42
is_linear=0
shrinkage=0.05


Tree=25
num_leaves=22
num_cat=0
split_feature=30 28 30 32 17 3 24 20 19 25 32 32 34 25 34 2 2 27 28 26 23
split_gain=7.88623 4.04927 4.91201 2.98414 3.11082 3.51529 3.05972 5.38006 3.01048 5.30672 2.4095 0.856587 1.19664 0.389744 0.000101942 6.72724e-05 6.54994e-05 2.17512e-05 1.28751e-05 1.25474e-05 4.07773e-06
threshold=0.057744298859799405 -0.56335179257218215 0.020701075083665237 -0.0027275329481370836 26.829614614251003 -0.0074124363120790749 0.15658177872968065 0.027521304453830723 -0.010076015209950237 0.70983689285052221 0.00089357199637143112 -0.0036244825416163798 13.500000000000002 0.93719163533888106 24.500000000000004 0.0082631297199856849 -0.011304630051556793 1.5107267273729945 -0.25808519627050636 3049.9750000000004 0.060140686829090219
decision_type=2 2 2 2 2 2 2 2 2 2 2 2 2 2 2 2 2 2 2 2 2
left_child=1 2 -1 15 5 10 7 -7 -8 -10 16 12 -2 -6 17 -3 -5 18 -13 -20 -19
right_child=11 3 -4 4 13 6 8 -9 9 -11 -12 14 -14 -15 -16 -17 -18 20 19 -21 -22
leaf_value=-0.0049732399765758731 -0.035400375427852952 -0.036181002837383347 0.075414923220526398 -0.0361313010517876 -0.035850022204367039 -0.036278305298508833 0.0095687549809312499 0.050656399716287326 0.12634142317258221 0.031279103368204768 0.027191120188642795 -0.035556707468646878 0.022177342586307287 -0.0064266137995249474 -0.035739072225536746 -0.035775011930630492 -0.035737901032915069 -0.035227269914775636 -0.035330773993821632 -0.035500347985901355 -0.035331945190733786
leaf_weight=3.135639250278472 1.888369709253314 2.1411341279745093 4.8233048915863037 2.0886954888701439 3.3297880738973609 3.7324192076921525 3.2256627678871199 3.4016200006008148 2.4449414089322028 3.6743863597512245 2.3516785576939583 1.7458656951785085 1.7282786741852758 1.7001019865274427 2.516055315732955 1.9492261707782743 2.1442592516541508 1.5232314020395281 2.7877010703086835 1.7921941578388212 2.3905909582972527
leaf_count=25 23 20 28 20 35 35 26 25 19 32 20 20 19 19 27 21 23 20 35 21 30
internal_value=-0.000117758 0.0118104 0.0437439 0.00391338 0.00972286 0.0174928 0.029832 0.0051735 0.0486565 0.0692607 -0.0133878 -0.0293641 -0.00788586 -0.0259049 -0.0354539 -0.0359875 -0.035932 -0.0353839 -0.0354412 -0.0353971 -0.0352912
internal_weight=56.5151 40.1429 7.95894 32.1839 28.0936 23.0637 16.479 7.13404 9.34499 6.11933 6.58463 16.3723 3.61665 5.02989 12.7556 4.09036 4.23295 10.2396 6.32576 4.5799 3.91382
internal_count=543 348 53 295 254 200 137 60 77 51 63 195 42 54 153 41 43 126 76 56 50
is_linear=0
shrinkage=0.05


Tree=26
num_leaves=20
num_cat=0
split_feature=19 2 13 5 5 1 1 23 5 32 35 6 7 8 17 24 16 1 35
split_gain=5.58067 5.09242 3.88557 3.93859 3.44881 3.03874 5.5402 2.82433 3.72802 2.6253 3.07297 4.32462 2.44139 4.86623 2.68746 2.86962 2.39993 1.84716 1.65066
threshold=0.11494890571073425 -0.0084946680432616741 0.0033059838965988696 0.0036924720293243537 0.13276576701125606 -0.0060229862456796695 -0.046704499528444403 0.029784702799674569 1.3168113260249454 0.0039503649906880425 6.5000000000000009 0.0052836296378019751 0.2638959876258577 -0.036814849481576699 1.8792800602189559 0.39364404031250833 -0.043489049776549556 0.010191940855137955 13.500000000000002
decision_type=2 2 2 2 2 2 2 2 2 2 2 2 2 2 2 2 2 2 2
left_child=1 5 4 -4 18 6 -1 -5 12 10 -3 -12 13 -9 -14 17 -8 -16 -2
right_child=2 9 3 7 -6 -7 16 8 -10 -11 11 -13 14 -15 15 -17 -18 -19 -20
leaf_value=0.027455708058657109 0.053098527830566844 0.0108991223080566 -0.031402964568502126 -0.018173307557842439 0.00047650949486392568 0.027729704005473216 -0.041942773921743219 0.025182948200934981 -0.019122742086601682 -0.040682859133509996 -0.0027241010811402608 -0.044301293043558614 0.042778219428310546 -0.031041564780535082 0.040516926180501074 -0.009590332458296361 -0.0045271625914840904 0.010442175217759687 0.023337065237525177
leaf_weight=8.851090192794798 7.6822820007801118 9.2527196407318097 8.1765207946300489 11.15372249484062 11.440993040800093 9.9403124749660474 7.7130165100097683 7.7070426940917969 9.9758356213569623 12.258104503154753 12.939206302165987 12.105689674615858 10.145943373441694 7.6866356432437879 9.0171373784542137 9.5771534740924817 9.6453216969966906 11.769368231296538 11.838448643684385
leaf_count=24 22 25 22 30 31 27 21 21 27 34 35 33 28 21 25 26 26 32 33
internal_value=3.72319e-05 -0.00988943 0.0071043 0.0015922 0.0222741 0.00419045 -0.00473716 0.00509442 0.00903378 -0.0208222 -0.013724 -0.0228208 0.0140583 -0.00289204 0.0204994 0.013055 -0.0211524 0.0234885 0.0350495
internal_weight=198.877 82.7055 116.171 85.2094 30.9617 36.1497 26.2094 77.0328 65.8791 46.5557 34.2976 25.0449 55.9033 15.3937 40.5096 30.3637 17.3583 20.7865 19.5207
internal_count=543 225 318 232 86 98 71 210 180 127 93 68 153 42 111 83 47 57 55
is_linear=0
shrinkage=0.05


Tree=27
num_leaves=23
num_cat=0
split_feature=27 33 6 21 6 34 15 6 12 1 2 2 7 9 4 28 17 2 28 1 4 32
split_gain=3.80077 3.11636 2.9322 4.40718 3.53068 2.87836 2.68566 2.47639 3.31131 3.56762 5.52225 3.31573 3.10112 3.5549 2.98734 2.66033 2.11783 3.74783 2.21934 1.63628 1.57201 1.18863
threshold=2.5029042371097261 1.0000000180025095e-35 -0.12325174095186658 41.942391447466072 -0.2819671088951104 22.500000000000004 0.01643840157928347 2.7252353817764634 0.0046656872146362653 0.021155933819342432 0.034878364915031247 0.010639742934849428 0.2638959876258577 0.072227886450944676 -0.051168083870499162 0.31082917060072951 27.496050434180976 0.037212451659510419 0.4288161481209159 0.0084443241178326547 0.012590980897108363 -7.0733805414227736e-07
decision_type=2 2 2 2 2 2 2 2 2 2 2 2 2 2 2 2 2 2 2 2 2 2
left_child=1 5 4 -4 -3 6 -1 8 9 11 -11 14 13 -10 -5 20 18 -18 -14 -13 -16 -2
right_child=21 2 3 7 -6 -7 -8 -9 12 10 -12 19 16 -15 15 -17 17 -19 -20 -21 -22 -23
leaf_value=-0.046664580865840015 0.0092188527347243556 -0.0082671678264212723 -0.040936201942409864 0.018536042300807756 0.034062209178614931 0.0080421794478789995 -0.006392154171639134 0.026054440767581861 -0.022091955814738887 0.056479881770509444 -0.0042610691917604549 0.034694723165864458 -0.011568816528334136 0.021283876797071249 -0.01973845059327245 -0.044102249627708839 -0.030872599495179995 0.019104881906725921 -0.046330073176734307 0.0015656920408976965 0.010320568718513796 0.037126713597306439
leaf_weight=9.9491061270237022 7.2522968351840964 7.9498112499713924 6.9537867307662955 7.2260135114192883 12.952341765165327 7.069675385951995 7.0897728204727164 8.4766113162040693 7.6787460744380978 7.7526602745056135 7.2329890727996826 7.7071510553359968 8.0199702680110949 12.273841142654417 10.995073050260556 7.0096156895160666 7.6208035349845868 7.3876619338989258 10.741630554199217 7.2176283001899719 7.1963678598403922 8.0507593452930433
leaf_count=30 20 22 22 20 35 20 20 23 22 21 20 21 23 34 31 21 23 21 32 20 20 22
internal_value=-2.65268e-06 -0.00207514 0.000567411 -0.00219783 0.0179629 -0.018779 -0.0299075 -3.47852e-05 -0.00194025 0.00590004 0.0271626 -0.00082901 -0.0110378 0.0045907 -0.00980518 -0.0179316 -0.0202717 -0.00627203 -0.0314708 0.0186735 -0.00784738 0.0239009
internal_weight=191.804 176.501 152.393 131.491 20.9022 24.1086 17.0389 124.537 116.06 62.3375 14.9856 47.3518 53.7227 19.9526 32.4271 25.2011 33.7701 15.0085 18.7616 14.9248 18.1914 15.3031
internal_count=543 501 431 374 57 70 50 352 329 174 41 133 155 56 92 72 99 44 55 41 51 42
is_linear=0
shrinkage=0.05


Tree=28
num_leaves=22
num_cat=0
split_feature=30 7 11 31 6 6 0 21 19 6 34 31 1 5 20 26 22 6 24 25 9
split_gain=7.41624 3.68642 3.60769 3.39428 3.34893 12.1646 5.072 4.3557 3.21922 1.35889 0.864269 0.384539 0.286861 0.000576578 0.000179015 2.6044e-05 3.20258e-05 2.15434e-05 5.90906e-06 5.25246e-06 4.38939e-06
threshold=0.057744298859799405 0.47046049994536443 -0.094104372366046907 -0.015923210870327217 0.01889200610893808 0.00338908082008599 0.017467296465216969 63.699801458452178 -0.039848453936472725 0.20617820574710702 24.500000000000004 0.0015484447754225011 -0.00028844475570349572 0.015117531283838683 0.0226579769504992 4241.1500000000005 0.34849210486795568 0.31459871160802116 0.22561986493546163 0.93719163533888106 0.0032568345057741211
decision_type=2 2 2 2 2 2 2 2 2 2 2 2 2 2 2 2 2 2 2 2 2
left_child=1 2 12 -4 5 8 7 9 -5 13 15 -3 -1 -6 -15 16 -2 -13 -18 20 -20
right_child=10 11 3 4 6 -7 -8 -9 -10 -11 -12 17 -14 14 -16 -17 18 -19 19 -21 -22
leaf_value=-0.036521332809195665 -0.035442952416987208 -0.0072239842338841474 0.063937911778121498 0.04092936206571908 -0.037027159615488539 0.13109908415011337 0.056534482114075094 0.033736795000554119 -0.036427357833090104 0.007333938201370533 -0.0071899156323309401 -0.035366662361481692 -0.010913747351920841 -0.035841682743732735 -0.036474068674288013 -0.035489105638715067 -0.035154661979247721 -0.035604881305382606 -0.035228706123035476 -0.035187481400087164 -0.035329043721699753
leaf_weight=2.4310564696788788 2.4946940019726744 1.7574923783540715 4.4046943560242644 2.5575122088193893 3.3893053010106104 2.6482483297586441 3.7269201129674903 4.2240294069051734 2.8365846052765935 2.2759776413440704 3.5047097057104102 1.7825245857238772 1.9879344105720473 2.2043006122112274 2.273120142519474 1.8686724230647076 1.6873036772012691 2.0298263505101204 1.8250666335225103 1.7906512916088102 2.7061690762639046
leaf_count=21 30 20 28 20 27 16 29 33 26 20 38 22 20 23 20 22 23 23 24 24 34
internal_value=-0.000142008 0.0112054 0.0172244 0.0233342 0.0164913 0.043337 0.00455875 -0.00892444 0.000249914 -0.0266911 -0.0291084 -0.0265734 -0.0250015 -0.0365352 -0.0361627 -0.0353171 -0.0352865 -0.0354935 -0.0352378 -0.03526 -0.0352886
internal_weight=56.4068 40.5295 34.9597 30.5407 26.136 8.04235 18.0937 14.3667 5.3941 10.1427 15.8773 5.56984 4.41899 7.86673 4.47742 12.3726 10.5039 3.81235 8.00919 6.32189 4.53124
internal_count=543 348 283 242 214 62 152 123 46 90 195 65 41 70 43 157 135 45 105 82 58
is_linear=0
shrinkage=0.05


Tree=29
num_leaves=23
num_cat=0
split_feature=19 33 1 6 30 30 35 7 17 12 17 22 7 28 35 12 35 33 14 31 15 21
split_gain=5.11865 4.13251 4.06171 3.8786 3.3731 4.45215 4.53764 3.45355 2.54158 2.30946 2.1336 2.34763 3.94125 3.70787 2.64988 1.77772 2.13875 3.83007 1.69505 1.35792 1.08035 0.999657
threshold=0.11494890571073425 1.0000000180025095e-35 -0.043146074304333093 2.7252353817764634 0.051864340318115668 0.038240164841630633 22.500000000000004 0.31655166655870254 13.942939578074631 0.004704192462973599 -0.48660179414206345 0.49061875467184096 -0.0130282480714032 -0.56335179257218215 6.5000000000000009 0.0021229225758196877 20.500000000000004 3.5000000000000004 -0.0001110459948009753 0.0054672621586852556 0.077057062232505261 52.135495968533739
decision_type=2 2 2 2 2 2 2 2 2 2 2 2 2 2 2 2 2 2 2 2 2 2
left_child=2 19 -1 4 5 6 7 8 -3 -9 -4 12 13 -12 -14 -6 20 -18 -16 -2 -17 -20
right_child=1 3 10 -5 15 -7 -8 9 -10 -11 11 -13 14 -15 18 16 17 -19 21 -21 -22 -23
leaf_value=0.018196180288067947 0.045179259666739469 4.9012308284234245e-05 0.0095762584843521667 -0.027187570733612235 -0.0039599307207899724 -0.02904621681628447 0.037705872542560241 -0.0065659531019425085 -0.039678631271768447 0.032060219566338304 -0.01451557420712705 -0.035349207829961315 0.0018801848325935234 0.03296506057243187 -0.048250566216020127 0.049928674512049326 -0.014889438803886539 0.03538565656689615 -0.0073066535508745246 0.016192576375859573 0.022972610642941496 -0.033166020899228994
leaf_weight=11.414307653903959 7.8536214828491238 8.3376294374465996 8.4896605908870679 9.6028107702732068 7.590025693178176 11.768538117408751 8.7779147028923017 7.3031550645828238 7.784736454486846 8.2314933836460096 8.7145336270332354 13.78980442881584 8.4399805366993004 7.7850238382816235 8.7330387234687752 7.5154612660408038 7.6809385120868665 7.4749493300914764 7.3099102377891594 8.3212834894657117 7.3542063236236572 7.6467794477939606
leaf_count=31 22 23 23 26 21 32 24 20 21 23 24 38 23 21 24 21 21 21 20 23 20 21
internal_value=4.30426e-05 0.00682869 -0.00948525 0.00301553 0.00624464 -0.00198033 0.00589716 -0.00292282 -0.0191336 0.0139013 -0.0139412 -0.0171398 -0.0119762 0.00788732 -0.0221767 0.0176594 0.0231244 0.00990646 -0.0307474 0.0302669 0.0365968 -0.0205276
internal_weight=197.92 115.597 82.323 99.4219 89.819 52.2035 40.4349 31.657 16.1224 15.5346 70.9087 62.4191 48.6293 16.4996 32.1297 37.6156 30.0256 15.1559 23.6897 16.1749 14.8697 14.9567
internal_count=543 318 225 273 247 143 111 87 44 43 194 171 133 45 88 104 83 42 65 45 41 41
is_linear=0
shrinkage=0.05


Tree=30
num_leaves=23
num_cat=0
split_feature=27 33 13 21 27 14 7 15 33 27 30 20 0 30 30 30 7 31 30 25 19 8
split_gain=3.50273 2.77735 2.74783 3.80467 3.04432 2.23209 2.85347 3.15924 2.69428 2.60787 3.19163 3.70423 2.72075 1.79508 3.06399 2.88502 1.77958 1.63931 2.04214 1.42323 1.18535 1.15606
threshold=2.5029042371097261 1.0000000180025095e-35 -0.0018703958744777911 41.942391447466072 0.90941095981929554 0.010488956645435889 0.25475737288652628 0.0022864633047364612 5.5000000000000009 0.60024344457597445 0.045458079331739627 0.002210638097248412 -0.00018922774586065705 0.017944756151195274 0.035298174104560966 0.051864340318115668 -0.1413358684094653 0.012561665650770446 0.022137898268015009 0.85466652258040898 17.08460951953818 0.26706306321043133
decision_type=2 2 2 2 2 2 2 2 2 2 2 2 2 2 2 2 2 2 2 2 2 2
left_child=1 17 4 -4 16 6 8 -8 9 12 11 -11 -5 -9 20 -16 -3 18 -1 -17 -15 -2
right_child=21 2 3 5 -6 -7 7 13 -10 10 -12 -13 -14 14 15 19 -18 -19 -20 -21 -22 -23
leaf_value=-0.0067841436718760074 0.036005849175614307 0.012697311211861613 -0.039601878720669573 -0.028131818851666282 -0.0075988716013835628 0.02150606826991544 0.017236063642101236 0.0061494477181296275 -0.017588116328722782 0.0088255681346524097 0.0017077867762391764 0.057631822393826838 0.014449618552468605 -0.052897807836289001 0.011844399521632744 -0.0083925665585616958 0.047585824961651667 0.0025680096595773628 -0.041782484730787606 -0.037954290371270544 -0.024182465195843935 0.0084571206717071936
leaf_weight=7.4873060286045137 8.0487495958805066 7.2882362008094788 6.5049535334110251 7.0961385667324066 8.3844779729843122 10.655069410800932 8.9158224463462812 8.2491467595100385 9.9685125946998578 7.1748806536197689 12.932665944099424 8.4853981733322126 7.9586974382400495 6.9161116778850538 10.010677337646486 8.6934975385665911 7.3320612609386462 6.9603746831417075 9.4018588066101056 7.6581037342548361 7.4814141690731049 7.22802710533142
leaf_count=22 22 20 21 20 23 29 26 24 28 20 36 23 22 20 28 25 20 20 28 23 23 20
internal_value=7.95293e-06 -0.00199033 0.000503217 -0.00234178 0.0164197 -0.000358287 -0.0024469 -0.010141 0.00586544 0.0112219 0.0200902 0.0352709 -0.00562126 -0.0151215 -0.0194264 -0.00929541 0.0301939 -0.0178517 -0.026267 -0.0222375 -0.0379764 0.0229715
internal_weight=190.832 175.555 151.706 128.701 23.0048 122.196 111.541 57.9248 53.6163 43.6478 28.5929 15.6603 15.0548 49.009 40.7598 26.3623 14.6203 23.8495 16.8892 16.3516 14.3975 15.2768
internal_count=543 501 431 368 63 347 318 169 149 121 79 43 42 143 119 76 40 70 50 48 43 42
is_linear=0
shrinkage=0.05


Tree=31
num_leaves=22
num_cat=0
split_feature=30 1 1 26 8 33 11 23 30 26 23 32 27 17 7 23 26 26 27 33 3
split_gain=6.95465 3.3961 6.67153 3.74303 5.72312 3.42828 3.33796 5.09973 4.73793 2.91317 1.47563 0.875153 1.22368 0.486851 0.000373047 0.000329906 8.55128e-05 4.26633e-05 2.00378e-05 9.56389e-06 2.17449e-06
threshold=0.057744298859799405 0.021155933819342432 0.011344428262189963 1611.0500000000002 0.33260230383542683 3.5000000000000004 -0.094104372366046907 0.053589423113186763 0.025624624341213039 3777.7500000000005 0.061304169091097614 -0.0036244825416163798 1.253832260541029 33.267109195876408 0.38632016212848469 0.038034099058419653 4528.9500000000007 623.90000000000009 1.5170086031188454 2.5000000000000004 0.13699744309086606
decision_type=2 2 2 2 2 2 2 2 2 2 2 2 2 2 2 2 2 2 2 2 2
left_child=1 2 3 4 6 -4 -1 8 -8 13 14 12 -2 15 -5 -3 17 18 -13 -19 -21
right_child=11 9 5 10 -6 -7 7 -9 -10 -11 -12 16 -14 -15 -16 -17 -18 19 -20 20 -22
leaf_value=-0.036255488518722928 0.023829076303061761 -0.036471049399365726 0.030298493189951887 -0.036470106901822216 0.094079571354308389 0.1080340346760118 0.034750033064717051 0.070501389598172565 -0.037268710368604595 0.038791904249153464 0.014598295822316896 -0.035502440663473474 -0.035418838893772529 -0.0052235696581174433 -0.0356091185768539 -0.035714865529017974 -0.035609639423268322 -0.035235746760325405 -0.035255659891673743 -0.035084757644010769 -0.035162840039253206
leaf_weight=3.218333385884768 1.6846330761909478 2.4210666343569738 2.9554225876927367 3.3209417685866347 2.2709278091788283 2.7270645499229431 4.8368911594152504 3.6696007475256911 4.3263298347592354 1.9696219637989996 1.957326643168926 1.7767444774508461 1.8055136203765867 1.6332216188311575 2.0253547728061676 3.5680593177676201 1.8696671873331059 2.968745730817318 1.5316485241055486 2.2636162862181668 1.4711267128586767
leaf_count=30 20 22 24 30 16 18 36 24 34 15 18 21 22 19 23 39 21 39 20 32 20
internal_value=-0.000160861 0.0106152 0.0185901 0.00772117 0.0197861 0.0676043 0.00927504 0.0206936 0.000747051 -0.0154147 -0.0225453 -0.0288332 -0.0068209 -0.0294218 -0.0361439 -0.0360205 -0.0352992 -0.0352413 -0.0353882 -0.0351688 -0.0351155
internal_weight=56.2719 40.9002 31.3082 25.6257 18.3221 5.68249 16.0512 12.8328 9.16322 9.59197 7.30362 15.3717 3.49015 7.62235 5.3463 5.98913 11.8815 10.0119 3.30839 6.70349 3.73474
internal_count=543 348 253 211 140 42 124 94 70 95 71 195 42 80 53 61 153 132 41 91 52
is_linear=0
shrinkage=0.05


Tree=32
num_leaves=20
num_cat=0
split_feature=35 26 2 32 2 35 11 32 1 14 20 5 13 2 12 3 14 14 8
split_gain=4.56022 4.89517 5.2035 4.34658 3.84653 4.2629 5.81901 3.59585 3.22416 2.83722 2.82698 7.09816 3.18887 3.13254 2.40772 3.74571 3.5806 2.16142 1.35607
threshold=29.500000000000004 1601.4000000000003 -0.0084946680432616741 -0.0009225599894857739 0.059291058970171763 8.5000000000000018 0.20087817463927318 -0.00328502946602359 0.022874221611218864 0.0027572745484242974 0.022222777286705145 0.02765689248852406 -0.0015040400663775728 0.06623087011278754 -0.0068246542171766129 -0.051929557305586328 -8.1783435713856569e-05 0.003472149572607869 0.030822388745510389
decision_type=2 2 2 2 2 2 2 2 2 2 2 2 2 2 2 2 2 2 2
left_child=1 2 14 8 5 -5 -7 18 -3 -8 11 12 -9 -12 -1 -16 -17 -11 -4
right_child=-2 3 7 4 -6 6 9 10 -10 17 13 -13 -14 -15 15 16 -18 -19 -20
leaf_value=-0.018897977938121292 0.035417945479228927 0.049785030729208174 0.017163731952196139 0.032029567747256092 -0.023020999618723462 0.037271582085380887 -0.033136796632298515 -0.0076763568378665952 0.0054386565154915419 0.021281719581190198 -0.057190895989202642 0.020257097176816414 -0.05015879893978175 -0.017908315101778396 0.038140613953099027 0.018719424305778391 -0.017573317789846731 -0.01411822677608863 -0.01146812369709087
leaf_weight=8.7415628135204297 8.7050762176513654 9.4684699177742022 8.1615871191024798 13.506300568580626 12.431999117136 7.7749452590942374 9.9013436138629931 7.5530360341072109 7.2270162999629965 7.2480484545230892 10.683433771133425 9.8029330372810346 10.640016227960588 9.6673152744770032 9.0798652768135053 13.960651606321333 13.242505490779878 10.644527345895765 8.3832025527954084
leaf_count=24 24 27 22 38 34 22 27 21 20 20 29 27 30 27 25 38 36 29 23
internal_value=3.82793e-05 -0.00159889 -0.00840217 0.00796331 0.00182188 0.00811522 -0.000965598 -0.017464 0.0305887 -0.0116619 -0.0243494 -0.014041 -0.0325218 -0.0385303 0.00465822 0.0103335 0.00105211 0.000221829 0.00265604
internal_weight=196.824 188.119 109.916 78.2027 61.5072 49.0752 35.5689 64.8915 16.6955 27.7939 48.3467 27.996 18.1931 20.3507 45.0246 36.283 27.2032 17.8926 16.5448
internal_count=543 519 302 217 170 136 98 179 47 76 134 78 51 56 123 99 74 49 45
is_linear=0
shrinkage=0.05


Tree=33
num_leaves=21
num_cat=0
split_feature=27 33 34 15 3 27 26 23 19 30 21 15 0 32 30 15 21 25 15 8
split_gain=3.18516 2.59314 2.79133 2.55888 2.52446 3.52178 3.24788 2.8516 2.69906 3.19721 2.68743 3.85906 5.33955 3.74898 2.2461 1.92762 2.89953 1.8117 1.4184 1.08114
threshold=2.5029042371097261 1.0000000180025095e-35 22.500000000000004 0.01643840157928347 -0.098621822341943111 2.0187281306150942 1601.4000000000003 0.078274168229477178 14.692400136179282 0.026142456171755986 65.362974188761342 0.031096582732039451 0.017771080759002241 -0.0038083427281061749 0.041056245460509629 -0.021463519321773317 47.281267862407738 0.63383085274093365 0.021511237248945367 0.26706306321043133
decision_type=2 2 2 2 2 2 2 2 2 2 2 2 2 2 2 2 2 2 2 2
left_child=1 2 3 -1 -3 6 10 8 18 -10 11 12 13 -6 -11 -15 -17 -18 -8 -2
right_child=19 4 -4 -5 5 -7 7 -9 9 14 -12 -13 -14 15 -16 16 17 -19 -20 -21
leaf_value=-0.045187027956680448 0.03455272887544774 -0.026567806039789421 0.0091805135791526958 -0.005502568289597211 -0.024026175339494051 -0.032633035616207069 -0.043101952314019906 0.016530595037766119 0.022131555003825232 -0.032859347126793857 0.030659243119373937 -0.022058202324614196 0.046323275906756604 -0.0047489440983279618 0.003045694799372094 0.045219862858635496 -0.009986027482412398 0.023097118764446971 -0.014582988626742325 0.0078952724945278961
leaf_weight=9.6229544281959587 8.0260716676712018 8.144316226243971 7.0071574151515952 7.029323309659957 9.2103545963764102 6.9616836309432975 7.1735993623733547 11.948506802320479 9.6803581118583697 8.1532640457153338 13.591140061616896 10.180514246225355 9.1497960984706861 11.959754079580295 9.3515800237655622 7.6650228202343191 7.5812448263168362 9.1119341850280744 11.115317374467848 7.2294979393482199
leaf_count=30 22 25 20 20 26 20 22 33 28 25 38 29 25 34 27 21 21 25 32 20
internal_value=1.03016e-05 -0.00190363 -0.0172947 -0.0284353 0.000508267 0.00205213 0.00382929 -0.00520635 -0.0109178 -0.000926515 0.0104431 0.00620678 0.0114694 0.00446488 -0.0136779 0.0116903 0.0197619 0.00807233 -0.0257692 0.02192
internal_weight=189.893 174.638 23.6594 16.6523 150.978 142.834 135.872 57.4226 45.4741 27.1852 78.4498 64.8586 54.6781 45.5283 17.5048 36.318 24.3582 16.6932 18.2889 15.2556
internal_count=543 501 70 50 431 406 386 167 134 80 219 181 152 127 52 101 67 46 54 42
is_linear=0
shrinkage=0.05


Tree=34
num_leaves=21
num_cat=0
split_feature=30 7 28 32 32 34 6 7 0 28 10 34 6 5 10 26 28 6 27 33
split_gain=6.59655 3.28949 3.10481 2.92233 2.30587 3.45597 3.97267 5.48638 6.42828 2.54003 2.53868 0.889425 0.406881 0.338804 0.000275215 2.57399e-05 2.27631e-05 1.15544e-05 7.45112e-06 6.89007e-06
threshold=0.057744298859799405 0.47046049994536443 0.52029502669556249 0.013267943815267571 0.00020973229022070076 5.5000000000000009 -0.06036538461538455 0.0020513522393764087 -0.0021994079340942403 0.3460466438119556 -0.028047514146076893 24.500000000000004 0.5731302839421647 0.087033395255756388 0.030877463227016365 4241.1500000000005 -0.33159181940754795 0.29898806627216717 1.778357899936301 3.5000000000000004
decision_type=2 2 2 2 2 2 2 2 2 2 2 2 2 2 2 2 2 2 2 2
left_child=1 2 3 4 5 -1 -7 -8 -9 -10 -6 15 17 14 -12 16 -2 -3 19 -18
right_child=11 12 -4 -5 10 6 7 8 9 -11 13 -13 -14 -15 -16 -17 18 -19 -20 -21
leaf_value=-0.036535703264131227 -0.035270291490575562 -0.035260896687841208 0.072433714642198624 0.058272660185769168 0.024171632444751057 -0.02231096086958697 0.091521575781839684 -0.036587581669668398 0.017180242805193504 0.076920771466710156 -0.037088609213569594 -0.0060157012987568682 -0.0055388292569644179 -0.012653220925397987 -0.036331152010214883 -0.035356146146566458 -0.035187660707077871 -0.035437699641078332 -0.035024627615805208 -0.035067413296310836
leaf_weight=2.6334270760417047 2.7670014798641187 2.0824278742074962 2.2566443085670462 3.0775940865278235 3.2469726428389549 3.5602731034159687 3.4566108882427207 3.4910335689783096 3.6582384482026082 3.4641014114022255 2.5549609586596471 3.3763053193688384 1.6503418982028959 2.0969438105821609 2.2599581703543663 1.7653440609574307 2.7533886879682541 1.6612546965479849 2.1955693624913692 2.0997502356767654
leaf_count=24 36 27 15 17 25 34 24 31 31 22 20 38 18 19 21 22 37 20 32 30
internal_value=-0.000160511 0.0101755 0.0156662 0.0118422 0.00714518 0.0168918 0.0248722 0.0368115 0.0189932 0.0462363 -0.0122962 -0.0285971 -0.0262217 -0.0294277 -0.0367331 -0.0351804 -0.0351488 -0.0353394 -0.0351011 -0.0351356
internal_weight=56.1081 41.1508 35.7568 33.5001 30.4225 20.2637 17.6303 14.07 10.6134 7.12234 10.1588 14.9574 5.39402 6.91186 4.81492 11.5811 9.81571 3.74368 7.04871 4.85314
internal_count=543 348 283 268 251 166 142 108 84 53 85 195 65 60 41 157 135 47 99 67
is_linear=0
shrinkage=0.05


Tree=35
num_leaves=21
num_cat=0
split_feature=19 2 33 6 1 1 7 15 20 12 34 34 15 15 17 1 32 10 9 31
split_gain=4.32366 4.23812 3.64555 3.29495 2.7359 5.3294 2.62563 4.71492 4.1633 3.73035 2.31165 2.38973 2.53142 2.50304 2.15006 3.55672 2.43997 1.78477 1.32374 1.19756
threshold=0.11494890571073425 -0.0084946680432616741 1.0000000180025095e-35 2.7252353817764634 -0.0064134534448633809 -0.02835793007368095 0.31655166655870254 0.0060967326689573735 0.021106377842440887 0.0010467614694705996 26.500000000000004 5.5000000000000009 0.0093567447506816993 -0.0059075444634416148 27.496050434180976 0.018092965589798952 0.00039337971748980592 0.36515028693203161 0.094273066673160863 0.0054672621586852556
decision_type=2 2 2 2 2 2 2 2 2 2 2 2 2 2 2 2 2 2 2 2
left_child=1 4 19 6 5 -1 7 -4 -9 -8 11 -3 13 -13 16 -16 17 -11 -10 -2
right_child=2 10 3 -5 -6 -7 9 8 18 14 -12 12 -14 -15 15 -17 -18 -19 -20 -21
leaf_value=0.015375579509389302 0.042711890367269106 -0.00071506653437376083 0.029915482836017561 -0.025204192775480413 0.025494838736647485 -0.031033939528299977 -0.016170735671812795 0.0068439841965902961 -0.047967383992138887 0.055962547580461097 0.0042347856404278024 -0.03474588034077114 -0.05154430869888145 0.0028753072350339907 0.028485066392498898 -0.013778582664044442 0.0043614721426665157 0.024113654295002399 -0.017866471450556917 0.015272057734468764
leaf_weight=14.21063047647476 7.6784810721874228 8.310885936021803 7.4602560997009268 9.5419991612434369 10.561803132295607 10.954383075237276 9.4103820621967298 11.926518738269808 7.3304448425769788 7.8716782033443513 8.7683053612709028 11.537274122238157 9.9494588375091535 7.1681593060493531 9.4146701693534869 10.563435494899748 7.6173613369464865 9.9703558385372144 7.2794511020183563 8.2467736303806287
leaf_count=39 22 23 21 26 29 30 26 33 20 22 24 32 28 20 27 29 21 28 20 23
internal_value=3.60099e-05 -0.00876618 0.00630862 0.00271625 0.00413724 -0.00482658 0.00571494 -0.00520281 -0.0150757 0.0124821 -0.0188461 -0.024321 -0.0311675 -0.020329 0.0184163 0.00613814 0.0280511 0.038165 -0.0329695 0.0285024
internal_weight=195.773 81.4609 114.312 98.3866 35.7268 25.165 88.8446 33.9967 26.5364 54.8479 45.7341 36.9658 28.6549 18.7054 45.4375 19.9781 25.4594 17.842 14.6099 15.9253
internal_count=543 225 318 273 98 69 247 94 73 153 127 103 80 52 127 56 71 50 40 45
is_linear=0
shrinkage=0.05


Tree=36
num_leaves=22
num_cat=0
split_feature=27 6 28 32 32 27 30 2 30 17 25 20 27 3 10 31 15 5 30 32 8
split_gain=3.00796 2.26734 3.9755 1.82123 3.53794 2.8578 2.92253 2.57261 4.81431 5.49862 4.73834 4.23956 3.28034 2.85521 2.48767 1.83624 1.62627 1.32 1.25382 1.07396 0.38275
threshold=2.5029042371097261 -0.17270046493768426 -0.25808519627050636 0.0014744178338034581 0.0024992778011883286 0.52958380797523941 0.07333721054288736 -0.0017064356962670851 0.102899023057099 8.2456771638238937 0.56694670102654554 -0.40883467932007939 0.70923429958684958 0.049546772160555669 0.086006503853144942 0.008939349079306087 0.019540482982974172 0.12954021386958203 0.038454678457926682 -7.0733805414227736e-07 0.041100257083014936
decision_type=2 2 2 2 2 2 2 2 2 2 2 2 2 2 2 2 2 2 2 2 2
left_child=1 2 -1 7 -5 -6 16 11 9 10 -9 -3 -11 -12 -14 18 -7 -16 20 -2 -13
right_child=19 3 -4 4 5 6 -8 8 -10 12 13 15 14 -15 17 -17 -18 -19 -20 -21 -22
leaf_value=-0.010642545171226279 0.0074054092294976032 0.01185444503809952 0.035453370258743185 0.035270404395258574 0.017429251347731402 -0.0079441146951583965 0.011405371633398517 -0.0099447928595452414 -0.036408653121685279 0.016348350050104075 0.044290008845974421 -0.035209093059251802 -0.049551512178998669 0.0099454461639521749 -0.026245013502344913 -0.0045623128147249635 -0.041035202134070331 0.0038453824182892778 -0.019535762906900813 0.034010520093538103 -0.052168705039791319
leaf_weight=8.5695745944976824 7.240613579750061 9.1947230994701368 10.298589020967482 7.8261786699295035 12.518087923526762 7.0061040818691271 8.3943303823471052 11.948791503906248 8.801496356725691 6.8560870587825802 13.158272087574007 6.5606823861599022 6.3745642602443722 11.204349905252455 7.7680388987064344 6.8946079313755027 7.8988578021526337 6.8662151396274567 8.8626777529716474 7.9665772020816785 6.7490951716899872
leaf_count=24 20 28 28 22 35 20 24 34 26 20 36 20 20 31 24 20 23 20 26 22 20
internal_value=1.93024e-05 -0.00184701 0.0145174 -0.00384056 0.00481549 -0.00183897 -0.0121913 -0.00723666 -0.00173093 0.00302497 0.0158458 -0.0177379 -0.0136822 0.028495 -0.0234824 -0.0270988 -0.0254807 -0.012127 -0.0341066 0.021343 -0.0438089
internal_weight=188.959 173.751 18.8682 154.883 43.6436 35.8174 23.2993 111.24 72.9778 64.1763 36.3114 38.2618 27.8649 24.3626 21.0088 29.0671 14.905 14.6343 22.1725 15.2072 13.3098
internal_count=543 501 52 449 124 102 67 325 211 185 101 114 84 67 64 86 43 44 66 42 40
is_linear=0
shrinkage=0.05


Tree=37
num_leaves=22
num_cat=0
split_feature=30 1 1 35 3 11 31 30 4 27 0 32 30 34 22 6 34 27 17 11 32
split_gain=6.20769 3.04805 5.48342 3.7551 2.90105 2.83217 4.18633 2.91179 4.04393 3.11308 1.00494 0.898121 1.34749 0.464703 0.358158 0.000349275 0.00010816 2.22513e-05 9.62477e-06 1.8609e-05 9.95345e-06
threshold=0.057744298859799405 0.021155933819342432 0.011344428262189963 15.500000000000002 0.088198212855568878 -0.094104372366046907 -0.015923210870327217 0.027254874460570479 0.018288879524829819 0.49847590415955945 0.0043582005392710363 -0.0036244825416163798 0.11109792374249773 24.500000000000004 22.388579533130102 0.21917704485846193 24.500000000000004 2.3593032379946526 0.65455927997806118 -0.050373280202865328 -1.0000000180025095e-35
decision_type=2 2 2 2 2 2 2 2 2 2 2 2 2 2 2 2 2 2 2 2 2
left_child=1 2 5 -4 13 -1 -7 8 9 -8 -10 12 -2 15 -9 -3 17 18 19 -13 -20
right_child=11 4 3 -5 -6 6 7 14 10 -11 -12 16 -14 -15 -16 -17 -18 -19 20 -21 -22
leaf_value=-0.036159925363030337 -0.035299103668616237 -0.036314739429199057 0.095415694335015705 0.0165511691494881 0.038934420371471767 0.054789612224875245 0.0066006310639620622 -0.036412018785736341 -0.036479308637736893 0.073545837891012864 0.0080900469151158651 -0.035053156925971725 0.028114725967254225 -0.0062895635823102675 -0.0096501626137413914 -0.035470008053043574 -0.035478423628330376 -0.034932313586246308 -0.034981775391077947 -0.035292713859684785 -0.035145952870200316
leaf_weight=3.3135346919298199 1.7946093752980226 4.0764974281191808 3.335615634918212 2.7568740695714951 1.9604309797286985 4.7972608655691209 3.3922254741191882 3.7679637074470511 2.9719770401716232 3.5579922795295715 2.2017153725028038 1.3903168998658659 1.5711044035851953 1.6912861391901968 1.8710052520036695 1.7485778704285619 2.2686141952872267 1.7588539719581602 1.603503599762915 1.9444518089294414 2.1759113967418688
leaf_count=32 23 39 21 21 16 29 26 35 27 25 18 20 19 19 19 21 27 27 24 25 30
internal_value=-0.00018356 0.00967021 0.0170534 0.0597292 -0.0152339 0.00700445 0.0133442 0.002151 0.0159571 0.0408716 -0.0175124 -0.0283327 -0.00569773 -0.0293621 -0.0275325 -0.0360612 -0.0351703 -0.0350916 -0.0351309 -0.0351928 -0.0350763
internal_weight=55.9503 41.443 31.9662 6.09249 9.47679 25.8737 22.5601 17.7629 12.1239 6.95022 5.17369 14.5074 3.36571 7.51636 5.63897 5.82508 11.1417 8.87304 7.11418 3.33477 3.77941
internal_count=543 348 253 42 95 211 179 150 96 51 45 195 42 79 54 60 153 126 99 45 54
is_linear=0
shrinkage=0.05


Tree=38
num_leaves=22
num_cat=0
split_feature=35 19 2 13 5 5 33 1 7 20 21 4 8 33 35 5 5 17 11 11 33
split_gain=4.15672 4.1776 4.61373 3.89799 3.04463 3.02443 2.56787 2.54131 3.67867 6.17122 3.16213 3.7542 2.90103 2.81957 2.39868 2.33855 2.8439 2.20317 1.46461 1.32161 1.02006
threshold=29.500000000000004 0.11494890571073425 -0.0064677730484795993 0.0033059838965988696 0.0036924720293243537 0.13276576701125606 3.5000000000000004 -0.012511439873417731 0.31953168902329604 0.021106377842440887 69.22983107948285 0.046127667596125736 1.034842473539793 1.5000000000000002 6.5000000000000009 -0.0031378842433376526 -0.11225640396807636 6.1382956801517983 -0.0830528255751843 -0.061332499450704459 2.5000000000000004
decision_type=2 2 2 2 2 2 2 2 2 2 2 2 2 2 2 2 2 2 2 2 2
left_child=1 2 15 5 -5 6 -3 12 9 -9 11 -10 -6 -12 -4 16 -1 -15 -16 -18 -20
right_child=-2 3 14 4 7 -7 -8 8 10 -11 13 -13 -14 17 18 -17 19 -19 20 -21 -22
leaf_value=-0.0077852896481146946 0.033957476029070829 0.050391747865143312 -0.0017371601876497778 -0.030096605615584374 0.04304851449179728 -0.00035655878271285176 0.013366450577588944 0.002531571644085906 0.00024156009621308252 -0.057123995793927254 0.020042721696929326 0.050234370470911317 -0.00061956459727976771 0.002148092667962777 -0.011143850242875813 -0.019042343870813778 0.0089861540839131764 -0.035926111395817563 -0.025253658095427619 0.038829151841564144 -0.046992057866609968
leaf_weight=12.600201934576033 8.6298218667507154 9.6391125619411522 10.546416729688643 8.1069080829620344 7.3141396641731244 11.286464542150496 9.1075958609580976 10.885028749704363 7.9191287755966169 7.2045832872390738 7.234910041093829 7.1420905292034149 7.9235680103302002 7.2289628982543936 7.9321582317352322 9.5427321791648847 7.1345354020595533 8.0089819431304914 10.651249766349794 7.7286486625671422 10.938578218221663
leaf_count=35 24 29 29 22 21 31 26 30 22 20 20 20 22 20 22 26 20 22 30 21 31
internal_value=3.40149e-05 -0.00153929 -0.0104487 0.00476052 -0.00107055 0.0200926 0.032404 0.00225018 -0.00270573 -0.0212276 0.0062209 0.0239484 0.0203412 -0.00565998 -0.0222052 0.00228061 0.00968973 -0.0178635 -0.0295171 0.0245041 -0.0362675
internal_weight=194.706 186.076 77.0745 109.001 78.9683 30.0332 18.7467 70.8614 55.6237 18.0896 37.5341 15.0612 15.2377 22.4729 40.0684 37.0061 27.4634 15.2379 29.522 14.8632 21.5898
internal_count=543 519 214 305 219 86 55 197 154 50 104 42 43 62 112 102 76 42 83 41 61
is_linear=0
shrinkage=0.05


Tree=39
num_leaves=21
num_cat=0
split_feature=35 0 35 28 4 32 13 2 2 1 33 0 0 12 7 4 35 0 22 15
split_gain=2.36004 2.66477 4.07082 2.61911 3.73985 3.32874 2.32934 3.05482 2.24625 2.57802 1.77428 1.70772 2.52367 2.83031 3.6159 1.86427 1.59899 1.53093 1.47534 1.40245
threshold=29.500000000000004 -0.00034631931492043412 24.500000000000004 -0.069370675121851799 0.11183547592333463 -1.3566213862793606e-05 0.0033419364219075894 0.026601557674184789 0.0095144672267603904 -1.0000000180025095e-35 3.5000000000000004 -0.022276643719640613 -0.0068947738306135856 0.0051278817857754568 0.0020513522393764087 0.016891402500677218 16.500000000000004 0.020610437953888294 3.0379287989692956 -0.016087098523359173
decision_type=2 2 2 2 2 2 2 2 2 2 2 2 2 2 2 2 2 2 2 2
left_child=1 2 11 8 6 -6 10 -8 9 -3 -5 16 13 14 -13 -14 19 -10 -7 -1
right_child=-2 3 -4 4 5 18 7 -9 17 -11 -12 12 15 -15 -16 -17 -18 -19 -20 -21
leaf_value=0.0028822858409040635 -0.026113764176313843 0.023882532575401873 0.019322889005300267 -0.037946872275593423 -0.011800832770655283 0.011703690550272263 0.016473316237333131 -0.019894754690466032 0.046166481723448692 -0.017251178595310238 -0.0048154033378979746 -0.0026151361860905025 -0.033866562072890689 -0.019001522508030791 0.043663324545934787 0.000167031730686542 -0.040645645367228068 0.015593382435357409 0.038820127638828389 -0.026593631983671692
leaf_weight=7.6445899307727858 8.2611949443817121 8.1903296411037427 13.570735454559324 9.0778435766696948 8.2003721892833727 9.5189824402332324 13.85617381334305 9.8993398845195753 8.4684455990791339 7.1210095584392574 7.2827852368354788 10.193874031305315 9.8057564795017296 8.2567950785160047 7.2034896016120902 6.8239839971065512 7.4672111272811881 7.9279771149158469 10.603896260261534 8.5476323366165161
leaf_count=22 24 23 39 30 24 27 39 29 23 20 22 29 29 25 20 20 22 22 29 25
internal_value=1.66411e-05 0.00121817 -0.00561576 0.00664412 0.00114039 0.0150506 -0.00868062 0.0013181 0.0185236 0.00475203 -0.0231987 -0.010748 -0.0047292 0.00510554 0.0165468 -0.0199009 -0.0215047 0.0313838 0.0259929 -0.0126776
internal_weight=187.922 179.661 79.5141 100.147 68.4394 28.3233 40.1161 23.7555 31.7078 15.3113 16.3606 65.9433 42.2839 25.6542 17.3974 16.6297 23.6594 16.3964 20.1229 16.1922
internal_count=543 519 231 288 200 80 120 68 88 43 52 192 123 74 49 49 69 45 56 47
is_linear=0
shrinkage=0.05


Tree=40
num_leaves=21
num_cat=0
split_feature=27 7 11 3 11 27 27 15 0 21 31 0 35 23 20 9 27 22 8 0
split_gain=4.83674 3.54372 4.06389 2.86224 4.53217 3.36479 3.98569 3.80383 2.98195 2.32175 1.90564 0.426091 0.381852 0.00198309 0.000173737 0.000144011 8.29032e-05 7.69023e-05 4.18509e-05 1.79995e-05
threshold=1.4441161790717587 0.47046049994536443 -0.094104372366046907 -0.0018080554284773981 0.013626436298935068 0.71167878429778064 0.523627031905609 0.017368416866066331 -0.0015736861834527527 52.135495968533739 -0.018928949001192793 0.0078112128539492816 4.5000000000000009 0.037763276022235344 0.0087775838787972973 -0.042070673045415639 2.3593032379946526 0.7426191881827352 2.2700585645375573 0.017467296465216969
decision_type=2 2 2 2 2 2 2 2 2 2 2 2 2 2 2 2 2 2 2 2
left_child=1 2 11 4 8 6 9 -7 -4 -5 -3 15 -2 -14 -6 -1 17 -15 19 -12
right_child=12 10 3 5 14 7 -8 -9 -10 -11 18 -13 13 16 -16 -17 -18 -19 -20 -21
