tree
version=v4
num_class=3
num_tree_per_iteration=3
label_index=0
max_feature_idx=49
objective=multiclass num_class:3
feature_names=returns_1 returns_2 returns_3 returns_5 returns_10 returns_20 returns_50 returns_100 returns_200 price_to_sma_20 price_to_sma_50 price_to_sma_200 sma_20_slope sma_50_slope sma_200_slope price_to_ema_12 price_to_ema_26 ema_12_26_spread macd macd_signal macd_hist rsi_14 atr_14 atr_pct_14 bollinger_width_20 bollinger_percent_b_20 volume_20 volume_ratio_20 vwap_distance adx_14 high_low_range close_open_range gap_open day_of_week day_of_month days_to_month_end news_sentiment_1d news_sentiment_7d news_article_count_7d earnings_proximity_days congress_buy_score congress_cluster_30d days_since_last_congress insider_buy_score insider_cluster_60d insider_value_60d ceo_bought_90d analyst_upgrade_score consensus_rating watchlist_research_score
feature_infos=[-0.23669859542711175:0.95901809954751138] [-0.25501740413865104:1.0879212561970717] [-0.24620331082844626:1.1121952647421858] [-0.29352835103185732:1.1294303392781611] [-0.38528591352859137:1.6429704899685207] [-0.43484532777688734:2.8694726382284048] [-0.5525304827125439:4.1278264795515254] [-0.62418537291817522:3.8524980624184799] [-0.67693323685005513:4.2838838489571209] [-0.34657722100737587:1.0351961355327639] [-0.3516158777872162:2.0753361168574758] [-0.5488085651200707:3.343803735319038] [-0.030930649235915698:0.077567093194863282] [-0.015759998284885328:0.052091164939410725] [-0.0068915989159890343:0.017924211834941941] [-0.25869283966183682:0.80830414731520384] [-0.31174967344645543:1.0393874582664551] [-2374.6962772458428:7046.685826682573] [-2374.6962772458428:7046.685826682573] [-2084.6491079322823:6424.2650866106014] [-1438.7523354455561:1881.1334246642791] [19.181753319630218:94.970763279254342] [0.0024827119514081795:4391.0617566716537] [0.015623228217062255:0.17242591367122931] [0.047995610644651805:1.5682375260380195] [-0.40643525007617071:1.5740837565397581] [430.30000000000001:99106.649999999994] [0.14906602552247086:9.1765050534641865] [-0.93535983987041216:3.4612912458842828] [5.4776670068294182:99.477684528867471] [0.0054141713380921139:0.52890103316140924] [-0.23887853739091583:0.95892946020542058] [-0.010469867211440225:0.009458500827618831] [0:6] [1:31] [1:31] none none none none none none none none none none none none none none
tree_sizes=3387 3334 3377 3436 3419 3430 3450 3412 3425

Tree=0
num_leaves=31
num_cat=0
split_feature=34 34 33 34 34 7 33 31 34 31 23 31 3 11 33 3 3 6 1 5 34 34 31 33 5 21 34 27 6 32
split_gain=36.8164 49.6078 30.5251 25.0979 24.2053 33.3888 23.8768 22.2767 21.711 22.8671 19.9092 18.8489 17.0939 16.377 13.1941 13.91 12.8752 16.2604 11.9054 10.9412 10.0628 9.9949 9.53992 9.40323 9.2766 8.92855 8.22425 14.8983 8.04387 6.94898
threshold=4.5000000000000009 23.500000000000004 2.5000000000000004 24.500000000000004 28.500000000000004 0.28430703137188157 4.5000000000000009 0.0028414164026455851 5.5000000000000009 -0.016228757760080256 0.084654897795313516 -0.011972885755532315 0.038056000713055281 -0.27298983173050934 4.5000000000000009 -0.057049890002835439 0.23614197195995087 -0.19686424066034713 -0.0081484435453278627 -0.10517137269878361 19.500000000000004 19.500000000000004 -0.036992400636041735 1.0000000180025095e-35 -0.15925245009521657 42.18681436576103 8.5000000000000018 0.95574214067741237 0.12593612928740136 1.6652345768466423e-05
decision_type=2 2 2 2 2 2 2 2 2 2 2 2 2 2 2 2 2 2 2 2 2 2 2 2 2 2 2 2 2 2
left_child=18 2 8 -3 14 -6 10 29 -2 13 26 -12 23 -10 22 -16 17 19 -1 -9 -15 -14 25 -11 -25 -5 27 -4 -22 -8
right_child=1 3 6 4 5 -7 7 16 9 12 11 -13 21 20 15 -17 -18 -19 -20 -21 28 -23 -24 24 -26 -27 -28 -29 -30 -31
leaf_value=-0.73029993920161806 -0.82576331842437356 -0.71151302841524888 -0.72225756979541733 -0.79103589949439701 -0.71762771706875439 -0.78055566056731474 -0.77705473083427656 -0.74638636087014132 -0.78208442194412353 -0.80320355154053913 -0.80445331135370612 -0.73509040921819291 -0.74526535215468193 -0.71634050545788786 -0.79897359524982026 -0.73028930498314604 -0.80728764726950919 -0.73882551485310655 -0.7597457863156527 -0.81490261984009515 -0.73391283896876192 -0.78669497212814987 -0.78621658421431861 -0.73070301038563579 -0.77969181997131998 -0.73302966128168878 -0.80824097041776166 -0.79772756161379443 -0.79897359524982026 -0.80428099323723168
leaf_weight=100.03835809230804 12.691433489322661 38.074300467967987 8.2121040225028974 10.078491300344469 71.669271469116211 29.862196445465088 57.484728157520294 10.078491300344469 17.170762956142426 35.461358278989792 16.424208045005798 24.263034611940384 77.641710758209229 53.005398690700531 9.3319363892078382 35.088080823421478 10.825046211481093 77.641710758209229 52.258843779563904 13.811265856027601 13.064710944890978 17.917317867279053 78.388265669345856 11.57160112261772 58.604560524225235 19.410427689552307 128.40744471549988 32.101861178874969 7.4655491113662711 39.567410290241241
leaf_count=268 34 102 22 27 192 80 154 27 46 95 44 65 208 142 25 94 29 208 140 37 35 48 210 31 157 52 344 86 20 106
internal_value=-0.763328 -0.766767 -0.773787 -0.749368 -0.755046 -0.736136 -0.782546 -0.770608 -0.761744 -0.75896 -0.794485 -0.76309 -0.768357 -0.738118 -0.767653 -0.744719 -0.755451 -0.749925 -0.740404 -0.785997 -0.727852 -0.753033 -0.777097 -0.782218 -0.771614 -0.752855 -0.802056 -0.782354 -0.757571 -0.788155
internal_weight=1167.61 1015.31 723.412 291.903 253.829 101.531 418.817 209.409 304.594 291.903 209.409 40.6872 201.197 90.7064 152.297 44.42 112.357 101.531 152.297 23.8898 73.5357 95.559 107.877 105.638 70.1762 29.4889 168.721 40.314 20.5303 97.0521
internal_count=3128 2720 1938 782 680 272 1122 561 816 782 561 109 539 243 408 119 301 272 408 64 197 256 289 283 188 79 452 108 55 260
is_linear=0
shrinkage=1


Tree=1
num_leaves=31
num_cat=0
split_feature=22 2 6 22 3 6 14 4 2 27 35 7 10 10 4 4 10 26 3 3 29 7 34 17 17 17 20 19 5 17
split_gain=10.243 12.4781 13.3282 10.6395 8.18453 7.72383 10.82 7.91592 6.91369 6.4724 9.10181 9.03342 4.2073 9.63258 10.8994 10.8738 8.21619 6.42296 7.4501 7.43785 5.20268 5.07498 11.2535 4.18736 3.96161 2.74638 4.35944 7.05055 6.26636 2.46389
threshold=0.0069798775427871796 0.032841580296883006 0.17615571750881118 141.75668549879347 -0.051093386086597872 0.47990268010597742 5.3102422883760033e-05 -0.017905956112296919 0.047795626988332736 0.90262927301417395 21.500000000000004 0.062349351597910982 -0.016431349207743706 -0.094353369609118595 -0.013200148848810343 0.0075511981189708742 -0.090577687176822255 887.35000000000014 0.014781486035746515 0.00069061281517504786 75.598409250504403 -0.31799844240151687 19.500000000000004 -0.0083306963369116343 -0.02378537923946655 0.0029254460310914753 0.0045846483158649186 0.0010027662901540416 -0.038084850446698855 1.3250345550899987
decision_type=2 2 2 2 2 2 2 2 2 2 2 2 2 2 2 2 2 2 2 2 2 2 2 2 2 2 2 2 2 2
left_child=1 2 4 12 -1 6 7 -5 -8 10 11 -6 13 14 -2 -16 -15 -18 19 20 21 22 -19 -20 -17 26 27 -23 -29 -14
right_child=3 -3 -4 5 9 -7 8 -9 -10 -11 -12 -13 29 16 15 24 17 18 23 -21 -22 25 -24 -25 -26 -27 -28 28 -30 -31
leaf_value=-2.9122276878293389 -3.0910749478888677 -3.0995078245910852 -2.8970428118756839 -2.9061863930950893 -3.0395781808273266 -2.9452771237284709 -3.0887291116839344 -3.0387683207764651 -2.9924906035843732 -3.0995078245910852 -3.0995078245910852 -2.8715146146202639 -3.0828458907154852 -2.9292531548076797 -2.9247130302801221 -3.0868108661665601 -3.0995078245910852 -3.0695430027092061 -3.0884097424126113 -2.9356377049245572 -2.9496837151816884 -3.0848191864136933 -2.87477166047699 -2.9973550227210422 -2.9871397425340378 -3.0995078245910852 -2.9633040887643607 -3.0511774667170863 -2.9122276878293394 -3.0619071793725108
leaf_weight=1.3348986208438862 35.575048245489597 4.3384205177426329 2.4695624485611907 2.0690928623080254 1.6686232760548612 2.2693276554346076 9.2775454148650152 2.4695624485611978 2.3360725864768019 3.3372465521097183 1.8021131381392477 1.5351334139704702 75.021302491426468 1.468388482928275 2.0023479312658301 3.9379509314894676 5.5398292765021315 1.6686232760548656 9.0105656906962377 2.1358377933502188 1.6686232760548581 6.8079829663038307 1.3348986208438871 1.468388482928275 1.3348986208438871 2.7365421727299681 1.468388482928275 2.0690928623080258 1.3348986208438871 17.286937139928341
leaf_count=20 533 65 37 31 25 34 139 37 35 50 27 23 1124 22 30 59 83 25 135 32 25 102 20 22 20 41 22 31 20 259
internal_value=-3.06454 -3.02672 -3.00072 -3.06779 -3.02718 -3.03165 -3.04379 -2.97833 -3.06937 -3.04557 -3.00961 -2.95905 -3.07161 -3.06334 -3.07967 -3.02391 -3.04526 -3.04983 -3.04116 -3.02412 -3.03403 -3.0421 -2.98298 -3.07565 -3.06158 -3.05442 -3.04386 -3.05544 -2.99669 -3.07892
internal_weight=208.778 16.486 12.1476 192.292 9.67802 18.4216 16.1523 4.53866 11.6136 8.34312 5.00587 3.20376 173.871 81.5623 42.8502 7.2752 38.7121 37.2437 31.7038 21.2249 19.0891 17.4204 3.00352 10.479 5.27285 14.4169 11.6804 10.212 3.40399 92.3082
internal_count=3128 247 182 2881 145 276 242 68 174 125 75 48 2605 1222 642 109 580 558 475 318 286 261 45 157 79 216 175 153 51 1383
is_linear=0
shrinkage=1


Tree=2
num_leaves=31
num_cat=0
split_feature=35 35 33 33 31 17 23 0 35 35 1 33 3 1 35 35 0 3 25 21 33 35 35 35 23 21 2 31 26 3
split_gain=38.8253 53.2772 34.8923 20.063 22.603 18.8163 18.6349 19.0049 14.2449 16.2764 13.4769 13.2349 15.8719 15.6575 17.0333 26.042 11.651 17.4317 11.2375 14.2414 18.928 10.8868 24.5587 10.6952 10.0978 10.3781 10.0827 9.94271 9.51298 9.38196
threshold=27.500000000000004 8.5000000000000018 2.5000000000000004 4.5000000000000009 0.0028414164026455851 0.0018424523767415909 0.084264354249121279 -0.022087880500474437 17.500000000000004 24.500000000000004 -0.0099382284555202868 1.0000000180025095e-35 -0.01516225332700945 -0.024349753971145041 14.500000000000002 19.500000000000004 -0.021497056295529424 -0.002771641774273542 0.21750332413232285 55.441868891770994 5.5000000000000009 25.500000000000004 26.500000000000004 30.500000000000004 0.073495676528257697 66.529362746305921 -0.022795015446649112 0.016908381403413747 29854.400000000005 0.085278260777448531
decision_type=2 2 2 2 2 2 2 2 2 2 2 2 2 2 2 2 2 2 2 2 2 2 2 2 2 2 2 2 2 2
left_child=1 18 5 6 -5 11 21 -8 -6 27 -2 12 -3 -13 -15 -16 -7 -18 -1 -20 24 28 -23 26 25 29 -12 -10 -4 -21
right_child=10 2 3 4 8 16 7 -9 9 -11 23 13 -14 14 15 -17 17 -19 19 20 -22 22 -24 -25 -26 -27 -28 -29 -30 -31
leaf_value=-0.71119134665680683 -0.75567216055521091 -0.66325978618004855 -0.67275677246298959 -0.69233285725915861 -0.7468767317465016 -0.75277469179823131 -0.66916955773445852 -0.74136492969304379 -0.72415639448370583 -0.75477207344135022 -0.68399406943026664 -0.7573754023245165 -0.7149947394765005 -0.67170532947189932 -0.76656173908027958 -0.7017139935666622 -0.68664130366166087 -0.73736231153517562 -0.74932279774655686 -0.70811240961229283 -0.77123061902482948 -0.77338587495598921 -0.65643981399566687 -0.68298330726918877 -0.69460707212158368 -0.76004381442976199 -0.74837726848124697 -0.67697193231119956 -0.72211424236234445 -0.76023441529442237
leaf_weight=48.718110620975494 88.067353814840317 27.731847584247589 140.15825670957565 95.937202453613281 45.720073044300079 54.339431077241898 13.491169095039366 28.106602281332016 18.362980157136917 15.3649425804615 7.4950939416885367 22.485281825065613 31.854149252176285 21.361017733812332 22.86003652215004 47.968601226806641 23.609545916318893 59.960751533508301 126.66708761453629 48.718110620975494 19.487244248390198 9.368867427110672 8.6193580329418182 12.366905003786085 32.978413343429565 18.737734854221344 32.228903949260712 28.481356978416443 10.493131518363951 10.493131518363951
leaf_count=130 235 74 374 256 122 145 36 75 49 41 20 60 85 57 61 128 63 160 338 130 52 25 23 33 88 50 86 76 28 28
internal_value=-0.719055 -0.715702 -0.708331 -0.698815 -0.709991 -0.720953 -0.687978 -0.71795 -0.725688 -0.710116 -0.743748 -0.710033 -0.690917 -0.719965 -0.710841 -0.722644 -0.734752 -0.723033 -0.733209 -0.737382 -0.725784 -0.680584 -0.717349 -0.723588 -0.7178 -0.727612 -0.736229 -0.695468 -0.676195 -0.717349
internal_weight=1172.23 1032.07 726.275 414.104 203.867 312.171 210.237 41.5978 107.929 62.2093 140.158 174.261 59.586 114.675 92.1897 70.8286 137.91 83.5703 305.8 257.082 130.415 168.64 17.9882 52.0909 110.927 77.949 39.724 46.8443 150.651 59.2112
internal_count=3128 2754 1938 1105 544 833 561 111 288 166 374 465 159 306 246 189 368 223 816 686 348 450 48 139 296 208 106 125 402 158
is_linear=0
shrinkage=1


Tree=3
num_leaves=31
num_cat=0
split_feature=35 34 33 34 34 7 33 31 17 23 25 31 0 25 5 1 31 19 13 3 34 35 33 33 2 35 35 35 34 35
split_gain=35.9003 43.4459 26.7945 22.8559 22.3741 30.6023 21.2312 19.5884 18.5287 17.6694 16.9756 24.1387 16.7348 13.5449 15.2664 13.1457 12.7541 13.5803 12.3135 15.8001 12.0363 14.4184 13.8584 10.8998 17.0257 10.8579 10.7921 10.9045 10.4445 8.94508
threshold=27.500000000000004 23.500000000000004 2.5000000000000004 24.500000000000004 28.500000000000004 0.28430703137188157 4.5000000000000009 0.0028414164026455851 0.0051695501346053644 0.084654897795313516 0.19857842513546883 0.0088505594792537088 -0.011983771225748943 0.19255279167330805 -0.072703639806160347 -0.0099382284555202868 -0.020432317415629196 0.006113884088523684 -0.005266002824188932 0.23614197195995087 19.500000000000004 20.500000000000004 1.5000000000000002 3.5000000000000004 0.034094303348020903 23.500000000000004 26.500000000000004 25.500000000000004 9.5000000000000018 15.500000000000002
decision_type=2 2 2 2 2 2 2 2 2 2 2 2 2 2 2 2 2 2 2 2 2 2 2 2 2 2 2 2 2 2
left_child=1 2 8 -3 13 -6 9 -8 10 25 -1 29 -11 -5 -15 -2 17 -16 -9 -20 21 -10 -22 -18 -25 -4 27 -27 -23 -12
right_child=15 3 6 4 5 -7 7 18 20 12 11 -13 -14 14 16 -17 23 -19 19 -21 22 28 -24 24 -26 26 -28 -29 -30 -31
leaf_value=-0.036702001918758019 0.035529188767839191 0.049123253812487395 -0.042923721721867793 -0.043548961368784937 0.0434668932561557 -0.016774121349364467 -0.023296420715924138 -0.02848412270525541 0.038548186619308221 -0.038949200932781321 -0.0015883859906579295 -0.019735769246859117 0.0264973630077594 0.043612753662337481 0.048525727644376251 0.0038025283262277318 -0.035353452762147228 -0.011754874917035925 0.022517043269210377 -0.041926099446024108 0.01197242720569857 0.021588024226927287 -0.057579675886501251 -0.024202756804480835 0.045307041249563557 -0.019964921841241715 -0.059913069044611772 0.048012944602391146 -0.037975865145503593 0.035174700499387701
leaf_weight=42.050679892301559 88.020017862319946 38.210621923208237 133.75918462872505 19.365682125091553 71.896672338247299 29.828291565179825 96.669211477041245 19.712375223636627 63.976121515035629 16.318951398134232 27.210590571165085 78.244308710098267 24.330169975757599 18.303594201803207 18.705571293830872 51.900917410850525 39.859395444393158 18.667161256074905 81.911586165428162 10.760989487171171 22.772356480360031 17.578470468521122 10.447871029376982 23.165054142475128 14.215611100196837 15.964331269264221 8.5153826475143415 9.3573233783245087 12.660364657640455 42.21872690320015
leaf_count=113 235 102 361 52 192 80 260 53 171 44 73 210 65 49 50 139 107 50 219 29 61 47 28 62 38 43 23 25 34 113
internal_value=1.49508e-06 -0.00323655 -0.00972434 0.0130698 0.00764628 0.0258027 -0.0180501 -0.00679391 0.0012302 -0.02935 -0.00867441 -0.000693431 0.000223258 -0.00448229 0.00120966 0.0237608 -0.00556209 0.0184164 0.00740091 0.015034 0.0159761 0.0251007 -0.00990194 -0.0171641 0.00223134 -0.0365228 -0.0112196 0.00515551 -0.00335012 0.0207666
internal_weight=1166.6 1026.68 734.459 292.218 254.007 101.725 417.3 209.054 317.159 208.245 189.724 147.674 40.6491 152.282 132.916 139.921 114.613 37.3727 112.385 92.6726 127.435 94.215 33.2202 77.2401 37.3807 167.596 33.837 25.3217 30.2388 69.4293
internal_count=3128 2754 1972 782 680 272 1122 561 850 561 509 396 109 408 356 374 307 100 301 248 341 252 89 207 100 452 91 68 81 186
is_linear=0
shrinkage=0.05


Tree=4
num_leaves=31
num_cat=0
split_feature=24 31 24 10 1 3 3 1 1 25 30 30 3 29 23 0 31 31 32 2 31 31 31 32 16 25 33 30 30 30
split_gain=12.1918 8.41888 19.3389 10.0045 12.3443 5.28017 8.97003 5.46002 10.147 11.2518 4.60704 7.59245 9.95893 4.55974 4.02954 4.71518 3.95999 7.10865 20.4895 11.2365 7.50954 4.28745 6.05066 5.96227 6.0811 16.8749 8.3734 6.1771 4.58637 4.775
threshold=0.16289354670665257 0.034919607811223594 0.14827277893742505 0.096084219749293334 0.013048940323841993 0.026879137621060135 0.022039796196849985 -0.037880361808767506 -0.058251950637767176 0.2808381446227422 0.038341161822943115 0.030775947337191752 -0.04034617993841904 47.140655912729365 0.025711583533423864 0.003842247608966216 0.058338272339367024 0.029870913919972802 -0.00033685760558457422 0.0015816550335066867 0.033077663885062496 -0.013519250532755097 -0.016228757760080256 -1.0000000180025095e-35 -0.08707354025307569 0.21750332413232285 1.5000000000000002 0.074332393856205756 0.12894960616287157 0.016097486849283277
decision_type=2 2 2 2 2 2 2 2 2 2 2 2 2 2 2 2 2 2 2 2 2 2 2 2 2 2 2 2 2 2
left_child=1 3 -3 5 -5 6 7 8 -1 -10 11 14 -13 -2 15 -9 17 21 19 -19 -20 22 23 -15 -25 -26 27 -27 29 -23
right_child=13 2 -4 4 -6 -7 -8 10 9 -11 -12 12 -14 16 -16 -17 -18 18 20 -21 -22 28 -24 24 25 26 -28 -29 -30 -31
leaf_value=-0.018733349240470543 -0.01517661192407449 0.0066919399374532444 0.23691870607238377 0.21131272637649984 0.0012560907077662899 -0.028141838060772417 0.12526847654294029 -0.012867838716935396 0.041084919164652074 0.21706749168036377 -0.034979868558514954 0.18381170297866145 0.011424051797729132 -0.019383896493629371 -0.035003602528313082 0.10281299523973696 -0.029549348925068188 0.26253134831490366 0.11205432320554479 0.063983738249565658 -0.015418848831020467 0.076724608391851329 0.08812721549822275 -0.023731495348063843 0.2035782796105966 0.029139853201597961 -0.012067739843396277 0.15766207631473594 0.079298526633812025 -0.019344025304018145
leaf_weight=3.0779729932546616 75.846199341118336 2.4003978744149204 1.4711783602833746 1.4204205349087708 1.3778776600956915 7.3258270099759093 1.8712873086333264 2.2448924854397831 2.6270988062024143 1.3882552236318586 6.7707327157258979 1.3708759695291521 2.1545169949531546 12.844564348459249 5.4946178197860718 1.449743404984474 9.2568405568599683 1.344465367496013 1.3599812611937503 1.5162219181656835 7.6787040829658508 1.3428217247128476 2.4365423247218123 4.4518086612224641 1.4666406661272002 2.3395960852503763 6.5493481457233429 1.5571428537368772 1.3130834624171246 35.179976895451546
leaf_count=46 1146 36 22 20 20 110 27 31 38 20 101 20 32 194 81 20 140 20 20 23 116 20 36 67 21 35 98 23 20 525
internal_value=-3.22736e-05 0.0238883 0.0941769 0.0168337 0.107881 0.00971217 0.0194595 0.01201 0.0495703 0.101929 -0.00166324 0.0160783 0.0784583 -0.00613092 -0.00785329 0.0325243 0.00143856 0.00496335 0.0406721 0.157297 0.00376106 -0.00115212 0.0124288 0.00611427 0.0261278 0.0447604 0.0224622 0.0804975 -0.0125111 -0.0158119
internal_weight=208.93 42.4457 3.87158 38.5741 2.7983 35.7758 28.45 26.5787 7.09333 4.01535 19.4854 12.7146 3.52539 166.484 9.18925 3.69464 90.6377 81.3809 11.8994 2.86069 9.03869 69.4815 31.6456 29.2091 16.3645 11.9127 10.4461 3.89674 37.8359 36.5228
internal_count=3128 624 58 566 40 526 416 389 104 58 285 184 52 2504 132 51 1358 1218 179 43 136 1039 474 438 244 177 156 58 565 545
is_linear=0
shrinkage=0.05


Tree=5
num_leaves=31
num_cat=0
split_feature=34 35 33 34 33 34 6 7 34 7 21 0 3 0 30 35 34 25 33 0 5 33 25 33 34 15 3 0 23 33
split_gain=35.6895 53.2496 27.3173 20.8896 18.7419 22.332 29.4884 19.4527 17.2433 28.0898 15.8516 25.2561 16.0743 13.4988 12.8329 15.0888 11.9156 11.7043 13.2281 19.4602 14.3057 11.6649 11.5134 12.0424 14.4099 11.1785 10.5294 10.4856 9.84801 9.12882
threshold=23.500000000000004 27.500000000000004 2.5000000000000004 24.500000000000004 3.5000000000000004 9.5000000000000018 -0.040391443529538738 0.54473280362576715 28.500000000000004 0.28430703137188157 40.211353862933727 -0.01343920307420011 0.038056000713055281 -0.023135696196886619 0.029230572372740293 18.500000000000004 19.500000000000004 0.19255279167330805 3.5000000000000004 -0.036939588413093707 -0.023964723441393398 1.0000000180025095e-35 0.041296699395702373 5.5000000000000009 2.5000000000000004 -0.046334515553060278 0.014781486035746515 0.057093386893383627 0.066018470511460967 1.5000000000000002
decision_type=2 2 2 2 2 2 2 2 2 2 2 2 2 2 2 2 2 2 2 2 2 2 2 2 2 2 2 2 2 2
left_child=1 2 10 -2 5 6 -4 14 17 -10 21 -12 -13 -9 26 -16 -14 -5 19 -19 -21 -1 -3 24 -24 -26 -6 -17 -25 -27
right_child=3 22 4 8 7 -7 -8 13 9 -11 11 12 16 -15 15 27 -18 18 -20 20 -22 -23 23 28 25 29 -28 -29 -30 -31
leaf_value=0.055642902052029021 -0.049649101349683547 -0.050118069412593808 -0.060241272843547515 0.036855065547026847 0.019015622147991459 0.050931811517612981 0.047555768496520157 0.041945875955423845 -0.042881030639273288 0.014746412035656764 -0.026631613285996739 0.020948007177958722 -0.017711125483951335 -0.020743603925250646 0.012244209383212575 0.045783250751741361 0.028848126561617955 -0.036212162614910677 -0.022571027849235578 -0.039205357458027959 0.033382077760840054 0.00543385669919584 -0.038939631311681738 -0.016645187709803649 0.043002355642896756 0.025024730215722903 -0.025181197428239405 -0.0091063416446052672 0.06260519520825801 -0.036501007500931749
leaf_weight=19.489847719669342 38.097578883171082 31.019192427396774 11.97402858734131 19.494224101305008 27.725050389766693 76.463365644216537 13.493449389934538 10.124609917402266 71.759027659893036 29.980883985757828 91.988643407821655 87.331155121326447 74.135682106018066 56.545145511627197 106.41178476810455 81.712088525295258 16.868648588657379 17.964712351560593 57.999805957078934 7.8669936060905448 49.47880494594574 28.460375189781189 54.610109031200409 7.478345811367034 11.222832024097441 8.9827368855476397 26.221012949943542 9.7375654280185682 8.2384050190448743 18.334475308656693
leaf_count=52 102 83 32 52 74 204 36 27 192 80 246 233 198 151 284 218 45 48 155 21 132 76 146 20 30 24 70 26 22 49
internal_value=4.26819e-06 0.00504163 0.0103983 -0.0151189 0.0187645 0.0374252 -0.0031271 0.012792 -0.00995075 -0.0258993 -0.000652483 -0.00535206 0.00562432 -0.0112234 0.0191505 0.0250443 -0.00908086 0.000668053 -0.00462364 0.0091984 0.0234242 0.0258418 -0.023245 -0.0155882 -0.0224189 0.000990449 -0.00246668 0.0399386 0.0248963 -0.0162695
internal_weight=1171.21 878.569 738.682 292.642 420.408 101.931 25.4675 318.477 254.544 101.74 318.274 270.324 178.335 66.6698 251.808 197.861 91.0043 152.805 133.31 75.3105 57.3458 47.9502 139.886 108.867 93.1502 38.54 53.9461 91.4497 15.7168 27.3172
internal_count=3128 2346 1972 782 1122 272 68 850 680 272 850 722 476 178 672 528 243 408 356 201 153 128 374 291 249 103 144 244 42 73
is_linear=0
shrinkage=0.05


Tree=6
num_leaves=31
num_cat=0
split_feature=35 34 33 34 35 7 33 31 17 23 25 31 31 1 24 34 25 9 35 35 23 19 3 35 27 31 3 35 34 3
split_gain=31.511 37.9073 23.6837 20.0392 20.0344 28.7448 19.3768 18.1063 16.5958 16.4167 15.3929 22.1355 15.0808 11.9319 11.7782 12.7461 11.6334 16.3107 11.2203 17.9931 11.8998 10.9735 10.9391 9.8592 12.7869 9.33005 11.0972 8.24397 9.28069 7.97513
threshold=27.500000000000004 23.500000000000004 2.5000000000000004 24.500000000000004 2.5000000000000004 0.28430703137188157 4.5000000000000009 0.0028414164026455851 0.0051695501346053644 0.084654897795313516 0.19857842513546883 0.0088505594792537088 -0.011972885755532315 -0.0099382284555202868 0.96929944617233887 22.500000000000004 0.21750332413232285 -0.070036718001189283 17.500000000000004 24.500000000000004 0.073115499297755224 -0.046894685002992174 -0.019264491760412058 23.500000000000004 0.95574214067741237 -0.027864964343304977 0.044333676542547835 15.500000000000002 20.500000000000004 -0.0064382775314060512
decision_type=2 2 2 2 2 2 2 2 2 2 2 2 2 2 2 2 2 2 2 2 2 2 2 2 2 2 2 2 2 2
left_child=1 2 8 -3 5 -5 9 -8 10 23 -1 27 -11 -2 15 25 -6 -18 29 20 -20 22 -19 -4 -25 -10 -27 28 -12 -9
right_child=13 3 6 4 16 -7 7 18 14 12 11 -13 -14 -15 -16 -17 17 21 19 -21 -22 -23 -24 24 -26 26 -28 -29 -30 -31
leaf_value=-0.034995699287992461 0.033452909012938951 0.045937458412354575 -0.040914915524928486 0.049199645905267958 -0.03004670266907877 -0.017044170670127947 -0.022126810274795489 -0.013091025332042837 0.044212028740243305 -0.036724212928646867 -0.025312832481005999 -0.018896275987081206 0.025576246943015513 0.0032368288920057945 -0.044248611436541331 -0.027636601211565137 0.059646561080876882 -0.0059406582208377523 -0.034453512981004034 0.040056798548164976 0.030791860774517166 -0.0080441648673084641 0.060177177894966599 0.047009896659611521 -0.02709609130982046 -0.0085831703068653883 0.032087515364521521 0.033714675226134846 0.03436297886755349 0.035286769116368986
leaf_weight=41.792396456003189 88.103546857833862 38.234087109565735 132.52928432822227 52.492458879947662 30.7891446352005 23.801282227039337 96.286681860685349 10.848243474960325 38.97963935136795 16.161526054143906 16.37669545412064 78.040209919214249 24.346875905990601 51.928835183382034 7.8378242850303641 13.041656047105787 11.988566398620604 11.967047512531282 37.822387427091599 15.346951276063917 8.5723824203014356 109.56403517723083 13.10809615254402 7.4866388142108908 26.164708435535431 30.895984262228012 36.689687699079514 42.291974484920502 10.819430351257322 39.675156325101852
leaf_count=113 235 102 361 140 83 64 260 29 104 44 44 210 65 139 21 35 32 32 102 41 23 294 35 20 71 83 98 113 29 106
internal_value=1.69322e-06 -0.00304061 -0.00911615 0.0121929 0.00710757 0.0285336 -0.0169713 -0.00621874 0.00118103 -0.0278208 -0.00820891 -0.000620639 0.000720403 0.0222477 0.0151299 0.0190209 -0.00210617 0.00376083 0.00742518 -0.00687387 -0.0223981 -0.00121536 0.0286226 -0.0347781 -0.0106092 0.024731 0.0134954 0.0199042 -0.00157201 0.0248992
internal_weight=1163.98 1023.95 732.006 291.945 253.711 76.2937 415.241 208.552 316.765 206.689 189.321 147.528 40.5084 140.032 127.445 119.607 177.417 146.628 112.265 61.7417 46.3948 134.639 25.0751 166.181 33.6513 106.565 67.5857 69.4881 27.1961 50.5234
internal_count=3128 2754 1972 782 680 204 1122 561 850 561 509 396 109 374 341 320 476 393 301 166 125 361 67 452 91 285 181 186 73 135
is_linear=0
shrinkage=0.05


Tree=7
num_leaves=31
num_cat=0
split_feature=24 5 29 5 13 19 7 28 28 2 28 14 15 21 2 8 8 34 2 26 21 19 1 23 23 1 4 5 9 19
split_gain=11.0586 7.27072 10.4341 15.8473 8.41957 4.82611 4.76052 4.70473 13.4844 6.30096 6.10097 6.08607 9.86852 4.43281 6.03978 11.4522 19.1361 13.9513 6.63916 10.7665 4.71734 4.19808 13.603 3.45206 4.75991 12.1969 4.59807 4.65054 8.2927 3.70362
threshold=0.16289354670665257 0.031341740888809776 57.117218932520949 0.045197290429171325 0.0036263073875279009 0.001813152921258327 -0.23467789267998582 0.74085732782398617 0.55526577379121822 0.0052072598663052841 -0.77800675579705769 -0.00047065840641302774 -0.028446851163482553 35.80330131496919 -0.060604059173034526 -0.28356374194282996 -0.42034192865583736 20.500000000000004 -0.074648989452742051 10035.175000000001 40.389679048228082 9.4216990066509023 0.03545363410592111 0.055526331955225126 0.054140816952144795 0.03780495666448197 -0.095150934743572779 0.24765395799927645 0.15675281207307554 -0.21416108909588746
decision_type=2 2 2 2 2 2 2 2 2 2 2 2 2 2 2 2 2 2 2 2 2 2 2 2 2 2 2 2 2 2
left_child=1 7 6 -4 5 -5 -3 8 9 10 -1 -12 -13 -2 15 16 20 -18 -17 -20 -15 23 -23 24 26 -26 -16 29 -29 -28
right_child=13 2 3 4 -6 -7 -8 -9 -10 -11 11 12 -14 14 21 18 17 -19 19 -21 -22 22 -24 -25 25 -27 27 28 -30 -31
leaf_value=0.089269735109636483 -0.034905362081095424 0.072754544048549349 0.2021284387276687 0.060249191892777054 0.12274220884268677 -0.035008717113719105 -0.035027980485677228 -0.035044435727422836 0.12808335333067963 -0.03496574353558074 -0.020828572068655505 -0.035084547993470307 0.12846003989122828 0.076475015832008261 0.059336693810379371 -0.022744923526174951 0.061995536579630008 0.25468222092772835 -0.034959375378552787 0.14754490990052069 -0.034955104320122672 -0.012632274078905334 0.12363123609498261 -0.016129111709853979 -0.014456656610270794 0.16739584853723649 0.016771131557288339 0.13381818263913073 -0.034924690903099138 -0.025649026339076283
leaf_weight=2.8128191307187125 12.236112784594296 1.3912671059370039 2.10644583404064 2.6230193302035332 2.5313054025173187 2.6965694315731525 3.8857911154627791 5.3080162480473509 2.4488340616226187 6.9023796506226054 7.0415365546941793 1.6214502640068533 2.1395133696496487 1.345534525811672 2.6481324657797805 12.275147996842859 2.0623544976115249 1.7252585068345068 1.5901622027158731 1.6431449130177496 3.2293940111994743 6.700256906449793 2.5205288082361221 82.386963807046413 2.4395863041281696 1.4822552911937235 6.7653182744979885 1.4809682220220559 1.4322095066308973 21.489474486559633
leaf_count=39 190 20 28 38 33 40 57 77 32 104 103 23 30 20 38 185 31 24 24 24 49 98 36 1255 37 22 102 22 22 325
internal_value=-4.6544e-05 0.0223837 0.0502292 0.080353 0.0476798 0.0119617 -0.00661172 0.0073805 0.0171857 0.00394985 0.0236784 0.0065993 0.0579517 -0.005945 -0.00363219 0.0194761 0.0666383 0.149764 -0.00595486 0.0577881 -0.00218234 -0.00789687 0.0246158 -0.0103925 0.00213116 0.0542743 -0.00391617 -0.00929034 0.0508589 -0.015492
internal_weight=208.962 43.5089 15.2344 9.95734 7.85089 5.31959 5.27706 28.2745 22.9665 20.5177 13.6153 10.8025 3.76096 165.453 153.217 23.871 8.36254 3.78761 15.5085 3.23331 4.57493 129.346 9.22079 120.125 37.7379 3.92184 33.8161 31.168 2.91318 28.2548
internal_count=3128 624 216 139 111 78 77 408 331 299 195 156 53 2504 2314 357 124 55 233 48 69 1957 134 1823 568 59 509 471 44 427
is_linear=0
shrinkage=0.05


Tree=8
num_leaves=31
num_cat=0
split_feature=34 35 33 34 33 0 7 34 7 5 0 3 21 31 19 34 1 30 35 1 34 27 3 0 35 2 0 21 34 34
split_gain=31.6336 46.8327 23.9631 18.5016 16.9418 21.0283 17.6297 15.1064 24.7539 14.3776 15.4598 15.0832 15.0286 13.3327 12.2389 11.7799 11.6883 11.6871 13.9934 10.9384 10.9234 10.1271 9.76804 9.75371 9.69077 9.10567 8.54193 8.20074 8.07118 19.3659
threshold=23.500000000000004 27.500000000000004 2.5000000000000004 24.500000000000004 3.5000000000000004 0.085589309028942587 0.54473280362576715 28.500000000000004 0.28430703137188157 -0.27683519058802603 -0.01343920307420011 0.038056000713055281 40.759146138275931 -0.022506840065629561 -0.042248397338497647 6.5000000000000009 0.0050199805986797345 0.029230572372740293 18.500000000000004 -0.0099382284555202868 19.500000000000004 0.50086066954537978 0.014781486035746515 0.057093386893383627 30.500000000000004 -0.022795015446649112 0.013966769207864486 40.297583921938717 21.500000000000004 20.500000000000004
decision_type=2 2 2 2 2 2 2 2 2 2 2 2 2 2 2 2 2 2 2 2 2 2 2 2 2 2 2 2 2 2
left_child=1 2 9 -2 5 15 17 14 -9 -1 12 16 -11 -8 27 -4 -12 22 28 -3 -13 -16 -6 -20 25 -21 -18 -5 29 -19
right_child=3 19 4 7 6 -7 13 8 -10 10 11 20 -14 -15 21 -17 26 18 23 24 -22 -23 -24 -25 -26 -27 -28 -29 -30 -31
leaf_value=0.059287963506376419 -0.046897328404507881 -0.032630059274303382 -0.0027091568761091239 0.015148783588570445 0.018050976704025373 -0.041276028444534013 0.0408002387969418 -0.040398597723470403 0.013742342976903341 0.026499703676792788 0.0017852443123323497 -0.017535685952029936 -0.025985864786098097 -0.02061731711626319 -0.028087175541274434 0.049173327340784834 0.0073970254386666878 0.01452168074692224 0.043627212932364275 0.033898205435083623 0.026209674608737174 0.013761161549800905 -0.02453500281189205 -0.0093293964308144937 0.03497365180756086 -0.027299254861462043 0.048766654827362324 -0.041777247230781273 0.040048413665863036 -0.052279631593824732
leaf_weight=9.7209393680095655 37.79155370593071 87.40142697095871 12.655875027179716 8.6077909767627698 27.712408423423767 8.2199556827545148 10.489004284143446 71.302885234355927 29.992607533931732 16.091893136501312 54.693416327238083 75.147240251302719 89.473554462194443 56.082230925559998 16.809530884027481 80.723348587751389 19.104438692331314 73.759162127971649 81.5687475502491 7.4960367679595938 17.615455269813538 103.28400120139122 26.191491991281509 9.7324516475200635 12.366154193878172 32.139200448989868 35.971972823143005 23.872788071632385 19.850629597902298 12.720531105995176
leaf_count=26 102 235 34 23 74 22 28 192 80 43 146 201 240 150 45 216 51 197 218 20 47 276 70 26 33 86 96 64 53 34
internal_value=6.63625e-06 0.00475092 0.00977447 -0.0142578 0.0176173 0.0353926 0.01194 -0.00939905 -0.024368 -0.000582582 -0.00247159 0.00561454 -0.0179852 -0.0109403 0.000538976 0.0421416 0.0181579 0.0179955 0.0236242 -0.0218267 -0.00922853 0.00790364 -0.00264122 0.0379822 -0.00366883 -0.0157253 0.0344167 -0.0266911 0.0112956 0.0046957
internal_weight=1168.59 876.928 737.525 291.661 419.706 101.599 318.107 253.87 101.295 317.819 308.098 202.533 105.565 66.5712 152.574 93.3792 109.77 251.535 197.632 139.403 92.7627 120.094 53.9039 91.3012 52.0014 39.6352 55.0764 32.4806 106.33 86.4797
internal_count=3128 2346 1972 782 1122 272 850 680 272 850 824 541 283 178 408 250 293 672 528 374 248 321 144 244 139 106 147 87 284 231
is_linear=0
shrinkage=0.05


end of trees

feature_importances:
day_of_month=32
days_to_month_end=27
day_of_week=23
returns_5=20
close_open_range=20
returns_1=12
returns_2=12
returns_100=10
atr_pct_14=10
returns_3=9
returns_20=9
bollinger_percent_b_20=9
rsi_14=8
ema_12_26_spread=7
macd_signal=7
high_low_range=7
returns_50=5
returns_10=4
price_to_sma_50=4
bollinger_width_20=4
volume_ratio_20=4
volume_20=3
vwap_distance=3
adx_14=3
gap_open=3
returns_200=2
price_to_sma_20=2
sma_50_slope=2
sma_200_slope=2
price_to_ema_12=2
atr_14=2
price_to_sma_200=1
price_to_ema_26=1
macd_hist=1

parameters:
[boosting: gbdt]
[objective: multiclass]
[metric: multi_logloss]
[tree_learner: serial]
[device_type: cpu]
[data_sample_strategy: bagging]
[data: ]
[valid: ]
[num_iterations: 300]
[learning_rate: 0.05]
[num_leaves: 31]
[num_threads: 0]
[seed: 0]
[deterministic: 0]
[force_col_wise: 0]
[force_row_wise: 0]
[histogram_pool_size: -1]
[max_depth: -1]
[min_data_in_leaf: 20]
[min_sum_hessian_in_leaf: 0.001]
[bagging_fraction: 1]
[pos_bagging_fraction: 1]
[neg_bagging_fraction: 1]
[bagging_freq: 0]
[bagging_seed: 3]
[bagging_by_query: 0]
[feature_fraction: 0.8]
[feature_fraction_bynode: 1]
[feature_fraction_seed: 2]
[extra_trees: 0]
[extra_seed: 6]
[early_stopping_round: 0]
[early_stopping_min_delta: 0]
[first_metric_only: 0]
[max_delta_step: 0]
[lambda_l1: 0]
[lambda_l2: 0]
[linear_lambda: 0]
[min_gain_to_split: 0]
[drop_rate: 0.1]
[max_drop: 50]
[skip_drop: 0.5]
[xgboost_dart_mode: 0]
[uniform_drop: 0]
[drop_seed: 4]
[top_rate: 0.2]
[other_rate: 0.1]
[min_data_per_group: 100]
[max_cat_threshold: 32]
[cat_l2: 10]
[cat_smooth: 10]
[max_cat_to_onehot: 4]
[top_k: 20]
[monotone_constraints: ]
[monotone_constraints_method: basic]
[monotone_penalty: 0]
[feature_contri: ]
[forcedsplits_filename: ]
[refit_decay_rate: 0.9]
[cegb_tradeoff: 1]
[cegb_penalty_split: 0]
[cegb_penalty_feature_lazy: ]
[cegb_penalty_feature_coupled: ]
[path_smooth: 0]
[interaction_constraints: ]
[verbosity: -1]
[saved_feature_importance_type: 0]
[use_quantized_grad: 0]
[num_grad_quant_bins: 4]
[quant_train_renew_leaf: 0]
[stochastic_rounding: 1]
[linear_tree: 0]
[max_bin: 255]
[max_bin_by_feature: ]
[min_data_in_bin: 3]
[bin_construct_sample_cnt: 200000]
[data_random_seed: 1]
[is_enable_sparse: 1]
[enable_bundle: 1]
[use_missing: 1]
[zero_as_missing: 0]
[feature_pre_filter: 1]
[pre_partition: 0]
[two_round: 0]
[header: 0]
[label_column: ]
[weight_column: ]
[group_column: ]
[ignore_column: ]
[categorical_feature: ]
[forcedbins_filename: ]
[precise_float_parser: 0]
[parser_config_file: ]
[objective_seed: 5]
[num_class: 3]
[is_unbalance: 0]
[scale_pos_weight: 1]
[sigmoid: 1]
[boost_from_average: 1]
[reg_sqrt: 0]
[alpha: 0.9]
[fair_c: 1]
[poisson_max_delta_step: 0.7]
[tweedie_variance_power: 1.5]
[lambdarank_truncation_level: 30]
[lambdarank_norm: 1]
[label_gain: ]
[lambdarank_position_bias_regularization: 0]
[eval_at: ]
[multi_error_top_k: 1]
[auc_mu_weights: ]
[num_machines: 1]
[local_listen_port: 12400]
[time_out: 120]
[machine_list_filename: ]
[machines: ]
[gpu_platform_id: -1]
[gpu_device_id: -1]
[gpu_use_dp: 0]
[num_gpu: 1]

end of parameters

pandas_categorical:null
