tree
version=v4
num_class=3
num_tree_per_iteration=3
label_index=0
max_feature_idx=49
objective=multiclass num_class:3
feature_names=returns_1 returns_2 returns_3 returns_5 returns_10 returns_20 returns_50 returns_100 returns_200 price_to_sma_20 price_to_sma_50 price_to_sma_200 sma_20_slope sma_50_slope sma_200_slope price_to_ema_12 price_to_ema_26 ema_12_26_spread macd macd_signal macd_hist rsi_14 atr_14 atr_pct_14 bollinger_width_20 bollinger_percent_b_20 volume_20 volume_ratio_20 vwap_distance adx_14 high_low_range close_open_range gap_open day_of_week day_of_month days_to_month_end news_sentiment_1d news_sentiment_7d news_article_count_7d earnings_proximity_days congress_buy_score congress_cluster_30d days_since_last_congress insider_buy_score insider_cluster_60d insider_value_60d ceo_bought_90d analyst_upgrade_score consensus_rating watchlist_research_score
feature_infos=[-0.15770030805935434:0.26476032214809259] [-0.20957643668170062:0.31245161674507238] [-0.19874269668969549:0.3439843892920299] [-0.2078879193438268:0.34385819003520612] [-0.28000110514028376:0.54031085765403108] [-0.33281538790272469:0.45637377748647368] [-0.43437635393301105:0.81695282429935123] [-0.4334186999804801:0.86084764688495519] [-0.59020813902810543:2.0581555311926798] [-0.23994265356327962:0.38068575980502978] [-0.33871253862552791:0.38541583074874164] [-0.43173352123242192:0.66316812085399779] [-0.018604491662213507:0.020868835943709828] [-0.010054722537413765:0.011680100473677469] [-0.0054522686111799015:0.0039219200803107309] [-0.17366681520452848:0.27906949486183263] [-0.24992593378983619:0.32345959480559572] [-13.685591214806664:72.670334022574707] [-13.685591214806664:72.670334022574707] [-9.3679470941208312:58.635337298839666] [-27.87156489077843:16.647587930008449] [22.392716741640783:90.293185743629948] [0.076421433304793812:70.350322803850091] [0.012740492841192283:0.10048284994820218] [0.032504553212235346:0.61369443989411843] [-0.4811292705613478:1.5208060576224265] [18.75:4329.6000000000004] [0.048750761730652042:7.5687103594080343] [-0.62241275792000483:0.85726169525615314] [55.844155844155843:99.477684528867471] [0:0.2762353502519907] [-0.13199465054357204:0.2585242466246821] [-0.039673213711262902:0.041752986161258679] [0:6] [1:31] [1:31] none none none none none none none none none none none none none none
tree_sizes=2318 1883 2431 2466 2269 2265 2379 2607 2355 2249 2390 2158 2369 2267 2374 2144 2283 2260 2366 2388 2056

Tree=0
num_leaves=21
num_cat=0
split_feature=7 2 28 3 8 1 27 34 2 26 26 32 1 22 32 31 3 14 34 27
split_gain=7.25759 8.81085 6.16833 4.5471 5.36598 5.53698 5.03187 4.2168 4.10942 6.07813 4.05197 3.7268 3.51684 4.58353 3.34705 3.34297 2.70009 3.91754 2.46805 1.97382
threshold=0.2638959876258577 0.056851109698913056 -0.60247084256245942 0.051882934615619332 0.56741822071242376 0.022376781192526101 1.0251577183418179 13.500000000000002 -0.011559506412073454 690.72500000000014 552.07500000000016 0.001052264162400094 -0.0081799813939763284 17.474984329813932 -4.5523843808807628e-05 -0.0027163083234782105 0.02608566579941533 0.0024754644974800512 14.500000000000002 1.7141636810608747
decision_type=2 2 2 2 2 2 2 2 2 2 2 2 2 2 2 2 2 2 2 2
left_child=1 2 -1 4 5 6 7 14 10 15 -9 19 -2 -14 -4 -10 -15 -18 -7 -8
right_child=12 -3 3 -5 -6 18 11 8 9 -11 -12 -13 13 16 -16 -17 17 -19 -20 -21
leaf_value=-0.91159081311798851 -0.9250482982506022 -0.83004788433600596 -0.86571103296516116 -0.90094277253831856 -0.90252242691002782 -0.85649129851841932 -0.88619933173569854 -0.8686206138556517 -0.84702390331730837 -0.82090695103838152 -0.91819259827738386 -0.85711454397053011 -0.91608315213177827 -0.84963559854520099 -0.82814205268321939 -0.88881102696359116 -0.90905166497975953 -0.8600823794567718 -0.81535709867910955 -0.91819259827738386
leaf_weight=9.8458214700221998 7.2932010889053336 12.763101905584334 10.575141578912737 11.304461687803267 10.210481524467466 7.2932010889053327 14.221742123365408 9.4811614155769295 7.6578611433505968 7.6578611433506003 7.2932010889053336 8.0225211977958661 9.481161415576933 7.2932010889053371 13.492422014474867 12.763101905584351 8.7518413066864031 7.6578611433506003 7.2932010889053345 7.2932010889053336
leaf_count=27 20 35 29 31 28 20 39 26 21 21 20 22 26 20 37 35 24 21 20 20
internal_value=-0.874731 -0.869869 -0.873388 -0.870593 -0.867809 -0.864674 -0.868933 -0.861533 -0.870593 -0.858895 -0.890174 -0.886199 -0.893611 -0.886702 -0.84465 -0.873141 -0.874949 -0.886199 -0.835924 -0.897045
internal_weight=197.646 157.168 144.405 134.56 123.255 113.045 98.4582 68.9208 44.8532 28.0788 16.7744 29.5375 40.4773 33.1841 24.0676 20.421 23.7029 16.4097 14.5864 21.5149
internal_count=542 431 396 369 338 310 270 189 123 77 46 81 111 91 66 56 65 45 40 59
is_linear=0
shrinkage=1


Tree=1
num_leaves=17
num_cat=0
split_feature=30 7 5 21 4 31 20 10 35 30 31 2 11 2 2 2
split_gain=9.02847 5.76515 8.32472 11.5871 8.09176 4.77403 5.31315 2.6347 3.6433 2.00976 2.70705 1.49953 1.33574 0.203482 1.77636e-15 4.44089e-16
threshold=0.036713545543506122 -0.14379405154188188 0.011009321709523534 49.962494201519725 -0.037988806437676888 0.0076131782257378268 0.033954606139907882 0.06411755188658487 17.500000000000004 0.064629454022988544 -0.0064345644467274045 0.010753008208132757 -0.020031128628842983 0.0029954583188538312 -0.023486134571648252 0.0089711889983445352
decision_type=2 2 2 2 2 2 2 2 2 2 2 2 2 2 2 2
left_child=1 13 3 4 -3 7 -7 8 -4 10 -2 -12 -6 -1 -11 -9
right_child=9 2 5 -5 12 6 -8 15 -10 14 11 -13 -14 -15 -16 -17
leaf_value=-2.2894655922527356 -2.233537713459651 -2.1787749988080893 -2.279345309423511 -2.1418781343265403 -2.2465310590378427 -2.2599481006674966 -2.1713956259117793 -2.2894655922527356 -2.218623612448162 -2.2894655922527356 -2.2515145316431426 -2.2894655922527356 -2.2894655922527356 -2.2717550973015923 -2.2894655922527356 -2.2894655922527356
leaf_weight=3.8112993836402884 5.3640509843826338 4.5170955657958993 4.9405732750892692 5.0817325115203849 4.6582548022270212 3.3878216743469229 3.3878216743469238 3.5289809107780448 4.9405732750892639 4.7994140386581421 3.9524586200714111 7.6225987672805786 2.9643439650535583 2.8231847286224365 7.481439530849455 3.246662437915802
leaf_count=27 38 32 35 36 33 24 24 25 35 34 28 54 21 20 53 23
internal_value=-2.25221 -2.23871 -2.23166 -2.20527 -2.2318 -2.25106 -2.21567 -2.26545 -2.24898 -2.27407 -2.2629 -2.27651 -2.26323 -2.28193 -2.28947 -2.28947
internal_weight=76.5083 47.2883 40.6539 17.2214 12.1397 23.4324 6.77564 16.6568 9.88115 29.22 16.9391 11.5751 7.6226 6.63448 12.2809 6.77564
internal_count=542 335 288 122 86 166 48 118 70 207 120 82 54 47 87 48
is_linear=0
shrinkage=1


Tree=2
num_leaves=22
num_cat=0
split_feature=26 28 1 1 33 32 11 1 1 11 5 14 30 20 6 6 6 2 22 6 27
split_gain=8.96491 11.3214 7.58926 6.83195 6.53538 4.92502 4.3658 4.30518 4.10692 3.90385 3.74107 3.61544 5.07612 5.08107 5.58013 3.5537 2.94108 2.77109 1.9168 1.82441 1.77646
threshold=1199.5500000000002 -0.60247084256245942 -0.043146074304333093 -0.014006597381029962 3.5000000000000004 0.011723060311512653 0.0031287944357768255 0.0070820811966455137 -0.0069094252338501921 0.10134337783484514 0.16437573499273708 -0.0016715921819126078 0.046779471090151556 0.0024812419997026101 0.03233712548210483 0.18492216591207863 -0.0080809505238538474 -0.015345429186299142 21.994023965593929 0.023171738059928653 1.2583276116709692
decision_type=2 2 2 2 2 2 2 2 2 2 2 2 2 2 2 2 2 2 2 2 2
left_child=1 -1 -3 -2 15 6 11 8 17 -10 19 -4 13 14 16 -5 -13 -8 -6 -9 -21
right_child=3 2 5 4 18 -7 7 10 9 -11 -12 12 -14 -15 -16 -17 -18 -19 -20 20 -22
leaf_value=-0.69342233850346424 -0.68352639206746924 -0.70876105547925661 -0.72991364098619593 -0.68923559193438944 -0.7688789300779264 -0.78385081455652239 -0.72212058316784988 -0.74419284630552573 -0.68610794331164193 -0.73548011085644316 -0.72212058316784988 -0.74382981566181394 -0.80227774929940976 -0.78503964905606349 -0.70876105547925661 -0.72844878049402562 -0.78319270974427635 -0.76331246020767929 -0.73548011085644316 -0.78955438959598756 -0.75551940238933313
leaf_weight=10.105147361755369 10.105147361755369 11.227941513061522 8.982353210449217 9.7308826446533221 8.9823532104492205 10.853676795959471 7.4852943420410112 8.6080884933471733 8.6080884933471769 7.4852943420410147 7.4852943420410147 11.976470947265623 7.4852943420410147 11.602206230163572 7.4852943420410147 14.222059249877928 7.8595590591430726 8.982353210449217 8.2338237762451154 7.8595590591430646 7.4852943420410156
leaf_count=27 27 30 24 26 24 29 20 23 23 20 20 32 20 31 20 38 21 24 22 21 20
internal_value=-0.738438 -0.744551 -0.748203 -0.720365 -0.729408 -0.751604 -0.748672 -0.739777 -0.727034 -0.709072 -0.752975 -0.75895 -0.764569 -0.757318 -0.745546 -0.712518 -0.759426 -0.744589 -0.752906 -0.762617 -0.772952
internal_weight=202.851 151.577 141.472 51.2743 41.1691 130.244 119.39 63.9993 32.561 16.0934 31.4382 55.3912 46.4088 38.9235 27.3213 23.9529 19.836 16.4676 17.2162 23.9529 15.3449
internal_count=542 405 378 137 110 348 319 171 87 43 84 148 124 104 73 64 53 44 46 64 41
is_linear=0
shrinkage=1


Tree=3
num_leaves=22
num_cat=0
split_feature=1 7 33 0 2 8 11 13 20 6 0 33 0 3 6 4 21 0 1 24 31
split_gain=6.8041 7.27337 4.62644 8.44863 4.51751 3.9382 5.50778 3.81164 3.72135 5.95817 4.2976 3.488 3.4086 3.82131 3.36103 3.02639 2.9113 2.47175 3.84228 2.05274 1.08514
threshold=0.077894025061652064 0.1292800562305414 4.5000000000000009 -0.0059009248233346428 0.0094476396146618239 0.47274537999916061 0.061233048410423145 0.0033192364336585805 0.03106910633545679 0.034139510388017984 0.0039337132683982977 2.5000000000000004 -0.00070899650423008448 -1.0000000180025095e-35 0.2365454767854758 0.028961770742534299 45.080162034615221 -0.010325208081142517 -0.024782061701048214 0.11666627095139738 0.0028215841574815576
decision_type=2 2 2 2 2 2 2 2 2 2 2 2 2 2 2 2 2 2 2 2 2
left_child=1 2 5 16 20 6 8 19 9 12 -11 -7 17 -14 15 -9 -4 18 -1 -3 -5
right_child=-2 7 3 4 -6 11 -8 14 -10 10 -12 -13 13 -15 -16 -17 -18 -19 -20 -21 -22
leaf_value=-0.023481770992429589 0.046107540651244477 -0.05083710842836741 0.011747825956509781 0.0039949034873872245 0.060037476588002715 -0.0027083752623712804 0.036215185270447016 -0.01527401841396 0.028047315615894297 -0.056628175288359534 -0.0052971214161325816 -0.050068386391977943 0.037840764323376137 -0.0064191035540867598 -0.025105283507342226 0.027649433489861919 -0.031949633640980767 -0.030321362023045435 0.025566098950713403 -0.020546369096502856 0.031239063309769517
leaf_weight=7.6060779094696018 7.6905361115932456 9.4028762578964251 7.2770599424839011 7.3075008392334002 11.000873267650602 8.3479632437229139 10.620285391807554 7.2570673823356691 8.7651498317718488 8.7109169661998767 7.666167050600051 7.2763513624668112 10.976467519998552 8.7757931947708183 12.701691538095472 9.4591799080371839 8.0041771531105024 9.1406298577785474 8.4054273664951324 13.804469794034956 7.3121579885482788
leaf_count=21 21 26 20 20 30 23 29 20 24 24 21 20 30 24 35 26 22 25 23 38 20
internal_value=2.02472e-06 -0.00186595 0.00419583 0.0182838 0.0358339 -0.00178836 0.00266183 -0.0176689 -0.00242545 -0.006784 -0.0325999 -0.0247643 0.00263134 0.0181764 -0.00571703 0.00901497 -0.0111405 -0.00957639 0.00226648 -0.0328192 0.0176213
internal_weight=197.509 189.818 137.193 40.9018 25.6205 96.2912 80.6669 52.6253 70.0466 61.2815 16.3771 15.6243 44.9044 19.7523 29.4179 16.7162 15.2812 25.1521 16.0115 23.2073 14.6197
internal_count=542 521 376 112 70 264 221 145 192 168 45 43 123 54 81 46 42 69 44 64 40
is_linear=0
shrinkage=0.05


Tree=4
num_leaves=20
num_cat=0
split_feature=30 0 25 6 3 16 30 32 32 11 8 23 23 33 0 10 30 2 10
split_gain=8.41431 6.25402 4.90474 4.95807 4.46972 4.80214 4.92394 3.86722 3.86168 4.9268 3.45586 1.52672 1.09057 0.552063 0.27351 5.22574e-05 2.49091e-05 2.06111e-05 2.28279e-06
threshold=0.036713545543506122 0.007376565081986094 0.28476768600632152 -0.0019902473938519529 0.0054029820910054772 0.04706620579499133 0.022040013534123295 0.010172412698361758 -0.0005035957985965407 -0.017982563031784412 0.41658551136734384 0.03317733466133508 0.021525560849185953 4.5000000000000009 -0.010572645710635023 0.053873670830245281 0.068995041277494215 0.011673822530793901 0.12536938933716776
decision_type=2 2 2 2 2 2 2 2 2 2 2 2 2 2 2 2 2 2 2
left_child=1 2 3 -1 -3 6 -6 11 9 -4 -11 -2 -10 16 -14 -16 17 -13 -18
right_child=7 4 8 -5 5 -7 -8 -9 12 10 -12 13 14 -15 15 -17 18 -19 -20
leaf_value=-0.00013634757654119574 0.0013839948435843219 0.0027972943545449321 0.063183890459865041 0.082222756365610397 0.043767894646176933 0.01108977557651989 0.1344995019354506 0.034463465676663356 -0.0036019850093289688 -0.037238594038413501 0.03386718540730977 -0.037273614852294183 -0.019187475528653092 -0.018763603822581982 -0.037348324503479934 -0.037099986327482674 -0.03709391763505944 -0.037120481933756055 -0.037036969572556873
leaf_weight=4.0299204587936401 3.8900108039379182 4.9865631610155097 3.4794301837682724 3.343507543206214 3.0777397751808149 3.0889092981815338 2.9083566218614578 2.7908607423305503 4.4455877840518978 4.3540118783712369 2.8126277923583984 4.3941702693700844 2.7794661968946413 5.428386151790618 4.7396098673343676 3.8303210586309433 5.055360034108161 4.3953324407339096 2.6993687003850937
leaf_count=28 28 35 24 23 21 21 20 20 31 31 20 31 20 39 33 28 37 32 20
internal_value=-2.33839e-05 0.0128027 0.00114922 0.0372097 0.0408264 0.0617227 0.08785 -0.021454 -0.00890671 0.014368 -0.00933234 -0.0274881 -0.0245942 -0.0325996 -0.0328169 -0.0372373 -0.0371394 -0.037197 -0.0370741
internal_weight=76.5295 47.8761 33.8145 7.37343 14.0616 9.07501 5.9861 28.6535 26.4411 10.6461 7.16664 25.8626 15.795 21.9726 11.3494 8.56993 16.5442 8.7895 7.75473
internal_count=542 335 238 51 97 62 41 207 187 75 51 187 112 159 81 61 120 63 57
is_linear=0
shrinkage=0.05


Tree=5
num_leaves=20
num_cat=0
split_feature=7 28 0 33 14 22 20 20 27 0 0 5 22 6 34 8 0 28 8
split_gain=9.08529 9.5512 6.20027 6.66231 5.86434 4.37817 4.03221 4.46316 3.94369 3.80958 4.49086 3.94975 3.54826 3.23642 3.3528 3.22645 3.20175 3.32453 2.76947
threshold=0.31189642670472068 -0.60247084256245942 -0.023543136703527628 4.5000000000000009 -0.00039242226287521304 0.56244474610247086 0.036589936872905605 -0.62504025150261899 1.2733812934827238 -0.0095495086433057871 0.010733421727527268 0.022976622169401221 39.701862883849536 0.03233712548210483 19.500000000000004 0.54697562204938321 0.0006673291495246478 -1.0000000180025095e-35 -0.066023787835416722
decision_type=2 2 2 2 2 2 2 2 2 2 2 2 2 2 2 2 2 2 2
left_child=1 -1 18 5 -5 9 7 -7 -8 -4 13 -12 15 14 -11 -2 17 -6 -3
right_child=12 2 3 4 16 6 8 -9 -10 10 11 -13 -14 -15 -16 -17 -18 -19 -20
leaf_value=0.042471161009901282 0.061933995607820286 -0.00029188896271367941 -0.039763159087360257 0.0087802392298636459 -0.045078190459749513 -0.0040561097338821872 -0.022862096238477965 0.046137781823878565 0.021071154244267479 -0.030546249664631233 -0.04777366666589189 -0.0021635632771188312 0.0054552273094151836 0.021729151167761893 0.013807917214211585 0.019788590085939636 -0.055771515960696787 -6.1216934461334123e-05 0.037800151772269641
leaf_weight=10.124264925718306 8.2454468309879321 9.3577113151550311 10.828733533620833 8.2318015396594983 8.5850670635700244 7.4805989861488369 13.460740834474565 10.855586051940916 8.2318804860115034 9.3331994414329582 10.078241407871248 8.9725356698036176 14.22944590449333 14.589187562465666 7.8394542336463919 10.108159333467482 14.558375895023344 7.8526138961315182 9.7363793551921827
leaf_count=27 22 25 29 22 23 20 36 29 22 25 27 24 38 39 21 27 39 21 26
internal_value=6.85569e-06 -0.00462586 -0.00760615 -0.0112296 -0.0287333 -0.00447608 0.00839958 0.0256602 -0.00619038 -0.0128373 -0.00709911 -0.0262922 0.0241943 0.00441294 -0.0102982 0.0387226 -0.038696 -0.0235727 0.0191318
internal_weight=202.699 170.116 159.992 140.898 39.2279 101.67 40.0288 18.3362 21.6926 61.6414 50.8126 19.0508 32.5831 31.7618 17.1727 18.3536 30.9961 16.4377 19.0941
internal_count=542 455 428 377 105 272 107 49 58 165 136 51 87 85 46 49 83 44 51
is_linear=0
shrinkage=0.05


Tree=6
num_leaves=21
num_cat=0
split_feature=1 7 28 33 14 14 31 1 19 32 10 33 16 32 32 32 6 15 21 28
split_gain=6.35822 6.52859 5.99639 3.31136 5.89358 5.65352 5.63618 4.22115 4.28545 3.52644 3.08153 2.79082 2.76508 2.67521 2.0152 2.65456 3.25687 2.70512 2.01055 1.68508
threshold=0.077894025061652064 0.1292800562305414 -0.60181710179864234 4.5000000000000009 0.0017660690411863634 0.00096739815298112349 0.0015484447754225011 -0.024782061701048214 -0.033506814483453461 -0.001490183575001308 0.034005649895773628 2.5000000000000004 0.015674987648200606 -0.0012023076287913284 -0.00094195942066648789 -1.0000000180025095e-35 0.19633621270802104 0.045836748797581851 55.307376419308881 -0.15384515786297803
decision_type=2 2 2 2 2 2 2 2 2 2 2 2 2 2 2 2 2 2 2 2
left_child=1 2 -1 4 5 7 13 -4 -9 -10 -3 -6 -11 -5 -12 -16 -17 -18 -8 -15
right_child=-2 10 3 6 11 -7 18 8 9 12 14 -13 -14 19 15 16 17 -19 -20 -21
leaf_value=-0.03008894949012373 0.044442192688827813 -0.044118799862728902 -0.022864944494865008 -0.021910265494109467 -0.0070080707234646492 0.040802728382344257 0.025598411755569629 0.031669970924568309 0.023326459737254675 0.002281479554720378 -0.031036752693773314 -0.048701797370156452 -0.034405456559560045 0.031449247250981228 0.018224286024076421 -0.035801004241775652 0.021785222165531085 -0.020944664671443548 0.060896417462892351 -0.001261513292437187
leaf_weight=11.841936081647871 7.7335184812545767 8.6408893167972547 13.396807998418806 7.2443891465663937 9.0714162290096301 11.033204853534697 8.8455516993999499 14.351560354232779 9.8640326559543556 12.439596921205537 10.089300155639647 7.1984664201736441 8.747681647539137 7.7358912527561197 8.6977128982543892 10.073092371225362 7.6298974454402906 7.1983903348445892 7.4166568219661704 8.0176675021648371
leaf_count=33 21 24 37 20 25 30 24 39 27 34 28 20 24 21 24 28 21 20 20 22
internal_value=3.11556e-06 -0.00181012 0.00392079 0.00713339 0.00164612 0.00796024 0.0191677 0.00179766 0.00907474 -0.00136852 -0.0168363 -0.0254551 -0.0128656 0.00323712 -0.0114402 -0.00555569 -0.0138617 0.001042 0.0416967 0.0148013
internal_weight=197.268 189.534 137.205 125.363 86.1028 69.8329 39.2602 58.7997 45.4029 31.0513 52.3293 16.2699 21.1873 22.9979 43.6884 33.5991 24.9014 14.8283 16.2622 15.7536
internal_count=542 521 376 343 236 191 107 161 124 85 145 45 58 63 121 93 69 41 44 43
is_linear=0
shrinkage=0.05


Tree=7
num_leaves=23
num_cat=0
split_feature=30 32 7 7 7 32 4 7 30 30 33 4 4 30 23 8 30 0 2 28 26 4
split_gain=7.97908 6.86696 3.31002 5.36546 5.69725 5.02712 5.01809 4.43188 4.3168 8.38585 3.19689 4.21628 3.06787 0.978199 0.296885 0.274419 0.000112973 5.25966e-05 1.89116e-05 9.59887e-06 7.97037e-06 7.65666e-06
threshold=0.056752516421119163 0.011723060311512653 -0.14379405154188188 -0.043958748374769867 -0.058875263007285732 0.00032831291166513838 0.012517371997234903 -0.094555529957440293 0.022911157207623583 0.032811703814910616 3.5000000000000004 0.05554748987854246 -0.0074903872889771341 0.036114819664603816 0.040439619082963764 0.63403002507140271 0.03722554685348007 0.0049596692622905945 0.060628265071358649 -0.26744031853381739 780.30000000000007 -0.077291969108906136
decision_type=2 2 2 2 2 2 2 2 2 2 2 2 2 2 2 2 2 2 2 2 2 2
left_child=1 2 13 4 5 7 8 -4 12 -10 15 -12 -5 19 -2 16 17 -8 20 -1 21 -16
right_child=14 -3 3 6 -6 -7 10 -9 9 -11 11 -13 -14 -15 18 -17 -18 -19 -20 -21 -22 -23
leaf_value=-0.037073863125297916 -0.018619476750055469 0.069449912165402874 0.075384570257747863 -0.037309039994273034 0.096478512411352912 -0.037218459763951724 -0.037242532256978815 -0.0046683210530877707 0.087422192940073681 -0.020210526157329115 -0.027025231132723471 0.040088484923458984 0.03047331333157971 -0.00098705262502360382 -0.036988723388557597 -0.019528496349795463 -0.037003013688959044 -0.037526112057217162 -0.036872195790023987 -0.037202889765151785 -0.036945423056633231 -0.037101248650019396
leaf_weight=2.7169055938720703 2.7107369452714911 4.2033308893442145 3.9857130944728842 3.8400336503982544 2.9840950965881339 2.9367175549268723 3.6471363157033938 3.0534210652112952 4.798837348818779 2.9052532166242599 4.8491948097944242 4.5228427201509476 2.9531015455722791 2.7643678933382034 2.8041418194770795 2.8189784288406363 3.0794791132211685 2.9639119058847427 2.990570366382598 3.0705208629369718 2.6449680030345917 3.2800824791193008
leaf_count=20 20 28 27 27 20 21 26 21 32 20 34 32 21 20 21 20 23 20 23 22 20 24
internal_value=-4.04396e-05 0.00774285 0.0032624 0.00823996 0.035865 0.0177335 -0.00160145 0.0406594 0.0212131 0.0468333 -0.0167168 0.00536311 -0.0078428 -0.0254551 -0.0335316 -0.033259 -0.0372532 -0.0373697 -0.0369807 -0.0371423 -0.0370179 -0.0370494
internal_weight=76.5243 62.0938 57.8905 49.3387 12.9599 9.97585 36.3788 7.03913 14.4972 7.70409 21.8815 9.37204 6.79314 8.55179 14.4305 12.5095 9.69053 6.61105 11.7198 5.78743 8.72919 6.08422
internal_count=542 434 406 344 89 69 255 48 100 52 155 66 48 62 108 89 69 46 88 42 65 45
is_linear=0
shrinkage=0.05


Tree=8
num_leaves=21
num_cat=0
split_feature=7 28 1 19 11 7 23 1 17 11 32 17 21 7 27 10 27 30 13 7
split_gain=8.24463 8.96004 6.75878 6.23425 5.47273 3.44238 3.68567 3.36093 3.31328 6.14163 3.08022 2.81205 2.78745 2.94108 2.74954 2.62697 1.97567 1.78175 1.04137 0.703559
threshold=0.31189642670472068 -0.60247084256245942 -0.043146074304333093 0.036675499079830955 0.10286349625450199 -0.28407820897959807 0.024937554905533347 0.017813379067440769 10.154672841444496 0.19282716882101744 -0.00328502946602359 27.496050434180976 64.83942593774249 -0.018825752547080979 0.39657160872260533 0.13816317530887964 0.94445601648549526 0.024405417915656983 0.0003016917935168657 0.010932567441284151
decision_type=2 2 2 2 2 2 2 2 2 2 2 2 2 2 2 2 2 2 2 2
left_child=1 -1 -3 5 15 -4 -7 17 12 -10 -8 -9 13 -6 -12 -5 19 -2 -18 -16
right_child=7 2 3 4 8 6 10 11 9 -11 14 -13 -14 -15 16 -17 18 -19 -20 -21
leaf_value=0.04121154916299663 0.021452594278836053 0.026565966144929006 0.0091016906792488889 0.033357344865565651 -0.028905794535701523 0.0019504636905779669 -0.0072087625664129925 0.026910146928479567 0.04084223446876991 -0.021732059615025244 -0.014059319732452658 -0.014441841715890996 -0.042230825023157725 0.012055162783904059 -0.061182903476755424 0.00067559177306395195 -0.015596432992477094 0.054790612839583953 -0.042028848011098817 -0.041327736768002277
leaf_weight=10.122036725282667 7.4914244711399105 13.489452660083769 8.9666570723056775 14.216906487941744 8.9422154426574725 11.55650147795677 12.672344595193854 8.613041430711748 7.4934993088245383 8.2258874177932721 11.534396827220922 7.8657354414463034 9.7042105197906476 8.5940784215927142 11.150770813226702 10.834601700305937 7.457913935184477 8.618651330471037 7.4470983147621155 7.4375163316726676
leaf_count=27 20 36 24 38 24 31 34 23 20 22 31 21 26 23 30 29 20 23 20 20
internal_value=1.22509e-05 -0.00440772 -0.00729871 -0.0104226 0.000649129 -0.0200489 -0.023823 0.0230482 -0.0101818 0.00809738 -0.0289851 0.0071718 -0.02073 -0.0088319 -0.0351137 0.0192227 -0.0423644 0.0392879 -0.0288031 -0.0532385
internal_weight=202.435 169.846 159.724 146.235 68.0114 78.2232 69.2565 32.5889 42.9599 15.7194 57.7 16.4788 27.2405 17.5363 45.0277 25.0515 33.4933 16.1101 14.905 18.5883
internal_count=542 455 428 392 182 210 186 87 115 42 155 44 73 47 121 67 90 43 40 50
is_linear=0
shrinkage=0.05


Tree=9
num_leaves=20
num_cat=0
split_feature=2 22 28 1 0 17 24 4 4 13 6 21 25 1 24 27 20 2 25
split_gain=5.84124 4.60854 4.95922 4.57021 4.00936 4.2777 3.33413 3.7151 6.97647 3.10294 3.9336 2.97273 5.09976 3.18925 2.68832 2.62212 2.45989 2.1886 2.12172
threshold=0.10526117876575554 14.062239423717864 -0.60247084256245942 -0.014006597381029962 0.017325600868699706 -0.014857609053205543 0.16918001728794346 -0.022681634761638193 -0.0034996868200911527 0.0033192364336585805 0.2365454767854758 54.821295194586739 0.60839233207889631 0.0073099528963302641 0.12560765950948113 1.1586072394572053 -0.03108018678834152 -0.017709621056605871 0.20076472348710575
decision_type=2 2 2 2 2 2 2 2 2 2 2 2 2 2 2 2 2 2 2
left_child=1 2 -1 -3 6 -6 7 18 -9 14 -11 12 -10 -13 -5 -7 -8 -18 -4
right_child=-2 3 4 9 5 15 16 8 11 10 -12 13 -14 -15 -16 -17 17 -19 -20
leaf_value=-0.032296706758651421 0.04247976411464819 -0.047986135373727756 0.010742803992570018 -0.047543511463446549 0.051091846568321192 0.028698359594981716 -0.027719244457992478 -0.0303832388425022 0.0037361154356391974 0.020831809751621973 -0.023631668818787047 -0.01757974186314824 0.053703705999599505 0.019752781631757397 -0.0051962496096840567 -0.013051340817676602 -0.018691504965959751 0.01135762304099623 0.048787858240428146
leaf_weight=9.4915313720703107 7.7748184204101554 8.8080972433090192 7.2775748670101148 7.1184401512145978 8.912318557500841 7.3660509288310987 13.776418060064314 13.079779088497153 12.078819155693063 13.463873237371446 7.8886341452598563 12.981421440839769 8.8461030423641187 10.228202372789381 7.9147016406059265 7.6840778887271881 10.513139486312866 14.304385513067245 7.3817312717437744
leaf_count=27 21 25 20 20 24 20 38 36 33 37 22 36 24 28 22 21 29 39 20
internal_value=5.22168e-06 -0.00174097 0.00263289 -0.0156697 0.00509912 0.0236392 0.00107744 0.00744273 0.00168866 -0.0078467 0.00440488 0.0111935 0.0248601 -0.00112775 -0.0252484 0.0073824 -0.0107767 -0.00137172 0.0299005
internal_weight=196.89 189.115 143.922 45.1937 134.43 23.9624 110.468 71.8736 57.2143 36.3856 21.3525 44.1345 20.9249 23.2096 15.0331 15.0501 38.5939 24.8175 14.6593
internal_count=542 521 395 126 368 65 303 197 157 101 59 121 57 64 42 41 106 68 40
is_linear=0
shrinkage=0.05


Tree=10
num_leaves=21
num_cat=0
split_feature=30 32 7 7 4 10 30 30 2 4 3 22 26 32 32 6 31 30 22 24
split_gain=7.5489 6.03628 3.09495 4.82806 5.14152 4.86268 4.69765 7.62001 3.21305 2.7495 2.22478 1.24619 5.57151 0.985674 0.283905 8.07573e-05 5.1964e-05 2.96118e-05 1.65441e-05 1.07914e-05
threshold=0.056752516421119163 0.011723060311512653 -0.14379405154188188 -0.051217931285738622 0.012517371997234903 0.006884708279544521 0.022911157207623583 0.027804355111504558 0.0071602680892046732 -0.0074903872889771341 0.071330885913478206 14.062239423717864 1624.7750000000003 0.00022467268625864155 0.0030822655193310099 0.088269253345153273 0.0083408109894363338 0.072390321301630742 0.49702810746757359 0.24757944504823262
decision_type=2 2 2 2 2 2 2 2 2 2 2 2 2 2 2 2 2 2 2 2
left_child=1 2 13 5 6 -4 9 -8 -7 -5 11 15 -13 18 17 -6 -14 -2 -1 -19
right_child=14 -3 3 4 10 8 7 -9 -10 -11 -12 12 16 -15 -16 -17 -18 19 -20 -21
leaf_value=-0.036923577668341361 -0.036945042993538388 0.063620918983166561 -0.00068058774529069154 -0.037196000832829028 -0.037416666940901865 0.098159156201178599 0.10148671216787507 0.0047935404949015197 0.030277576159411113 0.025500351096528324 0.019797347037295108 0.044728921859112085 -0.036979378203524642 -0.00037651430486810244 -0.018976123333222919 -0.0371106582810629 -0.037260660825426055 -0.036834372241757035 -0.037095343718283116 -0.036714299407625869
leaf_weight=2.6293109804391843 3.6972989067435247 4.4318804442882529 5.432750076055525 3.8853315711021423 3.7583191692829185 3.3068071603775024 3.5818361788988096 4.7258118242025375 3.6867447346448898 3.1798229515552512 3.504572093486785 3.0421986281871778 3.3266784101724625 2.7232183068990707 2.7799048051238051 5.0571628287434578 3.2421577572822571 3.6096882224082947 3.002974197268486 3.8853582143783569
leaf_count=20 28 28 37 28 26 21 22 32 25 22 25 21 25 20 21 37 23 28 22 31
internal_value=-5.12123e-05 0.00737457 0.00308303 0.00781387 -0.0011778 0.0348069 0.0209936 0.0464827 0.0623745 -0.00897818 -0.016719 -0.0236641 -0.011211 -0.0250739 -0.0332772 -0.0372411 -0.0371182 -0.0368292 -0.0370152 -0.0367721
internal_weight=76.4898 62.5176 58.0857 49.7302 37.3039 12.4263 15.3728 8.30765 6.99355 7.06515 21.9311 18.4265 9.61103 8.3555 13.9723 8.81548 6.56884 11.1923 5.63229 7.49505
internal_count=542 434 406 344 261 83 104 54 46 50 157 132 69 62 108 63 48 87 42 59
is_linear=0
shrinkage=0.05


Tree=11
num_leaves=19
num_cat=0
split_feature=26 28 1 32 32 32 28 33 11 8 33 33 16 24 4 8 11 0
split_gain=6.53328 8.54644 5.8141 5.66451 4.31601 6.05104 4.9316 4.75496 3.70138 3.54797 3.50097 5.2054 4.45508 3.41542 3.23357 3.05121 1.02242 0.100164
threshold=1199.5500000000002 -0.60247084256245942 -0.043146074304333093 -0.00094195942066648789 -0.00328502946602359 -0.0013026607997247755 -0.046051084303553147 1.5000000000000002 0.19869791989695706 0.060792584303413423 4.5000000000000009 2.5000000000000004 0.02282634949294975 0.080701938610046167 0.044685840669899952 -0.083391680580635077 0.17900967563962109 -1.0000000180025095e-35
decision_type=2 2 2 2 2 2 2 2 2 2 2 2 2 2 2 2 2 2
left_child=1 -1 -3 -2 9 -6 7 -7 16 -4 11 12 -8 -9 -10 -15 -5 -17
right_child=3 2 4 8 5 6 10 13 14 -11 -12 -13 -14 15 -16 17 -18 -19
leaf_value=0.039189009990309484 0.047505489013331986 0.026073952245283111 0.027457647693648626 0.013472593992058426 -0.052124148237084826 0.0014550146622725557 -0.033973317500959124 -0.0070262759908917526 -0.024853741494240692 -0.0098772083285282881 -0.022258739099906642 0.031943467488317556 0.015440609613541026 -0.020492641636864699 0.011049243533050909 -0.060102232016534855 0.039611407438579244 -0.05205425662131119
leaf_weight=10.103924244642256 10.853388726711271 11.240574032068251 11.569855928421022 7.4763920307159406 10.406840294599531 14.14113423228263 8.9220131337642758 9.265612840652464 11.220461815595629 14.140979140996931 12.619825452566145 13.846262872219084 9.3327771425247175 9.6707773208618093 14.218249469995497 8.1417592465877444 7.487906277179718 7.3620000481605681
leaf_count=27 29 30 31 20 28 38 24 25 30 38 34 37 25 26 38 22 20 20
internal_value=1.43011e-05 -0.00522849 -0.00841909 0.0154353 -0.0114149 -0.0159613 -0.0119277 -0.0229567 0.00682037 0.00692345 5.34343e-05 0.00882498 -0.0087104 -0.0329802 -0.00478678 -0.0425327 0.0265521 -0.0562806
internal_weight=202.021 150.764 140.66 51.2564 129.42 103.709 93.3022 48.5813 40.403 25.7108 44.7209 32.1011 18.2548 34.4401 25.4387 25.1745 14.9643 15.5038
internal_count=542 405 378 137 348 279 251 131 108 69 120 86 49 93 68 68 40 42
is_linear=0
shrinkage=0.05


Tree=12
num_leaves=21
num_cat=0
split_feature=2 26 28 0 1 10 17 23 19 5 4 4 14 8 28 20 34 8 19 26
split_gain=5.38643 4.14591 4.47159 4.45755 3.47846 3.24399 4.1628 3.05543 2.60684 4.66497 2.1872 6.41221 2.29924 3.11545 2.47891 3.09651 3.80499 2.08321 1.82964 1.22149
threshold=0.10526117876575554 1199.5500000000002 -0.60152121267127467 -0.023543136703527628 -0.014006597381029962 -0.076603420085554555 -0.086969318107017676 0.057096292020926837 14.068516126943541 0.097087858245610545 -0.020730951611520249 -0.0034996868200911527 0.0017660690411863634 0.52233958204878017 0.037493793279413913 0.0024812419997026101 7.5000000000000009 0.59738489398973416 4.7849999337242437 539.47500000000014
decision_type=2 2 2 2 2 2 2 2 2 2 2 2 2 2 2 2 2 2 2 2
left_child=1 2 -1 19 -3 7 -7 -5 18 -10 -8 -12 14 -14 15 -13 -17 -11 -6 -4
right_child=-2 4 3 5 8 6 10 -9 9 17 11 12 13 -15 -16 16 -18 -19 -20 -21
leaf_value=-0.025771579259276464 0.040701170232857242 -0.041733001559726937 -0.0066324403693121432 0.052052159223840516 -0.0047626580565930986 -0.030157863493791761 0.027210264043438123 0.0082540719321845517 0.035205013129421842 -0.032589895157950612 -0.026674921155902157 -0.0099722473978806382 -0.025848132579663924 0.015457393281496408 0.038992720578899784 -0.0018413455158205897 0.039743389784614641 0.0055819018737635114 -0.038125496490321459 -0.034848801880912009
leaf_weight=12.607966899871824 7.8080809116363517 9.3613445460796338 8.2279562056064588 7.8337952792644492 7.6300308406353023 7.5696412324905387 13.246509462594984 8.0986579954624158 7.6059080064296749 7.058577895164488 13.07041171193122 11.333957880735403 8.2613056302070635 10.203082770109175 10.65802291035652 9.5652675032615679 12.945460170507429 7.2408711314201355 8.9060934484004957 7.1848981082439414
leaf_count=36 21 27 23 21 21 21 36 22 21 20 36 31 23 28 29 26 35 20 25 20
internal_value=6.25928e-06 -0.00167843 0.00264086 0.00543513 -0.0144012 0.00888172 0.00544246 0.0297891 -0.00774535 0.00356742 0.00846071 0.00519435 0.0118096 -0.00302346 0.0179639 0.0113418 0.0220732 -0.0132607 -0.0227314 -0.0197859
internal_weight=196.418 188.61 140.807 128.199 47.8028 112.786 96.8537 15.9325 38.4415 21.9054 89.284 76.0375 62.9671 18.4644 44.5027 33.8447 22.5107 14.2994 16.5361 15.4129
internal_count=542 521 387 351 134 308 265 43 107 61 244 208 172 51 121 92 61 40 46 43
is_linear=0
shrinkage=0.05


Tree=13
num_leaves=20
num_cat=0
split_feature=7 12 2 2 0 7 22 4 11 35 1 32 0 32 5 0 27 7 8
split_gain=5.54351 5.70797 3.53725 5.41287 6.51777 4.04863 3.82912 4.06281 4.19308 2.13392 3.19991 1.87251 2.84216 1.14911 0.282494 0.225802 6.42306e-05 5.92679e-05 1.86071e-05
threshold=-0.14379405154188188 0.0041597415101836581 0.0014854049343656882 0.0083226059591422832 0.012960597402446376 0.044934305632263978 0.13477711412230045 -0.05784384798375982 -0.015741131367097209 22.500000000000004 0.0070820811966455137 5.5792214290953026e-06 0.020282575025895613 0.002730002011225609 0.20629002590681736 0.0049596692622905945 1.2900432386837835 0.2638959876258577 -0.15780288049349225
decision_type=2 2 2 2 2 2 2 2 2 2 2 2 2 2 2 2 2 2 2
left_child=13 2 5 -4 9 6 -2 -8 -9 10 -5 14 -13 16 17 -7 18 -3 -1
right_child=1 11 3 4 -6 15 7 8 -10 -11 -12 12 -14 -15 -16 -17 -18 -19 -20
leaf_value=-0.03679696678759161 -0.025750159691413158 -0.037250906263804638 0.077399861791010507 -0.024175479520088597 0.065795454775949419 -0.037224344947258063 -0.020930253004728821 0.083376171918096376 0.016711220523034528 -0.037374599327089704 0.03787924996539023 0.024197152764893769 -0.036896150695239625 -0.00038298182292774977 -0.018058999372878377 -0.018696052773859776 -0.036616350824255732 -0.036966513855606287 -0.036956225092628636
leaf_weight=3.3182851970195761 4.212977007031447 3.9238290935754794 4.7648592963814762 3.760237894952299 4.8266025930643073 4.1724561005830756 3.0604719743132618 4.1183673739433297 5.520522207021707 3.2937019020318976 4.6420593708753586 4.8805709704756719 3.1211512535810471 2.7219001948833457 2.6421264559030533 2.7139013111591339 3.1783078536391258 3.4364160746335983 4.100409284234046
leaf_count=26 28 28 30 26 32 30 22 26 37 23 32 35 24 20 20 20 26 26 31
internal_value=-4.97836e-05 0.00613811 0.0156418 0.0304498 0.0169102 0.00239639 0.0155559 0.0292591 0.0451949 -0.00326339 0.0101082 -0.0176613 0.000367103 -0.0293612 -0.0320837 -0.0299224 -0.0368044 -0.0371181 -0.036885
internal_weight=76.4092 63.0903 45.0862 21.2875 16.5226 23.7987 16.9123 12.6994 9.63889 11.696 8.4023 18.0041 8.00172 13.3189 10.0024 6.88636 10.597 7.36025 7.41869
internal_count=542 439 306 143 113 163 113 85 63 81 58 133 59 103 74 50 83 54 57
is_linear=0
shrinkage=0.05


Tree=14
num_leaves=21
num_cat=0
split_feature=7 28 0 17 8 6 7 0 10 0 6 5 10 32 6 20 6 24 20 19
split_gain=6.99093 7.26925 4.70752 4.14233 5.01941 5.28548 3.46087 2.98158 3.6082 4.13479 4.36933 2.96656 2.94757 2.49186 2.45606 2.19019 1.69863 1.61049 1.47879 1.36299
threshold=0.31189642670472068 -0.60247084256245942 -0.038444567782859658 0.058386587477867742 -0.037814171304284765 0.18492216591207863 -0.28407820897959807 0.017873358250729273 0.005198032554499553 -0.0095495086433057871 0.03233712548210483 0.051365560010532781 0.079566851233571226 -7.0535613258336936e-05 0.19633621270802104 0.026139328548217454 -0.077899638070399499 0.11008037555651923 -0.0041201077376609102 0.53820227087948125
decision_type=2 2 2 2 2 2 2 2 2 2 2 2 2 2 2 2 2 2 2 2
left_child=1 -1 -3 6 15 11 -4 8 9 18 16 -6 17 -2 -15 -5 -11 -13 -8 -7
right_child=13 2 3 4 5 19 7 -9 -10 10 -12 12 -14 14 -16 -17 -18 -19 -20 -21
leaf_value=0.037137144774629899 0.04083815819817313 0.027769127215037711 0.011778121030344341 0.04249384695620953 0.021258923307611189 -0.047219493473654527 -0.044408958516603834 -0.044562973056513369 -0.038226047724686414 0.006285595962617763 0.031252471585129449 -0.0052851512030573046 0.014965817749434052 0.033788505557682223 -0.0012141454621819555 0.0055603612066349771 -0.023802369874684981 -0.036688188296810725 -0.013553865154255563 -0.017955163970920895
leaf_weight=10.063650071620939 10.824187576770781 9.3329748809337598 9.3278521597385389 8.2246413826942462 13.794304072856901 7.4114032387733486 8.1669422984123212 10.979249149560927 14.002753615379332 8.1356224715709597 8.9383539855480176 8.5568424463272148 9.3137241899967176 7.8584927320480373 13.833989560604094 7.8406456708908072 11.078679919242878 7.8084432780742636 7.4033647775649944 8.5907897055149061
leaf_count=27 29 25 25 22 37 20 22 30 38 22 24 23 25 21 37 21 30 21 20 23
internal_value=1.27774e-05 -0.00407288 -0.00668274 -0.00883244 -0.000142304 -0.00726941 -0.0167996 -0.0206795 -0.0161369 -0.00906264 0.00237221 0.00255711 -0.00748917 0.0212436 0.0114662 0.0244685 -0.0110627 -0.0202686 -0.029738 -0.0315089
internal_weight=201.487 168.97 158.907 149.574 71.5408 55.4755 78.0328 68.705 57.7257 43.723 28.1527 39.4733 25.679 32.5167 21.6925 16.0653 19.2143 16.3653 15.5703 16.0022
internal_count=542 455 428 403 192 149 211 186 156 118 76 106 69 87 58 43 52 44 42 43
is_linear=0
shrinkage=0.05


Tree=15
num_leaves=19
num_cat=0
split_feature=1 7 28 13 33 0 14 11 27 6 30 6 4 33 21 25 24 17
split_gain=4.97086 5.11046 4.29451 3.18893 2.87957 5.22599 5.07979 4.98147 3.47751 3.41861 3.40726 2.84303 2.60796 2.46313 2.367 2.19429 1.928 1.08047
threshold=0.077894025061652064 0.1292800562305414 -0.60152121267127467 0.0033192364336585805 4.5000000000000009 -0.0059009248233346428 0.0017660690411863634 0.061233048410423145 1.5107267273729945 0.042160445409283605 0.033432647750386908 0.2365454767854758 0.028961770742534299 2.5000000000000004 55.307376419308881 0.35581420717768836 0.11666627095139738 -0.022362941039665959
decision_type=2 2 2 2 2 2 2 2 2 2 2 2 2 2 2 2 2 2
left_child=1 2 -1 16 6 -6 7 8 9 10 15 12 -5 -8 17 -4 -3 -7
right_child=-2 3 4 11 5 14 13 -9 -10 -11 -12 -13 -14 -15 -16 -17 -18 -19
leaf_value=-0.024557293105920495 0.03904394789286969 -0.047075117790208537 -0.014426097679223746 -0.013385523904502407 -0.0069556710925356927 0.032794431857949002 -0.0069989351424793057 0.039691461929385635 -0.025871836015842045 -0.013987468376139879 0.034774948359569187 -0.022236328177945887 0.026609871920510304 -0.046466570242776166 0.050456910088120449 0.017669247527691844 -0.017188182440485426 0.0064002837454961749
leaf_weight=12.445641756057737 7.8298164010047904 9.018001317977907 9.9335054159164446 7.1508212089538636 14.091800302267073 7.401629000902175 9.0467608273029345 9.9541258215904218 9.7247800827026349 14.041086941957472 13.610325455665587 12.379021763801573 9.4784839749336225 7.0212205052375785 9.6865682303905469 11.479585140943525 13.435892075300215 8.1432895660400408
leaf_count=36 21 26 27 20 39 20 25 27 27 39 37 35 26 20 26 31 38 22
internal_value=9.19239e-06 -0.00161616 0.00344351 -0.0150445 0.00625085 0.0174347 0.00106541 0.00698145 0.00144304 0.00685695 0.0152136 -0.004094 0.00941132 -0.0242451 0.0310567 0.00278026 -0.0291915 0.0189677
internal_weight=195.872 188.043 136.58 51.4622 124.135 39.3233 84.8114 68.7434 58.7893 49.0645 35.0234 29.0083 16.6293 16.068 25.2315 21.4131 22.4539 15.5449
internal_count=542 521 376 145 340 107 233 188 161 134 95 81 46 45 68 58 64 42
is_linear=0
shrinkage=0.05


Tree=16
num_leaves=20
num_cat=0
split_feature=30 32 9 4 4 15 23 12 6 3 12 1 0 3 23 26 7 7 11
split_gain=7.02759 4.9916 2.77701 4.07475 3.08152 6.35045 4.55846 3.40132 4.28791 3.92202 3.31742 2.27976 1.71218 0.950776 0.298761 0.209227 0.000147322 4.0258e-05 5.80557e-05
threshold=0.056752516421119163 0.011723060311512653 0.05963605997578824 0.073722390683585201 0.012517371997234903 0.0091070397178520408 0.027812445942594435 0.00078733846935909082 -0.023891268066295244 -1.0000000180025095e-35 -0.00066539230160057546 0.0021688083145912133 -0.0063289503878521036 0.085036525962408266 0.040439619082963764 962.32500000000016 0.020095647752215395 -0.12808832746664947 0.13792043789981942
decision_type=2 2 2 2 2 2 2 2 2 2 2 2 2 2 2 2 2 2 2
left_child=1 2 3 4 5 7 11 8 12 10 -10 -6 -1 -4 -2 -9 -8 -16 -19
right_child=14 -3 13 -5 6 -7 16 15 9 -11 -12 -13 -14 -15 17 -17 -18 18 -20
leaf_value=-0.037166350896855119 -0.017781065373918433 0.056190984317954579 -0.037027117782195272 0.064376135046048985 -0.021437076534084224 0.077255056003709799 -0.037260907520201191 -0.037334393685600341 0.02207309185161151 -0.0095300997470796206 0.085678559005264443 0.031778088631987118 0.0086749785989696983 -0.00065320888069959676 -0.036522113077332462 -0.018260232706271976 -0.036860942016883939 -0.036856946254275047 -0.036547392601110118
leaf_weight=3.8324608951807022 2.6112164705991736 4.7573581933975211 5.2223315909504882 2.9409399330615988 3.0957663729786891 3.4705725014209738 4.3380352258682233 3.120521940290927 4.1689224690198898 3.5545097887516066 4.0332860797643661 5.7521863132715225 4.3476744741201419 2.7386864647269249 4.6519898995757094 2.6659616827964783 4.906095027923584 3.3569459542632094 2.7599355131387711
leaf_count=28 20 28 39 20 21 22 31 22 27 24 25 38 31 20 39 20 38 26 23
internal_value=-4.66918e-05 0.00694829 0.00292228 0.00727097 0.00371933 0.0137674 -0.0124946 0.00520173 0.0149968 0.0343389 0.0533499 0.0131589 -0.0128021 -0.0245141 -0.0329539 -0.0285465 -0.0370486 -0.036633 -0.0367173
internal_weight=76.3254 62.9453 58.188 50.2269 47.286 29.1939 18.0921 25.7233 19.9369 11.7567 8.20221 8.84795 8.18014 7.96102 13.3801 5.78648 9.24413 10.7689 6.11688
internal_count=542 434 406 347 327 199 128 177 135 76 52 59 59 59 108 42 69 88 49
is_linear=0
shrinkage=0.05


Tree=17
num_leaves=20
num_cat=0
split_feature=22 28 1 32 1 32 16 35 34 0 13 2 5 30 13 14 26 2 11
split_gain=5.31562 7.63765 6.16743 5.64369 4.61057 3.84436 4.46577 3.32344 4.6131 3.97028 3.91403 3.39214 3.19901 2.93286 3.60279 2.83135 1.73412 1.60242 1.30409
threshold=0.65641058593729629 -0.60247084256245942 -0.043146074304333093 -0.00328502946602359 -0.0099936741280855189 -0.00077199493518644306 0.018957299343712923 22.500000000000004 14.500000000000002 -0.0031776333264343657 0.0034484030618962486 0.029808969080366596 0.083191952887557097 0.02591667783893772 0.0005159278383974474 0.0006454463423796493 1624.7750000000003 -0.0068240654538234474 0.16737161877475334
decision_type=2 2 2 2 2 2 2 2 2 2 2 2 2 2 2 2 2 2 2
left_child=1 -1 -3 15 18 -5 13 8 -6 -10 16 -9 -8 14 -7 -4 -11 -15 -2
right_child=4 2 3 5 7 6 12 11 9 10 -12 -13 -14 17 -16 -17 -18 -19 -20
leaf_value=0.035284440477480118 0.019800941783360108 0.026225441909385194 0.023608422896615928 -0.044620985588141877 -0.031934070302103365 -0.026249400246592572 0.028048574419116817 0.039677249679922887 -0.025602314217810986 0.013646223151120082 -0.012466667006128217 -0.0042088914383629156 -0.011923619788978783 -0.026008238580926941 0.016870502923223212 -0.012001630804852908 0.045482317391880529 -0.053216652985958506 0.047747316508281457
leaf_weight=10.006752073764799 8.569910794496538 10.464486598968504 12.648962855339052 13.593617826700209 10.81559035181999 13.911915868520738 8.1511071920394915 10.817382782697679 7.8104870021343222 8.9264079630374962 8.5802952051162702 7.425647258758544 12.96995750069618 13.22689932584762 7.4321296215057364 9.9909850358962995 8.2128512859344465 9.1582211256027275 8.1389605104923231
leaf_count=27 23 28 34 37 29 38 22 29 21 24 23 20 35 36 20 27 22 25 22
internal_value=8.77877e-06 -0.00656101 -0.0103149 -0.0140976 0.0100796 -0.0204446 -0.0153769 0.00385024 -0.00353967 0.00561935 0.0151007 0.0218138 0.00350257 -0.0244956 -0.0112348 0.00789374 0.0289016 -0.0371398 0.0334137
internal_weight=200.853 121.555 111.548 101.084 79.2975 78.4438 64.8502 62.5887 44.3456 33.53 25.7196 18.243 21.1211 43.7292 21.344 22.6399 17.1393 22.3851 16.7089
internal_count=542 329 302 274 213 213 176 168 119 90 69 49 57 119 58 61 46 61 45
is_linear=0
shrinkage=0.05


Tree=18
num_leaves=21
num_cat=0
split_feature=2 7 28 0 13 3 0 26 30 27 15 4 4 3 24 31 34 1 5 26
split_gain=4.60369 4.52274 3.80149 3.17679 3.02824 3.25374 3.07718 2.86092 3.22128 3.56589 2.65493 3.89905 6.21863 3.75041 3.49422 2.19395 1.73197 1.71831 1.66629 1.13612
threshold=0.10526117876575554 0.1292800562305414 -0.60152121267127467 -0.023543136703527628 0.0032562861499716481 0.065377552816815634 -0.00045293780324546221 1199.5500000000002 0.036713545543506122 1.5183755091119975 -0.021966352884550382 -0.022681634761638193 -0.0034996868200911527 0.027064951765226834 0.12412219190625839 0.0085510894308908469 13.500000000000002 0.0038729381468129531 -0.03944996299812914 539.47500000000014
decision_type=2 2 2 2 2 2 2 2 2 2 2 2 2 2 2 2 2 2 2 2
left_child=1 2 -1 19 16 6 -6 8 10 18 -5 -12 -13 14 17 -8 -3 -14 -10 -4
right_child=-2 4 3 7 5 -7 15 -9 9 -11 11 12 13 -15 -16 -17 -18 -19 -20 -21
leaf_value=-0.023298692507476335 0.037538740460574128 -0.01121395883372369 -0.0015537562028609848 -0.02019846240453689 -0.020741246532507022 -0.030659781090510235 0.038389403160666281 -0.021614065951662233 0.056299569506320479 -0.00011548660470730947 0.039860263673306556 -0.026119830528778733 -0.0012444184363435994 -0.013535521804139215 0.045036883059735744 0.00032835762497380582 -0.040660992315450478 0.027670879328189502 0.025906904592672649 -0.02885028858582496
leaf_weight=12.268834948539732 7.8437583744525901 8.3232261538505572 7.4750649034976941 8.8165166676044375 7.4019492864608809 8.4664523303508741 7.2759402394294739 7.170738846063613 7.4443832933902785 9.1697027981281263 8.857654094696036 12.992973297834387 13.100177824497246 9.8627978861331922 10.711191684007643 7.8941192328929901 12.481641769409178 8.4533077180385572 11.440001726150513 7.7789069712162018
leaf_count=36 21 24 21 24 21 24 20 20 20 25 24 36 36 27 29 22 36 23 31 22
internal_value=1.06454e-05 -0.00156024 0.00324386 0.00588552 -0.0141204 -0.00422682 0.00568782 0.00890178 0.0110716 0.0254662 0.00552408 0.00906878 0.0041207 0.0134475 0.0216958 0.0185834 -0.0288804 0.0100962 0.0378879 -0.0154739
internal_weight=195.229 187.386 135.542 123.273 51.8433 31.0385 22.572 108.019 100.849 28.0541 72.7946 63.9781 55.1204 42.1275 32.2647 15.1701 20.8049 21.5535 18.8844 15.254
internal_count=542 521 374 338 147 87 63 295 275 76 199 175 151 115 88 42 60 59 51 43
is_linear=0
shrinkage=0.05


Tree=19
num_leaves=21
num_cat=0
split_feature=30 32 7 7 7 32 10 12 7 35 35 26 22 33 30 32 9 10 30 32
split_gain=6.62911 4.3878 2.65454 4.12516 4.19519 4.26526 3.70876 2.71344 1.81251 2.05292 4.20287 3.71234 4.21098 1.50815 0.998321 0.29261 0.000164446 7.05339e-05 5.88845e-05 1.45916e-05
threshold=0.056752516421119163 0.011723060311512653 -0.14379405154188188 -0.043958748374769867 -0.058875263007285732 0.00032831291166513838 0.006884708279544521 -0.0038757978822761491 -0.014880567941055601 12.500000000000002 15.500000000000002 1617.2000000000003 14.062239423717864 3.5000000000000004 0.036114819664603816 0.0030822655193310099 0.039278540221036815 0.12536938933716776 0.07468630380711043 -3.5527996147060713e-05
decision_type=2 2 2 2 2 2 2 2 2 2 2 2 2 2 2 2 2 2 2 2
left_child=1 2 14 4 5 6 -4 -5 -9 13 -11 12 -12 16 19 17 -10 18 -2 -1
right_child=15 -3 3 7 -6 -7 -8 8 9 10 11 -13 -14 -15 -16 -17 -18 -19 -20 -21
leaf_value=-0.036648579994142019 -0.03676029572155947 0.051671069832129796 -0.0065524040507515483 0.03249549233827103 0.078171328921511907 -0.037178915195871742 0.064036453700152693 -0.037420401035214587 -0.037280659519972718 0.062284213955569712 -0.0090041041210377031 -0.037016382900452546 0.066244438748229648 -1.7343240795333386e-05 0.00094323461998661894 -0.017839258505379218 -0.036743144821702232 -0.036298502619312001 -0.036469361603707291 -0.036815374125105438
leaf_weight=2.4550149440765381 2.8980852141976339 4.9781872034072867 3.2308831959962827 4.9673383235931317 3.4266312122344962 2.8964510858058929 4.3879972249269485 4.3026843518018678 2.9322003349661987 2.9974155947566059 5.2626361027359945 5.0432319194078437 2.8748413622379303 5.3305085971951485 2.6376709714531898 2.6399486586451522 2.7644467353820801 3.0323408246040344 4.349363885819912 2.8144383281469336
leaf_count=20 23 28 22 32 20 21 26 30 21 20 37 38 18 37 20 21 22 27 37 22
internal_value=-4.8492e-05 0.00661302 0.00276716 0.0069915 0.0301248 0.0144679 0.0341024 -0.00185076 -0.00726556 -0.00249639 0.0088432 -0.00330978 0.01758 -0.0191329 -0.024168 -0.0326877 -0.0370198 -0.036501 -0.0365857 -0.0367377
internal_weight=76.2223 63.3026 58.3244 50.4173 13.942 10.5153 7.61888 36.4753 31.508 27.2053 16.1781 13.1807 8.13748 11.0272 7.90712 12.9197 5.69665 10.2798 7.24745 5.26945
internal_count=542 434 406 344 89 69 48 255 223 193 113 93 55 80 62 108 43 87 60 42
is_linear=0
shrinkage=0.05


Tree=20
num_leaves=18
num_cat=0
split_feature=7 28 1 22 11 32 7 32 33 32 5 4 34 22 7 8 3
split_gain=5.87363 5.91661 4.64819 4.12286 5.95801 5.08401 3.61599 3.57547 3.42802 3.86366 3.45847 4.13047 3.7605 3.35249 3.27107 2.83146 1.26427
threshold=0.31189642670472068 -0.60247084256245942 -0.043146074304333093 0.65641058593729629 0.10286349625450199 -0.00328502946602359 1.0000000180025095e-35 -2.0922550975791231e-06 1.0000000180025095e-35 -0.00077199493518644306 0.022976622169401221 0.073722390683585201 19.500000000000004 39.701862883849536 -0.01855068788106452 0.54697562204938321 -0.023909507207928688
decision_type=2 2 2 2 2 2 2 2 2 2 2 2 2 2 2 2 2
left_child=1 -1 -3 5 -5 14 -6 -8 -7 -10 12 -12 16 15 -4 -2 -11
right_child=13 2 3 4 6 8 7 -9 9 10 11 -13 -14 -15 -16 -17 -18
leaf_value=0.033664435104481027 0.05557422053264708 0.022048805032156494 -0.011325783619498984 0.034200102523702612 -0.030335988254469662 0.0081120582683900412 -0.021516902831038784 0.020270272811427736 -0.049601788251753126 -0.057893321469232678 0.014801120061353021 -0.030171820437507643 -0.0076491462370136794 0.0012289859592052015 0.027098514987591596 0.015939387781143687 -0.032428365809219505
leaf_weight=9.9394218921661359 8.1604814529418963 13.41183617711067 11.826396614313127 11.892418056726454 11.093382507562636 9.2457163333892805 8.1584219038486463 13.740606665611269 12.378735154867163 7.6457145512103972 12.947569608688356 8.4293473958969098 13.223163485527037 14.116968512535093 10.418102443218229 10.062168210744856 13.445582896471038
leaf_count=27 22 36 32 32 30 25 22 37 34 21 35 23 36 38 28 27 37
internal_value=8.08384e-06 -0.00375234 -0.00610827 -0.00872268 0.00385821 -0.0143945 -0.00707881 0.00470258 -0.020455 -0.0243352 -0.0187191 -0.00293261 -0.0285536 0.0195193 0.00667005 0.0336887 -0.0416596
internal_weight=200.136 167.796 157.857 144.445 44.8848 99.5603 32.9924 21.899 77.3158 68.0701 55.6914 21.3769 34.3145 32.3396 22.2445 18.2226 21.0913
internal_count=542 455 428 392 121 271 89 59 211 186 152 58 94 87 60 49 58
is_linear=0
shrinkage=0.05


end of trees

feature_importances:
returns_100=31
gap_open=31
returns_1=25
returns_2=23
high_low_range=23
returns_10=20
returns_3=19
returns_50=18
vwap_distance=18
day_of_week=15
price_to_sma_200=14
returns_200=13
volume_20=13
atr_14=12
price_to_sma_50=11
returns_5=10
volume_ratio_20=10
returns_20=9
macd_hist=9
sma_200_slope=8
bollinger_width_20=8
sma_50_slope=7
atr_pct_14=7
close_open_range=7
day_of_month=7
ema_12_26_spread=6
rsi_14=6
macd_signal=5
days_to_month_end=5
sma_20_slope=4
price_to_ema_26=4
bollinger_percent_b_20=4
price_to_ema_12=3
price_to_sma_20=2

parameters:
[boosting: gbdt]
[objective: multiclass]
[metric: multi_logloss]
[tree_learner: serial]
[device_type: cpu]
[data_sample_strategy: bagging]
[data: ]
[valid: ]
[num_iterations: 300]
[learning_rate: 0.05]
[num_leaves: 31]
[num_threads: 0]
[seed: 0]
[deterministic: 0]
[force_col_wise: 0]
[force_row_wise: 0]
[histogram_pool_size: -1]
[max_depth: -1]
[min_data_in_leaf: 20]
[min_sum_hessian_in_leaf: 0.001]
[bagging_fraction: 1]
[pos_bagging_fraction: 1]
[neg_bagging_fraction: 1]
[bagging_freq: 0]
[bagging_seed: 3]
[bagging_by_query: 0]
[feature_fraction: 0.8]
[feature_fraction_bynode: 1]
[feature_fraction_seed: 2]
[extra_trees: 0]
[extra_seed: 6]
[early_stopping_round: 0]
[early_stopping_min_delta: 0]
[first_metric_only: 0]
[max_delta_step: 0]
[lambda_l1: 0]
[lambda_l2: 0]
[linear_lambda: 0]
[min_gain_to_split: 0]
[drop_rate: 0.1]
[max_drop: 50]
[skip_drop: 0.5]
[xgboost_dart_mode: 0]
[uniform_drop: 0]
[drop_seed: 4]
[top_rate: 0.2]
[other_rate: 0.1]
[min_data_per_group: 100]
[max_cat_threshold: 32]
[cat_l2: 10]
[cat_smooth: 10]
[max_cat_to_onehot: 4]
[top_k: 20]
[monotone_constraints: ]
[monotone_constraints_method: basic]
[monotone_penalty: 0]
[feature_contri: ]
[forcedsplits_filename: ]
[refit_decay_rate: 0.9]
[cegb_tradeoff: 1]
[cegb_penalty_split: 0]
[cegb_penalty_feature_lazy: ]
[cegb_penalty_feature_coupled: ]
[path_smooth: 0]
[interaction_constraints: ]
[verbosity: -1]
[saved_feature_importance_type: 0]
[use_quantized_grad: 0]
[num_grad_quant_bins: 4]
[quant_train_renew_leaf: 0]
[stochastic_rounding: 1]
[linear_tree: 0]
[max_bin: 255]
[max_bin_by_feature: ]
[min_data_in_bin: 3]
[bin_construct_sample_cnt: 200000]
[data_random_seed: 1]
[is_enable_sparse: 1]
[enable_bundle: 1]
[use_missing: 1]
[zero_as_missing: 0]
[feature_pre_filter: 1]
[pre_partition: 0]
[two_round: 0]
[header: 0]
[label_column: ]
[weight_column: ]
[group_column: ]
[ignore_column: ]
[categorical_feature: ]
[forcedbins_filename: ]
[precise_float_parser: 0]
[parser_config_file: ]
[objective_seed: 5]
[num_class: 3]
[is_unbalance: 0]
[scale_pos_weight: 1]
[sigmoid: 1]
[boost_from_average: 1]
[reg_sqrt: 0]
[alpha: 0.9]
[fair_c: 1]
[poisson_max_delta_step: 0.7]
[tweedie_variance_power: 1.5]
[lambdarank_truncation_level: 30]
[lambdarank_norm: 1]
[label_gain: ]
[lambdarank_position_bias_regularization: 0]
[eval_at: ]
[multi_error_top_k: 1]
[auc_mu_weights: ]
[num_machines: 1]
[local_listen_port: 12400]
[time_out: 120]
[machine_list_filename: ]
[machines: ]
[gpu_platform_id: -1]
[gpu_device_id: -1]
[gpu_use_dp: 0]
[num_gpu: 1]

end of parameters

pandas_categorical:null
