tree
version=v4
num_class=3
num_tree_per_iteration=3
label_index=0
max_feature_idx=49
objective=multiclass num_class:3
feature_names=returns_1 returns_2 returns_3 returns_5 returns_10 returns_20 returns_50 returns_100 returns_200 price_to_sma_20 price_to_sma_50 price_to_sma_200 sma_20_slope sma_50_slope sma_200_slope price_to_ema_12 price_to_ema_26 ema_12_26_spread macd macd_signal macd_hist rsi_14 atr_14 atr_pct_14 bollinger_width_20 bollinger_percent_b_20 volume_20 volume_ratio_20 vwap_distance adx_14 high_low_range close_open_range gap_open day_of_week day_of_month days_to_month_end news_sentiment_1d news_sentiment_7d news_article_count_7d earnings_proximity_days congress_buy_score congress_cluster_30d days_since_last_congress insider_buy_score insider_cluster_60d insider_value_60d ceo_bought_90d analyst_upgrade_score consensus_rating watchlist_research_score
feature_infos=[-0.42522596548890712:0.40794090489381341] [-0.52784340195747548:0.463532248342375] [-0.57112201103617399:0.56602031394275165] [-0.58535862477771183:0.84539335187254749] [-0.61145805050230784:1.3795228568268874] [-0.63280521901211551:1.5662650602409636] [-0.69074124355145261:1.8191489361702129] [-0.74613402061855671:1.302] [-0.86763754045307451:1.328612716763006] [-0.5351618959015183:0.87188196302275889] [-0.55919690767922037:1.1240173773776481] [-0.67414362767463432:0.83287422120972243] [-0.065763298255729963:0.057234594052231046] [-0.034196765824741231:0.023906570773178919] [-0.012643024938625427:0.0035561883243186774] [-0.50478185281419874:0.47517313496957903] [-0.53166204436207209:0.75356398744894171] [-949.14086869196763:1503.4745957047526] [-949.14086869196763:1503.4745957047526] [-842.26580575736182:1386.5341525311567] [-485.2187493216137:658.15276588526388] [19.241284262116366:90.899848692930206] [0.001292175242407664:1379.5346348672927] [0.016787339577678684:0.29988051410223765] [0.031042605832871731:1.7493015144716733] [-0.46730701606733965:1.5372827111750877] [325.64999999999998:63098.5] [0.11577813677975229:9.8176798210120442] [-0.95646263396401598:0.42164040130297448] [5.4776670068294182:99.477684528867471] [0.0039657716140454845:0.86704789135096494] [-0.42498972461981088:0.40690164236944087] [-0.0085350713842333517:0.044192296207823133] [0:6] [1:31] [1:31] none none none none none none none none none none none none none none
tree_sizes=3393 3330 3382 3437 3423 3438 3441 3428 3435 3442 3414 3436

Tree=0
num_leaves=31
num_cat=0
split_feature=33 1 19 6 23 31 12 12 15 27 34 21 3 9 2 3 34 24 34 32 28 31 24 12 34 34 33 5 21 9
split_gain=33.4782 35.0147 19.7632 18.681 18.2504 17.1872 12.9194 15.263 12.0904 10.7922 11.2751 10.4926 10.1998 10.1362 9.90948 11.8409 11.1478 10.0742 9.87683 9.7185 9.44606 9.2914 8.61406 8.51774 9.2271 8.39555 12.8606 8.86862 7.93533 7.24842
threshold=1.0000000180025095e-35 -0.0094398385270365297 -0.0023163563217711031 0.26753264884811639 0.042026220008139804 0.013311214091749306 0.0036859446895377459 -0.010013804122550566 -0.026532187662847515 0.36451435074555905 27.500000000000004 48.384435751168432 -0.033347705608324472 0.028315577072885897 -0.1311539525088482 -0.0070976602775526488 24.500000000000004 0.23705377132043054 8.5000000000000018 -6.0443058851646733e-06 -0.68673479742785115 0.077923058529654823 0.15578466022244372 -0.011389738304572397 11.500000000000002 17.500000000000004 1.5000000000000002 0.062107459375024855 41.354188511252595 0.032126306991833033
decision_type=2 2 2 2 2 2 2 2 2 2 2 2 2 2 2 2 2 2 2 2 2 2 2 2 2 2 2 2 2 2
left_child=1 29 28 4 22 8 7 19 14 -10 11 -11 -8 -13 -6 16 23 -18 -5 -7 -14 -20 -2 24 -16 26 -15 -28 -3 -1
right_child=3 2 -4 18 5 6 12 -9 9 10 -12 13 20 25 15 -17 17 -19 21 -21 -22 -23 -24 -25 -26 -27 27 -29 -30 -31
leaf_value=-0.79255207072695355 -0.75102462768906786 -0.72037066555803808 -0.71515044559184437 -0.70401086905684163 -0.76241613289444643 -0.78283534310806102 -0.79639827540943176 -0.70859772788895281 -0.71484880552304308 -0.76745052437814798 -0.78722708440473566 -0.7206679619638231 -0.7621350564468452 -0.69619452183960329 -0.77922048908317543 -0.75854352406082992 -0.79726961239699545 -0.73249474954791849 -0.73276010208964593 -0.72291552279155757 -0.72417087182956885 -0.68378834282619594 -0.78555655781007327 -0.71085119027220511 -0.71835340067780928 -0.77212126844698548 -0.79014900905776508 -0.73931250064843856 -0.77705157666824409 -0.75252528060318258
leaf_weight=61.749183833599091 86.448857367038727 7.8589870333671561 43.785784900188446 55.012909233570099 25.822385966777802 12.34983676671982 7.4847495555877677 120.13023036718369 19.834586322307587 56.135621666908264 22.080011188983917 40.043410122394562 23.202723622322083 13.098311722278593 10.478649377822878 29.190523266792297 8.6074619889259356 19.834586322307587 127.98921740055084 14.969499111175535 55.761384189128876 10.478649377822874 22.828486144542694 100.2956440448761 15.343736588954924 30.687473177909851 11.601361811161039 32.932898044586182 28.816285789012909 13.84678667783737
leaf_count=165 231 21 117 147 69 33 20 321 53 150 59 107 62 35 28 78 23 53 342 40 149 28 61 268 41 82 31 88 77 37
internal_value=-0.739288 -0.760786 -0.73783 -0.735839 -0.739292 -0.736201 -0.725267 -0.716269 -0.742067 -0.750078 -0.753461 -0.74942 -0.740614 -0.741535 -0.733413 -0.729337 -0.723821 -0.752098 -0.721934 -0.750003 -0.735326 -0.729054 -0.758238 -0.717444 -0.743053 -0.750995 -0.739746 -0.752556 -0.764906 -0.78522
internal_weight=1128.7 156.057 80.4611 972.643 779.162 669.885 233.898 147.45 435.987 226.414 206.579 184.499 86.4489 128.363 209.573 183.751 154.56 28.442 193.481 27.3193 78.9641 138.468 109.277 126.118 25.8224 88.32 57.6326 44.5343 36.6753 75.596
internal_count=3016 417 215 2599 2082 1790 625 394 1165 605 552 493 231 343 560 491 413 76 517 73 211 370 292 337 69 236 154 119 98 202
is_linear=0
shrinkage=1


Tree=1
num_leaves=31
num_cat=0
split_feature=30 2 2 12 22 2 35 7 5 26 19 19 33 3 17 2 4 10 34 33 4 30 27 3 27 27 4 3 8 17
split_gain=42.6638 16.3681 18.1782 29.3896 9.68348 18.8445 14.0919 11.6594 9.69165 7.94378 7.70771 6.45877 16.5213 8.29966 5.43832 5.42399 3.41148 6.61567 9.03784 3.62223 4.29761 6.81765 7.86146 3.61003 5.464 16.0576 4.37575 6.90284 12.7441 10.5807
threshold=0.028578349944629055 0.0060791313810431126 -0.00047261511613700508 -0.00036818340019224757 0.018219487062140476 -0.030698203340149357 22.500000000000004 -0.10056011062663094 0.028736426692619842 19983.825000000004 -8.8453462720446598 8.7634765194179192 3.5000000000000004 0.046649761011013861 0.0048100389655165729 0.15615026208807978 0.091938822367206366 0.069126980256858997 16.500000000000004 2.5000000000000004 -0.037961764694439924 0.051155986038545868 0.96122391082837877 -0.11848656229821417 0.39008302555625868 0.43684672625765908 -0.0048434106354123992 0.021642521961615781 -0.029313029524159286 -0.0087239625836056916
decision_type=2 2 2 2 2 2 2 2 2 2 2 2 2 2 2 2 2 2 2 2 2 2 2 2 2 2 2 2 2 2
left_child=1 2 4 -4 5 -1 10 -7 -8 -3 -6 14 -13 -14 15 16 17 19 -19 20 -2 -22 -23 -21 -25 -26 27 29 -29 -27
right_child=11 9 3 -5 6 7 8 -9 -10 -11 -12 12 13 -15 -16 -17 -18 18 -20 23 21 22 -24 24 25 26 -28 28 -30 -31
leaf_value=-2.6642050918537072 -2.9549291766098613 -2.9362242039107627 -2.6192705381610777 -2.886448965522658 -2.8281554904619495 -2.7625753310186525 -2.891474265096857 -2.938822009522513 -2.740715277870887 -2.8363530103923615 -2.9521875311481853 -2.9405786209361731 -2.7605880534597644 -2.9022895837456764 -2.9460000409336611 -2.8535413586335485 -2.9551651663458034 -2.9330837455712246 -2.7719439252248379 -2.9525549681688221 -2.9535122554155082 -2.824792405362293 -2.9247999359573345 -2.9593158093485434 -2.7597240197385089 -2.9352811959400054 -2.9409717088049638 -2.7297852512970042 -2.9295066459652266 -2.8516468908595485
leaf_weight=1.524851471185684 22.796529494225979 10.826445445418356 2.0585494861006737 2.0585494861006763 1.5248514711856849 1.5248514711856844 2.2110346332192412 2.4397623538970974 2.0585494861006737 2.4397623538970938 7.0143167674541447 8.0054702237248403 2.516004927456378 1.7535791918635366 75.098934955894947 2.3635197803378096 12.046326622366903 1.9060643389821046 1.6010940447449682 7.3955296352505604 8.6154108121991175 2.9734603688120824 5.7944355905056 5.8706781640648904 1.7535791918635357 14.562331549823279 10.902688018977647 1.5248514711856844 1.6773366183042515 5.1082524284720447
leaf_count=20 299 142 27 27 20 20 29 32 27 32 92 105 33 23 985 31 158 25 21 97 113 39 76 77 23 191 143 20 22 67
internal_value=-2.92409 -2.87384 -2.84778 -2.75286 -2.86914 -2.81358 -2.89295 -2.87103 -2.81879 -2.91786 -2.93004 -2.93332 -2.89822 -2.81879 -2.93569 -2.92844 -2.93014 -2.92688 -2.85952 -2.92953 -2.94065 -2.92192 -2.89088 -2.92038 -2.91463 -2.90725 -2.9149 -2.90248 -2.8344 -2.91356
internal_weight=229.948 35.6815 22.4153 4.1171 18.2982 5.48947 12.8088 3.96461 4.26958 13.2662 8.53917 194.266 12.2751 4.26958 181.991 106.892 104.529 92.4822 3.50716 88.9751 40.1798 17.3833 8.7679 48.7952 41.3997 35.529 33.7755 22.8728 3.20219 19.6706
internal_count=3016 468 294 54 240 72 168 52 56 174 112 2548 161 56 2387 1402 1371 1213 46 1167 527 228 115 640 543 466 443 300 42 258
is_linear=0
shrinkage=1


Tree=2
num_leaves=31
num_cat=0
split_feature=33 1 35 31 33 35 3 31 2 35 5 6 35 3 35 35 35 5 33 2 23 30 35 20 33 14 2 35 5 13
split_gain=40.2424 40.4981 17.6437 15.22 16.4807 23.8923 17.9236 18.5949 17.0779 14.8438 13.1877 25.7136 13.4482 25.2458 12.2897 11.0658 11.0473 9.37681 15.7092 11.3227 9.11974 8.80808 8.64057 8.61441 9.6275 11.2837 8.54554 8.88545 11.8355 8.16062
threshold=1.0000000180025095e-35 -0.0094398385270365297 11.500000000000002 0.002820409316732744 5.5000000000000009 4.5000000000000009 -0.0015125893642859007 -0.033212095952835467 -0.10004529706702307 23.500000000000004 0.051631445471826402 0.26753264884811639 15.500000000000002 0.0047403319243281361 22.500000000000004 20.500000000000004 24.500000000000004 -0.094489967944144174 5.5000000000000009 -0.030128162160871701 0.051180049385438568 0.065562571115561089 26.500000000000004 0.19707833546592021 4.5000000000000009 -0.0027425778782627862 0.018559378092698049 17.500000000000004 -0.0057116487285375382 0.002334030974814038
decision_type=2 2 2 2 2 2 2 2 2 2 2 2 2 2 2 2 2 2 2 2 2 2 2 2 2 2 2 2 2 2
left_child=1 9 -3 4 5 -2 8 -8 14 -1 17 12 13 -12 -7 -4 21 18 20 -19 -5 -14 -18 24 -10 -26 27 -6 -29 -9
right_child=3 2 15 10 26 6 7 29 23 -11 11 -13 16 -15 -16 -17 22 19 -20 -21 -22 -23 -24 -25 25 -27 -28 28 -30 -31
leaf_value=-0.69871870569514782 -0.71832923894354428 -0.79032287447964411 -0.71050396158455831 -0.71987370158018615 -0.7987967136727393 -0.7186029411829491 -0.70994501320177361 -0.7429262364900644 -0.7801812902490628 -0.7628980178866408 -0.71804842755506382 -0.78507944318241296 -0.70532441587268946 -0.78464148956839752 -0.7801077444092227 -0.75860095758137691 -0.80201103271069052 -0.81046961965637931 -0.71459001361272689 -0.77657274288480183 -0.778240022150958 -0.74798292156706991 -0.7417979700428623 -0.73230294851316202 -0.79158089542427723 -0.72778322235571624 -0.74530585299689045 -0.71987370158018615 -0.7868004158346712 -0.77054678523001052
leaf_weight=64.996465444564819 48.560577630996704 28.389260768890381 18.67714524269104 7.4708580970764151 39.595547914505005 29.509889483451843 33.992404341697693 84.04715359210968 135.96961736679077 10.459201335906981 20.544859766960144 65.37000834941864 34.365947246551514 46.319320201873779 11.206287145614622 33.245318531990051 8.2179439067840594 30.630518198013306 14.194630384445189 125.88395893573761 64.249379634857178 18.67714524269104 21.665488481521606 13.074001669883726 10.459201335906984 20.544859766960144 18.67714524269104 10.459201335906984 17.930059432983398 39.222005009651184
leaf_count=174 130 76 50 20 106 79 91 225 364 28 55 175 92 124 30 89 22 82 38 337 172 50 58 35 28 55 50 28 48 105
internal_value=-0.757509 -0.733917 -0.758629 -0.761294 -0.755383 -0.751344 -0.755586 -0.742686 -0.764775 -0.707615 -0.767924 -0.758914 -0.747496 -0.76418 -0.735531 -0.7413 -0.734043 -0.775921 -0.762649 -0.783206 -0.77216 -0.720345 -0.758357 -0.771388 -0.774448 -0.749305 -0.775261 -0.783491 -0.762143 -0.751715
internal_weight=1126.61 155.767 80.3117 970.838 513.248 426.586 378.025 157.262 220.764 75.4557 457.59 215.161 149.791 66.8642 40.7162 51.9225 82.9265 242.429 85.9149 156.514 71.7202 53.0431 29.8834 180.048 166.974 31.0041 86.662 67.9848 28.3893 123.269
internal_count=3016 417 215 2599 1374 1142 1012 421 591 202 1225 576 401 179 109 139 222 649 230 419 192 142 80 482 447 83 232 182 76 330
is_linear=0
shrinkage=1


Tree=3
num_leaves=31
num_cat=0
split_feature=33 1 35 0 34 33 13 3 5 33 35 34 34 34 6 4 35 35 3 1 34 34 34 20 35 13 3 34 2 2
split_gain=29.3839 31.0385 21.1357 17.0787 18.5302 25.2477 16.8413 16.1882 17.8004 15.5301 20.6966 17.7958 27.8147 15.064 13.0316 13.1424 12.041 18.2576 11.7706 12.3005 13.918 18.1129 11.7124 11.7074 11.6885 10.7384 10.6737 9.69505 19.2127 17.2629
threshold=1.0000000180025095e-35 -0.0007310570901650535 11.500000000000002 0.014530501684380694 24.500000000000004 5.5000000000000009 -0.005606475550456594 -0.0015125893642859007 0.018378242788542134 1.5000000000000002 9.5000000000000018 20.500000000000004 18.500000000000004 6.5000000000000009 0.1501876254945477 -0.0097394697094446408 26.500000000000004 29.500000000000004 -0.089113567776223049 -0.02036939849329052 14.500000000000002 8.5000000000000018 26.500000000000004 -0.00066543513697814359 20.500000000000004 -0.0028624164033234836 0.035947490814454065 13.500000000000002 0.052994094560202772 0.018022538440323543
decision_type=2 2 2 2 2 2 2 2 2 2 2 2 2 2 2 2 2 2 2 2 2 2 2 2 2 2 2 2 2 2
left_child=1 -1 -3 4 7 6 -6 9 -9 -2 -11 12 14 16 15 24 -10 -18 -5 -20 21 23 -7 -21 -12 -26 -8 29 -29 -23
right_child=3 2 -4 18 5 22 26 8 13 10 11 -13 -14 -15 -16 -17 17 -19 19 20 -22 27 -24 -25 25 -27 -28 28 -30 -31
leaf_value=-0.040165038858287261 0.053529502942489898 0.044119276625411125 -0.014630666169387125 0.048998168266087716 0.017865013989527122 -0.015418136359741262 -0.046252100459034856 -0.026334821366590707 0.049957711940465159 0.043059182084327331 0.019741643799066774 -0.043384188099907628 0.05781358365267332 -0.010132351217510216 0.0242661830782194 -0.031890294505886103 -0.029214509799022549 0.045391783567653783 -0.024460496044056815 0.054106783968273134 0.023391625627960277 0.017784622930446074 0.061109807183662893 0.0073442223549368239 -0.045903366653663895 0.00043753425007990953 -0.0011033009922297244 -0.047452091516085107 0.046944132661376987 -0.051370449920900924
leaf_weight=86.355168581008911 19.474864184856415 22.861427128314972 46.339233815670013 20.601911813020706 16.065773576498032 8.232388764619829 70.540603250265121 80.335458368062973 23.973153680562973 35.212134480476379 49.803502172231674 19.816364496946335 23.227229982614517 86.360120922327042 42.700698047876358 39.277930051088333 18.708002150058746 14.600078642368315 23.941922008991241 17.610449939966202 150.21315374970436 12.733093857765196 12.732465714216231 55.776234358549118 17.557839006185532 43.406926900148392 16.073510080575943 8.9831402897834796 13.47778135538101 30.980402618646622
leaf_count=232 52 61 124 55 43 22 189 215 64 94 133 53 62 231 114 105 50 39 64 47 401 34 34 149 47 116 43 24 36 83
internal_value=5.53106e-06 -0.0201716 0.00477822 0.00323322 -0.00156308 -0.0189431 -0.0291524 0.00261407 -0.00748662 0.0104023 0.00730313 0.00196345 0.00612425 0.00305477 -0.000104649 -0.00704019 0.0229363 0.003488 0.0123877 0.0099835 0.0128294 0.00146092 0.0310591 0.0185657 0.00177155 -0.0129086 -0.0378736 -0.0175081 0.00919081 -0.0312266
internal_weight=1127.97 155.556 69.2007 972.417 638.099 123.645 102.68 514.454 223.977 290.477 271.003 235.79 215.974 143.641 192.747 150.046 57.2812 33.3081 334.318 313.716 289.774 139.561 20.9649 73.3867 110.768 60.9648 86.6141 66.1744 22.4609 43.7135
internal_count=3016 417 185 2599 1706 331 275 1375 599 776 724 630 577 384 515 401 153 89 893 838 774 373 56 196 296 163 232 177 60 117
is_linear=0
shrinkage=0.05


Tree=4
num_leaves=31
num_cat=0
split_feature=30 2 2 12 22 25 30 21 26 25 19 33 23 17 2 3 32 25 21 26 11 14 6 33 3 2 5 30 17 0
split_gain=37.7993 13.2834 12.6592 16.7876 7.35968 16.1019 7.72589 7.91053 6.87845 5.97025 5.96575 13.7865 9.09167 5.2127 4.84481 3.596 5.2188 3.58106 7.23295 8.67238 3.78739 7.97057 13.7546 3.78097 6.95964 11.0488 13.1453 5.13005 3.66809 3.04722
threshold=0.028578349944629055 0.0060791313810431126 -0.00047261511613700508 -0.00036818340019224757 0.018219487062140476 0.37928908237935638 0.020664971712592173 43.668038645840696 19983.825000000004 0.20950106297199791 8.7634765194179192 3.5000000000000004 0.039304500944958319 0.0048100389655165729 0.15615026208807978 -0.025216544060472097 -2.5443852524171273e-05 0.8572903981390525 53.254270087683103 972.82500000000016 -0.034315202400052501 0.00028772335757582023 -0.073496130046091887 3.5000000000000004 -0.083438981231971521 -0.021846711102260951 -0.025584658650883572 0.038449289294904161 -3.0087886219526241 0.014142803198905244
decision_type=2 2 2 2 2 2 2 2 2 2 2 2 2 2 2 2 2 2 2 2 2 2 2 2 2 2 2 2 2 2
left_child=1 2 4 -4 5 9 7 -6 -3 -1 13 -12 -13 14 17 -8 -17 18 20 -20 21 23 -23 28 -25 26 27 -26 -2 -21
right_child=10 8 3 -5 6 -7 15 -9 -10 -11 11 12 -14 -15 -16 16 -18 -19 19 29 -22 22 -24 24 25 -27 -28 -29 -30 -31
leaf_value=0.10296989265363182 0.041964716682081148 -0.01192651531741605 0.22304561836018208 0.035254065804995724 0.010159795681573096 0.002335834280614874 -0.035225834740325278 0.13919174852233507 0.078122534980127376 0.23419233764380754 -0.016162755320883522 -0.0043343742873338835 0.14209325797641925 -0.021570324147157566 0.064456110768657093 -0.035329818795265387 0.073717305639900643 -0.035186808355494148 0.14911247727813884 -0.035242000607238054 -0.020645645512207069 -0.00046050043180967848 0.18200748086306415 -0.028162338385121811 -0.035236838523923987 -0.004765801742890997 0.20353888202964732 0.080209312245753853 -0.020069215480402035 0.051001313750968391
leaf_weight=1.8035540431737929 2.5907489731907765 10.737871602177618 2.7030941471457481 2.1261593177914646 2.2035072147846213 2.6474865078926086 3.8794076442718515 2.5769502073526382 2.6425545513629904 1.6688483878970144 7.882093593478201 1.6118252873420713 3.096811942756176 73.476235061883926 2.5047706812620154 1.8254802376031882 2.7501447051763499 9.4946131706237775 1.6260494738817204 1.8348235562443731 30.877079613506801 2.8774677515029907 1.6110459938645352 7.1143762916326549 1.5287031009793279 8.207564197480675 1.6745082810521132 2.5970907211303711 29.71511448174715 2.3183467537164688
leaf_count=20 34 142 27 27 29 32 51 31 32 20 105 20 36 985 31 23 34 127 20 24 407 38 21 95 20 108 21 33 393 30
internal_value=-5.05407e-05 0.0458308 0.0679464 0.140367 0.049877 0.0952186 0.0289118 0.0797157 0.00585764 0.166036 -0.00899749 0.0242761 0.0919693 -0.0113243 -0.00426018 0.000187344 0.0302121 -0.00591409 -0.00297527 0.0512249 -0.00650294 0.00103696 0.0650321 -0.0043393 0.0121104 0.0325643 0.0853872 0.0374338 -0.0150944 0.0129
internal_weight=230.204 37.5651 24.1846 4.82925 19.3554 6.11989 13.2355 4.78046 13.3804 3.4724 192.639 12.5907 4.70864 180.049 106.572 8.45503 4.57562 104.068 94.5729 5.77922 88.7937 57.9166 4.48851 53.4281 21.1222 14.0079 5.8003 4.12579 32.3059 4.15317
internal_count=3016 468 294 54 240 72 168 60 174 40 2548 161 56 2387 1402 108 57 1371 1244 74 1170 763 59 704 277 182 74 53 427 54
is_linear=0
shrinkage=0.05


Tree=5
num_leaves=31
num_cat=0
split_feature=33 16 35 35 0 0 34 33 35 35 3 34 34 34 33 27 0 5 0 35 34 35 34 34 20 34 23 27 0 4
split_gain=35.3561 26.2001 17.0163 20.8002 14.1387 11.2542 21.2616 18.2835 16.2275 19.8625 18.7145 16.2082 18.3386 17.2695 16.6863 20.4688 16.1629 15.2671 12.8474 13.7776 22.3197 14.0502 12.3879 18.9391 16.0216 11.8191 11.623 11.1738 10.7207 10.2745
threshold=1.0000000180025095e-35 0.10442066900862861 23.500000000000004 9.5000000000000018 -0.011832056776624172 0.014530501684380694 24.500000000000004 5.5000000000000009 30.500000000000004 29.500000000000004 -0.0015125893642859007 22.500000000000004 20.500000000000004 18.500000000000004 1.5000000000000002 1.5827470172859812 -0.01094766282276006 -0.13116404469173523 -0.040325904812744374 26.500000000000004 6.5000000000000009 18.500000000000004 14.500000000000002 10.500000000000002 -0.00066543513697814359 26.500000000000004 0.053649237929526104 2.2598571968133672 0.024565507252465403 -0.0097394697094446408
decision_type=2 2 2 2 2 2 2 2 2 2 2 2 2 2 2 2 2 2 2 2 2 2 2 2 2 2 2 2 2 2
left_child=1 2 3 4 -1 6 8 17 9 10 11 12 13 14 -2 29 -14 -8 -12 20 -20 -22 23 24 -7 -9 -19 28 -25 -16
right_child=5 -3 -4 -5 -6 22 7 25 -10 -11 18 -13 16 -15 15 -17 -18 26 19 -21 21 -23 -24 27 -26 -27 -28 -29 -30 -31
leaf_value=0.040029514328685137 -0.053624512981963558 -0.034786662924623776 -0.0050089772486514817 0.055645633264939889 -0.017843047370957116 -0.04825611317053892 -0.0035729205392239049 0.023040769400750505 0.056373581894361792 -0.054571181259969848 0.039334491508435543 -0.046631857628460137 0.06404167160920364 -0.053155977358706342 -0.017672262531692566 0.037911763512483133 -0.017138795404972804 0.016618617962233018 -0.046185448769952793 0.032415256274565735 -0.0054958519992204247 0.033044883848787295 -0.019849085280006548 -0.0016060719451369051 -0.0016929950652331668 -0.053990427983910211 0.056557607446584071 -0.023804300404526288 0.046861786079159778 0.010823913551816403
leaf_weight=20.961995512247086 17.895104020833969 17.915699928998947 28.402848303318024 67.438102424144745 21.254712700843811 26.068133950233459 28.415760904550552 8.2036889791488665 10.844502598047255 19.766919255256653 28.454238742589951 29.801507711410522 15.698234468698503 23.099586963653564 114.82005089521408 26.16691392660141 10.06090873479843 31.787757784128189 25.347181677818298 32.498832046985626 81.812155395746231 33.261317849159241 180.7295213341713 17.168593764305115 63.41490426659584 12.670355737209318 42.668074578046799 11.570336848497389 34.010703027248383 43.660265445709229
leaf_count=56 48 48 76 180 57 70 76 22 29 53 76 80 42 62 308 70 27 85 68 87 219 89 485 46 170 34 114 31 91 117
internal_value=4.79274e-06 0.0220999 0.029482 0.0384159 0.0108926 -0.00354842 0.00034576 0.0189492 -0.00414012 -0.00544648 -0.00343428 -0.0117666 -0.00763366 -0.0121964 -0.00752503 -0.0030573 0.0323345 0.0276067 0.00820121 0.00307817 -0.00371158 0.00564412 -0.0109977 -0.000489405 -0.0152577 -0.0237165 0.0395063 0.0205707 0.0306028 -0.00982176
internal_weight=1125.87 155.973 138.058 109.655 42.2167 969.896 636.933 123.746 513.188 502.343 482.576 281.203 251.401 225.642 202.542 184.647 25.7591 102.872 201.374 172.919 140.421 115.073 332.962 152.233 89.483 20.874 74.4558 62.7496 51.1793 158.48
internal_count=3016 417 369 293 113 2599 1706 331 1375 1346 1293 754 674 605 543 495 69 275 539 463 376 308 893 408 240 56 199 168 137 425
is_linear=0
shrinkage=0.05


Tree=6
num_leaves=31
num_cat=0
split_feature=33 1 35 6 23 31 5 5 35 34 34 33 19 27 4 24 3 32 3 5 8 1 31 9 34 33 4 27 34 21
split_gain=25.8266 28.4378 17.867 15.6342 15.3374 13.6834 10.5322 13.403 10.5042 9.78693 25.1036 26.7921 15.958 12.6468 18.4794 11.3839 12.0995 9.33412 9.31648 9.1434 8.86268 8.62424 12.7925 8.3439 9.64725 7.86559 7.79432 7.53339 7.52613 7.36126
threshold=1.0000000180025095e-35 -0.0094398385270365297 11.500000000000002 0.26753264884811639 0.042026220008139804 0.013311214091749306 0.069469329421605164 -0.15217013441814567 23.500000000000004 20.500000000000004 18.500000000000004 1.5000000000000002 -0.0015252338401545078 1.5967058193199797 -0.071914014994642075 0.28684520194329949 -0.12165367386533686 -6.0443058851646733e-06 -0.033347705608324472 0.038307685738508547 0.064128162025465965 -0.050729635425700102 -0.022567803200510782 0.10855656847056482 11.500000000000002 5.5000000000000009 0.076209401235190585 0.69478175137946996 5.5000000000000009 39.439936613063004
decision_type=2 2 2 2 2 2 2 2 2 2 2 2 2 2 2 2 2 2 2 2 2 2 2 2 2 2 2 2 2 2
left_child=1 8 -3 4 26 9 7 17 -1 10 11 28 25 14 15 -13 -17 -7 -8 -16 -20 22 -5 24 -4 -11 27 -2 -6 -18
right_child=3 2 23 21 5 6 18 -9 -10 12 -12 13 -14 -15 19 16 29 -19 20 -21 -22 -23 -24 -25 -26 -27 -28 -29 -30 -31
leaf_value=-0.048772345461216289 -0.033705050875527297 0.033500361717027846 -0.0073541892935512975 0.015901424033117891 -0.0015064349308141103 -0.030807049736635669 -0.05481458942794222 0.029393911862745106 0.0053310034338518546 -0.0065271865879493645 0.051511475518405625 0.040129251211424362 -0.033411095526426536 -0.036809701270739265 -0.027272215503242322 0.035557176457268476 -0.037405839189579841 0.01940766877457081 -0.010185360410982357 0.00042650328456819513 0.023727942320564469 0.020125536342207456 -0.053679326196443083 0.029161264937976317 -0.056842725960958379 0.032199108961142642 -0.042598171576017356 -0.00085630236149749023 0.054788176964227955 0.019322143107739945
leaf_weight=64.098400890827179 24.596754282712936 28.480846643447876 28.000297456979752 17.952216863632206 7.8523618876934043 18.28630256652832 7.4438154995441428 109.80119132995605 10.431262850761412 79.03423222899437 24.338683098554611 30.722399324178696 57.95159912109375 32.017432570457458 66.746613591909409 15.35681828856468 18.697120934724811 18.737026423215866 47.134551435709 53.816074281930923 32.581548660993576 165.12354564666748 10.451390177011488 8.6039080023765546 15.190006911754606 15.719567894935606 24.147296965122223 60.103453010320663 24.342311024665833 8.2385469973087293
leaf_count=174 66 76 75 48 21 49 20 293 28 212 65 82 156 86 179 41 50 50 126 144 87 441 28 23 41 42 65 161 65 22
internal_value=7.74596e-06 -0.0189591 0.00168992 0.003031 -0.00013368 0.00269905 0.0124485 0.0206218 -0.0412 -0.00254715 0.00297153 -0.00161127 -0.0127431 -0.00770057 -0.00288597 0.0169653 0.000138322 -0.00539403 -0.00131963 -0.0149082 0.00367568 0.0157479 -0.00970151 -0.0158022 -0.0247593 -0.00010253 -0.0175395 -0.0103955 0.0410578 -0.020055
internal_weight=1126 154.805 80.2751 971.193 777.666 668.818 233.984 146.825 74.5297 434.834 282.128 257.79 152.705 225.595 193.578 73.0149 42.2925 37.0233 87.1599 120.563 79.7161 193.527 28.4036 51.7942 43.1903 94.7538 108.848 84.7002 32.1947 26.9357
internal_count=3016 417 215 2599 2082 1790 625 392 202 1165 755 690 410 604 518 195 113 99 233 323 213 517 76 139 116 254 292 227 86 72
is_linear=0
shrinkage=0.05


Tree=7
num_leaves=31
num_cat=0
split_feature=30 2 5 23 12 3 1 13 11 1 26 19 33 23 17 1 2 7 25 21 34 11 11 8 3 4 15 14 3 33
split_gain=33.7667 10.9703 9.44886 11.2185 12.5736 12.6461 8.09248 9.26221 16.0443 7.01486 6.01859 5.52204 11.7759 6.87734 5.02032 4.4421 4.39141 3.88107 3.47387 6.51738 8.50816 3.60913 7.21809 8.98257 9.15207 3.41907 3.18755 2.74391 2.7071 3.35096
threshold=0.028578349944629055 0.0060791313810431126 0.046557952105745558 0.069936542133746102 0.0013416442312307695 0.020635290916195998 -0.027268024841749661 -0.0030494277163159909 -0.031478453497539624 -0.0066280307642106401 19983.825000000004 8.7634765194179192 3.5000000000000004 0.039304500944958319 0.0048100389655165729 0.0012612219142578696 0.15615026208807978 0.33242082616186597 0.8572903981390525 53.254270087683103 20.500000000000004 -0.034315202400052501 -0.063459616280103229 -0.04132128864262534 -0.0018019076816185556 -0.052153252102746482 0.039503030461694282 -0.0025477747320106748 -0.077921015505085289 3.5000000000000004
decision_type=2 2 2 2 2 2 2 2 2 2 2 2 2 2 2 2 2 2 2 2 2 2 2 2 2 2 2 2 2 2
left_child=1 2 3 4 5 6 -1 25 9 -9 27 14 -13 -14 16 -10 18 -4 19 21 26 22 28 -24 -25 -8 -21 -3 -2 -30
right_child=11 10 17 -5 -6 -7 7 8 15 -11 -12 12 13 -15 -16 -17 -18 -19 -20 20 -22 -23 23 24 -26 -27 -28 -29 29 -31
leaf_value=-0.03536705288214953 -0.024417773389042739 0.042052193295699536 -0.035461362061545862 -0.035491009324433949 0.20471846166118468 0.1933385547795482 -0.035349317025221753 0.23339109321694093 -0.035283212607643506 0.11081512924811275 0.070340098521048458 -0.015874246969603056 -0.0040647203702674694 0.12107010737687558 -0.021238162013251648 0.077779676347867588 0.05971780467744954 0.050511157699160404 -0.035118175961287683 -0.035282564016169103 0.12719719802111334 -0.020320672156581315 -0.0076976200842832528 0.18154079551318916 0.021856313151624625 0.055288203674145768 0.056382597937140927 -0.02368466915136945 -0.0098217476718625296 0.021658589131899768
leaf_weight=1.998912051320082 13.970264166593543 1.9421199485659588 3.0120172202587119 2.0094297081232062 2.0798481702804557 1.960881546139716 1.9774074777960775 2.0422556400299121 1.7125653326511323 2.724126242101192 2.8324640095233908 7.7755617350339872 1.5988519489765165 3.5051442980766296 71.945031858980656 1.7631168887019155 2.6265103518962851 2.3268086761236191 9.1762438863515836 2.2557799294590946 2.1492922529578209 30.285152025520809 3.6330821588635445 1.8432786688208582 1.7483970150351513 2.1959411874413552 1.6363676488399503 8.6917765587568265 23.641247637569904 13.158443503081797
leaf_count=25 190 26 36 24 23 19 25 21 22 27 32 105 20 36 985 20 31 28 127 29 24 407 48 22 22 24 21 116 315 166
internal_value=-7.10906e-05 0.0421543 0.0612457 0.0766999 0.0889155 0.0742071 0.0580008 0.0730333 0.103764 0.163335 0.00557273 -0.00875499 0.0228609 0.081871 -0.0110417 0.0220704 -0.00412924 0.00200785 -0.00574952 -0.00289232 0.0473491 -0.0063306 0.000975087 0.0477355 0.103808 0.0123425 0.00325603 -0.0116788 -0.0056791 0.00143466
internal_weight=230.218 39.2697 25.8033 20.4645 18.4551 16.3752 14.4143 12.4154 8.24206 4.76638 13.4664 190.949 12.8796 5.104 178.069 3.47568 106.124 5.33883 103.498 94.3213 6.04144 88.2799 57.9947 7.22476 3.59168 4.17335 3.89215 10.6339 50.77 36.7997
internal_count=3016 468 294 230 206 183 164 139 90 48 174 2548 161 56 2387 42 1402 64 1371 1244 74 1170 763 92 44 49 50 142 671 481
is_linear=0
shrinkage=0.05


Tree=8
num_leaves=31
num_cat=0
split_feature=33 1 35 35 31 34 3 2 12 34 34 33 30 3 34 10 0 2 34 34 34 3 33 34 9 1 34 5 0 23
split_gain=31.126 32.5862 14.4414 12.943 12.6964 17.1189 14.4231 18.8275 13.8557 12.3635 23.91 15.8521 17.8977 14.819 12.6629 12.0124 9.76558 10.8199 9.75643 9.25212 8.66692 8.39428 8.34825 12.87 15.4769 14.3227 8.57979 13.7476 9.04454 8.18352
threshold=1.0000000180025095e-35 -0.0094398385270365297 11.500000000000002 23.500000000000004 0.002820409316732744 24.500000000000004 -0.0015125893642859007 -0.10004529706702307 -0.0064842317970462996 14.500000000000002 7.5000000000000009 5.5000000000000009 0.092308720202012626 0.042056765760577743 30.500000000000004 -0.075735702023470325 -0.040325904812744374 0.025272270235428818 11.500000000000002 8.5000000000000018 13.500000000000002 -0.054265713843823692 2.5000000000000004 20.500000000000004 -0.036373529465961368 -0.010823128988386594 17.500000000000004 -0.15217013441814567 -0.014042445296548073 0.05529954105450955
decision_type=2 2 2 2 2 2 2 2 2 2 2 2 2 2 2 2 2 2 2 2 2 2 2 2 2 2 2 2 2 2
left_child=1 3 -3 -1 5 6 7 19 21 10 -6 12 13 -12 -11 -8 -17 -18 -4 -2 -15 -7 23 24 -9 -26 27 -24 -29 -10
right_child=4 2 18 -5 9 8 15 22 29 14 11 -13 -14 20 -16 16 17 -19 -20 -21 -22 -23 26 -25 25 -27 -28 28 -30 -31
leaf_value=0.052574733282091703 -0.029641121511368596 -0.03029289053858792 -0.002095015092456918 -0.0072756686509739699 -0.018517486783048816 0.038302840987210651 0.040663807387698196 -0.045553277441735179 0.015181986169127335 -0.019788154433290132 -0.0037821895918404959 0.057850012404724017 -0.033010354705287896 0.057404412220765838 0.028911441092768234 0.03254413883423684 -0.015729477089268813 0.014546035127353397 0.043011413635124951 0.028987997878214718 0.0033541590946905802 -0.020247075360021509 0.034828765301077619 0.047308037332506811 0.037242418541061882 -0.034147104005101597 -0.040558718995128487 -0.0336664164025679 0.001641730814744983 0.051879118540777272
leaf_weight=65.179898113012314 8.1536052823066694 28.176598608493805 33.282205075025558 10.486459910869597 97.775107651948929 8.2370496690273267 25.475897282361984 20.382421135902405 27.655435055494308 232.33732718229294 35.795187503099442 18.335863351821899 21.509700864553452 25.476348310709 14.161851346492766 23.970139980316162 67.117476969957352 52.668635040521622 18.737387478351593 38.514901995658875 10.462529540061949 23.837310761213303 12.303808659315107 11.215863794088362 19.005726724863052 11.146245658397676 47.269705802202225 54.294410556554794 27.235802531242371 33.710115283727646
leaf_count=174 22 76 89 28 263 22 68 55 74 625 96 49 58 68 38 64 180 141 50 103 28 64 33 30 51 30 128 146 73 90
internal_value=6.80168e-06 0.0207437 -0.00146336 0.0442802 -0.00333198 0.00207005 -0.00224789 -0.00988988 0.0214211 -0.00940167 -0.000466665 0.0153509 0.00699372 0.0189891 -0.0169903 0.00901975 0.00341192 -0.00241767 0.0141523 0.0187447 0.0416693 -0.00521081 -0.0164775 -0.00114458 -0.0118984 0.0108519 -0.0231876 -0.0144367 -0.0218715 0.0353409
internal_weight=1123.91 155.863 80.1962 75.6664 968.048 512.195 418.755 249.522 93.4399 455.854 209.355 111.58 93.2438 71.7341 246.499 169.232 143.756 119.786 52.0196 46.6685 35.9389 32.0744 202.854 61.7503 50.5344 30.152 141.104 93.834 81.5302 61.3656
internal_count=3016 417 215 202 2599 1374 1124 671 250 1225 562 299 250 192 663 453 385 321 139 125 96 86 546 166 136 81 380 252 219 164
is_linear=0
shrinkage=0.05


Tree=9
num_leaves=31
num_cat=0
split_feature=33 1 35 6 21 0 25 35 35 35 35 35 25 32 35 8 33 35 11 35 24 9 35 4 35 33 8 25 17 14
split_gain=22.7612 25.6517 17.0683 14.3281 12.7436 15.8015 15.5871 13.1198 13.3562 11.506 13.8805 13.7911 10.5568 9.11963 8.83262 10.6625 11.7042 17.2451 9.35124 8.71166 14.4069 8.67611 7.9601 10.2846 8.26316 8.97004 7.7269 7.25684 6.90743 6.86412
threshold=1.0000000180025095e-35 -0.0007310570901650535 11.500000000000002 0.26753264884811639 55.319145362460169 0.012071551313492924 0.79584662775500759 15.500000000000002 24.500000000000004 30.500000000000004 29.500000000000004 26.500000000000004 0.90918539581746993 -0.0007849878241978415 23.500000000000004 -0.42129370828983309 5.5000000000000009 17.500000000000004 -0.081033749460976204 18.500000000000004 0.23764303861191807 0.032126306991833033 16.500000000000004 -0.039026450834115683 8.5000000000000018 2.5000000000000004 0.12415016984470469 0.13660939371799452 -0.018776959337872958 -0.00077871753528816693
decision_type=2 2 2 2 2 2 2 2 2 2 2 2 2 2 2 2 2 2 2 2 2 2 2 2 2 2 2 2 2 2
left_child=1 21 -3 4 5 9 -6 12 19 10 11 14 -8 -7 15 -2 -17 -18 -16 20 -9 -1 23 -5 -25 -26 -27 -13 -4 -23
right_child=3 2 28 22 6 13 7 8 -10 -11 -12 27 -14 -15 18 16 17 -19 -20 -21 -22 29 -24 24 25 26 -28 -29 -30 -31
leaf_value=-0.044295862939840003 0.011592655656040471 0.040133434756916268 -0.034140248388403051 -0.029192653055820406 -0.033790894877175973 -0.0039002473911965451 -0.0036870919017059217 -0.035716419242648005 0.011077557295588562 -0.059449908586937411 0.053238681957770706 0.0051339916690076315 0.041153690369854258 0.022735840576823707 -0.0044064036176732274 -0.013774892916606732 0.036467094328767595 -0.049310594594657219 0.04416725719875169 -0.046017900988018182 0.045531248531125439 0.03167325236294085 0.026206331320505302 0.026481250102743922 0.034507394855750634 -0.034665742465816544 0.023451630140763763 -0.041806229984566581 0.0047823803420051873 -0.032403078405212456
leaf_weight=67.781515777111053 99.269185036420822 22.835729688405991 20.727595090866089 17.512224316596985 54.988027006387711 42.6233791410923 27.994947910308838 14.902260184288027 32.918845772743225 8.4896770119667035 11.61220461130142 11.234180122613905 24.712834477424622 130.59012943506241 17.530554831027985 170.13380718231201 27.30789241194725 7.4602033197879782 22.789294987916946 32.145514667034149 8.6077024936676008 7.4392866194248226 87.251776099205017 48.966445624828339 10.861554414033888 20.960861474275593 7.8651912510395041 30.828654885292053 25.32605117559433 9.5384696125984174
leaf_count=186 266 61 56 47 148 114 75 40 88 23 31 30 66 349 47 458 73 20 61 87 23 20 233 131 29 56 21 83 68 26
internal_value=8.14071e-06 -0.0178716 0.00478956 0.00284159 -0.000192699 0.00353472 -0.0112051 -0.0024146 -0.0141683 -0.00185208 -0.000623987 -0.00224204 0.0173372 0.0161814 0.00105804 -0.00185688 -0.0083728 0.0180617 0.0230481 -0.0291006 -0.00596921 -0.0362897 0.0150174 0.00582196 0.0127386 -0.00421714 -0.0188084 -0.0292694 -0.0127357 -0.00432621
internal_weight=1123.21 153.649 68.8894 969.557 776.139 579.869 196.27 141.282 88.5743 406.656 398.166 386.554 52.7078 173.214 344.491 304.171 204.902 34.7681 40.3198 55.6555 23.51 84.7593 193.418 106.166 88.6541 39.6876 28.8261 42.0628 46.0536 16.9778
internal_count=3016 417 185 2599 2082 1555 527 379 238 1092 1069 1038 141 463 925 817 551 93 108 150 63 232 517 284 237 106 77 113 124 46
is_linear=0
shrinkage=0.05


Tree=10
num_leaves=31
num_cat=0
split_feature=30 25 25 3 3 2 4 24 30 32 27 27 11 19 5 35 17 22 2 25 21 4 29 11 11 30 17 28 34 3
split_gain=30.2084 9.40943 11.343 10.2644 19.2211 7.91016 9.73701 7.77945 6.43367 5.34829 6.94113 5.33888 5.43361 5.1289 5.56491 6.41974 4.83721 4.22918 3.92026 3.36699 5.87159 7.6791 5.87608 3.43597 6.4397 8.5901 9.59641 3.09909 2.71277 2.57504
threshold=0.028578349944629055 0.70712457950524199 0.67552271892421578 0.018306453879026813 0.026366591352812139 -0.043108370571639291 -0.063656034371681589 0.08774370284380488 0.020092385544063233 -0.00026760204886602318 0.50650726203823349 0.66165419363160394 -0.1153977289810275 8.7634765194179192 0.26998902131089947 24.500000000000004 0.0048100389655165729 307.62600664477122 0.15615026208807978 0.8572903981390525 53.254270087683103 0.024888639310453101 59.66294958830985 -0.034315202400052501 -0.063459616280103229 0.045906396909822407 -0.028585068750496542 -0.19199493972067194 23.500000000000004 -0.077921015505085289
decision_type=2 2 2 2 2 2 2 2 2 2 2 2 2 2 2 2 2 2 2 2 2 2 2 2 2 2 2 2 2 2
left_child=1 2 3 5 -5 6 -1 11 -6 10 -9 -7 -13 16 15 28 18 -3 19 20 23 -22 -23 24 29 -26 -27 -11 -15 -2
right_child=13 17 -4 4 8 7 -8 9 -10 27 -12 12 -14 14 -16 -17 -18 -19 -20 -21 21 22 -24 -25 25 26 -28 -29 -30 -31
leaf_value=0.012754107523759804 -0.024086489770218749 -0.035335440737509383 0.16679397294006115 0.22294795890546723 0.097876703980869229 0.12881075874960532 0.16268980967623925 -0.014306917063800849 -0.035695627875871355 -0.035565389035240182 0.11180847530426674 0.084419578596583708 -0.035610430764051772 -0.027397667103975412 0.10324333408016879 0.09024844622013338 -0.020901453871232 0.042961591652992265 0.054739711431965425 -0.035048925452738668 0.13120937233386162 -0.035302913723398999 0.082712736042372698 -0.019976385379498099 -0.019453846199206214 -0.0054374150168195502 0.14632221783584634 0.03023463915399251 0.030118941283967235 0.0013590343527827193
leaf_weight=2.0757279098033905 13.614196613430968 5.3576959744095793 1.9751776084303845 2.1243716925382605 1.8674850538372996 2.1239824742078843 2.2636849209666279 2.3550777211785361 1.7428217902779577 8.3633100986480731 2.0327031686902046 2.0737647786736493 1.7289555147290228 6.3068395555019361 1.8023337200283993 1.9878893792629231 70.446014910936356 2.5433986037969589 2.7674304693937293 8.8501540347933751 1.7973575368523587 2.8127476423978806 1.6875648722052572 29.678674519062049 3.1258839666843405 1.677271321415901 2.7489331811666489 2.2765627354383371 3.0373629555106163 36.867287270724773
leaf_count=26 190 68 22 23 20 22 23 28 20 99 23 20 20 81 22 24 985 28 31 127 20 36 18 407 38 22 32 26 34 481
internal_value=-8.17862e-05 0.0388807 0.0506142 0.0432186 0.103615 0.0295254 0.0909691 0.0168011 0.0333967 -0.00233129 0.0441179 0.0653128 0.0298464 -0.00850506 0.0216357 0.00865625 -0.0107534 -0.0101313 -0.00398544 -0.00556543 -0.00278984 0.043844 0.00895158 -0.00613811 0.000938857 0.044001 0.0888142 -0.0214865 -0.00870171 -0.00550329
internal_weight=230.113 40.9047 33.0036 31.0284 5.73468 25.2938 4.33941 20.9544 3.61031 15.0277 4.38778 5.9267 3.80272 189.208 13.1344 11.3321 176.074 7.90109 105.628 102.86 94.0099 6.29767 4.50031 87.7122 58.0336 7.55209 4.4262 10.6399 9.3442 50.4815
internal_count=3016 468 372 350 63 287 49 238 40 176 51 62 40 2548 161 139 2387 96 1402 1371 1244 74 54 1170 763 92 54 125 115 671
is_linear=0
shrinkage=0.05


Tree=11
num_leaves=31
num_cat=0
split_feature=33 1 12 35 35 31 34 35 33 13 3 10 35 34 34 33 25 35 34 34 34 33 1 33 30 19 0 35 34 35
split_gain=27.4753 28.8601 13.197 11.4796 11.4665 11.4354 15.7621 13.7191 12.7938 13.765 12.1409 11.7235 13.2818 11.3421 22.1244 14.5343 17.5274 14.4313 13.7663 11.6299 10.8452 8.8387 10.2428 8.63508 8.4014 7.92523 8.6913 7.84811 7.71628 7.68456
threshold=1.0000000180025095e-35 -0.0094398385270365297 0.012660053071834633 11.500000000000002 23.500000000000004 0.002820409316732744 24.500000000000004 7.5000000000000009 5.5000000000000009 -0.005606475550456594 -0.0015125893642859007 -0.075735702023470325 14.500000000000002 14.500000000000002 7.5000000000000009 5.5000000000000009 0.82647982207646875 17.500000000000004 13.500000000000002 30.500000000000004 11.500000000000002 1.5000000000000002 -0.012542086243249652 2.5000000000000004 0.026220953530819085 -0.020337372859245226 0.0010156922256256814 12.500000000000002 7.5000000000000009 26.500000000000004
decision_type=2 2 2 2 2 2 2 2 2 2 2 2 2 2 2 2 2 2 2 2 2 2 2 2 2 2 2 2 2 2
left_child=1 4 3 -3 -1 6 7 -2 9 -8 21 -12 27 14 29 16 17 -16 -18 -15 -5 -9 23 28 -11 -14 -27 -13 -23 -7
right_child=5 2 -4 20 -6 13 8 10 -10 24 11 12 25 19 15 -17 18 -19 -20 -21 -22 22 -24 -25 -26 26 -28 -29 -30 -31
leaf_value=0.049580873960000771 -0.042590159797348245 -0.022944357941223445 -0.060260232940050812 0.0021601458230111679 -0.0067880616787217079 -0.036602772310580949 -0.01668838230066275 -0.044586932041217643 -0.022150646531367987 0.0059640256625755278 0.042013133594369645 0.014776312123138541 0.018221018956603292 -0.018871280913821693 0.050015029677201756 0.055570536580129996 0.047125717983437572 -0.025490958792557417 -0.014556174865378461 0.027786016727547436 0.052005657243149678 0.062817063473866966 -0.019566554924430671 -0.0044570702701998552 0.04830854766518361 -0.020679844851965636 0.034030208318995531 0.062729995920363726 0.01060327508901363 -0.0072876441139135897
leaf_weight=64.844782739877701 19.96845617890358 23.572950631380081 8.5074493885040265 31.04485222697258 10.479850172996519 34.71592989563942 13.826945215463637 14.99799671769142 14.749938040971754 15.354561895132063 24.727501422166824 32.158187508583069 25.419465184211731 231.56812089681625 7.4787986278533927 18.34199532866478 31.785750567913055 41.133625149726868 12.643920093774794 14.173522084951399 16.827658265829086 9.3588709831237775 77.06663054227829 102.79338520765305 49.401579856872559 62.534750819206238 8.2125722467899305 11.613495618104933 29.006051331758499 62.784719198942184
leaf_count=174 54 64 23 83 28 94 37 41 40 41 66 86 68 625 20 49 85 111 34 38 45 25 208 277 132 168 22 31 78 169
internal_value=8.63113e-06 0.0195301 -0.00139247 0.00561727 0.0417383 -0.0031299 0.00200088 -0.00214857 0.0205782 0.0285983 -0.000118967 0.0102754 0.00466726 -0.00889905 -0.000333109 0.0148914 0.00687212 -0.0138747 0.0295721 -0.0161803 0.0196813 -0.00745786 -0.00490608 0.00309793 0.0382681 -0.0057251 -0.0143289 0.0274994 0.0233405 -0.0177255
internal_weight=1121.09 155.278 79.9529 71.4455 75.3246 965.817 511.19 417.857 93.333 78.5831 397.889 164.666 139.938 454.626 208.885 111.384 93.0421 48.6124 44.4297 245.742 47.8725 233.223 218.225 141.158 64.7561 96.1668 70.7473 43.7717 38.3649 97.5006
internal_count=3016 417 215 192 202 2599 1374 1124 250 210 1070 441 375 1225 562 299 250 131 119 663 128 629 588 380 173 258 190 117 103 263
is_linear=0
shrinkage=0.05


end of trees

feature_importances:
day_of_month=44
days_to_month_end=44
day_of_week=32
returns_5=25
returns_3=20
returns_2=14
returns_20=14
high_low_range=12
returns_1=11
returns_10=11
bollinger_percent_b_20=11
volume_ratio_20=10
price_to_sma_200=8
sma_20_slope=8
ema_12_26_spread=8
macd_signal=8
rsi_14=8
atr_pct_14=8
close_open_range=8
returns_50=6
returns_200=5
price_to_sma_20=5
sma_50_slope=5
bollinger_width_20=5
gap_open=5
sma_200_slope=4
volume_20=4
price_to_sma_50=3
macd_hist=3
atr_14=3
returns_100=2
price_to_ema_12=2
vwap_distance=2
price_to_ema_26=1
adx_14=1

parameters:
[boosting: gbdt]
[objective: multiclass]
[metric: multi_logloss]
[tree_learner: serial]
[device_type: cpu]
[data_sample_strategy: bagging]
[data: ]
[valid: ]
[num_iterations: 300]
[learning_rate: 0.05]
[num_leaves: 31]
[num_threads: 0]
[seed: 0]
[deterministic: 0]
[force_col_wise: 0]
[force_row_wise: 0]
[histogram_pool_size: -1]
[max_depth: -1]
[min_data_in_leaf: 20]
[min_sum_hessian_in_leaf: 0.001]
[bagging_fraction: 1]
[pos_bagging_fraction: 1]
[neg_bagging_fraction: 1]
[bagging_freq: 0]
[bagging_seed: 3]
[bagging_by_query: 0]
[feature_fraction: 0.8]
[feature_fraction_bynode: 1]
[feature_fraction_seed: 2]
[extra_trees: 0]
[extra_seed: 6]
[early_stopping_round: 0]
[early_stopping_min_delta: 0]
[first_metric_only: 0]
[max_delta_step: 0]
[lambda_l1: 0]
[lambda_l2: 0]
[linear_lambda: 0]
[min_gain_to_split: 0]
[drop_rate: 0.1]
[max_drop: 50]
[skip_drop: 0.5]
[xgboost_dart_mode: 0]
[uniform_drop: 0]
[drop_seed: 4]
[top_rate: 0.2]
[other_rate: 0.1]
[min_data_per_group: 100]
[max_cat_threshold: 32]
[cat_l2: 10]
[cat_smooth: 10]
[max_cat_to_onehot: 4]
[top_k: 20]
[monotone_constraints: ]
[monotone_constraints_method: basic]
[monotone_penalty: 0]
[feature_contri: ]
[forcedsplits_filename: ]
[refit_decay_rate: 0.9]
[cegb_tradeoff: 1]
[cegb_penalty_split: 0]
[cegb_penalty_feature_lazy: ]
[cegb_penalty_feature_coupled: ]
[path_smooth: 0]
[interaction_constraints: ]
[verbosity: -1]
[saved_feature_importance_type: 0]
[use_quantized_grad: 0]
[num_grad_quant_bins: 4]
[quant_train_renew_leaf: 0]
[stochastic_rounding: 1]
[linear_tree: 0]
[max_bin: 255]
[max_bin_by_feature: ]
[min_data_in_bin: 3]
[bin_construct_sample_cnt: 200000]
[data_random_seed: 1]
[is_enable_sparse: 1]
[enable_bundle: 1]
[use_missing: 1]
[zero_as_missing: 0]
[feature_pre_filter: 1]
[pre_partition: 0]
[two_round: 0]
[header: 0]
[label_column: ]
[weight_column: ]
[group_column: ]
[ignore_column: ]
[categorical_feature: ]
[forcedbins_filename: ]
[precise_float_parser: 0]
[parser_config_file: ]
[objective_seed: 5]
[num_class: 3]
[is_unbalance: 0]
[scale_pos_weight: 1]
[sigmoid: 1]
[boost_from_average: 1]
[reg_sqrt: 0]
[alpha: 0.9]
[fair_c: 1]
[poisson_max_delta_step: 0.7]
[tweedie_variance_power: 1.5]
[lambdarank_truncation_level: 30]
[lambdarank_norm: 1]
[label_gain: ]
[lambdarank_position_bias_regularization: 0]
[eval_at: ]
[multi_error_top_k: 1]
[auc_mu_weights: ]
[num_machines: 1]
[local_listen_port: 12400]
[time_out: 120]
[machine_list_filename: ]
[machines: ]
[gpu_platform_id: -1]
[gpu_device_id: -1]
[gpu_use_dp: 0]
[num_gpu: 1]

end of parameters

pandas_categorical:null
