tree
version=v4
num_class=3
num_tree_per_iteration=3
label_index=0
max_feature_idx=49
objective=multiclass num_class:3
feature_names=returns_1 returns_2 returns_3 returns_5 returns_10 returns_20 returns_50 returns_100 returns_200 price_to_sma_20 price_to_sma_50 price_to_sma_200 sma_20_slope sma_50_slope sma_200_slope price_to_ema_12 price_to_ema_26 ema_12_26_spread macd macd_signal macd_hist rsi_14 atr_14 atr_pct_14 bollinger_width_20 bollinger_percent_b_20 volume_20 volume_ratio_20 vwap_distance adx_14 high_low_range close_open_range gap_open day_of_week day_of_month days_to_month_end news_sentiment_1d news_sentiment_7d news_article_count_7d earnings_proximity_days congress_buy_score congress_cluster_30d days_since_last_congress insider_buy_score insider_cluster_60d insider_value_60d ceo_bought_90d analyst_upgrade_score consensus_rating watchlist_research_score
feature_infos=[-0.26486748545572075:0.81689081948041098] [-0.31521902754779474:1.5364431486880463] [-0.33552439380660232:2.5749506903353057] [-0.36810668148353931:2.6662452591656134] [-0.41761416320418498:3.5242850098619329] [-0.46586620926243566:7.2799754407508113] [-0.43415086783220175:8.4642126789366046] [-0.32975531096401173:12.580246913580249] [-0.35076617752071942:34.594620970788178] [-0.36153195644866026:1.9959812527334035] [-0.42948296340295594:3.0283929397765581] [-0.046708557263620477:5.9829268870008088] [-0.030690902384850241:0.12167376752198836] [-0.012997403368653843:0.077107591937001951] [-0.0027598910517627902:0.031627338870551358] [-0.30723778181923489:1.3049112494593789] [-0.35139374987200089:1.8499256028304303] [-129.65211587986187:2539.2992452797898] [-129.65211587986187:2539.2992452797898] [-93.71805407448413:2286.3661752412563] [-718.19632372787464:579.63956129135545] [27.621712694601314:94.126633627204313] [0.019050684932131294:1851.0485681575683] [0.046605827715912262:0.22991319208232833] [0.084912758319282883:2.3477276452772942] [-0.32416751604908811:1.5035305997466901] [2376.9000000000001:28333.599999999999] [0.24924080216074004:3.4150768146732573] [-0.069934163361852292:4.6585981093697537] [34.730555020364612:99.477684528867471] [0.016398997086128533:0.56237623762376232] [-0.26474866655891377:0.81689081948041098] [-0.019036351903635298:0.015063759974147889] [0:6] [1:31] [1:31] none none none none none none none none none none none none none none
tree_sizes=2621 1462 2629 2450 2514 2445 2559 2734 2458 2358 2736 2460 2342 2511 2671 2243 2740 2252 2360 2740 2568 2469 2844 2568

Tree=0
num_leaves=24
num_cat=0
split_feature=5 28 24 31 9 14 1 9 12 14 33 6 14 34 8 3 14 28 26 3 8 23 3
split_gain=9.67168 10.2227 7.09959 5.15948 4.91231 4.6619 3.90009 3.79198 4.60927 3.29488 3.06565 6.17608 3.57622 3.60564 2.98773 2.89748 5.55756 3.72192 2.65551 2.47763 2.3087 2.09177 1.3402
threshold=0.066839450939222042 0.23213143912329498 0.5981705361021622 -0.033951115372521108 0.21591695103373001 0.0069850274846121998 0.031392109457974944 0.13401874215971671 0.01118397612701519 0.011732520488166932 2.5000000000000004 0.18534359375401413 0.0063853461766553649 15.500000000000002 4.0256097893800975 -0.016328257071360239 0.0054028427270104394 0.40079736037276442 4974.5500000000002 0.20258934566817074 6.9852946647146359 0.068318997208634838 -0.073518311132836328
decision_type=2 2 2 2 2 2 2 2 2 2 2 2 2 2 2 2 2 2 2 2 2 2 2
left_child=1 22 4 -4 7 15 18 8 10 -5 11 -2 -12 -14 -10 16 -3 -17 -7 -6 -11 -9 -1
right_child=2 5 3 9 19 6 -8 21 14 20 12 -13 13 -15 -16 17 -18 -19 -20 -21 -22 -23 -24
leaf_value=-0.79256037938373214 -0.74393171454889107 -0.78788668619594415 -0.80460722647984073 -0.74451339714260922 -0.84630785104329331 -0.78204456971120928 -0.7222752241366136 -0.79032090139791711 -0.80599724729862243 -0.79927881334117734 -0.83287098312840302 -0.80541303565014899 -0.76568664355395155 -0.81431530838879262 -0.84630785104329331 -0.81013166819551174 -0.73026217359651346 -0.76668196710320269 -0.74553134168161606 -0.80599724729862243 -0.76080050976671865 -0.75867610377226957 -0.82187718210712912
leaf_weight=7.4422103166580191 7.8143208324909237 8.5585418641567248 10.791204959154127 12.279647022485735 7.8143208324909192 8.5585418641567284 9.6748734116554242 13.395978569984438 11.163315474987032 7.4422103166580191 7.4422103166580227 8.5585418641567212 7.4422103166580182 7.814320832490921 7.8143208324909201 9.6748734116554278 8.1864313483238202 10.046983927488325 11.90753650665283 7.44221031665802 8.1864313483238202 8.5585418641567212 8.1864313483238202
leaf_count=20 21 23 29 33 21 23 26 36 30 20 20 23 20 21 21 26 22 27 32 20 22 23 22
internal_value=-0.785021 -0.771523 -0.793307 -0.775247 -0.800643 -0.762984 -0.748434 -0.795685 -0.80238 -0.763895 -0.79256 -0.77607 -0.804455 -0.790594 -0.822596 -0.77501 -0.759715 -0.787997 -0.760801 -0.826644 -0.779124 -0.777985 -0.807917
internal_weight=216.196 82.2364 133.96 38.6995 95.2603 66.6078 30.141 80.0038 58.0492 27.9083 39.0716 16.3729 22.6987 15.2565 18.9776 36.4668 16.745 19.7219 20.4661 15.2565 15.6286 21.9545 15.6286
internal_count=581 221 360 104 256 179 81 215 156 75 105 44 61 41 51 98 45 53 55 41 42 59 42
is_linear=0
shrinkage=1


Tree=1
num_leaves=13
num_cat=0
split_feature=20 8 20 22 22 8 8 14 4 2 2 2
split_gain=7.21269 7.16096 7.35763 2.37722 6.51983 1.76174 5.42559 1.07937 3.63316 8.88178e-16 8.88178e-16 1.11022e-16
threshold=157.20279149126677 22.856749417569741 1.9021659171393122 310.18725968833201 379.8523401889783 12.064136141505696 14.077744733125725 0.0053236109507474264 0.10320429053288686 0.22990911520429927 0.14536722784539943 -0.0075290255009737442
decision_type=2 2 2 2 2 2 2 2 2 2 2 2
left_child=1 3 -3 5 -5 7 -7 8 -1 10 -9 -8
right_child=-2 2 -4 4 -6 6 11 9 -10 -11 -12 -13
leaf_value=-3.626439320899649 -3.4486258951574125 -3.587542634018535 -3.400131324500439 -3.4486258951574125 -3.6264393208996495 -3.4881399897667986 -3.626439320899649 -3.6264393208996495 -3.5019699228800834 -3.626439320899649 -3.626439320899649 -3.6264393208996495
leaf_weight=2.1692079082131523 0.84358085319399734 1.2854565382003778 0.88375137001276005 0.84358085319399778 1.32562705501914 1.0846039541065686 0.96409240365028437 10.122970238327975 0.8034103363752364 0.88375137001276094 1.0444334372878081 1.0846039541065688
leaf_count=54 21 32 22 21 33 27 24 252 20 22 26 27
internal_value=-3.59216 -3.59754 -3.51119 -3.60676 -3.55729 -3.61267 -3.57857 -3.61978 -3.5928 -3.62644 -3.62644 -3.62644
internal_weight=23.3391 22.4955 2.16921 20.3263 2.16921 18.1571 3.1333 15.0238 2.97262 12.0512 11.1674 2.0487
internal_count=581 560 54 506 54 452 78 374 74 300 278 51
is_linear=0
shrinkage=1


Tree=2
num_leaves=24
num_cat=0
split_feature=5 28 24 14 0 31 4 9 4 5 30 14 3 0 0 13 0 4 6 30 17 11 3
split_gain=9.29862 12.0666 7.98625 7.01643 6.58028 5.97725 4.04479 3.61619 6.28076 3.46277 3.34427 4.13738 3.27016 2.83525 3.78479 4.74709 3.25073 2.63378 2.63378 2.34896 1.6818 2.33115 1.58553
threshold=0.13348865126277878 0.23213143912329498 0.59246709748460646 0.0049744876220390406 0.061561969882838068 -0.033951115372521108 0.42396128766123747 0.21591695103373001 0.21703224125430493 0.4373361042582552 0.044238126800890502 0.0086786472120770064 0.20258934566817074 -0.060520399865577494 0.016394110599557758 0.006151055116185365 -0.024919809016059131 0.7630305816230516 0.21602463149630638 0.06722264490195827 -1.474006892985585 0.48665298986542777 -0.073518311132836328
decision_type=2 2 2 2 2 2 2 2 2 2 2 2 2 2 2 2 2 2 2 2 2 2 2
left_child=1 22 7 -3 13 -4 -7 8 9 10 -2 19 -9 -5 15 16 -15 -8 -16 -12 -18 -22 -1
right_child=2 3 5 4 -6 6 17 12 -10 -11 11 -13 -14 14 18 -17 20 -19 -20 -21 21 -23 -24
leaf_value=-0.64980315769349428 -0.62389309558611705 -0.63454874883373968 -0.63783633695006614 -0.64980315769349428 -0.72432730097708664 -0.70240843530544184 -0.64494948214720871 -0.59641272668435341 -0.6809475757821597 -0.60912473406748224 -0.66024911158658706 -0.68045321993948249 -0.6431293538173517 -0.65444580386820217 -0.68135204874435018 -0.72000168735366088 -0.66982456932192203 -0.68539677836625479 -0.6409047525253041 -0.62501474329639317 -0.71775461534149154 -0.68221877652047258 -0.61865873960482876
leaf_weight=7.4919790029525783 12.736364305019377 7.8665779531002036 10.863369554281233 7.4919790029525748 8.990374803543089 12.73636430501938 8.241176903247835 7.4919790029525739 11.237968504428862 7.8665779531002036 8.6157758533954674 10.114171653985975 7.4919790029525757 8.6157758533954532 8.241176903247835 10.114171653985975 7.4919790029525712 7.8665779531002036 7.8665779531002036 10.488770604133604 8.2411769032478492 10.488770604133604 8.990374803543089
leaf_count=20 34 21 29 20 24 34 22 20 30 21 23 27 20 23 22 27 20 21 21 28 22 28 24
internal_value=-0.660968 -0.671984 -0.651272 -0.679543 -0.684107 -0.669447 -0.681352 -0.641781 -0.647183 -0.639567 -0.645275 -0.654595 -0.619771 -0.678832 -0.682394 -0.689846 -0.681091 -0.664703 -0.661599 -0.640905 -0.689846 -0.697855 -0.632815
internal_weight=217.642 101.891 115.751 85.4086 77.542 39.7075 28.8441 76.0436 61.0596 49.8217 41.9551 29.2187 14.984 68.5516 61.0596 44.9519 34.8377 16.1078 16.1078 19.1045 26.2219 18.7299 16.4824
internal_count=581 272 309 228 207 106 77 203 163 133 112 78 40 183 163 120 93 43 43 51 70 50 44
is_linear=0
shrinkage=1


Tree=3
num_leaves=22
num_cat=0
split_feature=5 21 11 24 15 15 31 35 20 11 33 2 2 0 7 3 33 30 0 8 15
split_gain=8.55691 8.56736 7.97129 6.3129 5.01544 7.41757 4.49518 4.19807 3.92683 5.50022 10.9342 4.51777 4.51179 3.90634 2.97382 2.93672 2.7171 2.61954 2.16162 1.32481 1.32228
threshold=0.066839450939222042 46.280817606423589 0.44501486392571632 0.5981705361021622 -0.01236983072258486 -0.0028905415046014812 -0.033951115372521108 17.500000000000004 0.88283620431563914 1.051714775029051 1.5000000000000002 0.061067954402043954 0.078966718297441618 0.053685640694810223 1.6849526531496817 0.07046611177116828 3.5000000000000004 0.05211872134872509 0.016394110599557758 3.4917052672416982 0.0048351669259964454
decision_type=2 2 2 2 2 2 2 2 2 2 2 2 2 2 2 2 2 2 2 2 2
left_child=1 2 -1 8 -3 -6 -5 -4 11 10 -10 14 19 16 20 18 -8 -11 -7 -12 -2
right_child=3 4 7 6 5 15 13 -9 9 17 12 -13 -14 -15 -16 -17 -18 -19 -20 -21 -22
leaf_value=-0.039635474658248356 0.01137996368911965 0.052110531020592127 -0.0082185675349180833 -0.018284252782219575 -0.02809601859037791 0.056286197371167107 0.051085237144033749 0.035808795193658031 0.041111485405675108 -0.01939680882267529 -0.054837737115069334 0.025710102385431217 -0.00071817149167540198 -0.0044677054939989422 -0.040046576449166121 0.0066348543330860188 0.011289582027995517 -0.056321005485857993 0.020961765293092263 -0.026472981645122823 -0.014093440268662993
leaf_weight=11.873624086380003 8.9266420304775291 13.44819739460945 12.265538066625597 10.747500717639921 7.4456903636455527 9.6961065828800255 10.08686894178391 9.6930991709232313 7.8107158541679373 7.399808973073962 9.2643966972827965 10.395990699529646 10.772581189870833 10.435149580240248 7.4104152321815482 10.078969419002531 7.4623510837554923 13.689279198646544 7.8266198635101309 7.4084701538085929 11.866450101137159
leaf_count=32 24 36 33 29 20 26 27 26 21 20 25 28 29 28 20 27 20 37 21 20 32
internal_value=-3.71349e-07 0.0126806 -0.00663047 -0.00781022 0.0261526 0.0161922 0.00920187 0.0112162 -0.0147502 -0.0231664 -0.0110843 -0.00246464 -0.0259387 0.019758 -0.01285 0.0281392 0.0341632 -0.0433649 0.0405084 -0.0422341 -0.0031575
internal_weight=216.004 82.3278 33.8323 133.677 48.4956 35.0474 38.7319 21.9586 94.9448 56.3453 35.2562 38.5995 27.4454 27.9844 28.2035 27.6017 17.5492 21.0891 17.5227 16.6729 20.7931
internal_count=581 221 91 360 130 94 104 59 256 152 95 104 74 75 76 74 47 57 47 45 56
is_linear=0
shrinkage=0.05


Tree=4
num_leaves=22
num_cat=0
split_feature=26 3 8 1 11 8 0 26 22 23 5 11 22 21 14 32 11 19 19 30 25
split_gain=6.19308 18.3462 5.8687 1.82156 2.61816 1.64367 2.60134 1.15914 3.22827e-06 5.92101e-07 5.92315e-07 3.79937e-07 1.4164e-07 2.09393e-07 4.41643e-08 4.20304e-08 3.84059e-08 3.66347e-08 1.39289e-08 1.0983e-08 1.02858e-08
threshold=15560.475000000002 0.18536228863133927 25.845705590787322 0.058022799588254882 0.96023183684929314 12.064136141505696 0.014001059778132605 2947.7750000000005 310.18725968833201 0.055961403038739074 0.28606066730467866 0.59830508714671427 5.3785044214730506 63.11539764201806 0.011535587827572536 -1.4349480854526857e-05 0.47406490539018392 0.14696377043711803 63.710249136058316 0.072347741769128338 0.78713380356725915
decision_type=2 2 2 2 2 2 2 2 2 2 2 2 2 2 2 2 2 2 2 2 2
left_child=5 2 3 8 -5 7 -7 -1 11 10 -9 -2 13 17 16 -13 -14 -11 -17 -19 -18
right_child=1 -3 -4 4 -6 6 -8 9 -10 12 -12 15 14 -15 -16 18 20 19 -20 -21 -22
leaf_value=0.028135557653305145 -0.03428231983049005 0.18472279071094977 0.083872335474029183 0.091037881176351282 -0.034318294551676634 -0.034316434077741147 0.086849203224095423 -0.034299615178128608 -0.034340375932057729 -0.034239089484651743 -0.034246775118819149 -0.034255571573824438 -0.034246539305479544 -0.034274952832388926 -0.034250490368083857 -0.034246810633534921 -0.034238729931362746 -0.03425575326306881 -0.034238018222268254 -0.034247766631141971 -0.034232309796739899
leaf_weight=0.80110992863774555 1.0051635727286323 1.5975597873330105 1.6914872601628301 0.79799701273441292 0.87133936583995819 0.95613529905676731 0.82536260411143303 1.2263436876237386 1.6527843251824377 0.84984087571501632 0.93449173495173443 0.82492908090352912 1.2066799737513068 0.95963662862777699 1.1334766298532484 0.81763909384608391 1.3127224110066893 0.86449913680553414 1.0030119791626928 0.85737207159399986 1.1888740956783292
leaf_count=20 25 37 39 20 21 23 20 30 39 22 24 21 31 24 29 21 34 22 26 22 31
internal_value=-6.4622e-05 0.0290299 0.000322748 -0.0199448 0.025606 -0.0228271 0.0218192 -0.0298441 -0.0342824 -0.0342534 -0.0342768 -0.0342562 -0.0342474 -0.034255 -0.0342419 -0.0342462 -0.0342392 -0.0342476 -0.034242 -0.0342518 -0.0342357
internal_weight=23.3785 10.2619 8.66435 6.97286 1.66934 13.1165 1.7815 11.335 5.30353 10.5339 2.16084 3.65074 8.3731 3.53135 4.84175 2.64558 3.70828 2.57171 1.82065 1.72187 2.5016
internal_count=581 249 212 173 41 332 43 289 132 269 54 93 215 90 125 68 96 66 47 44 65
is_linear=0
shrinkage=0.05


Tree=5
num_leaves=22
num_cat=0
split_feature=5 28 35 24 14 0 0 4 13 7 8 35 27 28 35 30 21 25 30 24 11
split_gain=8.20956 10.6924 7.73837 6.85372 6.28836 5.91904 5.20009 4.784 3.33699 4.4201 3.98686 2.76482 5.17287 5.08224 5.95918 3.39496 2.49003 2.75575 2.3611 1.6284 1.55036
threshold=0.13348865126277878 0.23213143912329498 2.5000000000000004 0.59246709748460646 0.0049744876220390406 0.061561969882838068 -0.024358814873563207 0.42396128766123747 0.012793207273861318 2.2970094100349083 4.7379798999135376 24.500000000000004 0.73796288319859793 0.4063004649443237 8.5000000000000018 0.065742167339554194 66.716903843007159 0.71959320044423924 0.056817769861346006 0.28343139008277113 0.42815269514337523
decision_type=2 2 2 2 2 2 2 2 2 2 2 2 2 2 2 2 2 2 2 2 2
left_child=1 20 -2 8 -3 11 -5 -8 9 10 16 13 -13 15 -15 -6 17 -4 -18 -16 -1
right_child=2 4 3 6 5 -7 7 -9 -10 -11 -12 12 -14 14 19 -17 18 -19 -20 -21 -22
leaf_value=0.040601577626960497 0.057058213005782801 0.025186581675534989 0.016646292634174619 0.015128748507650266 -0.025602032067048641 -0.059901140019002111 -0.048779890503087259 -0.0051540216516626257 -0.0095911312780247848 0.052079701355772223 -0.010190703461052549 -0.027145742785230978 0.031602415203387073 -0.0013023472402943093 -0.067032367720255961 0.010731554763997788 -0.0086806000355372104 0.05713495991770421 0.025998510401961935 -0.038104812120338012 0.009768170960486617
leaf_weight=8.9658271074295062 7.8490912318229666 7.8531960248947135 8.5958611369133013 12.34459602832794 11.993061989545824 8.9950667321681959 11.248747855424883 14.238346070051191 11.590534567832945 8.9650950431823713 12.728156477212904 7.4960610270500165 7.4919221699237823 8.2431107759475726 9.3712292015552539 13.858392566442488 8.9772907495498675 8.2226165831089002 10.82836478948593 10.117138117551802 7.4766408801078788
leaf_count=24 21 21 23 33 32 24 30 38 31 24 34 20 20 22 25 37 24 22 29 27 20
internal_value=7.31646e-06 -0.0103418 0.00912737 0.0056355 -0.0174491 -0.0217658 -0.0115073 -0.0244083 0.0149126 0.0197826 0.0139157 -0.0167632 0.00222022 -0.0220732 -0.0369408 -0.0061244 0.0222935 0.0364414 0.0102795 -0.052015 0.0265812
internal_weight=217.45 101.862 115.589 107.74 85.4192 77.566 37.8317 25.4871 69.9079 58.3174 49.3523 68.5709 14.988 53.5829 27.7315 25.8515 36.6241 16.8185 19.8057 19.4884 16.4425
internal_count=581 272 309 288 228 207 101 68 187 156 132 183 40 143 74 69 98 45 53 52 44
is_linear=0
shrinkage=0.05


Tree=6
num_leaves=23
num_cat=0
split_feature=5 28 24 9 31 14 31 9 5 4 4 33 6 6 10 32 24 8 3 30 24 27
split_gain=7.61174 7.90812 5.61179 4.20485 3.97445 5.75007 3.96338 3.54246 3.43916 3.43466 3.29125 2.88007 5.15353 2.84663 2.7207 4.15111 2.61859 2.47113 2.16757 2.06733 1.54304 1.23701
threshold=0.066839450939222042 0.23213143912329498 0.5981705361021622 0.21591695103373001 -0.063085647390966573 0.0069850274846121998 -0.033951115372521108 0.13401874215971671 0.23142446575125561 0.42396128766123747 0.7630305816230516 2.5000000000000004 0.18534359375401413 0.29275090728242953 -0.031171192801214699 -4.0430926310597567e-05 0.3017428995185763 4.1558884187086171 0.20258934566817074 0.056817769861346006 0.44876146874138095 0.96444199939013242
decision_type=2 2 2 2 2 2 2 2 2 2 2 2 2 2 2 2 2 2 2 2 2 2
left_child=1 21 3 7 -3 14 -4 8 11 -8 -11 12 -2 -13 -6 -16 -7 -10 -5 -9 -18 -1
right_child=2 4 6 18 5 16 9 19 17 10 -12 13 -14 -15 15 -17 20 -19 -20 -21 -22 -23
leaf_value=-0.033770427355110127 0.038408026185108114 -0.015016140028752931 -0.017229848380659045 -0.056886653548922875 -0.0086693764490400511 0.016512507101236123 0.038773845168755455 0.028401205498556337 -0.017779603395033042 -0.01877830711098866 0.026548274765392368 -0.032738200059273928 -0.019738227480865105 0.0061054225892493716 0.049754956623171948 0.0039987773360730559 0.067675629036367563 -0.051977589690942322 -0.018895450985149061 -0.0036802184405604304 0.038531089386887755 -0.0054686396749029729
leaf_weight=8.0842172205448133 7.8457553386688215 7.4484530985355368 10.705124467611311 7.637113541364668 12.271844297647471 7.4725757837295559 11.992253422737123 7.8043463528156307 13.276730775833132 8.1874142587184924 7.8398357927799216 12.929940164089205 7.4094142615795135 7.4252474606037131 7.8577974736690512 13.426577568054205 8.2451874315738696 8.7729220390319806 7.3849160373210907 14.083381205797194 10.110577344894407 7.3904275000095359
leaf_count=22 21 20 29 21 33 20 32 21 36 22 21 35 20 20 21 36 22 24 20 38 27 20
internal_value=-9.91789e-07 0.0119546 -0.00738343 -0.0139484 0.0194122 0.0237305 0.00864893 -0.00936676 -0.0158676 0.0185362 0.00339349 -0.00625878 0.0101665 -0.0185687 0.0100805 0.0208911 0.0414646 -0.031386 -0.03821 0.00775882 0.0516225 -0.020254
internal_weight=215.602 82.3077 133.294 94.5698 66.833 59.3846 38.7246 79.5477 57.66 28.0195 16.0273 35.6104 15.2552 20.3552 33.5562 21.2844 25.8283 22.0497 15.022 21.8877 18.3558 15.4746
internal_count=581 221 360 256 179 159 104 215 156 75 43 96 41 55 90 57 69 60 41 59 49 42
is_linear=0
shrinkage=0.05


Tree=7
num_leaves=24
num_cat=0
split_feature=26 3 5 33 24 8 1 26 11 14 17 23 5 4 0 35 5 24 4 23 13 8 30
split_gain=5.70971 14.1619 6.43195 3.62389 6.19162 1.57308 2.62278 1.1232 1.06478 9.73715e-06 2.54957e-06 5.94785e-07 6.067e-07 5.03026e-07 1.26864e-07 1.23734e-07 1.42955e-07 1.81355e-07 8.1296e-08 8.02988e-08 6.41431e-08 2.95245e-08 1.24665e-08
threshold=15560.475000000002 0.16663063188521302 0.36607335092989063 4.5000000000000009 0.39376368845410681 12.064136141505696 0.057683379937540212 2947.7750000000005 1.4307057614731857 0.0098251498717883568 -12.931183058623473 0.056284132055580492 0.28606066730467866 0.059819171134752581 -0.027714094181900649 20.500000000000004 0.45877168023573706 0.33544732241637926 -0.022940776817444594 0.10413556703218775 0.0020551959136125334 4.0016187808048853 0.054691392220658205
decision_type=2 2 2 2 2 2 2 2 2 2 2 2 2 2 2 2 2 2 2 2 2 2 2
left_child=5 3 -3 8 -5 7 -7 -1 9 10 -2 12 -9 18 21 16 17 22 -12 -18 -17 -13 -16
right_child=1 2 -4 4 -6 6 -8 11 -10 -11 13 14 -14 -15 15 20 19 -19 -20 -21 -22 -23 -24
leaf_value=0.026555456544383422 -0.034330323736064962 0.21658596003354963 0.051410019028722567 0.12422298761046835 -0.034320733390460774 0.085987296210477279 -0.034359409050428884 -0.03426741383001148 0.027668473084522083 -0.034434652785290301 -0.034227074869428671 -0.034196435733157983 -0.034213390157487679 -0.034256375762124723 -0.034226181591323533 -0.034220337085947482 -0.034200771038538962 -0.034251328892794877 -0.034204395416808454 -0.034223346303225689 -0.034202120811202996 -0.034208751000590391 -0.034217113545544166
leaf_weight=0.8215616643428828 0.92209270596504156 1.1946267187595361 1.1632750220596788 1.2615795284509661 1.2030489295721052 0.83117958158254512 0.99429056793451309 1.2261263765394681 0.80626729503273953 0.96168870851397503 0.79979950934648436 0.77476913481950527 0.90200503170490254 1.4879787303507326 0.76182564720511592 0.75701253488659892 0.77815443649888016 0.78090514242649067 0.78096021339297306 0.79767829924821854 1.3362788818776605 1.308783236891031 0.75427703559398651
leaf_count=20 22 24 23 31 29 20 23 31 19 21 21 21 24 38 20 20 21 20 21 21 36 35 20
internal_value=-0.000116307 0.0270711 0.135096 -0.0039029 0.0468337 -0.0225477 0.0204373 -0.0296815 -0.025617 -0.0342918 -0.0342574 -0.034221 -0.0342445 -0.0342355 -0.0342148 -0.0342185 -0.0342238 -0.0342318 -0.0342159 -0.0342122 -0.0342087 -0.0342042 -0.0342217
internal_weight=23.4062 10.5813 2.3579 8.22342 2.46463 12.8248 1.82547 10.9994 5.75879 4.95252 3.99083 10.1778 2.12813 3.06874 8.04968 5.96613 3.87284 2.29701 1.58076 1.57583 2.09329 2.08355 1.5161
internal_count=581 249 47 202 60 332 43 289 142 123 102 269 55 80 214 158 102 60 42 42 56 56 40
is_linear=0
shrinkage=0.05


Tree=8
num_leaves=22
num_cat=0
split_feature=35 5 11 10 0 24 31 34 3 9 3 3 10 13 2 33 28 3 2 11 3
split_gain=7.51209 6.60019 11.232 6.99989 6.00227 5.19413 5.23587 4.11593 4.06459 3.96326 4.58227 3.30908 2.76937 2.6922 2.53529 2.74903 3.18076 3.03673 2.21889 1.3302 1.32704
threshold=2.5000000000000004 0.066839450939222042 0.48665298986542777 -0.020911966863599165 -0.064768562153652023 0.59246709748460646 -0.033951115372521108 7.5000000000000009 -0.016328257071360239 0.21591695103373001 0.098574048916170789 0.13859990080212106 0.70506459210050576 0.0024519104580488856 0.063163258858615984 2.5000000000000004 0.75998688762070077 0.0033747268491781213 0.15046716729216705 0.40850835343958336 -0.092456485439487299
decision_type=2 2 2 2 2 2 2 2 2 2 2 2 2 2 2 2 2 2 2 2 2
left_child=-1 2 3 19 -4 9 -7 -6 -5 10 14 -12 -8 -9 15 17 -17 -3 -14 -2 -15
right_child=1 5 4 8 7 6 12 13 -10 -11 11 -13 18 20 -16 16 -18 -19 -20 -21 -22
leaf_value=0.035215368306422544 0.048778559465495856 0.02512335106692137 0.011871069538690361 -0.040536210894950159 -0.0054641647700093745 0.019249211385943252 -0.041971077767052029 -0.024485514406850678 0.011598074308748624 0.035959609411997301 -0.02904892549662353 0.007046127830619385 0.0097489882758154747 -0.038646381752924751 -0.0082621166012810457 0.052517740268635232 0.013455031295926612 -0.015491288331152396 -0.026974345062411684 0.019271797366018015 -0.064906185995594959
leaf_weight=14.166330605745314 7.4486473500728625 10.45815694332123 7.4898028075695029 7.4760541319847107 8.2341238260269147 10.448662549257277 10.856405436992647 10.480067253112795 7.4783632159233075 13.756008684635161 12.332363337278368 13.088907212018965 7.8679917752742794 7.4850764572620401 8.9670174717903119 10.792405754327776 10.077276706695555 8.2196044623851758 8.6194868683814985 7.8395895957946777 13.467161655426025
leaf_count=38 20 28 20 20 22 28 29 28 20 37 33 35 21 20 24 29 27 22 23 21 36
internal_value=1.35275e-05 -0.00244444 -0.0139274 0.00985697 -0.029181 0.00463824 -0.0108573 -0.0369324 -0.014465 0.0113164 0.00673142 -0.0104643 -0.0223617 -0.0451759 0.0157419 0.0211845 0.0336557 0.00724989 -0.0094496 0.0336479 -0.055525
internal_weight=217.05 202.883 77.3989 30.2427 47.1562 125.484 37.7925 39.6664 14.9544 87.6917 73.9357 25.4213 27.3439 31.4323 48.5145 39.5474 20.8697 18.6778 16.4875 15.2882 20.9522
internal_count=581 543 207 81 126 336 101 106 40 235 198 68 73 84 130 106 56 50 44 41 56
is_linear=0
shrinkage=0.05


Tree=9
num_leaves=21
num_cat=0
split_feature=2 4 35 14 17 22 2 35 10 10 33 24 16 9 26 14 0 24 1 14
split_gain=6.07176 8.7578 5.17165 4.93972 4.48858 4.4363 4.05185 3.51185 3.34169 3.66622 3.15019 3.38629 4.94889 4.34861 3.06266 2.83728 2.58897 3.58415 3.48054 3.82547
threshold=-0.16165069692858014 -0.13619270469171271 2.5000000000000004 0.0049411189406506984 9.9944579974417653 5.3785044214730506 -0.036554961515269754 17.500000000000004 1.0000000180025095e-35 0.10129837490206649 5.5000000000000009 0.5981705361021622 0.21773866462987182 0.13255880678771942 19274.725000000002 0.011732520488166932 0.071585281180369317 0.19853580615334901 0.057174735969363934 0.0066688485923974946
decision_type=2 2 2 2 2 2 2 2 2 2 2 2 2 2 2 2 2 2 2 2
left_child=-1 7 -3 -4 5 8 -6 -2 -5 -10 11 12 13 14 -8 -13 17 -7 19 -19
right_child=1 2 3 4 6 16 10 -9 9 -11 -12 15 -14 -15 -16 -17 -18 18 -20 -21
leaf_value=-0.041505590075573973 0.01525815105803547 -0.032339252738314908 -0.030225128814963222 -0.028245182733204338 0.022358168435595318 0.042530133930376135 0.0044650795324886394 0.056973305893822428 0.028931410984493939 -0.009562115519624657 -0.03742527040540642 0.033137481851378194 -0.046159282750489659 0.022949779829715647 -0.032246491589614922 -0.0079845853209965893 0.046001554923458823 -0.0095390931860103272 -0.020005713226538165 0.035027188152764364
leaf_weight=8.4646301269531232 12.244817256927492 12.858615040779112 12.140207320451735 9.2287985086441022 11.138484627008436 9.3257976174354535 9.9773558080196398 8.5810206532478315 10.812306970357897 14.455426096916197 9.1741292178630811 8.5941070914268511 9.0918564796447736 10.04531344771385 13.193511247634886 8.193897217512129 8.5550483763217908 7.7722357213497224 8.4980980753898603 12.656077891588209
leaf_count=23 33 35 33 25 30 25 27 23 29 39 25 23 25 27 36 22 23 21 23 34
internal_value=-5.11875e-07 0.00170051 -0.00174735 0.000528398 0.00285152 0.0111096 -0.00560363 0.0324463 -0.00249527 0.00690964 -0.0101657 -0.00593387 -0.0134733 -0.00452662 -0.0164385 0.0130666 0.0211362 0.0155751 0.00688493 0.0180713
internal_weight=215.002 206.537 185.711 172.853 160.712 81.3038 79.4087 20.8258 34.4965 25.2677 68.2702 59.096 42.308 33.2162 23.1709 16.788 46.8073 38.2522 28.9264 20.4283
internal_count=581 558 502 467 434 219 215 56 93 68 185 160 115 90 63 45 126 103 78 55
is_linear=0
shrinkage=0.05


Tree=10
num_leaves=24
num_cat=0
split_feature=26 3 27 8 27 7 8 27 26 14 14 32 25 24 22 28 28 4 27 32 22 34 16
split_gain=5.26495 11.2787 7.93555 2.92052 2.98442 3.19624 1.50566 2.46146 1.08642 7.8311e-06 2.36426e-06 5.50936e-07 3.94921e-07 6.47679e-07 3.34284e-07 1.12351e-07 1.926e-07 1.86186e-07 7.91585e-08 6.11158e-08 5.11187e-08 4.82614e-08 2.58938e-08
threshold=15560.475000000002 0.16663063188521302 0.98455221535377335 28.393191592920356 1.097676106041696 1.3247275912901151 12.064136141505696 1.0320969556824158 2947.7750000000005 0.010406648203047495 0.0061183072186270894 1.0000000180025095e-35 0.99187143864189331 0.4391197731338235 33.684467568351103 0.32746102752338407 0.70591559942723692 0.096251941777210429 1.1513821168889287 -4.0430926310597567e-05 73.834859222735631 16.500000000000004 -0.037983405139658609
decision_type=2 2 2 2 2 2 2 2 2 2 2 2 2 2 2 2 2 2 2 2 2 2 2
left_child=6 3 -3 4 9 -6 8 -8 -1 10 -2 14 15 -14 -12 22 17 19 20 -17 -18 -21 -10
right_child=1 2 -4 -5 5 -7 7 -9 12 -11 11 -13 13 -15 -16 16 18 -19 -20 21 -22 -23 -24
leaf_value=0.02494360597657351 -0.034323084683426167 0.20694802515641567 0.034547332540985451 0.08442994597136845 0.089123541923732938 -0.034284319978683517 -0.034369006033875736 0.080685721015745226 -0.034177957643023581 -0.03442004225654359 -0.034243812804829146 -0.034260276863320276 -0.034243823753012881 -0.034182056373217605 -0.034202417984282349 -0.034176543691600433 -0.034176678337049925 -0.034214159426187905 -0.034165819513926325 -0.034184107979572546 -0.034192781760492508 -0.034201412031221755 -0.034165563854441298
leaf_weight=0.84351426362991588 0.99310263618826677 1.2409833334386342 1.4443423785269258 0.84109298139810551 1.2151376940310004 0.92338267341256131 0.99940224736928829 0.86912496015429497 0.86739655956625938 0.86420580372214306 0.81114071980118829 1.3332829810678957 0.77110832557082065 0.94392926245927811 1.2231563329696653 0.82983488962054019 1.2628202289342887 0.90114293619990338 0.99779029935598362 0.76387176290154746 0.80822306498885144 0.85279348865151405 0.81968089193105498
leaf_count=20 24 21 26 18 30 23 23 20 24 19 21 34 20 26 33 23 35 24 28 21 22 23 23
internal_value=-0.000154244 0.0252757 0.11422 -0.0038356 -0.0139178 0.0358378 -0.0222543 0.0191474 -0.0295099 -0.0342825 -0.0342553 -0.0342353 -0.034188 -0.0342098 -0.0342189 -0.0341834 -0.0341864 -0.0341947 -0.0341774 -0.0341876 -0.034183 -0.0341932 -0.0341719
internal_weight=23.4205 10.8898 2.68533 8.2045 7.36341 2.13852 12.5306 1.86853 10.6621 5.22489 4.36068 3.36758 9.81859 1.71504 2.0343 8.10355 6.41648 3.34764 3.06883 2.4465 2.07104 1.61667 1.68708
internal_count=581 249 47 202 184 53 332 43 289 131 112 88 269 46 54 223 176 91 85 67 57 44 47
is_linear=0
shrinkage=0.05


Tree=11
num_leaves=22
num_cat=0
split_feature=35 33 12 10 11 4 12 18 0 24 26 6 26 24 24 19 18 22 24 15 1
split_gain=7.01348 5.92481 6.87033 7.58487 6.02043 5.60408 3.33067 3.86621 3.23988 3.16723 4.41172 3.80137 3.83144 2.93888 2.71454 4.08304 3.37116 2.63299 2.45268 1.96581 1.41228
threshold=2.5000000000000004 5.5000000000000009 -0.0042407039267958442 -0.020911966863599165 0.48035364171425893 -0.13619270469171271 0.014514185161896139 1.1968558931465909 -0.006476603907534381 0.5981705361021622 19274.725000000002 0.022651067048822443 15705.800000000001 0.86594490129029533 0.4391197731338235 1.103462694257513 0.65521632932473051 213.01899827873044 1.7740192833563546 0.066662740186201774 0.035725818770073893
decision_type=2 2 2 2 2 2 2 2 2 2 2 2 2 2 2 2 2 2 2 2 2
left_child=-1 2 4 -4 -2 -5 7 -3 -6 10 11 -7 14 -11 15 16 -13 -12 -15 -19 -17
right_child=1 6 3 5 8 9 -8 -9 -10 13 17 12 -14 18 -16 20 -18 19 -20 -21 -22
leaf_value=0.034099262292932857 0.0098064014359974163 0.028639722097963262 0.041739440407881759 -0.043278856746785319 -0.02236017962260832 -0.028208880662084171 0.041820747242862416 -0.01601249222207821 -0.058777909825844278 -0.033812467025035979 0.040907662500499174 0.019944409021644446 -0.030045363853216191 0.014560873297252003 -0.011082601209769945 0.04901558950227744 -0.026965285157748094 0.025407253190042542 -0.023009285772433299 -0.010478005594898435 0.01979260821306577
leaf_weight=14.110555469989775 8.553497761487959 9.6906876266002708 9.6503111124038679 8.5708490610122663 13.462437033653259 12.680023312568663 10.006462723016737 9.7002687752246839 11.17817234992981 12.680404931306841 10.000780910253527 7.8526155948638898 7.8342573046684256 9.7202110886573809 13.404436200857161 7.4413250088691738 7.4764386713504791 7.8250022232532483 7.8541410565376273 7.4496398568153381 9.3032380640506727
leaf_count=38 23 26 26 23 36 34 27 26 30 34 27 21 21 26 36 20 20 21 21 20 25
internal_value=1.71985e-05 -0.00235963 -0.00588725 -0.00103013 -0.0263352 -0.00420278 0.0183925 0.00630258 -0.038881 -0.00144678 0.00320072 -0.00360255 0.00224992 -0.0154666 0.00781326 0.0157104 -0.00293485 0.0209636 -0.00222958 0.00790555 0.0327794
internal_weight=216.446 202.335 172.938 139.744 33.1941 130.093 29.3974 19.391 24.6406 121.523 91.2678 65.9923 53.3123 30.2548 45.4781 32.0736 15.3291 25.2754 17.5744 15.2746 16.7446
internal_count=581 543 464 375 89 349 79 52 66 326 245 177 143 81 122 86 41 68 47 41 45
is_linear=0
shrinkage=0.05


Tree=12
num_leaves=21
num_cat=0
split_feature=5 21 11 11 9 24 21 35 31 24 9 19 35 0 31 22 8 25 28 5
split_gain=6.21141 6.9174 6.26804 4.57487 4.5535 4.28786 3.94142 3.48909 2.81682 5.84108 5.00627 3.18567 3.84557 6.27586 3.63776 2.95531 2.65198 2.61117 1.7805 1.40872
threshold=0.066839450939222042 46.280817606423589 0.44501486392571632 1.6949946929386572 -0.018140489149027959 0.34729529335102288 72.257089969365083 17.500000000000004 -0.033951115372521108 0.5981705361021622 0.21591695103373001 1.103462694257513 14.500000000000002 0.014001059778132605 0.023491445849756851 23.550972820448262 4.9952828917586141 0.92682358040855384 0.36385906163498949 0.33760126843779387
decision_type=2 2 2 2 2 2 2 2 2 2 2 2 2 2 2 2 2 2 2 2
left_child=1 2 -1 8 18 16 -5 -4 -2 10 11 14 15 -14 -10 -13 -6 -8 -3 -17
right_child=3 4 7 6 5 -7 17 -9 9 -11 -12 12 13 -15 -16 19 -18 -19 -20 -21
leaf_value=-0.036280251093953643 -0.033963757959546502 0.028600299687130688 -0.0086501686952772522 0.039172762226054168 -0.019576052540825416 0.040689962327270186 -0.023180158627947665 0.03150428448556241 -0.0092993047253748379 0.024317337269752326 -0.040778794057289652 -0.047638303250056406 0.027858552395700745 -0.024558655104080583 0.034976282167556924 -0.02655828772676638 0.014616577815002349 0.016442126131671848 0.063158970166572473 0.0026113212887723201
leaf_weight=11.643149256706236 12.102538406848906 7.4488917589187604 12.230521231889727 8.8939586281776446 9.3022670447826403 9.7080893218517286 7.7894843518734005 9.7007042765617353 10.701820313930513 11.958019435405729 13.616316229104994 10.516129940748216 11.120962560176851 11.737193107604979 8.1892442405223829 9.5032739043235797 14.526283234357832 8.9193707108497602 7.4594174921512604 7.3328311443328849
leaf_count=32 33 20 33 24 25 26 21 26 29 32 38 29 30 32 22 26 39 24 20 20
internal_value=2.43568e-07 0.0108123 -0.00663002 -0.00669856 0.0229005 0.01268 0.0122835 0.0091111 -0.01125 -0.00834647 -0.0130685 -0.00760822 -0.0141933 0.000943394 0.00989409 -0.0268429 0.00126835 -0.00202935 0.0458918 -0.0138537
internal_weight=214.4 82.0193 33.5744 132.381 48.4449 33.5366 25.6028 21.9312 106.778 94.6758 82.7178 69.1015 50.2104 22.8582 18.8911 27.3522 23.8286 16.7089 14.9083 16.8361
internal_count=581 221 91 360 130 90 69 59 291 258 226 188 137 62 51 75 64 45 40 46
is_linear=0
shrinkage=0.05


Tree=13
num_leaves=22
num_cat=0
split_feature=0 19 8 1 26 2 2 32 23 15 26 8 26 26 22 35 22 17 4 5 6
split_gain=4.93617 9.80963 6.75168 12.3889 2.51022 3.1852 11.3567 1.16214 0.990029 3.31072e-05 2.44487e-05 1.40861e-05 3.70416e-06 1.85382e-06 1.53662e-06 1.605e-07 1.57033e-07 9.14497e-08 6.72823e-08 1.09429e-07 3.53445e-08
threshold=0.022381698912986015 370.16006349013134 12.064136141505696 0.060902813381447783 18547.875000000004 -0.025559413132600694 -0.074877564803592964 0.00065898715504075312 0.095460832178186947 0.079080442369397333 17512.100000000002 12.064136141505696 15523.675000000001 3189.6250000000005 5.2676794083759848 21.500000000000004 34.617563391046083 37.889456181215998 0.096251941777210429 -0.0055162453140502809 0.091987836346106466
decision_type=2 2 2 2 2 2 2 2 2 2 2 2 2 2 2 2 2 2 2 2 2
left_child=4 2 7 -4 11 6 -6 10 9 -7 14 12 13 -1 -2 17 -16 18 19 -15 -17
right_child=1 -3 3 -5 5 8 -8 -9 -10 -11 -12 -13 -14 15 16 20 -18 -19 -20 -21 -22
leaf_value=-0.034234613791827066 -0.034241765340391875 0.15596090370873716 0.20533111972698159 -0.034467932106871345 -0.034268606947897247 -0.034350213291777787 0.19682348953972434 0.033743076462231125 0.028510852717065324 -0.034691041427507813 -0.034445517745588468 -0.034363563978239454 -0.03426130023883367 -0.034173463735216784 -0.034153430557271512 -0.034148845180798915 -0.034182049435621434 -0.034146565517911232 -0.034173603876767038 -0.034149011674161275 -0.034134575978956708
leaf_weight=0.79792515188455748 0.91851473599672173 1.3114054240286348 1.041572090238333 1.1154200248420236 1.381737355142832 1.610148951411247 0.86413365229964245 0.73522159084677685 0.79493753612041462 1.2780760675668714 1.3348412401974199 1.1644910052418707 1.1206488013267515 0.71896683424711039 1.2987578585743906 0.76879529282450654 0.75969044119119633 1.1152977496385572 1.0417125597596166 1.2583967745304128 0.99645568430423737
leaf_count=21 24 26 20 24 35 39 18 19 19 24 30 27 29 20 37 22 21 32 29 36 29
internal_value=-0.000190756 0.0301808 0.00728398 0.0813266 -0.0175346 0.00771613 0.0546477 -0.0243603 -0.0209012 -0.034501 -0.0342677 -0.0342013 -0.0341772 -0.0341631 -0.034188 -0.0341534 -0.034164 -0.0341588 -0.0341633 -0.0341579 -0.0341408
internal_weight=23.4271 8.51542 7.20402 2.15699 14.9117 5.92903 2.24587 5.04703 3.68316 2.88823 4.3118 8.98269 7.8182 6.69755 2.97696 5.89962 2.05845 4.13437 3.01908 1.97736 1.76525
internal_count=581 201 175 44 380 135 53 131 82 63 112 245 218 189 82 168 58 117 85 56 51
is_linear=0
shrinkage=0.05


Tree=14
num_leaves=24
num_cat=0
split_feature=12 28 24 0 20 24 0 4 10 8 34 24 24 9 4 5 10 0 32 34 13 27 5
split_gain=6.18205 8.62838 5.29829 6.44645 5.81298 4.91383 4.02847 4.03771 3.34405 3.75395 3.67995 3.2591 3.15962 3.65189 4.64513 2.85408 4.00314 2.80821 1.44304 1.0669 1.03919 0.748442 0.564545
threshold=0.0059702352517780584 0.23213143912329498 0.19179111769099219 -0.06107843830704323 -0.25899511454438134 0.59246709748460646 -0.024358814873563207 0.42396128766123747 1.0000000180025095e-35 11.528718797289025 22.500000000000004 0.20546487058094173 0.3057945247782054 0.21591695103373001 0.21703224125430493 0.40281219804328333 0.28578880910858778 0.0086643735359197786 -1.1628980160590134e-07 17.500000000000004 0.025568097660713853 0.82592844363981055 0.50169888661521589
decision_type=2 2 2 2 2 2 2 2 2 2 2 2 2 2 2 2 2 2 2 2 2 2 2
left_child=1 18 4 -4 -3 11 -7 -8 9 10 -5 -2 -13 14 15 16 19 21 -1 -14 -9 -10 -15
right_child=5 2 3 8 -6 6 7 20 17 -11 -12 12 13 22 -16 -17 -18 -19 -20 -21 -22 -23 -24
leaf_value=0.040369093044235228 -0.014711377110069201 -0.019376658469721086 0.01825906490092857 -0.024123720952906807 0.039545157308487885 0.01622966959461717 -0.039991295122723591 0.012560671170112118 -0.062892934021058236 -0.037364896874098691 0.023235109619008477 0.039794375490110404 0.0079188135396175072 0.044478848712998988 -0.025387849319477809 0.040393624207796949 -0.022196781489629697 -0.021951315515808707 0.010485464753167178 0.034709815803054156 -0.013783248703834164 -0.041601292869019812 0.02485398740222175
leaf_weight=7.4092561602592495 8.1839489638805372 8.5801953971385974 8.5934538543224317 8.2065443992614799 8.1731992363929731 13.020425230264662 11.518717199563982 7.4846128821372968 9.3014540076255852 11.871566474437712 8.2008538842201215 14.080211609601973 7.4310549497604423 7.3099655210971815 9.3516966402530652 8.0679404437541944 8.202372729778288 12.273688077926634 8.8829229176044446 7.4333401918411255 7.4892379939556122 7.4199764132499686 7.3484859466552734
leaf_count=20 22 23 23 22 22 35 31 20 25 32 22 38 20 20 25 22 22 33 24 20 20 20 20
internal_value=2.04632e-05 -0.00917972 -0.0157374 -0.0221231 0.00936855 0.00780359 -0.0065433 -0.0177356 -0.0281821 -0.0159484 -0.000452518 0.0151269 0.0186544 0.0132567 0.00551451 0.0147964 0.00584342 -0.0401136 0.0240758 0.0213164 -0.000615357 -0.053445 0.0346406
internal_weight=215.835 98.9131 82.6209 65.8675 16.7534 116.922 39.513 26.4926 57.2741 28.279 16.4074 77.409 69.2251 55.1449 40.4864 31.1347 23.0668 28.9951 16.2922 14.8644 14.9739 16.7214 14.6585
internal_count=581 266 222 177 45 315 106 71 154 76 44 209 187 149 109 84 62 78 44 40 40 45 40
is_linear=0
shrinkage=0.05


Tree=15
num_leaves=20
num_cat=0
split_feature=5 21 11 26 26 15 15 26 13 32 6 35 20 10 35 6 25 0 6
split_gain=5.51804 6.2395 5.80202 4.38562 4.18361 3.96872 6.3016 3.34354 4.81523 3.57135 3.2568 3.15365 3.00861 2.65985 2.5309 2.46094 1.85179 2.90849 1.41849
threshold=0.066839450939222042 46.280817606423589 0.44501486392571632 10058.700000000003 5951.7000000000007 -0.01236983072258486 -0.0028905415046014812 21017.725000000002 0.011497562931541958 -0.00030890835065092934 0.16023421019697628 17.500000000000004 -2.9855765549577762 0.4209815874773522 8.5000000000000018 0.88440500108483822 0.52752300576656352 0.0086643735359197786 0.87341555086520606
decision_type=2 2 2 2 2 2 2 2 2 2 2 2 2 2 2 2 2 2 2
left_child=1 2 -1 4 10 -3 -7 9 -9 -5 -2 -4 -11 -12 -14 -6 -8 -18 -16
right_child=3 5 11 7 15 6 16 8 -10 12 13 -13 14 -15 18 -17 17 -19 -20
leaf_value=-0.035081964498725783 0.01795007859353593 0.044847382034651474 -0.0081821218788109447 0.0021378571197856536 0.0067431768953024537 -0.028144548215840462 0.040942575480948366 -0.018705350385760055 0.027985206141222435 -0.0014119321965595747 -0.030593879464654972 0.03003051226037682 -0.056863609055790923 0.0038977796079935896 -0.036070594902222884 0.039971136590575093 0.033936882426037616 -0.0068325234854876814 -0.010786379816897786
leaf_weight=11.544553667306898 9.2855331003665906 13.382739245891569 12.202328324317934 12.85094904899597 13.19479760527611 7.3980965316295615 10.044482409954073 12.366393625736238 9.9772173762321454 8.4135880172252637 14.224199920892717 9.6846172511577588 9.3826037645339948 9.2076327204704267 14.056326299905779 9.645839184522627 8.9504837989807147 8.5567625761032087 9.1632585823535901
leaf_count=32 25 36 33 35 36 20 27 34 27 23 39 26 26 25 39 26 24 23 25
internal_value=2.39784e-06 0.010206 -0.00640152 -0.0063291 0.0043544 0.0216934 0.0128275 -0.0141175 0.00214364 -0.0208625 -0.00710962 0.00872635 -0.0280689 -0.0170402 -0.0349482 0.0207757 0.0238291 0.0140106 -0.0260926
internal_weight=213.532 81.7641 33.4315 131.768 55.558 48.3326 34.9498 76.2103 22.3436 53.8667 32.7174 21.8869 41.0158 23.4318 32.6022 22.8406 27.5517 17.5072 23.2196
internal_count=581 221 91 360 151 130 94 209 61 148 89 59 113 64 90 62 74 47 64
is_linear=0
shrinkage=0.05


Tree=16
num_leaves=24
num_cat=0
split_feature=3 26 23 24 9 0 32 4 1 8 22 8 4 12 26 26 3 1 34 30 23 26 0
split_gain=4.58487 7.59189 5.54761 5.07735 3.35106 5.94218 1.93593 3.15863 1.02916 2.83596e-05 1.21544e-05 9.79314e-06 4.08672e-06 3.84057e-06 2.97177e-06 2.41625e-06 1.39429e-06 2.22512e-07 2.11876e-07 2.54602e-07 1.25606e-07 8.73856e-08 4.26914e-08
threshold=0.10511816663720981 15560.475000000002 0.062654844200190754 0.41098678794242827 -0.12681805629648454 -0.017805126718022032 0.0011700075221370034 0.091766390535785267 -1.0000000180025095e-35 12.064136141505696 310.18725968833201 12.213671050632927 0.0023975832596521574 0.014120963386066851 17253.350000000002 3310.0750000000003 0.013129741321038044 0.18690198436106489 10.500000000000002 0.071766289183151907 0.062354635564818843 7472.9000000000005 0.015973624639567648
decision_type=2 2 2 2 2 2 2 2 2 2 2 2 2 2 2 2 2 2 2 2 2 2 2
left_child=4 8 -3 -4 5 -1 9 -8 -2 10 14 13 -11 -10 15 -6 -16 -15 21 20 -20 -17 -21
right_child=1 2 3 -5 6 -7 7 -9 11 12 -12 -13 -14 17 16 18 -18 -19 19 22 -22 -23 -24
leaf_value=-0.034228355857641765 0.029660659966646526 0.16053754297449266 -0.034741309506524175 0.089328907795302892 -0.034219232028173022 0.14402734547578683 -0.034219876334811924 0.10104010247035955 -0.034262721871939836 -0.03430195570626262 -0.034318056485471642 -0.034371172307221365 -0.034440990288430569 -0.034112021695463193 -0.034261970423571118 -0.034101597641625993 -0.034168567843629441 -0.034149914410317193 -0.034160107026496016 -0.034109478631242446 -0.034132684919132836 -0.034122187687943742 -0.034126658571403866
leaf_weight=1.0542275011539457 0.7822157610207795 1.2795634679496286 1.3980161659419539 2.0103998258709908 0.78419733047485518 0.84005952998995681 1.0381785221397866 0.73875006660819043 0.81498470902442832 0.93675483763217871 1.319737486541271 0.86398476734757412 1.2128156609833238 0.86897705495357491 0.78073198720812775 0.95715617761015925 0.81836578622460365 0.69910278171300888 0.84803512319922469 0.73318699374794938 0.82270617783069611 1.1162800155580042 0.71350837498903275
leaf_count=28 21 23 26 32 21 18 28 19 21 23 32 20 27 26 20 29 23 20 24 22 24 33 21
internal_value=-0.000228528 0.0285067 0.0717656 0.0384395 -0.0172518 0.0448227 -0.0264237 0.0220139 -0.0218242 -0.0342174 -0.034178 -0.034227 -0.0343804 -0.0341747 -0.0341536 -0.0341374 -0.0342142 -0.0341289 -0.0341251 -0.0341333 -0.0341466 -0.0341127 -0.034118
internal_weight=23.4319 8.71724 4.68798 3.40842 14.7147 1.89429 12.8204 1.77693 4.02927 11.0435 8.89391 3.24705 2.14957 2.38306 7.57417 5.97507 1.5991 1.56808 5.19087 3.11744 1.67074 2.07344 1.4467
internal_count=581 189 81 58 392 46 346 47 108 299 249 87 50 67 217 174 43 46 153 91 48 62 43
is_linear=0
shrinkage=0.05


Tree=17
num_leaves=20
num_cat=0
split_feature=35 5 11 10 0 1 31 24 23 19 10 13 11 0 1 11 30 27 2
split_gain=6.08135 4.6862 8.63128 6.80063 4.48496 4.03438 5.01764 4.92732 3.00076 2.72142 4.10166 3.95687 3.45953 3.66906 6.18662 2.4709 2.45881 2.02648 1.08189
threshold=2.5000000000000004 0.066839450939222042 0.45252577204026362 -0.020911966863599165 -0.064768562153652023 -0.084664458348668814 -0.033951115372521108 0.5981705361021622 0.081465451419287266 1.103462694257513 0.040080150795188361 0.01264849043451865 1.0273030791152207 0.012966521430080083 0.058022799588254882 1.1313416764762543 0.083232029961482254 0.77714620401679102 0.047451893978642821
decision_type=2 2 2 2 2 2 2 2 2 2 2 2 2 2 2 2 2 2 2
left_child=-1 2 3 -2 -4 -3 -7 9 -9 10 -8 12 13 -11 -15 16 17 -6 -14
right_child=1 5 4 -5 15 6 7 8 -10 11 -12 -13 18 14 -16 -17 -18 -19 -20
leaf_value=0.031926156795688013 0.038732784971735656 -0.029339198770192268 0.011547637394708592 -0.012026311162275247 -0.025002394220627125 0.036521204099867415 0.017354782503001979 -0.036080386281733323 -0.00097369265632301467 -0.0087165206138097463 -0.028842999320973707 -0.011359640531193973 0.052399696367605088 0.058948605773447176 -0.0023326015318656285 -0.049979235789026501 -0.040912075364639741 0.0084681063676851336 0.027178778215960143
leaf_weight=13.966322541236876 12.112535923719408 8.5542062819004041 7.4738074243068686 14.495945513248442 11.510926485061651 12.237822473049162 8.9102157950401324 11.13792070746422 13.421805292367933 13.737931907176973 10.427204936742781 12.210219591856001 7.6950887739658382 7.7161760032176998 8.8332065641880018 11.729988217353819 11.816209703683851 7.4486032724380484 9.5033998191356641
leaf_count=38 33 23 20 39 31 33 24 30 36 37 28 33 21 21 24 32 32 20 26
internal_value=2.2531e-05 -0.00219456 -0.0119246 0.0110799 -0.0241719 0.00379655 0.00624365 0.00266685 -0.0168947 0.00874563 -0.00755618 0.0140263 0.0205539 0.0103841 0.0262399 -0.0304525 -0.02301 -0.0118529 0.0384633
internal_weight=214.94 200.973 76.588 26.6085 49.9795 124.385 115.831 103.593 24.5597 79.0334 19.3374 59.696 47.4858 30.2873 16.5494 42.5057 30.7757 18.9595 17.1985
internal_count=581 543 207 72 135 336 313 280 66 214 52 162 129 82 45 115 83 51 47
is_linear=0
shrinkage=0.05


Tree=18
num_leaves=21
num_cat=0
split_feature=2 4 12 0 10 0 30 1 26 34 31 26 26 24 9 2 1 3 24 6
split_gain=5.33987 7.09355 5.16242 6.29569 4.53788 4.15862 6.30419 3.96033 3.89701 3.76723 3.55953 3.49675 3.10769 2.89028 4.08436 2.82239 4.70515 1.41118 1.29114 1.81072
threshold=-0.16165069692858014 -0.13619270469171271 -0.0044337155467721523 -0.0014249496080645217 -0.018728416370182799 0.0078219216347246417 0.071766289183151907 -0.066382450523862269 10058.700000000003 15.500000000000002 -0.033951115372521108 21017.725000000002 19274.725000000002 0.30821751643795176 0.1931312509066074 0.010941033237555934 0.035725818770073893 0.13071499779500645 0.27641693818774349 0.022651067048822443
decision_type=2 2 2 2 2 2 2 2 2 2 2 2 2 2 2 2 2 2 2 2
left_child=-1 9 3 -3 -4 6 12 -8 15 -2 -9 13 18 -10 -15 -7 -17 -18 19 -6
right_child=1 2 4 -5 5 8 7 10 11 -11 -12 -13 -14 14 -16 16 17 -19 -20 -21
leaf_value=-0.039235550533177926 0.053104309152972796 -0.0022103083914229204 -0.035473400168070719 0.049494160244931258 0.037576037816546837 0.029957295153785857 0.018116743951483199 -0.040636257282641496 -0.051394764505494572 0.010175272953219157 -0.00096556661304630562 0.004020536054167888 -0.0022694403272143625 0.0021299215048059808 -0.038307214293698585 -0.039151667248481917 -0.0069214360093990089 0.019651904432481878 0.044416764034043925 0.0033819392018892645
leaf_weight=8.3311001062393171 9.2433334887027758 13.646053135395052 11.193439841270445 10.355001151561735 8.1817004382610339 7.3779664039611808 9.2352070510387438 11.274097710847856 9.3554184734821302 11.429730057716368 11.344036996364592 11.641262024641035 10.15939164161682 12.05442586541176 12.956446528434752 7.3381213843822506 9.137694180011751 11.022956937551497 10.019644170999525 7.3492830395698538
leaf_count=23 25 37 31 28 22 20 25 31 26 31 31 32 28 33 36 20 25 30 27 20
internal_value=2.33966e-06 0.00160229 -0.00152355 0.020097 -0.00477408 -0.00245925 0.00669736 -0.009474 -0.0101078 0.0293697 -0.0207396 -0.0196634 0.0211222 -0.0276861 -0.0188178 0.00249738 -0.00487016 0.0076077 0.0304232 0.0213953
internal_weight=212.646 204.315 183.642 24.0011 159.641 148.448 67.5634 31.8533 80.8843 20.6731 22.6181 46.0076 35.71 34.3663 25.0109 34.8767 27.4988 20.1607 25.5506 15.531
internal_count=581 558 502 65 437 406 184 87 222 56 62 127 97 95 69 95 75 55 69 42
is_linear=0
shrinkage=0.05


Tree=19
num_leaves=24
num_cat=0
split_feature=3 26 26 33 9 10 32 21 15 26 5 14 25 31 14 26 26 5 2 32 9 6 7
split_gain=4.17822 6.51441 4.51238 4.96643 3.11349 6.66928 1.86703 3.12991 0.996858 1.56937e-05 1.00716e-05 8.57641e-06 4.55918e-06 4.07415e-06 1.59833e-06 1.32094e-06 1.58746e-06 1.0184e-06 4.35979e-07 2.32167e-07 1.67776e-07 6.34357e-08 5.64863e-08
threshold=0.10511816663720981 15560.475000000002 20722.925000000007 3.5000000000000004 -0.12681805629648454 -0.058234623763984097 0.0011700075221370034 58.458923754693906 0.088289028138888462 18643.200000000004 0.33304758948026375 0.010406648203047495 0.40596531126216112 0.046777984354719894 0.011885237080575674 3407.6250000000005 15560.475000000002 0.1926105037612954 -0.066427173004082171 -4.0430926310597567e-05 0.063319334361939913 0.051890372810618444 0.4649980627774038
decision_type=2 2 2 2 2 2 2 2 2 2 2 2 2 2 2 2 2 2 2 2 2 2 2
left_child=4 8 3 -3 5 -1 9 -8 -2 13 -10 12 -11 15 -12 -6 18 -14 -17 22 21 -21 -20
right_child=1 2 -4 -5 6 -7 7 -9 10 11 14 -13 17 -15 -16 16 -18 -19 19 20 -22 -23 -24
leaf_value=-0.034323544199631718 0.028345126493805491 0.037668685449022479 0.010494630953458921 0.17005845289671673 -0.034181294060585864 0.15267784923754846 -0.034216256162426267 0.098972093823408075 -0.034343648339043915 -0.034325156729064957 -0.034107896674170066 -0.034410186978787331 -0.034214296998014843 -0.034229948519798326 -0.034192527818026196 -0.034135725852575564 -0.034174665280795456 -0.034139624666143946 -0.03406786555004717 -0.034105297060765878 -0.03412460932770639 -0.034083261668832583 -0.03408835828004992
leaf_weight=1.1785710193216798 0.79832625016569947 1.3749088756740095 2.2029312178492546 1.4613016024231908 0.89349262230098414 0.80072740465402503 1.0717750638723362 0.74961521476507176 0.87913010269403491 0.82992371171712953 1.2942617777734997 0.83680887147784222 1.1560453940182922 1.1003663372248409 0.9805450178682803 0.78447635099291524 0.92296687699854363 0.75468059815466393 0.66406646370887557 0.66196520440280948 0.7107869517058133 0.64471129328012466 0.68121766857802868
leaf_count=29 21 21 38 22 25 17 29 18 21 20 39 19 31 30 27 23 26 22 21 20 21 20 21
internal_value=-0.000267865 0.0264898 0.0641809 0.10588 -0.0169266 0.0413281 -0.0261784 0.020599 -0.0215663 -0.0341848 -0.0341999 -0.0342701 -0.0342273 -0.0341415 -0.0341444 -0.0341252 -0.0341154 -0.0341848 -0.0341022 -0.0340943 -0.0341051 -0.0340944 -0.0340782
internal_weight=23.4336 8.9914 5.03914 2.83621 14.4422 1.9793 12.4629 1.82139 3.95226 10.6415 3.15394 3.57746 2.74065 7.06405 2.27481 5.96368 5.07019 1.91073 4.14722 3.36275 2.01746 1.30668 1.34528
internal_count=581 189 81 43 392 46 346 47 108 299 87 92 73 207 66 177 152 53 126 103 61 40 42
is_linear=0
shrinkage=0.05


Tree=20
num_leaves=23
num_cat=0
split_feature=35 33 5 10 2 4 5 17 12 3 31 11 7 11 30 13 32 27 5 3 6 15
split_gain=5.64554 5.22174 5.38171 6.40986 5.50927 4.4786 3.13582 4.05899 3.0366 2.43443 3.69311 2.36677 2.90702 2.8376 2.48989 2.81802 3.03197 2.92672 2.48787 2.17914 2.08498 1.48213
threshold=2.5000000000000004 5.5000000000000009 -0.080489467468847567 -0.020911966863599165 -0.034945130310548377 -0.13619270469171271 0.30433036608131625 1.1968558931465909 -0.01137046741863606 -0.064411923780427802 -0.052625550918474033 2.4643237678463512 2.5181221143369403 1.20069571763765 0.036370272791399053 0.005625704920183501 0.0002348726140893578 1.0320969556824158 0.49079292517006817 0.053731830063989149 0.16023421019697628 0.13449253309109113
decision_type=2 2 2 2 2 2 2 2 2 2 2 2 2 2 2 2 2 2 2 2 2 2
left_child=-1 2 4 -4 8 -5 7 -3 -2 -7 -11 12 13 14 -12 16 17 -16 19 -17 -6 -15
right_child=1 6 3 5 20 9 -8 -9 -10 10 11 -13 -14 21 15 18 -18 -19 -20 -21 -22 -23
leaf_value=0.030851891875794193 0.017931380406013865 0.028175479347938338 0.038555938964588615 -0.039228633939749666 -0.023620254807567981 -0.022411209420674216 0.039829838029356808 -0.0182549220932842 -0.025946362373436352 0.032426182230058824 -0.0182155526967804 -0.02637161288756254 0.02998629857809253 -0.037237223195879153 0.0079289856541964569 0.0093328376036972225 0.01984732486167716 -0.031564223702869904 -0.0036520055267400021 0.045211342819354704 -0.059052094630302476 -0.0074382028019524017
leaf_weight=13.890054225921629 8.4663730561733228 9.5979123115539604 9.4790502190589887 8.4518302679061872 7.3786066174507168 12.558915942907332 10.196090787649153 9.2373898923397046 7.3804950118064871 8.527324974536894 11.845209091901777 8.9610494673252088 7.6838509738445273 7.3782824873924282 8.0843074619770103 7.3767710626125398 9.2442826032638532 11.176662743091581 8.1046717762947065 9.9276445806026441 9.4947017133235914 9.6045858860015851
leaf_count=38 23 26 26 23 20 34 28 25 20 23 32 24 21 20 22 20 25 30 22 27 26 26
internal_value=2.70013e-05 -0.00211213 -0.0054385 -0.00112722 -0.023675 -0.00404486 0.0174951 0.00540464 -0.00250417 -0.00157654 0.00084816 -0.0018612 0.000567729 -0.00216422 0.0025413 0.00710167 -0.00369083 -0.0149879 0.0192093 0.0299165 -0.0435579 -0.0203845
internal_weight=214.046 200.156 171.125 138.404 32.7202 128.925 29.0314 18.8353 15.8469 120.474 107.915 99.3873 90.4263 82.7424 65.7595 53.9143 28.5053 19.261 25.4091 17.3044 16.8733 16.9829
internal_count=581 543 464 375 89 349 79 51 43 326 292 269 245 224 178 146 77 52 69 47 46 46
is_linear=0
shrinkage=0.05


Tree=21
num_leaves=22
num_cat=0
split_feature=2 4 12 16 34 14 1 11 34 14 1 34 33 1 2 23 30 4 30 6 23
split_gain=4.98029 6.91667 4.51048 6.24914 4.38871 6.41466 4.76728 4.32982 4.19596 3.14175 4.32052 3.52155 2.88785 3.41883 2.90316 2.79899 1.9962 1.8779 1.50548 1.23729 0.654373
threshold=-0.1579496754274908 -0.13619270469171271 -0.0044337155467721523 -0.048383522775461672 23.500000000000004 0.0088481465889027403 1.0000000180025095e-35 2.1568584928737757 15.500000000000002 0.0049411189406506984 0.0034682718315951853 7.5000000000000009 3.5000000000000004 0.043756713467022611 0.099324426076372666 0.070813026143981203 0.054271088864552751 0.063524431339315388 0.094799628713647499 0.18534359375401413 0.083870892256196691
decision_type=2 2 2 2 2 2 2 2 2 2 2 2 2 2 2 2 2 2 2 2 2
left_child=-1 8 3 -3 7 6 -6 9 -2 -4 11 -11 13 -12 -15 -13 -14 -8 -18 -5 -17
right_child=1 2 4 19 5 -7 17 -9 -10 10 12 15 16 14 -16 20 18 -19 -20 -21 -22
leaf_value=-0.035667056951562602 0.05525692810246207 -0.01364148624656468 -0.032787910008850563 0.024484219517210859 -0.030337140678875409 -0.048178002612851711 0.03168866507387199 0.02658633839324831 0.009355622283859449 -0.0097878087464367946 -0.020476568027853071 0.039322560874782038 -0.0050713455627100935 0.031519925105916245 -0.0061091787652342005 -0.0029722361143695417 -0.0490054922602432 -0.0042213244469973023 -0.01732949900175838 0.053438602277632731 0.01797097125046785
leaf_weight=9.3548398911952955 8.8291537165641802 9.1574818789958972 8.2902756035327894 7.3912729620933515 10.493992358446123 12.776945382356642 7.3361583054065687 13.7469644844532 11.416539281606672 12.836066305637358 12.3670137822628 12.562911063432695 10.134238541126253 10.308741271495821 10.195169329643248 7.6088935732841474 7.8070733845233899 7.2273566722869873 7.2201191782951355 7.3672464787960052 7.3158438801765442
leaf_count=26 24 25 23 20 29 36 20 37 31 35 34 34 28 28 28 21 22 20 20 20 20
internal_value=-1.04434e-08 0.00164859 -0.00143306 0.0188051 -0.00449205 -0.0193464 -0.00464506 0.000176046 0.0293732 -0.0032283 -0.00073677 0.0118349 -0.00947217 0.000286352 0.0128096 0.0219321 -0.0222207 0.0138678 -0.0337861 0.0389378 0.00729376
internal_weight=211.744 202.389 182.144 23.916 158.228 37.8345 25.0575 120.393 20.2457 106.646 98.3561 40.3237 58.0324 32.8709 20.5039 27.4876 25.1614 14.5635 15.0272 14.7585 14.9247
internal_count=581 555 500 65 435 105 69 330 55 293 270 110 160 90 56 75 70 40 42 40 41
is_linear=0
shrinkage=0.05


Tree=22
num_leaves=25
num_cat=0
split_feature=0 19 8 1 26 30 30 32 14 26 21 15 8 19 32 12 26 8 26 14 34 9 2 14
split_gain=4.22467 6.03504 5.48471 11.2665 2.32771 3.41852 6.43126 1.1807 0.790779 4.15193e-05 3.19892e-05 3.06574e-05 6.70233e-06 4.70913e-06 2.84243e-06 2.04333e-06 1.64743e-06 1.45972e-06 8.03734e-07 2.53596e-07 1.83388e-07 1.64531e-07 1.38714e-07 7.36633e-08
threshold=0.022381698912986015 370.16006349013134 12.064136141505696 0.051565423349769948 18547.875000000004 0.06613937102501076 0.094334784324541496 0.00080598637242183552 0.010406648203047495 19223.975000000002 78.56798043306037 0.076577162018977074 12.064136141505696 17.843133164136297 0.0013188285174586081 0.01498199006147544 15864.325000000003 5.274298719583153 3343.8000000000006 0.010044822007684079 10.500000000000002 0.30351026948929632 -0.013038120348036886 0.0058531687620235057
decision_type=2 2 2 2 2 2 2 2 2 2 2 2 2 2 2 2 2 2 2 2 2 2 2 2
left_child=4 2 7 -4 10 11 -7 9 -8 15 12 13 14 -6 16 17 18 -2 -1 20 23 -17 -22 -20
right_child=1 -3 3 -5 5 6 8 -9 -10 -11 -12 -13 -14 -15 -16 21 -18 -19 19 -21 22 -23 -24 -25
leaf_value=-0.034132962739828569 -0.034207527184861884 0.11132505520992642 0.18128155454502265 -0.03454941565081858 -0.034389041802122128 0.13439471508467352 -0.034472433201127965 0.035247077566286117 0.028658508231983251 -0.034473134524505858 -0.0344851463332045 -0.034664827102088888 -0.034251003106376361 -0.03423128056912856 -0.034178515761980048 -0.034061243875914624 -0.034162968137525 -0.034111845662539643 -0.034065625316946416 -0.034101185988482545 -0.034064187153137408 -0.034097090254182054 -0.034089483325819493 -0.034041545573109087
leaf_weight=0.67707114852965045 0.88068173825740659 1.7052469886839388 1.1540649123489859 1.2700806483626363 0.9186535291373723 1.1810453440994026 1.3401293810456993 0.71794298104941834 0.78752602264285076 1.2342426814138887 0.67149324715137471 0.88106216117739666 0.93138721585273732 0.97511065006256104 1.1771343722939489 0.62548981979489304 0.73101594112813462 0.7282217089086771 0.63007118552923225 0.72107635997235764 1.0373730268329369 0.6556534431874752 1.1347427815198912 0.64043433964252472
leaf_count=20 24 26 17 27 22 23 32 17 15 28 16 17 24 26 33 20 21 22 20 22 33 20 35 21
internal_value=-0.000272036 0.0266726 0.00680663 0.0682014 -0.0170182 0.00650696 0.0408311 -0.0239292 -0.0111053 -0.0342304 -0.0341542 -0.0344212 -0.0341253 -0.0343078 -0.0341079 -0.0341267 -0.034093 -0.0341642 -0.0340824 -0.0340742 -0.0340686 -0.0340796 -0.0340774 -0.0340535
internal_weight=23.407 8.97162 7.26638 2.42415 14.4353 6.08353 3.3087 4.84223 2.12766 4.12429 8.3518 2.77483 7.68031 1.89376 6.74892 2.89005 5.57178 1.6089 4.84077 4.1637 3.44262 1.28114 2.17212 1.27051
internal_count=581 201 175 44 380 135 70 131 47 114 245 65 229 48 205 86 172 46 151 131 109 40 68 41
is_linear=0
shrinkage=0.05


Tree=23
num_leaves=23
num_cat=0
split_feature=12 31 2 10 0 11 1 1 24 4 31 33 13 5 24 16 4 2 33 20 10 34
split_gain=4.58756 5.25233 4.41575 4.98683 5.77527 4.43583 3.90832 4.10057 4.16028 4.42258 3.84388 3.75645 4.54233 3.74304 2.76342 3.5135 2.59629 2.15386 1.76744 1.32304 1.13797 0.683356
threshold=0.0059702352517780584 0.063607051335664008 -0.1173259570703624 -0.0026835271299721934 0.0086643735359197786 0.41881811193591295 -0.084664458348668814 -0.027417979868394986 0.59246709748460646 0.42396128766123747 -0.019762688086351777 1.5000000000000002 0.0080679832425016133 -0.08399747243938939 0.50290025698690821 0.16282295207225983 0.7630305816230516 0.063163258858615984 3.5000000000000004 51.540897931253625 0.20273216304849953 12.500000000000002
decision_type=2 2 2 2 2 2 2 2 2 2 2 2 2 2 2 2 2 2 2 2 2 2
left_child=1 2 -1 5 10 -4 -2 -8 11 -10 -5 12 -9 18 15 17 -11 20 -7 -17 -13 -12
right_child=6 -3 3 4 -6 13 7 8 9 16 21 14 -14 -15 -16 19 -18 -19 -20 -21 -22 -23
leaf_value=0.031245608366942318 -0.026642425490257495 -0.04282047404924233 0.030845559804500839 -0.010869316942175716 0.006555876698312319 -0.033141584359410725 0.034193450430546703 -0.0283375658576847 -0.037096118970504459 0.025551202911775196 -0.058018640431194451 0.050876206783888711 0.0201354185901674 0.023597590178305955 0.048315308091298248 -0.01656515106950935 -0.01520085849132588 0.0047580649645962304 -0.0010978594014921057 0.012182903875347338 0.024661203025107679 -0.037631741152263122
leaf_weight=8.0307835638523084 8.1370980739593488 9.7252554893493635 11.980585008859633 12.111778140068049 14.439349025487898 9.653079569339754 14.333836346864699 10.707803100347521 10.24840632081032 7.8131428062915784 8.3536695241928189 7.6119735836982789 8.809028357267378 7.3965636193752315 7.1179996728897086 8.8435103297233599 7.8202639520168304 7.7761593759059897 7.764728605747222 7.3106373250484458 9.075275242328642 8.0921142995357496
leaf_count=22 22 27 33 33 39 26 39 29 28 21 23 21 24 20 20 24 21 21 21 20 25 22
internal_value=2.98834e-05 -0.00795548 -0.00409462 -0.00765149 -0.0192147 0.00586075 0.00676795 0.00929767 0.00546608 -0.0115686 -0.0322449 0.0120218 -0.00645902 -0.00620213 0.0195777 0.0145416 0.00516589 0.0264916 -0.0188567 -0.00355508 0.0366193 -0.0479873
internal_weight=213.153 97.5479 87.8227 79.7919 42.9969 36.795 115.605 107.468 93.1342 25.8818 28.5576 67.2524 19.5168 24.8144 47.7356 40.6176 15.6334 24.4634 17.4178 16.1541 16.6872 16.4458
internal_count=581 266 239 217 117 100 315 293 254 70 78 184 53 67 131 111 42 67 47 44 46 45
is_linear=0
shrinkage=0.05


end of trees

feature_importances:
volume_20=33
bollinger_width_20=30
returns_1=27
returns_20=25
returns_10=23
returns_200=23
sma_200_slope=23
returns_3=21
returns_5=21
price_to_sma_200=21
returns_2=18
price_to_sma_50=16
high_low_range=16
days_to_month_end=16
price_to_sma_20=15
close_open_range=14
returns_50=13
gap_open=13
day_of_week=13
atr_14=12
day_of_month=12
vwap_distance=11
sma_20_slope=10
price_to_ema_12=10
atr_pct_14=10
sma_50_slope=9
volume_ratio_20=9
macd_signal=8
rsi_14=8
macd_hist=6
bollinger_percent_b_20=6
returns_100=5
ema_12_26_spread=5
price_to_ema_26=4
macd=2

parameters:
[boosting: gbdt]
[objective: multiclass]
[metric: multi_logloss]
[tree_learner: serial]
[device_type: cpu]
[data_sample_strategy: bagging]
[data: ]
[valid: ]
[num_iterations: 300]
[learning_rate: 0.05]
[num_leaves: 31]
[num_threads: 0]
[seed: 0]
[deterministic: 0]
[force_col_wise: 0]
[force_row_wise: 0]
[histogram_pool_size: -1]
[max_depth: -1]
[min_data_in_leaf: 20]
[min_sum_hessian_in_leaf: 0.001]
[bagging_fraction: 1]
[pos_bagging_fraction: 1]
[neg_bagging_fraction: 1]
[bagging_freq: 0]
[bagging_seed: 3]
[bagging_by_query: 0]
[feature_fraction: 0.8]
[feature_fraction_bynode: 1]
[feature_fraction_seed: 2]
[extra_trees: 0]
[extra_seed: 6]
[early_stopping_round: 0]
[early_stopping_min_delta: 0]
[first_metric_only: 0]
[max_delta_step: 0]
[lambda_l1: 0]
[lambda_l2: 0]
[linear_lambda: 0]
[min_gain_to_split: 0]
[drop_rate: 0.1]
[max_drop: 50]
[skip_drop: 0.5]
[xgboost_dart_mode: 0]
[uniform_drop: 0]
[drop_seed: 4]
[top_rate: 0.2]
[other_rate: 0.1]
[min_data_per_group: 100]
[max_cat_threshold: 32]
[cat_l2: 10]
[cat_smooth: 10]
[max_cat_to_onehot: 4]
[top_k: 20]
[monotone_constraints: ]
[monotone_constraints_method: basic]
[monotone_penalty: 0]
[feature_contri: ]
[forcedsplits_filename: ]
[refit_decay_rate: 0.9]
[cegb_tradeoff: 1]
[cegb_penalty_split: 0]
[cegb_penalty_feature_lazy: ]
[cegb_penalty_feature_coupled: ]
[path_smooth: 0]
[interaction_constraints: ]
[verbosity: -1]
[saved_feature_importance_type: 0]
[use_quantized_grad: 0]
[num_grad_quant_bins: 4]
[quant_train_renew_leaf: 0]
[stochastic_rounding: 1]
[linear_tree: 0]
[max_bin: 255]
[max_bin_by_feature: ]
[min_data_in_bin: 3]
[bin_construct_sample_cnt: 200000]
[data_random_seed: 1]
[is_enable_sparse: 1]
[enable_bundle: 1]
[use_missing: 1]
[zero_as_missing: 0]
[feature_pre_filter: 1]
[pre_partition: 0]
[two_round: 0]
[header: 0]
[label_column: ]
[weight_column: ]
[group_column: ]
[ignore_column: ]
[categorical_feature: ]
[forcedbins_filename: ]
[precise_float_parser: 0]
[parser_config_file: ]
[objective_seed: 5]
[num_class: 3]
[is_unbalance: 0]
[scale_pos_weight: 1]
[sigmoid: 1]
[boost_from_average: 1]
[reg_sqrt: 0]
[alpha: 0.9]
[fair_c: 1]
[poisson_max_delta_step: 0.7]
[tweedie_variance_power: 1.5]
[lambdarank_truncation_level: 30]
[lambdarank_norm: 1]
[label_gain: ]
[lambdarank_position_bias_regularization: 0]
[eval_at: ]
[multi_error_top_k: 1]
[auc_mu_weights: ]
[num_machines: 1]
[local_listen_port: 12400]
[time_out: 120]
[machine_list_filename: ]
[machines: ]
[gpu_platform_id: -1]
[gpu_device_id: -1]
[gpu_use_dp: 0]
[num_gpu: 1]

end of parameters

pandas_categorical:null
