tree
version=v4
num_class=3
num_tree_per_iteration=3
label_index=0
max_feature_idx=49
objective=multiclass num_class:3
feature_names=returns_1 returns_2 returns_3 returns_5 returns_10 returns_20 returns_50 returns_100 returns_200 price_to_sma_20 price_to_sma_50 price_to_sma_200 sma_20_slope sma_50_slope sma_200_slope price_to_ema_12 price_to_ema_26 ema_12_26_spread macd macd_signal macd_hist rsi_14 atr_14 atr_pct_14 bollinger_width_20 bollinger_percent_b_20 volume_20 volume_ratio_20 vwap_distance adx_14 high_low_range close_open_range gap_open day_of_week day_of_month days_to_month_end news_sentiment_1d news_sentiment_7d news_article_count_7d earnings_proximity_days congress_buy_score congress_cluster_30d days_since_last_congress insider_buy_score insider_cluster_60d insider_value_60d ceo_bought_90d analyst_upgrade_score consensus_rating watchlist_research_score
feature_infos=[-0.18677152389618262:0.18163471241170537] [-0.24531422271223821:0.24630813757824604] [-0.27559921262881626:0.2846604294272061] [-0.28920041536863977:0.30575379125780539] [-0.30580119010929091:0.51823732413060786] [-0.28814869696872075:0.78591056707469376] [-0.43082839621660951:1.2783841924946218] [-0.61174692291081845:1.2008156446540879] [-0.71238387828249583:1.9754443011717218] [-0.23518863489962963:0.37009469828547054] [-0.28907301756294207:0.65826593027814173] [-0.52749617196268039:0.62801349162949782] [-0.017180249531360645:0.031083347536230016] [-0.011150746252595949:0.018961664230229738] [-0.0069211220171650776:0.0046437555747207513] [-0.20921632398295784:0.21555698517200697] [-0.2277960634980325:0.37011578994981714] [-572.95510446189473:469.75749055052438] [-572.95510446189473:469.75749055052438] [-511.53683497518466:431.54286566359349] [-235.23269564760358:215.5589610220006] [20.134460291163933:88.540047414188649] [0.001526191534160657:746.12946609319079] [0.032865652795768419:0.12447979341884681] [0.046945244013269001:0.65776872111029605] [-0.46755644601395413:1.5068607479413727] [360.14999999999998:21189.799999999999] [0.17872340425531916:4.9590344278440162] [-0.71804857506484721:0.47878229127793531] [34.730555020364612:99.477684528867471] [0.010359067683908449:0.3860221383696355] [-0.1873349209785668:0.18154983585754106] [-0.017659797727221878:0.022467816371144034] [0:6] [1:31] [1:31] none none none none none none none none none none none none none none
tree_sizes=3358 2810 3389 3423 3476 3425 3410 3475 3423 3428 3473 3419 3446 3443 3449 3424 3466 3433 3432 3467 3428 3435 3443 3436 3416 3469 3437 3423 3457 3431

Tree=0
num_leaves=31
num_cat=0
split_feature=21 34 34 31 34 33 6 33 24 23 34 23 8 32 15 31 2 2 26 27 20 7 2 6 1 5 24 10 20 7
split_gain=8.78833 9.98908 9.10305 8.28968 9.91342 7.53451 10.3248 8.15553 8.0226 6.53918 6.87348 8.5493 6.50941 6.1923 5.78598 5.87012 5.15857 8.54262 5.10038 4.80282 4.67093 4.60143 4.46802 4.44465 3.62432 5.54486 3.8253 3.5698 3.53932 3.1383
threshold=35.843297857557879 13.500000000000002 24.500000000000004 0.018267178845049241 28.500000000000004 2.5000000000000004 -0.075201527107075658 5.5000000000000009 0.16708093790813616 0.084387550341378251 17.500000000000004 0.052885131290095914 -0.37136869819606783 0.00022323899502470839 -0.04319996468936952 -0.019541203316226712 -0.013514834461297155 -0.033776645462459932 2422.5750000000003 0.79651004256143476 0.0039696257273772123 -0.16970594225273464 -0.034254267344855809 -0.18175220787817783 -0.021369494087730485 -0.17885320343991198 0.37399144092741493 -0.07387522341089349 -0.0012212457923070231 -0.32952074102083678
decision_type=2 2 2 2 2 2 2 2 2 2 2 2 2 2 2 2 2 2 2 2 2 2 2 2 2 2 2 2 2 2
left_child=21 5 9 14 18 6 12 23 -9 10 11 13 -2 -3 -4 -16 17 28 -5 -8 -21 24 -13 -7 25 -1 -26 -25 -12 -14
right_child=1 2 3 4 -6 7 19 8 -10 -11 16 22 29 -15 15 -17 -18 -19 -20 20 -22 -23 -24 27 26 -27 -28 -29 -30 -31
leaf_value=-0.73704631914101781 -0.63820837496138494 -0.69562281808368731 -0.68525818890957924 -0.72984901368565591 -0.63287479281341152 -0.74803168009920185 -0.68525818890957924 -0.73287945808791355 -0.66954317008072894 -0.72378812488114064 -0.63867216471338262 -0.70271932094163514 -0.67209230860733382 -0.75288039114281402 -0.69398875492560719 -0.74176876166786931 -0.65486894600093082 -0.71732317682299107 -0.67287665892321236 -0.75139884054615469 -0.70560545846759481 -0.68367081327030144 -0.6562092147107953 -0.68621061429314589 -0.7581331614400606 -0.69002031582741263 -0.71287852503301319 -0.72396815128127479 -0.68225981270205449 -0.71065619913802425
leaf_weight=11.99944019317627 9.3745626509189623 12.749405205249788 10.499510169029234 8.2496151328086871 7.4996501207351676 16.499230265617371 10.499510169029234 7.4996501207351711 14.999300241470335 8.2496151328086835 8.6245976388454455 7.8746326267719295 12.749405205249788 7.4996501207351676 8.9995801448822004 22.498950362205509 36.373303085565567 11.249475181102751 7.4996501207351676 10.124527662992479 12.374422699213026 7.874632626771926 14.999300241470335 7.4996501207351676 12.37442269921303 13.124387711286545 7.4996501207351676 37.873233109712601 10.124527662992479 8.9995801448822004
leaf_count=32 25 34 28 22 20 44 28 20 40 22 23 21 34 20 24 60 97 30 20 27 33 21 40 20 33 35 20 101 27 24
internal_value=-0.7 -0.69698 -0.689162 -0.704142 -0.680189 -0.706616 -0.693696 -0.716434 -0.690655 -0.68086 -0.677626 -0.693167 -0.673037 -0.716829 -0.717403 -0.728117 -0.667528 -0.682877 -0.702719 -0.713182 -0.726212 -0.718931 -0.672221 -0.725808 -0.725101 -0.71248 -0.741056 -0.717727 -0.662209 -0.68805
internal_weight=384.357 331.485 182.991 65.247 23.2489 148.493 64.122 84.3711 22.499 117.745 109.495 43.123 31.1235 20.2491 41.998 31.4985 66.3719 29.9986 15.7493 32.9985 22.499 52.8725 22.8739 61.8721 44.9979 25.1238 19.8741 45.3729 18.7491 21.749
internal_count=1025 884 488 174 62 396 171 225 60 314 292 115 83 54 112 84 177 80 42 88 60 141 61 165 120 67 53 121 50 58
is_linear=0
shrinkage=1


Tree=1
num_leaves=26
num_cat=0
split_feature=26 15 35 15 30 34 15 7 3 3 15 28 19 20 4 2 31 22 30 8 34 4 2 2 2
split_gain=7.81081 11.5262 7.37823 9.4245 7.15108 4.15063 3.22225 2.25676 1.74092 1.5965 2.85201 1.7114 5.93706 1.72171 1.61639 3.05547 1.3355 0.586418 1.04276 2.62639 0.427703 1.30096 8.88178e-16 8.88178e-16 4.44089e-16
threshold=13580.800000000001 -0.024563427427448239 28.500000000000004 -0.016085238334909376 0.054099753309799735 29.500000000000004 0.13027823509043102 -0.52177864423654274 0.027835460448211634 0.078508804445287697 0.054282779369439635 -0.61582869165087961 -0.0016518025967002573 2.0494385810626397 0.086675985616331955 0.0013474493333024775 -0.012624545473784858 2.616006490849117 0.05694133061304716 -0.077414438966207713 15.500000000000002 -0.0083052851759776863 0.048211358090823213 -1.0000000180025095e-35 0.015003165220275323
decision_type=2 2 2 2 2 2 2 2 2 2 2 2 2 2 2 2 2 2 2 2 2 2 2 2 2
left_child=2 -2 5 -4 8 6 7 -1 -3 10 11 12 16 14 17 -16 -9 18 19 20 21 -13 -11 -19 -20
right_child=1 4 3 -5 -6 -7 -8 9 -10 22 -12 13 -14 -15 15 -17 -18 23 24 -21 -22 -23 -24 -25 -26
leaf_value=-2.8541692829541461 -2.7614812749164974 -2.924692767330618 -2.9054590897733981 -2.7708233468728611 -2.7977504954529686 -2.8433195161269964 -2.8340197159894398 -2.8739158585795583 -2.8642440664364992 -2.924692767330618 -2.8541692829541461 -2.8695004752099007 -2.7977504954529682 -2.8732296841369762 -2.8294860634223808 -2.9246927673306176 -2.924692767330618 -2.924692767330618 -2.924692767330618 -2.8485274042040287 -2.924692767330618 -2.9246927673306176 -2.924692767330618 -2.924692767330618 -2.9246927673306176
leaf_weight=2.1269510462880126 2.7571587637066841 4.2539020925760251 2.5996068343520164 2.5996068343520156 1.9693991169333456 3.0722626224160186 1.6542952582240094 1.9693991169333456 1.6542952582240102 3.0722626224160177 2.8359347283840171 1.8118471875786686 1.5755192935466684 2.9147106930613509 1.575519293546676 1.8118471875786779 3.7812463045120239 8.7441320791840536 6.144525244832038 1.969399116933366 3.9387982338666916 2.5996068343520169 7.011060856282711 4.6477819159626952 1.6542952582240102
leaf_count=27 35 54 33 33 25 39 21 25 21 39 36 23 20 37 20 23 48 111 78 25 50 33 89 59 21
internal_value=-2.8894 -2.84947 -2.89545 -2.83814 -2.88026 -2.90004 -2.90286 -2.90475 -2.90777 -2.90661 -2.90281 -2.90586 -2.88374 -2.91015 -2.91323 -2.88041 -2.9073 -2.91676 -2.91089 -2.90047 -2.91272 -2.90202 -2.92469 -2.92469 -2.92469
internal_weight=80.7454 10.6348 70.1106 5.19921 7.8776 64.9114 61.8391 60.1848 5.9082 58.0579 47.9746 45.1386 7.32616 37.8125 34.8978 3.38737 5.75065 31.5104 18.1185 10.3197 8.35025 4.41145 10.0833 13.3919 7.79882
internal_count=1025 135 890 66 100 824 785 764 75 737 609 573 93 480 443 43 73 400 230 131 106 56 128 170 99
is_linear=0
shrinkage=1


Tree=2
num_leaves=31
num_cat=0
split_feature=21 27 35 27 2 1 6 2 13 30 13 31 22 33 15 3 3 25 31 35 1 2 0 23 2 20 32 1 32 2
split_gain=9.64691 7.96586 8.04927 7.16235 10.7438 6.90416 5.84359 5.91648 5.34589 5.24336 8.32658 7.14057 5.17812 5.16534 5.13846 6.66113 4.86118 6.14443 4.31794 6.67775 6.96999 6.41798 4.10826 4.02848 5.78647 3.83269 3.5437 2.92659 3.98441 2.90066
threshold=35.843297857557879 0.50514744599100803 15.500000000000002 0.79012638092767651 -0.036545002113744944 0.062957198649468568 -0.088092640075480413 0.096743906636694757 -0.0037741553703259834 0.10326563083287983 -0.0039988179076815749 -0.0010835467077699578 0.0025764410165145433 2.5000000000000004 0.020552631986652931 0.056137893844839935 0.0040413649021886992 0.34861968475134814 0.017337213767192852 5.5000000000000009 0.0060034196282595454 -0.0072535261209232937 0.04475899634000214 0.077299535113727044 -0.030619219597910984 0.00052069819244040941 -6.5174208943680984e-05 -0.011185864246307487 -7.0962709615329472e-05 -0.027765400354621907
decision_type=2 2 2 2 2 2 2 2 2 2 2 2 2 2 2 2 2 2 2 2 2 2 2 2 2 2 2 2 2 2
left_child=9 16 5 8 -5 12 13 14 -4 10 11 29 -3 -6 -8 -16 17 -2 19 20 26 23 -7 24 -21 -18 -14 -10 -29 -1
right_child=1 2 3 4 6 22 7 -9 27 -11 -12 -13 18 -15 15 -17 25 -19 -20 21 -22 -23 -24 -25 -26 -27 -28 28 -30 -31
leaf_value=-0.77544405587328746 -0.80984188851783323 -0.79261714799687821 -0.7892667980099648 -0.74393853348113581 -0.84065384671680865 -0.76105628803612213 -0.81321194644584616 -0.81658200437385919 -0.84636896799565098 -0.75423593270561984 -0.82368645081669722 -0.81474379095857941 -0.79929214196057541 -0.79636165680578153 -0.73825720977107567 -0.78673291986860172 -0.78031376191048185 -0.7553348646386675 -0.84247823897859009 -0.84368587451830368 -0.77257301260804312 -0.85339340635676975 -0.8124095517010812 -0.78757020134139999 -0.79343117165098764 -0.82746988383359321 -0.84538068121324239 -0.84052103655215793 -0.80197842001913644 -0.73537965620364265
leaf_weight=10.756491661071776 7.418270111083987 13.35288619995117 14.094713211059569 10.014664649963377 12.981972694396974 7.7891836166381818 8.9019241333007795 14.836540222167967 11.498318672180174 11.869232177734373 13.723799705505373 8.160097122192381 8.5310106277465838 13.35288619995117 10.756491661071779 20.771156311035156 7.7891836166381863 17.062021255493164 28.189426422119141 17.43293476104736 12.611059188842772 19.287502288818359 7.7891836166381836 8.5310106277465803 8.5310106277465874 9.6437511444091779 8.1600971221923846 10.756491661071776 17.803848266601566 7.7891836166381863
leaf_count=29 20 36 38 27 35 21 24 40 31 32 37 22 23 36 29 56 21 46 76 47 34 52 21 23 23 26 22 29 48 21
internal_value=-0.803398 -0.806579 -0.809562 -0.801335 -0.792814 -0.818115 -0.798813 -0.789576 -0.815751 -0.783455 -0.792033 -0.775767 -0.822038 -0.818196 -0.779666 -0.770194 -0.786222 -0.771852 -0.825569 -0.819832 -0.800628 -0.830295 -0.786733 -0.817379 -0.827174 -0.8064 -0.821824 -0.82507 -0.816494 -0.758617
internal_weight=380.186 327.888 285.974 145.769 91.6156 140.205 81.601 55.2661 54.1534 52.2988 40.4296 26.7058 124.627 26.3349 40.4296 31.5276 41.9132 24.4803 111.274 83.0846 29.3022 53.7825 15.5784 34.495 25.9639 17.4329 16.6911 40.0587 28.5603 18.5457
internal_count=1025 884 771 393 247 378 220 149 146 141 109 72 336 71 109 85 113 66 300 224 79 145 42 93 70 47 45 108 77 50
is_linear=0
shrinkage=1


Tree=3
num_leaves=31
num_cat=0
split_feature=34 33 34 33 24 2 6 33 4 11 33 30 1 13 4 3 3 0 32 3 4 5 8 30 1 8 15 15 17 20
split_gain=7.70651 10.4145 8.87685 7.03778 18.3431 7.89817 6.98047 8.19239 7.52989 6.64227 6.45517 6.74158 6.61968 6.3011 5.26864 6.42601 5.06444 5.38274 4.84956 4.84564 4.76502 6.6572 4.49106 4.38735 4.27444 3.98042 3.90653 6.13766 4.19712 4.34342
threshold=6.5000000000000009 5.5000000000000009 23.500000000000004 4.5000000000000009 0.30595502237765643 -0.013514834461297155 -0.11175097990794364 2.5000000000000004 -0.040012346861661982 -0.063533085358085731 2.5000000000000004 0.061628960198108554 -1.0000000180025095e-35 -0.0037118812311885611 -0.11864796794773071 -0.041319906407402032 -0.012492259664014288 0.0069378802087217287 8.1502681246638033e-05 -0.018758838874982531 1.0000000180025095e-35 0.063565307195229973 -0.48363764321709396 0.11188699726052147 -0.002989028603676606 0.12786243587344118 0.0257552971987032 0.051539828926275157 0.02287447912168836 0.74116338184972574
decision_type=2 2 2 2 2 2 2 2 2 2 2 2 2 2 2 2 2 2 2 2 2 2 2 2 2 2 2 2 2 2
left_child=10 3 20 5 25 6 7 14 23 18 11 12 -1 -12 -2 -16 -15 -18 -7 -10 -3 -22 -20 -8 -24 -5 -11 -28 -29 -30
right_child=1 2 -4 4 -6 9 8 -9 19 26 13 -13 -14 16 15 -17 17 -19 22 -21 21 -23 24 -25 -26 -27 27 28 29 -31
leaf_value=0.046832372739883166 -0.033939546845871818 0.065831290409135684 -0.013386663222630397 -0.04750225444331152 0.030465475949612037 0.031923293297715573 0.03083144715689148 -0.051804743613863037 -0.040174678777621049 0.020601806925621292 -0.054055206779932224 -0.033881457200872725 -0.0066687613670450355 -0.04683597550429569 0.046031489111511045 -0.019437974449510231 0.022833183895965517 -0.03186887875828464 0.037270613132824114 0.0044702089914035485 -0.012232635680714407 0.046839567794499305 0.024135945457065131 -0.01144906111871445 -0.020492037542706083 -0.0060512086000288068 -0.051517562910682907 -0.032319853583707134 0.033687559437525653 -0.013150926137948825
leaf_weight=10.117030829191208 9.7391944825649244 11.242928743362429 10.488045603036879 25.468274801969528 13.867575109004973 43.840305238962173 23.980303764343262 15.353769093751906 11.619194358587267 13.112595111131666 14.601761311292647 9.362975209951399 13.491973340511322 7.8712368011474636 7.4954264760017377 7.4967255592346227 11.245236784219744 7.4941653013229361 8.6162534058094007 12.743982970714567 7.4933973550796535 13.12017512321472 8.2454906105995178 8.2453486919403058 15.361013412475586 7.4962764084339133 7.4902179539203635 7.493538141250613 10.493640750646593 9.3683145344257337
leaf_count=27 26 30 28 68 37 117 64 41 31 35 39 25 36 21 20 20 30 20 23 34 20 35 22 22 41 20 20 20 28 25
internal_value=5.89093e-06 0.0034714 0.0265115 -0.000175412 -0.0177801 0.00356035 -0.00715312 -0.0231167 0.00415483 0.0119114 -0.0144697 0.00201985 0.0162578 -0.0276622 -0.0053066 0.0132939 -0.0131798 0.000957016 0.0210995 -0.0168217 0.039647 0.0253658 0.00637336 0.0200134 -0.00490398 -0.0380761 -0.00266109 -0.011415 -0.000434535 0.0115952
internal_weight=384.056 309.872 42.3445 267.527 46.8321 220.695 96.6739 40.0851 56.5888 124.021 74.1844 32.972 23.609 41.2124 24.7313 14.9922 26.6106 18.7394 76.0631 24.3632 31.8565 20.6136 32.2228 32.2257 23.6065 32.9646 47.9583 34.8457 27.3555 19.862
internal_count=1025 827 113 714 125 589 258 107 151 331 198 88 63 110 66 40 71 50 203 65 85 55 86 86 63 88 128 93 73 53
is_linear=0
shrinkage=0.05


Tree=4
num_leaves=31
num_cat=0
split_feature=26 15 30 2 3 25 1 5 13 15 19 32 15 32 25 24 3 26 1 0 3 0 11 29 25 15 6 2 11 26
split_gain=7.0429 9.14735 6.18936 4.18661 5.64826 5.85512 10.3993 8.22631 6.96009 4.25169 10.6098 6.77337 4.14711 3.94656 2.51127 2.01649 1.67382 0.59401 0.556181 0.500757 4.5428e-06 3.99359e-06 3.307e-06 3.25138e-06 3.20098e-06 3.09376e-06 2.03792e-06 1.47328e-06 1.26172e-06 1.09721e-06
threshold=13580.800000000001 -0.024563427427448239 0.054099753309799735 -0.047569761128059315 0.038770567308363695 0.34072137580630574 -0.016198032884965363 0.04489761049015336 -0.0056615348768783444 0.011550552832148871 -0.6034382472132106 -0.0012849595708688433 0.13869275853192245 0.0018654804487438371 0.11853766916168988 0.47037609190431223 0.027835460448211634 447.37500000000006 -0.0079697135698201683 -0.0081015837260799573 0.081573405381675512 0.0093314419569713817 -0.095387580865051724 40.40643414977324 0.47452024959048095 -0.027132436813180817 0.28493326347458808 0.056493029262565449 -0.32311747559824555 1347.8750000000002
decision_type=2 2 2 2 2 2 2 2 2 2 2 2 2 2 2 2 2 2 2 2 2 2 2 2 2 2 2 2 2 2
left_child=3 -2 16 18 5 13 7 -7 -8 19 -11 -12 15 14 -5 17 -3 -6 23 -10 22 -13 27 -1 -21 28 -22 -19 -25 -16
right_child=1 2 -4 4 12 6 8 -9 9 10 11 21 -14 -15 29 -17 -18 20 -20 24 26 -23 -24 25 -26 -27 -28 -29 -30 -31
leaf_value=-0.035318660459746951 0.11008982294361623 -0.035229022876962189 0.081443470886943634 0.018550244682049809 -0.0027310286036840831 0.1777034226564157 0.10556506491322362 0.03444839193491548 -0.0030461050485470738 0.13325878182972448 0.080144042319291509 -0.035334178705431103 0.055018055556503832 0.045972644125617107 -0.035295286741089553 0.025512500023781661 0.023871360618425652 -0.035299287145156837 -0.0035953980513950658 -0.035266204123840877 -0.035234999463041226 -0.035242510048515474 -0.035351784516554761 -0.035260678936534971 -0.035343700718441159 -0.035302970761700532 -0.035289770598735018 -0.035241214961769733 -0.03521759733433414 -0.035260700753808091
leaf_weight=2.2229241356253615 3.0894476473331451 4.1226680353283864 2.1380053907632828 2.7874980419874182 1.5378265604376888 1.8771901428699447 1.7740178406238545 2.1497946977615356 1.5517417192459104 1.7791329473257036 1.7323932200670205 2.2376980707049414 1.6586862206459034 2.4603362157940856 3.6962655261158925 1.6447781026363362 1.6887847259640691 3.3860534429550171 1.5769771933555592 2.8694079816341498 6.1234737113118154 2.5330859869718552 2.4178170636296263 2.8653281256556493 2.4876751601696014 2.2069276422262201 2.3501521944999695 1.6121728941798208 4.1769221499562255 6.0407548099756241
leaf_count=28 35 54 25 36 20 23 22 27 20 22 22 28 20 31 47 21 21 43 20 37 80 33 30 37 31 28 30 21 55 78
internal_value=-2.95262e-05 0.0370797 0.00870532 -0.00590198 -2.60757e-05 0.0119524 0.0289945 0.101227 0.0118488 0.000904673 0.0250638 -0.00453602 -0.0208138 -0.0119217 -0.0232946 -0.0274088 -0.0180547 -0.0324035 -0.0314372 -0.0280574 -0.0352752 -0.0352855 -0.0353038 -0.0352644 -0.0353022 -0.0352513 -0.0352502 -0.0352806 -0.0352351 -0.0352738
internal_weight=80.7959 11.0389 7.94946 69.757 56.708 35.977 20.9921 4.02698 16.9652 15.1911 8.28231 6.50318 20.731 14.9849 12.5245 19.0723 5.81145 17.4275 13.0491 6.90882 15.8897 4.77078 7.41604 11.4721 5.35708 9.24918 8.47363 4.99823 7.04225 9.73702
internal_count=1025 135 100 890 722 457 265 50 215 193 105 83 265 192 161 245 75 224 168 88 204 61 94 148 68 120 110 64 92 125
is_linear=0
shrinkage=0.05


Tree=5
num_leaves=31
num_cat=0
split_feature=21 34 4 0 27 20 10 34 35 0 4 0 23 3 35 27 27 30 6 0 9 3 5 30 27 21 27 4 10 14
split_gain=8.53426 8.14495 7.79519 8.00498 6.89887 6.25457 6.4557 6.19213 13.4839 7.46767 9.32155 6.72536 6.08855 5.81524 5.66369 5.96057 6.83648 5.47804 7.73045 5.69589 5.41647 5.18199 9.89869 4.84853 4.48518 4.40545 4.23271 4.12799 3.92794 3.89311
threshold=36.136856963438312 13.500000000000002 -0.0020662013713174739 -0.024893729488517671 0.50514744599100803 0.00048353220654786963 0.17874419417413026 25.500000000000004 3.5000000000000004 0.009024263923991872 0.0076673743035679193 0.015699951952468611 0.08587863287861211 0.059582109588527603 12.500000000000002 1.2602016857155467 0.89149147678546192 0.10326563083287983 -0.21384852635992449 0.00099938976327895268 0.042038195177498426 -0.0015153757402426658 -0.056163084470588279 0.055786752766172329 0.67149939314265128 71.330973426494381 1.2485053021132506 0.04676959364755786 0.05116092953432836 -0.0035878496184339709
decision_type=2 2 2 2 2 2 2 2 2 2 2 2 2 2 2 2 2 2 2 2 2 2 2 2 2 2 2 2 2 2
left_child=17 2 3 -2 -3 -4 13 12 9 10 -9 -10 14 20 29 16 -16 18 19 -1 27 22 -5 -18 -22 -8 -27 -7 -15 -6
right_child=1 4 5 21 7 6 25 8 11 -11 -12 -13 -14 28 15 -17 23 -19 -20 -21 24 -23 -24 -25 -26 26 -28 -29 -30 -31
leaf_value=0.04643838393957711 0.033031028249517237 0.018298991602355031 0.035956708923554355 0.035425364365675747 -0.0056131089411201969 0.0080111342516130581 0.059536365895970923 -0.033529453824556604 0.058914967715172628 -0.058515534099540904 0.036789277064502489 0.0025301158786226745 0.022374084899165612 -0.052892708043455729 -0.02482681694223669 -0.029887314531301501 0.053860203120873064 0.047559038713987513 -0.013797646209165996 -0.0050959706433759471 0.00046835712488984204 -0.046167095708659692 -0.042544968718239068 -0.0019248091772272385 0.052158790046174477 -0.013524715811743832 0.039848480791232925 -0.033287187851034003 -0.0054776904199049384 -0.041401820613346643
leaf_weight=15.658355832099913 7.4321647584438315 18.941219955682755 22.667647272348404 7.793577283620837 9.2422989010810834 17.448905587196354 7.8244092166423824 11.126623302698141 10.792873919010164 9.1846230328083021 8.1759343147277814 10.369502872228621 7.8030288517475119 7.749198883771899 11.461309969425203 23.638230502605438 7.8124298453330976 12.306461691856383 19.28254991769791 8.1538135409355146 7.4112988114357021 14.786004215478895 8.5212981104850787 7.767966628074646 9.6750956475734693 7.4239294826984388 7.4344810843467712 9.2629497945308668 10.010270863771437 42.732173770666122
leaf_count=42 20 51 61 21 25 47 21 30 29 25 22 28 21 21 31 64 21 33 52 22 20 40 23 21 26 20 20 25 27 116
internal_value=3.24327e-07 -0.00309626 0.00569306 -0.0135879 -0.0102358 0.0126425 0.00636907 -0.0136116 0.00105483 -0.0214035 -0.00374473 0.0312866 -0.020204 -0.00203303 -0.0234405 -0.0115471 0.0044849 0.0181373 0.00973538 0.0287919 0.00775283 -0.0247284 -0.00529873 0.0260473 0.0297378 0.0291711 0.0131808 -0.00631001 -0.0261668 -0.0350377
internal_weight=379.891 324.489 145.441 38.533 179.048 106.908 84.2405 160.107 49.6496 28.4872 19.3026 21.1624 110.457 61.5577 102.654 50.6799 27.0417 55.4012 43.0947 23.8122 43.7982 31.1009 16.3149 15.5804 17.0864 22.6828 14.8584 26.7119 17.7595 51.9745
internal_count=1025 876 392 104 484 288 227 433 134 77 52 57 299 166 278 137 73 149 116 64 118 84 44 42 46 61 40 72 48 141
is_linear=0
shrinkage=0.05


Tree=6
num_leaves=31
num_cat=0
split_feature=34 33 27 33 34 33 3 4 31 7 35 24 32 3 28 1 33 33 21 34 30 31 4 4 5 6 3 35 4 1
split_gain=6.92983 9.5291 9.29408 9.58244 8.17192 6.49761 10.3512 13.7181 7.87977 7.4481 7.06462 6.83225 6.54255 6.40012 7.85018 6.06403 5.77114 5.19155 5.60641 7.67518 6.22932 5.47803 4.37884 4.34672 6.18508 4.13233 4.02744 3.94627 4.19046 3.43287
threshold=6.5000000000000009 5.5000000000000009 1.0020985679179029 2.5000000000000004 23.500000000000004 2.5000000000000004 0.053065314433999845 -0.16255887689929446 0.0085805288849132594 -0.17894110479795081 16.500000000000004 0.21180947989333032 -7.6915915574284226e-05 -0.019590915942158064 -0.4031695921724946 0.010977030243388012 1.5000000000000002 1.5000000000000002 35.386189523532821 17.500000000000004 0.067199928067606121 -0.015980218672331035 0.18492049473654154 1.0000000180025095e-35 0.063565307195229973 -0.11535169695668988 0.0047463601643688734 21.500000000000004 -0.029131958996360875 -0.015538578788080626
decision_type=2 2 2 2 2 2 2 2 2 2 2 2 2 2 2 2 2 2 2 2 2 2 2 2 2 2 2 2 2 2
left_child=2 5 3 16 23 11 7 -7 15 -8 22 27 -10 -5 -15 25 -1 18 -13 -20 -21 -19 -11 -3 -25 26 -9 28 -2 -30
right_child=1 4 -4 13 -6 6 9 8 12 10 -12 17 -14 14 -16 -17 -18 21 19 20 -22 -23 -24 24 -26 -27 -28 -29 29 -31
leaf_value=0.0039202075118618786 0.033323911221154877 0.06303922823592184 -0.043422826957080919 -0.050110558797049926 -0.012939385539457296 0.034061932747748554 0.05812549753012141 -0.059083533673827328 -0.027245008152051081 0.0013309169065710083 -0.030432503607041306 -0.050970743444231137 0.023657510405613827 -0.028899756951753699 0.032932435680044801 -0.062849378232435402 0.058154980941650884 -0.018395712080914148 -0.030186396439629427 -0.010997598948435418 0.041715703706371995 0.033778134940703648 0.051052525414198184 -0.011902739935874965 0.045061939263246184 -0.01232625846698205 -0.013510773910442558 0.049198593648518918 -0.026086063628355867 0.012493233280163324
leaf_weight=14.226651698350908 18.692864000797272 11.204647064208986 19.435119420289993 11.574376463890074 10.47669196128845 11.97051367163658 7.8551320433616629 12.692261219024656 11.599581956863405 10.845414161682134 10.109312027692793 7.845582276582717 13.849801540374754 12.710264146327971 8.6108326613903063 13.060863703489302 7.4861755967140189 7.485917508602145 16.84322252869606 11.600624471902849 10.843097776174544 15.341778784990309 7.4833424389362326 7.4896489977836636 13.099164217710493 28.825923621654514 7.8441033959388724 9.7225717604160291 7.4876047372817984 25.08087956905365
leaf_count=38 50 30 52 31 28 32 21 34 31 29 27 21 37 34 23 35 20 20 45 31 29 41 20 20 35 77 21 26 20 67
internal_value=1.11005e-05 0.00329982 -0.013729 -0.00316099 0.0253582 -0.000191315 -0.00783992 -0.0161524 -0.0229929 0.0150279 0.0031235 0.00776056 0.000456637 -0.0201774 -0.00392793 -0.0325531 0.0226193 -0.00290272 -0.0123817 -0.00467554 0.0144695 0.0166687 0.0216315 0.0379782 0.0243397 -0.0245369 -0.0416765 0.0199934 0.0144541 0.00362372
internal_weight=383.394 309.351 74.0434 54.6083 42.2702 267.08 136.136 99.843 87.8725 36.2932 28.4381 130.944 25.4494 32.8955 21.3211 62.4232 21.7128 69.9602 47.1325 39.2869 22.4437 22.8277 18.3288 31.7935 20.5888 49.3623 20.5364 60.9839 51.2613 32.5685
internal_count=1025 827 198 146 113 714 364 267 235 97 76 350 68 88 57 167 58 187 126 105 60 61 49 85 55 132 55 163 137 87
is_linear=0
shrinkage=0.05


Tree=7
num_leaves=31
num_cat=0
split_feature=26 30 17 35 0 34 15 7 24 28 26 0 0 15 35 0 17 11 0 0 28 2 3 30 32 15 3 19 30 12
split_gain=6.33597 7.78035 7.7656 6.4215 9.2908 3.55149 2.75277 2.07364 1.75353 2.54304 6.98202 2.31781 4.74005 4.01419 3.32759 1.15898 3.97211 1.25056 0.613691 0.459979 2.37481e-05 1.1901e-05 1.17076e-05 8.64611e-06 6.57567e-06 9.47327e-06 6.53722e-06 8.71476e-06 6.50361e-06 3.73571e-06
threshold=13580.800000000001 0.06377004516058056 -94.986518949561273 28.500000000000004 -0.0031602918216062834 29.500000000000004 0.13027823509043102 -0.52177864423654274 0.1482344131731467 -0.62765968114150494 3534.0750000000003 -0.014247313091260662 -0.0067337463146189382 0.011550552832148871 20.500000000000004 -0.029928693476651089 0.056555190686995889 0.33080132112397043 0.071507696596837686 0.0078401754272894777 0.26533082144060033 -0.031986792950039582 0.076277110046455848 0.078230702869305904 0.0015561989846723829 0.01182760132908873 0.036983847069143115 0.0059589806817036085 0.048030948602220201 -0.001694931400225733
decision_type=2 2 2 2 2 2 2 2 2 2 2 2 2 2 2 2 2 2 2 2 2 2 2 2 2 2 2 2 2 2
left_child=3 2 -2 5 -5 6 7 -1 11 10 -10 21 -13 29 -15 16 23 18 22 20 -4 -9 24 -11 25 -17 27 -27 -26 -14
right_child=1 -3 19 4 -6 -7 -8 8 9 15 -12 12 13 14 -16 17 -18 -19 -20 -21 -22 -23 -24 -25 28 26 -28 -29 -30 -31
leaf_value=0.032789946075582443 0.071800482701309246 0.10670958092647856 -0.035488014365045707 -0.035250128762702802 0.097725856430731395 0.040306346017793732 0.047996987200236256 -0.03514184733192096 -0.035255180298579165 -0.035293490804277738 0.080265204589953287 0.091456374064549539 -0.035269620080439289 0.089628842545821999 -0.0085713213258162748 -0.03521044355724081 0.041319135927400691 0.0025009057654680105 -0.0027502025898564122 -0.003074353244083141 -0.035236983245936028 -0.035326169467128993 -0.035174634295075356 -0.035157238626368326 -0.035380119110202425 -0.035400726962080846 -0.035220090595337011 -0.035260749722980891 -0.035241139959303086 -0.035177163082447165
leaf_weight=2.2002724409103385 3.2587457671761504 2.8082804530858985 1.6851484403014176 2.1506040617823601 3.3748472705483428 3.2986972704529753 1.7966440469026554 1.6822745203971865 3.3104264885187069 1.9564339891076006 2.1623609885573387 1.5775219649076451 2.0188476741313921 1.6003018841147425 1.871579051017761 10.127165734767944 2.6118188798427582 2.6467103213071814 1.5381842851638783 1.5525479763746259 2.1367702409625053 1.8265807628631581 6.022932492196559 2.8757679909467697 1.8664701655507081 1.9716514945030201 2.4293136447668076 2.5501014292240143 1.5332780852913854 2.3811039477586751
leaf_count=27 37 30 20 28 38 39 21 23 43 25 27 20 26 20 24 134 34 34 20 20 28 23 81 39 23 24 32 33 20 32
internal_value=-5.69179e-05 0.0344169 0.010901 -0.00574186 0.0459692 -0.0102164 -0.0129685 -0.0148325 -0.0166851 -0.0214844 0.0103882 -0.000535805 0.0123502 -0.00350276 0.0366923 -0.0260591 -0.00836045 -0.0303526 -0.0334538 -0.0260247 -0.0353477 -0.0352378 -0.0352359 -0.0352124 -0.0352539 -0.0352413 -0.0352862 -0.0353218 -0.0353174 -0.0352196
internal_weight=80.8234 11.4415 8.63321 69.3819 5.52545 63.8564 60.5577 58.7611 56.5608 43.6026 5.47279 12.9582 9.44935 7.87183 3.47188 38.1298 7.44402 30.6858 28.0391 5.37447 3.82192 3.50886 26.5009 4.8322 20.478 17.0782 6.95107 4.52175 3.39975 4.39995
internal_count=1025 135 105 890 66 824 785 764 737 569 70 168 122 102 44 499 98 401 367 68 48 46 347 64 266 223 89 57 43 58
is_linear=0
shrinkage=0.05


Tree=8
num_leaves=31
num_cat=0
split_feature=21 34 19 27 32 33 1 31 28 0 34 3 5 34 30 3 13 33 32 31 3 21 5 9 24 5 3 14 11 3
split_gain=7.61641 7.36551 7.71921 6.36751 8.19916 8.76862 7.27579 7.51049 6.30343 5.58438 7.98409 6.69964 5.12593 5.04014 4.9288 7.43294 5.72832 4.2806 4.00098 3.76273 4.00984 6.32752 9.50151 6.58164 6.51227 7.15682 3.65719 3.65661 3.54675 3.2996
threshold=36.136856963438312 13.500000000000002 -2.3238651805237054 0.50514744599100803 0.00031304104602231797 1.0000000180025095e-35 0.040829289562568129 -0.0032026279207430378 -0.41603210651628902 0.015699951952468611 25.500000000000004 -0.01735642532121693 -0.0020880818894185773 20.500000000000004 0.10326563083287983 -0.093909225443402924 -0.0045674170559928907 2.5000000000000004 -0.00061142634917130329 0.05618585822381799 0.06835032771144707 67.228754998825366 0.13333824282583676 0.011270101409757335 0.18708384131341207 -0.056163084470588279 0.012077347424620721 -0.0013035857536496936 -0.14402452293604803 -0.041319906407402032
decision_type=2 2 2 2 2 2 2 2 2 2 2 2 2 2 2 2 2 2 2 2 2 2 2 2 2 2 2 2 2 2
left_child=14 2 26 -3 9 -6 7 8 -7 10 11 12 -5 -14 15 -1 17 -17 -11 20 21 22 23 24 25 -4 -2 -22 -25 -18
right_child=1 3 19 4 5 6 -8 -9 -10 18 -12 -13 13 -15 -16 16 29 -19 -20 -21 27 -23 -24 28 -26 -27 -28 -29 -30 -31
leaf_value=-0.029556422012538025 0.0032858912365083385 0.017653697215540737 0.017276586727898013 -0.032272849603993778 0.050062546688900311 0.02778246589534791 0.027222501404085126 -0.05355172470304026 -0.030729245933080684 -0.016456619803880159 0.014509468495097714 -0.041007673516991971 0.034141201763050709 -0.019649145364876205 0.044966858141316582 0.011618974629437437 0.020667838531009033 0.059886769551963814 -0.050672727309189883 0.043827395474120963 -0.038272325261895092 0.057206079854264728 -0.03529382737692472 0.053561290455918689 0.031504741441433053 -0.038685071383610124 -0.029060440879158884 0.0046823398143977296 0.015124891339206335 -0.02653008393824385
leaf_weight=9.6344415843486768 15.583201497793196 18.962266981601715 10.778064936399455 11.38169699907303 8.5350174307823163 9.6192225813865644 11.879241108894346 10.278313338756563 8.8264439702034014 14.30827486515045 19.700934797525406 26.023593604564667 10.005807250738146 7.7108823060989371 12.352900385856627 8.1820867061614972 7.4059206247329712 10.47252833843231 21.206238240003586 8.5489028394222242 7.3443357646465328 7.8493199050426474 9.9932091534137708 14.174828976392748 13.381247758865355 12.157697200775152 19.894836217164993 15.225791305303572 10.409309357404707 7.40613502264023
leaf_count=26 42 51 29 31 23 26 32 28 24 39 53 71 27 21 33 22 20 28 58 23 20 21 27 38 36 33 54 41 28 20
internal_value=9.08244e-07 -0.00293157 0.00542441 -0.00973765 -0.0129946 0.00399407 -0.00568977 -0.0193011 -0.000215999 -0.0205604 -0.0128108 -0.0225752 -0.00609043 0.0107299 0.0171227 0.00914252 0.0202832 0.0387161 -0.0368876 0.0119725 0.00928461 0.0146101 0.00989392 0.0173087 0.00378499 -0.0123873 -0.0148528 -0.00929514 0.0372867 -0.00293146
internal_weight=379.233 323.779 145.341 178.438 159.476 49.1382 40.6032 28.724 18.4457 110.337 74.8229 55.122 29.0984 17.7167 55.454 43.1011 33.4667 18.6546 35.5145 109.863 101.314 78.7437 70.8944 60.9011 36.317 22.9358 35.478 22.5701 24.5841 14.8121
internal_count=1025 876 392 484 433 133 110 78 50 300 203 150 79 48 149 116 90 50 97 296 273 212 191 164 98 62 96 61 66 40
is_linear=0
shrinkage=0.05


Tree=9
num_leaves=31
num_cat=0
split_feature=21 33 33 11 11 27 21 35 9 4 2 8 35 32 30 35 4 0 8 27 22 31 15 11 31 13 30 17 1 27
split_gain=6.13768 6.4572 11.1335 9.53289 8.84112 8.09618 7.91425 6.41164 5.20866 5.11381 5.24659 5.09419 4.65562 4.37123 4.00183 3.97452 6.60268 4.74167 4.8977 4.21916 3.84831 3.76819 7.13298 3.69258 3.29454 5.80139 2.7592 2.69874 2.68389 2.66464
threshold=35.843297857557879 5.5000000000000009 2.5000000000000004 -0.19835688007093552 -0.16942654095207468 0.47491933864168673 42.071261135926363 25.500000000000004 -0.013963801243151356 0.0027621743664751086 0.052713837907850752 0.088645617989521155 12.500000000000002 0.0021363063528831772 0.050681011384132654 16.500000000000004 0.18492049473654154 -0.0021406941595418414 -0.1593340998365152 0.67149939314265128 0.010535484930120289 0.0052308500633154757 -0.010062302479523694 0.19686591916573778 -0.0010835467077699578 -0.0039988179076815749 0.045948085884977528 0.037495368126611257 -0.047333705795280533 0.8985595698293064
decision_type=2 2 2 2 2 2 2 2 2 2 2 2 2 2 2 2 2 2 2 2 2 2 2 2 2 2 2 2 2 2
left_child=24 2 4 21 9 -3 -5 -7 -8 20 26 23 -13 15 -14 16 17 18 -10 -17 -2 29 -23 -6 25 28 -11 -21 -1 -4
right_child=1 5 3 6 11 7 8 -9 13 10 -12 12 14 -15 -16 19 -18 -19 -20 27 -22 22 -24 -25 -26 -27 -28 -29 -30 -31
leaf_value=-0.015981261833228132 0.013899645446234994 -0.024532232384575577 -0.02877565428915135 0.046491372195263697 -0.0027661516104078598 0.039352634502798252 -0.03291801671563567 -0.010289621211229449 -0.05122568958544356 -0.02772513603302415 0.043600117706215934 0.046550152745005513 0.025144020745579122 0.035836652874020054 -0.019794855678310481 0.0097294607820050845 0.048966735158637843 0.021254882932833036 0.006060722301622079 -0.010990923615592355 0.052451272180690782 0.020559658800167416 -0.034246953793271973 -0.034465398854055994 0.0036575508840942673 0.002908773032057338 0.011195225698486374 -0.051333665419292941 -0.050829900770588521 -0.06156336538977028
leaf_weight=8.5721423327922803 9.7191776037216204 8.5860634148120862 18.63356310129166 8.2266167700290662 44.827178359031677 31.300418347120285 13.828318685293196 8.2105857431888563 7.4801388978958077 7.8586898148059907 7.8220255374908438 8.939867168664934 10.093001276254656 7.856011062860488 9.7295937240123731 8.5940093100070971 7.4525127708911887 10.458055257797245 7.4440670311450976 7.4791237413883236 19.38294506072998 9.7096782624721545 15.277961194515226 11.555096566677092 15.312406808137892 13.084087222814562 10.828244030475615 9.3002852201461774 15.542896807193754 9.2840957939624769
leaf_count=23 26 23 50 22 120 84 37 22 20 21 21 24 27 21 26 23 20 28 20 20 52 26 41 31 41 35 29 25 42 25
internal_value=1.43275e-05 0.00254171 -0.000348439 -0.0102777 0.00959975 0.0194738 -0.000204893 0.0290367 -0.00501326 0.0251054 0.00921887 -0.000527512 0.0165958 0.000827666 0.00308651 -0.00389729 0.00758803 -0.00456122 -0.0226517 -0.01876 0.0395763 -0.0270549 -0.0129502 -0.00926266 -0.0158627 -0.0238978 -0.00517252 -0.0333516 -0.0384423 -0.0396793
internal_weight=382.389 329.877 281.78 141.024 140.756 48.0971 88.1191 39.511 79.8925 55.6111 26.509 85.1447 28.7625 66.0642 19.8226 58.2082 32.8348 25.3823 14.9242 25.3734 29.1021 52.9053 24.9876 56.3823 52.5115 37.1991 18.6869 16.7794 24.115 27.9177
internal_count=1025 884 755 378 377 129 236 106 214 149 71 228 77 177 53 156 88 68 40 68 78 142 67 151 141 100 50 45 65 75
is_linear=0
shrinkage=0.05


Tree=10
num_leaves=31
num_cat=0
split_feature=26 32 35 24 10 32 34 14 14 11 22 14 7 2 32 31 26 27 5 13 14 28 17 5 22 28 26 7 26 19
split_gain=5.71978 7.10218 5.85527 6.23849 3.73905 3.77834 3.25903 2.39247 5.84839 3.04367 3.1613 4.34423 1.73967 5.44849 1.92761 1.56689 2.99624 1.36114 1.32858 2.25643 0.624654 0.421866 0.406237 3.73777e-05 1.34018e-05 1.16458e-05 2.32907e-05 9.27194e-06 7.28336e-06 6.40366e-06
threshold=13580.800000000001 1.08276042629423e-05 28.500000000000004 0.22892433936501685 -0.0026187964729804058 -1.0000000180025095e-35 29.500000000000004 0.00028406872561713219 0.00013962961484742967 0.28775825908178376 8.0643366840776558 -0.0021051210277129046 -0.35007846882096505 0.028631168165082686 -0.0058259231327214495 -0.01171346570905739 1194.2000000000003 0.959049000825416 0.22753973121201646 0.0042432369587121046 -0.00043043711622522908 -0.51551680663447752 347.31615084299943 0.39388298501007712 3.4090110836447653 -0.61945864858034627 3361.4500000000003 0.49959885218681804 550.75000000000011 -3.0085453997862186
decision_type=2 2 2 2 2 2 2 2 2 2 2 2 2 2 2 2 2 2 2 2 2 2 2 2 2 2 2 2 2 2
left_child=2 4 6 -4 5 -2 7 8 9 10 12 -12 13 15 -14 16 -1 -13 20 -20 25 -9 -6 28 -17 26 -16 -27 -23 -30
right_child=1 -3 3 -5 22 -7 -8 21 -10 -11 11 17 14 -15 18 24 -18 -19 19 -21 -22 23 -24 -25 -26 27 -28 -29 29 -31
leaf_value=-0.035209086715069227 0.091319096667001068 0.091323998522583605 0.089247390827435186 -0.015680372399414021 -0.035453848762745599 -0.0084586272906436288 0.037506944380994903 -0.010376049426513973 0.084611068158807159 0.056063897534725952 0.093417632504156717 0.027139408209311839 0.029921683483018519 0.08045821117797107 -0.035200000406144953 -0.035188265286307689 0.058983857746294013 -0.035279778495608677 0.033835503135317267 -0.035244036884656806 -0.0017041540413087284 -0.035278767154094719 -0.0039950542624333845 -0.035415503280304725 -0.035364163056742254 -0.03517562026178319 -0.035425394538114094 -0.035298863968675508 -0.0352219353642075 -0.035126151779959092
leaf_weight=1.7998774573206895 1.9671084061264994 3.5423098206520072 3.1986647993326178 2.5425934568047523 2.881535291671752 1.8328291401267041 3.4208267554640761 2.0145957842469207 1.6672177016735066 1.6418559104204167 1.5539092868566511 1.5996713712811463 1.5340811237692751 1.7274849712848652 3.3680748715996733 3.2804973423480908 1.5901690125465391 1.9236620813608167 2.1700228229165068 2.5966673418879509 1.4927392899990355 1.633956640958784 1.5938158780336378 2.1397828608751288 1.6164847835898397 13.568181954324244 1.7373490929603574 1.7194954305887211 2.7970850691199285 4.6390180289745349
leaf_count=24 21 39 34 32 35 20 39 27 21 21 20 20 20 22 45 44 20 25 28 34 20 21 20 26 20 183 21 22 37 64
internal_value=-6.13482e-05 0.0320793 -0.00556814 0.0427787 0.00671909 0.0431932 -0.00995783 -0.0126725 -0.00734461 -0.0107576 -0.0132926 0.0237748 -0.0182191 -0.000318341 -0.0245791 -0.0171567 0.008974 -0.00694009 -0.0277161 -0.00379576 -0.0329259 -0.0314417 -0.0242504 -0.0352275 -0.0352463 -0.0352113 -0.0352767 -0.0351895 -0.0351832 -0.0351622
internal_weight=80.7916 11.8176 68.974 5.74126 8.27529 3.79994 63.2327 59.8119 46.5874 44.9202 43.2784 5.07724 38.2011 10.0145 28.1866 8.28703 3.39005 3.52333 26.6525 4.76669 21.8858 13.2244 4.47535 11.2098 4.89698 20.3931 5.10542 15.2877 9.07006 7.4361
internal_count=1025 135 890 66 96 41 824 785 610 589 568 65 503 130 373 108 44 45 353 62 291 175 55 148 64 271 66 205 122 101
is_linear=0
shrinkage=0.05


Tree=11
num_leaves=31
num_cat=0
split_feature=31 6 35 33 32 33 24 22 35 19 30 34 34 4 20 24 30 3 25 8 33 11 24 33 4 8 31 3 30 26
split_gain=6.12821 8.89322 8.82893 7.61122 9.75449 7.13136 11.6541 7.97172 6.01316 8.50407 6.26025 5.81517 12.2976 7.82373 5.48909 5.09983 4.77796 4.2885 6.58645 4.1438 3.95797 3.73562 3.4376 3.79349 3.51815 3.41414 3.36734 3.32509 3.06888 3.41115
threshold=-0.001404350462331357 -0.24127693206100426 3.5000000000000004 1.0000000180025095e-35 0.0001473256814095438 2.5000000000000004 0.18708384131341207 0.0025764410165145433 15.500000000000002 -0.17827934609656046 0.045621884974224966 25.500000000000004 13.500000000000002 -0.0020662013713174739 24.524139667155456 0.2553003454618577 0.057872623553242582 -0.020714248058747147 0.78415049045521623 0.16179892042120381 2.5000000000000004 0.10689773796063536 0.21699581226301126 5.5000000000000009 -0.021519117048024276 -0.20320908147751218 0.05618585822381799 -0.031708306622084424 0.039018753392698315 2342.7500000000005
decision_type=2 2 2 2 2 2 2 2 2 2 2 2 2 2 2 2 2 2 2 2 2 2 2 2 2 2 2 2 2 2
left_child=1 15 -2 4 -4 6 27 -7 9 -9 -11 12 13 -5 26 20 -13 -10 -19 21 -1 25 23 24 -14 -8 28 -3 -15 -30
right_child=2 5 3 11 -6 7 19 8 17 10 -12 16 22 14 -16 -17 -18 18 -20 -21 -22 -23 -24 -25 -26 -27 -28 -29 29 -31
leaf_value=-0.0033792416902359498 -0.043899682194410421 -0.008852112379108051 -0.0028047669664355754 -0.027179118004057413 0.071102807493491405 0.058339236805545536 0.020558366677850652 0.032264804771271367 0.047432349985279315 0.017942562094691219 -0.030957240808674787 0.044554477896304616 0.023708317074404781 0.026494239591078075 -0.02815679972015471 0.062407029880716475 -0.0072914958044007537 -0.0059415431816232343 0.04985286666200292 -0.024850330254049095 0.043062391497355502 0.045908639991449729 -0.039010627116110558 -0.043675690822597542 -0.021651719184833256 -0.018714975311373703 0.046324158518546169 -0.041081433500816666 -0.016875285407203806 0.020721417288036639
leaf_weight=10.377642631530767 14.551745444536207 12.076657742261885 11.113044798374178 17.243331372737885 7.4622332751750937 8.1966658532619459 15.917421847581862 11.126368731260298 11.186282753944395 8.8730622828006727 24.946998506784439 9.3112264871597308 7.7538191080093428 18.993053138256073 7.7525466978549948 9.3566974997520429 8.5007630884647352 18.144373208284382 7.4658967554569236 7.3464283049106589 8.2228714823722822 8.2024530172348005 32.092729061841965 7.6052711009979239 9.5269818007946014 8.483010798692705 8.2123605608940107 23.723503291606903 13.677239537239076 10.794755131006239
leaf_count=28 40 33 30 47 20 22 43 30 30 24 68 25 21 51 21 25 23 49 20 20 22 22 88 21 26 23 22 65 37 29
internal_value=-1.38079e-06 0.00621239 -0.00651997 -0.00332106 0.0268861 0.00181095 -0.00949208 0.0113307 0.00661693 -0.00565328 -0.0181278 -0.00702561 -0.0106022 0.0024724 0.0110757 0.0322976 0.019811 0.0216048 0.0103236 0.00907348 0.0171516 0.0167175 -0.0281959 -0.0142494 -0.00129887 0.00690467 0.0169612 -0.0302093 0.0114134 -0.000291137
internal_weight=378.237 193.646 184.591 170.039 18.5753 165.689 75.7495 89.9396 81.743 44.9464 33.8201 151.464 133.652 76.6733 59.43 27.9572 17.812 36.7966 25.6103 39.9493 18.6005 32.6029 56.9788 24.8861 17.2808 24.4004 51.6774 35.8002 43.465 24.472
internal_count=1025 524 501 461 50 449 206 243 221 122 92 411 363 207 160 75 48 99 69 108 50 88 156 68 47 66 139 98 117 66
is_linear=0
shrinkage=0.05


Tree=12
num_leaves=31
num_cat=0
split_feature=34 0 34 34 2 35 35 31 2 14 23 2 1 13 34 1 0 4 32 28 6 31 2 35 34 11 23 2 0 31
split_gain=5.59938 8.13419 6.09472 5.67991 7.62767 6.92635 6.62337 9.32057 8.256 8.22649 6.24546 4.87243 4.86942 4.65561 4.9359 6.10653 4.74501 4.71629 4.39247 4.10571 4.03404 4.00989 3.72243 4.23483 3.67844 3.6665 3.50667 3.3685 3.31078 3.88964
threshold=6.5000000000000009 0.013066830719954558 28.500000000000004 24.500000000000004 -0.12304751081204324 3.5000000000000004 12.500000000000002 -0.047917612034492831 -0.0072535261209232937 -0.0023092636319892641 0.078760946580208005 -0.028032401931284097 -0.013251485855862759 -0.0059950807242063137 3.5000000000000004 -0.0097587751008037481 0.00072389321460790011 0.0027621743664751086 0.00059745792303939375 -0.060674008599642705 -1.0000000180025095e-35 -0.01924840957140362 -0.047569761128059315 6.5000000000000009 5.5000000000000009 0.10316386584205298 0.053402244854526541 0.062838643419440801 0.00039075108876086704 -0.011239648362594746
decision_type=2 2 2 2 2 2 2 2 2 2 2 2 2 2 2 2 2 2 2 2 2 2 2 2 2 2 2 2 2 2
left_child=13 3 22 4 -2 10 8 -8 9 -6 21 19 -7 -1 15 -15 -17 -16 25 -9 -11 -5 -3 27 -19 28 -20 -24 29 -13
right_child=1 2 -4 5 6 12 7 11 -10 20 -12 18 -14 14 17 16 -18 24 26 -21 -22 -23 23 -25 -26 -27 -28 -29 -30 -31
leaf_value=-0.045583626816854295 -0.047444161162494267 0.044063346891193705 0.054758809229721143 0.014174729460349894 -0.038861375724888569 -0.0093518787360115669 0.051280276377267169 -0.04002350340296764 0.047213337264172241 0.03764216370764692 0.038716421609497585 0.019846715961500366 -0.057044873575745392 0.037942798215525729 0.0096395432037722668 -0.040951463183491285 0.0094097390876650266 -0.046415003218064993 -0.041878800159090936 0.002537017002514986 -0.0026596418812303122 -0.03199844172823637 -0.035347810900576808 0.014098940394449208 -0.005795923508334605 -0.019963513561255516 -0.00037144995588999247 0.0095419141060215686 0.034218946822016802 -0.016273948852955779
leaf_weight=9.2301417887210828 7.4168991744518271 7.8087299764156333 8.8775205314159376 7.4755825102329299 8.1661357283592206 8.9440144002437609 7.4664365649223319 16.717519044876102 17.428338050842285 13.387674897909164 7.4478046894073477 17.440046995878216 13.325727641582487 10.456305235624315 9.2540654838085157 7.4124845862388637 12.67488247156143 15.981010526418686 9.6269038915634173 8.572025537490843 11.579798221588135 12.674067437648773 8.9362581968307513 59.168066620826721 8.5587429702281952 10.042623132467268 10.793492615222929 7.850395292043685 13.419552654027937 13.015297532081609
leaf_count=25 20 21 24 20 22 24 20 45 47 36 20 47 36 28 25 20 34 43 26 23 31 34 24 159 23 27 29 21 36 35
internal_value=1.60171e-05 0.00297987 0.0153651 -0.00235828 0.00210909 -0.0171464 0.00444032 -0.00260149 0.0193554 0.00470204 -0.000407056 -0.00663958 -0.0378903 -0.0123756 -0.00761147 0.00695583 -0.00917416 -0.0207777 -0.000190187 -0.0255974 0.0189504 -0.0148681 0.01119 0.00781041 -0.0322483 0.00728955 -0.0199395 -0.0143548 0.0135276 0.00441031
internal_weight=381.149 307.581 92.641 214.94 165.073 49.8672 157.656 107.094 50.5619 33.1336 27.5975 99.6275 22.2697 73.5676 64.3375 30.5437 20.0874 33.7938 74.3379 25.2895 24.9675 20.1496 83.7635 75.9547 24.5398 53.9175 20.4204 16.7867 43.8749 30.4553
internal_count=1025 827 249 578 444 134 424 288 136 89 74 268 60 198 173 82 54 91 200 68 67 54 225 204 66 145 55 45 118 82
is_linear=0
shrinkage=0.05


Tree=13
num_leaves=31
num_cat=0
split_feature=26 15 35 0 1 26 20 8 28 34 28 8 7 24 12 0 26 24 7 20 34 10 34 4 4 7 12 26 7 0
split_gain=5.16108 6.16769 5.34404 7.45649 4.12652 5.49327 3.24297 5.25146 2.4373 5.34226 1.93028 4.56408 2.14262 1.81349 4.5419 1.98092 1.62121 1.25225 1.18336 0.713872 1.7172 0.452471 0.000127369 1.50472e-05 1.07219e-05 8.62599e-06 7.19454e-06 5.83029e-06 6.735e-06 5.77438e-06
threshold=13580.800000000001 -0.024563427427448239 28.500000000000004 -0.0031602918216062834 0.010296190420340365 15876.825000000003 2.8228638892545503 0.043918147356163402 -0.62765968114150494 25.500000000000004 0.048597800598695472 0.13796423555027568 -0.52177864423654274 0.1482344131731467 -0.0027865139550084998 0.080321205931227588 3588.9250000000006 0.45893923727183333 -0.15640402597892561 0.91105927429471578 16.500000000000004 0.081371448285534317 29.500000000000004 -0.098467833138512012 0.0027621743664751086 0.35963648955719113 0.0119618203812932 5967.0250000000005 -0.42580602378039711 -0.0061542029906670936
decision_type=2 2 2 2 2 2 2 2 2 2 2 2 2 2 2 2 2 2 2 2 2 2 2 2 2 2 2 2 2 2
left_child=2 -2 6 -4 21 -6 8 -8 9 16 12 -12 -10 14 -14 17 -1 19 24 22 -21 -3 23 -15 29 26 27 28 -25 -16
right_child=1 4 3 -5 5 -7 7 -9 10 -11 11 -13 13 15 18 -17 -18 -19 -20 20 -22 -23 -24 25 -26 -27 -28 -29 -30 -31
leaf_value=-0.035137328539224737 0.083013220044761166 -0.035456778943333676 -0.035233439705786095 0.081587926111611378 -0.010560660930317899 0.11196347706435217 0.075054601904030738 -0.035204073750839865 0.026390933578964 0.080148103368016393 0.075016852286365829 -0.035129165857244668 0.064667473645616813 -0.035076824251564893 -0.035168375115688343 0.027819103335993536 0.026304393886466815 0.0046899805631639008 0.0088584822003364653 -0.035176543703700242 0.028979583998123816 -0.002329968260425619 -0.035567543545054169 -0.035216905018204549 -0.035265624586898782 -0.035260419604021931 -0.035245284520886239 -0.035232087081522763 -0.03511809002106149 -0.035030601678741183
leaf_weight=3.1925600022077552 3.7755818963050833 3.2098157554864866 2.1241428107023239 3.8267113268375388 1.9897451698780062 1.6933239325881002 2.712885580956935 1.7941173613071439 2.4253028258681217 2.1621508225798607 1.8104775622487062 1.9572123959660528 2.0006669461727142 5.9324088767170862 1.6926899924874306 1.5831205695867527 1.6176033690571783 2.5004370063543311 2.2641585096716934 3.1797065883874884 1.5521237403154371 1.5184153541922567 1.9335165098309506 2.0321927890181533 1.613915793597698 2.2273577749729148 1.9850876554846753 1.6714457273483265 11.384203098714371 1.3810202218592167
leaf_count=44 35 39 28 38 22 19 32 24 29 26 22 27 26 84 23 20 19 32 29 43 19 20 22 27 21 29 26 22 158 20
internal_value=-6.05642e-05 0.0299218 -0.00539029 0.0398888 0.0060906 0.0457709 -0.00969416 0.0311636 -0.0128637 0.014868 -0.0166455 0.017799 -0.0193857 -0.0218565 -0.00171884 -0.0268669 -0.0144752 -0.0293837 -0.0208243 -0.0320547 -0.0141322 -0.0248185 -0.0351764 -0.0351465 -0.0351613 -0.0351679 -0.0351558 -0.035144 -0.0351331 -0.0351065
internal_weight=80.7441 12.1869 68.5572 5.95085 8.4113 3.68307 62.6064 4.507 58.0994 6.97231 51.127 3.76769 47.3594 44.9341 8.95245 35.9816 4.81016 34.3985 6.95178 31.898 4.73183 4.72823 27.1662 25.2327 4.68763 19.3003 17.0729 15.0878 13.4164 3.07371
internal_count=1025 135 890 66 100 41 824 56 768 89 679 49 630 601 119 482 63 462 93 430 62 59 368 346 64 262 233 207 185 43
is_linear=0
shrinkage=0.05


Tree=14
num_leaves=31
num_cat=0
split_feature=21 27 34 13 32 33 13 27 4 14 7 10 8 30 13 31 34 32 34 12 31 19 28 32 8 27 32 31 21 30
split_gain=6.16239 5.92556 6.23285 7.58826 7.2139 7.8555 5.77533 5.33032 5.17358 6.49865 5.38866 4.90215 5.63593 4.62795 6.23936 5.70268 4.6118 4.46598 4.21126 4.95966 4.09539 3.96551 3.85787 3.53436 3.4795 3.37686 3.30254 3.61932 3.26918 2.69586
threshold=36.136856963438312 0.50514744599100803 13.500000000000002 0.0027406116592970944 0.00031304104602231797 1.0000000180025095e-35 -0.0056892753029679248 1.8034744626698378 0.18492049473654154 -0.0024359643374436274 -0.11827988450175568 -0.07387522341089349 -0.14449338187033037 0.10326563083287983 -0.0039988179076815749 -0.0010835467077699578 16.500000000000004 -1.9009402392532466e-05 6.5000000000000009 0.0046084571396112148 -0.008360448923878697 -2.0818307950220802 -0.59030354922387474 0.0013506487539386568 -0.42133869485294112 0.80489655070611388 -1.0642644175622862e-05 -0.022127464007770825 71.330973426494381 0.040949534822433804
decision_type=2 2 2 2 2 2 2 2 2 2 2 2 2 2 2 2 2 2 2 2 2 2 2 2 2 2 2 2 2 2
left_child=13 11 3 6 8 -6 -3 16 9 22 -11 -2 -13 14 15 -1 -7 24 -19 -20 -18 -16 -4 28 -8 -12 27 -27 -5 -26
right_child=1 2 4 23 5 7 17 -9 -10 10 25 12 -14 -15 21 -17 20 18 19 -21 -22 -23 -24 -25 29 26 -28 -29 -30 -31
leaf_value=0.03703590072760695 -0.010750670738418195 0.037318386898780136 -0.020885974407339025 0.045862760271802437 0.047626310673492586 0.018993650881080168 0.0015276215084633938 0.033267404916647009 -0.050789735093097754 -0.036939257624816188 -0.035917271857239245 0.048224221259419373 0.0041580941960960727 0.042378190730322042 0.0071232144699783203 -0.010901383395389139 0.00050254564479197022 0.021036879654549659 0.0036302149146298316 -0.044540848740861956 -0.040987363525003782 -0.044754313034123104 0.021727339165685894 -0.0081546290919892166 -0.052015533769722101 -0.016623023093041787 -0.028181623041890931 0.025575168374397418 0.011709398966213499 -0.018501769673221972
leaf_weight=19.041016012430191 12.918680071830748 7.4262838065624228 7.9909314215183285 15.689332097768785 8.5600898563861829 8.1138623952865583 11.042660415172575 7.3879484832286826 11.44979667663574 34.688554644584656 9.4313401877880079 14.567381083965302 14.456957191228867 12.355730742216108 7.3948491811752319 9.2023411095142347 9.8965887129306775 17.410426080226898 17.720086634159092 7.6503559052944174 14.906023114919664 7.3400421440601367 15.838377296924589 7.4186092615127555 10.153192043304445 8.3995060324668867 8.3640741705894488 12.862852275371553 12.660876810550688 14.671319097280501
leaf_count=51 35 20 22 42 23 22 30 20 32 96 26 39 39 33 20 25 27 47 48 21 41 20 43 20 28 23 23 35 34 40
internal_value=-3.22188e-06 -0.0026545 -0.00528224 0.00321383 -0.0118386 0.00412549 -0.00482987 -0.00511347 -0.0189937 -0.0152626 -0.0225975 0.0148709 0.026275 0.0154096 0.00765642 0.0214168 -0.0137279 -0.00880969 0.0020999 -0.0108956 -0.0244323 -0.0187191 0.00743737 0.0225703 -0.0218222 -0.00986018 -0.00156511 0.00890515 0.0306103 -0.0322089
internal_weight=377.01 321.676 279.733 121.843 157.89 48.8645 86.0743 40.3044 109.025 97.5756 73.7463 41.943 29.0243 55.334 42.9782 28.2434 32.9165 78.648 42.7809 25.3704 24.8026 14.7349 23.8293 35.7688 35.8672 39.0578 29.6264 21.2624 28.3502 24.8245
internal_count=1025 876 763 330 433 133 234 110 300 268 203 113 78 149 116 76 90 214 116 69 68 40 65 96 98 107 81 58 76 68
is_linear=0
shrinkage=0.05


Tree=15
num_leaves=31
num_cat=0
split_feature=6 33 12 33 27 30 34 33 34 27 12 25 35 31 0 33 6 11 34 27 14 27 31 30 30 27 15 28 26 30
split_gain=5.0339 8.02549 7.573 5.24394 5.58394 4.63899 6.09902 4.94663 4.58891 5.11593 4.88776 5.76538 4.53489 5.94108 4.34631 4.40204 7.37791 6.07925 4.83543 4.73683 6.01038 5.53316 4.14824 4.0865 2.87335 4.48984 2.47521 2.39149 3.83431 2.657
threshold=-0.21503754007453174 2.5000000000000004 -0.0069714479459472819 5.5000000000000009 0.47491933864168673 0.026585087854867153 17.500000000000004 4.5000000000000009 18.500000000000004 2.1867974721568841 0.0007628966366043981 0.78734400963577411 17.500000000000004 0.005839022292991383 -0.040087826491233901 3.5000000000000004 0.30818642871912205 0.14835662419477397 15.500000000000002 1.5578579797865879 -0.0029808156282216322 0.94069648948682016 -0.0081028196980027535 0.066104477920271867 0.044366797444790419 1.3339431344651469 0.068203243634024427 -0.0054974439869125624 4371.1500000000005 0.061628960198108554
decision_type=2 2 2 2 2 2 2 2 2 2 2 2 2 2 2 2 2 2 2 2 2 2 2 2 2 2 2 2 2 2
left_child=1 2 -1 5 -5 7 14 -2 -8 10 24 23 13 -3 -7 16 18 -17 19 20 -16 -22 -4 -12 -10 -26 -18 28 29 -6
right_child=3 12 22 4 27 6 8 -9 9 -11 11 -13 -14 -15 15 17 26 -19 -20 -21 21 -23 -24 -25 25 -27 -28 -29 -30 -31
leaf_value=-0.026036181935071054 0.034863638933261831 -0.033160169240894134 0.0043732883137468292 -0.019564032583084472 0.050913790108624096 0.024944251621934806 0.038151125410578413 -0.0078885465953657998 -4.9841945320134413e-05 -0.036930628101519772 -0.029367736812713457 0.021987729424753896 -0.046597466245533993 0.021492614681227533 -0.038939165548292187 -0.04023431996108167 -0.054087770778576787 0.008719558787240695 -0.034736337571055258 0.039917990401576189 0.019058557100367617 -0.0201490692312928 0.050862474580139365 0.007246481331509888 0.039277168392072931 -0.0035825404276170121 -0.017375577936067883 0.047357250006419188 -0.0076299020430232525 0.010737925164505684
leaf_weight=11.084452629089357 18.215594917535782 12.796828448772432 10.404137939214708 7.8038838505744925 9.2457650899887138 8.5262781977653486 10.359237819910048 10.764301031827928 14.427432388067244 7.3603952229022971 21.208934098482132 14.078433126211165 17.161626070737839 8.1327894926071149 8.1656689047813327 24.473502814769745 8.4667276740074175 8.5600223839282972 8.1757068037986738 8.9022418558597547 31.272248476743705 12.633948743343351 8.9058667421340925 11.89448297023773 21.503902137279514 8.5359697043895704 10.030531942844389 10.364825427532194 8.8918046057224256 7.4162781536579123
leaf_count=30 49 35 28 21 25 23 28 29 39 20 57 38 47 22 22 66 23 23 22 24 84 34 24 32 58 23 27 28 24 20
internal_value=1.66926e-05 -0.012256 0.00690514 0.00271686 0.0187707 9.34264e-05 -0.00220119 0.0189838 0.00648808 0.00317521 0.00639614 -0.00481356 -0.0275454 -0.0119233 -0.00955633 -0.0119939 -0.00613129 -0.0275488 0.00137156 0.00621308 0.000450863 0.00777662 0.0258143 -0.0162118 0.0182901 0.0270984 -0.0341798 0.0270995 0.0188828 0.0330315
internal_weight=379.764 68.4857 30.3945 311.278 43.7226 267.556 238.576 28.9799 109.369 99.0095 91.6492 47.1819 38.0912 20.9296 129.207 120.681 87.6471 33.0335 69.1498 60.9741 52.0719 43.9062 19.31 33.1034 44.4673 30.0399 18.4973 35.9187 25.5538 16.662
internal_count=1025 186 82 839 118 721 643 78 295 267 247 127 104 57 348 325 236 89 186 164 140 118 52 89 120 81 50 97 69 45
is_linear=0
shrinkage=0.05


Tree=16
num_leaves=31
num_cat=0
split_feature=26 30 18 2 3 20 4 1 10 7 15 0 2 24 1 32 12 4 26 1 23 20 34 15 11 3 24 10 9 11
split_gain=4.69877 5.71518 5.89734 3.83075 5.04869 5.33977 7.58224 10.6784 13.3312 4.01407 3.59714 3.08493 3.04431 1.96572 1.80445 1.75213 0.75307 1.40886 0.591413 0.588529 0.487856 0.453106 0.384336 5.86166e-05 4.82339e-05 3.76784e-05 2.94396e-05 2.66258e-05 2.33532e-05 1.87573e-05
threshold=13580.800000000001 0.06377004516058056 -94.986518949561273 -0.047569761128059315 0.038770567308363695 0.0014482343478139034 0.0034667521134217013 0.0062973179567278733 -0.013696041059344766 0.47025876485803292 0.13869275853192245 0.024132080912543229 0.036828112006873456 0.47037609190431223 0.033453688413274306 -0.00053863684899821602 -0.0025108184198494349 -0.050185246300465634 450.92500000000001 -0.0076535627911186593 0.051951082955638356 56.347368402251483 12.500000000000002 -0.015705821466487177 0.085315182048355462 -0.025030635157548903 0.18556919889017895 0.11308963280634492 0.092315511316859666 -0.33311462679248044
decision_type=2 2 2 2 2 2 2 2 2 2 2 2 2 2 2 2 2 2 2 2 2 2 2 2 2 2 2 2 2 2
left_child=3 2 -2 19 5 9 15 8 -8 12 13 22 14 18 16 -7 25 -18 -6 -1 -19 24 -9 -17 -4 -5 -22 -20 -29 -27
right_child=1 -3 21 4 10 6 7 11 -10 -11 -12 -13 -14 -15 -16 23 17 20 27 -21 26 -23 -24 -25 -26 29 -28 28 -30 -31
leaf_value=-0.035080749519379992 0.055181905084265008 0.084411391178915482 -0.035529812749202 -0.035161853545897764 -0.0025340709813575519 0.028146518636618597 0.20858655715833763 -0.001307291312506075 0.044402334116083721 0.06161136945846344 0.047048645002504885 0.066319974494953846 0.036497851852472618 0.025080964882957291 0.032757939925537626 -0.035156860917295134 0.028829106116866395 -0.0012017008315216543 -0.035102574522783127 -0.0013061365381472746 -0.035480372936267233 -0.0034121680754302937 -0.035365631100191072 -0.035566911009581446 -0.035171180448427326 -0.035266872647280123 -0.03519183149006571 -0.035401468458097461 -0.035179541554871935 -0.035477213285453356
leaf_weight=10.481298811733721 3.8338506147265425 3.3142218068242064 2.10280629992485 4.1050384193658829 1.5330396369099712 1.5740813985466955 2.0430990755558014 1.470802713185549 3.1311873048543912 2.0544558092951766 1.8135021626949299 1.4703659899532793 2.7782982215285292 1.6555514931678761 1.4711305834352959 1.8946967162191866 1.5614667832851408 1.4713379889726717 8.7582999281585199 1.4708106219768513 2.0681671425700192 1.5672238320112226 1.8962870277464388 1.6139261014759534 1.6918821409344671 2.0743355825543404 1.5439382903277872 1.6193625479936589 4.4234730415046215 2.1673012226819992
leaf_count=149 37 30 25 56 21 20 20 19 39 23 20 17 34 21 20 26 21 20 123 19 25 20 24 19 23 27 21 20 60 26
internal_value=-4.89609e-05 0.0281177 0.00782901 -0.00521974 0.000247577 0.0113035 0.0340532 0.0593027 0.109231 -0.00482172 -0.0200685 0.00589741 -0.0119151 -0.0268345 -0.0200854 -0.0156824 -0.025271 -0.0127113 -0.0320963 -0.0309245 -0.0254712 -0.026029 -0.0204884 -0.0353455 -0.0353699 -0.0352698 -0.035357 -0.0351583 -0.035239 -0.0353743
internal_weight=80.6552 12.51 9.19576 68.1453 56.1931 36.3899 15.0944 10.0117 5.17429 21.2955 19.8032 4.83746 19.241 17.9897 16.4627 5.0827 14.9916 6.64491 16.3342 11.9521 5.08344 5.36191 3.36709 3.50862 3.79469 8.34668 3.61211 14.8011 6.04284 4.24164
internal_count=1025 135 105 890 722 457 184 119 59 273 265 60 250 245 216 65 196 87 224 168 66 68 43 45 48 109 46 203 80 53
is_linear=0
shrinkage=0.05


Tree=17
num_leaves=31
num_cat=0
split_feature=21 27 34 13 32 1 27 13 34 35 0 23 22 2 30 35 10 14 30 13 31 32 34 2 19 5 1 2 1 0
split_gain=5.67957 5.42551 5.66051 7.01927 6.60442 7.1587 5.47876 5.19465 4.86331 7.47748 6.00677 5.07965 4.87913 4.83715 4.76911 4.58907 4.52608 4.75192 4.13156 5.70364 5.258 3.95613 4.1269 3.76675 3.63933 3.3729 3.14112 3.78459 3.0371 4.51685
threshold=36.136856963438312 0.50514744599100803 13.500000000000002 0.0027406116592970944 0.00031304104602231797 0.040829289562568129 0.79012638092767651 -0.0056892753029679248 25.500000000000004 3.5000000000000004 -0.0019944447556488943 0.082498661372803525 0.0025764410165145433 -0.035189650800735717 0.055434321317019968 26.500000000000004 -0.07387522341089349 -0.00061089829212086159 0.10326563083287983 -0.0039988179076815749 -0.0010835467077699578 -1.9009402392532466e-05 6.5000000000000009 0.040629722733650168 -2.0818307950220802 0.089152600736486662 0.0021328410639859423 0.02645802334564849 -0.014588154522212257 -0.033975301559264322
decision_type=2 2 2 2 2 2 2 2 2 2 2 2 2 2 2 2 2 2 2 2 2 2 2 2 2 2 2 2 2 2
left_child=18 16 3 7 8 6 -6 -3 11 10 -10 12 -4 -9 -8 23 -2 -18 19 20 -1 26 -23 -5 -21 -24 -15 -28 29 -14
right_child=1 2 4 15 5 -7 14 13 9 -11 -12 -13 28 21 -16 -17 17 -19 -20 24 -22 22 25 -25 -26 -27 27 -29 -30 -31
leaf_value=0.035639857830992792 -0.010429260492147664 0.035204451887280268 0.0038486060888429036 0.051219754080027297 -0.040420030915510968 0.033414379621636479 0.0323213696159435 0.02466279517735024 0.006806726300512266 0.033241327711889521 -0.048796555597286191 0.010141276361149342 -0.055386109824249512 -0.045147656996054733 -0.013117850722773883 -0.012283576887152679 0.042882562326646154 0.0020513981877580147 0.04031935186852368 0.0068573925875967797 -0.010457894823370888 0.017474567904873811 -0.0019559084953708378 0.014356583712417759 -0.042989956515962845 -0.043170287119799824 0.012507773182391081 -0.033257908383123799 -0.044477625372343926 -0.0085725310467325271
leaf_weight=18.998112231492996 12.896233111619948 7.4362988173961631 9.5084362030029279 12.692448407411577 9.6649700701236707 14.474620670080183 9.2688948214054125 9.6323824822902662 10.341610223054889 10.369025111198424 9.1586953401565552 9.1940296590328199 7.1569420993328121 12.95448297262192 15.317011326551436 7.7983825206756583 16.42767134308815 12.584185570478441 12.329044580459593 7.3916908204555511 9.1724729537963849 15.561419188976286 14.381580054759981 15.263200044631956 7.2561849057674426 7.5809004604816428 8.1133030652999896 10.191907078027723 34.122355580329895 18.399267345666885
leaf_count=51 35 20 26 34 27 39 25 26 28 28 26 25 20 36 42 21 44 34 33 20 25 42 39 41 20 21 22 28 96 51
internal_value=-6.3632e-06 -0.00255671 -0.00507993 0.00301773 -0.011353 0.00393345 -0.00852537 -0.00473446 -0.0182338 -0.00106598 -0.0193084 -0.024776 -0.0294161 -0.00852192 0.00401275 0.0216322 0.0142163 0.0251716 0.014815 0.00747131 0.0206302 -0.0131691 -0.00222444 0.0310932 -0.0178357 -0.0161821 -0.0263069 -0.0129735 -0.0347161 -0.0216825
internal_weight=375.638 320.49 278.582 121.606 156.976 48.7255 34.2509 85.8523 108.25 29.8693 19.5003 78.381 69.187 78.416 24.5859 35.754 41.9081 29.0119 55.1475 42.8185 28.1706 68.7836 37.5239 27.9556 14.6479 21.9625 31.2597 18.3052 59.6786 25.5562
internal_count=1025 876 763 330 433 133 94 234 300 82 54 218 193 214 67 96 113 78 149 116 76 188 102 75 40 60 86 50 167 71
is_linear=0
shrinkage=0.05


Tree=18
num_leaves=31
num_cat=0
split_feature=3 34 27 31 14 1 2 0 31 11 34 21 12 24 34 0 25 23 34 27 29 2 8 2 2 31 7 3 31 14
split_gain=4.8415 5.39518 11.0746 6.57339 6.71657 6.24611 5.25241 5.26162 4.62285 4.36352 4.59846 4.06666 5.28898 4.761 4.5523 3.76448 4.03813 3.81156 5.7859 3.74107 5.4073 3.33405 3.27582 3.1626 3.00946 2.7899 3.38762 2.73634 2.68379 2.62151
threshold=0.097734354950364546 7.5000000000000009 0.94069648948682016 0.0042318292123912924 -0.0033244773300934714 -0.0097587751008037481 -0.14561054998025852 -0.022649608987891964 -0.001404350462331357 -0.36187037896268642 14.500000000000002 46.718704652643702 0.0044600019232998887 0.28674871515617179 23.500000000000004 -0.018826642025580646 0.15119142788869552 0.069130639507756539 24.500000000000004 1.7570574087966564 56.434551950763776 0.002613110892597202 -0.058163157133276702 0.021980040193386407 -0.0096642571258165715 0.00612714809959858 0.22486463729798831 0.00093751637690895099 -0.019541203316226712 0.00098896115640402169
decision_type=2 2 2 2 2 2 2 2 2 2 2 2 2 2 2 2 2 2 2 2 2 2 2 2 2 2 2 2 2 2
left_child=1 2 5 4 21 28 -6 9 -7 -8 -11 14 27 -14 -5 -9 -17 18 -18 25 -21 -3 23 -10 -16 -2 -27 -13 -1 -12
right_child=19 3 -4 11 6 8 7 15 22 10 29 12 13 -15 24 16 17 -19 -20 20 -22 -23 -24 -25 -26 26 -28 -29 -30 -31
leaf_value=-0.0017895610136414745 0.0047778433696379907 -0.037006266177850237 -0.046458165133601605 0.038393801083341852 -0.040212333719796538 -0.044411380652557675 -0.021866562258726852 -0.038648953703805562 0.0044603684775064286 -0.011502676355232194 0.020863025237546406 -0.032103420132329599 0.036913494408547513 -0.0052757180911140924 -0.017694279013715522 0.023484882762082472 0.0062348665449307276 -0.039097618701615551 -0.041573465893953998 0.024978783008121813 -0.032724326741121239 0.0015184136612187748 0.016467104240083848 -0.038766610802513535 0.025855334709217411 0.049936474665370684 0.0091835535700527469 0.002176334045762895 0.037427516341925218 0.054056263418111442
leaf_weight=7.3391707837581661 12.198356330394743 20.928355604410175 19.428313195705414 23.238245189189911 7.6518932878971091 9.4834958612918836 7.3546386063098899 8.0923825204372388 8.1129769086837786 9.5833317935466749 31.129903554916382 11.438819825649263 14.806331604719164 12.194565236568449 8.091576009988783 12.143969386816023 34.747915506362915 8.5298339426517469 7.7378061413764945 7.7531437873840359 8.5231492817401868 7.675915151834487 11.520791202783586 8.843721389770506 7.7823683321475974 13.595159083604814 8.160162687301634 11.854604750871657 10.756217449903486 7.3533615767955771
leaf_count=20 33 57 53 63 21 26 20 22 22 26 84 31 40 33 22 33 94 23 21 21 23 21 31 24 21 37 22 32 29 20
internal_value=1.56347e-05 -0.00219924 -0.013927 0.00130905 -0.00466901 -0.00265216 1.56835e-05 0.00244572 -0.0141755 0.0140001 0.0194881 0.0122031 0.00279938 0.0178593 0.0242954 -0.00654154 -0.00242775 -0.0085961 -0.00247233 0.0144707 -0.00523769 -0.0266682 -0.00410641 -0.0180845 0.00365638 0.0239183 0.0346505 -0.0146576 0.0215218 0.0272056
internal_weight=378.05 327.821 75.4847 252.336 162.929 56.0564 134.325 126.673 37.961 55.4212 48.0666 89.4065 50.2943 27.0009 39.1122 71.2519 63.1595 51.0156 42.4857 50.23 16.2763 28.6043 28.4775 16.9567 15.8739 33.9537 21.7553 23.2934 18.0954 38.4833
internal_count=1025 889 205 684 442 152 364 343 103 150 130 242 136 73 106 193 171 138 115 136 44 78 77 46 43 92 59 63 49 104
is_linear=0
shrinkage=0.05


Tree=19
num_leaves=31
num_cat=0
split_feature=26 32 35 31 32 32 17 27 30 6 13 14 30 26 7 33 27 19 32 28 32 28 20 35 15 20 13 28 16 33
split_gain=4.31141 5.21873 4.89824 4.93693 7.04555 3.16552 4.09483 3.03989 6.02466 6.53355 2.68262 6.66822 6.91548 4.73483 2.09592 3.78725 0.723373 2.24595 0.642554 1.73006 0.585849 0.382338 0.376596 9.29949e-05 7.07355e-05 5.33779e-05 3.46867e-05 3.01517e-05 2.19095e-05 2.14609e-05
threshold=13580.800000000001 1.08276042629423e-05 27.500000000000004 -0.002301865406341877 -1.0000000180025095e-35 -1.238478600514107e-05 10.570627847799161 0.67477057091493964 0.035090551931966023 -0.16227535130355733 0.0016260597067352701 -0.0035734950807244079 0.061628960198108554 978.35000000000014 -0.43004338786676566 2.5000000000000004 1.2485053021132506 -0.96100354309809 -0.00067452954303666597 -0.44271705525878641 0.0025800101527404299 -0.45171659092820743 28.353660809493864 3.5000000000000004 0.12732035762836449 1.8857068343574432 -0.0052568421091473165 -0.60647684137057822 0.010350022630215986 5.5000000000000009
decision_type=2 2 2 2 2 2 2 2 2 2 2 2 2 2 2 2 2 2 2 2 2 2 2 2 2 2 2 2 2 2
left_child=2 5 7 21 -5 6 -2 18 9 -9 14 -12 13 -13 15 -10 23 -18 19 -1 24 -4 -7 -16 -14 27 -20 -25 -21 -28
right_child=1 -3 3 4 -6 22 -8 8 10 -11 11 12 20 -15 16 -17 17 -19 26 28 -22 -23 -24 25 -26 -27 29 -29 -30 -31
leaf_value=0.030578958891144106 0.086746247859907935 0.072902067793786954 -0.03514736096072392 0.11983769940321967 0.0028071532810011127 -0.035881280732024172 -0.012212854185070929 0.10645502121071858 -0.03529817636531915 -0.012370406762241217 0.093064175308095132 0.1117649477142184 -0.035130362706559913 0.0039428616860039565 -0.035547651407464603 0.05877434155920739 0.022245169959027086 -0.035027323228906573 -0.035350217501361712 -0.035030053392805731 -0.00061575489809463169 0.00021942373758580621 -0.0059812588400449951 -0.035276603485443619 -0.035508829809629154 -0.035424987468503061 -0.035160489216654565 -0.035050823921790715 -0.035303966474492098 -0.034967652982692186
leaf_weight=1.5180782005190847 2.0323325917124739 4.1227060183882704 1.6700728274881842 2.5617010295391083 2.5825637206435186 2.7951701357960692 2.1525515243411064 2.4601011723279953 2.1590992808341936 2.183679122477769 1.9439617916941632 1.6963486522436131 6.4101004675030691 2.5469052642583847 1.7501152530312634 2.1208001673221588 2.6063379123806953 4.9873840399086466 2.0595416799187651 1.3693395890295499 1.447520740330219 1.4088172279298303 1.6897308230400083 1.9194956123828824 1.5290887057781217 1.5177406854927529 7.5052656531333906 6.4393362514674708 1.5637034997344015 1.786189194768667
leaf_count=20 19 39 23 25 27 30 27 28 28 29 23 20 89 33 21 26 35 73 26 20 20 19 20 25 18 19 103 93 20 27
internal_value=-3.13212e-05 0.0265907 -0.00505856 0.0311132 0.0610851 0.00456844 0.0358453 -0.010056 -0.00326244 0.0505789 -0.00966122 0.00643197 -0.00592388 0.0470475 -0.0203264 0.0113172 -0.0273726 -0.0153701 -0.0288509 -0.01275 -0.0298695 -0.0189645 -0.0246162 -0.0352117 -0.0352033 -0.0351522 -0.0351646 -0.0351027 -0.0351761 -0.0351234
internal_weight=80.5358 12.7925 67.7433 8.22315 5.14426 8.66979 4.18488 59.5201 43.718 4.64378 39.0742 15.5739 13.63 4.24325 23.5003 4.2799 19.2204 7.59372 15.8021 4.45112 9.38671 3.07889 4.4849 11.6267 7.93919 9.87657 11.351 8.35883 2.93304 9.29145
internal_count=1025 135 890 94 52 96 46 796 580 57 523 203 180 53 320 54 266 108 216 60 127 42 50 158 107 137 156 118 40 130
is_linear=0
shrinkage=0.05


Tree=20
num_leaves=31
num_cat=0
split_feature=31 35 33 11 16 15 2 33 32 30 27 34 34 2 4 20 32 3 5 25 35 8 31 31 3 27 25 4 30 26
split_gain=4.82332 7.13521 6.99946 7.85602 7.80091 6.68328 7.43028 6.44109 8.52029 5.76051 5.88044 5.13543 9.85438 8.853 6.50115 4.80638 4.79972 4.23756 5.07662 4.41224 3.88073 3.42641 2.97807 2.90498 2.83864 2.7356 2.99927 7.49441 2.6993 2.88724
threshold=-0.001404350462331357 3.5000000000000004 2.5000000000000004 -0.1476965998341849 -0.10260886751242103 0.021225356251961511 0.027899119066819817 1.0000000180025095e-35 0.0001473256814095438 0.097280510198126627 0.82104205846027922 25.500000000000004 13.500000000000002 0.03471818490842607 -0.0020662013713174739 24.524139667155456 0.00031304104602231797 -0.031708306622084424 0.059253838631895699 0.10539984699279881 15.500000000000002 -0.5275263971877322 -0.022350712324282509 0.05618585822381799 -0.010815819899340435 0.54679690732696662 0.91762777667863826 0.19441584939211784 0.039018753392698315 3256.5000000000005
decision_type=2 2 2 2 2 2 2 2 2 2 2 2 2 2 2 2 2 2 2 2 2 2 2 2 2 2 2 2 2 2
left_child=2 -2 4 21 -1 17 -7 8 -3 10 16 12 14 -13 24 23 -5 19 -19 -6 -12 -4 -21 28 -9 -14 -27 -28 -16 -30
right_child=1 7 3 9 5 6 -8 11 -10 -11 20 13 25 -15 15 -17 -18 18 -20 22 -22 -23 -24 -25 -26 26 27 -29 29 -31
leaf_value=0.034410084736220752 -0.040101788722370239 -0.0030533493539803246 0.056520758375817465 0.0080813038405373981 -0.032845641186514181 0.050402377046297457 -0.016041434754615995 -0.0038285331698722615 0.066076639082580088 -0.037630032538614938 0.0071725515035577329 0.052453037545142869 0.001105965559593037 -0.018212071977231941 0.02419980358366354 -0.027220317245960992 -0.04459367923041422 -0.039647463690644341 0.0073230286294905193 -0.0085075562389547148 0.050691544032861517 0.022010277503417282 0.031440384631230035 0.042444804107504633 -0.04474521071650376 -0.03869645893803534 0.024546274724885193 -0.04697728179320651 -0.014500745819613511 0.02092803538245358
leaf_weight=11.17264476418495 14.020858466625212 11.046058148145677 8.5185707211494428 10.671134233474733 8.5978538393974322 8.5405448377132434 8.2935474216938001 8.0503058433532733 7.4723708331584922 8.5309344530105573 12.007648825645449 9.3113507330417651 8.08619177341461 8.4584231078624708 18.915799736976624 7.6701304316520682 7.2714518010616294 26.90885978937149 7.3168033361434928 9.8434517979621905 8.9341048598289472 46.202483713626862 8.8687733411788923 8.2245291173458082 8.9530889391899091 33.033570110797882 7.2639656066894513 7.3871306180953979 15.061884641647341 9.3020597100257856
leaf_count=30 40 30 23 29 24 23 23 22 20 24 33 25 22 23 51 21 20 75 20 27 24 125 24 22 25 93 20 21 41 25
internal_value=-9.06097e-06 -0.00583262 0.00552826 0.0144745 -0.00467622 -0.0102485 0.0176679 -0.00297662 0.0248413 -0.000422531 0.00774052 -0.00641738 -0.00981566 0.0188164 0.00187588 0.0097057 -0.0132659 -0.0178855 -0.0296061 -0.00319692 0.0257385 0.0273826 0.010426 0.0152048 -0.0253731 -0.0257852 -0.0303453 -0.0115161 0.0100283 -0.000974174
internal_weight=373.937 182.258 191.679 102.136 89.5425 78.3698 16.8341 168.237 18.5184 47.4153 38.8843 149.718 131.949 17.7698 76.1778 59.1744 17.9426 61.5357 34.2257 27.3101 20.9418 54.7211 18.7122 51.5043 17.0034 55.7709 47.6847 14.6511 43.2797 24.3639
internal_count=1025 501 524 278 246 216 46 461 50 130 106 411 363 48 207 160 49 170 95 75 57 148 51 139 47 156 134 41 117 66
is_linear=0
shrinkage=0.05


Tree=21
num_leaves=31
num_cat=0
split_feature=3 34 4 23 4 33 34 23 30 31 33 23 25 0 30 19 11 24 33 23 10 14 27 6 4 24 19 2 10 12
split_gain=4.53127 6.22493 5.36686 5.92623 5.4357 5.2196 5.13368 7.64686 6.92246 5.63982 5.3045 6.88348 6.79255 4.16032 4.28869 3.7495 3.64389 3.3744 3.80955 4.37595 3.66778 3.54806 4.96795 3.49741 4.05243 3.28287 2.81622 2.65995 3.51194 2.29105
threshold=1.0000000180025095e-35 12.500000000000002 -0.0029865408732382775 0.072148630703822395 0.0068043746084098774 1.5000000000000002 23.500000000000004 0.077299535113727044 0.10551685322085451 0.001859889929278335 3.5000000000000004 0.062754748638149241 0.23199085690650129 0.0046988865635098232 0.040653301252968337 -0.00088940875173934835 -0.14048780344495274 0.15353230696800435 5.5000000000000009 0.057566331205239789 0.017155306580413591 0.00042318149725527218 1.321551379782457 0.66035981451240444 0.22394508924156284 0.14582074776370399 -0.0091572365223979175 -0.0063986346622727413 0.18364771661173332 -0.0065613381931958993
decision_type=2 2 2 2 2 2 2 2 2 2 2 2 2 2 2 2 2 2 2 2 2 2 2 2 2 2 2 2 2 2
left_child=1 5 3 15 -4 -1 9 13 -9 10 11 25 -12 14 -8 29 -7 20 21 -20 -6 23 -23 24 27 -3 -11 -19 -29 -2
right_child=2 6 4 -5 17 16 7 8 -10 26 12 -13 -14 -15 -16 -17 -18 18 19 -21 -22 22 -24 -25 -26 -27 -28 28 -30 -31
leaf_value=0.0053902102288011407 0.021826355045765595 0.047298149394903184 -0.041188722990155087 -0.010409896930433557 -0.037677340848661499 -0.040142093316532887 -0.042420554831140649 0.036296713497662773 -0.024529042708113801 0.048708539023054671 -0.052789022837202951 -0.019625557991341185 0.0095999388680015826 -0.055558914600700005 0.006691212586560036 0.0011640223263528137 -0.006368005266483772 -0.027600155354886413 0.054764833405291972 0.0028173418230935938 0.0027599244866341058 0.03815456323054639 -0.007788976708839635 -0.034501103885176104 0.033473835764834994 0.0099051813458194693 0.014567229917914129 0.0082448552881416986 -0.021757449447434619 0.052170167748083834
leaf_weight=14.409220814704893 10.335479021072386 9.9419023990631121 7.3607607483863822 11.715256333351133 9.8828407526016253 26.491777449846264 8.0356420576572472 11.387384474277498 7.9385763108730307 9.5110611021518725 9.420927971601488 13.214477360248564 8.1255840063095075 9.9407267272472364 9.948746055364607 8.1220844089984912 11.432628244161608 9.592612147331236 8.1015017032623309 8.1144876778125745 12.963002204895018 14.406182408332826 9.9463449716567975 7.6790269017219535 8.4723354578018171 14.330132454633711 16.551239311695099 40.403728991746902 12.857948571443556 15.624668240547178
leaf_count=39 28 27 20 32 27 73 22 31 22 26 26 36 22 27 27 22 31 26 22 22 35 39 27 21 23 39 45 110 35 43
internal_value=1.53845e-05 -0.00569338 0.00528928 0.0202681 0.000709314 -0.0202273 0.000232882 -0.0128675 0.0113112 0.00786597 -0.00120803 0.00941231 -0.0238974 -0.0296007 -0.0152525 0.0308132 -0.0299606 0.00287475 0.00623884 0.0287703 -0.0147328 0.00270386 0.0193898 -0.00243937 0.00101239 0.0252215 0.0270266 -0.00336319 0.00100197 0.0400894
internal_weight=376.258 180.68 195.578 45.7975 149.781 52.3336 128.346 47.2511 19.326 81.0953 55.033 37.4865 17.5465 27.9251 17.9844 34.0822 37.9244 142.42 119.574 16.216 22.8458 103.358 24.3525 79.0057 71.3266 24.272 26.0623 62.8543 53.2617 25.9601
internal_count=1025 493 532 125 407 143 350 129 53 221 150 102 48 76 49 93 104 387 325 44 62 281 66 215 194 66 71 171 145 71
is_linear=0
shrinkage=0.05


Tree=22
num_leaves=31
num_cat=0
split_feature=35 35 31 30 19 0 26 2 28 1 27 2 2 1 27 27 10 7 15 26 9 19 31 8 22 14 17 6 9 7
split_gain=4.13351 4.29029 5.16628 5.83698 8.13227 2.98711 2.21846 6.92438 1.89907 4.37069 10.2779 1.93488 5.02568 4.49456 8.86896 1.98861 1.68563 1.86763 1.52848 0.729671 1.56348 0.624484 0.418067 0.300258 0.00027341 0.000181563 0.000122664 9.82852e-05 3.69438e-05 3.67172e-05
threshold=1.5000000000000002 27.500000000000004 0.031063229943216305 0.040513580382988412 -0.6034382472132106 0.082437368531276908 15943.500000000002 0.009440990211958258 -0.61582869165087961 -0.01166342011368573 0.92897604501402242 -0.015625403068941515 -0.047569761128059315 -0.017873402425989563 0.83201641552879846 0.86345850501263788 0.43028133091042903 0.61069871418988919 -0.024563427427448239 495.07500000000005 0.026906766736528458 3.4999203707572542 -0.030428356261234597 0.36739209909241327 274.13925948805962 -0.00054125367730940876 173.89435706202315 -0.25641196422391915 0.17172416489587528 -0.43243126476979216
decision_type=2 2 2 2 2 2 2 2 2 2 2 2 2 2 2 2 2 2 2 2 2 2 2 2 2 2 2 2 2 2
left_child=-1 5 3 4 -3 6 8 -8 9 -2 -11 12 21 14 -14 -15 17 19 -16 20 -13 27 -21 24 28 -5 -26 -10 29 -24
right_child=1 2 -4 25 -6 -7 7 -9 11 10 -12 16 13 15 18 -17 -18 -19 -20 22 -22 -23 23 -25 26 -27 -28 -29 -30 -31
leaf_value=0.054772425934050233 -0.035213727671663107 0.11585622396724458 0.10611797211339698 -0.035141907239953238 -0.015202939052180729 0.047867543086922829 -0.020693247632717487 0.10066311535756943 -0.035407004521432868 -0.016917492684173582 0.1392421166156349 0.032149440838226233 0.11951951194635807 -0.035214213798247636 -0.035183767933144837 0.035022205885171 0.027430279480899392 0.027335501544332431 0.033760099853336889 -0.0085585193070288317 -0.035114080027592441 0.0020078025713313056 -0.035267684948275958 -0.017976219617879954 -0.035820705822086046 -0.035843357226957355 -0.035260361302803293 -0.034960529461721401 -0.035322730667346494 -0.035052200435330041
leaf_weight=3.3001894131302825 2.9496123418211937 2.2988264337182036 1.7475345507264126 1.8733223266899588 2.4399034380912772 2.39474919065833 3.2974775061011306 1.8265103399753568 1.5226739384233949 2.733448237180709 1.7146171219646928 1.4823421798646621 2.5708413198590279 3.4814261347055346 1.817555867135525 1.4183487892150877 1.5918348282575596 1.5937891528010357 1.4414888173341749 1.8784547112882162 2.0707909986376762 1.325700409710407 2.3558474034071066 2.8856938332319251 2.2341770082712169 1.8175848573446272 1.7352088168263433 6.4711289107799548 1.8724264986813057 12.288842689245937
leaf_count=34 40 22 14 26 28 28 36 18 20 37 20 20 27 47 25 18 20 20 17 26 29 16 31 39 24 20 23 98 24 178
internal_value=-2.52852e-05 -0.00236987 0.0278765 0.0116564 0.0483758 -0.00696732 -0.00900133 0.0225658 -0.0117227 0.0119817 0.0432781 -0.0150925 -0.00291412 0.0204163 0.0500837 -0.0148827 -0.0227252 -0.0253517 -0.00468961 -0.028267 -0.00705221 -0.0297747 -0.0312523 -0.0330762 -0.0352031 -0.0354873 -0.0355758 -0.0350456 -0.0351136 -0.0350869
internal_weight=80.4323 77.1322 10.1772 8.42964 4.73873 66.955 64.5602 5.12399 59.4363 7.39768 4.44807 52.0386 20.0492 10.7297 5.82989 4.89977 31.9894 30.3976 3.25904 28.8038 3.55313 9.3195 25.2507 23.3722 20.4865 3.69091 3.96939 7.9938 16.5171 14.6447
internal_count=1025 991 110 96 50 881 853 54 799 97 57 702 268 134 69 65 434 414 42 394 49 134 345 319 280 46 47 118 233 209
is_linear=0
shrinkage=0.05


Tree=23
num_leaves=31
num_cat=0
split_feature=1 34 4 3 13 33 13 33 1 6 1 14 5 2 30 9 30 0 7 3 4 6 33 32 3 33 34 16 12 33
split_gain=4.41718 4.57909 5.12289 5.11027 5.42316 5.94106 9.67359 7.41419 9.06278 5.40861 4.54184 4.46051 5.81916 5.60354 9.89806 6.41709 5.04162 3.98753 3.37976 3.22492 5.1431 4.50676 3.14552 3.03555 3.22549 2.96447 3.62527 3.31429 3.09402 4.07585
threshold=-0.13495985700564864 13.500000000000002 0.19441584939211784 -0.047604837321913944 0.0027406116592970944 2.5000000000000004 -0.0037118812311885611 1.5000000000000002 -0.0012640893796351238 -0.13080016845869721 0.061399673436480708 -0.0023897600653400557 -0.2167538460141456 -0.0072535261209232937 0.055434321317019968 0.041236783522500826 0.034441766824451228 0.04475899634000214 -0.3345615362477985 0.00093751637690895099 0.0083238803415945691 -0.065438275396364751 4.5000000000000009 0.0013506487539386568 0.053912151746000787 4.5000000000000009 17.500000000000004 -0.020018586435379064 0.006455222896745467 2.5000000000000004
decision_type=2 2 2 2 2 2 2 2 2 2 2 2 2 2 2 2 2 2 2 2 2 2 2 2 2 2 2 2 2 2
left_child=-1 3 10 -2 5 7 -7 8 -5 -10 11 13 -13 14 -3 18 22 -12 -15 20 -8 -21 -14 24 -6 26 -18 -28 29 -29
right_child=1 2 -4 4 23 6 19 -9 9 -11 17 12 16 15 -16 -17 25 -19 -20 21 -22 -23 -24 -25 -26 -27 27 28 -30 -31
leaf_value=0.038260471275986994 0.03893687597373708 0.049603345340905991 -0.035391466574291604 -0.035970124355920459 0.047242793505266188 0.030446811288303025 -0.018356393638255596 -0.042920690589868776 -0.0027078357612111423 0.05042406842504045 0.045299152564460592 0.027483025622324426 -0.011406119648033147 -0.0069241920677761571 -0.014395203574766938 0.023582507112985054 0.0091475833674038113 -0.0046283977693647553 -0.054418375552394399 -0.047302041145877848 0.038677545223802422 -0.0014577604066562365 0.023047332233718406 -0.0087035171094847 0.013332481833119908 -0.03545862534439103 -0.033400674516175448 -0.015595541894157197 -0.033180978433213298 0.029436341410389366
leaf_weight=7.3899942040443412 10.699577420949934 14.767855912446977 13.593699544668196 11.871953815221788 11.888852536678316 27.046898603439331 8.4175089895725232 16.353777974843979 11.555810153484346 8.1805103123188001 8.5072672367095965 9.1583172976970655 13.677553474903108 7.5919762253761292 10.224402010440825 8.7237128317356092 13.221479058265684 7.5466742515563956 7.3938521444797534 9.4094640612602216 7.4521733224391928 12.459277153015138 12.847311496734617 7.3663387298583975 17.09681048989296 22.031523376703262 25.181885749101632 13.186820149421704 9.163360267877577 8.1181880533695203
leaf_count=20 29 40 39 33 32 73 23 46 32 22 23 25 38 21 28 24 36 21 21 26 20 34 35 20 46 62 71 37 26 22
internal_value=-1.00901e-05 -0.000785501 -0.00573258 0.00555893 0.00316369 -0.00225095 0.00762455 -0.0155904 -0.00145001 0.0193148 -0.0036255 -0.00595678 -0.010904 0.00690221 0.0234214 -0.0105107 -0.0138979 0.0218291 -0.0303573 -0.00873202 0.00842592 -0.0211832 0.0052814 0.0199574 0.0272412 -0.0194942 -0.0143874 -0.0199788 -0.00888578 0.00156368
internal_weight=372.125 364.735 204.936 159.799 149.099 112.747 64.7853 47.9621 31.6083 19.7363 191.342 175.288 126.586 48.7018 24.9923 23.7095 117.428 16.0539 14.9858 37.7384 15.8697 21.8687 26.5249 36.352 28.9857 90.9033 68.8717 55.6503 30.4684 21.305
internal_count=1025 1005 569 436 407 309 176 133 87 54 530 486 352 134 68 66 327 44 42 103 43 60 73 98 78 254 192 156 85 59
is_linear=0
shrinkage=0.05


Tree=24
num_leaves=31
num_cat=0
split_feature=3 33 13 33 9 2 9 25 33 1 34 3 33 0 17 34 27 29 30 32 34 3 20 0 3 34 6 35 9 5
split_gain=4.18987 6.02926 8.04239 6.76731 8.05944 5.78902 5.39417 6.47402 7.32767 4.11006 4.40005 4.65105 3.81973 5.46764 3.5771 3.90849 3.46081 4.97937 3.44617 3.3739 3.08114 6.12068 4.44825 3.65897 3.03905 2.98573 2.80035 2.79274 2.66884 2.87291
threshold=0.097734354950364546 2.5000000000000004 -0.0038570075535184056 5.5000000000000009 -0.094530715620974648 0.042087226678410715 -0.12481916243457293 0.70412273538975401 1.5000000000000002 0.031225332721173889 25.500000000000004 0.0034071914556900586 1.5000000000000002 -0.0079869727221035958 -0.014724884553348054 17.500000000000004 1.7570574087966564 56.434551950763776 0.026004599010659362 0.00026587636517355905 9.5000000000000018 0.020731686731694926 0.11954102703718329 -0.0029718385470419027 0.0047463601643688734 7.5000000000000009 -0.034216242186382452 8.5000000000000018 0.077737924068343289 0.23666219425628268
decision_type=2 2 2 2 2 2 2 2 2 2 2 2 2 2 2 2 2 2 2 2 2 2 2 2 2 2 2 2 2 2
left_child=1 6 5 4 -4 24 -1 9 19 10 11 12 14 -14 -8 -16 28 -18 -6 -9 26 23 -23 -22 -3 -5 -20 -27 -2 -30
right_child=16 2 3 25 18 -7 7 8 -10 -11 -12 -13 13 -15 15 -17 17 -19 20 -21 21 22 -24 -25 -26 27 -28 -29 29 -31
leaf_value=-0.026365487952440356 0.00019237674676324896 -0.039084847684697915 0.026299104611858828 -0.0098209183583779138 0.0093220104307933701 0.017692074512699468 0.045825906558416812 -0.0080219762884254139 0.024722381583267349 -0.013427484760920297 -0.015178657035806257 0.044023469672727612 -0.024224529084088842 0.029700058943598635 -0.0066170008794596826 0.03777459270576361 0.023660804049921519 -0.031862228294703678 -0.014579413654261009 -0.045162476269035419 -0.039611865931227556 0.032792143852211582 -0.018211769093777398 -0.0054878334904245995 -0.01237827193263215 0.0010387970461546616 -0.053503983171734916 0.037013094954987086 0.051514543622111102 0.016635559035435895
leaf_weight=11.938062310218809 9.4932025074958784 32.124018371105194 14.627772003412245 7.342380851507186 13.262259036302565 7.2533257007598868 13.528508871793738 13.957208871841432 11.002188742160795 10.634757131338118 8.1688985526561719 20.059441983699799 11.36690139770508 8.0155465304851514 11.452749252319345 8.7443120777606946 7.6936634778976467 8.4983979165554029 8.45108211040497 10.88231900334358 18.376542985439297 10.315148442983629 7.3002973496913901 13.72102349996567 15.936905980110167 7.6786828637123135 10.194599717855452 18.139487683773041 10.279925972223284 13.868795394897459
leaf_count=33 26 90 40 20 36 20 37 38 30 29 22 55 31 22 31 24 21 23 23 30 50 28 20 37 44 21 28 50 28 38
internal_value=1.37966e-05 -0.00205934 -0.00798761 -0.00116678 -0.00787812 -0.0239451 0.00577668 0.00877885 -0.00924723 0.0158037 0.0196257 0.0235115 0.0157639 -0.0019242 0.0259295 0.0126023 0.0135122 -0.00548044 -0.0140032 -0.0242934 -0.0185285 -0.0120275 0.0116548 -0.0250246 -0.030229 0.0183129 -0.0358616 0.0263138 0.0226535 0.0314833
internal_weight=374.308 324.474 184.724 129.409 96.2487 55.3143 139.751 127.813 35.8417 91.9711 81.3364 73.1675 53.108 19.3824 33.7256 20.1971 49.834 16.1921 81.621 24.8395 68.3587 49.713 17.6154 32.0976 48.0609 33.1606 18.6457 25.8182 33.6419 24.1487
internal_count=1025 889 507 353 262 154 382 349 98 251 222 200 145 53 92 55 136 44 222 68 186 135 48 87 134 91 51 71 92 66
is_linear=0
shrinkage=0.05


Tree=25
num_leaves=31
num_cat=0
split_feature=26 30 17 35 0 5 27 30 30 13 8 30 11 23 32 7 28 32 0 16 7 23 31 34 7 17 7 6 25 27
split_gain=3.78944 4.62574 4.80135 4.16438 5.79796 8.67566 2.90069 5.27701 5.03543 2.51654 5.41642 6.14417 6.12005 2.63875 4.16226 4.44712 0.651191 1.66714 0.598069 0.489771 0.466125 0.462894 0.000192203 0.000130948 4.99068e-05 4.52527e-05 4.38385e-05 4.14312e-05 2.89417e-05 2.56402e-05
threshold=13580.800000000001 0.06377004516058056 -94.986518949561273 27.500000000000004 0.031794944886125907 0.017043607297993191 0.67477057091493964 0.035090551931966023 0.03237900320191904 0.0016260597067352701 -0.42133869485294112 0.061628960198108554 0.22931979791091353 0.06324833386786595 -1.0000000180025095e-35 -0.27348579493798425 -0.5640706845217428 -9.7532186211928866e-05 0.069369248184697516 0.071489461843045984 -0.42580602378039711 0.073661441116910767 -0.001404350462331357 23.500000000000004 0.36874246369409319 173.89435706202315 0.43352654667083296 -0.18370841307621918 0.068742769315884897 1.2018813605104914
decision_type=2 2 2 2 2 2 2 2 2 2 2 2 2 2 2 2 2 2 2 2 2 2 2 2 2 2 2 2 2 2
left_child=3 2 -2 6 5 21 16 8 -8 13 -11 12 -12 20 29 -16 17 -1 24 25 -9 22 -5 28 -13 -4 27 -18 -22 -15
right_child=1 -3 19 4 -6 -7 7 9 -10 10 11 18 -14 14 15 -17 26 -19 -20 -21 23 -23 -24 -25 -26 -27 -28 -29 -30 -31
leaf_value=0.02973525992431364 0.045546010603637686 0.072159644780084201 -0.035505325427194104 -0.035061569263843011 0.11073376010646752 0.10160138534262837 0.010071289810731073 -0.0082903770331395205 0.11772175137957326 0.079532116724640278 -0.0011007979491834579 -0.03501419937471472 0.12073529843514462 -0.035236370072835699 0.076449293246780084 -0.035027728663912738 -0.035232371820907216 -0.035048105975825423 0.0005258316966115995 -0.0013493724077870218 -0.034836202634357806 -0.0025578451584922393 -0.03578983313781979 -0.035423470513939563 -0.03528229888360028 -0.03515848732582582 -0.035333852168322417 -0.034982506841840504 -0.035053242607414818 -0.034958265263843963
leaf_weight=1.5361006557941435 4.2627405673265448 3.6723430082201949 2.0639114417135711 1.8044797107577319 1.6868829503655431 1.8085105344653127 3.2677242159843436 1.8461692556738771 1.6272260360419748 2.1681048907339564 2.9144134335219851 4.873260270804165 1.5947230607271192 2.2404191866517071 2.6730015501379967 1.3447038233280171 2.1634807772934419 2.8092691861093035 1.3942776545882223 1.4700340554118154 1.8465943522751427 1.520530756562948 1.8195432126522051 2.413997631520032 2.6962092444300652 1.7276650220155714 1.4792646169662464 7.1154009215533733 9.1311612017452699 1.3153861388564108
leaf_count=20 37 30 25 26 12 17 39 24 18 24 37 72 17 30 32 20 29 41 18 19 30 19 20 31 35 24 19 107 133 20
internal_value=-6.01941e-06 0.0244865 0.00610491 -0.00482366 0.027577 0.00740233 -0.00961298 -0.00303817 0.0458575 -0.00926254 0.00618481 -0.0056185 0.0419883 -0.0198542 0.00426741 0.0391385 -0.0284828 -0.012147 -0.0295667 -0.0258487 -0.0318431 -0.0257123 -0.0354272 -0.0350901 -0.0351097 -0.0353473 -0.0350811 -0.0350408 -0.0350167 -0.0351335
internal_weight=80.2875 13.1967 9.52435 67.0908 8.63995 6.95306 58.4509 43.3474 4.89495 38.4524 15.641 13.4729 4.50914 22.8114 7.57351 4.01771 15.1035 4.34537 8.96375 5.26161 15.2379 5.14455 3.62402 13.3918 7.56947 3.79158 10.7581 9.27888 10.9778 3.55581
internal_count=1025 135 105 890 94 82 796 580 57 523 203 179 54 320 102 52 216 61 125 68 218 65 46 194 107 49 155 136 163 50
is_linear=0
shrinkage=0.05


Tree=26
num_leaves=31
num_cat=0
split_feature=21 27 27 32 34 13 0 34 32 3 11 10 8 5 31 6 25 24 11 1 2 3 2 7 4 11 5 14 3 7
split_gain=4.45413 4.49858 4.63842 4.84295 5.91544 6.16586 4.34214 5.16708 3.98917 3.74642 4.41278 3.72385 4.3355 3.49691 7.53444 4.2712 3.59038 3.31192 4.9047 4.12673 4.47171 3.19047 2.97124 2.65272 2.63264 2.70658 3.28039 2.60558 2.45685 2.39984
threshold=36.136856963438312 0.50514744599100803 0.59281914265899582 0.00014133276870801202 13.500000000000002 0.0024641614199072 0.012576590670810866 25.500000000000004 -0.00061142634917130329 -0.01735642532121693 -0.044991196522322828 -0.07387522341089349 -0.14449338187033037 -0.2167538460141456 0.0049225038347924148 -0.21384852635992449 0.096760891833569382 0.38704860355643528 0.12653729418943507 0.012647973734636149 -0.025921268655277902 0.060810945920168273 -0.031986792950039582 -0.24448150419957204 -0.020497883898790255 -0.11486235447773822 0.09650930557462252 -0.0020212888882916087 0.056137893844839935 -0.26177029558044479
decision_type=2 2 2 2 2 2 2 2 2 2 2 2 2 2 2 2 2 2 2 2 2 2 2 2 2 2 2 2 2 2
left_child=13 11 29 4 5 22 7 9 -8 10 -6 -2 -13 -1 15 16 -15 18 19 20 -5 23 -4 -21 -24 26 -26 -11 -7 -3
right_child=1 2 3 17 6 28 8 -9 -10 27 -12 12 -14 14 -16 -17 -18 -19 -20 21 -22 -23 24 -25 25 -27 -28 -29 -30 -31
leaf_value=0.037298893166494464 -0.0094821975604899786 -0.00048890704494344535 0.022316899001367421 0.020100471457366442 -0.020518908204222495 0.045751211619324626 -0.0097988127790655521 0.015209854168983173 -0.045948778472176877 -0.0086656324807513133 0.023115498070241287 0.042328432499190521 0.0035448259814296734 0.0083521969932615885 -0.037720772263016754 -0.0049849938739470953 0.04997492324162231 0.030953882973224597 -0.027390148780337839 0.016517090565790857 -0.018517647414914459 0.0043033912665888458 -0.036532274659420834 0.057044316607617974 0.015746753040140248 -0.031065618509582133 -0.024169528122696654 -0.045560944943630714 0.010867194683401332 -0.033742626006432901
leaf_weight=11.794585198163984 12.727270454168318 7.5553559064865139 7.6757546067237845 12.044412970542906 14.977426588535311 9.247323006391527 13.098748236894609 17.260825634002686 18.283616960048676 7.4158324897289303 9.4500849545001966 14.451544582843781 14.371906995773315 9.5948098003864271 7.8455679118633261 13.856354832649233 11.262883543968199 12.481049239635466 11.182700157165526 7.9898593127727535 19.850012958049778 13.868433326482771 8.3951216340064985 8.1629503667354602 16.414580017328266 7.5751684904098537 7.4984222352504721 13.489739447832106 11.113144516944883 19.246577054262161
leaf_count=32 35 21 21 33 42 25 37 47 54 21 26 39 39 26 22 38 31 34 31 22 55 38 24 22 45 21 21 39 30 54
internal_value=-1.26449e-05 -0.00228793 -0.00461054 -0.00247072 -0.00755613 0.00368623 -0.0156813 -0.00807124 -0.0308601 -0.0169356 -0.0036384 0.0130437 0.0229902 0.013208 0.00653166 0.016533 0.0308279 0.00714967 0.00308526 0.00858948 -0.00393414 0.0218945 -0.00617082 0.0369978 -0.0116534 -0.00502043 0.00323017 -0.0324731 0.0267108 -0.0243685
internal_weight=370.182 315.828 274.277 247.475 161.896 67.9195 93.9763 62.5939 31.3824 45.3331 24.4275 41.5507 28.8235 54.3542 42.5596 34.714 20.8577 85.5794 73.0984 61.9157 31.8944 30.0212 47.559 16.1528 39.8833 31.4882 23.913 20.9056 20.3605 26.8019
internal_count=1025 876 763 688 453 187 266 175 91 128 68 113 78 149 117 95 57 235 201 170 88 82 132 44 111 87 66 60 55 75
is_linear=0
shrinkage=0.05


Tree=27
num_leaves=31
num_cat=0
split_feature=6 33 12 33 27 30 34 33 0 34 27 5 15 26 30 33 6 11 34 2 1 10 2 35 0 26 0 10 0 6
split_gain=3.64656 6.16767 5.99472 4.25736 4.49532 3.85331 4.6671 3.93734 3.74691 3.69003 4.22134 3.91532 5.36037 4.76581 4.68393 3.67751 5.72093 5.16439 4.39426 4.53685 5.71606 4.70731 5.44399 3.58757 4.26569 3.40496 3.04837 2.79708 2.76521 2.66798
threshold=-0.21503754007453174 2.5000000000000004 -0.0069714479459472819 5.5000000000000009 0.47491933864168673 0.026585087854867153 17.500000000000004 4.5000000000000009 -0.040087826491233901 18.500000000000004 2.1867974721568841 -0.0055769953108720811 0.043231728986049926 575.37500000000011 0.053371235873131632 3.5000000000000004 0.30818642871912205 0.14835662419477397 15.500000000000002 0.032876209434415216 -0.0012640893796351238 0.022165588047793252 -0.031170880857281241 17.500000000000004 -0.0088030742798262587 2256.2250000000008 -0.0079869727221035958 -0.14905559692576217 0.047403421857806466 0.20832512618862631
decision_type=2 2 2 2 2 2 2 2 2 2 2 2 2 2 2 2 2 2 2 2 2 2 2 2 2 2 2 2 2 2
left_child=1 2 -1 5 -5 7 8 -2 -7 -8 11 13 14 -11 -13 16 18 -17 19 20 21 22 -10 24 -3 -16 -4 -15 -21 -14
right_child=3 23 26 4 -6 6 9 -9 15 10 -12 12 29 27 25 17 -18 -19 -20 28 -22 -23 -24 -25 -26 -27 -28 -29 -30 -31
leaf_value=-0.023357824254295612 0.031550052446504662 -0.041002545617423558 0.0054890262330986091 -0.017687738682826703 0.024507847033782712 0.023562054825664897 0.034296047274674363 -0.0068338301515369479 -0.036474369578148522 -0.015125800202589225 -0.034355456956559699 -0.03410429270275582 0.038496135076608727 0.00063880340336906413 -0.021168922495867836 -0.037130419543692825 -0.030572727657782524 0.0083292972413316034 -0.033527133980982497 0.038044642651828026 -0.032884139661064772 0.040349398438589285 0.017787583250889909 -0.041743505635175128 0.0068336092463131609 0.020182121028978768 0.045906587918738598 0.036528681198817678 -6.2320125272277658e-05 -0.0021332888914541185
leaf_weight=10.837152034044268 17.950035512447357 7.2567151486873653 10.602247953414919 7.6933403909206381 35.154196441173553 8.4200180172920209 10.077638208866118 10.642042577266695 8.0118265748023969 8.4751662909984571 7.1904729008674613 16.138203740119934 9.0932813286781329 7.2486625015735617 8.8774466216564196 24.00732034444809 18.053324043750763 8.4452141225337964 8.0799854099750501 13.486386716365816 12.078942388296129 8.1136008203029615 10.926251381635668 16.377599239349365 13.025310099124907 11.334319472312925 8.3308923244476301 21.622903764247898 7.3578400313854209 7.2717095315456381
leaf_count=30 49 21 29 21 97 23 28 29 22 23 20 44 25 20 24 66 50 23 22 37 33 22 30 47 36 31 23 60 20 20
internal_value=9.88623e-06 -0.010608 0.00629845 0.00231681 0.0169316 -6.50837e-05 -0.00217963 0.0172635 -0.0086673 0.00549587 0.00251148 0.00545492 -0.00332 0.0178407 -0.0140181 -0.0109562 -0.00555015 -0.0253003 0.00108774 0.00575116 -0.00428568 0.00848392 -0.00516814 -0.0243372 -0.0102817 0.00201984 0.0232734 0.027518 0.0245932 0.0204426
internal_weight=372.18 66.4299 29.7703 305.75 42.8475 262.903 234.311 28.5921 126.981 107.33 97.2522 90.0617 52.715 37.3467 36.35 118.561 86.1082 32.4525 68.0548 59.9748 39.1306 27.0517 18.9381 36.6596 20.282 20.2118 18.9331 28.8716 20.8442 16.365
internal_count=1025 186 82 839 118 721 643 78 348 295 267 247 144 103 99 325 236 89 186 164 107 74 52 104 57 55 52 80 57 45
is_linear=0
shrinkage=0.05


Tree=28
num_leaves=31
num_cat=0
split_feature=35 35 0 30 19 20 5 7 8 11 11 31 0 17 30 1 32 20 7 20 32 26 14 26 1 9 0 9 15 6
split_gain=3.68635 3.62836 3.88908 5.28654 6.57526 3.51363 2.55286 3.98186 2.39661 5.00524 3.74209 2.15406 2.64983 6.38574 4.87175 2.1062 1.65268 1.22563 1.00211 0.377789 0.376553 0.00119513 0.000205475 0.000106608 4.98733e-05 4.06446e-05 3.90812e-05 3.04011e-05 2.79649e-05 2.74495e-05
threshold=1.5000000000000002 27.500000000000004 0.031794944886125907 0.040513580382988412 -0.6034382472132106 31.808551994801274 -0.021714481053594425 0.034584564467520292 0.11835151351462884 0.26999834844624077 0.29986289083070872 0.083172157538267191 -0.0089313844416932641 7.3791566681370293 0.035541015134088763 0.031225332721173889 -0.0038910879552888386 0.082162122127882639 -0.4382693259743104 2.0494385810626397 -0.0016589172719377345 14819.975 -0.00054125367730940876 6361.2250000000013 -0.036611334345923056 0.094170135352434473 0.00211566085844862 -0.0097419075454670181 -0.02976727685925162 -0.21503754007453174
decision_type=2 2 2 2 2 2 2 2 2 2 2 2 2 2 2 2 2 2 2 2 2 2 2 2 2 2 2 2 2 2
left_child=-1 5 3 4 -3 8 -7 -8 9 11 -11 12 13 14 -2 17 -14 24 -18 21 -20 25 -5 26 28 -10 -22 -26 -16 -28
right_child=1 2 -4 22 -6 6 7 -9 19 10 -12 -13 16 -15 15 -17 18 -19 20 -21 23 -23 -24 -25 27 -27 29 -29 -30 -31
