tree
version=v4
num_class=3
num_tree_per_iteration=3
label_index=0
max_feature_idx=49
objective=multiclass num_class:3
feature_names=returns_1 returns_2 returns_3 returns_5 returns_10 returns_20 returns_50 returns_100 returns_200 price_to_sma_20 price_to_sma_50 price_to_sma_200 sma_20_slope sma_50_slope sma_200_slope price_to_ema_12 price_to_ema_26 ema_12_26_spread macd macd_signal macd_hist rsi_14 atr_14 atr_pct_14 bollinger_width_20 bollinger_percent_b_20 volume_20 volume_ratio_20 vwap_distance adx_14 high_low_range close_open_range gap_open day_of_week day_of_month days_to_month_end news_sentiment_1d news_sentiment_7d news_article_count_7d earnings_proximity_days congress_buy_score congress_cluster_30d days_since_last_congress insider_buy_score insider_cluster_60d insider_value_60d ceo_bought_90d analyst_upgrade_score consensus_rating watchlist_research_score
feature_infos=[-0.36353573811673279:0.50388139525738329] [-0.37633846153846146:0.80924928231546667] [-0.39105512613178228:0.58439576861064124] [-0.42018711505973588:0.90185525075648587] [-0.44076751841981504:1.2558176023535181] [-0.55023870818358256:1.1316443061643668] [-0.71526684702410226:4.2376646598162147] [-0.76893421495012892:7.4103599121735373] [-0.68262015237440565:151.00240375991103] [-0.45320790015248452:0.8543108816434597] [-0.54860586693531266:1.2442835584475502] [-0.58952307622218025:2.5373551573665907] [-0.038943050942740289:0.049150693272780314] [-0.028177470798765588:0.030887061637743168] [-0.0083961561714003159:0.017884658166468569] [-0.38501165126720516:0.56864609855818204] [-0.44440194784606246:0.83373091735287863] [-4175.9472969613926:4455.0466075562435] [-4175.9472969613926:4455.0466075562435] [-4373.5802883471761:3791.1996440011635] [-1081.6824859083983:1305.8358579608896] [25.440995298120825:89.015754867024228] [0.0034030122762514319:4358.023441088696] [0.039944575140264726:0.2665180316466918] [0.081951658728664917:1.3040333702335831] [-0.3902593617712436:1.4115694433517239] [1152.5:91834.850000000006] [0.044938150913348206:7.1150995720672263] [-0.55016818357794339:2.9349107225104341] [5.4776670068294182:99.477684528867471] [0.01808778481809405:0.65144432384429429] [-0.36342261807041604:0.49714603380912492] [-0.0098932808134474214:0.0092656324455975391] [0:6] [1:31] [1:31] none none none none none none none none none none none none none none
tree_sizes=3366 3309 3388

Tree=0
num_leaves=31
num_cat=0
split_feature=34 34 7 2 33 2 3 34 34 34 9 17 33 34 34 20 34 2 7 21 33 14 7 1 26 31 19 33 23 27
split_gain=28.0103 30.8172 21.1453 24.6607 19.6002 21.206 17.9216 14.5748 16.9033 16.5756 12.7952 12.7743 21.533 16.4839 14.4958 17.0476 15.5602 13.6213 13.4739 11.0584 9.98302 9.8935 9.41777 8.96006 11.6675 8.74848 9.69856 8.64795 9.56271 8.0735
threshold=20.500000000000004 2.5000000000000004 -0.43350341547256716 -0.017399006860360212 5.5000000000000009 0.042922557538886318 0.0096036416414950528 13.500000000000002 6.5000000000000009 9.5000000000000018 0.051409995530913917 -0.0052565789061837639 4.5000000000000009 12.500000000000002 8.5000000000000018 -0.004733511109829544 7.5000000000000009 -0.058668749860907525 0.29146061308157462 59.128563915292084 1.0000000180025095e-35 0.0012320221287949161 0.54378230946731498 0.12350826425681258 27654.225000000002 0.023403189859944624 1.0965689494991897 1.0000000180025095e-35 0.10392141437488869 0.54420079652976405
decision_type=2 2 2 2 2 2 2 2 2 2 2 2 2 2 2 2 2 2 2 2 2 2 2 2 2 2 2 2 2 2
left_child=1 10 -2 6 5 11 -4 8 -6 -10 -1 12 14 -14 16 20 -3 -15 27 -7 -16 -22 25 24 -5 -21 -27 -13 -29 -11
right_child=2 4 3 23 7 19 -8 -9 9 29 -12 18 13 17 15 -17 -18 -19 -20 22 21 -23 -24 -25 -26 26 -28 28 -30 -31
leaf_value=-0.83845860299817399 -0.83659003699386814 -0.78002344795442891 -0.82753467866530928 -0.7958072982393406 -0.7395683406164516 -0.74826496326092584 -0.77471582307770437 -0.73094418982734788 -0.85340713103262034 -0.73232405395360445 -0.78967919572787515 -0.77822482827113992 -0.84823264055915815 -0.82778108297356945 -0.74226807477651879 -0.74367857418402439 -0.85340713103262034 -0.73641865076303981 -0.78797334695456633 -0.82724720697233922 -0.83709964590413344 -0.77492735885177677 -0.7550145808357418 -0.74795940624909296 -0.75250456680010713 -0.80263854525525524 -0.74914114799235665 -0.83154490878224252 -0.78421680127318272 -0.79875157540667574
leaf_weight=36.792920261621475 44.597479104995728 28.616715759038925 86.965084254741669 121.52813056111336 19.325574278831482 44.22583344578743 19.69721993803978 28.988361418247223 9.6627871394157427 7.4329131841659573 21.183802574872971 12.635952413082121 19.325574278831482 7.804558843374255 8.547850161790846 52.40203794836998 9.6627871394157392 8.547850161790846 81.7620450258255 13.379243731498716 12.264306753873827 13.379243731498716 24.900259166955948 13.750889390707014 17.838991641998291 19.69721993803978 14.865826368331907 59.463305473327637 13.007598072290419 11.892661094665526
leaf_count=99 120 77 234 327 52 119 53 78 26 20 57 34 52 21 23 141 26 23 220 36 33 36 67 37 48 53 40 160 35 32
internal_value=-0.792501 -0.786053 -0.804783 -0.799323 -0.78221 -0.786251 -0.817781 -0.758973 -0.77579 -0.799937 -0.820635 -0.792782 -0.782713 -0.81697 -0.772925 -0.761599 -0.798547 -0.780023 -0.802469 -0.767987 -0.789063 -0.804662 -0.779961 -0.786465 -0.790265 -0.792918 -0.779629 -0.816395 -0.82305 -0.773203
internal_weight=884.145 579.767 304.378 259.78 521.791 444.488 106.662 77.3023 48.3139 28.9884 57.9767 327.42 160.551 35.678 124.873 86.5934 38.2795 16.3524 166.869 117.068 34.1914 25.6436 72.8425 153.118 139.367 47.9423 34.563 85.1069 72.4709 19.3256
internal_count=2379 1560 819 699 1404 1196 287 208 130 78 156 881 432 96 336 233 103 44 449 315 92 69 196 412 375 129 93 229 195 52
is_linear=0
shrinkage=1


Tree=1
num_leaves=31
num_cat=0
split_feature=9 4 22 4 31 31 30 10 17 7 27 6 33 31 7 10 22 31 34 35 30 30 30 4 7 14 17 2 31 12
split_gain=6.58748 7.66515 7.75077 11.1527 15.5682 26.2898 10.0166 9.24493 10.201 14.874 14.6017 10.72 19.434 8.76975 7.95936 5.76355 5.17235 3.09472 3.07949 5.60653 9.96314 3.0409 7.3766 8.37922 6.3834 2.881 2.72282 2.69503 2.67447 4.44807
threshold=-0.1276706104320369 0.055127615172597365 8.4825138273128236 0.013570075406213758 -0.011463201376777431 -0.028590601155792962 0.052016559209220034 -0.19581203436212663 -0.0042608575218346925 0.13127695509565748 0.54420079652976405 -0.087556370293036659 3.5000000000000004 -0.03778474050912544 0.8582778481734239 0.17354886762919489 0.018642422899078016 -0.060091427493657326 26.500000000000004 3.5000000000000004 0.061703803185449012 0.10520719974376198 0.13101249681182001 0.30043743683699198 0.29146061308157462 0.001556669539858381 2597.8174291576693 0.059483484847408001 -0.050065243681024628 0.0021346199708317877
decision_type=2 2 2 2 2 2 2 2 2 2 2 2 2 2 2 2 2 2 2 2 2 2 2 2 2 2 2 2 2 2
left_child=-1 2 3 6 5 -5 -2 25 9 11 -10 12 -9 -11 16 17 -6 -4 21 -20 -21 26 23 24 -23 -8 -3 -15 29 -12
right_child=1 18 15 4 14 -7 7 8 10 13 28 -13 -14 27 -16 -17 -18 -19 19 20 -22 22 -24 -25 -26 -27 -28 -29 -30 -31
leaf_value=-3.2948792136450149 -3.2894381263201993 -3.2900277781293519 -3.2076263282806052 -3.2053030265993043 -3.1800497474547296 -2.9099118128339097 -3.2119410314030206 -3.2743906818590403 -3.135603976160279 -3.1170175627098717 -3.1623219454952385 -3.0170354765628558 -3.0511202786584293 -3.2982350938513383 -3.1170175627098717 -3.1975586876616346 -3.2982350938513383 -3.2946251828724247 -3.2836207768238008 -3.071713179924505 -3.2669906919303959 -3.2982350938513387 -3.2912111585357779 -3.1012595165236569 -3.1687940001788624 -3.2982350938513383 -3.211941031403021 -3.2076263282806052 -3.2982350938513383 -3.2982350938513383
leaf_weight=14.899221137166021 11.367553904652594 30.460629880428318 1.1036460101604468 2.1521097198128705 1.2691929116845111 1.1588283106684683 1.1588283106684638 2.0969274193048455 2.1521097198128798 1.1036460101604459 1.1036460101604455 1.6002867147326476 1.821015916764736 3.2005734294652939 1.1036460101604459 1.986562818288802 3.4213026314973831 13.850757427513599 3.4213026314973822 1.1036460101604464 1.6002867147326467 2.4832035228610021 7.1185167655348778 1.2691929116845129 1.5451044142246244 5.8493238538503647 1.1588283106684674 1.1036460101604459 6.2907822579145423 1.3243752121925352
leaf_count=270 206 552 20 39 23 21 21 38 39 20 20 29 33 58 20 36 62 251 62 20 29 45 129 23 28 106 21 20 114 24
internal_value=-3.26358 -3.25957 -3.2484 -3.23837 -3.18841 -3.10192 -3.24969 -3.23401 -3.21795 -3.18383 -3.25224 -3.12608 -3.17062 -3.24276 -3.23783 -3.27758 -3.26626 -3.2882 -3.27431 -3.24109 -3.18729 -3.27893 -3.25796 -3.21329 -3.24859 -3.28397 -3.28717 -3.275 -3.28103 -3.23646
internal_weight=131.279 116.379 66.2188 49.2778 9.10508 3.31094 40.1727 28.8052 21.797 10.9261 10.8709 5.51823 3.91794 5.40787 5.79414 16.941 4.6905 14.9544 50.1607 6.12524 2.70393 44.0355 12.416 5.2975 4.02831 7.00815 31.6195 4.30422 8.7188 2.42802
internal_count=2379 2109 1200 893 165 60 728 522 395 198 197 100 71 98 105 307 85 271 909 111 49 798 225 96 73 127 573 78 158 44
is_linear=0
shrinkage=1


Tree=2
num_leaves=31
num_cat=0
split_feature=9 33 35 35 17 1 2 3 3 11 4 35 20 27 11 6 2 14 2 11 27 35 35 33 23 35 0 31 23 15
split_gain=25.487 30.1518 18.7826 18.9106 22.1057 17.174 15.5142 17.1882 15.971 14.1529 13.5811 12.9997 14.1475 9.69647 8.61495 8.56225 8.20937 7.3234 7.14948 7.36789 7.90299 6.81461 7.1192 7.24263 6.25431 8.7841 19.5031 18.6036 8.18089 5.9448
threshold=-0.1603678932183957 1.0000000180025095e-35 28.500000000000004 10.500000000000002 -0.0052565789061837639 -0.084068514016932147 -0.017399006860360212 0.0096036416414950528 -0.0094697153599809496 0.41721360211730135 -0.17807399327774534 2.5000000000000004 -0.00095392916186439597 0.48321701408215473 -0.20488427825391306 -0.2149124649995767 -0.032121592287050207 0.0007139435354304145 0.077596201079153063 -0.066878784516832435 0.84608072122282318 9.5000000000000018 8.5000000000000018 1.0000000180025095e-35 0.16695095834512494 21.500000000000004 -0.015645682577570274 0.04564181062691456 0.086246075940674669 0.15315701131507312
decision_type=2 2 2 2 2 2 2 2 2 2 2 2 2 2 2 2 2 2 2 2 2 2 2 2 2 2 2 2 2 2
left_child=1 -1 3 6 5 -5 7 13 11 18 -7 -8 -13 -2 -10 -4 -11 -9 19 20 -6 22 23 -16 25 27 -27 -12 -28 -20
right_child=2 -3 15 4 9 10 8 17 14 16 24 12 -14 -15 21 -17 -18 -19 29 -21 -22 -23 -24 -25 -26 26 28 -29 -30 -31
leaf_value=-0.72260808143399768 -0.680607178457587 -0.62588499730807001 -0.62850682171203953 -0.65420966437317629 -0.67643914991794329 -0.65290204757642534 -0.66310145859108305 -0.73042504338380576 -0.64510361005363326 -0.66239947483703776 -0.72013158702317481 -0.73724333096686456 -0.66056094595739545 -0.63109099940661872 -0.63540009968145039 -0.66523548920338071 -0.70489289141524492 -0.66754735570003643 -0.69915719558457323 -0.67216663041212454 -0.63414890912545974 -0.6398680607959073 -0.72178730042926786 -0.68189166524024458 -0.73461418655637589 -0.64513640496714897 -0.6719932528089898 -0.65277550401544937 -0.72275057813620769 -0.66104950607925839
leaf_weight=9.746814548969267 11.996079444885252 46.484807848930359 23.992158889770508 20.243384063243866 17.244364202022552 12.74583441019058 14.995099306106566 7.8724271357059505 31.114831060171127 14.245344340801237 86.971575975418091 25.491668820381161 7.8724271357059505 56.231622397899628 9.746814548969267 46.859685331583023 56.231622397899628 11.246324479579924 34.113850921392441 134.58101627230644 30.739953577518463 11.621201962232588 9.3719370663166028 59.605519741773605 17.619241684675217 18.368996649980545 11.246324479579924 11.621201962232588 26.991178750991821 14.620221823453901
leaf_count=26 32 124 64 54 46 34 40 21 83 38 232 68 21 150 26 125 150 30 91 359 82 31 25 159 47 49 30 31 72 39
internal_value=-0.675234 -0.64265 -0.677426 -0.679708 -0.685305 -0.69794 -0.668662 -0.651538 -0.67747 -0.676688 -0.70271 -0.70177 -0.71915 -0.639797 -0.667794 -0.652798 -0.696304 -0.693438 -0.670711 -0.666169 -0.649347 -0.675609 -0.680885 -0.675358 -0.706384 -0.703179 -0.68748 -0.712192 -0.707822 -0.687725
internal_weight=891.834 56.2316 835.602 764.75 507.584 205.808 257.166 87.3465 169.819 301.776 185.564 48.3592 33.3641 68.2277 121.46 70.8518 70.477 19.1188 231.299 182.565 47.9843 90.3455 78.7243 69.3523 172.819 155.199 56.6065 98.5928 38.2375 48.7341
internal_count=2379 150 2229 2040 1354 549 686 233 453 805 495 129 89 182 324 189 188 51 617 487 128 241 210 185 461 414 151 263 102 130
is_linear=0
shrinkage=1


end of trees

feature_importances:
day_of_month=9
returns_3=7
close_open_range=7
day_of_week=7
days_to_month_end=7
returns_100=6
returns_10=4
ema_12_26_spread=4
volume_ratio_20=4
high_low_range=4
returns_5=3
price_to_sma_20=3
price_to_sma_200=3
sma_200_slope=3
atr_pct_14=3
returns_2=2
returns_50=2
price_to_sma_50=2
macd_hist=2
atr_14=2
returns_1=1
sma_20_slope=1
price_to_ema_12=1
macd_signal=1
rsi_14=1
volume_20=1

parameters:
[boosting: gbdt]
[objective: multiclass]
[metric: multi_logloss]
[tree_learner: serial]
[device_type: cpu]
[data_sample_strategy: bagging]
[data: ]
[valid: ]
[num_iterations: 300]
[learning_rate: 0.05]
[num_leaves: 31]
[num_threads: 0]
[seed: 0]
[deterministic: 0]
[force_col_wise: 0]
[force_row_wise: 0]
[histogram_pool_size: -1]
[max_depth: -1]
[min_data_in_leaf: 20]
[min_sum_hessian_in_leaf: 0.001]
[bagging_fraction: 1]
[pos_bagging_fraction: 1]
[neg_bagging_fraction: 1]
[bagging_freq: 0]
[bagging_seed: 3]
[bagging_by_query: 0]
[feature_fraction: 0.8]
[feature_fraction_bynode: 1]
[feature_fraction_seed: 2]
[extra_trees: 0]
[extra_seed: 6]
[early_stopping_round: 0]
[early_stopping_min_delta: 0]
[first_metric_only: 0]
[max_delta_step: 0]
[lambda_l1: 0]
[lambda_l2: 0]
[linear_lambda: 0]
[min_gain_to_split: 0]
[drop_rate: 0.1]
[max_drop: 50]
[skip_drop: 0.5]
[xgboost_dart_mode: 0]
[uniform_drop: 0]
[drop_seed: 4]
[top_rate: 0.2]
[other_rate: 0.1]
[min_data_per_group: 100]
[max_cat_threshold: 32]
[cat_l2: 10]
[cat_smooth: 10]
[max_cat_to_onehot: 4]
[top_k: 20]
[monotone_constraints: ]
[monotone_constraints_method: basic]
[monotone_penalty: 0]
[feature_contri: ]
[forcedsplits_filename: ]
[refit_decay_rate: 0.9]
[cegb_tradeoff: 1]
[cegb_penalty_split: 0]
[cegb_penalty_feature_lazy: ]
[cegb_penalty_feature_coupled: ]
[path_smooth: 0]
[interaction_constraints: ]
[verbosity: -1]
[saved_feature_importance_type: 0]
[use_quantized_grad: 0]
[num_grad_quant_bins: 4]
[quant_train_renew_leaf: 0]
[stochastic_rounding: 1]
[linear_tree: 0]
[max_bin: 255]
[max_bin_by_feature: ]
[min_data_in_bin: 3]
[bin_construct_sample_cnt: 200000]
[data_random_seed: 1]
[is_enable_sparse: 1]
[enable_bundle: 1]
[use_missing: 1]
[zero_as_missing: 0]
[feature_pre_filter: 1]
[pre_partition: 0]
[two_round: 0]
[header: 0]
[label_column: ]
[weight_column: ]
[group_column: ]
[ignore_column: ]
[categorical_feature: ]
[forcedbins_filename: ]
[precise_float_parser: 0]
[parser_config_file: ]
[objective_seed: 5]
[num_class: 3]
[is_unbalance: 0]
[scale_pos_weight: 1]
[sigmoid: 1]
[boost_from_average: 1]
[reg_sqrt: 0]
[alpha: 0.9]
[fair_c: 1]
[poisson_max_delta_step: 0.7]
[tweedie_variance_power: 1.5]
[lambdarank_truncation_level: 30]
[lambdarank_norm: 1]
[label_gain: ]
[lambdarank_position_bias_regularization: 0]
[eval_at: ]
[multi_error_top_k: 1]
[auc_mu_weights: ]
[num_machines: 1]
[local_listen_port: 12400]
[time_out: 120]
[machine_list_filename: ]
[machines: ]
[gpu_platform_id: -1]
[gpu_device_id: -1]
[gpu_use_dp: 0]
[num_gpu: 1]

end of parameters

pandas_categorical:null
