tree
version=v4
num_class=3
num_tree_per_iteration=3
label_index=0
max_feature_idx=49
objective=multiclass num_class:3
feature_names=returns_1 returns_2 returns_3 returns_5 returns_10 returns_20 returns_50 returns_100 returns_200 price_to_sma_20 price_to_sma_50 price_to_sma_200 sma_20_slope sma_50_slope sma_200_slope price_to_ema_12 price_to_ema_26 ema_12_26_spread macd macd_signal macd_hist rsi_14 atr_14 atr_pct_14 bollinger_width_20 bollinger_percent_b_20 volume_20 volume_ratio_20 vwap_distance adx_14 high_low_range close_open_range gap_open day_of_week day_of_month days_to_month_end news_sentiment_1d news_sentiment_7d news_article_count_7d earnings_proximity_days congress_buy_score congress_cluster_30d days_since_last_congress insider_buy_score insider_cluster_60d insider_value_60d ceo_bought_90d analyst_upgrade_score consensus_rating watchlist_research_score
feature_infos=[-0.28915662650602408:0.81689081948041098] [-0.36250675310642899:1.5364431486880463] [-0.41778709757000121:2.5749506903353057] [-0.40010712372790574:2.6662452591656134] [-0.55471698113207546:3.5242850098619329] [-0.56087331935364493:7.2799754407508113] [-0.66413318856315595:12.650871593420081] [-0.76996402877697845:13.98006250673564] [-0.35076617752071942:12.2953530572633] [-0.44514214516964007:1.9959812527334035] [-0.54683971275572019:3.0699540183036658] [-0.39279568684399124:7.4838100827702476] [-0.043411280628643134:0.12167376752198836] [-0.029520843726627617:0.081591075858308132] [-0.0027598910517627902:0.039974615302049731] [-0.36557530604645422:1.3049112494593789] [-0.45803246057157565:1.8499256028304303] [-1461.4437366763104:2539.2992452797898] [-1461.4437366763104:2539.2992452797898] [-1274.1336681598152:2286.3661752412563] [-718.19632372787464:579.63956129135545] [18.467845904709023:94.126633627204313] [0.019050684932131294:1896.1020462691793] [0.051310610558947853:0.42020519754513791] [0.12928130894251824:2.3477276452772942] [-0.23542350804144771:1.5035305997466901] [2383.4000000000001:52701.800000000003] [0.00044218439089100157:3.4150768146732573] [-0.45728949799285878:4.6585981093697537] [34.730555020364612:99.477684528867471] [0:0.7313559322033899] [-0.28915662650602408:0.81689081948041098] [-0.067924528301886694:0.5148565449103254] [0:6] [1:31] [1:31] none none none none none none none none none none none none none none
tree_sizes=2925 1364 2832 3071 3051 2970 3083 3284 3188 3097 3285 2988 2872 3273 3199 3079 3277 3086 2874 3297 3095 2877 3281 3199 2981 3401 3091

Tree=0
num_leaves=27
num_cat=0
split_feature=34 15 9 8 16 24 14 11 27 33 17 28 27 7 32 21 20 1 24 10 21 7 3 33 33 27
split_gain=8.96238 7.10217 8.71867 7.37036 6.95544 7.50651 5.39577 5.03446 5.86008 6.36397 6.66718 4.73803 4.20215 4.04316 4.42535 2.68029 2.56889 2.53668 2.51911 2.86146 2.48353 6.41708 8.09988 6.48147 5.60001 4.18839
threshold=2.5000000000000004 -0.099502383145641624 0.063177693973867077 4.863596136705115 -0.18142518594044618 0.55270870962126872 0.0044941318717156998 -0.28279325578435854 0.71058791707675506 2.5000000000000004 0.0088081784753304988 3.343356918641883 1.2045836695577721 -0.14900800152718718 0.00058832736730574629 40.651810068392102 -0.00017392833253180529 -0.0081733861897046508 0.27857852065189376 -0.13375433364404854 72.247199663072436 -0.34651916755957429 0.14428018245429397 2.5000000000000004 4.5000000000000009 1.1330564361056379
decision_type=2 2 2 2 2 2 2 2 2 2 2 2 2 2 2 2 2 2 2 2 2 2 2 2 2 2
left_child=6 4 3 7 5 12 -1 -3 13 18 17 20 -2 -9 16 -6 -15 -11 -10 -20 21 22 -4 -23 -25 -22
right_child=1 2 11 -5 15 -7 -8 8 9 10 -12 -13 -14 14 -16 -17 -18 -19 19 -21 25 23 -24 24 -26 -27
leaf_value=-0.75852401669147029 -0.64423808101665325 -0.71254691613263588 -0.74562076588947479 -0.63125104287178757 -0.7527269040123129 -0.72216030988584667 -0.70211365100582346 -0.66843375208294331 -0.63031864013318184 -0.68579660308022306 -0.71749829619281802 -0.66155413187647394 -0.694755777220739 -0.70074612698920169 -0.67576523568556823 -0.71185725962425339 -0.73852397794837732 -0.64741269034095372 -0.63731166067272482 -0.67431332724686821 -0.74185731773889285 -0.65347330814189097 -0.68444979912445925 -0.7251906187863153 -0.67519052192858287 -0.69757151766490122
leaf_weight=7.4999856948852566 7.8749849796295228 10.874979257583616 11.624977827072145 8.2499842643737775 8.6249835491180438 12.374976396560667 9.7499814033508283 13.874973535537718 9.7499814033508283 8.2499842643737811 9.7499814033508283 8.2499842643737775 8.6249835491180402 11.249978542327883 10.874979257583616 7.499985694885253 7.4999856948852566 8.9999828338623065 8.249984264373774 14.249972820281988 8.9999828338623065 12.374976396560667 10.124980688095091 10.499979972839357 11.999977111816404 13.124974966049193
leaf_count=20 21 29 31 22 23 33 26 37 26 22 26 22 23 30 29 20 20 24 22 38 24 33 27 28 32 35
internal_value=-0.691765 -0.689395 -0.685514 -0.676883 -0.707413 -0.692723 -0.72664 -0.680196 -0.676772 -0.666541 -0.68445 -0.697604 -0.670645 -0.690708 -0.70114 -0.733718 -0.715857 -0.66577 -0.651547 -0.660746 -0.701381 -0.695831 -0.717145 -0.682538 -0.698524 -0.715586
internal_weight=271.124 253.875 208.875 121.875 44.9999 28.8749 17.25 113.625 102.75 59.2499 26.9999 86.9998 16.5 43.4999 29.6249 16.125 18.75 17.25 32.2499 22.5 78.7498 56.6249 21.75 34.8749 22.5 22.125
internal_count=723 677 557 325 120 77 46 303 274 158 72 232 44 116 79 43 50 46 86 60 210 151 58 93 60 59
is_linear=0
shrinkage=1


Tree=1
num_leaves=12
num_cat=0
split_feature=34 21 7 10 34 31 26 20 35 3 2
split_gain=10.0709 5.0213 11.4784 7.19559 6.4275 3.64997 2.71901 2.64602 1.29782 2.98736 1.77636e-15
threshold=29.500000000000004 44.816439835910565 3.1315440759637192 -0.075135164601914731 16.500000000000004 0.14380508133238581 4435.5250000000005 -135.48762258407194 27.500000000000004 0.10141140535542136 -0.0089005704577618406
decision_type=2 2 2 2 2 2 2 2 2 2 2
left_child=1 2 3 6 -5 8 -1 -8 10 -10 -3
right_child=-2 5 -4 4 -6 -7 7 -9 9 -11 -12
leaf_value=-3.4284997908305828 -3.3698248358118574 -3.5267462271410075 -3.3007794236270316 -3.481552866438212 -3.3007794236270316 -3.4191429873724473 -3.448826639722395 -3.5267462271410075 -3.5267462271410075 -3.4137628253840195 -3.5267462271410075
leaf_weight=1.0178486257791508 1.5931543707847584 5.0892431288957676 0.8850857615470894 1.106357201933865 0.88508576154708851 0.92934004962444205 1.2833743542432756 7.2134489566087732 1.7259172350168221 0.88508576154708851 9.3819090723991359
leaf_count=23 36 115 20 25 20 21 29 163 39 20 212
internal_value=-3.49237 -3.49879 -3.47429 -3.48764 -3.40121 -3.51564 -3.50573 -3.51498 -3.52089 -3.48845 -3.52675
internal_weight=31.9959 30.4027 12.3912 11.5061 1.99144 18.0115 9.51467 8.49682 17.0822 2.611 14.4712
internal_count=723 687 280 260 45 407 215 192 386 59 327
is_linear=0
shrinkage=1


Tree=2
num_leaves=26
num_cat=0
split_feature=35 35 0 33 20 6 27 3 1 2 21 33 14 35 35 35 0 11 30 30 3 1 3 27 0
split_gain=16.748 6.822 7.88554 10.0835 8.60441 6.84168 5.62738 6.25699 6.29944 4.81193 4.57192 5.20784 4.20679 4.02665 12.707 6.18852 4.08507 3.3397 2.98461 6.56655 3.58426 2.79027 2.32329 1.16647 0.640272
threshold=28.500000000000004 24.500000000000004 -0.014811560904685122 1.5000000000000002 0.0092674327143815825 0.84162464720356278 1.1263281228469586 -0.015067919706494759 0.035145944981516179 -0.093087673662506712 39.014231028040008 1.0000000180025095e-35 0.010679765744608336 12.500000000000002 15.500000000000002 19.500000000000004 0.0090663968755493752 0.4112765196688512 0.15244126399278743 0.11848930313583562 -0.10294593444868362 0.18372370953861603 -0.0044281527359659664 0.82669052745663552 -0.043430156881954493
decision_type=2 2 2 2 2 2 2 2 2 2 2 2 2 2 2 2 2 2 2 2 2 2 2 2 2
left_child=1 2 3 10 13 9 7 -6 -9 -3 -1 -12 18 16 -15 -16 -4 -2 19 20 -5 -8 -18 -11 -22
right_child=17 5 4 12 6 -7 21 8 -10 23 11 -13 -14 14 15 -17 22 -19 -20 -21 24 -23 -24 -25 -26
leaf_value=-0.7398584119673498 -0.6916717399691229 -0.76197306819842014 -0.76811602826260628 -0.74632022621998562 -0.78001397196587219 -0.74107524711882011 -0.78893742974332159 -0.70440575539207773 -0.75152754906093755 -0.82016953196439468 -0.80632278713731798 -0.75770532752224862 -0.76280444625221977 -0.71420347085718272 -0.81124607418694517 -0.76182384649645607 -0.81634519291691632 -0.73247348139290891 -0.7065982511604928 -0.77555224307714754 -0.69906546212758092 -0.750056649427292 -0.78192614148961137 -0.79538214924925732 -0.71844211330147123
leaf_weight=9.3386821448802966 9.3386821448802966 8.591587573289873 13.447702288627623 10.832871288061137 7.470945715904235 8.2180402874946576 11.206418573856356 13.821249574422838 14.568344146013258 8.9651348590850848 10.832871288061142 11.206418573856354 10.459324002265928 8.9651348590850812 11.206418573856356 14.568344146013258 13.074155002832411 10.83287128806114 12.327060431241987 7.8444930016994467 7.8444930016994467 7.8444930016994467 7.8444930016994503 10.085776716470717 9.3386821448803037
leaf_count=25 25 23 36 29 20 22 30 37 39 24 29 30 28 24 30 39 35 29 33 21 21 21 21 27 25
internal_value=-0.757409 -0.760947 -0.757565 -0.746301 -0.765742 -0.781129 -0.750967 -0.739301 -0.728587 -0.793037 -0.769178 -0.781602 -0.734061 -0.777482 -0.765477 -0.783312 -0.789616 -0.713584 -0.727822 -0.735118 -0.723796 -0.772928 -0.803438 -0.807047 -0.709596
internal_weight=270.075 249.903 214.043 90.0249 124.018 35.8605 54.9115 35.8605 28.3896 27.6425 31.378 22.0393 58.6469 69.1062 34.7399 25.7748 34.3664 20.1716 48.1876 35.8605 28.016 19.0509 20.9186 19.0509 17.1832
internal_count=723 669 573 241 332 96 147 96 76 74 84 59 157 185 93 69 92 54 129 96 75 51 56 51 46
is_linear=0
shrinkage=1


Tree=3
num_leaves=28
num_cat=0
split_feature=35 15 25 30 10 33 5 7 0 34 35 24 34 1 2 4 23 24 1 7 7 22 15 34 33 20 7
split_gain=13.7707 7.41352 7.32464 8.43553 5.70248 5.6114 9.28582 8.5863 5.28625 6.51537 5.07593 4.826 4.37007 4.58044 4.345 3.63669 3.56329 3.27587 2.58488 2.53335 2.51957 3.78832 5.00003 2.69349 2.33865 1.73759 1.52577
threshold=28.500000000000004 -0.099502383145641624 0.76247150019978072 0.1223512607744562 -0.25228986686700944 2.5000000000000004 -0.23156304847356859 -0.40205053838467691 0.0090663968755493752 10.500000000000002 12.500000000000002 0.60267633756874417 22.500000000000004 0.02056488908476569 0.0017718980733902716 -0.1240961714938965 0.19164361543101882 0.7898184078827255 -0.10310459444575563 1.3548450032693495 3.1315440759637192 13.567044073672514 0.1114696074703337 14.500000000000002 3.5000000000000004 -2.8088214890418888 -0.020555374718210704
decision_type=2 2 2 2 2 2 2 2 2 2 2 2 2 2 2 2 2 2 2 2 2 2 2 2 2 2 2
left_child=1 4 3 5 11 7 15 -3 9 -8 -10 18 13 26 -4 -7 -6 24 -1 -2 21 -16 -23 -24 -5 -11 -9
right_child=19 2 14 17 16 6 8 12 10 25 -12 -13 -14 -15 20 -17 -18 -19 -20 -21 -22 22 23 -25 -26 -27 -28
leaf_value=-0.0030126726418118277 -0.054957852443866612 -0.024285894562262329 -0.041118055778049854 0.0328776387982865 -0.049584368157058724 0.053312059641397513 0.0066332554706192322 0.033420860484253738 0.027426110370922394 -0.0325768373415391 -0.022210102057624199 -0.029151186509173612 0.0046309697384041863 0.005670765981690893 0.01561691324946355 0.0057979123721736735 -0.0096646309894032195 0.010373144705604999 0.036621288549796911 -0.019167805752719157 0.022025421598895627 0.013062311752711339 -0.047996454775495051 -0.011010427213252648 0.065220268254901625 -0.06583934484877077 0.060992005725240862
leaf_weight=7.8721674382686642 11.592948317527773 9.3674264848232252 8.2404977381229383 13.862064361572267 13.109195679426195 7.8715703189373043 7.4973869621753719 7.8670295774936703 10.490628451108934 7.4955424368381509 10.118526965379713 8.2453295886516553 13.108209848403929 7.4932649731636038 12.744195729494093 8.2458055317401868 9.7459186911582929 8.9909479320049268 8.6167597472667712 8.6213733255863172 8.9966544210910779 9.3682852089405078 10.870996981859209 8.9957500696182233 9.3655017018318159 8.2451806068420375 13.855180442333223
leaf_count=21 31 25 22 37 35 21 20 21 28 20 27 22 35 20 34 22 26 24 23 23 24 25 29 24 25 22 37
internal_value=5.36574e-06 0.0032066 0.00736889 0.0134607 -0.0145562 0.00695722 -0.00344978 0.0190299 -0.0153789 -0.0317283 0.0030561 0.0020813 0.0286169 0.0393788 -0.00743203 0.0290034 -0.0325617 0.0359991 0.0176992 -0.0396935 -0.00198652 -0.00713257 -0.0170496 -0.031249 0.0459184 -0.0500001 0.0510067
internal_weight=270.894 250.68 203.091 143.874 47.5894 111.656 59.9646 51.6911 43.8473 23.2381 20.6092 24.7343 42.3237 29.2155 59.2164 16.1174 22.8551 32.2185 16.4889 20.2143 50.9759 41.9792 29.235 19.8667 23.2276 15.7407 21.7222
internal_count=723 669 542 384 127 298 160 138 117 62 55 66 113 78 158 43 61 86 44 54 136 112 78 53 62 42 58
is_linear=0
shrinkage=0.05


Tree=4
num_leaves=27
num_cat=0
split_feature=11 30 6 1 13 23 5 23 12 5 10 26 31 25 26 15 33 25 16 24 8 22 8 16 19 24
split_gain=7.8268 10.4339 8.90873 6.54337 2.89545 2.65925 5.57363 3.09913 0.955493 6.43913 0.751232 1.77654e-06 1.61242e-06 1.83422e-06 1.3094e-06 8.1204e-07 5.02581e-07 4.41468e-07 2.52604e-07 5.83191e-07 1.83704e-07 1.65746e-07 1.359e-07 1.06008e-07 6.69371e-08 5.38815e-08
threshold=-0.13427884138647309 0.084538498883197075 0.10504051532841414 -0.035900291656404494 -0.015184456627999032 0.076233311517824573 0.5752082307870221 0.27761442520314678 -0.0089932181606547975 -0.19738853482401295 0.13285393572621876 4669.5750000000007 0.10641640183525163 0.17581111914992545 16430.650000000005 -0.087439324920193753 2.5000000000000004 0.99767340152289108 0.04756806929414651 0.41194525638293761 2.2330892611050319 8.2223274292442703 2.6270406596184839 0.011253674993960997 53.252652809816034 0.30796564034088625
decision_type=2 2 2 2 2 2 2 2 2 2 2 2 2 2 2 2 2 2 2 2 2 2 2 2 2 2
left_child=1 2 11 -3 -2 6 10 8 9 14 -6 -1 13 -10 20 -16 -13 18 23 -20 -7 22 -21 25 -23 -15
right_child=4 3 -4 -5 5 7 -8 -9 12 -11 -12 16 -14 17 15 -17 -18 -19 19 21 -22 24 -24 -25 -26 -27
leaf_value=-0.034457165509010283 0.074440443603949649 0.060936275035155064 0.11942527797562229 0.24500537278738488 0.02368821775560942 -0.034337727318228171 0.13147841837898747 0.061612293241838548 -0.034426950243499004 0.096357130230131649 -0.034370608326769907 -0.034354081936523249 -0.034418939431015011 -0.034340532676239287 -0.034434319187103053 -0.034375632879648205 -0.034399662404711664 -0.034383612550112325 -0.034390632945451145 -0.034375245797218283 -0.034363162379424113 -0.03433554650971312 -0.034347611509006948 -0.034331421790965592 -0.03435040245326295 -0.034354215806426197
leaf_weight=0.99196149408817236 0.91849825531244533 1.0486755557358263 1.2994362413883207 0.89476721361279477 0.86147638037801133 1.4472141265869143 0.90423248708248127 1.040162470191716 0.92008367925881884 1.1473331786692238 1.5772189311683176 1.1658888421952727 1.2338263057172287 1.4513618908822521 1.0154055431485178 1.4051223844289777 1.2565747275948522 1.106833267956971 1.0693044885993002 0.92271316796541192 1.3933771438896654 1.571974150836468 0.85915118083357811 1.6509020216763017 1.4647686593234537 1.4267050996422765
leaf_count=21 20 23 27 20 20 34 20 21 20 26 36 27 27 34 22 32 28 25 24 21 32 37 20 39 34 33
internal_value=-5.97809e-05 0.0481954 0.00800333 0.145682 -0.0127136 -0.015985 0.0254519 -0.0225419 -0.0268998 -0.010968 -0.0138612 -0.0344008 -0.0343644 -0.034359 -0.0343732 -0.0344003 -0.0343777 -0.0343536 -0.0343504 -0.0343572 -0.0343502 -0.0343498 -0.0343619 -0.0343415 -0.0343427 -0.0343473
internal_weight=32.045 6.6573 4.71386 1.94344 25.3877 24.4692 3.34293 21.1262 20.0861 6.40845 2.4387 3.41443 13.6776 12.4438 5.26112 2.42053 2.42246 11.5237 10.4169 5.88791 2.84059 4.81861 1.78186 4.52897 3.03674 2.87807
internal_count=723 146 103 43 577 557 76 481 460 146 56 76 314 287 120 54 55 267 242 136 66 112 41 106 71 67
is_linear=0
shrinkage=0.05


Tree=5
num_leaves=27
num_cat=0
split_feature=35 35 34 34 35 0 35 25 5 9 35 6 33 20 33 33 3 27 7 0 33 30 5 27 8 8
split_gain=14.8651 6.28154 8.08183 14.2228 11.0856 9.88988 8.38628 8.33983 7.45035 6.8949 8.20033 6.29681 6.09247 5.60848 4.38615 11.727 4.25356 3.76041 3.38836 3.29715 2.82299 2.67152 3.2302 1.324 1.22093 0.292903
threshold=28.500000000000004 24.500000000000004 19.500000000000004 21.500000000000004 15.500000000000002 -0.010667921123601504 19.500000000000004 0.23018636146818919 -0.23156304847356859 -0.13668040609258272 21.500000000000004 0.84162464720356278 1.5000000000000002 2.4686563977665856 2.5000000000000004 4.5000000000000009 -0.055752971538419939 0.85644516635868684 1.3548450032693495 -0.023378314516867924 2.5000000000000004 0.065685918532417842 0.5752082307870221 1.0399088739135878 1.8429398381912265 2.2441620198096461
decision_type=2 2 2 2 2 2 2 2 2 2 2 2 2 2 2 2 2 2 2 2 2 2 2 2 2 2
left_child=1 2 4 24 12 8 13 -7 17 -8 -11 14 -1 19 -3 -16 -12 -5 -2 -6 -10 -9 -23 -14 -4 -21
right_child=18 11 3 5 6 7 9 21 20 10 16 -13 23 -15 15 -17 -18 -19 -20 25 -22 22 -24 -25 -26 -27
leaf_value=-0.0016202122769632269 0.058841352629181033 -0.056504026118904274 -0.035342387786391212 -0.035746760582564492 -0.0081751955217359822 -0.053324504368825444 0.047517385759580512 0.017789429463087491 0.015439287653066082 0.031252917204394631 -0.048817593889210684 0.015652167370072492 0.036334673352788831 0.0077740150452252372 0.026305104684113706 -0.061317093526923307 -8.0080706926143158e-05 0.011068757276393115 0.0174507796132005 -0.040618000617869299 0.050177878464752058 -0.030231235909191401 0.010025961571892872 0.060033521592897293 -0.061836582183910097 -0.054653791795352784
leaf_weight=8.9635599553585035 11.619317442178728 12.244950711727144 7.457762777805331 7.4619575738906887 8.2166347801685333 12.279794365167616 11.22316539287567 9.3281617164611834 10.827101677656175 13.816895991563795 7.4591810405254355 8.2244943976402265 13.469060420989992 12.701090186834334 7.8453224599361402 7.4396194219589233 11.196705877780916 10.088765740394591 8.6073964834213239 7.4278467297554016 12.717657744884489 12.666899323463442 8.2141867578029615 10.478396922349928 10.429512977600096 7.4400750398635864
leaf_count=24 31 33 20 20 22 33 30 25 29 37 20 22 36 34 21 20 30 27 23 20 34 34 22 28 28 20
internal_value=1.71241e-06 -0.00333885 -9.57541e-05 -0.0103252 0.00913972 -0.00166556 -0.000964863 -0.0185801 0.0158226 0.013733 0.00205657 -0.0227374 0.0335428 -0.0189117 -0.0342062 -0.0163431 -0.0195668 -0.00883557 0.0412278 -0.0335941 0.0342033 -0.00445685 -0.0143949 0.0467043 -0.0507903 -0.0476417
internal_weight=269.846 249.619 213.864 101.472 112.393 83.5845 79.4816 42.489 41.0955 43.6959 32.4728 35.7544 32.911 35.7856 27.5299 15.2849 18.6559 17.5507 20.2267 23.0846 23.5448 30.2092 20.8811 23.9475 17.8873 14.8679
internal_count=723 669 573 272 301 224 213 114 110 117 87 96 88 96 74 41 50 47 54 62 63 81 56 64 48 40
is_linear=0
shrinkage=0.05


Tree=6
num_leaves=28
num_cat=0
split_feature=35 35 35 24 8 35 34 34 31 3 33 32 5 14 30 17 4 33 9 31 7 32 24 4 8 9 27
split_gain=12.0863 6.82712 6.60984 6.45205 6.13001 5.83054 17.2721 13.5115 7.95908 7.48514 6.52171 4.61525 4.53751 4.18531 4.95496 3.66854 4.20058 3.74627 3.32969 2.79484 4.55003 2.38242 2.3685 2.28542 1.55474 1.40676 1.39958
threshold=28.500000000000004 22.500000000000004 19.500000000000004 0.37215033095445371 4.4261927143766 15.500000000000002 19.500000000000004 21.500000000000004 -0.014785179837598019 -0.049214728461261507 1.5000000000000002 1.0000000180025095e-35 -0.23156304847356859 0.002991632122336039 0.13184027255103639 59.66244546573531 -0.010497470437364624 3.5000000000000004 0.077123586998939023 0.02387516425848454 0.20332642878281645 -2.3470721060927164e-05 0.44637977329842865 -0.023484394564846498 1.8429398381912265 0.061023953054724044 0.82669052745663552
decision_type=2 2 2 2 2 2 2 2 2 2 2 2 2 2 2 2 2 2 2 2 2 2 2 2 2 2 2
left_child=1 2 4 26 5 6 21 24 10 22 -9 -11 -12 -4 -15 16 17 -5 -6 20 -7 -1 -10 -2 -8 -23 -3
right_child=23 3 13 15 18 19 7 8 9 11 12 -13 -14 14 -16 -17 -18 -19 -20 -21 -22 25 -24 -25 -26 -27 -28
leaf_value=-0.017862135565755059 -0.015304574671391836 0.056473510716234125 -0.049997000071191885 0.020213989617798949 0.041912920730262024 -0.017928742827559557 0.031099543641388717 0.0075502806086788265 0.057005796349181584 -0.025064175137039554 -0.010334842001031299 0.019612912692007572 -0.055983522876040651 0.01801645120289444 -0.038187115032667529 -0.025484041083875239 0.04195603097663874 -0.026846102615316038 0.0059625695381576435 0.044679690255527295 0.02886295170294886 -0.063060203478118415 0.017684022402117014 -0.050210829905975196 0.063338825517461977 -0.035984117234003347 0.029822543303623206
leaf_weight=7.4796248078346279 7.4472304582595852 8.5735870599746722 10.104220479726793 9.7272299528121966 13.453166574239733 8.9745312929153496 7.485208183526991 11.986806243658064 7.8481148183345777 14.234694212675096 8.9811535179615021 9.7328799366950971 13.821466863155365 8.2334009706974012 7.4879657030105582 7.4829619526863089 8.9699215292930621 7.4816258549690238 12.356500297784804 7.4818547666072837 12.337657839059828 10.831387192010881 7.4789629578590393 12.661808490753172 7.473284125328064 8.610954672098158 11.579494297504423
leaf_count=20 20 23 27 26 36 24 20 32 21 38 24 26 37 22 20 20 24 20 33 20 33 29 20 34 20 23 31
internal_value=1.01452e-05 0.00300741 -0.00131598 0.0187854 0.00225327 -0.00174913 -0.00674937 0.00386109 -0.00489085 0.0105296 -0.0223082 -0.00692147 -0.0380041 -0.0248896 -0.00875287 0.0053895 0.0142144 -0.000245593 0.0247015 0.0183887 0.00915904 -0.0418428 0.0378184 -0.0372836 0.0472063 -0.0510683 0.0411605
internal_weight=270.318 250.209 196.394 53.8148 170.568 144.759 115.965 89.0426 74.0841 39.2947 34.7894 23.9676 22.8026 25.8256 15.7214 33.6617 26.1788 17.2089 25.8097 28.794 21.3122 26.922 15.3271 20.109 14.9585 19.4423 20.1531
internal_count=723 669 525 144 456 387 310 238 198 105 93 64 61 69 42 90 70 46 69 77 57 72 41 54 40 52 54
is_linear=0
shrinkage=0.05


Tree=7
num_leaves=29
num_cat=0
split_feature=34 9 7 7 7 17 30 14 11 21 13 25 23 21 13 11 21 0 30 12 25 15 21 2 23 33 9 34
split_gain=8.24978 4.5705 6.89154 5.41576 8.21674 3.55076 2.66679 5.61242 1.04066 0.881192 9.21566e-06 3.8155e-06 1.77692e-06 1.75019e-06 1.10369e-06 7.38674e-07 7.30846e-07 6.2481e-07 5.38201e-07 3.98861e-07 3.60829e-07 1.52057e-07 1.48446e-07 1.56411e-07 1.04474e-07 9.67888e-08 6.96055e-08 6.83126e-08
threshold=29.500000000000004 -0.057392618100129016 3.1315440759637192 0.14523268335754272 -0.06775800456301477 898.26155401603239 0.084538498883197075 0.0020935093569828828 -0.14728278838978306 32.832736137705503 0.0016634203235152353 0.97503970975256582 0.076963981239000098 46.595667136453308 -0.013888338547350864 0.10791824050039013 38.644621106233508 0.076098783878833509 0.053049401064958646 -0.011131063037006053 0.71832167335254204 -0.022916055867114028 51.421062563468972 0.015691100981610532 0.081908751228552748 4.5000000000000009 0.18234821879145827 16.500000000000004
decision_type=2 2 2 2 2 2 2 2 2 2 2 2 2 2 2 2 2 2 2 2 2 2 2 2 2 2 2 2
left_child=1 2 3 4 6 8 9 -8 -3 -1 -11 13 -13 -10 -5 -16 -17 -14 20 -18 -15 -20 -23 24 -24 27 -26 -25
right_child=-2 5 -4 14 -6 -7 7 -9 11 10 -12 12 17 18 15 16 19 -19 21 -21 -22 22 23 25 26 -27 -28 -29
leaf_value=0.024129712184958064 0.10358323547369906 0.021137643447746324 0.10629193680983991 -0.034398402643585402 0.16254452918937914 0.067059485445767883 -0.034540129446536956 0.11902065889581503 -0.034390623800372402 -0.034369790040376026 -0.034565238307188446 -0.034444902118793488 -0.034332598963079212 -0.034321640154722652 -0.034295930574366848 -0.034380771570949153 -0.034313484312782409 -0.034390540726979252 -0.034294970217766577 -0.034350589599722307 -0.034363553402599271 -0.03433122603331569 -0.034333241348890424 -0.03432133624903299 -0.034302292452704518 -0.034293596251029408 -0.034322754786604869 -0.034302358612782455
leaf_weight=0.85504003986716215 1.8099949769675721 0.90000123158097167 1.7751822285354144 0.89633154124021519 1.0149572119116772 0.98500759527087289 1.0956013575196268 1.3022826910018919 0.88444884121417899 1.6168649382889273 0.96193911135196675 0.93054724484682028 0.97293839976191498 1.1731698624789708 0.85824539884924878 1.1482183523476122 1.3302035890519617 0.89167942479252815 1.1847604848444397 1.5899048596620562 0.91321050003170956 1.0973834544420284 0.97493565827608142 0.8795469589531425 0.82297024875879266 1.346092991530895 0.83958801627159119 1.0289236791431902
leaf_count=20 36 20 36 20 21 21 22 26 20 37 19 20 23 28 21 26 32 20 29 37 21 26 23 21 20 33 20 25
internal_value=-0.000107905 -0.00630812 0.0140279 0.0011004 0.0312477 -0.0248702 0.00839669 0.0488582 -0.030972 -0.0198579 -0.0344427 -0.0343362 -0.0343885 -0.0343231 -0.0343474 -0.0343381 -0.034347 -0.0343603 -0.0343173 -0.0343337 -0.03434 -0.0343115 -0.0343143 -0.0343112 -0.0343202 -0.0343039 -0.0343126 -0.0343111
internal_weight=32.08 30.27 14.4448 12.6696 6.84669 15.8252 5.83173 2.39788 14.8402 3.43384 2.5788 13.9402 2.79517 11.145 5.8229 4.92657 4.06833 1.86462 10.2606 2.92011 2.08638 8.1742 6.98944 5.89206 2.63749 3.25456 1.66256 1.90847
internal_count=723 687 317 281 145 370 124 48 349 76 56 329 63 266 136 116 95 43 246 69 49 197 168 142 63 79 40 46
is_linear=0
shrinkage=0.05


Tree=8
num_leaves=29
num_cat=0
split_feature=35 35 34 34 35 0 2 35 5 10 34 33 15 3 0 2 2 9 1 2 7 19 19 32 7 8 27 8
split_gain=13.0405 5.79819 7.37196 13.13 10.0672 8.97946 8.605 7.76688 6.86912 6.36949 6.28255 5.51083 5.49616 4.75598 8.46405 4.44238 4.18047 3.56189 3.04417 3.42169 3.00854 2.5115 2.11643 1.64805 1.27079 1.14353 1.12214 1.09371
threshold=28.500000000000004 24.500000000000004 19.500000000000004 21.500000000000004 15.500000000000002 -0.010667921123601504 -0.019198694210445993 19.500000000000004 -0.23156304847356859 -0.21956278717135083 10.500000000000002 1.5000000000000002 0.099234444036436678 0.0137330616042223 0.025872558708340914 -0.093087673662506712 -0.078168788125397973 -0.16402232467169608 0.055217463155059217 0.039191765335007997 1.3548450032693495 0.21743749204580554 8.9897618511333217 1.0000000180025095e-35 0.62995790450021483 1.8429398381912265 0.82669052745663552 1.9916665016158148
decision_type=2 2 2 2 2 2 2 2 2 2 2 2 2 2 2 2 2 2 2 2 2 2 2 2 2 2 2 2
left_child=1 2 4 25 11 8 27 13 17 -9 22 -1 15 24 -15 -3 -10 -5 19 -8 -2 -18 -11 -13 -6 -4 -17 -7
right_child=20 12 3 5 7 6 18 9 16 10 -12 23 -14 14 -16 26 21 -19 -20 -21 -22 -23 -24 -25 -26 -27 -28 -29
leaf_value=-0.0014214454295130526 0.055249569325510686 -0.0037274338937719359 -0.033861449373679776 0.010819014862725124 -0.025320980732107118 -0.059905430490950685 -0.0072664298501214242 0.040777401189203887 0.061514884330141628 -0.036983491878857085 0.029471395923742968 0.032230166570271244 0.016290503726911997 0.02470669010157326 -0.042246201861603085 -0.058927584383558655 0.037077792925857833 -0.034783620118282572 -0.023616205486090946 0.037425217057801996 0.016246727743033193 -0.0034199204354108657 -0.0027310852698199666 0.058498509237277986 -0.053645400154136672 -0.05958254615228601 -0.034445112362017458 -0.033346100069937872
leaf_weight=8.9570801556110364 11.5983884036541 9.3193642795085925 7.4227443039417293 10.083687871694567 8.5168730020523054 8.1376204192638379 10.046624124050146 14.21884912252426 8.2380449771881121 8.1738082468509727 11.216756671667097 12.738934278488161 7.4738864600658408 11.940764218568804 7.8064409494400016 8.8298671245574969 7.8582738041877729 7.4422147274017325 9.2960301041603071 7.4651173055171958 8.6180874109268171 7.4652009904384613 10.060874611139296 11.238833159208296 7.4011665880680075 10.341857403516768 9.9592793583869916 7.4021015465259543
leaf_count=24 31 25 20 27 23 22 27 38 22 22 30 34 20 32 21 24 21 20 25 20 23 20 27 30 20 28 27 20
internal_value=2.67101e-06 -0.00313228 -1.75542e-05 -0.00980426 0.0088041 -0.00149395 -0.017651 -0.000842771 0.0151586 0.0132953 2.71769e-05 0.0320421 -0.0218185 -0.0181541 -0.00176105 -0.0319515 0.0327907 -0.00854573 -0.000490769 0.0117853 0.038623 0.0173484 -0.0180849 0.0445426 -0.0384906 -0.0488353 -0.0459505 -0.0472543
internal_weight=269.269 249.052 213.47 101.2 112.27 83.4349 42.3475 79.3355 41.0874 43.6703 29.4514 32.9348 35.5824 35.6652 19.7472 28.1085 23.5615 17.5259 26.8078 17.5117 20.2165 15.3235 18.2347 23.9778 15.918 17.7646 18.7891 15.5397
internal_count=723 669 573 272 301 224 114 213 110 117 79 88 96 96 53 76 63 47 72 47 54 41 49 64 43 48 51 42
is_linear=0
shrinkage=0.05


Tree=9
num_leaves=28
num_cat=0
split_feature=35 15 9 30 16 24 1 35 11 33 27 0 4 1 30 14 20 2 15 15 27 30 4 21 33 28 1
split_gain=10.645 6.38545 6.4832 8.63843 6.16913 5.11926 4.74314 4.34854 4.8545 4.57487 4.46697 4.19592 3.94768 4.59206 3.74889 3.6364 3.14856 2.51199 2.48817 7.09681 3.41873 5.52788 2.14347 2.13326 1.92052 1.40429 1.51374
threshold=28.500000000000004 -0.099502383145641624 0.063177693973867077 0.12083737953535707 -0.18142518594044618 0.60267633756874417 -0.12467051529252191 25.500000000000004 -0.28279325578435854 2.5000000000000004 0.71058791707675506 -0.035127543293625434 -0.14034803459350265 0.02964503170346974 0.079610659685646318 0.0031673281171403721 26.857339131610559 -0.018636447882333654 0.024023770150876863 0.08301710677238848 1.254002396620979 0.14152578390016854 -0.023484394564846498 40.651810068392102 4.5000000000000009 0.40533655653755046 -0.035273621094689941
decision_type=2 2 2 2 2 2 2 2 2 2 2 2 2 2 2 2 2 2 2 2 2 2 2 2 2 2 2
left_child=1 4 3 7 5 6 -1 8 -3 10 -10 -11 -13 17 -12 16 -4 -14 -17 -20 24 -22 -2 -6 -21 -5 -27
right_child=22 2 15 25 23 -7 -8 -9 9 11 14 12 13 -15 -16 18 -18 -19 19 20 21 -23 -24 -25 -26 26 -28
leaf_value=-0.018374114183042849 -0.013805137828805334 -0.029287004758269765 -0.043170844912389081 0.022453874080459707 -0.055798775527263415 -0.029843403453901591 0.031313162912685509 0.042247543076128456 0.00017129370059218636 -0.037019279702883719 0.060830623887776492 0.028748478433849291 -0.0034392979914538192 0.024617851487862691 0.017953191765207707 -0.025476148020333163 -0.0024964785978235952 -0.043992464903529212 0.037019348434977964 -0.030529702794834808 0.044428325646039164 -0.0094914011467610963 -0.047717991832470524 -0.019662544340359304 -0.00084412802160007674 0.032265709086438464 0.062112179512745794
leaf_weight=7.4796156287193325 7.4119859337806728 9.7114550173282606 9.6999606192111987 7.4400571882724789 8.5466445088386553 10.083914309740065 13.421903967857363 8.1393337547779065 14.542258739471434 7.4545336067676535 8.9044682979583758 11.17291221022605 7.8201632499694771 7.4577589929103842 11.92482554912567 7.4511404633522025 9.3383133709430677 7.4627382159233235 13.411636948585508 13.06586614251137 7.4624041318893459 13.093918353319166 12.546435058116911 7.8219120204448691 9.3453570008277875 7.8237898647785231 9.2956163883209193
leaf_count=20 20 26 26 20 23 27 36 22 39 20 24 30 21 20 32 20 25 20 36 35 20 35 34 21 25 21 25
internal_value=1.29094e-05 0.00282506 0.00669874 0.0141687 -0.0137006 -0.000583738 0.0135326 0.00730865 0.00401916 0.00823408 0.0214365 -0.00305461 0.00441116 -0.00754622 0.0362832 -0.00404167 -0.02322 -0.0232417 0.00167852 0.00526731 -0.00464358 0.0100827 -0.0351237 -0.0385306 -0.018151 0.04059 0.048472
internal_weight=269.331 249.372 202.019 119.15 47.354 30.9854 20.9015 94.5904 86.4511 76.7397 35.3716 41.3681 33.9136 22.7407 20.8293 82.8686 19.0383 15.2829 63.8303 56.3792 42.9675 20.5563 19.9584 16.3686 22.4112 24.5595 17.1194
internal_count=723 669 542 320 127 83 56 254 232 206 95 111 91 61 56 222 51 41 171 151 115 55 54 44 60 66 46
is_linear=0
shrinkage=0.05


Tree=10
num_leaves=29
num_cat=0
split_feature=34 9 7 7 7 31 27 24 21 30 6 11 21 24 21 6 26 11 21 14 17 8 5 34 2 8 4 19
split_gain=7.05143 4.33539 5.76731 5.04304 6.30793 3.75374 3.46393 3.42269 1.09529 1.63358e-05 7.754e-06 4.29015e-06 1.88335e-06 1.55996e-06 1.27596e-06 9.35169e-07 6.3506e-07 5.10783e-07 8.77409e-07 3.22222e-07 3.92939e-07 2.98068e-07 3.68992e-07 2.11277e-07 1.4214e-07 9.15072e-08 7.51387e-08 7.39188e-08
threshold=29.500000000000004 -0.057392618100129016 3.1315440759637192 0.14523268335754272 -0.06775800456301477 0.14380508133238581 1.0985533266512808 0.31793335510990117 83.718202510120491 0.085166018653039341 -0.057385536243357703 -0.14380073058817444 68.655953837208884 0.93928885687134089 46.777067122830466 -0.492938623830321 14466.350000000002 0.12167262131532053 38.644621106233508 0.0042721282119065956 47.97126508709335 3.7470269497066577 -0.20330577469870123 6.5000000000000009 0.024391034457878057 3.3573275749053431 0.11100371618194342 2.3335165296665594
decision_type=2 2 2 2 2 2 2 2 2 2 2 2 2 2 2 2 2 2 2 2 2 2 2 2 2 2 2 2
left_child=1 2 3 4 6 8 7 -1 11 10 -9 -3 14 16 -13 -5 -14 -17 -19 20 26 22 -20 -21 25 -25 27 -16
right_child=-2 5 -4 15 -6 -7 -8 9 -10 -11 -12 12 13 -15 19 17 -18 18 21 23 -22 -23 -24 24 -26 -27 -28 -29
leaf_value=0.072994744078172399 0.091094887792265877 -0.034409241949819112 0.093352009235268929 -0.034356359477670011 0.13460878390115133 0.072488787422067866 0.079510004091733144 -0.034331187892185151 0.024069015246396385 -0.034631659112700504 -0.034510175275742752 -0.034345434068894981 -0.034331826367026766 -0.034287408962551842 -0.034265856440495818 -0.034266366090712895 -0.034391668264476052 -0.034350593568731748 -0.034284574505133301 -0.034295178278903722 -0.034315332436273285 -0.034272287326635495 -0.034328226797763393 -0.034264312208951264 -0.03425607049800982 -0.034286042363976955 -0.034290844294447363 -0.034286344518193561
leaf_weight=0.93043060600757499 1.9878706149756897 0.94404254108667096 1.9527713507413871 0.90615859255194653 1.1811495758593071 0.93500564992427904 1.314834628254175 1.6040151529014097 0.85377519205212671 1.0632552541792391 0.97162109240889738 0.89091869816183944 0.84314326196908884 1.0939101502299307 0.91258572041988217 0.87264862656593312 0.93498919531702995 0.94438698887825046 0.96915414929389976 0.85751045122742642 1.2895120270550249 0.95846067368984211 0.96728162467479706 0.87149371951818499 1.5323649607598779 1.0909366086125372 1.54485896974802 0.85056861862540245
leaf_count=20 36 21 36 21 21 20 26 38 18 20 20 21 20 27 23 22 21 22 24 21 31 24 23 22 39 27 38 21
internal_value=-0.000110212 -0.00613725 0.0133621 0.00104668 0.029161 -0.0246147 0.00799404 -0.0125849 -0.0308717 -0.0344668 -0.0343987 -0.0343064 -0.0342988 -0.0343344 -0.0342884 -0.0343098 -0.0343633 -0.0343009 -0.0343087 -0.0342827 -0.0342919 -0.0342951 -0.0343064 -0.0342729 -0.0342675 -0.0342764 -0.0342828 -0.0342757
internal_weight=32.0697 30.0818 14.6362 12.6834 7.06531 15.4456 5.88416 4.56932 14.5106 3.63889 2.57564 13.6568 12.7128 2.87204 9.84075 5.61809 1.77813 4.71193 3.83928 8.94983 4.59753 2.8949 1.93644 4.35231 3.4948 1.96243 3.30801 1.76315
internal_count=723 687 317 281 145 370 124 98 350 78 58 332 311 68 243 136 41 115 93 222 113 71 47 109 88 49 82 44
is_linear=0
shrinkage=0.05


Tree=11
num_leaves=27
num_cat=0
split_feature=35 35 34 34 35 0 25 11 0 10 19 9 6 33 32 31 33 33 1 8 33 33 32 6 32 8
split_gain=11.4594 5.20345 6.60575 11.7135 8.71257 7.96809 7.1475 6.93432 6.90059 7.85311 6.88907 6.02086 5.4105 5.11102 4.76159 3.96931 3.82585 10.7656 2.90986 2.59691 2.24361 2.05037 2.02628 1.73047 1.46516 1.0535
threshold=28.500000000000004 24.500000000000004 19.500000000000004 21.500000000000004 15.500000000000002 -0.010667921123601504 0.23018636146818919 -0.15053098277074947 -0.014811560904685122 0.36260609802088756 -0.063236158130584433 0.044979399400631288 0.84162464720356278 1.5000000000000002 0.00014339438736120046 0.027630976661908998 2.5000000000000004 4.5000000000000009 -0.027682619787025152 3.5465593206473396 2.5000000000000004 2.5000000000000004 -9.4841049407841722e-06 -0.16667798221166627 1.0000000180025095e-35 1.8429398381912265
decision_type=2 2 2 2 2 2 2 2 2 2 2 2 2 2 2 2 2 2 2 2 2 2 2 2 2 2
left_child=1 2 4 25 13 11 -7 -6 10 20 -9 18 16 -1 15 -8 -3 -18 22 -2 -10 -12 -5 -22 -15 -4
right_child=19 12 3 5 7 6 14 8 9 -11 21 -13 -14 24 -16 -17 17 -19 -20 -21 23 -23 -24 -25 -26 -27
leaf_value=-0.0022243613894827423 0.050078680637281971 -0.052592894451555496 -0.032013624891716545 -0.0061675132202205765 0.03322870598957179 -0.049267888911062208 0.038783642508013659 0.046818842395244274 -0.053996073509243625 0.0153020038867141 -0.022475378937877717 0.049506605568902941 0.014845243520825413 0.030426549480226769 -0.029669210851294044 -0.0076553108584452578 0.025937324826526643 -0.058350999912022528 -0.018417336737117068 0.012939779621672552 -0.039266550135053119 0.010744592515701602 0.025664774722931924 -0.008025936968033498 0.055210227144286916 -0.056836394410200379
leaf_weight=8.9649973809719068 12.653990864753725 11.974876105785372 7.370666146278384 7.8329149186611202 12.693976283073424 12.047578334808348 7.840037524700171 9.3509438037872332 9.917938709259035 10.813433676958082 9.2534609735012072 9.3421489596366865 8.2157749831676465 12.73296430706978 11.125143051147459 11.138967067003248 7.8405629992485029 7.3298614621162415 10.039806365966799 7.4947851598262778 9.2581905722618085 9.3263214826583845 13.818985462188719 8.5044559836387652 11.216656088829039 10.175246536731718
leaf_count=24 34 33 20 21 34 33 21 25 27 29 25 25 22 34 30 30 21 20 27 20 25 25 37 23 30 28
internal_value=2.1449e-07 -0.00294455 7.29086e-06 -0.00928392 0.00836121 -0.00145334 -0.0167215 -0.000632198 -0.00710312 -0.0208307 0.0118161 0.0142308 -0.0207055 0.0299792 -0.00369654 0.0115282 -0.0314653 -0.0147881 0.00383208 0.036264 -0.0349459 -0.00580026 0.0141489 -0.0243091 0.0420338 -0.0464089
internal_weight=268.275 248.126 212.765 100.731 112.033 83.1856 42.1517 79.1187 66.4247 38.494 27.9307 41.0339 35.3611 32.9146 30.1041 18.979 27.1453 15.1704 31.6917 20.1488 27.6806 18.5798 21.6519 17.7626 23.9496 17.5459
internal_count=723 669 573 272 301 224 114 213 179 104 75 110 96 88 81 51 74 41 85 54 75 50 58 48 64 48
is_linear=0
shrinkage=0.05


Tree=12
num_leaves=26
num_cat=0
split_feature=35 35 8 6 9 6 5 2 11 9 19 5 26 4 0 1 0 28 24 32 4 6 24 4 4
split_gain=9.3962 5.5473 5.67092 5.36994 6.90743 5.36861 4.9301 9.69149 4.58267 4.57197 5.69629 4.02342 4.87987 3.93738 4.08293 3.87512 3.15211 3.12664 2.76855 2.45487 2.04026 1.99326 1.63678 1.56761 0.904573
threshold=28.500000000000004 22.500000000000004 4.4261927143766 0.7257726226464013 -0.14233427884216929 -0.48408451520478596 -0.23156304847356859 -0.11601246689711862 -0.18368115447491354 -0.17301114419586891 -7.5830309287459441 -0.065415596086465369 30765.500000000004 0.43063190477647911 0.019897230464724924 0.027903360862286331 0.040650342918274456 0.28731546095320132 0.5103267641186221 1.2087367748965641e-05 -0.023484394564846498 -0.037494214100955818 0.34168847734947644 -0.1240961714938965 0.026417009764825129
decision_type=2 2 2 2 2 2 2 2 2 2 2 2 2 2 2 2 2 2 2 2 2 2 2 2 2
left_child=1 2 5 4 -3 -1 9 -8 -9 10 -7 12 22 14 -4 17 -17 -13 -19 -18 -2 -6 -10 -11 -23
right_child=20 3 13 -5 21 6 7 8 11 23 -12 15 -14 -15 -16 16 19 18 -20 -21 -22 24 -24 -25 -26
leaf_value=-0.039669001292809682 -0.012329283672471835 -0.003579344397780486 0.014377531399456953 -0.011465005979366078 0.055390922828550265 0.022864691894310105 -0.054927531440680348 -0.034845174420215438 0.045416323326785808 0.040479953949583362 -0.03549314704887406 -0.042607174607898833 -0.011854745952728134 -0.0090763171311472341 0.060457899289985587 0.023216157809840678 -0.029064676126508888 -0.025330199229262319 0.0082722170400230301 0.011055244529815038 -0.045546778670480875 0.01625581548674206 0.016831865330673854 0.013955216144513179 0.040701665522644349
leaf_weight=10.400420874357222 7.3708566427230862 13.404791027307509 13.768949031829839 12.678918093442915 12.101240664720534 8.1847727894783038 9.9478383362293226 10.38140884041786 8.889241158962248 11.495243906974794 8.5492200553417188 9.6744281649589592 11.136102527379988 8.9630390107631666 7.3855287432670584 14.148586481809618 7.8366923332214338 12.647778183221819 11.894783377647398 7.4257003664970398 12.398287624120711 7.7622658610343951 11.470276623964308 10.807071417570112 7.3839631378650665
leaf_count=28 20 36 37 34 33 22 27 28 24 31 23 26 30 24 20 38 21 34 32 20 34 21 31 29 20
internal_value=1.39193e-05 0.00265489 -0.00125311 0.0169446 0.0258052 -0.00489716 -0.00255627 -0.00775002 -0.00330175 0.0128046 -0.00694971 0.000140768 0.0147566 0.0186976 0.0304653 -0.007094 0.00621529 -0.0185339 -0.00904447 -0.0095449 -0.0331618 0.0402614 0.0293122 0.0276268 0.0281735
internal_weight=268.107 248.338 195.007 53.3312 40.6523 164.89 154.489 115.453 105.505 39.0363 16.734 95.1236 31.4956 30.1175 21.1545 63.628 29.411 34.217 24.5426 15.2624 19.7691 27.2475 20.3595 22.3023 15.1462
internal_count=723 669 525 144 110 444 416 311 284 105 45 256 85 81 57 171 79 92 66 41 54 74 55 60 41
is_linear=0
shrinkage=0.05


Tree=13
num_leaves=29
num_cat=0
split_feature=11 0 4 25 8 8 34 34 8 23 23 6 25 7 0 25 7 35 23 25 17 24 7 8 22 9 24 2
split_gain=6.2667 7.0609 3.51394 2.63543 2.58577 5.25651 3.89095 3.71072 0.718845 3.57921 5.68368e-05 2.45278e-05 1.42877e-05 1.02974e-05 5.72353e-06 4.84854e-06 9.28492e-06 4.80453e-06 4.07413e-06 1.1573e-06 1.23177e-06 7.65786e-07 6.05354e-07 3.03985e-07 2.4199e-07 1.9362e-07 2.03707e-07 3.27624e-08
threshold=-0.13427884138647309 0.02078083664021162 -0.20899329037630696 0.077723807535545128 3.9542164522058827 4.3739291745903968 28.500000000000004 7.5000000000000009 1.3045569406567099 0.11456984035611616 0.24753574818594923 1.0000000180025095e-35 0.30316371319335367 2.8949335878042581 0.10501013498943372 0.26838792732796252 0.56291053688287562 9.5000000000000018 0.10721611911851107 0.75219313095991314 9.8026607916334587 0.35944901875733926 1.1184188301488265 2.5527074236796556 160.47105760372435 -0.026638078690619935 0.41194525638293761 -0.013823089427388869
decision_type=2 2 2 2 2 2 2 2 2 2 2 2 2 2 2 2 2 2 2 2 2 2 2 2 2 2 2 2
left_child=1 2 -1 -4 6 -6 8 -7 9 12 17 -5 -2 14 15 16 -10 -9 -19 24 -21 -14 -18 -24 25 -17 -27 -28
right_child=4 -3 3 11 5 7 -8 10 13 -11 -12 -13 21 -15 -16 19 22 18 -20 20 -22 -23 23 -25 -26 26 27 -29
leaf_value=0.084873801359809195 -0.034509378562203458 0.12359579816427047 0.055436768696974371 -0.034355526239283875 0.094371239669945331 0.052855409856851644 0.080240689064596596 -0.034443184907827558 -0.034459428626087106 0.079405711143134453 -0.034790704752389996 -0.0346385924443307 -0.034245447712336369 -0.034464826647171952 -0.034418201929063891 -0.034265944122924268 -0.034312666048331296 -0.034393510731358608 -0.034256695486818971 -0.034251196183929349 -0.034319607703981826 -0.03430556022199887 -0.034237262538545248 -0.034279822021756161 -0.034215477219261763 -0.034254921479044936 -0.034234508197054307 -0.034219847865911576
leaf_weight=1.254558455199003 1.0065035261213879 1.8957950882613657 1.1099897921085347 1.5344336517155173 1.5515995398163784 1.7164016515016554 0.87069832533597846 0.95200902968645129 0.97349957004188992 0.87788456678390492 0.93755039572715748 1.5267167203128336 0.85417566820979152 0.90891463682055551 0.80775017663836557 0.9118958562612568 0.82721261307597194 0.88695725426077876 1.4077877774834631 1.4451062977313998 1.2079893462359903 1.3951658122241495 0.76923141628503777 0.92299949005246162 0.79018769785761822 1.1773216426372499 0.76798141747713433 0.75646753609180084
leaf_count=23 21 37 21 36 33 36 17 21 21 19 16 29 22 20 18 23 20 20 36 37 29 34 20 23 21 30 20 20
internal_value=-0.000103531 0.0405281 0.0115034 -0.0105643 -0.0121361 0.0124804 -0.0227579 -0.00905296 -0.0282261 -0.0101938 -0.0344478 -0.0344967 -0.0343528 -0.0343029 -0.0342899 -0.0342801 -0.0343283 -0.0343488 -0.0343096 -0.0342563 -0.0342823 -0.0342827 -0.0342776 -0.0342605 -0.0342405 -0.034246 -0.0342393 -0.0342272
internal_weight=32.0448 7.32149 5.4257 4.17114 24.7233 7.45231 17.271 5.90071 16.4003 4.13373 4.1843 3.06115 3.25585 12.2666 11.3576 10.5499 3.49294 3.24675 2.29475 7.05695 2.6531 2.24934 2.51944 1.69223 4.40385 3.61367 2.70177 1.52445
internal_count=723 146 109 86 577 162 415 129 398 96 93 65 77 302 282 264 84 77 56 180 66 56 63 43 114 93 70 40
is_linear=0
shrinkage=0.05


Tree=14
num_leaves=29
num_cat=0
split_feature=34 14 25 0 33 4 5 7 31 28 30 27 20 20 27 27 19 28 7 9 24 9 4 34 30 31 4 23
split_gain=5.60666 5.1377 4.26355 6.94531 6.03333 12.599 9.17512 8.0557 6.00025 5.26196 4.95529 4.71126 4.82584 4.49091 3.96608 3.67742 3.50817 3.28629 3.85889 3.15828 2.68211 2.27342 2.24204 1.72625 0.594405 0.561535 0.263299 0.115133
threshold=2.5000000000000004 0.0044941318717156998 0.7717620821250516 0.0090663968755493752 2.5000000000000004 -0.23104654145096051 -0.23093124565849729 -0.3319470997318848 -0.018330134364891455 3.343356918641883 0.10727076713832857 0.55235930595286198 -0.002988450977878095 -11.197664167156825 0.63552194464606659 1.504968433992991 107.03544599086464 2.3397888540031353 -0.34651916755957429 -0.13866214708858959 0.43953085502769346 0.21887546370424529 -0.15310495908281993 10.500000000000002 0.12796226895091875 -0.032605069332473424 -0.026224539687461638 0.12171401522647889
decision_type=2 2 2 2 2 2 2 2 2 2 2 2 2 2 2 2 2 2 2 2 2 2 2 2 2 2 2 2
left_child=1 -1 3 4 5 -2 8 -7 -6 15 11 -5 20 -9 -15 17 22 18 -4 -12 -13 -20 -8 -24 -21 27 -25 -16
right_child=2 -3 9 10 6 7 16 13 -10 -11 19 12 -14 14 25 -17 -18 -19 21 24 -22 -23 23 26 -26 -27 -28 -29
leaf_value=0.059207769888859466 0.042892322410203278 0.0038457426348906263 0.035068262912616652 -0.041782080303325975 0.0079583927663065806 0.013567928602931571 0.012778534526228192 0.00044647339662915402 -0.043133245730914697 -0.02953824142572524 -0.010333723646176735 -0.028933562055898872 0.029533855532716941 -0.0072605066933207011 -0.049921390819105967 -0.010765433738007197 -0.0040671795535417469 0.049574694664393584 -0.019728247351023073 -0.038261713610010767 0.0082447429640011768 0.015067285259206831 0.0224951698245647 0.05792886856709184 -0.057249997593892502 -0.038349135269912321 0.044936195597144735 -0.058445421541069388
leaf_weight=7.3650792539119747 9.6824045181274396 9.7230089604854566 13.804598957300181 8.0781842768192273 14.501328796148302 14.091710984706877 8.8915749490261096 9.1735345423221535 9.5186080336570722 7.4638661146163932 7.7345031499862698 11.345950782299044 10.023507237434389 7.3723530173301759 7.2200015485286704 10.732811123132704 7.4131334125995627 8.6076478064060193 8.1020862162113243 7.3144760727882412 8.4743644297122938 11.160938918590544 7.4343450367450741 8.2138548493385333 9.4413155615329725 7.9637102782726314 7.4234914481639818 8.7772021293640119
leaf_count=20 26 26 37 22 39 38 24 25 26 20 21 31 27 20 20 29 20 23 22 20 23 30 20 22 26 22 20 24
internal_value=-1.55106e-06 0.0277071 -0.0018958 -0.00556061 0.00112152 -0.00967249 0.0120661 -0.0189942 -0.0122882 0.00973974 -0.0192303 -0.00790835 0.00126066 -0.0303221 -0.0393303 0.0153336 0.0269225 0.022055 0.0148916 -0.0367617 -0.0130376 0.00043218 0.0341098 0.0423306 -0.048961 -0.0491977 0.0517609 -0.0545983
internal_weight=267.05 17.0881 249.962 190.09 127.677 64.2809 63.3963 54.5985 24.0199 59.8719 62.4123 37.922 29.8438 40.5068 31.3333 52.4081 39.3764 41.6753 33.0676 24.4903 19.8203 19.263 31.9633 23.0717 16.7558 23.9609 15.6373 15.9972
internal_count=723 46 677 516 346 175 171 149 65 161 170 103 81 111 86 141 106 112 89 67 54 52 86 62 46 66 42 44
is_linear=0
shrinkage=0.05


Tree=15
num_leaves=28
num_cat=0
split_feature=35 15 16 34 20 7 24 11 6 1 30 33 33 4 1 16 33 35 5 33 0 24 12 21 4 24 35
split_gain=8.4551 5.383 5.60426 5.29146 6.28092 6.63182 4.72574 4.29764 6.41152 3.93647 3.82545 5.29932 6.80922 7.27824 3.92348 3.06544 3.06202 3.04664 4.78159 2.92273 2.86888 3.10551 2.38769 2.0029 1.97579 1.69759 1.12797
threshold=28.500000000000004 -0.099502383145641624 -0.18142518594044618 29.500000000000004 3.8146108307035056 2.872224027782937 0.55270870962126872 1.6246471584251416 -0.17279215721518221 -0.12128037669259577 0.1223512607744562 2.5000000000000004 5.5000000000000009 -0.14189977480281832 -1.0000000180025095e-35 0.17635285002000764 3.5000000000000004 21.500000000000004 0.044600642258888108 3.5000000000000004 0.03235294540238564 0.38035011825066828 -0.011698391477908016 40.651810068392102 -0.023484394564846498 0.64620542145785886 19.500000000000004
decision_type=2 2 2 2 2 2 2 2 2 2 2 2 2 2 2 2 2 2 2 2 2 2 2 2 2 2 2
left_child=1 2 6 4 10 7 9 8 19 -1 11 17 13 -13 -14 25 -10 18 22 -6 21 -15 -3 -4 -2 26 -12
right_child=24 3 23 -5 5 -7 -8 -9 16 -11 15 12 14 20 -16 -17 -18 -19 -20 -21 -22 -23 -24 -25 -26 -27 -28
leaf_value=-0.010557629371016539 -0.011072246105166494 0.0057065246699499793 -0.053363746207440305 -0.034342520452054694 -0.038012996511728743 0.038361808232638461 -0.022521372657706071 -0.04446036362603116 0.033877509920726204 0.037497009034484587 0.059468095881922756 0.020595680309014899 -0.00067300947009667255 -0.017300220354341509 0.04909750407685718 0.0041612395615104273 -0.0049171224781672379 0.044215932103001787 -0.015405515527899883 -0.0018240940794812437 -0.0020289822838745683 -0.057468561176226667 0.039294103387325217 -0.018186128591832978 -0.043907674373771063 0.017157923527539237 0.034089440283859691
leaf_weight=7.4358029961586025 7.3191300928592709 8.5051470398902875 8.4416352808475512 7.7772567570209494 14.025490194559096 7.454223006963729 13.388816773891447 8.5544114112853986 10.34291690587998 9.9832952618598956 8.0803690254688316 11.4419355392456 7.4072585701942453 9.6091965734958737 8.5078304111957515 9.6853611767292005 10.0079248547554 11.218813449144362 9.6907065808773023 9.2647618949413282 8.1549736559391004 9.6379306614398939 14.002755284309389 7.7715316116809836 12.24791833758354 7.3810732364654532 9.5561556518077833
leaf_count=20 20 23 23 21 38 20 36 23 28 27 22 31 20 26 23 26 27 31 26 25 22 26 38 21 34 20 26
internal_value=1.42949e-05 0.00251744 -0.0127072 0.00609136 0.00772469 -0.00575432 -0.000184864 -0.0120547 -0.00570262 0.0169836 0.0137754 0.00873159 -0.00161221 -0.012898 0.0259331 0.0280447 0.0147995 0.0217774 0.0139593 -0.0236172 -0.0268835 -0.0374144 0.0266022 -0.0365019 -0.0316255 0.037291 0.045717
internal_weight=266.895 247.328 47.0211 200.306 192.529 59.6497 30.8079 52.1955 43.6411 17.4191 132.88 98.1765 54.7591 38.844 15.9151 34.703 20.3508 43.4174 32.1986 23.2903 27.4021 19.2471 22.5079 16.2132 19.567 25.0176 17.6365
internal_count=723 669 127 542 521 161 83 141 118 47 360 266 148 105 43 94 55 118 87 63 74 52 61 44 54 68 48
is_linear=0
shrinkage=0.05


Tree=16
num_leaves=29
num_cat=0
split_feature=11 7 2 30 8 21 34 34 8 23 34 9 25 0 21 18 21 7 30 23 23 8 3 34 22 2 30 18
split_gain=5.66906 6.58264 10.4416 4.48913 2.45297 5.04155 3.52437 3.49551 0.722278 3.23182 3.89978e-05 2.09383e-05 1.26447e-05 9.64834e-06 7.26159e-06 1.3515e-05 5.23488e-06 1.58892e-06 1.49175e-06 1.25796e-06 9.67973e-07 8.80817e-07 8.7447e-07 4.24282e-07 1.10438e-07 1.47652e-07 1.53556e-07 9.56317e-08
threshold=-0.13427884138647309 -0.36612441406648527 -0.028489578817827581 0.10727076713832857 3.9542164522058827 44.224669768362169 28.500000000000004 7.5000000000000009 1.3045569406567099 0.11456984035611616 26.500000000000004 -0.042479293820546493 0.30316371319335367 0.11393392415807287 46.451809811851227 -0.077646851748024645 69.286941305549206 0.62995790450021483 0.061264396873881431 0.075464855661029409 0.14735596245588209 2.6348770461361108 0.058914419535325939 4.5000000000000009 160.47105760372435 0.041969564795967765 0.075707551085619121 9.8026607916334587
decision_type=2 2 2 2 2 2 2 2 2 2 2 2 2 2 2 2 2 2 2 2 2 2 2 2 2 2 2 2
left_child=1 3 -3 10 6 -6 8 -7 9 12 18 -9 -2 14 15 17 20 -10 -1 -16 -13 -19 -14 -21 25 26 -25 -27
right_child=4 2 -4 -5 5 7 -8 11 13 -11 -12 16 22 -15 19 -17 -18 21 -20 23 -22 -23 -24 24 -26 27 -28 -29
leaf_value=-0.034308433252180019 -0.034462871010546445 0.018687648642211771 0.20535041781716135 0.073899979441486852 0.09094810356047825 0.049111452449304503 0.071590447688097719 -0.034540270275110911 -0.034320574761023223 0.071145687609038569 -0.034739479503980333 -0.034282043586336124 -0.034214022145816328 -0.034432789309261129 -0.034274261066688981 -0.034485957738890537 -0.03438056000309965 -0.034213540619212827 -0.034390596853500842 -0.034246793330978367 -0.034207825174255635 -0.034271933112523467 -0.034277579507358345 -0.034203838105074734 -0.034191362160089826 -0.034191401756150326 -0.034230618128503067 -0.03421454138427929
leaf_weight=1.106531240046025 0.96986970677972317 1.8733126968145373 1.2484920658171166 1.3792906403541563 1.5898150429129589 1.7932712510228155 0.94060181081295091 1.270645517855882 0.86452066153287921 0.94563224911689747 0.90272798016667355 0.83301569893956251 1.0884219072759154 0.81731946021318513 0.995121520012617 0.83622391149401298 1.1355868615210054 1.3127633556723597 1.103192016482353 0.81451418250799168 0.92954620346426964 1.2711862884461878 1.0764223411679266 0.8922604434192184 0.84313222765922535 1.0992212295532224 1.3379400484263895 0.75195522233843792
leaf_count=27 21 35 20 23 27 37 17 26 21 19 16 21 29 18 25 18 26 35 25 21 25 32 27 24 23 30 35 20
internal_value=-9.70433e-05 0.0375715 0.093339 -0.00118741 -0.0118465 0.0118348 -0.0224555 -0.00926116 -0.0280133 -0.00987252 -0.0344626 -0.034371 -0.0343128 -0.034267 -0.0342547 -0.0343056 -0.0342968 -0.0342619 -0.0343495 -0.0342224 -0.0342429 -0.0342423 -0.0342456 -0.0342134 -0.0342078 -0.0342112 -0.0342199 -0.0342008
internal_weight=32.0225 7.61355 3.1218 4.49174 24.409 7.55188 16.8571 5.96207 15.9165 4.08035 3.11245 4.16879 3.13471 11.8362 11.0188 4.28469 2.89815 3.44847 2.20972 6.73414 1.76256 2.58395 2.16484 5.73902 4.92451 4.08138 2.2302 1.85118
internal_count=723 146 55 91 577 162 415 135 398 96 68 98 77 302 284 106 72 88 52 178 46 67 56 153 132 109 59 50
is_linear=0
shrinkage=0.05


Tree=17
num_leaves=28
num_cat=0
split_feature=35 35 34 34 35 0 35 5 9 35 0 15 6 14 0 15 19 2 34 11 14 17 27 15 34 31 27
split_gain=9.14718 4.33366 6.01021 10.5708 7.4588 7.24445 6.60419 6.34734 5.50287 6.44992 5.06477 6.02932 4.6352 4.28563 4.043 6.02787 3.84471 3.33348 3.20513 2.38084 2.37938 2.09725 1.67261 1.67093 1.58527 1.44717 1.02846
threshold=28.500000000000004 24.500000000000004 19.500000000000004 21.500000000000004 15.500000000000002 -0.081026293227123083 19.500000000000004 -0.23156304847356859 -0.13668040609258272 21.500000000000004 0.019897230464724924 0.030162473833149683 0.84162464720356278 0.0082345689201157989 0.021453095950733327 -0.034559114230331069 2.3335165296665594 -0.093087673662506712 24.500000000000004 0.4112765196688512 0.0023959600482297157 9.977843299578689 0.9529939980969363 -0.034559114230331069 4.5000000000000009 0.003944436143192581 1.2234383433507976
decision_type=2 2 2 2 2 2 2 2 2 2 2 2 2 2 2 2 2 2 2 2 2 2 2 2 2 2 2
left_child=1 2 4 26 13 -5 14 18 -8 -10 16 -12 17 22 15 -6 23 -3 -7 -2 -20 -11 25 -9 -19 -1 -4
right_child=19 12 3 5 6 7 8 10 9 21 11 -13 -14 -15 -16 -17 -18 24 20 -21 -22 -23 -24 -25 -26 -27 -28
leaf_value=0.042752268807934507 0.051470444181340551 -0.0032742428741534615 -0.055663595152493139 0.04212697721365289 -0.028944933827395287 0.00059099198460075414 0.042956385315280052 0.01839670494820175 0.028112429227747888 -0.033477267090390818 -0.051097759009300484 0.0070540556417435819 0.01387427966524277 -0.0052417158363968416 -0.043001816058999491 0.020189150832674536 -0.0030720936252853228 -0.024376493136566504 -0.0528321954860725 0.016746122679304306 -0.017156988340119608 0.00031956997072384269 0.053272384521546839 0.050717156852610946 -0.054225693560701727 0.011582170545554816 -0.03117846688509894
leaf_weight=7.4400525689125079 9.0876425504684466 8.4884161949157733 9.3439269363880175 8.5632607042789441 13.142205506563187 8.0872446894645709 11.186207473278044 8.1976714730262774 13.772755324840544 9.4972951114177722 7.2753489315509823 11.508068621158598 8.1993494629859907 7.4519246220588675 10.162983834743498 11.88931593298912 12.230141907930372 7.8686752915382412 10.539049565792086 10.806028217077253 8.3981710076332075 8.8842020928859693 10.412932336330412 7.8075001239776638 10.232542872428892 7.455105721950531 7.9269923567771903
leaf_count=20 25 23 26 23 36 22 30 22 37 26 20 31 22 20 28 32 33 22 29 29 23 24 28 21 29 20 22
internal_value=-2.66179e-06 -0.0026403 5.35051e-05 -0.00885081 0.00804434 -0.00141306 -0.000315675 -0.00644856 0.0127502 0.00224173 0.00464999 -0.0154698 -0.0189919 0.0280856 -0.0164057 -0.00560753 0.0180346 -0.0291268 -0.0257585 0.0326086 -0.0370112 -0.0171425 0.0378988 0.034163 -0.0412501 0.0271515 -0.0444254
internal_weight=265.855 245.961 211.172 99.8774 111.295 82.6065 78.535 74.0432 43.3405 32.1543 47.0187 18.7834 34.789 32.76 35.1945 25.0315 28.2353 26.5896 27.0245 19.8937 18.9372 18.3815 25.3081 16.0052 18.1012 14.8952 17.2709
internal_count=723 669 573 272 301 224 213 201 117 87 127 51 96 88 96 68 76 74 74 54 52 50 68 43 51 40 48
is_linear=0
shrinkage=0.05


Tree=18
num_leaves=26
num_cat=0
split_feature=15 5 11 34 24 34 0 26 9 10 7 27 27 34 24 2 1 15 5 8 0 27 5 4 1
split_gain=4.87663 7.17935 6.34337 5.6184 3.93381 5.03797 6.81493 3.47862 3.35101 3.304 3.38468 7.68642 5.69885 5.45852 4.21516 3.01474 6.02598 6.65993 2.84021 2.54866 2.3211 2.08593 1.45815 1.24221 0.960156
threshold=-0.099502383145641624 0.095444330555170778 -0.17131762356602273 3.5000000000000004 0.44062520025551372 19.500000000000004 0.054304315897526774 5850.1250000000009 -0.086865205758240777 0.11558942023658812 2.7819862598504757 0.81503293591666781 1.0494081970589602 13.500000000000002 1.1517293807940312 -0.097488108469812054 -0.12467051529252191 -0.14570075731790699 -0.25192672115982034 1.5014732362411178 0.007285788483716465 0.84046401080137489 -0.19052928494984953 -0.056425097575312659 -0.012306212607913845
decision_type=2 2 2 2 2 2 2 2 2 2 2 2 2 2 2 2 2 2 2 2 2 2 2 2 2
left_child=15 2 8 -3 7 6 -6 24 18 21 11 -11 -13 -14 -12 16 -1 -18 -2 -17 -15 -5 -9 -24 -4
right_child=1 3 4 9 5 -7 -8 22 -10 10 14 12 13 20 -16 19 17 -19 -20 -21 -22 -23 23 -25 -26
leaf_value=-0.030683988188502726 0.028279819591428501 -0.038206314390646909 -0.0047607646176422115 -0.036457709782254731 -0.033888747685774046 0.03149229890003289 0.022831230719986995 0.054243484365867969 -0.03234298663815529 0.029272724457924688 0.048627658896316442 -0.041662760535655985 -0.028570824743227443 -0.000681665789935109 0.00088760121721171304 -0.052542513782861427 0.04725814162291464 -0.013282380482585295 -0.011289512180809161 -0.014114248623665712 0.038005969070512083 -0.0052300552609468301 0.020475175776752098 0.043076932931875041 0.020844817318637861
leaf_weight=13.25019407272339 7.3740525841712978 12.063871860504149 7.330829530954361 9.5891233980655688 11.853830337524416 12.403235852718351 9.5722119808197004 9.1573371887206978 9.5261346697807294 13.494521677494047 8.110448360443117 12.922934949398039 10.705589085817339 8.1025157272815687 10.7550091445446 7.6264321506023434 8.1549887359142321 10.255642443895338 11.778743237257006 9.9361299872398359 7.4340363442897788 12.089876681566237 13.236766010522841 11.242659002542501 7.3136218488216382
leaf_count=36 20 34 20 26 32 34 26 25 26 37 22 35 29 22 29 21 22 28 32 27 20 33 36 31 20
internal_value=1.5471e-05 0.00325125 0.0121356 -0.00609913 0.0192063 0.00613198 -0.00854876 0.0283672 -0.0081085 -0.00194333 0.00323945 -0.00327076 -0.0144838 -0.00109949 0.0214115 -0.0141874 -0.0049714 0.013534 0.00394515 -0.0308015 0.0178299 -0.0190428 0.0372227 0.0308555 0.00802698
internal_weight=265.281 216.057 110.789 105.268 82.1105 33.8293 21.426 48.2812 28.6789 93.2041 71.5251 52.6596 39.1651 26.2421 18.8655 49.2234 31.6608 18.4106 19.1528 17.5626 15.5366 21.679 33.6368 24.4794 14.6445
internal_count=723 589 302 287 224 92 58 132 78 253 194 143 106 71 51 134 86 50 52 48 42 59 92 67 40
is_linear=0
shrinkage=0.05


Tree=19
num_leaves=29
num_cat=0
split_feature=35 28 17 9 10 12 1 31 14 1 31 21 28 31 28 21 20 31 14 15 19 32 14 35 1 3 20 7
split_gain=4.89154 7.4061 5.67213 2.89183 5.10693 5.94016 5.29425 3.49629 1.94738 1.08206 2.59465 1.02895 1.93332e-05 1.79371e-05 2.47073e-05 1.08184e-05 8.8774e-06 2.89809e-06 2.396e-06 1.65697e-06 1.39177e-06 1.01804e-06 7.58017e-07 6.62692e-07 4.79655e-07 3.44201e-07 2.57523e-07 3.70708e-08
threshold=3.5000000000000004 0.48340658308908596 -0.092062389009442178 -0.064767637961355609 -0.15429662700369723 -0.0088961060453883207 -0.030982064161738335 0.14380508133238581 0.0026192878954746797 -0.0054454469223302595 -0.0028177541822120146 83.718202510120491 0.75544592951270018 -0.032605069332473424 0.20769234958298816 47.252175277882309 0.037160483963444284 0.089954890537213825 0.0022014135740272083 0.011560603266985119 142.0331128314792 -0.00078768028620128134 0.0026341413814563929 25.500000000000004 -0.016608784042059135 0.1282699175712225 -0.012274645174049888 2.1603128842607249
decision_type=2 2 2 2 2 2 2 2 2 2 2 2 2 2 2 2 2 2 2 2 2 2 2 2 2 2 2 2
left_child=1 2 -1 4 9 6 -6 11 -7 13 -11 15 -10 14 -2 16 -5 19 -15 24 21 -21 -23 25 26 -24 -17 -27
right_child=3 -3 -4 7 5 8 -8 -9 12 10 -12 -13 -14 18 -16 17 -18 -19 -20 20 -22 22 23 -25 -26 27 -28 -29
leaf_value=0.036762371104515697 -0.034609388797663281 -0.034575670270028662 0.18779220188459625 -0.03446074507322968 0.15380056287700114 0.043387447098233757 0.025935058383972021 0.067588352947381275 -0.034652969297875459 0.071400503651921576 -0.034452756824411852 0.021347942319928277 -0.034353822054943695 -0.034359738089750368 -0.034278898323427072 -0.034210464945432235 -0.0342321700096819 -0.034302708215880384 -0.034256028493237195 -0.034252930514730433 -0.034282645020133527 -0.034248656127503732 -0.0342005665238789 -0.034229187837039404 -0.034146115024518142 -0.034174107423917362 -0.034171315070241973 -0.034158727589370705
leaf_weight=1.3934164866805074 1.5978388600051405 1.5580218583345411 1.1224531978368788 0.90668823942541255 1.590090870857239 1.2750524729490336 1.6491417065262792 0.97812023758888322 1.027434526011348 0.9446261674165729 1.4952835291624067 0.89385646209120828 1.1386803574860094 0.94322365894913707 0.87531650066375721 0.85741272941231739 0.79921858385205269 0.91752913594245988 1.3597833104431627 1.3201041035354126 0.84216907992959011 0.77269199863076288 1.4052491560578353 1.0269296616315839 0.90366629511117569 0.79082726314663865 0.82345169037580501 0.7765200287103653
leaf_count=21 32 32 19 20 28 20 32 19 20 22 34 18 27 22 22 23 21 23 35 34 21 20 38 27 26 22 23 22
internal_value=-8.82568e-05 0.0510921 0.104144 -0.00755857 0.00860379 0.0401064 0.0887023 -0.0235849 -0.00563774 -0.0205603 0.00652899 -0.0304257 -0.0344957 -0.0343989 -0.0344924 -0.0342369 -0.0343537 -0.0342178 -0.0342985 -0.0342097 -0.0342224 -0.0342141 -0.0342033 -0.0341946 -0.0341755 -0.0341826 -0.0341913 -0.0341665
internal_weight=31.9848 4.07389 2.51587 27.9109 13.8965 6.6804 3.23923 14.0144 3.44117 7.21607 2.43991 13.0363 2.16611 4.77616 2.47316 12.1425 1.70591 10.4366 2.30301 9.51902 6.93449 6.09232 4.77222 3.99953 2.58453 2.9726 1.68086 1.56735
internal_count=723 72 40 651 294 127 60 357 67 167 56 338 47 111 54 320 41 279 57 256 184 163 129 109 72 82 46 44
is_linear=0
shrinkage=0.05


Tree=20
num_leaves=28
num_cat=0
split_feature=35 3 35 35 15 30 4 0 20 33 34 34 35 0 5 1 13 10 27 27 7 13 8 0 8 27 20
split_gain=8.10812 4.54442 5.77657 7.98823 4.96519 4.98806 7.20062 4.28563 5.42067 4.49265 4.32595 12.4076 4.70285 5.21711 6.07436 3.99842 2.97386 2.9199 3.17112 2.61 2.49583 1.75342 2.17382 2.16745 2.65997 0.978498 0.680495
threshold=28.500000000000004 -0.24421133732376013 22.500000000000004 19.500000000000004 0.12752975856176765 0.13323962867644082 -0.12665515558958404 0.087866253947149794 0.0092674327143815825 1.5000000000000002 16.500000000000004 19.500000000000004 9.5000000000000018 0.0090663968755493752 -0.23156304847356859 -0.029267581853105715 -0.0045850703809095653 -0.21956278717135083 0.92350605677024344 0.8050370190179883 1.3548450032693495 -0.0033788802680855775 1.7983789278324778 -0.029414177122229299 3.2273407232089082 0.98577552664753598 0.043578368077101685
decision_type=2 2 2 2 2 2 2 2 2 2 2 2 2 2 2 2 2 2 2 2 2 2 2 2 2 2 2
left_child=1 -1 3 7 5 6 -4 8 10 16 25 -12 13 14 15 -13 -10 -5 -19 -8 -2 22 -11 -23 -25 -3 -9
right_child=20 2 4 17 -6 -7 19 26 9 21 11 12 -14 -15 -16 -17 -18 18 -20 -21 -22 23 -24 24 -26 -27 -28
leaf_value=0.035171974418165906 0.046472996962969054 -0.020393420812601603 0.026393643433176735 0.051139256619585738 0.015520917003201013 -0.052576837205786188 -0.048855909997766789 -0.018796254024467419 0.011860696488824179 0.047740805699985206 0.043840106443225217 0.0033606122140549285 -0.040638588499227093 -0.031978833035947597 0.029145884787239951 -0.04308603670370121 -0.029756322025520227 -0.0097031965767027939 0.034138791646178973 -0.012582786221538507 0.010585320812854383 0.030993661763033437 0.014062623915388884 -0.020676047228382732 0.020679866484702991 -0.04499428571754488 -0.040196216018161285
leaf_weight=7.7550428211688986 11.126643121242525 8.2308834195137042 7.7269987165927878 8.1691713035106677 8.5476558208465558 12.552938491106032 9.8006227314472252 7.5157333612441999 7.779472321271899 9.2417806088924426 11.463366270065306 12.908613175153723 12.193839341402052 13.724139899015425 14.483340620994573 7.2282181680202511 9.5770121216773969 7.4212640225887325 9.2845748364925367 10.039015352725981 8.5809092819690687 8.056882172822954 9.950160086154936 8.150398373603819 7.4350127875804892 7.9423644244670859 7.3455406129360199
leaf_count=21 31 23 21 22 23 35 28 21 21 25 31 35 34 38 39 20 26 20 25 28 23 22 27 22 20 22 20
internal_value=-4.849e-06 -0.00249138 -0.00372499 0.000247516 -0.019079 -0.0264506 -0.0145536 -0.00377488 -0.00121073 0.0103567 -0.00910701 -0.00385814 -0.0128902 -0.00589121 0.00445045 -0.0133116 -0.0111029 0.026642 0.0146628 -0.0305014 0.0308471 0.0190522 0.0302802 0.00993767 -0.000947229 -0.0324744 -0.0293737
internal_weight=264.232 244.524 236.769 188.102 48.6672 40.1196 27.5666 163.227 148.365 60.1907 88.1748 72.0015 60.5382 48.3443 34.6202 20.1368 17.3565 24.875 16.7058 19.8396 19.7076 42.8342 19.1919 23.6423 15.5854 16.1732 14.8613
internal_count=723 669 648 513 135 112 77 446 405 163 242 197 166 132 94 55 47 67 45 56 54 116 52 64 42 45 41
is_linear=0
shrinkage=0.05


Tree=21
num_leaves=26
num_cat=0
split_feature=15 5 11 34 16 2 1 24 34 0 3 12 10 15 9 23 3 11 2 27 27 0 5 4 34
split_gain=4.45595 6.48748 5.70568 5.0554 4.18572 4.56232 5.50616 3.67521 4.5443 6.21915 3.12947 4.44568 2.90544 2.96402 4.26933 3.43703 3.40373 3.56972 2.24048 2.21209 1.96856 1.94386 2.84627 2.24118 0.398713
threshold=-0.099502383145641624 0.095444330555170778 -0.17131762356602273 3.5000000000000004 -0.1876611073713936 -0.097488108469812054 -0.12467051529252191 0.44062520025551372 19.500000000000004 0.054304315897526774 -0.01744730953720822 -0.013414398333645447 0.11558942023658812 0.13627985695676306 0.37294530235127432 0.11676666102681389 -0.026451481330416349 1.4649612779220738 0.029091151805478856 1.3204349994555775 0.84046401080137489 -0.023378314516867924 -0.07429992907844217 -0.058052329029634885 15.500000000000002
decision_type=2 2 2 2 2 2 2 2 2 2 2 2 2 2 2 2 2 2 2 2 2 2 2 2 2
left_child=4 2 10 -3 5 6 -1 21 9 -9 11 -2 20 16 -15 -16 17 -14 -18 -6 -5 23 24 -4 -23
right_child=1 3 7 12 19 -7 -8 8 -10 -11 -12 -13 13 14 15 -17 18 -19 -20 -21 -22 22 -24 -25 -26
leaf_value=-0.021711729746803594 0.034377691015138954 -0.0365409629917798 -0.0068779485463054029 -0.034918698328452395 -0.017176492764357051 -0.029064178037715074 0.031967787670432735 -0.03255404622723964 0.029857311428462013 0.021736430500033186 -0.026017370295078508 -0.018798436934019155 -0.025497262536850546 -0.036358969288028509 0.018695769015426144 -0.023489325067356868 0.039426071112668014 0.02102534040576615 0.0086527389765834583 -0.052365616917821795 -0.0045179287188138947 0.042149002633177841 0.017810494398402772 0.028610438536805095 0.057883053210026306
leaf_weight=7.7210218012332943 7.7131487131118766 11.856357574462889 7.3625981509685543 9.5305024385452288 10.143067717552187 10.538482844829558 12.529418736696245 11.807638645172121 12.299653738737105 9.534526050090788 12.798835158348082 8.0144995748996752 9.5068075358867663 9.5956037044525164 13.717460989952089 7.4511594474315634 11.889634460210802 7.2814293205738059 11.76978415250778 7.9794908165931693 12.067459434270857 9.0451578199863487 13.035779863595961 11.241385519504545 7.2567280530929557
leaf_count=21 21 34 20 26 28 29 34 32 34 26 35 22 26 26 37 20 33 20 32 22 33 25 36 31 20
internal_value=1.46874e-05 0.00311644 0.0115888 -0.00579658 -0.0136055 -0.00238369 0.011501 0.0183191 0.00565055 -0.00829999 -0.00765926 0.00728018 -0.00186902 0.003003 -0.00869356 0.003847 0.0118993 -0.00531938 0.0241173 -0.0326705 -0.0179328 0.0272089 0.0352264 0.0145658 0.049153
internal_weight=263.688 214.776 110.11 104.666 48.9115 30.7889 20.2504 81.5835 33.6418 21.3422 28.5265 15.7276 92.8098 71.2119 30.7642 21.1686 40.4477 16.7882 23.6594 18.1226 21.598 47.9416 29.3377 18.604 16.3019
internal_count=723 589 302 287 134 84 55 224 92 58 78 43 253 194 83 57 111 46 65 50 59 132 81 51 45
is_linear=0
shrinkage=0.05


Tree=22
num_leaves=29
num_cat=0
split_feature=34 9 7 7 7 17 27 2 31 22 5 8 31 30 23 27 0 7 14 21 23 8 7 35 8 31 22 30
split_gain=4.71311 3.57387 4.30136 4.11233 5.20647 3.17994 2.32016 5.77646 0.961823 0.837694 3.50913e-05 8.06411e-06 6.17334e-06 6.97711e-06 4.54849e-06 3.53278e-06 2.41909e-06 1.98621e-06 1.37263e-06 1.27971e-06 1.39872e-06 1.15582e-06 7.88579e-07 6.65763e-07 6.2494e-07 3.00543e-07 2.49424e-07 1.43506e-07
threshold=29.500000000000004 -0.057392618100129016 3.1315440759637192 0.14523268335754272 -0.055795889827005618 898.26155401603239 0.93455896512528003 -0.094136872162746923 0.14380508133238581 427.19499212006934 -0.22378335947003683 4.0640117606279524 0.033737965806956691 0.11996665150696255 0.075464855661029409 0.6410746631615557 0.05196663099624467 0.47194101378736963 0.0039700842143296187 42.205932261234288 0.16346012527979079 3.9542164522058827 -0.4097594408782852 18.500000000000004 2.5527074236796556 0.0050949042114609112 66.407003286925644 0.075707551085619121
decision_type=2 2 2 2 2 2 2 2 2 2 2 2 2 2 2 2 2 2 2 2 2 2 2 2 2 2 2 2
left_child=1 2 3 4 6 8 9 -8 12 10 15 17 14 16 -3 -1 -14 -5 -19 20 -20 22 -16 -23 -18 26 27 -24
right_child=-2 5 -4 11 -6 -7 7 -9 -10 -11 -12 -13 13 -15 21 -17 24 18 19 -21 -22 23 25 -25 -26 -27 -28 -29
leaf_value=-0.034319943518091429 0.066332109077157628 -0.034265824677865306 0.074422484383435794 -0.03429654929488573 0.1120435155851922 0.059509775517565568 -0.034764276733914481 0.11217274869923424 0.018087799034852383 0.020738942422198741 -0.0347589234592817 -0.034392364744228389 -0.034275648636327427 -0.034356027297710194 -0.034197049563469632 -0.034455540525204692 -0.034204616427789644 -0.03414646693167727 -0.034293928755138356 -0.034175430599893801 -0.034209173940837764 -0.034173740811782066 -0.034131091942851952 -0.034238011279984021 -0.034142806437866373 -0.034166756199616052 -0.034117377964568957 -0.034160471721906692
leaf_weight=1.0703753419220441 2.4650621861219397 1.4753062538802568 2.2836992405354968 0.80661737546324719 1.3575061224401057 1.0620878636836995 1.3177180811762812 1.3583649322390554 0.94747321307659227 0.9051651395857333 0.89700074866414103 0.87090602889657009 1.060212241485716 1.3267278186976907 0.98405764251947303 0.87140621989965428 0.9990977346897123 0.69234567880630526 0.88884799182415042 0.89677940122783173 1.076178904622793 0.8131893780082462 0.68348237127065781 0.7986885067075491 0.69231205992400646 1.3145712651312349 0.97463694587349881 1.060611732304096
leaf_count=26 36 38 36 20 19 21 23 22 18 20 16 20 27 32 27 19 27 20 22 25 29 23 20 21 20 37 29 30
internal_value=-8.4234e-05 -0.00563683 0.0111327 2.24604e-05 0.0230787 -0.0237066 0.00426718 0.0398201 -0.0304378 -0.0211452 -0.0345003 -0.0342535 -0.0342117 -0.0342618 -0.0341864 -0.0343808 -0.0342164 -0.0342257 -0.0342096 -0.0342249 -0.0342475 -0.0341688 -0.0341569 -0.0342056 -0.0341793 -0.0341471 -0.0341376 -0.034149
internal_weight=31.9504 29.4854 15.2929 13.0092 7.77754 14.1925 6.42003 2.67608 13.1304 3.74395 2.83878 5.23168 12.1829 4.07835 8.10454 1.94178 2.75162 4.36077 3.55415 2.86181 1.96503 6.62924 5.01736 1.61188 1.69141 4.0333 2.71873 1.74409
internal_count=723 687 317 281 145 370 126 45 349 81 61 136 331 106 225 45 74 116 96 76 51 187 143 44 47 116 79 50
is_linear=0
shrinkage=0.05


Tree=23
num_leaves=29
num_cat=0
split_feature=34 34 0 5 34 24 30 7 8 2 34 3 0 27 14 2 9 11 9 34 2 33 27 6 14 8 5 3
split_gain=4.28794 9.35847 6.33424 5.54567 5.51733 5.22026 6.15569 5.03898 4.81872 4.45674 3.95665 3.99882 3.77945 3.91755 3.41293 3.23561 2.9796 6.26935 5.01183 2.94709 2.9291 2.58286 2.46169 2.33112 2.28023 1.06323 1.03956 0.157492
threshold=19.500000000000004 21.500000000000004 -0.081026293227123083 -0.23156304847356859 16.500000000000004 0.36969499191235594 0.10802637558397458 -0.052877617758876221 3.9542164522058827 -0.0079046978560471295 3.5000000000000004 -0.13179549145655137 0.0021497165261201074 0.9529939980969363 0.002991632122336039 0.064643413566040406 0.23643593375770053 2.2412363968365869 -0.11845874403243421 24.500000000000004 0.017712903675526064 2.5000000000000004 0.68645575487518284 0.39619430175110404 0.0023959600482297157 1.8429398381912265 -0.33162877694905307 -0.034917897872006852
decision_type=2 2 2 2 2 2 2 2 2 2 2 2 2 2 2 2 2 2 2 2 2 2 2 2 2 2 2 2
left_child=4 25 -3 19 5 10 15 -6 12 -9 -1 -12 21 -14 -13 20 18 -18 26 -4 22 -5 -7 27 -21 -2 -8 -16
right_child=1 2 3 8 7 6 16 9 -10 -11 11 14 13 -15 23 -17 17 -19 -20 24 -22 -23 -24 -25 -26 -27 -28 -29
leaf_value=0.021026817873677005 -0.027464418365543593 0.039575917508796563 0.0011548138270336085 0.0099471870872940293 0.058765156981326373 0.038340265965276121 0.018903152030899869 0.033242386377682641 -0.027565953352126006 -0.016224288789369191 0.011036876737730652 -0.005423412670991546 0.015917865540429947 -0.029246203362129665 -0.055212004546606519 0.043002213979352923 0.044818487733237926 -0.017262524812633347 -0.036757592264056581 -0.050760127601951713 -0.013451909591085373 0.048517661907333726 0.0040897664429649641 -0.014840472546124618 -0.015580151131448698 -0.052880071012254941 -0.0077251132657288699 -0.044560711727074279
leaf_weight=7.8331536054611197 7.1222959458827999 8.5135145187377912 8.0271109044551867 8.5523151457309741 8.0763051211833972 11.371502906084066 7.3773658871650696 10.319769561290743 9.4115525782108289 8.1488344371318799 9.5380927324295026 12.968725264072416 11.843991458415987 8.0748467743396741 7.0633749663829768 12.932188242673872 7.7973311245441463 8.499861925840376 13.247333973646162 10.334745466709139 7.7204902768135062 8.8132579624652845 9.7392191588878614 7.1505978703498831 8.3094301819801313 9.7453395426273328 7.2842943072319049 6.8228600919246727
leaf_count=22 20 23 22 23 22 31 20 28 26 22 26 36 32 22 20 35 21 23 37 29 21 24 27 20 23 28 20 20
internal_value=-4.49903e-06 -0.00823502 -0.00124878 -0.00598607 0.00495458 0.00092149 0.00845711 0.0258223 0.00440304 0.0114164 -0.011688 -0.0175731 0.0124728 -0.00239108 -0.0255978 0.0222222 -0.00454735 0.0124399 -0.0144669 -0.0241753 0.0129014 0.0295222 0.0225391 -0.0380349 -0.0350809 -0.0421484 0.00567354 -0.0499786
internal_weight=262.64 98.7484 81.8808 73.3673 163.891 137.346 85.9696 26.5449 46.696 18.4686 51.3768 43.5437 37.2844 19.9188 34.0056 41.7634 44.2062 16.2972 27.909 26.6713 28.8312 17.3656 21.1107 21.0368 18.6442 16.8676 14.6617 13.8862
internal_count=723 272 224 201 451 379 235 72 127 50 144 122 101 54 96 114 121 44 77 74 79 47 58 60 52 48 40 40
is_linear=0
shrinkage=0.05


Tree=24
num_leaves=27
num_cat=0
split_feature=35 35 35 8 33 33 0 35 34 34 0 2 33 32 5 14 30 22 20 20 32 11 1 17 8 9
split_gain=6.04887 4.39892 4.74796 4.57017 4.37576 4.54666 4.3832 4.05163 11.339 8.79309 6.17901 5.85634 4.86779 4.0981 3.02814 2.97405 3.97332 2.81351 2.65121 2.59221 2.16071 1.78998 1.74831 1.64569 1.35693 1.09179
threshold=28.500000000000004 22.500000000000004 19.500000000000004 4.4261927143766 5.5000000000000009 2.5000000000000004 -0.0047623203477973079 15.500000000000002 19.500000000000004 21.500000000000004 -0.014165287800008952 -0.019198694210445993 1.5000000000000002 1.0000000180025095e-35 -0.23156304847356859 0.002991632122336039 0.13184027255103639 30.602548364936577 -0.088251017982814109 2.4686563977665856 -2.3470721060927164e-05 0.4112765196688512 -0.030035692949305311 4.9023773184054287 1.8429398381912265 0.061023953054724044
decision_type=2 2 2 2 2 2 2 2 2 2 2 2 2 2 2 2 2 2 2 2 2 2 2 2 2 2
left_child=1 2 3 7 5 17 -7 8 20 24 12 -12 -11 -13 -14 -4 -17 -3 -5 22 -1 -2 -9 -8 -10 -22
right_child=21 4 15 18 -6 6 23 19 9 10 11 13 14 -15 -16 16 -18 -19 -20 -21 25 -23 -24 -25 -26 -27
leaf_value=-0.011888470269111884 -0.044514997311287476 0.045003484544194651 -0.043127966036921539 0.040057986702632165 0.051230542093399924 -0.033709769377188302 0.027737614603958904 0.0087373585928301311 0.023254166038546919 0.0056788943815015208 0.036155571485068129 -0.022096246967945085 -0.010735894831220283 0.01957618849075202 -0.048354856917313643 0.016276829441897255 -0.034505211654502453 0.0086004448355747349 0.0072319618014299774 -0.0065563727876001496 -0.054909004051069771 -0.013487333845751385 0.039356947911074629 -0.0057949752485835972 0.054055511528035519 -0.030628952723899702
leaf_weight=7.2722726762294796 8.3756916522979754 10.143694102764131 9.7989929020404833 10.794157713651659 7.1911064684391013 8.8589133918285388 7.2655311524867994 8.375226646661762 7.2435569763183576 12.230834513902662 13.3633736371994 14.400750666856768 8.8248633444309235 9.9938853681087476 13.582934498786926 8.0870209038257581 7.3551855385303488 11.133466243743895 14.299595952033995 9.2232075035572034 10.309182137250902 10.444830328226088 10.514503717422485 7.3709267377853394 7.0614430904388428 8.4045611023902875
leaf_count=20 25 29 27 30 20 24 20 23 20 33 37 39 24 27 38 22 20 31 39 25 29 29 29 20 20 23
internal_value=1.29992e-05 0.0021272 -0.00137975 0.00169417 0.0150267 0.00921182 -0.00595086 -0.00180932 -0.00604573 0.0026374 -0.00444062 0.00955029 -0.0196915 -0.00502407 -0.0335394 -0.0215826 -0.00791086 0.0259553 0.0213522 0.0151719 -0.0350168 -0.0272956 0.025781 0.0108506 0.0384588 -0.0440045
internal_weight=261.92 243.099 191.136 165.894 51.9636 44.7725 23.4954 140.801 112.688 86.7016 72.3966 37.758 34.6386 24.3946 22.4078 25.2412 15.4422 21.2772 25.0938 28.1129 25.986 18.8205 18.8897 14.6365 14.305 18.7137
internal_count=723 669 525 456 144 124 64 387 310 238 198 103 95 66 62 69 42 60 69 77 72 54 52 40 40 52
is_linear=0
shrinkage=0.05


Tree=25
num_leaves=30
num_cat=0
split_feature=11 30 6 0 35 8 8 27 8 23 23 34 35 7 15 9 17 0 0 23 27 5 26 25 30 19 31 23 20
split_gain=4.601 5.12296 5.35217 3.54974 2.3975 3.23107 3.9883 3.14722 0.703385 2.90405 0.000129353 7.70831e-05 5.44129e-05 3.92271e-05 1.94647e-05 1.56754e-05 2.25649e-05 1.60826e-05 5.7426e-06 2.81877e-06 2.36298e-06 2.00159e-06 1.73839e-06 1.55122e-06 1.00918e-06 5.83082e-07 7.18423e-07 3.04647e-07 8.54212e-08
threshold=-0.13427884138647309 0.084538498883197075 0.10504051532841414 -0.027509669789678705 1.5000000000000002 3.9542164522058827 4.3739291745903968 1.2301804967083743 1.3045569406567099 0.11456984035611616 0.23568202293069709 27.500000000000004 26.500000000000004 -0.4097594408782852 -0.011728310880699882 -0.065382692658491406 -0.056607329785048337 0.099468251140250055 -0.058148688208280876 0.075464855661029409 0.89736746713256366 -0.21166552019485524 27168.350000000002 0.80366434019149136 0.054063167123265775 0.055054277407143935 0.005963501399748215 0.090156944737260172 4.9074710255338037
decision_type=2 2 2 2 2 2 2 2 2 2 2 2 2 2 2 2 2 2 2 2 2 2 2 2 2 2 2 2 2
left_child=1 2 11 -3 -2 8 -7 10 9 14 12 13 20 24 -6 16 18 19 -10 -17 -8 22 -20 -16 -1 28 27 -27 -21
right_child=4 3 -4 -5 5 6 7 -9 15 -11 -12 -13 -14 -15 23 17 -18 -19 21 25 -22 -23 -24 -25 -26 26 -28 -29 -30
leaf_value=-0.034170179523730075 0.06429948504364473 0.032092369579671182 0.070428929620716924 0.14290545612686725 -0.034435553947105818 0.077967298666960755 -0.034167765827811877 0.044521894779694822 -0.034334532987306599 0.063046009822088786 -0.035036745659455915 -0.034907049806017373 -0.034696171196348061 -0.034628606426127806 -0.034135636842136628 -0.034219760622436167 -0.034531884496612687 -0.034389836790826613 -0.034122907652862154 -0.034098379682307799 -0.034277166513210292 -0.034260830497504606 -0.03422279895128421 -0.034227451580552272 -0.03424855252825431 -0.034140042593287977 -0.034169082826870666 -0.034096560224141696 -0.034119142892072081
leaf_weight=0.71333427727222465 1.0065198540687585 1.4921373166143896 1.8918200843036173 1.4014793857932089 1.2213435955345631 1.7710760608315457 1.2268072403967392 1.8947233185172079 1.0855972040444615 1.0214030072093008 0.89702457934617985 0.84619401767849911 0.80797264352440823 0.87171796709299298 0.98909402824938564 0.96884460374712311 0.79253662377596334 0.73373366147279728 0.97891256771981738 1.2801243364810946 0.82584374211728562 0.84801013767719258 0.78465719148516655 0.86004466190934181 0.96831256896257401 0.8282572850584986 1.2783739045262335 0.78422086127102375 0.80802924558520306
leaf_count=20 16 25 27 18 28 32 35 39 27 19 14 14 15 17 29 26 17 17 29 39 21 22 21 23 25 24 36 24 24
internal_value=-4.70917e-05 0.0322714 0.0030193 0.085763 -0.0112118 -0.0145619 0.0124949 -0.00801974 -0.0277214 -0.00998629 -0.0345129 -0.0344935 -0.0343486 -0.0343564 -0.0342807 -0.0342175 -0.0342898 -0.034169 -0.0342379 -0.0341417 -0.0342118 -0.0341977 -0.0341674 -0.0341783 -0.0342153 -0.0341265 -0.0341411 -0.0341189 -0.0341064
internal_weight=31.8781 8.185 5.29138 2.89362 23.6932 22.6866 7.42345 5.65237 15.2632 4.09189 3.75765 3.39956 2.86062 2.55336 3.07048 11.1713 4.48971 6.68158 3.69718 5.94785 2.05265 2.61158 1.76357 1.84914 1.68165 4.97901 2.89085 1.61248 2.08815
internal_count=723 146 103 43 577 561 156 124 405 99 85 76 71 62 80 306 116 190 99 173 56 72 50 52 45 147 84 48 63
is_linear=0
shrinkage=0.05


Tree=26
num_leaves=28
num_cat=0
split_feature=35 3 35 35 11 30 4 0 25 7 27 0 35 0 25 35 14 27 27 34 10 30 7 0 16 10 20
split_gain=6.54604 3.95639 5.3762 7.47283 4.04648 4.40383 5.88175 3.70713 4.63094 3.37457 3.28415 4.83739 3.68196 3.42971 2.94101 2.88486 2.86523 2.67829 4.18028 3.06011 2.54126 2.49967 2.30527 2.14222 1.76403 0.968015 0.626013
threshold=28.500000000000004 -0.24421133732376013 22.500000000000004 19.500000000000004 1.161466820374347 0.13323962867644082 -0.12665515558958404 0.087866253947149794 0.4765011688022126 -0.45022974932421528 1.24681919938638 -0.014811560904685122 14.500000000000002 -0.03077659120925641 0.18281874318939154 5.5000000000000009 0.002991632122336039 0.98577552664753598 0.80813941912258314 25.500000000000004 -0.13528891546659341 0.1223512607744562 1.3548450032693495 -0.029414177122229299 0.082138196820763162 -0.048845324586126643 0.043578368077101685
decision_type=2 2 2 2 2 2 2 2 2 2 2 2 2 2 2 2 2 2 2 2 2 2 2 2 2 2 2
left_child=1 -1 3 7 5 6 -4 8 10 -10 11 12 20 -12 -13 -16 -5 18 19 -11 -3 -18 -2 -19 -8 -17 -9
right_child=22 2 4 16 -6 -7 24 26 9 17 13 14 -14 -15 15 25 21 23 -20 -21 -22 -23 -24 -25 -26 -27 -28
leaf_value=0.033071822730290287 0.043388038042263252 0.0036289143857078654 0.022155511475195171 0.046782454957073283 0.0071817248927458334 -0.054560031586323346 -0.043594127120614619 -0.017220918335678442 0.033765190365430596 0.015073589945776339 -0.01166809838785695 -0.046216189523560401 0.029444344282074559 0.032669906542081607 0.0089077791996555709 -0.041674299347041442 -0.0086335471034618659 0.0087185276451468528 0.037717470594862773 -0.025312554152788259 -0.02983090985084921 0.032577767397341903 0.008591366961100369 -0.023806842913646948 -0.012491779289579515 -0.015687687945651587 -0.037905076496360809
leaf_weight=7.6775723099708548 10.772895455360414 14.23566108942032 7.357083946466445 9.9583772420883196 11.741742134094237 10.137931853532789 10.912597417831426 7.3802085816860181 11.412960350513456 11.998215675354009 8.718980938196184 12.4839671254158 8.0453192293643934 8.7274183332920057 7.673674643039706 7.3901440203189814 7.329454153776167 8.7273931503295916 11.041447937488554 7.7009446024894705 9.4361729323864001 7.3888281583786011 8.5274516642093641 12.055187612771986 7.830001324415206 6.9574156105518359 7.2530304193496704
leaf_count=21 31 39 20 27 32 29 32 21 31 33 24 36 22 24 21 21 20 24 30 21 26 20 23 33 22 20 20
internal_value=-7.29679e-06 -0.00224604 -0.00340535 0.0004456 -0.0183274 -0.0265929 -0.0157295 -0.00347601 -0.00108076 0.00916542 -0.008788 -0.0138725 0.000222577 0.0105116 -0.0268287 -0.0158379 0.0260696 0.00371629 0.0130896 -0.000714467 -0.00970899 0.0120552 0.0280139 -0.0101482 -0.0306007 -0.0290729 -0.0274731
internal_weight=260.872 241.572 233.894 185.915 47.9794 36.2376 26.0997 161.238 146.605 62.9361 83.6688 66.2224 31.7172 17.4464 34.5052 22.0212 24.6767 51.5232 30.7406 19.6992 23.6718 14.7183 19.3003 20.7826 18.7426 14.3476 14.6332
internal_count=723 669 648 513 135 103 74 446 405 172 233 185 87 48 98 62 67 141 84 54 65 40 54 57 54 41 41
is_linear=0
shrinkage=0.05


end of trees

feature_importances:
days_to_month_end=55
day_of_month=50
returns_1=41
returns_100=37
returns_200=34
volume_ratio_20=34
day_of_week=33
high_low_range=27
price_to_sma_20=25
returns_20=24
returns_3=23
bollinger_width_20=23
returns_2=22
price_to_sma_200=21
returns_10=20
price_to_ema_12=20
rsi_14=20
atr_pct_14=19
sma_200_slope=17
macd_hist=17
close_open_range=17
returns_5=16
bollinger_percent_b_20=16
returns_50=15
price_to_sma_50=12
gap_open=11
ema_12_26_spread=10
macd_signal=10
price_to_ema_26=8
vwap_distance=8
atr_14=7
volume_20=7
sma_20_slope=5
sma_50_slope=5
macd=2

parameters:
[boosting: gbdt]
[objective: multiclass]
[metric: multi_logloss]
[tree_learner: serial]
[device_type: cpu]
[data_sample_strategy: bagging]
[data: ]
[valid: ]
[num_iterations: 300]
[learning_rate: 0.05]
[num_leaves: 31]
[num_threads: 0]
[seed: 0]
[deterministic: 0]
[force_col_wise: 0]
[force_row_wise: 0]
[histogram_pool_size: -1]
[max_depth: -1]
[min_data_in_leaf: 20]
[min_sum_hessian_in_leaf: 0.001]
[bagging_fraction: 1]
[pos_bagging_fraction: 1]
[neg_bagging_fraction: 1]
[bagging_freq: 0]
[bagging_seed: 3]
[bagging_by_query: 0]
[feature_fraction: 0.8]
[feature_fraction_bynode: 1]
[feature_fraction_seed: 2]
[extra_trees: 0]
[extra_seed: 6]
[early_stopping_round: 0]
[early_stopping_min_delta: 0]
[first_metric_only: 0]
[max_delta_step: 0]
[lambda_l1: 0]
[lambda_l2: 0]
[linear_lambda: 0]
[min_gain_to_split: 0]
[drop_rate: 0.1]
[max_drop: 50]
[skip_drop: 0.5]
[xgboost_dart_mode: 0]
[uniform_drop: 0]
[drop_seed: 4]
[top_rate: 0.2]
[other_rate: 0.1]
[min_data_per_group: 100]
[max_cat_threshold: 32]
[cat_l2: 10]
[cat_smooth: 10]
[max_cat_to_onehot: 4]
[top_k: 20]
[monotone_constraints: ]
[monotone_constraints_method: basic]
[monotone_penalty: 0]
[feature_contri: ]
[forcedsplits_filename: ]
[refit_decay_rate: 0.9]
[cegb_tradeoff: 1]
[cegb_penalty_split: 0]
[cegb_penalty_feature_lazy: ]
[cegb_penalty_feature_coupled: ]
[path_smooth: 0]
[interaction_constraints: ]
[verbosity: -1]
[saved_feature_importance_type: 0]
[use_quantized_grad: 0]
[num_grad_quant_bins: 4]
[quant_train_renew_leaf: 0]
[stochastic_rounding: 1]
[linear_tree: 0]
[max_bin: 255]
[max_bin_by_feature: ]
[min_data_in_bin: 3]
[bin_construct_sample_cnt: 200000]
[data_random_seed: 1]
[is_enable_sparse: 1]
[enable_bundle: 1]
[use_missing: 1]
[zero_as_missing: 0]
[feature_pre_filter: 1]
[pre_partition: 0]
[two_round: 0]
[header: 0]
[label_column: ]
[weight_column: ]
[group_column: ]
[ignore_column: ]
[categorical_feature: ]
[forcedbins_filename: ]
[precise_float_parser: 0]
[parser_config_file: ]
[objective_seed: 5]
[num_class: 3]
[is_unbalance: 0]
[scale_pos_weight: 1]
[sigmoid: 1]
[boost_from_average: 1]
[reg_sqrt: 0]
[alpha: 0.9]
[fair_c: 1]
[poisson_max_delta_step: 0.7]
[tweedie_variance_power: 1.5]
[lambdarank_truncation_level: 30]
[lambdarank_norm: 1]
[label_gain: ]
[lambdarank_position_bias_regularization: 0]
[eval_at: ]
[multi_error_top_k: 1]
[auc_mu_weights: ]
[num_machines: 1]
[local_listen_port: 12400]
[time_out: 120]
[machine_list_filename: ]
[machines: ]
[gpu_platform_id: -1]
[gpu_device_id: -1]
[gpu_use_dp: 0]
[num_gpu: 1]

end of parameters

pandas_categorical:null
