tree
version=v4
num_class=3
num_tree_per_iteration=3
label_index=0
max_feature_idx=49
objective=multiclass num_class:3
feature_names=returns_1 returns_2 returns_3 returns_5 returns_10 returns_20 returns_50 returns_100 returns_200 price_to_sma_20 price_to_sma_50 price_to_sma_200 sma_20_slope sma_50_slope sma_200_slope price_to_ema_12 price_to_ema_26 ema_12_26_spread macd macd_signal macd_hist rsi_14 atr_14 atr_pct_14 bollinger_width_20 bollinger_percent_b_20 volume_20 volume_ratio_20 vwap_distance adx_14 high_low_range close_open_range gap_open day_of_week day_of_month days_to_month_end news_sentiment_1d news_sentiment_7d news_article_count_7d earnings_proximity_days congress_buy_score congress_cluster_30d days_since_last_congress insider_buy_score insider_cluster_60d insider_value_60d ceo_bought_90d analyst_upgrade_score consensus_rating watchlist_research_score
feature_infos=[-0.25288145050333427:0.52438637096958596] [-0.34495578962083756:0.39735417338878715] [-0.33876296022005931:0.57109356937609401] [-0.31025973338975882:0.45908165883724888] [-0.36773561285264483:0.30728701607605285] [-0.55460942989925566:0.52327896746442104] [-0.65803562119895742:0.97721799999999992] [-0.71858378645801479:0.66494747615211536] [-0.8451735706630632:2.8366666666666664] [-0.42416986711685439:0.23688461202592573] [-0.54003395886997752:0.34924399731083888] [-0.7205583598964328:0.044272800735509231] [-0.03461090938519025:0.021612720134843534] [-0.019293665680218633:0.0098067775240673963] [-0.010987338712997083:0.0024419827861449405] [-0.32378501430095263:0.1713921751495722] [-0.43010776124213579:0.22104071623831203] [-38.13561871961042:49.389629408766723] [-38.13561871961042:49.389629408766723] [-34.62719238213672:44.136383835468557] [-14.343855692737158:13.347623271722043] [20.297836515963667:83.586452712070596] [0.33667912969814257:51.366361722632064] [0.027106395150427315:0.20425176024463676] [0.03873116770244292:0.83333445774238191] [-0.33670693754349007:1.2843084614251075] [4.0499999999999998:110.3] [0.011897679952409281:13.521594684385381] [-0.85304668789259286:-0.038079712380375177] [55.844155844155843:99.477684528867471] [0:0.36055893798171978] [-0.26500795218513656:0.30200020368231628] [-0.20505816718568748:0.30028866408342653] [0:6] [1:31] [1:31] none none none none none none none none none none none none none none
tree_sizes=1284 1065 1385 1406 1204 1304 1402 1209 1415 1197 1301 1414 1201 1426 1419

Tree=0
num_leaves=11
num_cat=0
split_feature=2 2 3 23 26 10 31 23 2 20
split_gain=15.6092 4.46015 5.04032 3.53946 3.2936 4.04374 3.24112 3.12775 4.59187 1.29034
threshold=-0.0093703266614240891 0.0019720122393175206 -0.022498518557342004 0.053774707928444625 74.700000000000017 -0.13665793128203366 0.00113821661410678 0.077687543615979557 -0.072909321992322959 -0.10733326040361034
decision_type=2 2 2 2 2 2 2 2 2 2
left_child=3 -2 -3 -1 5 -4 -7 9 -9 -5
right_child=1 2 4 7 -6 6 -8 8 -10 -11
leaf_value=-0.78024886862829601 -0.73275334552739391 -0.80722317183108006 -0.78515092949880194 -0.8131796989972121 -0.79186856846949527 -0.72159173000685739 -0.76382972754834055 -0.8179488138851283 -0.77395486454764639 -0.83950273571622991
leaf_weight=13.769718855619429 9.3038640916347486 7.8152458369731894 7.4430912733077994 10.792482346296312 7.4430912733077994 9.6760186553001457 8.5595549643039686 12.653255164623259 11.164636909961702 8.1874004006385785
leaf_count=37 25 21 20 29 20 26 23 34 30 22
internal_value=-0.784285 -0.764003 -0.771105 -0.802299 -0.762583 -0.754094 -0.741418 -0.809393 -0.797327 -0.824535
internal_weight=106.808 50.2409 40.937 56.5675 33.1218 25.6787 18.2356 42.7978 23.8179 18.9799
internal_count=287 135 110 152 89 69 49 115 64 51
is_linear=0
shrinkage=1


Tree=1
num_leaves=9
num_cat=0
split_feature=30 28 14 5 2 33 12 2
split_gain=8.45419 7.0125 4.56414 11.5872 4.08571 2.11224 0.286287 8.88178e-16
threshold=0.032490137383312051 -0.77680885267875766 -0.00062943804439930418 -0.003646377077813115 -0.010445539950407057 4.5000000000000009 -0.01174463032260886 0.060067023877423686
decision_type=2 2 2 2 2 2 2 2
left_child=1 -1 3 4 -3 6 -2 -8
right_child=5 2 -4 -5 -6 -7 7 -9
leaf_value=-2.2861378175991169 -2.2777035556891101 -2.2017951984990498 -2.2777035556891101 -2.1174525793989831 -2.2649852242375128 -2.2536135396454964 -2.2955092197213465 -2.2955092197213465
leaf_weight=5.3353809118270901 2.8080952167510995 5.3353809118270865 2.808095216751096 2.8080952167510995 4.9141666293144217 4.7737618684768668 8.705095171928404 2.8080952167510995
leaf_count=38 20 38 20 20 35 34 62 20
internal_value=-2.25828 -2.23655 -2.21987 -2.20744 -2.23209 -2.28242 -2.29202 -2.29551
internal_weight=40.2962 21.2011 15.8657 13.0576 10.2495 19.095 14.3213 11.5132
internal_count=287 151 113 93 73 136 102 82
is_linear=0
shrinkage=1


Tree=2
num_leaves=12
num_cat=0
split_feature=15 0 14 0 4 27 35 32 0 1 4
split_gain=20.3459 8.62785 3.7698 4.57975 4.1058 3.34222 5.17985 3.04638 1.69183 1.56123 1.25226
threshold=-0.00037533140647054767 -0.017796704134373394 -0.0012861258023152435 5.5571863926150218e-06 -0.12378372643253883 0.38637338855618375 19.500000000000004 -0.042264071006557283 -0.093551919611532044 0.006638869869464852 -0.094528819352641999
decision_type=2 2 2 2 2 2 2 2 2 2 2
left_child=1 7 3 -3 -5 9 -7 8 -1 -2 -9
right_child=5 2 -4 4 -6 6 -8 10 -10 -11 -12
leaf_value=-0.7878782483452984 -0.8531975072932626 -0.85845163043901263 -0.79238978875311572 -0.7878782483452984 -0.83485134553257312 -0.86256930620805228 -0.80879539023608793 -0.75957858578717141 -0.8217148014039285 -0.88262059690946271 -0.78675036324334413
leaf_weight=7.3884594440460205 8.4967283606529254 10.34384322166443 7.7578824162483206 7.3884594440460232 12.560381054878233 9.9744202494621295 8.1273053884506208 8.1273053884506243 7.3884594440460223 9.6049972772598249 8.8661513328552228
leaf_count=20 23 28 21 20 34 27 22 22 20 26 24
internal_value=-0.8232 -0.807428 -0.823489 -0.831453 -0.817454 -0.853618 -0.838426 -0.788193 -0.804797 -0.86881 -0.773755
internal_weight=106.024 69.8209 38.0506 30.2927 19.9488 36.2035 18.1017 31.7704 14.7769 18.1017 16.9935
internal_count=287 189 103 82 54 98 49 86 40 49 46
is_linear=0
shrinkage=1


Tree=3
num_leaves=12
num_cat=0
split_feature=2 4 22 0 24 8 0 3 13 11 23
split_gain=13.8123 5.3584 3.85173 3.71741 4.18464 2.45231 2.37936 2.2623 1.75289 3.70406 1.15677
threshold=-0.0093703266614240891 -0.014221660838107037 19.019207755254509 -0.0088325300215020934 0.31775787067767236 -0.35586766637702255 -0.078264958918964941 0.063627162180751332 -0.0077522478789418823 -0.20874302105365533 0.054097689841485032
decision_type=2 2 2 2 2 2 2 2 2 2 2
left_child=3 8 -3 5 -5 6 -1 -4 -2 -10 -7
right_child=1 2 7 4 -6 10 -8 -9 9 -11 -12
leaf_value=-0.031714006295820101 0.021575727727489509 0.064031526934565 0.037372982586600691 0.014824867479781057 -0.028182529964918875 -0.027121481575517182 0.0066372932827450399 0.0018312098691448593 -0.030998432731341508 0.016529501238048971 -0.053870155149768617
leaf_weight=8.8815351724624652 7.8166159391403225 7.8504662215709713 10.460934937000276 14.494357585906984 9.2755640745162946 7.4277964234352138 7.4255273640155783 7.8273151516914359 8.1859430372715032 8.2117075324058497 8.8667218089103681
leaf_count=24 21 21 28 39 25 20 20 21 22 22 24
internal_value=5.43664e-06 0.0190376 0.0347365 -0.0169948 -0.0019576 -0.0279584 -0.0142505 0.0221612 0.00209105 -0.00719713 -0.0416769
internal_weight=106.724 50.353 26.1387 56.3715 23.7699 32.6016 16.3071 18.2883 24.2143 16.3977 16.2945
internal_count=287 135 70 152 64 88 44 49 65 44 44
is_linear=0
shrinkage=0.05


Tree=4
num_leaves=10
num_cat=0
split_feature=30 11 6 14 33 22 2 24 1
split_gain=7.88353 5.78038 7.58183 3.3953 2.04419 1.75638 0.294696 3.63813e-06 1.05083e-06
threshold=0.032490137383312051 -0.2584859125473265 -0.021115454640369086 -0.0074017857135765973 4.5000000000000009 0.64759510003177545 0.062347323273684939 0.20487901488653301 -0.020562895047610549
decision_type=2 2 2 2 2 2 2 2 2
left_child=1 3 -3 -1 6 -5 7 -2 -9
right_child=4 2 -4 5 -6 -7 -8 8 -10
leaf_value=0.035959956788044943 -0.037044870945734963 0.11023360955151706 0.015625401618480646 -0.037177106063143839 0.0043275809815563129 0.0098909345272402971 -0.018754482535743282 -0.037088218810663098 -0.037126132696627512
leaf_weight=4.0969476997852317 3.7850977778434771 3.3848188817501068 5.6566662937402707 5.2782897651195544 4.8089192360639563 3.1737703084945679 2.7276262491941443 4.094009205698967 3.3012889474630356
leaf_count=29 28 23 39 38 34 22 20 30 24
internal_value=-2.41079e-05 0.0205644 0.0510434 -0.00139564 -0.0237735 -0.0195029 -0.0334898 -0.0370847 -0.0371051
internal_weight=40.3074 21.5905 9.04149 12.549 18.7169 8.45206 13.908 11.1804 7.3953
internal_count=287 151 62 89 136 60 102 82 54
is_linear=0
shrinkage=0.05


Tree=5
num_leaves=11
num_cat=0
split_feature=15 0 14 0 3 27 35 27 27 15
split_gain=18.4047 7.85325 3.48371 4.21383 3.81776 3.11454 4.83054 1.83632 2.34782 1.39843
threshold=-0.00037533140647054767 -0.017796704134373394 -0.0012861258023152435 5.5571863926150218e-06 -0.061957197441336466 0.38637338855618375 18.500000000000004 0.82994271578605272 0.26998990691936753 0.013089766046509381
decision_type=2 2 2 2 2 2 2 2 2 2
left_child=1 7 3 -3 -5 9 -7 8 -1 -2
right_child=5 2 -4 4 -6 6 -8 -9 -10 -11
leaf_value=0.02785351320103753 -0.029591879668372387 -0.034077094561821841 0.02941683891674763 0.029710320444181704 -0.014274492388477368 -0.040914434766126093 0.010860390859824456 0.017263122613742431 0.062227757114597576 -0.057522297617873419
leaf_weight=11.874570757150655 8.7965537309646624 10.286309450864794 7.7901100218296042 8.8942002952098864 11.078014761209486 8.7946428656578082 9.2363161742687208 11.516375452280043 8.5400704443454725 9.1359356641769391
leaf_count=32 24 28 21 24 30 24 25 31 23 25
internal_value=3.69549e-06 0.0149434 -0.000400819 -0.00807743 0.00531321 -0.0290669 -0.0143929 0.0332275 0.0422333 -0.0438214
internal_weight=105.943 69.9797 38.0486 30.2585 19.9722 35.9634 18.031 31.931 20.4146 17.9325
internal_count=287 189 103 82 54 98 49 86 55 49
is_linear=0
shrinkage=0.05


Tree=6
num_leaves=12
num_cat=0
split_feature=4 11 8 31 27 22 32 22 10 19 8
split_gain=11.5883 4.34631 6.70894 3.79647 3.70056 3.51593 4.08331 2.87923 2.38779 1.88438 0.962174
threshold=-0.014221660838107037 -0.63385313031491741 -0.35586766637702255 0.0073344036124995777 0.2222252705798434 0.66429559341601518 -0.0026261304332446419 18.19968446805191 0.039998390369910868 -0.5558545844685554 -0.27250480465796473
decision_type=2 2 2 2 2 2 2 2 2 2 2
left_child=1 -1 4 7 -3 -2 -7 -4 -8 -6 -9
right_child=5 2 3 -5 9 6 8 10 -10 -11 -12
leaf_value=-0.04349959830095422 0.051094344602264641 -0.014400411352214577 -0.0088827389957915372 0.0060737787965686766 0.0093368259719084946 -0.010450960038771086 0.013848800160128603 -0.058694228946515652 0.050101735532935621 0.041679819684820436 -0.033459456820289481
leaf_weight=9.5879573822021467 8.2177705168724042 9.6548427045345289 7.7666525244712927 8.1728753149509412 10.003825277090074 10.769858926534654 11.58126136660576 7.7151455581188211 7.4727317094802848 8.1907936036586744 7.4010401964187595
leaf_count=26 22 26 21 22 27 29 31 21 20 22 20
internal_value=9.20071e-06 -0.0122805 -0.00719898 -0.0231783 0.01062 0.0221365 0.0141574 -0.033626 0.0280667 0.0238969 -0.046339
internal_weight=106.535 68.4931 58.9052 31.0557 27.8495 38.0416 29.8239 22.8828 19.054 18.1946 15.1162
internal_count=287 185 159 84 75 102 80 62 51 49 41
is_linear=0
shrinkage=0.05


Tree=7
num_leaves=10
num_cat=0
split_feature=30 28 14 5 2 33 12 34 15
split_gain=7.38298 5.99547 3.72871 8.58491 3.43211 1.99734 0.302573 1.00836e-05 9.96781e-06
threshold=0.032490137383312051 -0.77680885267875766 -0.00062943804439930418 -0.003646377077813115 -0.010445539950407057 4.5000000000000009 -0.01174463032260886 11.500000000000002 -0.011461019537479232
decision_type=2 2 2 2 2 2 2 2 2
left_child=1 -1 3 4 -3 6 -2 -8 -9
right_child=5 2 -4 -5 -6 -7 7 8 -10
leaf_value=-0.02744428995552314 -0.018136011759923104 0.04937633516035695 -0.019025591579598343 0.1157687544268427 -0.0072882094998494955 0.0042146822265856435 -0.036877547333954645 -0.036935202166170446 -0.037045916699059621
leaf_weight=5.1820909902453449 2.6557692140340814 5.7467768788337734 2.7592632770538303 3.2504038959741601 4.9948978573083869 4.8203962445259085 2.7347551956772813 4.2218725830316535 3.9211073964834204
leaf_count=38 20 38 20 20 35 34 21 32 29
internal_value=-2.39707e-05 0.019556 0.0340957 0.0445714 0.0230272 -0.0234226 -0.0332665 -0.0369606 -0.0369885
internal_weight=40.2873 21.9334 16.7513 13.9921 10.7417 18.3539 13.5335 10.8777 8.14298
internal_count=287 151 113 93 73 136 102 82 61
is_linear=0
shrinkage=0.05


Tree=8
num_leaves=12
num_cat=0
split_feature=15 0 14 0 3 27 35 32 12 1 2
split_gain=16.6273 6.98259 3.20608 3.90056 3.45787 2.85576 4.49935 2.75003 1.64173 1.47315 0.777577
threshold=-0.00037533140647054767 -0.017796704134373394 -0.0012861258023152435 5.5571863926150218e-06 -0.061957197441336466 0.38637338855618375 18.500000000000004 -0.042264071006557283 -0.01174463032260886 0.006638869869464852 -0.070925573361956359
decision_type=2 2 2 2 2 2 2 2 2 2 2
left_child=1 7 3 -3 -5 9 -7 8 -1 -2 -9
right_child=5 2 -4 4 -6 6 -8 10 -10 -11 -12
leaf_value=0.032201021760760722 -0.026766818266023007 -0.032870293528318932 0.028192306100879007 0.028256375677405091 -0.013589856596651701 -0.039510374250599556 0.010561203895221532 0.057085077564306412 -0.0010030751155305315 -0.055654288442910538 0.035625397501628901
leaf_weight=7.4489533305168152 8.3504129052162188 10.215779453516008 7.8148260712623587 8.9265895783901232 11.044848561286924 8.7171195447444934 9.244358152151106 7.4757430255413047 7.4418981969356519 9.3605858385562879 9.6962114572525042
leaf_count=20 23 28 21 24 30 24 25 20 20 26 26
internal_value=-1.37037e-07 0.0141475 -0.000351101 -0.00774038 0.00511406 -0.0277877 -0.0137397 0.0313318 0.0156068 -0.0420344 0.0449678
internal_weight=105.737 70.0648 38.002 30.1872 19.9714 35.6725 17.9615 32.0628 14.8909 17.711 17.172
internal_count=287 189 103 82 54 98 49 86 40 49 46
is_linear=0
shrinkage=0.05


Tree=9
num_leaves=10
num_cat=0
split_feature=2 4 27 0 24 14 24 31 30
split_gain=11.2149 4.50028 3.54922 3.04128 3.76283 2.70345 2.25442 1.87006 1.09401
threshold=-0.0093703266614240891 -0.014221660838107037 0.46539364922182364 -0.0088325300215020934 0.31775787067767236 -0.0030825572174437744 0.37454512322066874 -0.005755510287116212 0.044902644453814207
decision_type=2 2 2 2 2 2 2 2 2
left_child=3 5 -3 6 -5 -2 7 8 -1
right_child=1 2 -4 4 -6 -7 -8 -9 -10
leaf_value=-0.057198634423837283 0.021379543402517468 0.050411369250703303 0.013574595400455126 0.014059162920143507 -0.026806136410079402 -0.012536719989677021 -0.0025295950584932406 -0.015312807897684869 -0.030130091153051864
leaf_weight=7.647615432739256 10.060523211956026 12.72960737347603 13.44593024253845 14.494599163532259 9.2138834595680219 14.124068796634672 8.0604524016380292 9.180507957935335 7.2918986082077026
leaf_count=21 27 34 36 39 25 38 22 25 20
internal_value=8.8984e-06 0.0171219 0.0314889 -0.0154112 -0.00182241 0.00157207 -0.0254225 -0.0330729 -0.0439866
internal_weight=106.249 50.3601 26.1755 55.889 23.7085 24.1846 32.1805 24.12 14.9395
internal_count=287 135 70 152 64 65 88 66 41
is_linear=0
shrinkage=0.05


Tree=10
num_leaves=11
num_cat=0
split_feature=30 28 21 21 9 35 19 11 24 13
split_gain=6.86303 5.46482 3.46945 5.94723 7.29779 4.23151 1.43903 0.930275 0.31041 1.93152e-05
threshold=0.032490137383312051 -0.77680885267875766 40.293955453590996 42.763654603508243 -0.013493359558821855 16.500000000000004 -13.449645241828991 -0.2679928725938846 0.18237567839153385 -0.0023960886347594592
decision_type=2 2 2 2 2 2 2 2 2 2
left_child=1 -1 -3 -4 -5 -6 7 -2 -8 -10
right_child=6 2 3 4 5 -7 8 -9 9 -11
leaf_value=-0.027129608534240918 0.019132732716833301 -0.010761109622985536 0.10350502905775948 -0.037438497000784568 0.093635928859676684 0.016454718005706016 -0.017361126790101954 -0.021062570781105835 -0.037000858628850934 -0.036858925448605979
leaf_weight=5.0689281076192882 2.6720443665981293 3.7280912399292019 3.1804458051919928 3.1980966180563 3.4146326929330781 3.7003313526511192 2.5683638527989379 3.1205331906676319 4.9365509897470474 4.6595316603779775
leaf_count=38 20 25 20 22 21 25 20 23 37 36
internal_value=-2.85881e-05 0.0185031 0.0319344 0.0437307 0.0252969 0.0534957 -0.0230325 -0.00252097 -0.0327998 -0.0369319
internal_weight=40.2475 22.2905 17.2216 13.4935 10.3131 7.11496 17.957 5.79258 12.1644 9.59608
internal_count=287 151 113 88 68 46 136 43 93 73
is_linear=0
shrinkage=0.05


Tree=11
num_leaves=12
num_cat=0
split_feature=15 0 22 20 30 28 28 32 22 12 4
split_gain=15.1058 6.34622 3.10683 4.83598 2.63675 2.83928 2.99566 2.5237 2.12326 1.5225 1.02632
threshold=-0.00037533140647054767 -0.017796704134373394 17.599711335728852 -0.017071242061908725 0.0067373016276833751 -0.42985519923156285 -0.10727946036315501 -0.042264071006557283 28.471314550248156 -0.01174463032260886 -0.094528819352641999
decision_type=2 2 2 2 2 2 2 2 2 2 2
left_child=1 7 3 -3 -2 -6 -7 9 -4 -1 -9
right_child=4 2 8 -5 5 6 -8 10 -10 -11 -12
leaf_value=0.030693304762372694 -0.049035278378306651 -0.045568084104725515 0.028116504316276145 0.0076351863929306945 0.0071891171041054032 -0.050338648327544526 -0.0096370273788393725 0.055579803698344504 -0.0039683697310272086 -0.0012604057745844144 0.031140543984036234
leaf_weight=7.4680001735687256 9.5808936357498151 7.6936215758323696 10.72642692923546 9.6015668213367444 7.6670960783958426 8.6674892306327838 9.449197471141817 8.2430251240730268 9.929742217063902 7.4433134496211988 8.9711512625217456
leaf_count=20 27 21 29 26 21 24 26 22 27 20 24
internal_value=1.94567e-06 0.0134461 -0.000397591 -0.0160318 -0.0266383 -0.0183159 -0.0291097 0.0298003 0.0126928 0.0147429 0.0428433
internal_weight=105.442 70.0768 37.9514 17.2952 35.3647 25.7838 18.1167 32.1255 20.6562 14.9113 17.2142
internal_count=287 189 103 47 98 71 50 86 56 40 46
is_linear=0
shrinkage=0.05


Tree=12
num_leaves=10
num_cat=0
split_feature=2 4 22 23 23 2 14 0 23
split_gain=10.0002 4.08133 3.26033 3.06751 2.9073 3.64119 2.44934 2.16507 1.88886
threshold=-0.0093703266614240891 -0.014221660838107037 19.019207755254509 0.053774707928444625 0.077687543615979557 -0.072909321992322959 -0.0030825572174437744 -0.0040091751988301635 0.054851685403729332
decision_type=2 2 2 2 2 2 2 2 2
left_child=3 6 -3 -1 7 -6 -2 -5 -4
right_child=1 2 8 4 5 -7 -8 -9 -10
leaf_value=0.0060069330713210696 0.020177102515377528 0.056856732011542191 0.003812744371291333 -0.051157715193701762 -0.028294044051337709 0.011192161200974344 -0.012110026762707981 -0.016728082700888863 0.036093995426826807
leaf_weight=13.624529063701628 10.07197165489197 7.8295677602291134 10.091935992240908 10.429381102323534 12.322590440511702 11.095288753509523 14.092900663614271 8.1220697164535505 8.2243604958057386
leaf_count=37 27 21 27 29 34 30 38 22 22
internal_value=9.49396e-06 0.0161606 0.0298514 -0.0146067 -0.0212985 -0.00958565 0.00134732 -0.036084 0.0183076
internal_weight=105.905 50.3107 26.1459 55.5939 41.9693 23.4179 24.1649 18.5515 18.3163
internal_count=287 135 70 152 115 64 65 51 49
is_linear=0
shrinkage=0.05


Tree=13
num_leaves=12
num_cat=0
split_feature=27 17 24 27 19 26 27 14 27 14 5
split_gain=4.54307 4.74291 4.32309 3.9652 3.85901 1.67975 0.968566 0.297731 0.000190047 0.000237452 7.72048e-05
threshold=1.660119261340036 -16.957994156564947 0.1612267253748946 0.094979096480902719 3.5341112642772132 7.3750000000000009 0.87265890864091777 -0.0006532772572794154 0.48527008842752789 -0.001810870837220367 -0.066943465770682484
decision_type=2 2 2 2 2 2 2 2 2 2 2
left_child=1 -1 4 -4 -3 -5 7 8 9 -7 -2
right_child=10 2 3 5 -6 6 -8 -9 -10 -11 -12
leaf_value=0.052582036667413873 -0.037126504360282024 -0.0033643724142775654 0.033093013426296024 0.014114137250876145 0.076936641712741435 -0.037044845842263599 -0.00014404558748287434 -0.018214327930414373 -0.036833203905518724 -0.037634463123160725 -0.03677947034826274
leaf_weight=4.989273637533187 4.3385461717844009 2.9440642371773746 4.2435437068343189 2.9201630577445057 3.0421165451407433 3.7594985067844418 2.6994014009833327 2.6242295354604677 2.9530636593699455 3.1285228729248038 2.5414736792445174
leaf_count=34 32 21 29 21 19 28 20 19 23 21 20
internal_value=-9.4301e-06 0.00763185 -0.000288756 -0.0104047 0.0374438 -0.0206113 -0.0272981 -0.0331784 -0.0371688 -0.0373126 -0.0369983
internal_weight=40.1839 33.3039 28.3146 22.3284 5.98618 18.0849 15.1647 12.4653 9.84109 6.88802 6.88002
internal_count=287 235 201 161 40 132 111 91 72 49 52
is_linear=0
shrinkage=0.05


Tree=14
num_leaves=12
num_cat=0
split_feature=0 4 14 16 27 16 9 4 12 23 32
split_gain=12.5253 4.73317 4.16057 4.91831 2.60335 2.49221 2.41247 4.20404 2.31551 1.34181 0.74407
threshold=-0.015230436418269759 -0.014221660838107037 -0.0012861258023152435 -0.1331372899929896 0.38637338855618375 -0.021975139171533539 -0.084187876734422157 -0.14766707251634176 -0.0054923922657949048 0.054441829480415392 0.0036668133164324658
decision_type=2 2 2 2 2 2 2 2 2 2 2
left_child=5 2 3 -2 10 6 7 -1 -5 -6 -3
right_child=1 4 -4 8 9 -7 -8 -9 -10 -11 -12
leaf_value=0.040608638986423085 0.022958540419972372 -0.054249274972226605 0.030304222443997227 -0.039218091301434159 0.0011855251904875595 -0.0024186521052151529 0.049371391620040443 -0.0051716164928450395 -0.0063862171578813924 -0.028869570529011481 -0.031501769616027568
leaf_weight=10.837077021598818 8.1904469132423383 7.4347574710845965 8.1599361002445203 10.595517545938494 7.6424364149570447 7.7200023233890525 10.088418632745745 9.3339987099170667 10.889567703008654 7.2237548828125 6.960444837808609
leaf_count=29 22 21 22 29 21 21 27 25 30 20 20
internal_value=-5.96206e-06 -0.0129938 -0.00131511 -0.0100095 -0.0280945 0.0229391 0.0294085 0.0194242 -0.0225775 -0.0134188 -0.0432503
internal_weight=105.076 67.0969 37.8355 29.6755 29.2614 37.9795 30.2595 20.1711 21.4851 14.8662 14.3952
internal_count=287 185 103 81 82 102 81 54 59 41 41
is_linear=0
shrinkage=0.05


end of trees

feature_importances:
returns_1=13
returns_3=12
volume_ratio_20=12
sma_200_slope=11
returns_10=9
atr_14=7
atr_pct_14=7
price_to_ema_12=6
bollinger_width_20=6
high_low_range=6
sma_20_slope=5
vwap_distance=5
gap_open=5
returns_5=4
price_to_sma_200=4
days_to_month_end=4
returns_2=3
returns_20=3
returns_200=3
macd_signal=3
close_open_range=3
day_of_week=3
price_to_sma_20=2
price_to_sma_50=2
sma_50_slope=2
price_to_ema_26=2
macd_hist=2
rsi_14=2
volume_20=2
returns_50=1
ema_12_26_spread=1
day_of_month=1

parameters:
[boosting: gbdt]
[objective: multiclass]
[metric: multi_logloss]
[tree_learner: serial]
[device_type: cpu]
[data_sample_strategy: bagging]
[data: ]
[valid: ]
[num_iterations: 300]
[learning_rate: 0.05]
[num_leaves: 31]
[num_threads: 0]
[seed: 0]
[deterministic: 0]
[force_col_wise: 0]
[force_row_wise: 0]
[histogram_pool_size: -1]
[max_depth: -1]
[min_data_in_leaf: 20]
[min_sum_hessian_in_leaf: 0.001]
[bagging_fraction: 1]
[pos_bagging_fraction: 1]
[neg_bagging_fraction: 1]
[bagging_freq: 0]
[bagging_seed: 3]
[bagging_by_query: 0]
[feature_fraction: 0.8]
[feature_fraction_bynode: 1]
[feature_fraction_seed: 2]
[extra_trees: 0]
[extra_seed: 6]
[early_stopping_round: 0]
[early_stopping_min_delta: 0]
[first_metric_only: 0]
[max_delta_step: 0]
[lambda_l1: 0]
[lambda_l2: 0]
[linear_lambda: 0]
[min_gain_to_split: 0]
[drop_rate: 0.1]
[max_drop: 50]
[skip_drop: 0.5]
[xgboost_dart_mode: 0]
[uniform_drop: 0]
[drop_seed: 4]
[top_rate: 0.2]
[other_rate: 0.1]
[min_data_per_group: 100]
[max_cat_threshold: 32]
[cat_l2: 10]
[cat_smooth: 10]
[max_cat_to_onehot: 4]
[top_k: 20]
[monotone_constraints: ]
[monotone_constraints_method: basic]
[monotone_penalty: 0]
[feature_contri: ]
[forcedsplits_filename: ]
[refit_decay_rate: 0.9]
[cegb_tradeoff: 1]
[cegb_penalty_split: 0]
[cegb_penalty_feature_lazy: ]
[cegb_penalty_feature_coupled: ]
[path_smooth: 0]
[interaction_constraints: ]
[verbosity: -1]
[saved_feature_importance_type: 0]
[use_quantized_grad: 0]
[num_grad_quant_bins: 4]
[quant_train_renew_leaf: 0]
[stochastic_rounding: 1]
[linear_tree: 0]
[max_bin: 255]
[max_bin_by_feature: ]
[min_data_in_bin: 3]
[bin_construct_sample_cnt: 200000]
[data_random_seed: 1]
[is_enable_sparse: 1]
[enable_bundle: 1]
[use_missing: 1]
[zero_as_missing: 0]
[feature_pre_filter: 1]
[pre_partition: 0]
[two_round: 0]
[header: 0]
[label_column: ]
[weight_column: ]
[group_column: ]
[ignore_column: ]
[categorical_feature: ]
[forcedbins_filename: ]
[precise_float_parser: 0]
[parser_config_file: ]
[objective_seed: 5]
[num_class: 3]
[is_unbalance: 0]
[scale_pos_weight: 1]
[sigmoid: 1]
[boost_from_average: 1]
[reg_sqrt: 0]
[alpha: 0.9]
[fair_c: 1]
[poisson_max_delta_step: 0.7]
[tweedie_variance_power: 1.5]
[lambdarank_truncation_level: 30]
[lambdarank_norm: 1]
[label_gain: ]
[lambdarank_position_bias_regularization: 0]
[eval_at: ]
[multi_error_top_k: 1]
[auc_mu_weights: ]
[num_machines: 1]
[local_listen_port: 12400]
[time_out: 120]
[machine_list_filename: ]
[machines: ]
[gpu_platform_id: -1]
[gpu_device_id: -1]
[gpu_use_dp: 0]
[num_gpu: 1]

end of parameters

pandas_categorical:null
