tree
version=v4
num_class=3
num_tree_per_iteration=3
label_index=0
max_feature_idx=49
objective=multiclass num_class:3
feature_names=returns_1 returns_2 returns_3 returns_5 returns_10 returns_20 returns_50 returns_100 returns_200 price_to_sma_20 price_to_sma_50 price_to_sma_200 sma_20_slope sma_50_slope sma_200_slope price_to_ema_12 price_to_ema_26 ema_12_26_spread macd macd_signal macd_hist rsi_14 atr_14 atr_pct_14 bollinger_width_20 bollinger_percent_b_20 volume_20 volume_ratio_20 vwap_distance adx_14 high_low_range close_open_range gap_open day_of_week day_of_month days_to_month_end news_sentiment_1d news_sentiment_7d news_article_count_7d earnings_proximity_days congress_buy_score congress_cluster_30d days_since_last_congress insider_buy_score insider_cluster_60d insider_value_60d ceo_bought_90d analyst_upgrade_score consensus_rating watchlist_research_score
feature_infos=[-0.46351603033124922:0.26089850249584023] [-0.47534638652182404:0.24630813757824604] [-0.4651391483921723:0.2846604294272061] [-0.55492095025246246:0.30575379125780539] [-0.56669426191338546:0.51823732413060786] [-0.67408829174664098:0.78591056707469376] [-0.65180132536102053:1.2783841924946218] [-0.60171368556781435:1.2008156446540879] [-0.71238387828249583:1.163756833698637] [-0.55223818452583429:0.37009469828547054] [-0.61382668524397055:0.65826593027814173] [-0.55350365112002586:0.62801349162949782] [-0.044300134486764273:0.031083347536230016] [-0.017227580721115889:0.018961664230229738] [-0.0069211220171650776:0.0026827867123144682] [-0.48842550516032518:0.21555698517200697] [-0.55422515379159509:0.37011578994981714] [-1081.1932249923402:469.75749055052438] [-1081.1932249923402:469.75749055052438] [-880.40840946601702:431.54286566359349] [-391.95327486681595:215.5589610220006] [15.720106452948514:88.540047414188649] [0.001526191534160657:797.71442176047856] [0.032865652795768419:0.27727749554110886] [0.064653880799553726:1.2494668087692558] [-0.41079444467978354:1.5068607479413727] [360.14999999999998:46822.5] [0.16466220033901041:7.0900771290412816] [-0.7801146887620668:0.41194288491863501] [34.730555020364612:99.477684528867471] [0.010359067683908449:0.94259500340958402] [-0.4646022104948721:0.25713337757133375] [-0.017659797727221878:0.022467816371144034] [0:6] [1:31] [1:31] none none none none none none none none none none none none none none
tree_sizes=3382 2817 3356 3428 3471 3441

Tree=0
num_leaves=31
num_cat=0
split_feature=31 6 34 34 33 34 11 1 2 27 28 1 12 33 34 24 11 12 19 3 2 2 23 28 31 27 23 11 33 34
split_gain=14.6533 17.4892 11.2245 17.3198 10.3941 10.5084 8.52526 6.16434 10.5624 7.89638 6.15036 6.01898 5.85724 5.70682 11.1099 9.12271 7.10614 6.34932 10.531 6.08402 5.61503 5.59611 5.92862 5.91569 5.52981 5.42761 5.03379 4.89987 4.18176 13.2992
threshold=0.0060865692666182683 -0.21497589399163883 5.5000000000000009 2.5000000000000004 1.0000000180025095e-35 19.500000000000004 -0.28378229852445691 0.064331134572016432 0.033942076726828162 0.47881728699093123 -0.35530911495888567 0.087665462304096636 -0.0083273814637201942 2.5000000000000004 25.500000000000004 0.18770767041692663 -0.31661712412729137 -0.0022529322074964502 0.0047023737997244379 -0.031868540521405822 -0.023782837365333397 -0.059090405979465896 0.051390539292492515 -0.55691182409150519 -0.037572746658176344 1.7373601965368051 0.059517045808966038 -0.079672751284780977 1.0000000180025095e-35 9.5000000000000018
decision_type=2 2 2 2 2 2 2 2 2 2 2 2 2 2 2 2 2 2 2 2 2 2 2 2 2 2 2 2 2 2
left_child=1 6 3 -2 5 -4 12 8 9 -6 -10 -9 -1 14 15 19 -15 20 -19 -3 27 -11 -23 -24 -17 -13 -20 -18 -26 -30
right_child=2 13 4 -5 7 -7 -8 11 10 21 -12 25 -14 16 -16 24 17 18 26 -21 -22 22 23 -25 28 -27 -28 -29 29 -31
leaf_value=-0.7890956334623519 -0.69733285239139198 -0.71860701818017558 -0.708116653670534 -0.78218498490527577 -0.76007090952263223 -0.7890956334623519 -0.72599026592889682 -0.75806920442334125 -0.66377102187977655 -0.67251299230447781 -0.70485643467916548 -0.68611161296512435 -0.75039600154272568 -0.7746712252014003 -0.77017581341275687 -0.69343014335703579 -0.75895457398648913 -0.77900608656902082 -0.74950591000857425 -0.66841388655509637 -0.69300852105138522 -0.69025468166763082 -0.76819783222575377 -0.71479234017666948 -0.7595587085119313 -0.73841400012145675 -0.71383867067579299 -0.70589142483515555 -0.75848774276228392 -0.6811666599976165
leaf_weight=25.840039819478985 9.7368265986442566 10.485813260078432 7.4898666143417385 15.728719890117645 8.6133466064929944 8.6133466064929944 11.609293252229689 10.860306590795519 20.97162652015686 8.9878399372100812 16.103213220834732 10.111319929361345 15.728719890117647 12.358279913663862 10.111319929361342 9.362333267927168 9.7368265986442584 15.728719890117643 18.72466653585434 14.230746567249296 14.230746567249296 13.85625323653221 7.4898666143417314 16.852199882268913 12.732773244380949 9.7368265986442548 20.97162652015686 7.8643599450588253 12.358279913663866 10.111319929361342
leaf_count=69 26 28 20 42 23 23 31 29 56 24 43 27 42 33 27 25 26 42 50 38 38 37 20 45 34 26 56 21 33 27
internal_value=-0.730598 -0.738696 -0.719213 -0.749742 -0.713647 -0.751431 -0.763873 -0.708724 -0.702302 -0.716047 -0.681616 -0.728144 -0.774453 -0.731216 -0.721216 -0.714071 -0.739186 -0.73416 -0.744382 -0.689708 -0.716363 -0.708011 -0.716363 -0.731225 -0.727583 -0.711769 -0.730663 -0.735246 -0.736666 -0.723693
internal_weight=397.337 232.186 165.152 25.4655 139.686 16.1032 53.1781 123.583 92.8743 55.7995 37.0748 30.7085 41.5688 179.008 79.3926 69.2813 99.6152 87.2569 55.425 24.7166 31.8319 47.1862 38.1983 24.3421 44.5647 19.8481 39.6963 17.6012 35.2024 22.4696
internal_count=1061 620 441 68 373 43 142 330 248 149 99 82 111 478 212 185 266 233 148 66 85 126 102 65 119 53 106 47 94 60
is_linear=0
shrinkage=1


Tree=1
num_leaves=26
num_cat=0
split_feature=28 5 35 7 4 33 17 10 28 15 3 7 17 3 9 3 11 2 28 3 2 9 2 8 2
split_gain=6.67717 9.24566 8.86643 7.49145 6.06944 10.2257 3.67548 15.5033 3.77363 3.3627 7.42199 14.7722 2.83885 2.48403 2.38704 1.70775 0.551137 0.455932 0.281572 0.710645 1.68572 3.55271e-15 8.88178e-16 8.88178e-16 2.22045e-16
threshold=-0.018251818418748067 0.072401501629989304 27.500000000000004 -0.53848961800134731 -0.029783187102078685 2.5000000000000004 3.2655954658289912 0.19579459153278697 -0.69946214281442243 0.013841452235442921 0.038170441954433747 -0.14418919103472164 247.2416534012082 0.074895778244933112 0.18110133326531205 -0.061311327580546464 -0.4546726384609816 0.064962896052271304 -0.58550444879773744 -0.061311327580546464 -0.058094776797239213 -0.0039546205017329293 -0.022987167284936435 -0.26739303181162605 0.063548505092682714
decision_type=2 2 2 2 2 2 2 2 2 2 2 2 2 2 2 2 2 2 2 2 2 2 2 2 2
left_child=3 2 4 -1 15 -6 8 -8 -5 13 11 -11 -3 16 23 -2 -10 -9 19 20 -18 -20 -21 -12 -25
right_child=1 12 -4 6 5 -7 7 17 9 10 14 -13 -14 -15 -16 -17 18 -19 21 22 -22 -23 -24 24 -26
leaf_value=-2.891284889602264 -2.9615230468781122 -3.0317612041539599 -2.8210467323264163 -2.9514890244101339 -2.8179928994013794 -2.976310027357238 -2.8310807547943946 -3.0317612041539599 -2.9966421255160358 -2.8654076737637939 -3.0317612041539599 -3.0317612041539599 -2.9637887938870104 -2.9777318524033078 -2.9615230468781122 -3.0317612041539599 -3.0317612041539599 -2.9966421255160358 -3.0317612041539599 -3.0317612041539599 -2.9615230468781122 -3.0317612041539599 -3.0317612041539599 -3.0317612041539599 -3.0317612041539599
leaf_weight=1.4237275719642628 1.4237275719642641 5.054232880473136 1.4237275719642637 2.491523250937461 1.6372867077589042 2.7050823867321014 1.494913950562476 2.6338960081338882 1.4237275719642593 2.7050823867321014 4.4847418516874287 2.6338960081338874 2.2067777365446091 2.7762687653303137 1.4237275719642628 2.20677773654461 2.1355913579463963 1.4237275719642637 16.515239834785461 1.9932186007499693 1.4237275719642637 4.1999963372945919 4.1288099586963636 2.064404979348184 1.4949139505624769
leaf_count=20 20 71 20 35 23 38 21 37 20 38 63 37 31 39 20 31 30 20 232 28 20 59 58 29 21
internal_value=-2.99668 -2.96873 -2.93598 -3.00458 -2.95651 -2.91662 -3.00739 -2.96873 -3.01153 -3.01456 -2.99462 -2.94748 -3.0111 -3.02309 -3.0212 -3.00422 -3.02705 -3.01944 -3.02847 -3.02143 -3.00367 -3.03176 -3.03176 -3.03176 -3.03176
internal_weight=75.5287 16.6576 9.3966 58.8711 7.97287 4.34237 57.4474 5.55254 51.8949 49.4033 14.8068 5.33898 7.26101 34.5966 9.46779 3.63051 31.8203 4.05762 30.3966 9.68135 3.55932 20.7152 6.12203 8.04406 3.55932
internal_count=1061 234 132 827 112 61 807 78 729 694 208 75 102 486 133 51 447 57 427 136 50 291 86 113 50
is_linear=0
shrinkage=1


Tree=2
num_leaves=31
num_cat=0
split_feature=6 2 31 11 33 21 15 35 25 27 35 27 27 4 5 9 4 35 33 11 3 24 4 2 29 14 32 20 14 1
split_gain=15.507 10.9168 10.895 8.09011 9.39787 7.17838 7.63817 9.91858 6.38201 8.70349 8.60219 8.83088 6.91654 6.59638 5.89934 5.2885 4.95215 5.88427 4.38977 8.86491 5.10183 4.77091 4.4256 4.29752 5.24619 3.88998 3.57073 3.40085 3.38084 3.27878
threshold=-0.36052694937190771 0.027746621279016195 0.0060865692666182683 -0.34223117944063575 1.5000000000000002 46.637720290185932 0.012822844100944758 16.500000000000004 0.70593049535235364 1.2767563617813016 2.5000000000000004 0.47491933864168673 0.67303934573649682 -0.10622917088154486 -0.26688322738716702 -0.10759020526363927 0.0076673743035679193 7.5000000000000009 2.5000000000000004 -0.14428772994484834 -0.020474064102095537 0.1339183739782194 -0.058713604677914567 0.095759891700995955 56.434551950763776 -0.0030342370836002838 -5.4978424558653866e-05 -0.13536939509243209 -0.00057650753869220377 0.060775545424083442
decision_type=2 2 2 2 2 2 2 2 2 2 2 2 2 2 2 2 2 2 2 2 2 2 2 2 2 2 2 2 2 2
left_child=1 15 3 4 -2 16 -7 25 10 12 -5 28 -10 14 -13 -1 17 -4 21 -20 -21 -15 -23 24 -9 -8 -26 -16 -12 -27
right_child=2 -3 5 8 -6 6 7 23 9 -11 11 13 -14 18 27 -17 -18 -19 19 20 -22 22 -24 -25 26 29 -28 -29 -30 -31
leaf_value=-0.68721681679262203 -0.76670043710406077 -0.77452147983493458 -0.75929912833012114 -0.80435057304105806 -0.71112166500658858 -0.73072364054204109 -0.76023526224619253 -0.72457509121072783 -0.7644478648685139 -0.77646158345809713 -0.70467774940108452 -0.78092382179137088 -0.71440858163600895 -0.81215949012428712 -0.71029735989576215 -0.73323364960450765 -0.75415039179172838 -0.80343115580205937 -0.73285334520110357 -0.75988755536308028 -0.80674105786245476 -0.80048902063726346 -0.7584227476427351 -0.77901143393425354 -0.7892108358388793 -0.81235350048660337 -0.74385291871494275 -0.75415039179172838 -0.74857259387513608 -0.77452147983493458
leaf_weight=13.072662353515623 11.952148437499998 8.5906066894531232 9.7111206054687482 11.952148437499998 20.916259765625 14.940185546874998 8.2171020507812482 16.060699462890625 9.7111206054687482 13.446166992187498 8.5906066894531268 7.4700927734375027 23.904296875 11.205139160156248 10.831634521484379 11.952148437500002 9.7111206054687482 33.988922119140625 16.4342041015625 13.072662353515623 10.458129882812502 9.7111206054687482 17.554718017578129 13.072662353515623 7.8435974121093741 17.181213378906254 9.7111206054687518 7.4700927734374973 8.9641113281249982 8.5906066894531232
leaf_count=35 32 23 26 32 56 40 22 43 26 36 23 20 64 30 29 32 26 91 44 35 28 26 47 35 21 46 26 20 24 23
internal_value=-0.758377 -0.72589 -0.761388 -0.75415 -0.731332 -0.771764 -0.763563 -0.769644 -0.758299 -0.742464 -0.763873 -0.759899 -0.728864 -0.765426 -0.74348 -0.709195 -0.786447 -0.793624 -0.772637 -0.761031 -0.780711 -0.784693 -0.773405 -0.754686 -0.745226 -0.790192 -0.764119 -0.728197 -0.727092 -0.799743
internal_weight=396.288 33.6154 362.673 213.645 32.8684 149.028 95.6172 80.677 180.776 47.0616 133.715 121.763 33.6154 104.208 25.7718 25.0248 53.4112 43.7 78.436 39.965 23.5308 38.471 27.2658 46.6881 33.6154 33.9889 17.5547 18.3017 17.5547 25.7718
internal_count=1061 90 971 572 88 399 256 216 484 126 358 326 90 279 69 67 143 117 210 107 63 103 73 125 90 91 47 49 47 69
is_linear=0
shrinkage=1


Tree=3
num_leaves=31
num_cat=0
split_feature=31 6 34 34 33 34 11 33 6 11 30 5 35 12 0 17 3 17 5 32 33 19 4 7 2 30 25 23 34 21
split_gain=12.9685 15.8316 10.353 16.0121 9.46559 9.62737 7.63634 5.76162 5.60679 6.44106 5.4837 8.19653 5.86722 5.57116 8.456 5.44432 5.42129 6.40313 5.36202 5.34367 5.50442 5.3774 5.04802 6.65447 6.11607 4.20037 3.7669 5.58527 3.71882 3.59961
threshold=0.0060865692666182683 -0.21497589399163883 5.5000000000000009 2.5000000000000004 1.0000000180025095e-35 19.500000000000004 -0.28378229852445691 5.5000000000000009 0.57353009979898728 -0.36053974552701223 0.068490725421711016 0.020864065597702878 12.500000000000002 0.0063959426762828283 -0.0074705102089156613 1.4787135521856991 -0.048078901741749974 0.0052463472061471403 -0.10917215855963937 -0.00063688824059515974 4.5000000000000009 0.0063658598867942905 -0.10508537648834525 -0.28921224276921226 -0.035491909513749441 0.040653301252968337 0.51108109836079929 0.055288936345660337 25.500000000000004 67.824962299855073
decision_type=2 2 2 2 2 2 2 2 2 2 2 2 2 2 2 2 2 2 2 2 2 2 2 2 2 2 2 2 2 2
left_child=1 6 3 -2 5 -4 18 8 9 -6 11 12 28 25 15 -15 -12 -18 -1 21 29 -11 -14 -24 -25 -13 -9 -28 -3 -21
right_child=2 10 4 -5 7 -7 -8 26 -10 19 16 13 22 14 -16 -17 17 -19 -20 20 -22 -23 23 24 -26 -27 27 -29 -30 -31
leaf_value=-0.050126319139456477 0.031699859368115632 0.055246354723708452 0.021351692000562552 -0.049908111011623069 -0.01348185496845688 -0.056221724606936488 0.0042105004877766592 0.066872558337550916 -0.018757482427196159 0.023870934611944818 -0.0024517450302229699 -0.053445967843825576 -0.038756919420444645 0.0031427011324770093 0.033501091998200554 -0.051940918925931716 -0.0052289204962254962 0.045791678827313491 -0.0033555823898205502 0.045726518001412794 -0.004718505744423721 -0.03083293052789516 -0.023590017836077483 -0.015948136648325371 0.036438464243058556 -0.015959749335362275 0.055936245487233062 -0.00099525847381964926 0.0077439480118195771 0.0078891275271400566
leaf_weight=33.911237180233002 9.7459684312343597 8.2432024180889147 7.4955176115036037 15.68273264169693 12.721692532300947 8.5756769180297834 11.611028403043745 9.3724448084831256 10.861374378204344 11.234599173069002 29.935438722372055 15.322481215000154 8.2180649638175947 8.9753601253032738 9.7288231551647169 8.9677966535091382 9.3442139923572558 17.9868443608284 7.4796419441699973 38.972126960754395 8.2396850287914258 7.4856854379177085 13.826740443706507 8.2343598008155805 17.228758126497276 14.586850494146345 8.6208561360836047 8.6112616956233961 8.2374553084373456 7.4944559335708609
leaf_count=91 26 22 20 42 34 23 31 25 29 30 80 41 22 24 26 24 25 48 20 104 22 20 37 22 46 39 23 23 22 20
internal_value=4.8579e-06 -0.00762198 0.0107138 -0.0186305 0.0160557 -0.0200419 -0.0316226 0.0207488 0.0150958 0.0193639 -0.000508913 -0.00651811 0.00579766 -0.0202043 -0.00403522 -0.0243875 0.0122479 0.0283482 -0.0416745 0.0250547 0.0329451 0.00199648 -0.00311976 0.00433429 0.0194975 -0.0351639 0.0413616 0.0274863 0.0315034 0.0396238
internal_weight=396.952 231.838 165.114 25.4287 139.685 16.0712 53.0019 123.614 97.0096 86.1482 178.836 121.57 63.9886 57.5813 27.672 17.9432 57.2665 27.3311 41.3909 73.4266 54.7063 18.7203 47.5079 39.2899 25.4631 29.9093 26.6046 17.2321 16.4807 46.4666
internal_count=1061 620 441 68 373 43 142 330 259 230 478 325 171 154 74 48 153 73 111 196 146 50 127 105 68 80 71 46 44 124
is_linear=0
shrinkage=0.05


Tree=4
num_leaves=31
num_cat=0
split_feature=26 32 7 32 17 25 2 2 5 12 29 2 13 13 15 24 2 24 23 5 24 8 3 8 25 3 3 2 21 31
split_gain=6.10404 7.82229 6.20515 5.86046 5.19095 5.92376 4.5376 3.87368 3.43192 11.1153 11.0163 9.58735 5.79141 9.88712 4.39392 3.92905 1.85886 0.935836 1.62304 0.491739 0.458964 9.78623e-06 1.36024e-05 6.24424e-06 4.0649e-06 1.89065e-06 2.23562e-06 1.66866e-06 1.37477e-06 1.12248e-06
threshold=13620.625000000002 1.0000000180025095e-35 -0.53848961800134731 0.00013480562760326192 -58.801171080102442 0.30501608109247569 -0.047906278653204078 -0.040709365668105034 -0.0079403148885611296 0.003676455894625421 56.434551950763776 0.015846225214091823 -0.0065999693747484179 -0.0076961603034321263 0.13668692748863256 0.11029931916305087 -0.015442936105426739 0.39928340958774605 0.058043303715161761 0.14878744554412518 0.91914786988739139 -0.35083573830694431 0.049925280727074119 -0.13082861500710916 0.50928616368262236 -0.061311327580546464 0.0676674271142335 -0.054353670402738398 31.421239894648121 0.026716930830931369
decision_type=2 2 2 2 2 2 2 2 2 2 2 2 2 2 2 2 2 2 2 2 2 2 2 2 2 2 2 2 2 2
left_child=2 4 -1 -3 5 -2 27 -8 12 10 11 -10 13 20 16 -12 -11 21 -19 23 -9 22 -18 -6 25 -14 -27 28 -4 -23
right_child=1 3 6 -5 19 -7 7 8 9 14 15 -13 24 -15 -16 -17 17 18 -20 -21 -22 29 -24 -25 -26 26 -28 -29 -30 -31
leaf_value=0.092006827969210586 0.12738984459098554 0.17373158182070311 -0.035067565396491737 0.040947738400839789 -0.035072430493326132 -0.0068525390223787902 0.067301777554787112 -0.035094580252345971 0.19417975129295503 0.029675490726891775 0.065444894940751966 0.039037131491891391 -0.035089778400002956 0.11224922042612324 0.068521661400502476 -0.035104736307263122 -0.03523992174995428 0.035883395407290013 -0.035051116118758392 -0.00056366637835885401 0.00016485240416118664 -0.035016612865967571 -0.035058137955339165 -0.035205236086228733 -0.035112537203596521 -0.035027453878703346 -0.035093017556777788 -0.035091869781347568 -0.035027544594379977 -0.035059081364593285
leaf_weight=1.571126990020274 1.5370269864797586 1.4365129098296159 2.887999676167964 1.9712419807910917 1.9060801714658726 1.7659806758165357 1.9525125324726094 2.6413557231426239 1.9616322815418334 1.5422987788915605 1.4904168397188184 2.0225366577506065 1.9234114512801159 2.0355241075158146 1.4472506716847409 2.7907562479376793 1.6793227493762914 1.4093206599354755 1.884978227317333 1.4469016194343565 1.4186121150851247 4.2536238357424807 2.6576536670327187 1.652363292872906 2.5823904499411574 9.7999612465500743 1.4990938678383816 1.6364663019776333 8.3501924499869329 2.4532821923494339
leaf_count=20 20 20 41 27 27 24 27 37 26 21 20 28 27 28 20 39 22 20 27 20 20 62 38 22 36 142 21 23 121 35
internal_value=-4.67592e-05 0.0331294 -0.00613042 0.0969217 0.00696431 0.055616 -0.0086045 -0.00172003 -0.00455761 0.00787568 0.0555857 0.115423 -0.0190873 0.0223153 -0.014882 -0.00010011 -0.0224829 -0.0280934 -0.00470491 -0.0251408 -0.0227744 -0.03507 -0.0351285 -0.0351341 -0.0350552 -0.035044 -0.0350362 -0.0350447 -0.0350378 -0.0350321
internal_weight=75.6078 11.7161 63.8917 3.40775 8.30835 3.30301 62.3206 49.4459 47.4934 25.5931 8.26534 3.98417 21.9003 6.09549 17.3277 4.28117 15.8805 14.3382 3.2943 5.00535 4.05997 11.0439 4.33698 3.55844 15.8049 13.2225 11.2991 12.8747 11.2382 6.70691
internal_count=1061 160 901 47 113 44 881 696 669 358 113 54 311 85 245 59 225 204 47 69 57 157 60 49 226 190 163 185 162 97
is_linear=0
shrinkage=0.05


Tree=5
num_leaves=31
num_cat=0
split_feature=10 0 33 34 34 6 33 24 11 5 33 34 3 11 0 20 24 28 17 0 23 34 3 0 17 27 16 13 24 15
split_gain=14.1806 9.61124 11.1438 17.3422 11.6419 7.26355 6.46717 12.0003 9.29842 6.39844 7.2919 6.17359 5.67887 5.26403 5.08432 6.21266 5.65748 4.91635 4.64847 4.50413 4.28913 4.2239 7.75527 3.77702 4.74991 3.85419 3.59238 3.28092 3.16684 5.19246
threshold=-0.43952903244670266 0.014056998147296997 1.0000000180025095e-35 5.5000000000000009 16.500000000000004 -0.33681581613321154 2.5000000000000004 0.18770767041692663 -0.14897696364831853 0.034540348302866022 5.5000000000000009 25.500000000000004 0.013525450368615367 -0.14521282801998156 -0.0074705102089156613 -0.00083940529734444875 0.29387326592158114 -0.4331789538599497 -5.3359265000512286 -0.026667917081669282 0.057986929582403944 20.500000000000004 -0.039642483929936474 0.056261143887977746 0.062046873613477611 0.63969245045348189 -0.060087541785185987 -0.0037665850926660803 0.20714763962238505 -0.038548295354405397
decision_type=2 2 2 2 2 2 2 2 2 2 2 2 2 2 2 2 2 2 2 2 2 2 2 2 2 2 2 2 2 2
left_child=-1 5 4 -4 -3 12 7 13 18 21 -11 14 -2 26 15 -9 -16 20 27 -17 -5 22 -10 25 -25 -19 -7 -8 -20 -30
right_child=1 2 3 17 -6 6 8 11 9 10 -12 -13 -14 -15 16 19 -18 23 28 -21 -22 -23 -24 24 -26 -27 -28 -29 29 -31
leaf_value=0.055395719339953534 0.050706642757395927 -0.014344308236175522 0.031595483272123769 -0.02113090300632792 0.063286916583985803 -0.013903915041421758 0.019959689347240399 -0.01270186405363174 0.030698997196737368 0.018951682873980812 -0.035790944284881054 0.043143957879716963 -0.0033689768069557202 -0.003759300859754441 -0.050887870144805496 -0.0025987333402900025 0.0073007410636270519 0.0051729086420440502 0.042022671179928445 0.046321213793864884 -0.054712160646699405 -0.054367927953511842 -0.031716348803648341 0.031816278552570465 -0.023940600590420608 -0.035481519605306454 -0.053382611851950729 -0.024325729470870729 0.046471877402034664 -0.0018462986045627225
leaf_weight=11.226683557033537 13.855573385953905 10.438338398933412 14.203561812639235 16.009483844041824 8.9874912202358228 8.2095547020435315 8.9725865125656146 17.152221947908401 7.4724741280078932 32.882471978664398 7.4639737010002127 9.3522681891918165 7.4740992784500113 13.778262615203856 8.9434107542037982 7.4678567647933951 7.8382306098937979 7.4504667520523062 25.442694425582886 12.718923538923265 23.416287302970886 7.4363748729228965 14.901786953210831 7.4554483592510206 7.8326188623905182 26.801622092723846 19.33034843206406 7.8337511122226706 8.9889166057109851 14.577117353677748
leaf_count=30 37 28 38 43 24 22 24 46 20 88 20 25 20 37 24 20 21 20 68 34 63 20 40 20 21 72 52 21 24 39
internal_value=4.05905e-06 -0.00161248 -0.0131682 -0.0197095 0.0215723 0.00379275 0.00131525 -0.00801933 0.00850923 -0.00415493 0.00882446 0.00563219 0.0317581 -0.0289908 -0.000849998 0.00942403 -0.0237096 -0.0279004 0.0220089 0.0282239 -0.0410759 -0.0217215 -0.0108711 -0.0174149 0.00325005 -0.0266384 -0.0416141 -0.00068258 0.0297904 0.016584
internal_weight=395.915 384.688 122.595 103.169 19.4258 262.093 240.763 104.791 135.972 70.1571 40.3464 63.4729 21.3297 41.3182 54.1206 37.339 16.7816 88.9659 65.8151 20.1868 39.4258 29.8106 22.3743 49.5402 15.2881 34.2521 27.5399 16.8063 49.0087 23.566
internal_count=1061 1031 329 277 52 702 645 281 364 188 108 170 57 111 145 100 45 239 176 54 106 80 60 133 41 92 74 45 131 63
is_linear=0
shrinkage=0.05


end of trees

feature_importances:
returns_3=15
day_of_month=13
returns_5=12
day_of_week=12
price_to_sma_200=10
bollinger_width_20=8
returns_20=7
ema_12_26_spread=7
volume_ratio_20=6
vwap_distance=6
returns_1=5
returns_10=5
returns_50=5
atr_pct_14=5
close_open_range=5
days_to_month_end=5
returns_100=4
sma_20_slope=4
price_to_ema_12=4
bollinger_percent_b_20=4
gap_open=4
returns_2=3
returns_200=3
price_to_sma_20=3
sma_50_slope=3
rsi_14=3
price_to_sma_50=2
sma_200_slope=2
macd_signal=2
macd_hist=2
adx_14=2
high_low_range=2
price_to_ema_26=1
volume_20=1

parameters:
[boosting: gbdt]
[objective: multiclass]
[metric: multi_logloss]
[tree_learner: serial]
[device_type: cpu]
[data_sample_strategy: bagging]
[data: ]
[valid: ]
[num_iterations: 300]
[learning_rate: 0.05]
[num_leaves: 31]
[num_threads: 0]
[seed: 0]
[deterministic: 0]
[force_col_wise: 0]
[force_row_wise: 0]
[histogram_pool_size: -1]
[max_depth: -1]
[min_data_in_leaf: 20]
[min_sum_hessian_in_leaf: 0.001]
[bagging_fraction: 1]
[pos_bagging_fraction: 1]
[neg_bagging_fraction: 1]
[bagging_freq: 0]
[bagging_seed: 3]
[bagging_by_query: 0]
[feature_fraction: 0.8]
[feature_fraction_bynode: 1]
[feature_fraction_seed: 2]
[extra_trees: 0]
[extra_seed: 6]
[early_stopping_round: 0]
[early_stopping_min_delta: 0]
[first_metric_only: 0]
[max_delta_step: 0]
[lambda_l1: 0]
[lambda_l2: 0]
[linear_lambda: 0]
[min_gain_to_split: 0]
[drop_rate: 0.1]
[max_drop: 50]
[skip_drop: 0.5]
[xgboost_dart_mode: 0]
[uniform_drop: 0]
[drop_seed: 4]
[top_rate: 0.2]
[other_rate: 0.1]
[min_data_per_group: 100]
[max_cat_threshold: 32]
[cat_l2: 10]
[cat_smooth: 10]
[max_cat_to_onehot: 4]
[top_k: 20]
[monotone_constraints: ]
[monotone_constraints_method: basic]
[monotone_penalty: 0]
[feature_contri: ]
[forcedsplits_filename: ]
[refit_decay_rate: 0.9]
[cegb_tradeoff: 1]
[cegb_penalty_split: 0]
[cegb_penalty_feature_lazy: ]
[cegb_penalty_feature_coupled: ]
[path_smooth: 0]
[interaction_constraints: ]
[verbosity: -1]
[saved_feature_importance_type: 0]
[use_quantized_grad: 0]
[num_grad_quant_bins: 4]
[quant_train_renew_leaf: 0]
[stochastic_rounding: 1]
[linear_tree: 0]
[max_bin: 255]
[max_bin_by_feature: ]
[min_data_in_bin: 3]
[bin_construct_sample_cnt: 200000]
[data_random_seed: 1]
[is_enable_sparse: 1]
[enable_bundle: 1]
[use_missing: 1]
[zero_as_missing: 0]
[feature_pre_filter: 1]
[pre_partition: 0]
[two_round: 0]
[header: 0]
[label_column: ]
[weight_column: ]
[group_column: ]
[ignore_column: ]
[categorical_feature: ]
[forcedbins_filename: ]
[precise_float_parser: 0]
[parser_config_file: ]
[objective_seed: 5]
[num_class: 3]
[is_unbalance: 0]
[scale_pos_weight: 1]
[sigmoid: 1]
[boost_from_average: 1]
[reg_sqrt: 0]
[alpha: 0.9]
[fair_c: 1]
[poisson_max_delta_step: 0.7]
[tweedie_variance_power: 1.5]
[lambdarank_truncation_level: 30]
[lambdarank_norm: 1]
[label_gain: ]
[lambdarank_position_bias_regularization: 0]
[eval_at: ]
[multi_error_top_k: 1]
[auc_mu_weights: ]
[num_machines: 1]
[local_listen_port: 12400]
[time_out: 120]
[machine_list_filename: ]
[machines: ]
[gpu_platform_id: -1]
[gpu_device_id: -1]
[gpu_use_dp: 0]
[num_gpu: 1]

end of parameters

pandas_categorical:null
