tree
version=v4
num_class=3
num_tree_per_iteration=3
label_index=0
max_feature_idx=49
objective=multiclass num_class:3
feature_names=returns_1 returns_2 returns_3 returns_5 returns_10 returns_20 returns_50 returns_100 returns_200 price_to_sma_20 price_to_sma_50 price_to_sma_200 sma_20_slope sma_50_slope sma_200_slope price_to_ema_12 price_to_ema_26 ema_12_26_spread macd macd_signal macd_hist rsi_14 atr_14 atr_pct_14 bollinger_width_20 bollinger_percent_b_20 volume_20 volume_ratio_20 vwap_distance adx_14 high_low_range close_open_range gap_open day_of_week day_of_month days_to_month_end news_sentiment_1d news_sentiment_7d news_article_count_7d earnings_proximity_days congress_buy_score congress_cluster_30d days_since_last_congress insider_buy_score insider_cluster_60d insider_value_60d ceo_bought_90d analyst_upgrade_score consensus_rating watchlist_research_score
feature_infos=[-0.16728624535315986:0.33981866263694749] [-0.29430296665791544:0.3982495907316459] [-0.25362111682866401:0.44790771701009874] [-0.40010712372790574:0.5423180592991913] [-0.47246762317311475:0.88834328327798051] [-0.56087331935364493:0.8789902579498805] [-0.66413318856315595:1.7402332361516033] [-0.76996402877697845:4.6329617834394901] [-0.8397302158273382:6.154451847365233] [-0.44514214516964007:0.56679168473469632] [-0.54683971275572019:0.51658537769042268] [-0.56299819444133259:1.1550557137622193] [-0.04115837983527227:0.037569988212511451] [-0.029520843726627617:0.010848567754130064] [-0.014654859283721294:0.0090759780290937207] [-0.35106548967523077:0.34424224473488496] [-0.45803246057157565:0.43078707598793375] [-1461.4437366763104:427.09525280727576] [-1461.4437366763104:427.09525280727576] [-1274.1336681598152:381.06432682260726] [-294.15258413035826:476.19844269077635] [18.467845904709023:77.354264378337945] [0.024690289719608211:1518.286675264548] [0.041959771385145492:0.42020519754513791] [0.12537641832219665:0.94737713620445285] [-0.24799144933852069:1.2218821683932681] [1407.95:52701.800000000003] [0.28714554957289978:2.7429338651239474] [-0.4854636679955398:1.5923130412408939] [34.730555020364612:99.477684528867471] [0.014407803481140151:0.41206741573033701] [-0.17039085454680122:0.33477606322920594] [-0.0057803468208092179:0.0095432300163132283] [0:6] [1:31] [1:31] none none none none none none none none none none none none none none
tree_sizes=3046 1579 3041 2989 3271 2996 3100 3177 2994

Tree=0
num_leaves=28
num_cat=0
split_feature=31 34 5 16 34 10 27 9 33 27 32 1 33 11 32 31 26 15 7 7 27 34 32 3 2 9 22
split_gain=12.9094 11.2507 10.6292 9.45136 9.23493 6.70257 5.90488 6.60437 5.89699 5.7462 5.53227 5.38569 5.73493 5.35581 5.17089 4.83903 4.59268 3.79151 3.78748 3.78469 3.78113 3.35849 2.54105 1.90825 1.8184 1.66687 1.16897
threshold=-0.017987596077911214 2.5000000000000004 -0.10440223403237774 -0.098902108663762714 10.500000000000002 -0.09269055079214393 0.80368946446258971 0.10769684003096507 2.5000000000000004 1.1256129082218196 -1.4291046571342581e-05 0.014999908176864606 3.5000000000000004 -0.3155386280722291 -0.00029982980977316811 -0.069058562406519849 8473.1750000000011 0.028811558401144053 -0.095178190603481608 -0.47292046046972819 0.66254305727337648 17.500000000000004 4.6500905751657357e-05 0.04955019669993465 -0.095477195435966958 -0.02150903909659474 32.0545660778659
decision_type=2 2 2 2 2 2 2 2 2 2 2 2 2 2 2 2 2 2 2 2 2 2 2 2 2 2 2
left_child=3 -2 11 13 -5 14 7 22 10 17 -6 19 23 24 -4 -15 -17 -8 -11 -3 -21 26 -7 -13 -1 -16 -22
right_child=1 2 5 4 8 6 9 -9 -10 18 -12 12 -14 15 25 16 -18 -19 -20 20 21 -23 -24 -25 -26 -27 -28
leaf_value=-0.71623220159005552 -0.71713321247763706 -0.67683345277853668 -0.73356765106712385 -0.64699298030590691 -0.64652672292352209 -0.61621999306850761 -0.67622731818143633 -0.69241977098968699 -0.71993635746122397 -0.64046537695251915 -0.70511973397655026 -0.71146971546998183 -0.64854717158052311 -0.67776596754330631 -0.66955983761333315 -0.68579370334436707 -0.73202360293556312 -0.72128332323255795 -0.6895622793176428 -0.6162199930685075 -0.6495573959090235 -0.67139914259763744 -0.65511362971577625 -0.67622731818143633 -0.74956960443057152 -0.70289724045384916 -0.62228133903951044
leaf_weight=7.4990844726562527 13.873306274414061 8.2489929199218732 9.3738555908203143 14.623214721679686 8.2489929199218768 7.8740386962890687 7.4990844726562527 7.8740386962890616 13.498352050781248 8.2489929199218732 7.8740386962890652 7.8740386962890643 12.373489379882811 14.623214721679686 7.49908447265625 8.6239471435546893 14.248260498046873 12.373489379882811 7.4990844726562491 11.998535156249998 7.4990844726562527 10.873672485351561 8.9989013671874982 7.49908447265625 8.9989013671874982 7.4990844726562482 8.2489929199218732
leaf_count=20 37 22 25 39 22 21 20 21 36 22 21 21 33 39 20 23 38 33 20 32 20 29 24 20 24 20 22
internal_value=-0.682158 -0.673947 -0.670187 -0.696637 -0.679505 -0.682305 -0.67337 -0.654609 -0.695555 -0.686404 -0.675142 -0.656426 -0.673885 -0.710676 -0.704436 -0.70023 -0.714593 -0.704281 -0.663845 -0.64609 -0.639524 -0.650027 -0.636963 -0.694278 -0.734416 -0.686229 -0.63527
internal_weight=271.467 173.229 159.356 98.238 44.2446 84.7397 60.3676 24.747 29.6214 35.6207 16.123 74.6159 27.7466 53.9934 24.372 37.4954 22.8722 19.8726 15.7481 46.8693 38.6203 26.6217 16.8729 15.3731 16.498 14.9982 15.7481
internal_count=724 462 425 262 118 226 161 66 79 95 43 199 74 144 65 100 61 53 42 125 103 71 45 41 44 40 42
is_linear=0
shrinkage=1


Tree=1
num_leaves=14
num_cat=0
split_feature=34 11 19 3 6 13 13 5 26 14 4 26 2
split_gain=7.83716 5.98012 8.39264 5.3376 2.86498 2.63042 10.2987 2.60072 2.16662 0.740352 0.707 0.386387 1.77636e-15
threshold=29.500000000000004 -0.13427884138647309 -0.010218310142227785 0.10137131944901885 -0.52568685474921739 -0.0091811904135028124 -0.0083917160958458716 -0.23485509436259119 2187.1250000000005 -0.0045656755906579435 -0.263209656396938 4752.6500000000005 -0.074682036404011623
decision_type=2 2 2 2 2 2 2 2 2 2 2 2 2
left_child=1 2 3 5 -3 -1 -7 -8 -9 -10 -6 -12 -13
right_child=-2 4 -4 -5 10 6 7 8 9 -11 11 12 -14
leaf_value=-3.2522197841209231 -3.1167653891695313 -3.1655289713520323 -3.0916812419563104 -3.1237889503892329 -3.2088743777364779 -3.0855066826422872 -3.1709471471500881 -3.1768364686697135 -3.2088743777364779 -3.2522197841209231 -3.2299913705904384 -3.2522197841209231 -3.2522197841209231
leaf_weight=4.7294514402747216 1.8456395864486683 1.1535247415304208 1.5572584010660673 1.5572584010660637 1.1535247415304208 1.4995821639895481 1.8456395864486737 1.3265534527599685 1.1535247415304208 6.748119737952945 2.2493732459843185 3.056840565055615 11.881304837763301
leaf_count=82 32 20 27 27 20 26 32 23 20 117 39 53 206
internal_value=-3.2175 -3.22215 -3.20324 -3.21245 -3.24196 -3.22043 -3.20848 -3.22513 -3.23597 -3.24589 -3.24677 -3.24931 -3.25222
internal_weight=41.7576 39.912 20.4174 18.8601 19.4946 17.3029 12.5734 11.0738 9.2282 7.90164 18.341 17.1875 14.9381
internal_count=724 692 354 327 338 300 218 192 160 137 318 298 259
is_linear=0
shrinkage=1


Tree=2
num_leaves=28
num_cat=0
split_feature=35 0 20 4 30 35 33 13 2 24 27 0 26 1 1 13 17 21 5 21 27 4 28 4 35 6 33
split_gain=16.81 19.8591 11.8256 8.90624 5.66108 7.05657 5.61426 5.51731 5.151 4.94417 4.74812 7.53141 4.19876 3.84389 5.83654 3.80974 3.79548 3.5647 3.38166 11.3414 3.90839 2.86462 2.74598 2.02905 3.68448 2.04312 1.92513
threshold=28.500000000000004 -0.017304556952437804 3.8126335807582334 -0.058048552954239337 0.052082894997027833 23.500000000000004 2.5000000000000004 -0.0090837112334466105 -0.096510559006883614 0.50344210766377151 1.3069666521861847 -0.075621646897963274 9750.9250000000011 0.00096672850128699448 0.034804974379704742 -0.0040515626211952921 -21.752565967405328 35.267208861560597 -0.11011249236267515 42.612823958385853 0.85048445574520326 -0.050296404069490076 0.051685466534259712 -0.11497891814393045 14.500000000000002 -0.35499744102194519 2.5000000000000004
decision_type=2 2 2 2 2 2 2 2 2 2 2 2 2 2 2 2 2 2 2 2 2 2 2 2 2 2 2
left_child=1 3 8 10 -5 6 -6 -4 -3 18 11 -1 -9 -14 -15 -2 -13 -18 23 -20 21 -21 -11 24 -10 -25 -19
right_child=15 2 7 4 5 -7 -8 12 9 22 -12 16 13 14 -16 -17 17 26 19 20 -22 -23 -24 25 -26 -27 -28
leaf_value=-0.81316233010780337 -0.76517658140193512 -0.84519445643976221 -0.7422701768310207 -0.82742224599681136 -0.79168986988883372 -0.82422104038907484 -0.74479112624711319 -0.75815979739305817 -0.79419593951651191 -0.76243777215976061 -0.73660909744049718 -0.73458728337245316 -0.82966308992222682 -0.75379451701887212 -0.80908806842522962 -0.7207580751470315 -0.7422701768310207 -0.80277296281724031 -0.75459481842080622 -0.80949549459348702 -0.7968652833775085 -0.84983068525096672 -0.80093954506008214 -0.81621802636973362 -0.83813932564010307 -0.84983068525096672 -0.76799116797492084
leaf_weight=8.1814411878585798 10.040859639644625 10.784627020359038 7.4376738071441642 8.9252085685729963 13.759696543216707 7.8095574975013724 11.900278091430662 8.1814411878585798 10.784627020359041 7.4376738071441677 14.131580233573912 10.412743330001826 7.4376738071441677 7.809557497501376 12.272161781787871 9.2970922589302045 7.4376738071441713 7.4376738071441642 8.9252085685729963 7.4376738071441642 12.272161781787871 10.784627020359045 12.272161781787871 7.4376738071441677 8.553324878215788 11.528394401073454 8.553324878215788
leaf_count=22 27 29 20 24 37 21 32 22 29 20 38 28 20 21 33 25 20 20 24 20 33 29 33 20 23 31 23
internal_value=-0.788734 -0.792209 -0.803582 -0.774741 -0.79204 -0.782605 -0.76994 -0.781446 -0.812406 -0.808777 -0.761681 -0.770112 -0.789608 -0.798957 -0.787585 -0.743822 -0.759704 -0.770868 -0.814449 -0.804168 -0.818677 -0.833367 -0.786411 -0.825029 -0.813632 -0.836649 -0.784169
internal_weight=269.244 249.906 151.357 98.5492 42.3947 33.4695 25.66 43.1385 108.218 97.4335 56.1544 42.0229 35.7008 27.5194 20.0817 19.338 33.8414 23.4287 77.7237 39.4197 30.4945 18.2223 19.7098 38.304 19.338 18.9661 15.991
internal_count=724 672 407 265 114 90 69 116 291 262 151 113 96 74 54 52 91 63 209 106 82 49 53 103 52 51 43
is_linear=0
shrinkage=1


Tree=3
num_leaves=27
num_cat=0
split_feature=35 0 4 20 35 35 35 13 7 6 32 5 5 1 1 35 7 10 31 34 5 11 3 33 31 4
split_gain=13.1356 15.2487 8.86331 8.05352 5.31937 6.05071 16.1291 5.26366 5.21546 5.43823 5.42392 4.46129 5.31683 3.92628 4.9955 3.85639 3.50519 3.38373 3.02944 2.92592 2.86789 6.36678 2.23777 2.17053 1.89434 0.30315
threshold=28.500000000000004 -0.017304556952437804 -0.058048552954239337 4.7258354617212541 22.500000000000004 12.500000000000002 14.500000000000002 -0.007088447729274033 -0.34285347404092276 0.0713015562238863 -0.00036460041202833243 -0.075719344962919377 -0.18471428392728359 -0.055846978021709882 -0.097573387887289434 5.5000000000000009 -0.22472575342232479 -0.26581858577106482 0.0079577743661098498 12.500000000000002 0.0091568052260779451 -0.083811731461080022 -0.025184891906768009 1.5000000000000002 -0.031445095208700945 -0.046434998894906883
decision_type=2 2 2 2 2 2 2 2 2 2 2 2 2 2 2 2 2 2 2 2 2 2 2 2 2 2
left_child=1 2 13 4 5 15 -7 -5 -4 10 -10 12 -8 14 17 18 -2 -1 -3 -15 -9 -22 -6 -17 -21 -25
right_child=16 3 8 7 22 6 11 20 9 -11 -12 -13 -14 19 -16 23 -18 -19 -20 24 21 -23 -24 25 -26 -27
leaf_value=-0.0073121603604222526 -0.059954954690047961 0.035141883804115169 -0.022352215976245447 -0.032090620080235825 0.063238830067948698 -0.052826253559859961 0.0025163680379028624 0.03030202741669474 0.030810586480407989 0.051960909990948836 -0.0185626213497956 -0.011836065307898797 0.049720796872661982 -0.015938473220602736 0.013600342816541464 0.019062833598065442 -0.017510605281165003 -0.049807266506562878 -0.0030362658846423206 -0.065108843844088535 -0.040363948546317106 0.018737532414900383 0.030133072999285138 0.058040585881352746 -0.031939543535944269 0.044281085339682696
leaf_weight=9.3688085377216357 10.114962339401247 8.6049441099166888 12.36678510904312 13.116868555545805 7.8497813642025021 10.494534671306608 10.48236635327339 8.6153682768344897 10.111869424581529 7.8633115887641898 12.363763540983202 8.993156313896181 13.842815548181532 8.9938477873802203 11.241192638874052 7.4945380389690426 9.3703056871891004 9.3689517080783862 13.116150140762327 10.113918215036394 7.4976326227188137 11.61774682998657 14.595160782337187 8.6056443750858342 7.4940128922462454 7.4846890270709965
leaf_count=25 27 23 33 35 21 28 28 23 27 21 33 24 37 24 30 20 25 25 35 27 20 31 39 23 20 20
internal_value=6.55165e-06 0.00306836 -0.0121796 0.0130014 0.0199561 0.0144769 0.00122847 -0.00599329 0.00501592 0.0161717 0.00365057 0.0182545 0.0293792 -0.0251583 -0.0127511 0.0272888 -0.0395438 -0.0285599 0.0120882 -0.0391406 0.00635096 -0.00444386 0.0417113 0.0412881 -0.0509918 0.0516401
internal_weight=271.183 251.698 99.2865 152.411 111.564 89.1188 43.8129 40.8476 42.7057 30.3389 22.4756 33.3183 24.3252 56.5807 29.979 45.306 19.4853 18.7378 21.7211 26.6018 27.7307 19.1154 22.4449 23.5849 17.6079 16.0903
internal_count=724 672 265 407 298 238 117 109 114 81 60 89 65 151 80 121 52 50 58 71 74 51 60 63 47 43
is_linear=0
shrinkage=0.05


Tree=4
num_leaves=29
num_cat=0
split_feature=11 19 30 0 26 32 7 7 32 32 2 26 14 7 26 6 6 31 8 33 15 8 31 7 14 22 3 32
split_gain=5.37252 6.39046 5.41106 8.46307 3.03828 6.18211 2.33449 1.69646 2.78305 8.14016 3.45614 1.12024 1.73916 0.830442 2.28929 3.92972e-06 3.59121e-06 2.1482e-06 1.91793e-06 1.06557e-06 4.65942e-07 4.76214e-07 1.04626e-07 6.64838e-08 1.24658e-07 5.03766e-08 5.05701e-08 2.24005e-08
threshold=-0.13427884138647309 -0.010218310142227785 0.10663191731161327 -0.040028902766941106 2187.1250000000005 0.00038502643932477752 3.1036157974859906 -0.37592306378158719 -0.00025892714493228579 -3.2634874315430838e-05 -0.021686080189030957 4752.6500000000005 0.0031278401271132091 -0.29541857070813132 20890.500000000004 -0.50306583862027632 -0.41402396694903681 0.0044907860380263807 -0.45441724509267584 3.5000000000000004 -0.13153063399138851 0.70723603728082451 0.015662575476474511 1.8895947333881191 0.0049571760501768017 54.598095899883681 0.027442586316273099 -5.1131087208726571e-05
decision_type=2 2 2 2 2 2 2 2 2 2 2 2 2 2 2 2 2 2 2 2 2 2 2 2 2 2 2 2
left_child=1 2 4 -4 5 -1 11 16 19 -10 -11 12 -2 14 22 -15 -6 -18 -12 -9 -17 -22 -13 24 25 -23 -27 -25
right_child=6 -3 3 -5 7 -7 -8 8 9 10 18 13 -14 15 -16 20 17 -19 -20 -21 21 23 -24 27 -26 26 -28 -29
leaf_value=-0.010184130999146635 -0.034708175516734774 0.10865983694997645 -0.0026485965058476555 0.17414766385112898 -0.034682219680270306 0.13332267439284592 0.048048890242311883 -0.034747166566291655 0.14296475728400121 0.052078563003872758 -0.034782710615555504 -0.034687496695889906 0.052481055101070019 -0.034778741165442779 0.049581479157487757 -0.034713433542748875 -0.034810658326939616 -0.034732077251593593 -0.034704062053563835 -0.034688629685498656 -0.034710145094546382 -0.034681986083229741 -0.034667042282738494 -0.034663458907056688 -0.03469063810043458 -0.034676257631027017 -0.03466368911826833 -0.034673169963648456
leaf_weight=2.0324790738523109 1.1409911327064102 1.7413692772388447 1.5586184523999693 1.1965468712151039 1.2872865535318849 1.1897765472531316 1.2081374302506436 2.2758713476359902 1.1252488419413618 1.7279932908713864 1.1925211958587221 1.3494426384568265 1.146808076649904 1.1933064572513128 1.1865593604743478 1.1446392014622695 2.1874286755919523 1.4437472932040689 2.2148649767040913 1.1807830892503259 1.1395362205803277 1.5132883824408034 1.1648340187966821 1.1067674346268179 1.5785438381135461 1.8983926177024844 1.3836410343647001 1.2813221924006937
leaf_count=34 20 27 27 20 23 20 21 39 19 30 20 24 20 20 21 20 36 25 39 21 20 27 21 20 28 34 25 23
internal_value=-3.37428e-05 0.0166826 0.00891252 0.0741326 -0.00114976 0.0428039 -0.01926 -0.0108267 0.00128416 0.0211669 -0.00552102 -0.0237212 0.00899728 -0.0284171 -0.0076628 -0.0346925 -0.034754 -0.0347794 -0.0347316 -0.0347272 -0.0346832 -0.0346797 -0.034678 -0.0346758 -0.0346785 -0.0346744 -0.034671 -0.0346687
internal_weight=41.7907 22.3545 20.6132 2.75517 17.858 3.22226 19.4362 14.6357 9.71728 6.26063 5.13538 18.2281 2.2878 15.9403 3.70084 12.2394 4.91846 3.63118 3.40739 3.45665 11.0461 9.90149 2.51428 8.76196 6.37387 4.79532 3.28203 2.38809
internal_count=724 380 353 47 306 54 344 252 168 108 89 323 40 283 66 217 84 61 59 60 197 177 45 157 114 86 59 43
is_linear=0
shrinkage=0.05


Tree=5
num_leaves=27
num_cat=0
split_feature=35 0 20 16 34 33 13 11 27 0 0 13 5 21 17 6 13 5 11 10 27 25 27 27 30 7
split_gain=15.0346 17.5327 10.7219 8.24552 8.40787 8.89671 5.10585 5.00899 5.29317 5.4483 7.92063 4.92232 4.03343 6.38984 4.19728 3.65402 3.54432 3.39709 4.79205 2.30713 2.29719 1.70895 2.82315 2.52799 1.42113 1.34999
threshold=28.500000000000004 -0.017304556952437804 3.8126335807582334 -0.098902108663762714 10.500000000000002 2.5000000000000004 -0.007088447729274033 -0.29070575824819161 1.3277135602017365 -0.068863403636745049 -0.038248645139484914 -0.0043061530177670969 -0.10323911104265952 42.699818845109696 -0.025151396519009075 -0.48262405353991739 -0.0040515626211952921 0.0091568052260779451 -0.083811731461080022 -0.085786288595544616 0.83100463822576853 0.18941255493733425 0.77057291224004987 1.0090437307968854 0.07895243276718758 -0.38701488551467772
decision_type=2 2 2 2 2 2 2 2 2 2 2 2 2 2 2 2 2 2 2 2 2 2 2 2 2 2
left_child=1 3 12 7 -5 11 -4 25 9 -9 -11 -6 15 -14 19 -3 -2 -8 -19 -15 -16 24 -23 -24 -17 -1
right_child=16 2 6 4 5 -7 17 8 -10 10 -12 -13 13 14 20 21 -18 18 -20 -21 -22 22 23 -25 -26 -27
leaf_value=0.035821797947337371 0.021787546649772709 0.00071511235205984477 0.032135406663576893 -0.034728022548081938 0.015199842120407701 0.041791848698105941 -0.029086633931879054 -0.026979679395196621 0.051732283297384253 0.048264267439561109 -0.01773979248785543 -0.037934680492952157 0.026861691119287313 -0.020354489494601835 -0.023045937420950388 -0.055396136174221289 0.064523581153728818 0.036398393352817804 -0.013628807651314273 -0.059350619200429312 0.010862301560511647 -0.011128121159842581 -0.05952677535322326 -0.019969712032431457 -0.031192203268463694 0.063460842566911188
leaf_weight=10.092080324888231 10.079119473695757 8.1607567965984327 13.791730403900145 14.049050271511076 8.5434048175811785 13.827294528484343 9.632259279489519 8.9098592102527636 7.8463365733623496 10.823409110307695 7.8359263241291037 8.8986181318759936 8.9554973244667035 7.4265452027320862 9.6005053520202654 14.00107127428055 9.3543105721473676 8.185155004262926 11.529562324285505 7.7519747912883741 10.411950409412382 14.414196789264681 8.8676650524139422 7.4172714948654166 10.698823422193525 7.8579784333705893
leaf_count=27 27 22 37 38 23 37 26 24 21 29 21 24 24 20 26 38 25 22 31 21 28 39 24 20 29 21
internal_value=-1.36282e-06 -0.00330038 -0.0140203 0.0130858 -0.00259796 0.0118378 0.00704298 0.0264045 0.0154988 0.00518662 0.0205461 -0.0119085 -0.0224566 -0.0108467 -0.0204428 -0.0305205 0.0423586 -0.0047493 0.00714148 -0.0402706 -0.00540438 -0.0351218 -0.0272447 -0.0415098 -0.0449121 0.0479213
internal_weight=268.962 249.529 150.845 98.684 45.3184 31.2693 43.1387 53.3656 35.4155 27.5692 18.6593 17.442 107.706 44.1465 35.191 63.5598 19.4334 29.347 19.7147 15.1785 20.0125 55.399 30.6991 16.2849 24.6999 17.9501
internal_count=724 672 407 265 122 84 116 143 95 74 50 47 291 119 95 172 52 79 53 41 54 150 83 44 67 48
is_linear=0
shrinkage=0.05


Tree=6
num_leaves=28
num_cat=0
split_feature=35 31 4 5 3 10 27 27 9 32 35 35 35 24 35 5 1 27 25 7 31 34 4 30 31 31 28
split_gain=11.4942 13.2678 8.05078 6.66258 5.65806 5.25454 5.31085 5.62379 5.34027 5.05008 4.78871 6.58844 10.8305 6.62398 5.03971 4.75408 3.90656 9.41647 3.75743 3.27165 3.25422 3.07192 2.43572 2.31083 1.17098 0.870789 0.685067
threshold=28.500000000000004 -0.017987596077911214 -0.058048552954239337 -0.10440223403237774 -0.0088652560935964138 -0.09269055079214393 0.80558883329820541 1.1256129082218196 0.10769684003096507 -0.00029982980977316811 2.5000000000000004 11.500000000000002 14.500000000000002 0.37467984774502044 22.500000000000004 0.031572043454275327 -0.055846978021709882 1.3069666521861847 0.70772085327300449 -0.22472575342232479 -0.04797266925663083 12.500000000000002 -0.01171678161346767 0.1187179423931413 0.011329473834779375 -0.035444364913980238 -0.041234982905738314
decision_type=2 2 2 2 2 2 2 2 2 2 2 2 2 2 2 2 2 2 2 2 2 2 2 2 2 2 2
left_child=1 2 16 10 20 9 8 18 22 -5 -3 26 -13 24 -15 -6 17 23 -8 -2 -4 -18 -7 -1 -14 -23 -12
right_child=19 3 4 5 15 6 7 -9 -10 -11 11 12 13 14 -16 -17 21 -19 -20 -21 -22 25 -24 -25 -26 -27 -28
leaf_value=-0.0040363172359181047 -0.056855516822864133 -0.015181780900338244 0.0049221610838336254 -0.047538738297141829 -0.036902535024655951 0.022968785014441561 0.0053794065997391565 0.020781913401364451 -0.0068978992792313489 0.0006035115493275363 0.041845562402764019 -0.033300508349199363 0.035665672205211586 -0.0091924707702259953 0.039837105387453942 0.0093605748693993667 -0.014716490433583383 -0.04614889375640574 -0.03907151269632899 -0.015773468270902879 0.047509623769884768 -0.062101500515070185 0.061670166906444446 0.032333455335066506 0.061094379563408019 -0.039321643902025027 0.061850820456397698
leaf_weight=10.481091201305395 10.05681759119034 7.4863299131393424 8.9758884310722369 8.9781634807586688 10.098408728837969 7.4629346132278487 8.240299344062807 14.598324984312056 7.4941835701465598 13.851580291986464 7.4498169422149685 8.6141539812087995 7.8073523342609432 13.468332350254061 8.5801290571689588 12.337513893842695 8.9819434285163897 11.953093081712721 11.237266480922697 9.3535245060920698 8.9666211903095228 8.5657846629619616 8.9304630160331726 7.4874421358108512 10.776114284992216 8.2219964861869794 10.055799812078474
leaf_count=28 27 20 24 24 27 20 22 39 20 37 20 23 21 36 23 33 24 32 30 25 24 23 24 20 29 22 27
internal_value=1.14286e-05 0.00287699 -0.0117233 0.0119245 0.00527536 0.00198859 0.00999104 -0.00268072 0.0280675 -0.0183292 0.0227377 0.0269905 0.0176249 0.0284214 0.00988732 -0.0114625 -0.024048 -0.0117585 -0.0202658 -0.0370588 0.0262049 -0.0383176 0.0440517 0.0111189 0.0504112 -0.0509448 0.0533372
internal_weight=270.511 251.101 96.0698 155.031 40.3784 80.7932 57.9635 34.0759 23.8876 22.8297 74.238 66.7517 49.2461 40.6319 22.0485 22.4359 55.6914 29.9216 19.4776 19.4103 17.9425 25.7697 16.3934 17.9685 18.5835 16.7878 17.5056
internal_count=724 672 257 415 108 216 155 91 64 61 199 179 132 109 59 60 149 80 52 52 48 69 44 48 50 45 47
is_linear=0
shrinkage=0.05


Tree=7
num_leaves=28
num_cat=0
split_feature=34 11 19 3 13 13 13 32 2 11 17 1 30 8 26 5 8 7 32 4 7 26 1 24 11 4 26
split_gain=6.5329 5.30545 5.59887 4.27018 2.69778 2.53652 8.24432 2.85028 5.66918 0.739147 0.721766 0.526264 4.74207e-06 3.50871e-06 3.4238e-06 3.27142e-06 2.52562e-06 2.207e-06 2.09258e-06 7.30709e-07 9.38051e-07 9.71722e-07 2.18283e-07 2.35995e-07 8.92066e-08 7.57322e-08 5.0116e-08
threshold=29.500000000000004 -0.13427884138647309 -0.010218310142227785 0.10137131944901885 -0.015184456627999032 -0.0091811904135028124 -0.0083917160958458716 3.9623855558823945e-05 -0.0072937939186591147 -0.18782259526235845 -394.85094993601746 0.10063767468499038 0.09739359288653103 0.077553111338627287 4752.6500000000005 -0.1809345653089699 -0.53745678562269505 2.5988917381587835 -0.00029611767246786594 -0.20839563096767236 -0.31373533100931833 18945.100000000002 0.035770770950777291 0.28461961527762614 0.35979773661492293 -0.058048552954239337 16433.900000000005
decision_type=2 2 2 2 2 2 2 2 2 2 2 2 2 2 2 2 2 2 2 2 2 2 2 2 2 2 2
left_child=1 2 3 5 -3 12 -7 9 -9 15 -6 14 13 -1 -12 -8 -17 19 -18 -16 21 -21 23 25 26 -22 -25
right_child=-2 4 -4 -5 10 6 7 8 -10 -11 11 -13 -14 -15 17 16 18 -19 -20 20 22 -23 -24 24 -26 -27 -28
leaf_value=-0.034736612107563153 0.086943888989894941 0.048582996874370302 0.093487354294750524 0.078613171303677551 0.0098469953399665869 0.11016534793157329 -0.034778938347708663 0.08177006624050312 -0.034704893778703637 0.0095637207583303355 -0.034717452286313476 -0.0052818437290391793 -0.034788097538894225 -0.034632577504826095 -0.034671578077570368 -0.034753964738808721 -0.034625639029659344 -0.034707457097313689 -0.034707896218676863 -0.034631073547115358 -0.034641821370672204 -0.034693915164452659 -0.03463928433680355 -0.034623329371121697 -0.034600309356583203 -0.034623345448349989 -0.034608932912931399
leaf_weight=1.3883537091314857 2.0516966730356208 1.1994425058364893 1.944048255681994 1.7612873353064049 1.122694525867703 1.7226158343255562 1.4271747395396266 2.1448634639382362 2.036766916513443 1.1295112967491041 1.8333742320537592 1.7022352255880822 1.3116717860102651 1.9470883496105669 1.3900791965425039 1.173099081963304 1.5081238336861167 1.252134509384631 1.5865410640835693 1.3519430421292811 1.0897432118654253 1.1287697739899156 1.8491761647164819 1.3986580409109599 1.1637903638184068 1.1295163258910097 1.0646744072437284
leaf_count=24 32 20 27 27 20 26 24 36 36 20 32 31 22 36 25 20 28 22 28 25 20 20 34 26 22 21 20
internal_value=-6.0303e-05 -0.00455019 0.0126416 0.0044288 -0.0239557 -0.00309084 0.00845209 -0.00746756 0.025038 -0.0273851 -0.0289341 -0.0315964 -0.0347076 -0.0346759 -0.0346535 -0.0347134 -0.0346915 -0.0346444 -0.0346678 -0.0346376 -0.0346329 -0.0346597 -0.0346243 -0.0346196 -0.0346117 -0.0346324 -0.0346171
internal_weight=41.8091 39.7574 21.0811 19.1371 18.6762 17.3758 12.7287 11.0061 4.18163 6.82445 17.4768 16.3541 4.64711 3.33544 14.6519 5.69494 4.26776 12.8185 3.09466 11.5664 10.1763 2.48071 7.69556 5.84638 3.62712 2.21926 2.46333
internal_count=724 692 354 327 338 300 218 192 72 120 318 298 82 60 267 100 76 235 56 213 188 45 143 109 68 41 46
is_linear=0
shrinkage=0.05


Tree=8
num_leaves=27
num_cat=0
split_feature=35 0 12 35 33 0 24 34 34 10 27 30 19 7 27 5 33 19 13 21 1 2 11 3 27 1
split_gain=13.2039 15.4732 9.27633 6.74557 5.95913 6.2924 5.84471 5.44145 9.34127 5.2867 4.98706 4.60515 4.14851 4.05321 3.66313 3.49697 4.18134 3.34183 3.25341 3.05465 5.43602 2.97688 2.14709 2.12939 1.19618 0.793177
threshold=28.500000000000004 -0.017304556952437804 -0.0048042140003476596 24.500000000000004 1.5000000000000002 -0.04372179179098299 0.50344210766377151 19.500000000000004 11.500000000000002 -0.059171410408649629 0.76823343951788747 0.079774706217362101 -0.05832828057485747 -0.47780008307431027 0.79491194805801502 0.097952096876089495 4.5000000000000009 -6.301978492678038 -0.0040515626211952921 42.542088973789923 0.014783795514980188 0.073538611018619152 -0.077812331046604552 -0.044299379035804984 0.83679294651925651 -0.04455054135157157
decision_type=2 2 2 2 2 2 2 2 2 2 2 2 2 2 2 2 2 2 2 2 2 2 2 2 2 2
left_child=1 3 6 4 9 22 13 8 14 11 -7 -1 -5 -3 -4 -9 -17 -10 -2 20 23 -8 -6 25 -24 -15
right_child=18 2 7 12 5 10 21 15 17 -11 -12 -13 -14 19 -16 16 -18 -19 -20 -21 -22 -23 24 -25 -26 -27
leaf_value=0.038778441337213532 0.019964784098116906 0.0013768612920890301 -0.044808317273325377 0.0057722302476657409 0.05739423162844063 -0.018208727585860045 -0.017478099455944709 -0.039552969650052505 0.047590057132174048 -0.034707413129483985 0.027808619409945085 -0.0095825448502508716 -0.044983929490391816 -0.036555936493222224 0.0033640270491672544 -0.023046916489372422 0.023384166635466816 0.011790235870547198 0.060863133763244884 -0.057893936252254641 0.0076802532840234278 0.022326836778157139 0.044787329797280943 -0.020483514328553384 0.017780905471656571 -0.057344447109585167
leaf_weight=9.3182314634323173 10.106617182493212 7.3794585764408103 7.3400553762912741 8.9099790155887622 13.850946128368379 10.062632024288179 11.815677493810655 10.633976042270662 13.073514759540556 8.1135946214199048 14.190468311309813 10.435304552316664 7.344147950410842 7.2837267816066733 8.5354011058807355 11.87544032931328 8.1948815286159498 13.001604765653612 9.3714959323406202 14.264500916004179 7.3907644152641288 7.7963647544383994 7.8440753221511867 9.1731418669223803 8.5905831158161146 12.399646103382112
leaf_count=25 27 20 20 24 37 27 32 29 35 22 38 28 20 20 23 32 22 35 25 39 20 21 21 25 23 34
internal_value=-2.12594e-06 -0.00310558 -0.0132124 0.0122768 0.0180833 0.0276944 -0.0252449 -0.000376961 0.0113295 -0.00072674 0.00871598 0.0132305 -0.0171611 -0.0332368 -0.0189086 -0.0163712 -0.00408871 0.0297395 0.0396422 -0.0382936 -0.0305802 -0.00165446 0.0428926 -0.0403795 0.0306708 -0.0496518
internal_weight=268.296 248.818 150.158 98.66 82.4058 54.5387 77.5033 72.6549 41.9506 27.8671 24.2531 19.7535 16.2541 57.8912 15.8755 30.7043 20.0703 26.0751 19.4781 50.5118 36.2473 19.612 30.2856 28.8565 16.4347 19.6834
internal_count=724 672 407 265 221 146 211 196 113 75 65 53 44 158 43 83 54 70 52 138 99 53 81 79 44 54
is_linear=0
shrinkage=0.05


end of trees

feature_importances:
days_to_month_end=16
volume_ratio_20=15
returns_100=13
returns_20=12
sma_50_slope=12
gap_open=11
returns_2=10
returns_10=10
price_to_sma_200=10
volume_20=10
close_open_range=10
day_of_month=10
returns_1=9
day_of_week=9
returns_5=7
returns_3=6
returns_50=6
high_low_range=6
price_to_sma_50=5
macd_signal=5
returns_200=4
rsi_14=4
bollinger_width_20=4
price_to_sma_20=3
sma_200_slope=3
ema_12_26_spread=3
macd_hist=3
price_to_ema_12=2
price_to_ema_26=2
atr_14=2
bollinger_percent_b_20=2
vwap_distance=2
sma_20_slope=1

parameters:
[boosting: gbdt]
[objective: multiclass]
[metric: multi_logloss]
[tree_learner: serial]
[device_type: cpu]
[data_sample_strategy: bagging]
[data: ]
[valid: ]
[num_iterations: 300]
[learning_rate: 0.05]
[num_leaves: 31]
[num_threads: 0]
[seed: 0]
[deterministic: 0]
[force_col_wise: 0]
[force_row_wise: 0]
[histogram_pool_size: -1]
[max_depth: -1]
[min_data_in_leaf: 20]
[min_sum_hessian_in_leaf: 0.001]
[bagging_fraction: 1]
[pos_bagging_fraction: 1]
[neg_bagging_fraction: 1]
[bagging_freq: 0]
[bagging_seed: 3]
[bagging_by_query: 0]
[feature_fraction: 0.8]
[feature_fraction_bynode: 1]
[feature_fraction_seed: 2]
[extra_trees: 0]
[extra_seed: 6]
[early_stopping_round: 0]
[early_stopping_min_delta: 0]
[first_metric_only: 0]
[max_delta_step: 0]
[lambda_l1: 0]
[lambda_l2: 0]
[linear_lambda: 0]
[min_gain_to_split: 0]
[drop_rate: 0.1]
[max_drop: 50]
[skip_drop: 0.5]
[xgboost_dart_mode: 0]
[uniform_drop: 0]
[drop_seed: 4]
[top_rate: 0.2]
[other_rate: 0.1]
[min_data_per_group: 100]
[max_cat_threshold: 32]
[cat_l2: 10]
[cat_smooth: 10]
[max_cat_to_onehot: 4]
[top_k: 20]
[monotone_constraints: ]
[monotone_constraints_method: basic]
[monotone_penalty: 0]
[feature_contri: ]
[forcedsplits_filename: ]
[refit_decay_rate: 0.9]
[cegb_tradeoff: 1]
[cegb_penalty_split: 0]
[cegb_penalty_feature_lazy: ]
[cegb_penalty_feature_coupled: ]
[path_smooth: 0]
[interaction_constraints: ]
[verbosity: -1]
[saved_feature_importance_type: 0]
[use_quantized_grad: 0]
[num_grad_quant_bins: 4]
[quant_train_renew_leaf: 0]
[stochastic_rounding: 1]
[linear_tree: 0]
[max_bin: 255]
[max_bin_by_feature: ]
[min_data_in_bin: 3]
[bin_construct_sample_cnt: 200000]
[data_random_seed: 1]
[is_enable_sparse: 1]
[enable_bundle: 1]
[use_missing: 1]
[zero_as_missing: 0]
[feature_pre_filter: 1]
[pre_partition: 0]
[two_round: 0]
[header: 0]
[label_column: ]
[weight_column: ]
[group_column: ]
[ignore_column: ]
[categorical_feature: ]
[forcedbins_filename: ]
[precise_float_parser: 0]
[parser_config_file: ]
[objective_seed: 5]
[num_class: 3]
[is_unbalance: 0]
[scale_pos_weight: 1]
[sigmoid: 1]
[boost_from_average: 1]
[reg_sqrt: 0]
[alpha: 0.9]
[fair_c: 1]
[poisson_max_delta_step: 0.7]
[tweedie_variance_power: 1.5]
[lambdarank_truncation_level: 30]
[lambdarank_norm: 1]
[label_gain: ]
[lambdarank_position_bias_regularization: 0]
[eval_at: ]
[multi_error_top_k: 1]
[auc_mu_weights: ]
[num_machines: 1]
[local_listen_port: 12400]
[time_out: 120]
[machine_list_filename: ]
[machines: ]
[gpu_platform_id: -1]
[gpu_device_id: -1]
[gpu_use_dp: 0]
[num_gpu: 1]

end of parameters

pandas_categorical:null
