tree
version=v4
num_class=3
num_tree_per_iteration=3
label_index=0
max_feature_idx=49
objective=multiclass num_class:3
feature_names=returns_1 returns_2 returns_3 returns_5 returns_10 returns_20 returns_50 returns_100 returns_200 price_to_sma_20 price_to_sma_50 price_to_sma_200 sma_20_slope sma_50_slope sma_200_slope price_to_ema_12 price_to_ema_26 ema_12_26_spread macd macd_signal macd_hist rsi_14 atr_14 atr_pct_14 bollinger_width_20 bollinger_percent_b_20 volume_20 volume_ratio_20 vwap_distance adx_14 high_low_range close_open_range gap_open day_of_week day_of_month days_to_month_end news_sentiment_1d news_sentiment_7d news_article_count_7d earnings_proximity_days congress_buy_score congress_cluster_30d days_since_last_congress insider_buy_score insider_cluster_60d insider_value_60d ceo_bought_90d analyst_upgrade_score consensus_rating watchlist_research_score
feature_infos=[-0.34065571788855986:0.40286760526902682] [-0.34065571788855986:0.52497438825065879] [-0.39698492462311558:0.82705879813814276] [-0.44055944055944057:0.76552500000000012] [-0.55583521486471488:0.57500833333333334] [-0.61482660777793474:0.66665833333333335] [-0.69689774845544139:0.55541445714285698] [-0.83109534667680096:-0.13549953062515585] [-0.89952618222099057:-0.099865860478121085] [-0.50998737604977451:0.20745852144181356] [-0.61961240405911355:0.23222696523109462] [-0.83144458563769674:-0.12807559249278128] [-0.040245938674950077:0.021625799252224735] [-0.019293665680218633:0.0083007598939283563] [-0.010425047709139202:-0.00042984308815081695] [-0.42244723479326407:0.28095079069459145] [-0.52636510228876199:0.16996253950345061] [-38.13561871961042:13.54137626230488] [-38.13561871961042:13.54137626230488] [-34.62719238213672:11.780597360816474] [-8.7914773845407268:10.683762745376722] [22.43122401530195:69.917721235937407] [0.14867406381001289:43.808559339461176] [0.047537637848728595:0.20814644508411345] [0.085499834200423827:1.0077349797518562] [-0.25435482529143949:1.2843084614251075] [3.3999999999999999:139.19999999999999] [0.011897679952409281:13.521594684385381] [-0.94164808300912706:-0.37165330699279697] [55.844155844155843:99.477684528867471] [0:0.40995005719074545] [-0.26500795218513656:0.2514251428571429] [-0.3217270424562772:0.28852666666666665] [0:6] [1:31] [1:31] none none none none none none none none none none none none none none
tree_sizes=1273 1263 1277 1303 1415 1291

Tree=0
num_leaves=11
num_cat=0
split_feature=9 1 20 17 21 6 22 33 1 32
split_gain=11.8531 5.83675 5.65364 3.85049 3.75181 3.46843 3.46531 4.28571 2.99461 1.83024
threshold=0.070705495572667268 -0.020346512590722798 0.49614869178466009 -0.18580022966036422 41.523452913107057 -0.44109802179381852 18.56839543019208 2.5000000000000004 0.013042400007361265 -0.00034587007993995724
decision_type=2 2 2 2 2 2 2 2 2 2
left_child=1 3 5 4 9 -3 8 -8 -7 -1
right_child=-2 2 -4 -5 -6 6 7 -9 -10 -11
leaf_value=-0.80550739849693154 -0.71055274754525244 -0.777765050849482 -0.78343125978543326 -0.80918675494884795 -0.75158810212884775 -0.70288680218348187 -0.78446147959196977 -0.73089004965206728 -0.74428290713704293 -0.77441683647823811
leaf_weight=7.8400000333786002 10.080000042915342 7.4666666984558097 14.560000061988829 9.7066667079925519 12.320000052452086 8.2133333683013934 7.4666666984558088 7.4666666984558105 9.3333333730697614 11.946666717529299
leaf_count=21 27 20 39 26 33 22 20 20 25 32
internal_value=-0.76214 -0.767539 -0.756758 -0.781592 -0.773249 -0.747037 -0.739973 -0.757676 -0.724906 -0.786736
internal_weight=106.4 96.32 54.5067 41.8133 32.1067 39.9467 32.48 14.9333 17.5467 19.7867
internal_count=285 258 146 112 86 107 87 40 47 53
is_linear=0
shrinkage=1


Tree=1
num_leaves=11
num_cat=0
split_feature=22 6 4 20 30 31 17 2 2 2
split_gain=9.08843 2.74832 7.47913 3.54113 6.99259 1.5719 0.866857 0.262947 0.229235 8.88178e-16
threshold=0.24389227006565067 -0.26952484482971967 -0.066039343070287845 1.6247238309160752 0.056696817025246433 0.040485394156651852 -16.632721986899465 0.033162540505026206 -0.011154895537727246 -0.05035150015200756
decision_type=2 2 2 2 2 2 2 2 2 2
left_child=-1 5 -3 8 -5 6 -2 9 -4 -8
right_child=1 2 3 4 -6 -7 7 -9 -10 -11
leaf_value=-2.1412858195851263 -2.221518230820211 -2.1560752041445892 -2.2387108903705863 -2.1512525787447645 -2.2559035499209616 -2.2067816654913179 -2.2559035499209616 -2.2387108903705863 -2.2559035499209616 -2.2559035499209616
leaf_weight=3.4898614883422843 2.9082179069519052 4.5077377557754543 2.9082179069519034 3.3444505929946891 3.0536288022994995 3.0536288022994986 5.5256140232086173 2.9082179069519052 5.8164358139038077 3.9260941743850699
leaf_count=24 20 31 20 23 21 21 38 20 40 27
internal_value=-2.2185 -2.2256 -2.2126 -2.22945 -2.2012 -2.23953 -2.24608 -2.25186 -2.25017 -2.2559
internal_weight=41.4421 37.9522 19.6305 15.1227 6.39808 18.3218 15.2681 12.3599 8.72465 9.45171
internal_count=285 261 135 104 44 126 105 85 60 65
is_linear=0
shrinkage=1


Tree=2
num_leaves=11
num_cat=0
split_feature=4 22 33 13 24 20 15 35 23 0
split_gain=12.0617 9.34703 7.1891 7.07174 7.11481 5.86212 10.5251 5.18912 3.19238 2.11026
threshold=-0.089657331672837695 0.26429679131768052 5.5000000000000009 -0.010585404937560322 0.2883721188067 -0.92547614491957952 0.0018420570678948772 11.500000000000002 0.062071557913486654 0.038501856152159168
decision_type=2 2 2 2 2 2 2 2 2 2
left_child=1 -1 5 -3 -5 -2 7 -7 -8 -10
right_child=2 3 -4 4 -6 6 8 -9 9 -11
leaf_value=-0.87903262146688188 -0.91462546265091738 -0.77818623811211451 -0.82564335969082858 -0.81126241375788499 -0.87369369528927654 -0.81229604424681534 -0.86621154426618097 -0.86245752385666929 -0.91462546265091738 -0.88188004876160475
leaf_weight=8.4286614656448346 8.0621979236602765 7.6957343816757193 8.4286614656448346 12.093296885490423 7.3292708396911612 8.7951250076293963 11.360369801521303 12.459760427474974 10.627442717552187 9.1615885496139509
leaf_count=23 22 21 23 33 20 24 31 34 29 25
internal_value=-0.856699 -0.833043 -0.868904 -0.818749 -0.834821 -0.874934 -0.868828 -0.841701 -0.887338 -0.899466
internal_weight=104.442 35.547 68.8951 27.1183 19.4226 60.4665 52.4043 21.2549 31.1494 19.789
internal_count=285 97 188 74 53 165 143 58 85 54
is_linear=0
shrinkage=1


Tree=3
num_leaves=11
num_cat=0
split_feature=4 20 3 30 30 11 11 11 34 2
split_gain=14.3307 6.29035 8.86851 5.69392 4.98667 3.42495 5.20175 2.9391 2.50028 0.673883
threshold=-0.089657331672837695 -1.6564881377086207 0.084568128944579227 2.1740088308030595e-05 0.092699349684633045 -0.39957452502212704 -0.24074453377976199 -0.60755237208602864 20.500000000000004 -0.045707533156340553
decision_type=2 2 2 2 2 2 2 2 2 2
left_child=3 -2 5 -1 9 7 8 -3 -7 -5
right_child=1 2 -4 4 -6 6 -8 -9 -10 -11
leaf_value=0.011040330952687692 0.056510302628761583 -0.0010221503790749096 0.042149521521494961 -0.042314948293567779 -0.0055430795824900729 -0.046700678107932173 0.017850237498916167 0.03791993526717196 -0.0096363595338922869 -0.061250755039333055
leaf_weight=8.1999548375606519 7.4806351065635672 13.808634102344515 14.592732071876524 10.423376858234407 8.9311874508857709 9.6957278251647967 8.6008702814579063 7.4643890559673265 8.5734075903892499 8.5545478165149706
leaf_count=22 20 37 39 28 24 26 23 20 23 23
internal_value=7.94842e-06 0.0131715 0.00800381 -0.0255895 -0.0363517 -0.00234616 -0.0142123 0.0126421 -0.029307 -0.0508505
internal_weight=106.325 70.2164 62.7358 36.1091 27.9091 48.143 26.87 21.273 18.2691 18.9779
internal_count=285 188 168 97 75 129 72 57 49 51
is_linear=0
shrinkage=0.05


Tree=4
num_leaves=12
num_cat=0
split_feature=22 30 7 2 31 5 30 24 5 6 6
split_gain=7.86193 2.68968 3.25855 7.56533 2.59622 2.44415 3.46833 0.767298 0.247179 2.27609e-05 5.84092e-06
threshold=0.24389227006565067 0.09827465173000767 -0.36766870849284311 -0.034254397615186789 0.011028517601846049 -0.1055705817686049 0.037784411460792151 0.22428667790220977 0.046036393314030387 -0.26136266206195974 -0.31417842920199618
decision_type=2 2 2 2 2 2 2 2 2 2 2
left_child=-1 2 5 -4 7 6 -2 -5 9 -7 -3
right_child=1 10 3 4 -6 8 -8 -9 -10 -11 -12
leaf_value=0.069102108649235411 -0.018803398121149537 -0.037326531329191441 0.083109890807335524 -0.037355200745347907 0.029758459802128406 -0.037290929775564578 0.049022216147815621 -0.0031430691778260023 -0.019845832477755263 -0.037475733541909445 -0.03742471347330073
leaf_weight=3.7421732544898978 5.4076026082038897 3.1507152020931244 3.3137414157390586 3.7403367757797259 3.726173147559166 3.8395581692457199 2.8933018445968628 2.9169633835554123 2.8604397028684616 2.9433474838733655 2.9174638986587516
leaf_count=24 38 22 22 26 26 27 20 20 20 20 20
internal_value=-2.16079e-05 -0.0068812 -0.00103337 0.017332 -0.00366005 -0.0150521 0.0048374 -0.0223648 -0.0321727 -0.0373711 -0.0373737
internal_weight=41.4518 37.7096 31.6415 13.6972 10.3835 17.9442 8.3009 6.6573 9.64335 6.78291 6.06818
internal_count=285 261 219 94 72 125 58 46 67 47 42
is_linear=0
shrinkage=0.05


Tree=5
num_leaves=11
num_cat=0
split_feature=4 22 33 13 24 20 15 34 23 0
split_gain=11.063 8.62821 6.60572 6.30927 6.58104 5.57366 9.61193 6.20172 3.05373 2.03407
threshold=-0.089657331672837695 0.26429679131768052 5.5000000000000009 -0.010585404937560322 0.2883721188067 -0.92547614491957952 0.0018420570678948772 10.500000000000002 0.062071557913486654 0.038501856152159168
decision_type=2 2 2 2 2 2 2 2 2 2
left_child=1 -1 5 -3 -5 -2 7 -7 -8 -10
right_child=2 3 -4 4 -6 6 8 -9 9 -11
leaf_value=-0.021718767919172779 -0.056469620050503912 0.074260974587573081 0.029602950775709361 0.043545588894083581 -0.016477158647582799 -0.017973842516202088 -0.0087228968068528076 0.036818358356378492 -0.056333018413258079 -0.024043095782528022
leaf_weight=8.3999611139297468 7.9791460931301108 7.7923578023910514 8.4735159873962385 12.172482848167425 7.3086696565151206 8.7862621545791644 11.313499420881273 12.527925848960875 10.506486445665361 9.102840840816496
leaf_count=23 22 21 23 33 20 24 31 34 29 25
internal_value=4.8433e-07 0.02259 -0.0117312 0.0362366 0.0210271 -0.0175477 -0.0116024 0.0142316 -0.029409 -0.0413437
internal_weight=104.363 35.6735 68.6897 27.2735 19.4812 60.2162 52.237 21.3142 30.9228 19.6093
internal_count=285 97 188 74 53 165 143 58 85 54
is_linear=0
shrinkage=0.05


end of trees

feature_importances:
returns_3=5
macd_hist=5
atr_14=5
high_low_range=5
returns_10=4
returns_50=4
price_to_sma_200=3
bollinger_width_20=3
day_of_week=3
returns_1=2
returns_2=2
returns_20=2
sma_50_slope=2
price_to_ema_12=2
ema_12_26_spread=2
atr_pct_14=2
close_open_range=2
day_of_month=2
returns_5=1
returns_100=1
price_to_sma_20=1
rsi_14=1
gap_open=1
days_to_month_end=1

parameters:
[boosting: gbdt]
[objective: multiclass]
[metric: multi_logloss]
[tree_learner: serial]
[device_type: cpu]
[data_sample_strategy: bagging]
[data: ]
[valid: ]
[num_iterations: 300]
[learning_rate: 0.05]
[num_leaves: 31]
[num_threads: 0]
[seed: 0]
[deterministic: 0]
[force_col_wise: 0]
[force_row_wise: 0]
[histogram_pool_size: -1]
[max_depth: -1]
[min_data_in_leaf: 20]
[min_sum_hessian_in_leaf: 0.001]
[bagging_fraction: 1]
[pos_bagging_fraction: 1]
[neg_bagging_fraction: 1]
[bagging_freq: 0]
[bagging_seed: 3]
[bagging_by_query: 0]
[feature_fraction: 0.8]
[feature_fraction_bynode: 1]
[feature_fraction_seed: 2]
[extra_trees: 0]
[extra_seed: 6]
[early_stopping_round: 0]
[early_stopping_min_delta: 0]
[first_metric_only: 0]
[max_delta_step: 0]
[lambda_l1: 0]
[lambda_l2: 0]
[linear_lambda: 0]
[min_gain_to_split: 0]
[drop_rate: 0.1]
[max_drop: 50]
[skip_drop: 0.5]
[xgboost_dart_mode: 0]
[uniform_drop: 0]
[drop_seed: 4]
[top_rate: 0.2]
[other_rate: 0.1]
[min_data_per_group: 100]
[max_cat_threshold: 32]
[cat_l2: 10]
[cat_smooth: 10]
[max_cat_to_onehot: 4]
[top_k: 20]
[monotone_constraints: ]
[monotone_constraints_method: basic]
[monotone_penalty: 0]
[feature_contri: ]
[forcedsplits_filename: ]
[refit_decay_rate: 0.9]
[cegb_tradeoff: 1]
[cegb_penalty_split: 0]
[cegb_penalty_feature_lazy: ]
[cegb_penalty_feature_coupled: ]
[path_smooth: 0]
[interaction_constraints: ]
[verbosity: -1]
[saved_feature_importance_type: 0]
[use_quantized_grad: 0]
[num_grad_quant_bins: 4]
[quant_train_renew_leaf: 0]
[stochastic_rounding: 1]
[linear_tree: 0]
[max_bin: 255]
[max_bin_by_feature: ]
[min_data_in_bin: 3]
[bin_construct_sample_cnt: 200000]
[data_random_seed: 1]
[is_enable_sparse: 1]
[enable_bundle: 1]
[use_missing: 1]
[zero_as_missing: 0]
[feature_pre_filter: 1]
[pre_partition: 0]
[two_round: 0]
[header: 0]
[label_column: ]
[weight_column: ]
[group_column: ]
[ignore_column: ]
[categorical_feature: ]
[forcedbins_filename: ]
[precise_float_parser: 0]
[parser_config_file: ]
[objective_seed: 5]
[num_class: 3]
[is_unbalance: 0]
[scale_pos_weight: 1]
[sigmoid: 1]
[boost_from_average: 1]
[reg_sqrt: 0]
[alpha: 0.9]
[fair_c: 1]
[poisson_max_delta_step: 0.7]
[tweedie_variance_power: 1.5]
[lambdarank_truncation_level: 30]
[lambdarank_norm: 1]
[label_gain: ]
[lambdarank_position_bias_regularization: 0]
[eval_at: ]
[multi_error_top_k: 1]
[auc_mu_weights: ]
[num_machines: 1]
[local_listen_port: 12400]
[time_out: 120]
[machine_list_filename: ]
[machines: ]
[gpu_platform_id: -1]
[gpu_device_id: -1]
[gpu_use_dp: 0]
[num_gpu: 1]

end of parameters

pandas_categorical:null
