tree
version=v4
num_class=3
num_tree_per_iteration=3
label_index=0
max_feature_idx=49
objective=multiclass num_class:3
feature_names=returns_1 returns_2 returns_3 returns_5 returns_10 returns_20 returns_50 returns_100 returns_200 price_to_sma_20 price_to_sma_50 price_to_sma_200 sma_20_slope sma_50_slope sma_200_slope price_to_ema_12 price_to_ema_26 ema_12_26_spread macd macd_signal macd_hist rsi_14 atr_14 atr_pct_14 bollinger_width_20 bollinger_percent_b_20 volume_20 volume_ratio_20 vwap_distance adx_14 high_low_range close_open_range gap_open day_of_week day_of_month days_to_month_end news_sentiment_1d news_sentiment_7d news_article_count_7d earnings_proximity_days congress_buy_score congress_cluster_30d days_since_last_congress insider_buy_score insider_cluster_60d insider_value_60d ceo_bought_90d analyst_upgrade_score consensus_rating watchlist_research_score
feature_infos=[-0.17682851111387074:0.55191628159826056] [-0.28684962125915808:0.5458237444158659] [-0.32443241971532755:0.54474028808380626] [-0.40419857179729846:0.7036228721082497] [-0.39663039663039662:1.16158802556468] [-0.46079046424090336:1.6366071428571431] [-0.51265164644714034:2.9858356940509916] [-0.31978505129457746:5.3197492163009397] [-0.40049356601445446:10.016856987493201] [-0.38281507624573241:0.76631730888857374] [-0.42512323531511503:1.2383760593059736] [-0.24325798945154611:2.627964690922719] [-0.028118195956454248:0.054909831645797047] [-0.014143933409711045:0.032209436973825681] [-0.0030949124651957947:0.015983274043562427] [-0.30576835627869814:0.44943759885071111] [-0.3645122960529632:0.70215198653032684] [-1619.1609228534289:5508.2487010017212] [-1619.1609228534289:5508.2487010017212] [-1133.7628210860021:5086.6246086351302] [-1304.5738840761369:1113.2027598598243] [18.434476321055328:94.793090802345105] [0.0024666680765889812:4062.8852249222987] [0.018461255108261649:0.16302675335311939] [0.054958091214675819:1.1658300338808489] [-0.35576945061060505:1.4569863355275792] [692.45000000000005:54964.699999999997] [0.14934488119031755:9.1059419488194706] [-0.92241481848773332:1.7911984452457235] [5.4776670068294182:99.477684528867471] [0.0060032123727224015:0.52198868598391535] [-0.17693071765582327:0.55149456521739126] [-0.0082269979852250454:0.023756676046631786] [0:6] [1:31] [1:31] none none none none none none none none none none none none none none
tree_sizes=3385 3327 3385

Tree=0
num_leaves=31
num_cat=0
split_feature=33 34 33 31 3 27 1 27 34 8 15 8 34 6 1 8 32 32 28 1 34 24 19 34 31 1 32 11 17 9
split_gain=63.9633 24.6115 24.3637 20.6664 21.8211 15.935 14.8312 16.7076 15.5635 11.7827 11.7311 10.4446 11.737 10.1682 9.50282 9.39255 8.91631 7.87056 8.22817 7.2852 7.1359 6.76641 6.58025 8.15202 6.44308 11.5907 6.89729 6.41421 6.65156 6.72996
threshold=1.0000000180025095e-35 1.5000000000000002 5.5000000000000009 0.029923982362525321 0.028567064957270873 0.35037118706508302 0.045119472713902709 0.65613311308987854 10.500000000000002 0.81849354986354983 -0.061242112767425937 0.76866302705730172 5.5000000000000009 0.34623695587462627 -0.0020485602169762131 1.3309476151471185 0.00016262167785132685 0.00064624393283871362 -0.39457587428483115 0.067782682853978565 19.500000000000004 0.2704840735541203 -0.19048633146923896 19.500000000000004 0.00026825464611916213 0.0020133377115194302 0.00026440825458305233 -0.063903925506769252 -0.0027747126900429168 0.01620969126998149
decision_type=2 2 2 2 2 2 2 2 2 2 2 2 2 2 2 2 2 2 2 2 2 2 2 2 2 2 2 2 2 2
left_child=9 -2 6 5 -5 -4 7 10 15 13 -3 12 14 27 -9 -8 -12 -13 -19 -11 -21 -15 23 -10 -7 -26 -27 -1 -29 -30
right_child=1 2 3 4 -6 24 8 11 22 19 16 17 -14 21 -16 -17 -18 18 -20 20 -22 -23 -24 -25 25 26 -28 28 29 -31
leaf_value=-0.69433154867058 -0.80337968810590266 -0.7722281121692105 -0.7209775455639047 -0.67947128117237976 -0.76863288616158143 -0.79200343901117398 -0.77175354233620352 -0.76458008593479954 -0.78235005615992015 -0.6986967522481764 -0.74216303468041223 -0.74534864536822298 -0.76802496612756421 -0.80105528797583658 -0.71222452382147428 -0.73124253568223874 -0.71441299123571556 -0.73180526670951984 -0.78975010839586601 -0.69953264229495016 -0.76506642196201335 -0.73762015399142433 -0.71812160994063456 -0.71290688304333039 -0.72245991214931626 -0.79761040778307202 -0.74315814187895235 -0.75427635654467606 -0.69318845117071848 -0.73711887060505321
leaf_weight=13.45870792865753 25.422003865242004 23.178885877132416 10.841736942529677 11.58944293856621 16.823384910821915 84.864630550146103 37.385299801826477 16.44953191280365 9.7201779484748858 59.816479682922363 95.706367492675781 176.08476206660271 246.74297869205475 8.2247659564018267 18.318796902894974 23.178885877132416 41.49768278002739 8.5986189544200915 21.309620887041092 7.4770599603652981 9.3463249504566175 8.5986189544200879 81.49995356798172 7.4770599603652945 10.467883944511412 22.43117988109589 7.8509129583835593 22.057326883077621 14.580266922712324 21.683473885059357
leaf_count=36 68 62 29 31 45 227 100 44 26 160 256 471 660 22 49 62 111 23 57 20 25 23 218 20 28 60 21 59 39 58
internal_value=-0.750041 -0.754814 -0.753544 -0.771059 -0.732264 -0.779137 -0.749966 -0.753327 -0.736296 -0.721228 -0.739328 -0.757932 -0.764193 -0.733645 -0.736995 -0.756249 -0.73377 -0.749377 -0.773091 -0.706872 -0.73594 -0.768633 -0.724052 -0.752157 -0.784157 -0.767815 -0.783493 -0.725445 -0.732625 -0.719456
internal_weight=1162.68 997.44 972.018 164.869 28.4128 136.456 807.149 647.887 159.261 165.243 160.383 487.504 281.511 88.6032 34.7683 60.5642 137.204 205.993 29.9082 76.6399 16.8234 16.8234 98.6972 17.1972 125.615 40.75 30.2821 71.7798 58.3211 36.2637
internal_count=3110 2668 2600 441 76 365 2159 1733 426 442 429 1304 753 237 93 162 367 551 80 205 45 45 264 46 336 109 81 192 156 97
is_linear=0
shrinkage=1


Tree=1
num_leaves=31
num_cat=0
split_feature=11 30 3 3 31 8 11 3 17 9 21 4 3 2 20 7 28 6 11 21 26 20 8 14 27 35 9 20 3 12
split_gain=15.7841 15.8473 8.14385 14.3955 21.4582 11.8948 7.29358 5.87882 8.53792 6.97525 11.0133 6.52743 15.271 6.16113 5.93825 6.44127 7.68853 5.78792 4.92237 4.52319 4.50279 6.32939 8.94664 7.38842 7.47829 8.14713 4.55391 4.18443 7.18941 3.55503
threshold=0.35533575888266306 0.017623265096635237 0.051145159557617802 0.041562808468688005 0.0037222004680730236 0.24583205663405491 0.34286367341403573 -0.043741202299760237 -2.2027340179197021 0.037982764172935383 56.840424595749063 0.042469245782992958 -0.0069910937668362034 -0.045956920246305023 -9.8014779357531499 0.30288439397547962 -0.8178820778450232 0.21232027011907909 0.31367623709952869 51.711329145958068 3836.5500000000006 -0.0025707323045524766 -0.067207734776701736 0.0015268217653918222 0.90421698034486719 16.500000000000004 -0.065137230624535775 -24.984661819781049 0.016545708063425764 -0.016952407650331455
decision_type=2 2 2 2 2 2 2 2 2 2 2 2 2 2 2 2 2 2 2 2 2 2 2 2 2 2 2 2 2 2
left_child=2 -2 3 6 -5 -6 7 8 13 10 11 14 -13 -1 -9 16 -16 20 29 -14 26 -22 -23 24 25 -24 -18 28 -3 -10
right_child=1 27 -4 4 5 -7 -8 9 18 -11 -12 12 19 -15 15 -17 17 -19 -20 -21 21 22 23 -25 -26 -27 -28 -29 -30 -31
leaf_value=-3.0900274258372442 -2.9359992388446408 -3.1124898697736656 -3.1083266929507967 -3.128534472585395 -2.8204780986001885 -3.0100512518218538 -2.9745062855927915 -3.0001776500915587 -3.0615656956320891 -3.1207552712221323 -2.9488349210940243 -2.9119323346270467 -3.128534472585395 -2.9359992388446412 -2.9745062855927915 -3.1179845967639839 -3.0280813071554364 -2.9745062855927915 -3.0130133323409423 -3.022308136728427 -3.1168656705405007 -3.1134336699390612 -3.0989136673945099 -3.0869052328576645 -2.8834896296426171 -2.9488349210940243 -3.1227000715629476 -3.114619907381821 -2.985915780925577 -3.1196311091754181
leaf_weight=1.2984636425971987 1.2984636425971974 3.1163127422332755 22.268651470541954 1.8827722817659367 1.6230795532464983 1.6880027353763578 1.623079553246497 2.3372345566749564 2.9864663779735627 6.4273950308561316 1.9476954638957966 2.0775418281555176 2.1424650102853766 1.2984636425972009 1.9476954638957931 9.4787845909595472 1.4932331889867771 1.2984636425971974 1.2984636425971974 1.8827722817659376 4.2849300205707541 3.3110822886228526 1.68800273537636 2.4021577388048172 1.4283100068569181 1.9476954638957975 8.5698600411415224 82.647210851311684 1.7529259175062177 22.463421016931534
leaf_count=20 20 48 343 29 25 26 25 36 46 99 30 32 33 20 30 146 23 20 20 29 66 51 26 37 22 30 132 1273 27 346
internal_value=-3.09362 -3.10939 -3.08123 -3.07459 -2.99376 -2.91712 -3.07949 -3.08152 -3.09957 -3.07183 -3.06531 -3.07021 -3.02203 -3.01301 -3.07752 -3.0823 -3.07038 -3.07744 -3.10797 -3.07885 -3.08276 -3.06546 -3.04503 -3.01469 -2.98043 -3.01851 -3.10866 -3.11197 -3.06692 -3.11282
internal_weight=201.911 88.8149 113.096 90.8275 5.19385 3.31108 85.6337 84.0106 29.3453 54.6653 48.2379 46.2902 6.10278 2.59693 40.1874 37.8502 28.3714 26.4237 26.7484 4.02524 25.1253 15.0622 10.7772 7.46617 5.06401 3.6357 10.0631 87.5164 4.86924 25.4499
internal_count=3110 1368 1742 1399 80 51 1319 1294 452 842 743 713 94 40 619 583 437 407 412 62 387 232 166 115 78 56 155 1348 75 392
is_linear=0
shrinkage=1


Tree=2
num_leaves=31
num_cat=0
split_feature=33 33 35 35 33 31 1 35 2 27 15 5 4 2 35 35 30 1 4 27 4 23 5 35 33 35 6 6 3 30
split_gain=62.4615 24.1747 22.4906 25.8733 32.5038 17.6676 30.0706 17.3012 17.1446 14.6741 13.7174 13.2096 13.0297 12.7593 22.2697 15.746 14.2203 11.6066 17.4313 10.2394 9.82746 11.9901 8.12301 7.91672 9.96956 9.33343 8.65442 7.63892 7.48492 7.06544
threshold=1.0000000180025095e-35 5.5000000000000009 1.5000000000000002 11.500000000000002 2.5000000000000004 0.00026825464611916213 1.0000000180025095e-35 30.500000000000004 0.0042148415584653551 0.46495141301891446 -0.012393907748742484 -0.23989963393008903 -0.01919779202547266 -0.0079517877983551668 28.500000000000004 17.500000000000004 0.048257893521046639 0.046012463266025906 -0.12992480356513356 0.70186792712706825 -0.065374321830686949 0.07186762354953502 -0.11951321244234579 4.5000000000000009 2.5000000000000004 7.5000000000000009 -0.024586738268161264 0.33094888150846102 0.041562808468688005 0.027121941007473099
decision_type=2 2 2 2 2 2 2 2 2 2 2 2 2 2 2 2 2 2 2 2 2 2 2 2 2 2 2 2 2 2
left_child=-1 2 -2 17 8 9 -7 11 -5 22 -10 -6 -8 14 15 16 -13 18 -4 -14 28 -22 -3 26 25 -25 -20 -18 -15 -26
right_child=1 5 3 4 7 6 12 -9 10 -11 -12 13 19 20 -16 -17 27 -19 23 -21 21 -23 -24 24 29 -27 -28 -29 -30 -31
leaf_value=-0.75760445174800317 -0.68164215427465358 -0.76573428013895473 -0.68400811052465182 -0.6952002055740002 -0.68815184577100952 -0.7765558986000205 -0.66365462835100353 -0.6757524333969982 -0.77574680563096887 -0.68206718567819569 -0.71672118365289006 -0.77685930846341489 -0.76132263097580677 -0.66894653371615209 -0.66672152805126006 -0.77011328064964657 -0.68530333211752037 -0.76273908020544634 -0.77760651185834129 -0.70393703376130323 -0.72558304154976705 -0.75812839342733407 -0.70147765102353876 -0.72582928723600015 -0.75121747488630564 -0.76567315360969945 -0.74121471771184477 -0.73680920649535853 -0.73347169799802059 -0.71310433845016286
leaf_weight=165.54264968633652 25.46809995174408 8.9887411594390887 14.606704384088514 119.4753512442112 14.232173502445219 20.599198490381241 13.857642620801924 12.734049975872038 11.235926449298857 72.658991038799286 79.400546908378601 11.984988212585447 10.861395567655562 11.23592644929886 7.4906176328659049 70.411805748939514 13.857642620801927 53.557916074991226 25.093569070100784 27.340754359960556 123.59519094228745 36.704026401042938 10.861395567655562 25.842630833387375 15.355766147375105 34.082310229539871 46.816360205411911 14.98123526573181 7.4906176328659049 58.426817536354065
leaf_count=442 68 24 39 319 38 55 37 34 30 194 212 32 29 30 20 188 37 143 67 73 330 98 29 69 41 91 125 40 20 156
internal_value=-0.729158 -0.724445 -0.727906 -0.729363 -0.722964 -0.706968 -0.72542 -0.732879 -0.70764 -0.692476 -0.724038 -0.735211 -0.705187 -0.73746 -0.75017 -0.755789 -0.731083 -0.741863 -0.736787 -0.720253 -0.729031 -0.733035 -0.730575 -0.740536 -0.733341 -0.74849 -0.753914 -0.71206 -0.694757 -0.721037
internal_weight=1164.79 999.248 834.08 808.612 534.83 165.168 72.659 324.718 210.112 92.5091 90.6365 311.984 52.0598 297.752 118.726 111.236 40.8239 273.782 220.224 38.2021 179.026 160.299 19.8501 205.617 133.708 59.9249 71.9099 28.8389 18.7265 73.7826
internal_count=3110 2668 2227 2159 1428 441 194 867 561 247 242 833 139 795 317 297 109 731 588 102 478 428 53 549 357 160 192 77 50 197
is_linear=0
shrinkage=1


end of trees

feature_importances:
days_to_month_end=8
returns_5=7
returns_2=6
day_of_week=6
returns_200=5
volume_ratio_20=5
day_of_month=5
returns_10=4
returns_50=4
price_to_sma_200=4
close_open_range=4
returns_3=3
price_to_sma_20=3
macd_hist=3
high_low_range=3
gap_open=3
returns_20=2
price_to_ema_12=2
ema_12_26_spread=2
rsi_14=2
vwap_distance=2
returns_100=1
sma_20_slope=1
sma_200_slope=1
macd_signal=1
atr_pct_14=1
bollinger_width_20=1
volume_20=1

parameters:
[boosting: gbdt]
[objective: multiclass]
[metric: multi_logloss]
[tree_learner: serial]
[device_type: cpu]
[data_sample_strategy: bagging]
[data: ]
[valid: ]
[num_iterations: 300]
[learning_rate: 0.05]
[num_leaves: 31]
[num_threads: 0]
[seed: 0]
[deterministic: 0]
[force_col_wise: 0]
[force_row_wise: 0]
[histogram_pool_size: -1]
[max_depth: -1]
[min_data_in_leaf: 20]
[min_sum_hessian_in_leaf: 0.001]
[bagging_fraction: 1]
[pos_bagging_fraction: 1]
[neg_bagging_fraction: 1]
[bagging_freq: 0]
[bagging_seed: 3]
[bagging_by_query: 0]
[feature_fraction: 0.8]
[feature_fraction_bynode: 1]
[feature_fraction_seed: 2]
[extra_trees: 0]
[extra_seed: 6]
[early_stopping_round: 0]
[early_stopping_min_delta: 0]
[first_metric_only: 0]
[max_delta_step: 0]
[lambda_l1: 0]
[lambda_l2: 0]
[linear_lambda: 0]
[min_gain_to_split: 0]
[drop_rate: 0.1]
[max_drop: 50]
[skip_drop: 0.5]
[xgboost_dart_mode: 0]
[uniform_drop: 0]
[drop_seed: 4]
[top_rate: 0.2]
[other_rate: 0.1]
[min_data_per_group: 100]
[max_cat_threshold: 32]
[cat_l2: 10]
[cat_smooth: 10]
[max_cat_to_onehot: 4]
[top_k: 20]
[monotone_constraints: ]
[monotone_constraints_method: basic]
[monotone_penalty: 0]
[feature_contri: ]
[forcedsplits_filename: ]
[refit_decay_rate: 0.9]
[cegb_tradeoff: 1]
[cegb_penalty_split: 0]
[cegb_penalty_feature_lazy: ]
[cegb_penalty_feature_coupled: ]
[path_smooth: 0]
[interaction_constraints: ]
[verbosity: -1]
[saved_feature_importance_type: 0]
[use_quantized_grad: 0]
[num_grad_quant_bins: 4]
[quant_train_renew_leaf: 0]
[stochastic_rounding: 1]
[linear_tree: 0]
[max_bin: 255]
[max_bin_by_feature: ]
[min_data_in_bin: 3]
[bin_construct_sample_cnt: 200000]
[data_random_seed: 1]
[is_enable_sparse: 1]
[enable_bundle: 1]
[use_missing: 1]
[zero_as_missing: 0]
[feature_pre_filter: 1]
[pre_partition: 0]
[two_round: 0]
[header: 0]
[label_column: ]
[weight_column: ]
[group_column: ]
[ignore_column: ]
[categorical_feature: ]
[forcedbins_filename: ]
[precise_float_parser: 0]
[parser_config_file: ]
[objective_seed: 5]
[num_class: 3]
[is_unbalance: 0]
[scale_pos_weight: 1]
[sigmoid: 1]
[boost_from_average: 1]
[reg_sqrt: 0]
[alpha: 0.9]
[fair_c: 1]
[poisson_max_delta_step: 0.7]
[tweedie_variance_power: 1.5]
[lambdarank_truncation_level: 30]
[lambdarank_norm: 1]
[label_gain: ]
[lambdarank_position_bias_regularization: 0]
[eval_at: ]
[multi_error_top_k: 1]
[auc_mu_weights: ]
[num_machines: 1]
[local_listen_port: 12400]
[time_out: 120]
[machine_list_filename: ]
[machines: ]
[gpu_platform_id: -1]
[gpu_device_id: -1]
[gpu_use_dp: 0]
[num_gpu: 1]

end of parameters

pandas_categorical:null
