tree
version=v4
num_class=3
num_tree_per_iteration=3
label_index=0
max_feature_idx=49
objective=multiclass num_class:3
feature_names=returns_1 returns_2 returns_3 returns_5 returns_10 returns_20 returns_50 returns_100 returns_200 price_to_sma_20 price_to_sma_50 price_to_sma_200 sma_20_slope sma_50_slope sma_200_slope price_to_ema_12 price_to_ema_26 ema_12_26_spread macd macd_signal macd_hist rsi_14 atr_14 atr_pct_14 bollinger_width_20 bollinger_percent_b_20 volume_20 volume_ratio_20 vwap_distance adx_14 high_low_range close_open_range gap_open day_of_week day_of_month days_to_month_end news_sentiment_1d news_sentiment_7d news_article_count_7d earnings_proximity_days congress_buy_score congress_cluster_30d days_since_last_congress insider_buy_score insider_cluster_60d insider_value_60d ceo_bought_90d analyst_upgrade_score consensus_rating watchlist_research_score
feature_infos=[-0.46351603033124922:0.26089850249584023] [-0.47534638652182404:0.20954051079230651] [-0.4651391483921723:0.39929161747343556] [-0.55492095025246246:0.47267278176369082] [-0.56669426191338546:0.65765958273437197] [-0.67408829174664098:0.88259155658640021] [-0.65180132536102053:1.7955974842767297] [-0.5650914527319022:2.4049916377203138] [-0.71238387828249583:1.3288648763791462] [-0.55223818452583429:0.40983107400899466] [-0.61382668524397055:0.69395929162395387] [-0.55350365112002586:1.0172597103882164] [-0.044300134486764273:0.031590381865713911] [-0.020391195500981917:0.022244471021804355] [-0.0069211220171650776:0.0053883166244692452] [-0.48842550516032518:0.28875830535167119] [-0.55422515379159509:0.40401794011220943] [-1081.1932249923402:664.63497423304034] [-1081.1932249923402:664.63497423304034] [-880.40840946601702:551.21429790752927] [-391.95327486681595:208.84622936354015] [15.720106452948514:88.540047414188649] [0.001526191534160657:797.71442176047856] [0.032865652795768419:0.27727749554110886] [0.072726940232762022:1.2494668087692558] [-0.41079444467978354:1.5068607479413727] [223.05000000000001:46822.5] [0.11702223422450264:7.0900771290412816] [-0.7801146887620668:0.49640998445261197] [34.730555020364612:99.477684528867471] [0.011332944976963423:0.94259500340958402] [-0.4646022104948721:0.25713337757133375] [-0.01650506994300947:0.022467816371144034] [0:6] [1:31] [1:31] none none none none none none none none none none none none none none
tree_sizes=3376 3117 3366

Tree=0
num_leaves=31
num_cat=0
split_feature=31 11 3 3 1 2 33 34 34 32 34 15 34 5 27 2 11 34 3 15 9 26 10 6 27 15 9 6 6 1
split_gain=18.1744 12.2282 9.57837 10.8912 10.5823 10.3362 9.36661 12.6531 9.27691 9.62962 9.45238 8.45184 7.29041 6.94052 6.85013 6.83623 6.24414 5.50333 6.30437 5.86689 6.19656 5.15962 4.87114 4.1479 4.66571 4.05095 5.28113 3.61108 3.63769 3.52565
threshold=-0.010387379178601381 -0.25207883065489128 0.09130718587233029 -0.13106502072733506 -0.021322153211791255 -0.014697082465571146 4.5000000000000009 23.500000000000004 7.5000000000000009 -0.00036116841380682326 10.500000000000002 -0.029192811373783371 23.500000000000004 -0.022352345628305428 0.61025564660310849 0.027349786863323053 0.19655730147816669 24.500000000000004 0.0076019573671957377 -0.011971588113977414 -0.013640484817696492 1201.9750000000001 0.33048491685748432 0.36849792069093934 0.95625292262769779 0.052721286353978943 0.022247010898797659 0.11422236016736428 -0.079731386197175236 0.02838383582462636
decision_type=2 2 2 2 2 2 2 2 2 2 2 2 2 2 2 2 2 2 2 2 2 2 2 2 2 2 2 2 2 2
left_child=1 -1 3 -2 12 11 13 14 9 -7 -10 -6 -5 27 -8 -4 -13 19 -19 -12 -21 29 -17 -15 -25 26 -23 28 -3 -22
right_child=2 6 15 4 5 8 7 -9 10 -11 17 16 -14 23 -16 22 -18 18 -20 20 21 25 -24 24 -26 -27 -28 -29 -30 -31
leaf_value=-0.85379664936558319 -0.75373351712432413 -0.79079803426366713 -0.82471948034959375 -0.85132374049752746 -0.82741777719733789 -0.79668717420914048 -0.81292692375574882 -0.83927393001318351 -0.75908993766575172 -0.84949475140615383 -0.84090926143605871 -0.75113900092457009 -0.79368906660053584 -0.84431487881670675 -0.76241335313804659 -0.77045373263384997 -0.80043480871989625 -0.85201989551500534 -0.8023621636111421 -0.75796161759799729 -0.80043480871989625 -0.80605626048602996 -0.80193386252419852 -0.78919190518762894 -0.83742758808413076 -0.81883228722724288 -0.75473784597584181 -0.77590483737676741 -0.83675803551645234 -0.8486186810010421
leaf_weight=24.830478549003601 9.6357080936431867 7.7826873064041164 9.2651039361953718 21.124436974525455 7.4120831489562979 13.341749668121336 10.006312251091005 12.229937195777891 11.488728880882261 24.459874391555786 7.4120831489562979 19.271416187286381 7.4120831489562979 38.172228217124939 20.383228659629822 46.696123838424683 9.6357080936431867 12.60054135322571 12.971145510673521 10.006312251090995 7.4120831489563042 8.8944997787475639 16.677187085151672 8.8944997787475604 11.488728880882261 8.1532914638519269 11.488728880882261 8.1532914638519269 9.6357080936431903 7.7826873064041138
leaf_count=67 26 21 25 57 20 36 27 33 31 66 20 52 20 103 55 126 26 34 35 27 20 24 45 24 31 22 31 22 26 21
internal_value=-0.807738 -0.821711 -0.800258 -0.80566 -0.808151 -0.803481 -0.815425 -0.796329 -0.809809 -0.830857 -0.801708 -0.779785 -0.836354 -0.8251 -0.779046 -0.784603 -0.767571 -0.807354 -0.826831 -0.799208 -0.793456 -0.801578 -0.778738 -0.83459 -0.816379 -0.789046 -0.777131 -0.803368 -0.816223 -0.825114
internal_weight=434.719 151.577 283.142 210.503 200.867 172.331 126.747 42.6195 136.012 37.8016 98.2101 36.3192 28.5365 84.1271 30.3895 72.6384 28.9071 86.7214 25.5717 61.1497 53.7376 43.7313 63.3733 58.5555 20.3832 28.5365 20.3832 25.5717 17.4184 15.1948
internal_count=1173 409 764 568 542 465 342 115 367 102 265 98 77 227 82 196 78 234 69 165 145 118 171 158 55 77 55 69 47 41
is_linear=0
shrinkage=1


Tree=1
num_leaves=29
num_cat=0
split_feature=11 22 7 21 13 7 11 6 14 2 2 4 33 14 27 11 3 27 22 8 7 4 2 3 5 4 2 2
split_gain=5.41759 4.61765 3.55515 14.0178 5.2224 3.7145 5.10694 13.3394 3.53734 3.96847 16.9765 5.14877 3.54834 3.38705 4.51568 3.18492 3.64603 7.17492 2.06723 1.75127 1.27365 1.13771 5.44121 0.54386 0.417232 0.365837 8.88178e-16 8.88178e-16
threshold=0.6960974817979475 6.535231373713156 0.47359189047112349 52.592381865965855 0.012492756659117232 -0.14450871043667474 -0.11666470004596531 0.095234585076535747 -0.003200543018308682 -0.025507309530333564 -0.03614391119523723 0.029073126579472194 1.0000000180025095e-35 -0.00086035148770087922 0.76549544937702241 -0.3158653272231432 -0.019074088038463655 0.70500448190257436 12.307717315948572 0.081222818353777787 0.004034307215080103 0.055245041194222487 -0.009562082059548685 0.1755496577673494 -1.0000000180025095e-35 0.025060918921419133 0.06228695597951231 0.10390630309906478
decision_type=2 2 2 2 2 2 2 2 2 2 2 2 2 2 2 2 2 2 2 2 2 2 2 2 2 2 2 2
left_child=1 2 4 -4 5 6 15 -8 -3 10 11 24 -11 14 -14 16 -1 -18 -15 -5 -16 -7 -23 27 -10 -9 -17 -24
right_child=-2 8 3 19 -6 21 7 25 9 12 -12 -13 13 18 20 26 17 -19 -20 -21 -22 22 23 -25 -26 -27 -28 -29
leaf_value=-2.9282213873278891 -2.8008559353792699 -2.8069209569006328 -2.7371732094049603 -2.8645386613535795 -2.8263290257689939 -2.9282213873278891 -2.7638788686845093 -2.896380024340734 -2.9282213873278891 -2.8444283268353767 -2.7053318464178062 -2.8174688204160465 -2.9282213873278891 -2.8675711721142609 -2.8645386613535795 -2.9282213873278891 -2.9069938120031193 -2.7690145723921153 -2.9282213873278891 -2.9282213873278891 -2.8008559353792699 -2.8372460645074469 -2.9282213873278891 -2.896380024340734 -2.896380024340734 -2.9282213873278891 -2.9282213873278891 -2.9282213873278891
leaf_weight=2.5909694507718086 1.5702845156192768 1.6487987414002443 1.5702845156192768 1.5702845156192777 1.9628556445240963 18.607871510088451 2.4339409992098764 1.5702845156192782 2.9835405796766277 2.9835405796766308 1.5702845156192804 1.8058271929621694 2.0413698703050711 1.6487987414002336 1.5702845156192782 7.1447945460677147 2.3554267734289183 1.5702845156192777 9.5002213194966298 3.4546259343624115 1.5702845156192777 2.19839832186699 7.1447945460677094 1.5702845156192786 1.5702845156192782 2.1198840960860252 1.7273129671812055 2.0413698703050613
leaf_count=33 20 21 20 20 25 237 31 20 38 38 20 23 26 21 20 91 30 20 121 44 20 28 91 20 20 27 22 26
internal_value=-2.89293 -2.89453 -2.90226 -2.86757 -2.90642 -2.90938 -2.89336 -2.85474 -2.87804 -2.88234 -2.85256 -2.88891 -2.89457 -2.90373 -2.87033 -2.90873 -2.88219 -2.8518 -2.91925 -2.90832 -2.8327 -2.9203 -2.90892 -2.92357 -2.91724 -2.91467 -2.92822 -2.92822
internal_weight=92.0972 90.5269 61.6337 6.59519 55.0385 53.0756 21.5129 6.12411 28.8932 27.2444 7.92994 6.35965 19.3145 16.331 5.18194 15.3888 6.51668 3.92571 11.149 5.02491 3.14057 31.5627 12.9548 10.7564 4.55383 3.69017 8.87211 9.18616
internal_count=1173 1153 785 84 701 676 274 78 368 347 101 81 246 208 66 196 83 50 142 64 40 402 165 137 58 47 113 117
is_linear=0
shrinkage=1


Tree=2
num_leaves=31
num_cat=0
split_feature=0 11 33 24 5 3 3 4 2 1 6 35 4 9 14 6 2 21 21 28 11 17 33 3 5 29 3 35 35 31
split_gain=22.0872 13.1567 9.50367 13.8158 7.95368 7.42535 8.9215 7.2436 8.47017 8.20518 6.58238 6.10211 7.20496 10.8555 10.3459 5.96108 5.17903 7.7375 7.39308 5.11597 4.73741 6.85163 4.46866 4.33523 4.22438 3.9838 3.78704 3.70926 6.63123 5.28566
threshold=-0.010172578701312775 -0.25207883065489128 4.5000000000000009 0.20215985484551308 -0.022352345628305428 -0.13106502072733506 0.080433033224745307 -0.11318049672926338 -0.01895164026715726 -0.016694234067057882 0.21026522727141056 23.500000000000004 0.10963547090107474 0.11164983846046415 -0.0012541261336411591 -0.039527220274305767 0.066745041751583425 71.748513481670798 62.745235960883385 -0.43593525941966688 0.1493035860141842 0.13977996342642721 1.5000000000000002 0.0084557439395507202 0.16633316200131601 56.434551950763776 0.10119002803651202 4.5000000000000009 10.500000000000002 -0.025271730090731134
decision_type=2 2 2 2 2 2 2 2 2 2 2 2 2 2 2 2 2 2 2 2 2 2 2 2 2 2 2 2 2 2
left_child=1 -1 4 -4 25 -2 7 -7 9 10 -9 12 14 -14 15 -10 18 -18 26 -16 -21 -22 -11 -13 -5 -3 -8 -6 -29 -30
right_child=5 2 3 24 27 6 16 8 11 22 -12 23 13 -15 19 -17 17 -19 -20 20 21 -23 -24 -25 -26 -27 -28 28 29 -31
leaf_value=-0.64705233478556168 -0.74681988471508631 -0.68415531124100259 -0.66119384108398338 -0.74099234091079158 -0.63521964584198432 -0.66024315158492985 -0.70220420934940631 -0.67924109674101685 -0.63442598987625654 -0.70765879035022616 -0.73553775990997183 -0.69744227355503985 -0.76220460035842419 -0.68753744710275755 -0.73751308142467198 -0.68377271668650541 -0.73926538276835763 -0.69553749923729324 -0.72553769474180219 -0.67448473046219926 -0.68442631571710477 -0.73413424199163224 -0.75290221415547565 -0.66105451589877728 -0.70408456348359205 -0.7241091140034922 -0.65311298034202814 -0.71553762957363254 -0.64822536295778099 -0.68267191831918028
leaf_weight=24.749838709831238 9.7499364614486677 15.374899804592134 12.374919354915617 16.499892473220829 7.8749486804008475 12.749916911125181 7.4999511241912868 16.874890029430393 8.9999413490295428 8.2499462366104144 7.4999511241912833 13.124914467334746 10.124934017658235 9.3749389052391034 10.124934017658232 19.124875366687775 34.874772727489471 14.249907135963438 14.999902248382567 14.249907135963438 13.499912023544313 14.249907135963438 16.124894917011261 21.749858260154724 14.624904692173002 10.499931573867796 8.2499462366104108 7.4999511241912833 23.249848484992977 21.374860703945163
leaf_count=66 26 41 33 44 21 34 20 45 24 22 20 35 27 25 27 51 93 38 40 38 36 38 43 58 39 28 22 20 62 57
internal_value=-0.695708 -0.680452 -0.686842 -0.705882 -0.677197 -0.703937 -0.702422 -0.696685 -0.699219 -0.717076 -0.696563 -0.692752 -0.699046 -0.726307 -0.692422 -0.667982 -0.716508 -0.726581 -0.700416 -0.70561 -0.697918 -0.709952 -0.737589 -0.674749 -0.72365 -0.700368 -0.67649 -0.667204 -0.672036 -0.664725
internal_weight=439.872 154.124 129.374 43.4997 85.8744 285.748 275.998 196.124 183.374 48.7497 24.3748 134.624 99.7493 19.4999 80.2495 28.1248 79.8745 49.1247 30.7498 52.1247 41.9997 27.7498 24.3748 34.8748 31.1248 25.8748 15.7499 59.9996 52.1247 44.6247
internal_count=1173 411 345 116 229 762 736 523 489 130 65 359 266 52 214 75 213 131 82 139 112 74 65 93 83 69 42 160 139 119
is_linear=0
shrinkage=1


end of trees

feature_importances:
returns_3=9
returns_5=9
price_to_sma_200=7
returns_50=6
returns_10=5
day_of_month=5
returns_20=4
volume_ratio_20=4
day_of_week=4
returns_2=3
returns_100=3
price_to_sma_20=3
sma_200_slope=3
price_to_ema_12=3
rsi_14=3
days_to_month_end=3
atr_14=2
close_open_range=2
returns_1=1
returns_200=1
price_to_sma_50=1
sma_50_slope=1
ema_12_26_spread=1
bollinger_width_20=1
volume_20=1
vwap_distance=1
adx_14=1
gap_open=1

parameters:
[boosting: gbdt]
[objective: multiclass]
[metric: multi_logloss]
[tree_learner: serial]
[device_type: cpu]
[data_sample_strategy: bagging]
[data: ]
[valid: ]
[num_iterations: 300]
[learning_rate: 0.05]
[num_leaves: 31]
[num_threads: 0]
[seed: 0]
[deterministic: 0]
[force_col_wise: 0]
[force_row_wise: 0]
[histogram_pool_size: -1]
[max_depth: -1]
[min_data_in_leaf: 20]
[min_sum_hessian_in_leaf: 0.001]
[bagging_fraction: 1]
[pos_bagging_fraction: 1]
[neg_bagging_fraction: 1]
[bagging_freq: 0]
[bagging_seed: 3]
[bagging_by_query: 0]
[feature_fraction: 0.8]
[feature_fraction_bynode: 1]
[feature_fraction_seed: 2]
[extra_trees: 0]
[extra_seed: 6]
[early_stopping_round: 0]
[early_stopping_min_delta: 0]
[first_metric_only: 0]
[max_delta_step: 0]
[lambda_l1: 0]
[lambda_l2: 0]
[linear_lambda: 0]
[min_gain_to_split: 0]
[drop_rate: 0.1]
[max_drop: 50]
[skip_drop: 0.5]
[xgboost_dart_mode: 0]
[uniform_drop: 0]
[drop_seed: 4]
[top_rate: 0.2]
[other_rate: 0.1]
[min_data_per_group: 100]
[max_cat_threshold: 32]
[cat_l2: 10]
[cat_smooth: 10]
[max_cat_to_onehot: 4]
[top_k: 20]
[monotone_constraints: ]
[monotone_constraints_method: basic]
[monotone_penalty: 0]
[feature_contri: ]
[forcedsplits_filename: ]
[refit_decay_rate: 0.9]
[cegb_tradeoff: 1]
[cegb_penalty_split: 0]
[cegb_penalty_feature_lazy: ]
[cegb_penalty_feature_coupled: ]
[path_smooth: 0]
[interaction_constraints: ]
[verbosity: -1]
[saved_feature_importance_type: 0]
[use_quantized_grad: 0]
[num_grad_quant_bins: 4]
[quant_train_renew_leaf: 0]
[stochastic_rounding: 1]
[linear_tree: 0]
[max_bin: 255]
[max_bin_by_feature: ]
[min_data_in_bin: 3]
[bin_construct_sample_cnt: 200000]
[data_random_seed: 1]
[is_enable_sparse: 1]
[enable_bundle: 1]
[use_missing: 1]
[zero_as_missing: 0]
[feature_pre_filter: 1]
[pre_partition: 0]
[two_round: 0]
[header: 0]
[label_column: ]
[weight_column: ]
[group_column: ]
[ignore_column: ]
[categorical_feature: ]
[forcedbins_filename: ]
[precise_float_parser: 0]
[parser_config_file: ]
[objective_seed: 5]
[num_class: 3]
[is_unbalance: 0]
[scale_pos_weight: 1]
[sigmoid: 1]
[boost_from_average: 1]
[reg_sqrt: 0]
[alpha: 0.9]
[fair_c: 1]
[poisson_max_delta_step: 0.7]
[tweedie_variance_power: 1.5]
[lambdarank_truncation_level: 30]
[lambdarank_norm: 1]
[label_gain: ]
[lambdarank_position_bias_regularization: 0]
[eval_at: ]
[multi_error_top_k: 1]
[auc_mu_weights: ]
[num_machines: 1]
[local_listen_port: 12400]
[time_out: 120]
[machine_list_filename: ]
[machines: ]
[gpu_platform_id: -1]
[gpu_device_id: -1]
[gpu_use_dp: 0]
[num_gpu: 1]

end of parameters

pandas_categorical:null
