tree
version=v4
num_class=3
num_tree_per_iteration=3
label_index=0
max_feature_idx=49
objective=multiclass num_class:3
feature_names=returns_1 returns_2 returns_3 returns_5 returns_10 returns_20 returns_50 returns_100 returns_200 price_to_sma_20 price_to_sma_50 price_to_sma_200 sma_20_slope sma_50_slope sma_200_slope price_to_ema_12 price_to_ema_26 ema_12_26_spread macd macd_signal macd_hist rsi_14 atr_14 atr_pct_14 bollinger_width_20 bollinger_percent_b_20 volume_20 volume_ratio_20 vwap_distance adx_14 high_low_range close_open_range gap_open day_of_week day_of_month days_to_month_end news_sentiment_1d news_sentiment_7d news_article_count_7d earnings_proximity_days congress_buy_score congress_cluster_30d days_since_last_congress insider_buy_score insider_cluster_60d insider_value_60d ceo_bought_90d analyst_upgrade_score consensus_rating watchlist_research_score
feature_infos=[-0.23669859542711175:0.95901809954751138] [-0.25501740413865104:1.0879212561970717] [-0.26716760592778127:1.1121952647421858] [-0.32352327280317267:1.1294303392781611] [-0.33257825370675448:1.6429704899685207] [-0.4655586017820425:2.8694726382284048] [-0.5024954627949183:4.1278264795515254] [-0.57135176202442872:5.2832392001221189] [-0.67693323685005513:6.4700416382413133] [-0.30699668940385461:1.0351961355327639] [-0.37069737787211254:2.0753361168574758] [-0.5488085651200707:3.343803735319038] [-0.030930649235915698:0.077567093194863282] [-0.014224026050638452:0.052091164939410725] [-0.0068915989159890343:0.017924211834941941] [-0.21861370689224674:0.80830414731520384] [-0.30261521082168574:1.0393874582664551] [-3291.4494032202783:7046.685826682573] [-3291.4494032202783:7046.685826682573] [-1974.4220809851156:6424.2650866106014] [-1381.5858638280774:1881.1334246642791] [24.410910457170843:94.970763279254342] [0.0024827119514081795:4676.5219044631331] [0.015623228217062255:0.17242591367122931] [0.031008573839653553:1.5682375260380195] [-0.4230463427918244:1.5740837565397581] [430.30000000000001:99106.649999999994] [0.14906602552247086:9.1765050534641865] [-0.9356432961424147:3.4612912458842828] [5.4776670068294182:99.477684528867471] [0.0054141713380921139:0.52890103316140924] [-0.23887853739091583:0.95892946020542058] [-0.0082158679017317205:0.011848341232227427] [0:6] [1:31] [1:31] none none none none none none none none none none none none none none
tree_sizes=3378 3303 3382

Tree=0
num_leaves=31
num_cat=0
split_feature=34 23 7 33 33 34 34 5 34 34 1 10 11 31 34 3 33 33 15 34 2 34 10 34 17 34 24 1 34 34
split_gain=11.7631 13.239 13.1774 19.3788 34.2742 27.1968 19.0737 20.2143 17.3601 19.9039 18.7533 18.7836 15.456 15.1025 15.0069 14.281 16.2512 14.8604 13.2565 13.1953 12.489 16.4164 10.8282 9.95274 9.8158 12.1315 9.80919 9.69652 11.3938 8.98355
threshold=29.500000000000004 0.088632799233923587 -0.084613879782795817 2.5000000000000004 3.5000000000000004 27.500000000000004 19.500000000000004 0.1612567137020445 10.500000000000002 8.5000000000000018 -0.051010802464706927 -0.062646799747733586 0.29911942737179481 -0.027103699071174828 2.5000000000000004 -0.008000569746546787 4.5000000000000009 1.5000000000000002 -0.059083728229753781 19.500000000000004 0.038109146577999159 8.5000000000000018 -0.10475601760061727 13.500000000000002 0.022594590733562684 4.5000000000000009 0.48352898902525021 -0.047635653068154739 5.5000000000000009 3.5000000000000004
decision_type=2 2 2 2 2 2 2 2 2 2 2 2 2 2 2 2 2 2 2 2 2 2 2 2 2 2 2 2 2 2
left_child=2 -2 14 5 6 13 -5 -8 9 24 -10 -12 -13 19 18 22 17 -17 -1 -4 21 27 -16 -18 25 -6 -23 -15 -29 -22
right_child=1 -3 3 4 8 -7 7 -9 10 -11 11 12 -14 20 15 16 23 -19 -20 -21 29 26 -24 -25 -26 -27 -28 28 -30 -31
leaf_value=-0.78114328746915618 -0.72968631393833105 -0.78926599746712556 -0.72265977548377702 -0.8128487825717271 -0.7607730538023737 -0.81796623945995051 -0.73484384048073104 -0.80754209496255647 -0.79846750488670015 -0.82137004174481376 -0.72373197320350902 -0.77539286426965925 -0.74442342185907007 -0.70032232298936137 -0.77712513837441599 -0.75905347857223959 -0.78232239053337749 -0.79749773712949712 -0.71181015570077522 -0.76895922247220216 -0.78520464246814081 -0.76965698830903218 -0.80408136288595689 -0.72768570229502061 -0.75228629142373882 -0.81200958546143964 -0.80551141746306421 -0.78114328746915618 -0.71193779828645753 -0.73698411009924358
leaf_weight=12.311162531375887 38.425749719142914 12.311162531375883 61.555812656879425 67.52486115694046 23.876194000244141 16.787948906421661 20.518604218959808 17.907145500183105 23.876194000244141 23.503128468990326 46.633191406726837 79.836023688316345 81.328285813331604 11.191965937614439 70.136319875717163 45.887060344219208 11.565031468868254 55.58676415681839 15.668752312660216 20.518604218959808 11.191965937614439 84.685875594615936 79.462958157062531 29.845242500305176 42.529470562934875 22.383931875228882 24.62232506275177 16.41488337516785 9.3266382813453657 70.509385406970978
leaf_count=33 103 33 165 181 64 45 55 48 64 63 125 214 218 30 188 123 31 149 42 55 30 227 213 80 114 60 66 44 25 189
internal_value=-0.76768 -0.744143 -0.768769 -0.765249 -0.77198 -0.755982 -0.796845 -0.768723 -0.764321 -0.780455 -0.7565 -0.751678 -0.759765 -0.752626 -0.777299 -0.780646 -0.769341 -0.780113 -0.742317 -0.734235 -0.759248 -0.767996 -0.791444 -0.742945 -0.769625 -0.785565 -0.777733 -0.739176 -0.756069 -0.74359
internal_weight=1147.92 50.7369 1097.19 776.722 449.917 326.805 105.951 38.4257 343.966 112.293 231.674 207.798 161.164 310.017 320.463 292.483 142.884 101.474 27.9799 82.0744 227.943 146.242 149.599 41.4103 88.7896 46.2601 109.308 36.9335 25.7415 81.7014
internal_count=3077 136 2941 2082 1206 876 284 103 922 301 621 557 432 831 859 784 383 272 75 220 611 392 401 111 238 124 293 99 69 219
is_linear=0
shrinkage=1


Tree=1
num_leaves=31
num_cat=0
split_feature=20 30 3 30 2 35 34 4 27 33 8 2 27 2 22 6 6 8 22 20 15 2 19 33 10 13 22 30 34 3
split_gain=30.7716 14.8513 20.8167 9.79754 6.8032 7.93847 9.44091 13.4562 7.9356 23.2982 19.8294 9.45225 6.59403 6.16248 5.86771 5.49538 10.2706 13.5397 4.98084 4.54958 10.0681 4.2152 4.09462 11.701 3.44068 5.66202 3.25631 2.92183 4.62897 2.41493
threshold=-21.735621144765069 0.038867233568722778 -0.02091280550464188 0.057584369969227632 -0.0032430856085502459 23.500000000000004 9.5000000000000018 -0.028263947962184854 0.61417191409416294 3.5000000000000004 0.029654363208041292 -0.050226803742334451 0.65685821712666004 -0.02576986252651306 0.21996821752233023 0.36488739367333684 0.53226298123007987 0.23672786828690465 0.019144489863750211 0.00010585357675144386 0.0082323177840052646 0.0095954698052204013 5.7405388369899972 2.5000000000000004 0.09368240443993818 0.0029771424681499336 2.1097125548236115 0.037001553283442824 4.5000000000000009 -0.027419095817010641
decision_type=2 2 2 2 2 2 2 2 2 2 2 2 2 2 2 2 2 2 2 2 2 2 2 2 2 2 2 2 2 2
left_child=1 2 -1 4 5 6 -2 -8 14 11 -11 -10 -4 -3 -9 18 17 -17 19 20 21 -6 29 -24 -20 -26 -18 28 -7 -5
right_child=3 13 12 22 15 27 7 8 9 10 -12 -13 -14 -15 -16 16 26 -19 24 -21 -22 -23 23 -25 25 -27 -28 -29 -30 -31
leaf_value=-2.772852477921778 -2.922256418897375 -3.1038237082774396 -3.069632465472103 -3.0760498987371045 -2.9909926070198276 -2.9880995018593763 -3.0865975859480335 -2.9880995018593763 -2.9481946030945267 -2.971081236209661 -2.7277200374187331 -3.081029546407215 -2.9157718728480866 -2.9824999434843087 -3.1038237082774396 -3.0662133411915691 -3.1038237082774396 -2.8405511386763451 -3.0949742101395881 -3.0790256640449978 -2.9075957060902886 -3.1038237082774396 -3.10382370827744 -2.9575611696101651 -2.9670587370560919 -3.0871079895726083 -3.0202451147532829 -3.10382370827744 -3.1038237082774396 -3.09150590246329
leaf_weight=1.6617758199572561 1.9276599511504198 2.1270730495452881 1.462362721562384 43.206171318888664 1.3294206559658035 1.728246852755545 8.7077052965760249 1.7282468527555455 1.9276599511504162 2.260015115141869 1.3294206559658048 4.3870881646871558 1.3294206559658048 2.0606020167469978 2.9911964759230614 1.3294206559658044 3.3235516399145126 1.3294206559658048 28.250188939273357 6.048863984644413 1.5288337543606756 2.1935440823435783 3.1906095743179312 2.3929571807384491 1.4623627215623844 2.9911964759230614 1.7947178855538366 5.9159219190478325 1.7282468527555463 60.887466043233871
leaf_count=25 29 32 22 650 20 26 131 26 29 34 20 66 20 31 45 20 50 20 425 91 23 33 48 36 22 45 27 89 26 916
internal_value=-3.06887 -2.97653 -2.91297 -3.07294 -3.06033 -3.04319 -3.0286 -3.03739 -3.00809 -2.98266 -2.88095 -3.04048 -2.99637 -3.04412 -3.06145 -3.07184 -3.0331 -2.95338 -3.07871 -3.04977 -3.01475 -3.06125 -3.08285 -3.04114 -3.08853 -3.04769 -3.07452 -3.08248 -3.04596 -3.08509
internal_weight=204.531 8.64123 4.45356 195.89 86.2129 34.6314 25.259 23.3313 14.6236 9.90418 3.58944 6.31475 2.79178 4.18768 4.71944 51.5815 7.77711 2.65884 43.8044 11.1007 5.0518 3.52296 109.677 5.58357 32.7037 4.45356 5.11827 9.37242 3.45649 104.094
internal_count=3077 130 67 2947 1297 521 380 351 220 149 54 95 42 63 71 776 117 40 659 167 76 53 1650 84 492 67 77 141 52 1566
is_linear=0
shrinkage=1


Tree=2
num_leaves=31
num_cat=0
split_feature=1 31 35 11 13 35 35 4 3 35 35 31 23 35 5 25 35 2 33 33 33 35 3 35 11 35 1 35 17 35
split_gain=14.2928 13.2406 14.4821 11.9052 20.5346 14.7372 9.89197 9.48452 12.4075 12.4255 10.7036 12.4942 10.6735 9.63905 11.3606 9.38215 12.3187 9.86635 10.428 14.8293 18.3886 26.8773 16.4274 15.6231 14.5032 13.1041 15.5108 13.1336 9.84159 11.2426
threshold=-0.15127598795896527 -0.063304183051656568 13.500000000000002 -0.15994859304011733 -0.0084124523279978224 3.5000000000000004 30.500000000000004 -0.11606874773515556 0.013067650311631445 27.500000000000004 22.500000000000004 -0.037284566872680121 0.0570830719918426 18.500000000000004 -0.029930872235599502 0.21643121447233096 10.500000000000002 -0.12221359556879374 1.0000000180025095e-35 3.5000000000000004 2.5000000000000004 9.5000000000000018 0.14846964557398587 7.5000000000000009 0.30563334961464289 6.5000000000000009 0.014536513379536407 8.5000000000000018 -0.0075679623658155412 27.500000000000004
decision_type=2 2 2 2 2 2 2 2 2 2 2 2 2 2 2 2 2 2 2 2 2 2 2 2 2 2 2 2 2 2
left_child=-1 2 -2 5 -5 -3 15 10 9 -9 -7 -12 -11 14 -10 16 -6 -17 -19 20 25 23 28 -22 -24 26 -20 -27 -21 -30
right_child=1 3 -4 4 6 7 -8 8 13 12 11 -13 -14 -15 -16 17 -18 18 19 22 21 -23 24 -25 -26 27 -28 -29 29 -31
leaf_value=-0.67204508294672405 -0.7072384754592389 -0.74583092290077002 -0.76007970552147874 -0.76422296855303229 -0.68492832484346222 -0.68244473408317252 -0.67447531721229415 -0.67768229301953475 -0.74900250135644331 -0.75596531540303702 -0.68942256452311224 -0.75071266620999266 -0.68831607998192179 -0.68876445933848263 -0.70419618219345115 -0.6746880649931184 -0.71748660619817728 -0.7356979985127291 -0.65774519385215202 -0.74849578584428056 -0.6987969474415312 -0.66936091691830557 -0.66506761034424278 -0.76835179512802987 -0.71940764852238992 -0.76737683071318252 -0.72521566293889372 -0.71944108031651943 -0.72113282989885319 -0.77144841505927819
leaf_weight=19.491298317909241 21.365461617708206 20.61579629778862 32.985274076461792 22.489959597587585 50.602409094572067 13.868808418512343 14.243641078472136 91.084336370229721 24.364122897386551 10.495314478874208 11.619812458753584 29.236947476863861 13.119143098592756 31.860776096582413 33.734939396381378 12.36947777867317 68.219544112682343 88.460507750511169 17.617135018110275 60.722890913486481 20.990628957748413 56.599731653928757 18.741632997989655 13.119143098592756 35.609102696180344 16.117804378271103 16.492637038230896 125.94377374649048 149.18339866399765 11.994645118713377
leaf_count=52 57 55 88 60 135 37 38 243 65 28 31 78 35 85 90 33 182 236 47 162 56 151 50 35 95 43 44 336 398 32
internal_value=-0.714498 -0.715228 -0.739308 -0.714015 -0.717123 -0.705143 -0.715759 -0.701909 -0.696965 -0.686062 -0.720398 -0.733282 -0.718382 -0.710866 -0.722986 -0.71653 -0.703621 -0.718912 -0.719778 -0.717186 -0.70878 -0.690489 -0.725306 -0.725549 -0.70067 -0.718198 -0.690368 -0.72488 -0.73134 -0.724877
internal_weight=1153.36 1133.87 54.3507 1079.52 799.518 280 777.028 259.384 204.659 114.699 54.7256 40.8568 23.6145 89.9598 58.0991 762.784 118.822 643.963 631.593 543.133 266.881 90.7095 276.252 34.1098 54.3507 176.171 34.1098 142.062 221.901 161.178
internal_count=3077 3025 145 2880 2133 747 2073 692 546 306 146 109 63 240 155 2035 317 1718 1685 1449 712 242 737 91 145 470 91 379 592 430
is_linear=0
shrinkage=1


end of trees

feature_importances:
day_of_month=14
days_to_month_end=13
day_of_week=9
returns_3=6
returns_5=5
returns_2=4
price_to_sma_50=3
price_to_sma_200=3
atr_14=3
high_low_range=3
close_open_range=3
returns_10=2
returns_20=2
returns_50=2
returns_200=2
sma_50_slope=2
price_to_ema_12=2
ema_12_26_spread=2
macd_hist=2
atr_pct_14=2
volume_ratio_20=2
returns_100=1
macd_signal=1
bollinger_width_20=1
bollinger_percent_b_20=1

parameters:
[boosting: gbdt]
[objective: multiclass]
[metric: multi_logloss]
[tree_learner: serial]
[device_type: cpu]
[data_sample_strategy: bagging]
[data: ]
[valid: ]
[num_iterations: 300]
[learning_rate: 0.05]
[num_leaves: 31]
[num_threads: 0]
[seed: 0]
[deterministic: 0]
[force_col_wise: 0]
[force_row_wise: 0]
[histogram_pool_size: -1]
[max_depth: -1]
[min_data_in_leaf: 20]
[min_sum_hessian_in_leaf: 0.001]
[bagging_fraction: 1]
[pos_bagging_fraction: 1]
[neg_bagging_fraction: 1]
[bagging_freq: 0]
[bagging_seed: 3]
[bagging_by_query: 0]
[feature_fraction: 0.8]
[feature_fraction_bynode: 1]
[feature_fraction_seed: 2]
[extra_trees: 0]
[extra_seed: 6]
[early_stopping_round: 0]
[early_stopping_min_delta: 0]
[first_metric_only: 0]
[max_delta_step: 0]
[lambda_l1: 0]
[lambda_l2: 0]
[linear_lambda: 0]
[min_gain_to_split: 0]
[drop_rate: 0.1]
[max_drop: 50]
[skip_drop: 0.5]
[xgboost_dart_mode: 0]
[uniform_drop: 0]
[drop_seed: 4]
[top_rate: 0.2]
[other_rate: 0.1]
[min_data_per_group: 100]
[max_cat_threshold: 32]
[cat_l2: 10]
[cat_smooth: 10]
[max_cat_to_onehot: 4]
[top_k: 20]
[monotone_constraints: ]
[monotone_constraints_method: basic]
[monotone_penalty: 0]
[feature_contri: ]
[forcedsplits_filename: ]
[refit_decay_rate: 0.9]
[cegb_tradeoff: 1]
[cegb_penalty_split: 0]
[cegb_penalty_feature_lazy: ]
[cegb_penalty_feature_coupled: ]
[path_smooth: 0]
[interaction_constraints: ]
[verbosity: -1]
[saved_feature_importance_type: 0]
[use_quantized_grad: 0]
[num_grad_quant_bins: 4]
[quant_train_renew_leaf: 0]
[stochastic_rounding: 1]
[linear_tree: 0]
[max_bin: 255]
[max_bin_by_feature: ]
[min_data_in_bin: 3]
[bin_construct_sample_cnt: 200000]
[data_random_seed: 1]
[is_enable_sparse: 1]
[enable_bundle: 1]
[use_missing: 1]
[zero_as_missing: 0]
[feature_pre_filter: 1]
[pre_partition: 0]
[two_round: 0]
[header: 0]
[label_column: ]
[weight_column: ]
[group_column: ]
[ignore_column: ]
[categorical_feature: ]
[forcedbins_filename: ]
[precise_float_parser: 0]
[parser_config_file: ]
[objective_seed: 5]
[num_class: 3]
[is_unbalance: 0]
[scale_pos_weight: 1]
[sigmoid: 1]
[boost_from_average: 1]
[reg_sqrt: 0]
[alpha: 0.9]
[fair_c: 1]
[poisson_max_delta_step: 0.7]
[tweedie_variance_power: 1.5]
[lambdarank_truncation_level: 30]
[lambdarank_norm: 1]
[label_gain: ]
[lambdarank_position_bias_regularization: 0]
[eval_at: ]
[multi_error_top_k: 1]
[auc_mu_weights: ]
[num_machines: 1]
[local_listen_port: 12400]
[time_out: 120]
[machine_list_filename: ]
[machines: ]
[gpu_platform_id: -1]
[gpu_device_id: -1]
[gpu_use_dp: 0]
[num_gpu: 1]

end of parameters

pandas_categorical:null
