tree
version=v4
num_class=3
num_tree_per_iteration=3
label_index=0
max_feature_idx=49
objective=multiclass num_class:3
feature_names=returns_1 returns_2 returns_3 returns_5 returns_10 returns_20 returns_50 returns_100 returns_200 price_to_sma_20 price_to_sma_50 price_to_sma_200 sma_20_slope sma_50_slope sma_200_slope price_to_ema_12 price_to_ema_26 ema_12_26_spread macd macd_signal macd_hist rsi_14 atr_14 atr_pct_14 bollinger_width_20 bollinger_percent_b_20 volume_20 volume_ratio_20 vwap_distance adx_14 high_low_range close_open_range gap_open day_of_week day_of_month days_to_month_end news_sentiment_1d news_sentiment_7d news_article_count_7d earnings_proximity_days congress_buy_score congress_cluster_30d days_since_last_congress insider_buy_score insider_cluster_60d insider_value_60d ceo_bought_90d analyst_upgrade_score consensus_rating watchlist_research_score
feature_infos=[-0.16349206349206349:0.29515686871763647] [-0.16982967124374548:0.4166820844896702] [-0.2619436808083811:0.47864568246918354] [-0.26004692912212751:0.54310952876767549] [-0.33013202174475792:0.54614485981308414] [-0.46322187188848324:0.729274188279872] [-0.42800618921308575:1.2516887186629528] [-0.47564469914040108:2.3264864864864867] [-0.78087322251151603:4.75399223133362] [-0.31311412639183195:0.47777200886552357] [-0.38351664007158537:0.61792388343797255] [-0.50215841889201629:1.494214133655106] [-0.028784870122629754:0.032162706473166269] [-0.0091701054562127928:0.017908754201545737] [-0.0091696643073597046:0.0093415221927417511] [-0.23785529034842035:0.33766199666917296] [-0.31296333915809815:0.43104063753072436] [-317.35011767540345:1055.5155281661955] [-317.35011767540345:1055.5155281661955] [-212.67755891006144:870.43699320189285] [-344.49628125666788:342.53445733097578] [24.767053006543151:88.740792721165661] [0.0051521820303039572:1124.4027549109048] [0.020948257689859147:0.14524172549485226] [0.041408427415471127:0.77347231022531882] [-0.20898408931159662:1.5351424536536094] [887:45060.599999999999] [0.24100737988336687:7.1249142277514244] [-0.7494149391948246:0.92293137160359517] [34.730555020364612:99.477684528867471] [0.0064221527642118045:0.45741732865324214] [-0.16290742740961933:0.29673681000304986] [-0.0097954062922215538:0.021911349847354718] [0:6] [1:31] [1:31] none none none none none none none none none none none none none none
tree_sizes=3356 1987 3361

Tree=0
num_leaves=31
num_cat=0
split_feature=31 14 24 22 10 1 9 5 34 34 28 17 28 33 20 1 23 33 2 33 6 28 24 19 34 15 5 5 16 9
split_gain=10.0852 5.79984 6.31453 6.81066 6.13214 5.85321 9.73838 5.50735 5.38842 6.61355 5.77429 5.33766 5.55018 4.96463 4.76131 4.6204 4.60131 4.4138 4.3887 4.3509 4.1562 3.34735 4.22374 3.07727 3.31918 2.60616 2.39096 2.20924 1.96028 1.86082
threshold=0.016806285361502506 -0.00088601607051234151 0.22960675191760291 6.1151467076123982 0.35032139902112019 -0.018640365757608624 0.016797958419859305 0.063167987440848269 4.5000000000000009 8.5000000000000018 -0.24934682037692793 9.9498977877255843 -0.11861087765053606 4.5000000000000009 -0.96465438656077385 -0.055976049858850102 0.071188365626772984 2.5000000000000004 -0.011272944240759376 4.5000000000000009 0.065368160555656821 0.39051385417672763 0.43220303672029453 0.021012781684466009 16.500000000000004 0.050964737779639224 0.012972961453112013 0.037654017927782758 -0.071140676143326059 0.047159889322129854
decision_type=2 2 2 2 2 2 2 2 2 2 2 2 2 2 2 2 2 2 2 2 2 2 2 2 2 2 2 2 2 2
left_child=1 5 7 15 11 27 13 18 -2 25 23 12 -5 14 -7 -4 -17 -8 -3 21 -20 22 -12 26 -25 -10 -11 -1 -18 -19
right_child=8 2 3 4 -6 6 17 -9 9 10 19 -13 -14 -15 -16 16 28 29 20 -21 -22 -23 -24 24 -26 -27 -28 -29 -30 -31
leaf_value=-0.85458303618190512 -0.75828492065186248 -0.84917584484579578 -0.81129171054717941 -0.83043055149410205 -0.76891284845042229 -0.83826007733602492 -0.80970533603018857 -0.78817596758531194 -0.84596532498998078 -0.7708391603639112 -0.84143282637000671 -0.84479786322422989 -0.78361364989546956 -0.7640970686666998 -0.78618323112308197 -0.80454961884996812 -0.77728811763950467 -0.83286640397825584 -0.78432334375833401 -0.77353599704279574 -0.83411109783004878 -0.78432334375833401 -0.79459700729694172 -0.78224885400534583 -0.74075905894558358 -0.80454961884996812 -0.81006587569314104 -0.82477589394160222 -0.74625035535055206 -0.86522844412487043
leaf_weight=14.090583026409151 10.753339678049086 15.573802292346953 9.2701204121112806 11.494949311017988 7.7869011461734763 7.4160963296890285 12.607363760471346 10.382534861564634 7.7869011461734754 7.416096329689025 12.607363760471349 12.236558943986891 14.090583026409151 10.382534861564634 10.753339678049089 7.4160963296890285 8.5285107791423815 9.2701204121112841 7.4160963296890285 9.2701204121112806 9.6409252285957319 7.416096329689025 7.7869011461734763 9.6409252285957354 9.6409252285957319 7.4160963296890259 8.1577059626579267 11.124144494533537 12.607363760471342 8.528510779142378
leaf_count=38 29 42 25 31 21 20 34 28 21 20 34 33 38 28 29 20 23 25 20 25 26 20 21 26 26 20 22 30 34 23
internal_value=-0.804939 -0.811102 -0.804332 -0.796309 -0.809318 -0.821271 -0.812649 -0.819894 -0.791678 -0.795799 -0.789467 -0.817637 -0.804647 -0.791678 -0.807439 -0.780622 -0.770664 -0.83234 -0.829986 -0.803201 -0.812464 -0.81309 -0.82355 -0.774856 -0.761504 -0.825763 -0.791386 -0.841433 -0.758774 -0.848373
internal_weight=308.51 210.617 126.444 83.4311 45.609 84.1727 58.958 43.0134 97.8925 87.1391 71.9361 37.8221 25.5855 28.552 18.1694 37.8221 28.552 30.406 32.6308 37.0805 17.057 27.8104 20.3943 34.8557 19.2819 15.203 15.5738 25.2147 21.1359 17.7986
internal_count=832 568 341 225 123 227 159 116 264 235 194 102 69 77 49 102 77 82 88 100 46 75 55 94 52 41 42 68 57 48
is_linear=0
shrinkage=1


Tree=1
num_leaves=18
num_cat=0
split_feature=30 19 8 10 27 31 3 17 15 11 14 27 20 4 6 2 2
split_gain=21.9044 15.2362 13.6419 12.419 3.22614 5.48692 8.59025 3.74748 3.40355 1.98805 5.4353 1.3786 3.16372 1.20018 0.476925 0.437378 1.77636e-15
threshold=0.023685395987516095 -5.0242079151196961 0.63359051897508356 0.04773596868290033 1.1676474387294815 0.033678061012811143 0.02523167870408808 -0.22118753191455906 0.091333669392186637 -0.16421501045055645 -0.0024337312222547825 0.64740441802883464 -0.37604998795997763 -0.01214934716704358 -0.024817520278310232 -0.041269796977009623 0.062815388402870459
decision_type=2 2 2 2 2 2 2 2 2 2 2 2 2 2 2 2 2
left_child=3 2 -2 13 5 7 -7 -3 9 10 -9 12 -11 -1 -6 -14 -16
right_child=1 4 -4 -5 14 6 -8 8 -10 11 -12 -13 15 -15 16 -17 -18
leaf_value=-2.7625287887119572 -2.5655930724182427 -2.7093029194433855 -2.7477438250262427 -2.6028511809062427 -2.7625287887119572 -2.6576425169180076 -2.7740370847700264 -2.7891417233462428 -2.7053109792482428 -2.7233921201321252 -2.6773673978822425 -2.7891417233462428 -2.7611981419802429 -2.7053109792482428 -2.7891417233462428 -2.7891417233462428 -2.7891417233462428
leaf_weight=1.8787856474518778 1.7893196642398823 2.5050475299358359 2.4155815467238426 3.4891733452677727 1.87878564745188 3.0418434292078009 3.3102413788437843 2.7734454795718193 1.7893196642398823 3.0418434292078009 1.7893196642398788 18.519458524882793 1.7893196642398823 1.7893196642398823 8.1414044722914714 6.4415507912635865 8.0519384890794736
leaf_count=21 20 28 27 39 21 34 37 31 20 34 20 207 20 20 91 72 90
internal_value=-2.75354 -2.76239 -2.67023 -2.67038 -2.76853 -2.76136 -2.7183 -2.76844 -2.77254 -2.77604 -2.74531 -2.78075 -2.76696 -2.73462 -2.78638 -2.78307 -2.78914
internal_weight=74.4357 67.2784 4.2049 7.15728 63.0735 45.0014 6.35208 38.6493 36.1443 34.3549 4.56277 29.7922 11.2727 3.66811 18.0721 8.23087 16.1933
internal_count=832 752 47 80 705 503 71 432 404 384 51 333 126 41 202 92 181
is_linear=0
shrinkage=1


Tree=2
num_leaves=31
num_cat=0
split_feature=31 27 4 22 31 33 4 3 24 33 30 30 15 20 3 4 25 0 15 26 21 23 2 3 17 11 3 3 1 30
split_gain=11.0088 7.34815 6.7509 6.43705 4.92436 7.45901 13.8812 11.139 8.36349 7.72933 6.10314 5.93872 5.45302 4.85489 4.19312 4.1884 5.05153 4.28871 5.40253 3.81268 3.65808 3.69581 3.55116 3.38987 5.43285 2.56605 3.48608 4.46663 2.05265 1.74685
threshold=-0.019398918619356723 0.63262521065657185 0.24511726985013624 200.06908440983466 0.016806285361502506 2.5000000000000004 0.037255945162734089 0.02523167870408808 0.10307379904287388 3.5000000000000004 0.027548431412800046 0.074135111766660086 -0.0086677318682696469 0.001852897218314886 -0.094297882625527629 0.10106468279864418 1.0483646872973906 0.070041075053714444 0.021337455143131168 31294.875000000004 57.667624892793 0.059611602930424862 0.018361728981300295 -0.058733248880678247 0.0014748308016258873 0.656784930271615 0.037642906157042223 0.003041290615485599 0.017216781631736702 0.082710020471293041
decision_type=2 2 2 2 2 2 2 2 2 2 2 2 2 2 2 2 2 2 2 2 2 2 2 2 2 2 2 2 2 2
left_child=1 -1 13 4 5 8 7 9 -2 -7 -11 25 -10 14 -3 17 -17 18 -13 28 -14 -22 -8 -16 -25 26 27 -6 -5 -15
right_child=3 2 -4 19 11 6 22 -9 12 10 -12 15 20 29 23 16 -18 -19 -20 -21 21 -23 -24 24 -26 -27 -28 -29 -30 -31
leaf_value=-0.7373969461331159 -0.68956503386258228 -0.66911101560081354 -0.73580890123701581 -0.70801811555526495 -0.76545240596421682 -0.67355754130989376 -0.65799470132811322 -0.76359968691876678 -0.71548192656693521 -0.75015253255662928 -0.70160485732101474 -0.72024606125523538 -0.77597106893193335 -0.64687838705541278 -0.72786867675651556 -0.76426666577512881 -0.71559742074119703 -0.73580890123701581 -0.66021796418265333 -0.72807581304731128 -0.71357627269161505 -0.76208382588158041 -0.69907673233591894 -0.72691584981885549 -0.67355754130989376 -0.72469258696431549 -0.78027415832781744 -0.71647618076275432 -0.67766202657981389 -0.68022732987351398
leaf_weight=10.49508500099182 9.3706116080284101 11.244733929634089 7.8713137507438651 8.9957871437072772 10.12026053667069 11.244733929634092 13.493680715560915 11.994382858276365 13.118856251239775 11.619558393955232 14.618154108524321 7.4964892864227313 11.619558393955232 8.2461382150650007 10.495085000991816 9.3706116080284136 12.369207322597502 7.8713137507438651 7.4964892864227295 8.6209626793861371 7.4964892864227286 8.2461382150650007 8.6209626793861371 7.4964892864227428 13.118856251239775 8.9957871437072736 9.3706116080284101 8.6209626793861371 14.618154108524321 7.4964892864227286
leaf_count=28 25 30 21 24 27 30 36 32 35 31 39 20 31 22 28 25 33 21 20 23 20 22 23 20 35 24 25 23 39 20
internal_value=-0.715019 -0.698537 -0.692354 -0.720374 -0.723667 -0.717282 -0.706941 -0.721661 -0.732131 -0.70824 -0.723105 -0.733157 -0.741985 -0.686467 -0.695279 -0.720863 -0.736576 -0.705922 -0.690232 -0.699616 -0.754691 -0.738985 -0.67401 -0.704737 -0.692961 -0.747936 -0.755374 -0.742923 -0.689226 -0.662759
internal_weight=311.854 76.4642 65.9691 235.39 203.155 121.443 71.5915 49.4768 49.8517 37.4824 26.2377 81.7117 40.481 58.0978 42.3552 44.6041 21.7398 22.8643 14.993 32.2349 27.3622 15.7426 22.1146 31.1104 20.6153 37.1076 28.1118 18.7412 23.6139 15.7426
internal_count=832 204 176 628 542 324 191 132 133 100 70 218 108 155 113 119 58 61 40 86 73 42 59 83 55 99 75 50 63 42
is_linear=0
shrinkage=1


end of trees

feature_importances:
returns_5=6
day_of_week=5
returns_3=4
returns_10=4
price_to_ema_12=4
high_low_range=4
close_open_range=4
returns_2=3
returns_20=3
ema_12_26_spread=3
macd_hist=3
bollinger_width_20=3
volume_ratio_20=3
vwap_distance=3
day_of_month=3
returns_50=2
price_to_sma_20=2
price_to_sma_50=2
price_to_sma_200=2
sma_200_slope=2
macd_signal=2
atr_14=2
atr_pct_14=2
returns_1=1
returns_200=1
price_to_ema_26=1
rsi_14=1
bollinger_percent_b_20=1
volume_20=1

parameters:
[boosting: gbdt]
[objective: multiclass]
[metric: multi_logloss]
[tree_learner: serial]
[device_type: cpu]
[data_sample_strategy: bagging]
[data: ]
[valid: ]
[num_iterations: 300]
[learning_rate: 0.05]
[num_leaves: 31]
[num_threads: 0]
[seed: 0]
[deterministic: 0]
[force_col_wise: 0]
[force_row_wise: 0]
[histogram_pool_size: -1]
[max_depth: -1]
[min_data_in_leaf: 20]
[min_sum_hessian_in_leaf: 0.001]
[bagging_fraction: 1]
[pos_bagging_fraction: 1]
[neg_bagging_fraction: 1]
[bagging_freq: 0]
[bagging_seed: 3]
[bagging_by_query: 0]
[feature_fraction: 0.8]
[feature_fraction_bynode: 1]
[feature_fraction_seed: 2]
[extra_trees: 0]
[extra_seed: 6]
[early_stopping_round: 0]
[early_stopping_min_delta: 0]
[first_metric_only: 0]
[max_delta_step: 0]
[lambda_l1: 0]
[lambda_l2: 0]
[linear_lambda: 0]
[min_gain_to_split: 0]
[drop_rate: 0.1]
[max_drop: 50]
[skip_drop: 0.5]
[xgboost_dart_mode: 0]
[uniform_drop: 0]
[drop_seed: 4]
[top_rate: 0.2]
[other_rate: 0.1]
[min_data_per_group: 100]
[max_cat_threshold: 32]
[cat_l2: 10]
[cat_smooth: 10]
[max_cat_to_onehot: 4]
[top_k: 20]
[monotone_constraints: ]
[monotone_constraints_method: basic]
[monotone_penalty: 0]
[feature_contri: ]
[forcedsplits_filename: ]
[refit_decay_rate: 0.9]
[cegb_tradeoff: 1]
[cegb_penalty_split: 0]
[cegb_penalty_feature_lazy: ]
[cegb_penalty_feature_coupled: ]
[path_smooth: 0]
[interaction_constraints: ]
[verbosity: -1]
[saved_feature_importance_type: 0]
[use_quantized_grad: 0]
[num_grad_quant_bins: 4]
[quant_train_renew_leaf: 0]
[stochastic_rounding: 1]
[linear_tree: 0]
[max_bin: 255]
[max_bin_by_feature: ]
[min_data_in_bin: 3]
[bin_construct_sample_cnt: 200000]
[data_random_seed: 1]
[is_enable_sparse: 1]
[enable_bundle: 1]
[use_missing: 1]
[zero_as_missing: 0]
[feature_pre_filter: 1]
[pre_partition: 0]
[two_round: 0]
[header: 0]
[label_column: ]
[weight_column: ]
[group_column: ]
[ignore_column: ]
[categorical_feature: ]
[forcedbins_filename: ]
[precise_float_parser: 0]
[parser_config_file: ]
[objective_seed: 5]
[num_class: 3]
[is_unbalance: 0]
[scale_pos_weight: 1]
[sigmoid: 1]
[boost_from_average: 1]
[reg_sqrt: 0]
[alpha: 0.9]
[fair_c: 1]
[poisson_max_delta_step: 0.7]
[tweedie_variance_power: 1.5]
[lambdarank_truncation_level: 30]
[lambdarank_norm: 1]
[label_gain: ]
[lambdarank_position_bias_regularization: 0]
[eval_at: ]
[multi_error_top_k: 1]
[auc_mu_weights: ]
[num_machines: 1]
[local_listen_port: 12400]
[time_out: 120]
[machine_list_filename: ]
[machines: ]
[gpu_platform_id: -1]
[gpu_device_id: -1]
[gpu_use_dp: 0]
[num_gpu: 1]

end of parameters

pandas_categorical:null
