tree
version=v4
num_class=3
num_tree_per_iteration=3
label_index=0
max_feature_idx=49
objective=multiclass num_class:3
feature_names=returns_1 returns_2 returns_3 returns_5 returns_10 returns_20 returns_50 returns_100 returns_200 price_to_sma_20 price_to_sma_50 price_to_sma_200 sma_20_slope sma_50_slope sma_200_slope price_to_ema_12 price_to_ema_26 ema_12_26_spread macd macd_signal macd_hist rsi_14 atr_14 atr_pct_14 bollinger_width_20 bollinger_percent_b_20 volume_20 volume_ratio_20 vwap_distance adx_14 high_low_range close_open_range gap_open day_of_week day_of_month days_to_month_end news_sentiment_1d news_sentiment_7d news_article_count_7d earnings_proximity_days congress_buy_score congress_cluster_30d days_since_last_congress insider_buy_score insider_cluster_60d insider_value_60d ceo_bought_90d analyst_upgrade_score consensus_rating watchlist_research_score
feature_infos=[-0.39669458762886595:0.45818181818181808] [-0.67683333333333329:0.59829211071597765] [-0.68060222222222222:0.69488447546352039] [-0.67559333333333327:0.90480866000638205] [-0.6711111111111111:1.0442948104943981] [-0.61184888888888889:2.1680432908834555] [-0.65642654639175257:4.3360838920405707] [-0.63724126791028013:2.5844611760358451] [-0.87297132927888799:1.4700166666666667] [-0.27500742681956453:0.91632145304580559] [-0.31268590339045232:1.9279279959117883] [-0.67505117561336359:1.651757003444865] [-0.081012285778597343:0.064958686227694948] [-0.025882095661833786:0.049961901153440277] [-0.011930281513520154:0.0036389820294512594] [-0.27482575671258835:0.53904895305326361] [-0.2500545268712604:0.94357637377952397] [-14.471505398967452:17.090480647862648] [-14.471505398967452:17.090480647862648] [-12.308145273663881:13.17104379644465] [-5.0103476183349311:4.8427222186903052] [21.742125615958287:90.159265844142027] [0.11022854451353524:16.045610294837353] [0.020319978640882804:0.82337855801481963] [0.039651398646815758:1.8126002735081546] [-0.31416726796099326:1.504507049162439] [5.1500000000000004:343.05000000000001] [0.035561877667140827:6.9047619047619051] [-0.92032910778725874:-0.35903039616307442] [55.844155844155843:99.477684528867471] [0:1.1800818553888133] [-0.41004981305926275:0.44973722090181778] [-0.33580862658169391:0.18369969969969971] [0:6] [1:31] [1:31] none none none none none none none none none none none none none none
tree_sizes=1485 1258 1385 1628 1530 1516 1312 1303 1518 1409 1422 1513 1508 1536 1620

Tree=0
num_leaves=13
num_cat=0
split_feature=3 9 11 1 5 8 6 26 20 17 32 1
split_gain=6.91231 8.17404 6.63552 7.24831 5.60549 6.5963 4.3514 3.09758 3.64131 2.82688 3.19959 1.91488
threshold=0.057282183546589469 0.088859346844544426 0.34711147220268074 -0.015895159935400641 0.07403345497648027 -0.013500874866076562 0.054636894625637783 56.275000000000006 0.23383037205494731 0.14330877211597429 -7.1129925708303213e-06 0.0073141600717649144
decision_type=2 2 2 2 2 2 2 2 2 2 2 2
left_child=2 -2 3 9 5 7 -6 -5 -9 10 -1 -10
right_child=1 -3 -4 4 6 -7 -8 8 11 -11 -12 -13
leaf_value=-0.81956689468149191 -0.73002270990400442 -0.78543991516839351 -0.74325082810976961 -0.76133186542060849 -0.78242640894992044 -0.74223328055547999 -0.83230835970911865 -0.82384059440950841 -0.79921594359569936 -0.83788275065870532 -0.77974981647015851 -0.76461932674985189
leaf_weight=12.284438520669939 12.284438520669939 14.517972797155378 7.4451142549514762 9.6786485314369184 8.9341371059417742 12.284438520669935 8.5618813931941968 7.4451142549514797 7.8173699676990536 8.189625680446623 8.5618813931942004 8.189625680446623
leaf_count=33 33 39 20 26 24 33 23 20 21 22 23 22
internal_value=-0.782575 -0.76004 -0.788652 -0.792328 -0.782791 -0.773527 -0.806837 -0.78513 -0.794952 -0.812992 -0.803213 -0.781515
internal_weight=126.195 26.8024 99.3923 91.9472 62.9112 45.4152 17.496 33.1308 23.4521 29.0359 20.8463 16.007
internal_count=339 72 267 247 169 122 47 89 63 78 56 43
is_linear=0
shrinkage=1


Tree=1
num_leaves=11
num_cat=0
split_feature=3 3 21 3 35 30 2 19 3 2
split_gain=5.0139 7.32863 6.36896 6.00362 1.71151 1.47891 2.45676 0.411995 0.334941 8.88178e-16
threshold=0.0099835988258598751 -0.046038375902881186 50.983391102756663 -0.02937259388754606 15.500000000000002 0.046346776751380235 0.080680438625621576 -2.3015732535800999 -0.14462114020731034 0.042448560373111614
decision_type=2 2 2 2 2 2 2 2 2 2
left_child=1 8 3 -3 -5 7 -7 -2 -1 -9
right_child=5 2 -4 4 -6 6 -8 9 -10 -11
leaf_value=-2.6584839762537373 -2.6584839762537373 -2.5571427076331337 -2.5538945900491399 -2.6295293280764218 -2.683819293408888 -2.6162584476618189 -2.683819293408888 -2.683819293408888 -2.683819293408888 -2.683819293408888
leaf_weight=1.9735296070575712 1.9735296070575703 1.9735296070575703 3.8483827337622643 2.7629414498806026 3.0589708909392357 2.9602944105863562 2.4669120088219643 6.5126477032899839 3.8483827337622634 2.07220608741045
leaf_count=20 20 20 39 28 31 30 25 66 39 21
internal_value=-2.64795 -2.62943 -2.60653 -2.63251 -2.65805 -2.66818 -2.64697 -2.67908 -2.67523 -2.68382
internal_weight=33.4513 17.4657 11.6438 7.79544 5.82191 15.9856 5.42721 10.5584 5.82191 8.58485
internal_count=339 177 118 79 59 162 55 107 59 87
is_linear=0
shrinkage=1


Tree=2
num_leaves=12
num_cat=0
split_feature=31 21 11 27 28 0 30 25 3 26 5
split_gain=6.48729 5.05496 7.14973 4.60935 4.71692 4.28205 3.36861 3.0543 2.18246 3.32898 1.56335
threshold=-1.0775135207925908e-05 62.502216740555077 0.066758167934996712 0.22947264168092726 -0.59718668838832578 -0.024452310856130918 0.014680197796434343 1.0265594377014737 -0.035223091748834263 88.225000000000009 0.036051344323927696
decision_type=2 2 2 2 2 2 2 2 2 2 2
left_child=5 2 3 -2 -5 -1 -7 -3 -8 -10 -4
right_child=1 7 10 4 -6 6 8 -9 9 -11 -12
leaf_value=-0.71363966349733932 -0.78051641167974772 -0.72171099517452653 -0.80249020036825336 -0.71059981130722982 -0.7604533872250252 -0.72595906447830927 -0.77747655948963823 -0.76161646110645842 -0.73221653799245279 -0.77382873686150688 -0.77382873686150688
leaf_weight=13.457592129707335 10.467016100883486 10.840838104486467 13.083770126104357 8.2240840792655963 11.214660108089445 14.205236136913298 8.2240840792655927 8.5979060828685743 13.457592129707342 7.4764400720596305 7.4764400720596305
leaf_count=36 28 29 35 22 30 38 22 23 36 20 20
internal_value=-0.750826 -0.761026 -0.76937 -0.753766 -0.739361 -0.738278 -0.745925 -0.739361 -0.755652 -0.747078 -0.792068
internal_weight=126.726 69.9047 50.466 29.9058 19.4387 56.8209 43.3634 19.4387 29.1581 20.934 20.5602
internal_count=339 187 135 80 52 152 116 52 78 56 55
is_linear=0
shrinkage=1


Tree=3
num_leaves=14
num_cat=0
split_feature=3 15 11 1 5 8 6 17 32 8 2 1 3
split_gain=6.37108 7.29573 6.03769 6.70039 5.13643 5.95651 4.05583 2.58236 2.99541 2.44216 4.10214 1.87445 1.34614
threshold=0.057282183546589469 0.041040625436616018 0.34711147220268074 -0.015895159935400641 0.07403345497648027 -0.013500874866076562 0.054636894625637783 0.14330877211597429 -7.1129925708303213e-06 -0.2005008144044321 -0.00049721832726977314 0.047435738854712126 0.0088840347296896497
decision_type=2 2 2 2 2 2 2 2 2 2 2 2 2
left_child=2 -2 3 7 5 9 -6 8 -1 10 -5 -3 -11
right_child=1 11 -4 4 6 -7 -8 -9 -10 12 -12 -13 -14
leaf_value=-0.035813640337889245 0.06355925567237268 -0.014280578595799258 0.037376391614286131 0.034172877681118992 0.00027008737257194581 0.038316028210384809 -0.047971645389256794 -0.053184075166996962 0.0027432104037937131 -0.030748566618085355 -0.014297038383657468 0.017700719744309642 -0.0013724579129201866
leaf_weight=12.235633343458177 7.4784964919090298 7.4394244849681881 7.4728834629058829 8.9200792014598829 8.9299755692482012 12.332347601652144 8.507710248231886 8.1232838928699476 8.5622039735317248 8.1839688122272509 8.5486749410629255 11.927085161209105 7.4497450590133658
leaf_count=33 20 20 20 24 24 33 23 22 23 22 23 32 20
internal_value=2.50312e-06 0.0216132 -0.00584176 -0.00936013 -0.000198117 0.0086555 -0.0232667 -0.0292777 -0.0199403 -0.00239456 0.0104532 0.00541547 -0.0167503
internal_weight=126.112 26.845 99.2665 91.7936 62.8725 45.4348 17.4377 28.9211 20.7978 33.1025 17.4688 19.3665 15.6337
internal_count=339 72 267 247 169 122 47 78 56 89 47 52 42
is_linear=0
shrinkage=0.05


Tree=4
num_leaves=13
num_cat=0
split_feature=24 15 16 32 2 0 1 15 3 30 3 3
split_gain=4.74698 4.10093 12.689 2.83859 2.28907 1.61877 3.57653 0.389828 3.81329e-05 7.19876e-06 6.5928e-06 2.10165e-06
threshold=0.067108737834223373 0.0025936906500855566 0.0071405485681775007 0.0059182240761187525 -0.045645633328853345 0.01783506740286921 0.044571039049566684 -0.007430736637204287 0.0099835988258598751 0.039705230326895484 -0.02937259388754606 0.057282183546589469
decision_type=2 2 2 2 2 2 2 2 2 2 2 2
left_child=-1 2 3 4 -2 8 -7 10 -3 11 -6 -10
right_child=1 5 -4 -5 7 6 -8 -9 9 -11 -12 -13
leaf_value=0.06744959743572379 0.025519707200650717 -0.03604718491193637 0.12510558526342194 0.041639163709532287 -0.03593891660338068 0.041799058848113857 -0.035835122809839214 -0.010237295367120624 -0.035800986496850623 -0.03588765614217039 -0.03583524932815544 -0.035738191130808096
leaf_weight=2.4179492369294158 2.4442131817340842 2.0816229954361898 2.1720591634511939 2.5794793814420691 3.1184373795986149 2.5743768587708464 3.5010867640376091 1.9525244608521504 3.464790090918541 1.9811623170971868 3.017817348241806 2.1650208085775375
leaf_count=24 25 20 21 26 31 26 36 20 36 20 31 23
internal_value=-3.00192e-05 -0.0052844 0.0131711 -0.0053707 -0.0168832 -0.0231739 -0.00293893 -0.0296962 -0.0358575 -0.0358057 -0.0358879 -0.0357768
internal_weight=33.4705 31.0526 15.2845 13.1125 10.533 15.7681 6.07546 8.08878 9.6926 7.61097 6.13625 5.62981
internal_count=339 315 154 133 107 161 62 82 99 79 62 59
is_linear=0
shrinkage=0.05


Tree=5
num_leaves=13
num_cat=0
split_feature=15 27 11 17 24 17 11 8 21 4 0 20
split_gain=4.48977 5.78124 4.96456 5.10659 4.01277 3.97018 3.90055 7.27033 3.52908 4.01018 3.72338 1.95999
threshold=-0.10182045537258645 0.24751057746787689 -0.084273412423734664 -0.41051537033027324 0.081287334104491807 -0.31249753045068446 0.086077772683932866 -0.28053962315149589 67.242930508101168 0.043395600879608177 0.0028601429907384262 -0.0249117416952951
decision_type=2 2 2 2 2 2 2 2 2 2 2 2
left_child=-1 5 4 -4 -3 -2 7 -5 9 10 -8 -7
right_child=1 2 3 6 -6 11 8 -9 -10 -11 -12 -13
leaf_value=0.034874105422230427 0.0067312285795929367 -0.0037521444488204381 -0.034425738094978862 -0.01548126547012698 0.042392955887546782 -0.055512861779670367 0.015502303186153386 0.041283095532414882 0.018590869568125661 -0.04479245114846598 -0.029773914791590347 -0.02242677861499185
leaf_weight=8.6047141253948194 7.8497957587242153 7.483278393745425 10.814501971006392 9.3487403392791766 12.718062430620192 7.4574916064739289 10.828884899616247 14.222169756889341 9.7261686027050001 8.5771120488643628 7.8199766576290122 11.196420401334757
leaf_count=23 21 20 29 25 34 20 29 38 26 23 21 30
internal_value=5.44109e-06 -0.00253631 0.00341773 -0.00277866 0.0252992 -0.0231004 0.00287616 0.0187691 -0.00726157 -0.0164971 -0.00348325 -0.035654
internal_weight=126.647 118.043 91.5389 71.3376 20.2013 26.5037 60.5231 23.5709 36.9521 27.226 18.6489 18.6539
internal_count=339 316 245 191 54 71 162 63 99 73 50 50
is_linear=0
shrinkage=0.05


Tree=6
num_leaves=11
num_cat=0
split_feature=3 9 17 11 30 1 22 6 16 3
split_gain=5.88221 6.87273 5.51628 6.92734 5.85024 5.35747 3.66453 5.27044 2.30156 2.92919
threshold=0.057282183546589469 0.088859346844544426 4.4521490126708452 0.066758167934996712 0.053513835735398217 -0.0075127081744087096 5.8943971107622017 -0.034311969580898653 0.0062257711497469498 -1.0000000180025095e-35
decision_type=2 2 2 2 2 2 2 2 2 2
left_child=2 -2 3 4 6 -5 7 -1 9 -8
right_child=1 -3 -4 5 -6 -7 8 -9 -10 -11
leaf_value=0.00096111442247146135 0.048157827626230588 -0.0025891861266442175 -0.037756177086353704 -0.0021945913021115628 -0.052345610780075949 0.042790602468095025 0.014264725787693749 -0.045310237459674066 0.02988028803777807 -0.024614556362662625
leaf_weight=14.488638520240785 12.357044816017153 14.501738488674162 11.769198119640349 13.380846291780474 7.3700546622276297 13.096251934766768 11.888667106628418 10.698102116584776 8.1862408816814405 8.1762816905975377
leaf_count=39 33 39 32 36 20 35 32 29 22 22
internal_value=4.39805e-06 0.0207582 -0.00562305 -0.00129034 -0.0105851 0.0200562 -0.00482556 -0.0186927 0.00753739 -0.00157822
internal_weight=125.913 26.8588 99.0543 87.2851 60.808 26.4771 53.4379 25.1867 28.2512 20.0649
internal_count=339 72 267 235 164 71 144 68 76 54
is_linear=0
shrinkage=0.05


Tree=7
num_leaves=11
num_cat=0
split_feature=3 3 1 35 0 1 33 1 24 3
split_gain=4.29892 6.58042 8.03182 6.33062 2.53946 4.31824 1.30709 0.347258 9.53539e-06 3.51198e-06
threshold=0.0099835988258598751 -0.046038375902881186 -0.020800564728167253 12.500000000000002 0.016572643162411884 0.044571039049566684 4.5000000000000009 -0.01902068315412779 0.090345507995312296 0.049950982234942952
decision_type=2 2 2 2 2 2 2 2 2 2
left_child=1 7 -3 -4 8 -6 -5 -1 -2 -10
right_child=4 2 3 6 5 -7 -8 -9 9 -11
leaf_value=-0.03591495946864471 -0.035827802029347038 0.11405062963005425 0.064134777444396038 -0.035892947059495244 0.049256986630046788 -0.035692928295644875 0.014597993031167322 -0.010004396106669802 -0.035741857173554853 -0.035672273857968541
leaf_weight=3.8917458057403564 2.1317095682024938 2.6632033735513678 3.987804017961027 3.658119834959507 2.9338750392198554 3.0523251593112946 1.9732057303190229 1.9365955069661129 3.6742516607046127 3.5803617388010025
leaf_count=39 22 25 37 37 29 33 19 20 39 39
internal_value=-5.96283e-05 0.0164464 0.037208 0.0159329 -0.0195057 0.00594157 -0.018201 -0.0273056 -0.0357348 -0.0357075
internal_weight=33.4832 18.1107 12.2823 9.61913 15.3725 5.9862 5.63133 5.82834 9.38632 7.25461
internal_count=339 177 118 93 162 62 56 59 100 78
is_linear=0
shrinkage=0.05


Tree=8
num_leaves=13
num_cat=0
split_feature=31 19 19 33 21 11 27 28 14 32 2 5
split_gain=5.67522 4.58597 4.98546 4.19512 4.18633 5.96964 4.18123 4.17218 3.00466 2.20987 2.06383 1.40072
threshold=-1.0775135207925908e-05 0.014315094004516143 0.19525868725201811 4.5000000000000009 62.502216740555077 0.066758167934996712 0.22947264168092726 -0.59718668838832578 -0.00052723455438507692 0.0030975592064076819 -0.00049721832726977314 0.036051344323927696
decision_type=2 2 2 2 2 2 2 2 2 2 2 2
left_child=1 3 -3 10 5 6 -2 -8 -4 -6 -1 -7
right_child=4 2 8 -5 9 11 7 -9 -10 -11 -12 -13
leaf_value=0.049791971437149002 -0.028482877743288965 -0.036928385950601571 -0.0057826349747904238 -0.0020380820547085984 0.025730587499271759 -0.048000914610712 0.037754821813534546 -0.00912306153415352 0.03515374131326994 -0.0080748852332279495 0.016859624693349166 -0.020759703256670838
leaf_weight=13.095068752765657 10.430205643177034 7.8316653072834042 11.201186865568165 9.7167342305183393 10.482705712318422 12.927135437726976 8.2428178787231463 11.18981423974037 7.4729964435100529 8.9718238115310651 7.4718807637691524 7.4317364394664756
leaf_count=35 28 21 30 26 28 35 22 30 20 24 20 20
internal_value=1.14085e-05 0.0117437 -0.00344374 0.0250365 -0.00955099 -0.017179 -0.00294552 0.0107613 0.0105992 0.0101406 0.0378278 -0.0380569
internal_weight=126.466 56.7895 26.5058 30.2837 69.6762 50.2217 29.8628 19.4326 18.6742 19.4545 20.5669 20.3589
internal_count=339 152 71 81 187 135 80 52 50 52 55 55
is_linear=0
shrinkage=0.05


Tree=9
num_leaves=12
num_cat=0
split_feature=31 4 0 17 11 30 4 22 30 11 32
split_gain=5.33473 5.19533 3.48746 3.45325 5.02648 4.34444 3.98014 3.65772 2.99094 1.75142 1.07264
threshold=-1.0775135207925908e-05 0.043914056183221674 -0.02679825959614204 6.1334857500744713 0.066758167934996712 0.042144665924002712 0.05612610634363796 5.5510081760250776 0.014680197796434343 -0.080274811956007511 -0.001564085491008262
decision_type=2 2 2 2 2 2 2 2 2 2 2
left_child=1 2 -1 4 5 7 10 -2 -4 -10 -6
right_child=3 -3 8 -5 6 -7 -8 -9 9 -11 -12
leaf_value=-0.050921668917271623 -0.0060221223667168014 0.014357292365276523 -0.03392485756820407 -0.018581011601710679 0.059645669530149208 -0.027568113229522614 0.0036163136166176696 0.030718929039049572 -0.021910398665456104 0.0075155138347906799 0.033202281207373806
leaf_weight=7.6509364545345298 13.694464176893236 14.466624319553373 11.786248266696928 9.5960322618484479 7.8610891103744507 9.2285750508308393 8.2108756303787214 13.404775291681288 7.774137318134307 14.466579586267473 7.4878001511096972
leaf_count=21 37 39 32 26 21 25 22 36 21 39 20
internal_value=3.36647e-06 -0.0114589 -0.0204198 0.00926517 0.0137271 0.00206168 0.0317145 0.012152 -0.0135615 -0.00277017 0.0467455
internal_weight=125.628 56.1445 41.6779 69.4836 59.8876 36.3278 23.5598 27.0992 34.027 22.2407 15.3489
internal_count=339 152 113 187 161 98 63 73 92 60 41
is_linear=0
shrinkage=0.05


Tree=10
num_leaves=12
num_cat=0
split_feature=3 3 32 2 27 30 2 26 14 31 3
split_gain=3.98735 6.00075 5.52223 3.26314 3.8174 1.5325 2.27219 0.426954 0.348057 4.10221e-05 7.70595e-06
threshold=0.0099835988258598751 -0.046038375902881186 0.0059182240761187525 0.0027255860722697569 0.64099040857056633 0.046346776751380235 0.080680438625621576 146.47500000000005 -0.00059033885178282465 0.0093815742573763027 0.057282183546589469
decision_type=2 2 2 2 2 2 2 2 2 2 2
left_child=1 8 3 4 -3 7 -7 9 -1 10 -2
right_child=5 2 -4 -5 -6 6 -8 -9 -10 -11 -12
leaf_value=-0.035838033501394674 -0.035659606504612869 -0.036181970726808316 0.10024951780734899 0.060943829278492304 0.037475001598605451 0.031467664238518808 -0.03556394349817156 -0.0092601195523057973 -0.0096856505940817773 -0.035845387363110923 -0.035533789425774953
leaf_weight=3.7895824983716011 3.1034040898084623 3.6506801620125788 2.562721259891986 3.0889848321676254 3.3948357105255127 2.9685615673661223 2.2019980773329735 1.886701151728629 1.9152128696441639 2.9139940515160561 2.0021097660064697
leaf_count=39 34 34 23 29 32 30 25 20 20 30 23
internal_value=-8.0455e-05 0.0155384 0.0346768 0.0180953 -0.000690841 -0.0191441 0.00292076 -0.0306609 -0.0270582 -0.0356957 -0.0356103
internal_weight=33.4788 18.402 12.6972 10.1345 7.04552 15.0768 5.17056 9.90621 5.7048 8.01951 5.10551
internal_count=339 177 118 95 66 162 55 107 59 87 57
is_linear=0
shrinkage=0.05


Tree=11
num_leaves=13
num_cat=0
split_feature=31 19 19 20 6 25 33 11 4 34 32 30
split_gain=5.22328 4.30518 4.57887 3.99006 5.23612 4.51362 3.92437 3.67247 3.59922 2.38335 1.88756 1.26468
threshold=-1.0775135207925908e-05 0.014315094004516143 0.19525868725201811 0.034405374860962339 -0.09974381458310122 1.0265594377014737 4.5000000000000009 0.066758167934996712 0.040527877912569128 14.500000000000002 -0.0029213427976834795 0.031109220105693877
decision_type=2 2 2 2 2 2 2 2 2 2 2 2
left_child=1 6 -3 7 -5 9 10 -2 -4 -6 -1 -9
right_child=3 2 8 4 5 -7 -8 11 -10 -11 -12 -13
leaf_value=0.054362396433925576 -0.0037191658569374515 -0.035623353441738427 0.029408736073049214 -0.023690343448807844 0.04976105683327476 -0.013338556175832163 -0.0020495494306102405 -0.025139177934504764 -0.014840166154379247 0.011246946597037039 0.023661593955391903 -0.052516088473873658
leaf_weight=8.6112574040889776 14.16871961951256 7.8031266927719143 10.470946133136751 13.344666361808775 8.2197766900062614 8.9652174711227399 9.7123113572597486 8.821429908275606 8.1902551352977735 7.8559334576129904 11.960222065448761 8.0845124721527082
leaf_count=23 38 21 28 36 22 24 26 24 22 21 32 22
internal_value=1.7991e-05 0.0112716 -0.00346054 -0.00917602 0.00160626 0.0150872 0.0241456 -0.0224951 0.00998824 0.0309398 0.036513 -0.038231
internal_weight=126.208 56.7481 26.4643 69.4603 38.3856 25.0409 30.2838 31.0747 18.6612 16.0757 20.5715 16.9059
internal_count=339 152 71 187 103 67 81 84 50 43 55 46
is_linear=0
shrinkage=0.05


Tree=12
num_leaves=13
num_cat=0
split_feature=31 4 19 11 0 24 9 1 22 24 31 31
split_gain=4.71039 4.6582 3.44533 4.00854 3.24897 3.24644 2.8295 2.62256 4.68517 2.18779 3.53416 2.0245
threshold=-1.0775135207925908e-05 0.043914056183221674 5.3698494542781559 0.074080446666114366 -0.02679825959614204 0.4144612620800146 -0.045380635582554965 -0.0097237958424877206 5.5510081760250776 0.080124389557967163 -0.010528786196830993 0.010655397829575525
decision_type=2 2 2 2 2 2 2 2 2 2 2 2
left_child=1 4 3 7 -1 -5 -6 -2 -9 -8 -11 -10
right_child=2 -3 -4 5 6 -7 9 8 11 10 -12 -13
leaf_value=-0.049017683427102561 -0.020654101098955793 0.013606485135816238 -0.0204738336842583 0.04584881529552573 0.010143330050358734 0.0067696241347442888 0.00083509745561834549 -0.011706677559849089 0.045795532494080804 -0.0058449434444696738 -0.052020801717821696 0.010644957921948351
leaf_weight=7.5402638614177695 8.8528987169265729 14.485459864139555 8.8306771516799909 13.078258424997331 9.665268391370768 8.9521805346012098 7.3843481540679994 13.288663923740389 8.2049503922462481 7.369886338710784 9.4662554562091845 8.1803442835807783
leaf_count=21 24 39 24 35 26 24 20 36 22 20 26 22
internal_value=1.45885e-07 -0.0107996 0.00870241 0.012957 -0.0193338 0.0299688 -0.0127285 0.0032293 0.0103546 -0.0218555 -0.0318077 0.0282466
internal_weight=125.299 55.9115 69.388 60.5573 41.426 22.0304 33.8858 38.5269 29.674 24.2205 16.8361 16.3853
internal_count=339 152 187 163 113 59 92 104 80 66 46 44
is_linear=0
shrinkage=0.05


Tree=13
num_leaves=13
num_cat=0
split_feature=12 17 24 2 32 2 2 15 2 24 15 2
split_gain=3.8836 8.75022 4.25298 2.60803 3.89341 1.9706 1.53853 0.463302 4.91312e-05 3.25659e-05 2.82609e-05 1.44854e-05
threshold=0.0049395089298258019 3.1639765858439692 0.067108737834223373 0.011149474885514635 0.0059182240761187525 -0.045645633328853345 -0.0022930429417475588 0.13469407530583596 0.023568690968326606 0.17321624760297047 0.0038959864347663125 0.036961977248746537
decision_type=2 2 2 2 2 2 2 2 2 2 2 2
left_child=1 2 -1 4 5 -4 9 8 -2 -7 -5 -12
right_child=7 -3 3 10 -6 6 -8 -9 -10 -11 11 -13
leaf_value=0.057527072651733874 -0.035974046970955471 0.086067539776989416 0.0298225569379191 -0.035952017468676038 0.056612471491275386 -0.03587657484428719 0.01553905621306232 -0.0068275376435594035 -0.035699407177365555 -0.035632422849825394 -0.035802805497175759 -0.035620076994431142
leaf_weight=2.6641748100519242 3.5150730833411199 3.2648244202136985 2.2813081294298208 2.0027279555797568 2.6930408403277388 3.6961419582366979 1.9443606734275762 1.7410562336444853 3.0340011343359947 2.1662501990795135 2.5747044160962105 1.8739681616425512
leaf_count=24 35 29 23 20 25 38 20 20 33 24 27 21
internal_value=-7.21525e-05 0.00970677 -0.00167872 -0.00988018 0.00320113 -0.0110572 -0.0230032 -0.0297523 -0.0358468 -0.0357864 -0.035796 -0.0357258
internal_weight=33.4516 25.1615 21.8967 19.2325 12.7811 10.0881 7.80675 8.29013 6.54907 5.86239 6.4514 4.44867
internal_count=339 251 222 198 130 105 82 88 68 62 68 48
is_linear=0
shrinkage=0.05


Tree=14
num_leaves=14
num_cat=0
split_feature=31 19 19 33 20 6 25 10 4 34 27 30 32
split_gain=4.60512 3.9065 4.29356 3.69726 3.67519 4.64406 4.28908 3.48987 3.25826 2.2443 1.82306 2.58693 1.69271
threshold=-1.0775135207925908e-05 0.014315094004516143 0.19525868725201811 4.5000000000000009 0.034405374860962339 -0.09974381458310122 1.0265594377014737 -0.14195449029448801 0.040527877912569128 14.500000000000002 0.26601628316762921 0.03297983569595056 -0.0029213427976834795
decision_type=2 2 2 2 2 2 2 2 2 2 2 2 2
left_child=1 3 -3 12 7 -6 9 -2 -4 -7 -9 -12 -1
right_child=4 2 8 -5 5 6 -8 10 -10 -11 11 -13 -14
leaf_value=0.051796669386292252 0.0074899864336742247 -0.034669981858128793 0.028037684222463014 -0.0025738511904260402 -0.022201861508775053 0.04811023432138524 -0.013323664965650066 -0.051817329339574336 -0.014086858190122842 0.010732120272300055 -5.5012630835455604e-05 -0.040626574283494046 0.022704909597931169
leaf_weight=8.5883414745330846 7.784423083066943 7.7777681350708034 10.462471991777422 9.7133242487907392 13.268773496150969 8.2171863317489677 8.9642560184001905 7.3327788710594204 8.1790421009063703 7.8547042012214652 7.3831844627857199 8.3980821669101697 11.967817902565002
leaf_count=23 21 21 28 26 36 22 24 20 22 21 20 23 32
internal_value=1.90271e-05 0.0105849 -0.00346446 0.0228473 -0.00863615 0.00171258 0.0143869 -0.0214655 0.00955537 0.0298427 -0.0312172 -0.0216454 0.0348594
internal_weight=125.892 56.6888 26.4193 30.2695 69.2034 38.3049 25.0361 30.8985 18.6415 16.0719 23.114 15.7813 20.5562
internal_count=339 152 71 81 187 103 67 84 50 43 63 43 55
is_linear=0
shrinkage=0.05


end of trees

feature_importances:
returns_5=19
returns_3=12
price_to_sma_200=11
returns_2=10
high_low_range=9
close_open_range=9
gap_open=9
macd_signal=8
ema_12_26_spread=7
bollinger_width_20=7
returns_1=6
returns_10=6
price_to_ema_12=6
returns_50=5
volume_ratio_20=5
returns_20=4
returns_200=4
macd_hist=4
rsi_14=4
day_of_week=4
price_to_sma_20=3
atr_14=3
bollinger_percent_b_20=3
volume_20=3
sma_200_slope=2
price_to_ema_26=2
vwap_distance=2
day_of_month=2
days_to_month_end=2
price_to_sma_50=1
sma_20_slope=1

parameters:
[boosting: gbdt]
[objective: multiclass]
[metric: multi_logloss]
[tree_learner: serial]
[device_type: cpu]
[data_sample_strategy: bagging]
[data: ]
[valid: ]
[num_iterations: 300]
[learning_rate: 0.05]
[num_leaves: 31]
[num_threads: 0]
[seed: 0]
[deterministic: 0]
[force_col_wise: 0]
[force_row_wise: 0]
[histogram_pool_size: -1]
[max_depth: -1]
[min_data_in_leaf: 20]
[min_sum_hessian_in_leaf: 0.001]
[bagging_fraction: 1]
[pos_bagging_fraction: 1]
[neg_bagging_fraction: 1]
[bagging_freq: 0]
[bagging_seed: 3]
[bagging_by_query: 0]
[feature_fraction: 0.8]
[feature_fraction_bynode: 1]
[feature_fraction_seed: 2]
[extra_trees: 0]
[extra_seed: 6]
[early_stopping_round: 0]
[early_stopping_min_delta: 0]
[first_metric_only: 0]
[max_delta_step: 0]
[lambda_l1: 0]
[lambda_l2: 0]
[linear_lambda: 0]
[min_gain_to_split: 0]
[drop_rate: 0.1]
[max_drop: 50]
[skip_drop: 0.5]
[xgboost_dart_mode: 0]
[uniform_drop: 0]
[drop_seed: 4]
[top_rate: 0.2]
[other_rate: 0.1]
[min_data_per_group: 100]
[max_cat_threshold: 32]
[cat_l2: 10]
[cat_smooth: 10]
[max_cat_to_onehot: 4]
[top_k: 20]
[monotone_constraints: ]
[monotone_constraints_method: basic]
[monotone_penalty: 0]
[feature_contri: ]
[forcedsplits_filename: ]
[refit_decay_rate: 0.9]
[cegb_tradeoff: 1]
[cegb_penalty_split: 0]
[cegb_penalty_feature_lazy: ]
[cegb_penalty_feature_coupled: ]
[path_smooth: 0]
[interaction_constraints: ]
[verbosity: -1]
[saved_feature_importance_type: 0]
[use_quantized_grad: 0]
[num_grad_quant_bins: 4]
[quant_train_renew_leaf: 0]
[stochastic_rounding: 1]
[linear_tree: 0]
[max_bin: 255]
[max_bin_by_feature: ]
[min_data_in_bin: 3]
[bin_construct_sample_cnt: 200000]
[data_random_seed: 1]
[is_enable_sparse: 1]
[enable_bundle: 1]
[use_missing: 1]
[zero_as_missing: 0]
[feature_pre_filter: 1]
[pre_partition: 0]
[two_round: 0]
[header: 0]
[label_column: ]
[weight_column: ]
[group_column: ]
[ignore_column: ]
[categorical_feature: ]
[forcedbins_filename: ]
[precise_float_parser: 0]
[parser_config_file: ]
[objective_seed: 5]
[num_class: 3]
[is_unbalance: 0]
[scale_pos_weight: 1]
[sigmoid: 1]
[boost_from_average: 1]
[reg_sqrt: 0]
[alpha: 0.9]
[fair_c: 1]
[poisson_max_delta_step: 0.7]
[tweedie_variance_power: 1.5]
[lambdarank_truncation_level: 30]
[lambdarank_norm: 1]
[label_gain: ]
[lambdarank_position_bias_regularization: 0]
[eval_at: ]
[multi_error_top_k: 1]
[auc_mu_weights: ]
[num_machines: 1]
[local_listen_port: 12400]
[time_out: 120]
[machine_list_filename: ]
[machines: ]
[gpu_platform_id: -1]
[gpu_device_id: -1]
[gpu_use_dp: 0]
[num_gpu: 1]

end of parameters

pandas_categorical:null
