tree
version=v4
num_class=3
num_tree_per_iteration=3
label_index=0
max_feature_idx=49
objective=multiclass num_class:3
feature_names=returns_1 returns_2 returns_3 returns_5 returns_10 returns_20 returns_50 returns_100 returns_200 price_to_sma_20 price_to_sma_50 price_to_sma_200 sma_20_slope sma_50_slope sma_200_slope price_to_ema_12 price_to_ema_26 ema_12_26_spread macd macd_signal macd_hist rsi_14 atr_14 atr_pct_14 bollinger_width_20 bollinger_percent_b_20 volume_20 volume_ratio_20 vwap_distance adx_14 high_low_range close_open_range gap_open day_of_week day_of_month days_to_month_end news_sentiment_1d news_sentiment_7d news_article_count_7d earnings_proximity_days congress_buy_score congress_cluster_30d days_since_last_congress insider_buy_score insider_cluster_60d insider_value_60d ceo_bought_90d analyst_upgrade_score consensus_rating watchlist_research_score
feature_infos=[-0.46351603033124922:0.26089850249584023] [-0.47534638652182404:0.20452413793103438] [-0.4651391483921723:0.25665909560189959] [-0.55492095025246246:0.32524902555218721] [-0.56669426191338546:0.51823732413060786] [-0.67408829174664098:0.88259155658640021] [-0.65180132536102053:1.2783841924946218] [-0.5650914527319022:1.2008156446540879] [-0.71238387828249583:1.0251192610196014] [-0.55223818452583429:0.37009469828547054] [-0.61382668524397055:0.65826593027814173] [-0.55350365112002586:0.62801349162949782] [-0.044300134486764273:0.0315033414061478] [-0.020391195500981917:0.018961664230229738] [-0.0069211220171650776:0.0035373786409836371] [-0.48842550516032518:0.21555698517200697] [-0.55422515379159509:0.37011578994981714] [-1081.1932249923402:469.75749055052438] [-1081.1932249923402:469.75749055052438] [-880.40840946601702:431.54286566359349] [-391.95327486681595:208.84622936354015] [15.720106452948514:88.540047414188649] [0.001526191534160657:797.71442176047856] [0.032865652795768419:0.27727749554110886] [0.064653880799553726:1.2494668087692558] [-0.41079444467978354:1.5068607479413727] [240.19999999999999:46822.5] [0.16466220033901041:7.0900771290412816] [-0.7801146887620668:0.41194288491863501] [34.730555020364612:99.477684528867471] [0.010359067683908449:0.94259500340958402] [-0.4646022104948721:0.25713337757133375] [-0.017659797727221878:0.022467816371144034] [0:6] [1:31] [1:31] none none none none none none none none none none none none none none
tree_sizes=3383 2709 3361

Tree=0
num_leaves=31
num_cat=0
split_feature=6 33 31 34 3 10 21 34 10 28 33 23 5 12 31 33 6 34 12 34 31 34 20 5 8 12 23 24 14 12
split_gain=13.9036 14.9754 14.5046 12.285 10.7206 11.7348 11.3687 9.85007 8.39204 8.04743 6.82383 6.2372 8.11501 6.23155 5.62207 7.06434 6.54319 8.3974 5.61224 5.44832 5.70167 6.36541 4.76212 5.26412 4.60139 4.39394 4.28737 3.79736 5.09939 3.55672
threshold=-0.37394796944986319 5.5000000000000009 -0.018090180562623227 7.5000000000000009 0.088895825196395314 0.069724629049131015 44.972679942951473 23.500000000000004 -0.10712873724423551 -0.6481228167534826 4.5000000000000009 0.094465083137984698 -0.21579482775916717 0.0063959426762828283 0.0053253987935456626 1.0000000180025095e-35 -0.13073151489073817 18.500000000000004 0.0084020363409819231 11.500000000000002 -0.0099983785356084678 19.500000000000004 0.0034147090413126297 0.17828782222482112 -0.21177906540465186 0.016774374825326701 0.13260734031151286 0.18506312523476526 -0.0021157716805499118 -0.0076695016916662941
decision_type=2 2 2 2 2 2 2 2 2 2 2 2 2 2 2 2 2 2 2 2 2 2 2 2 2 2 2 2 2 2
left_child=2 4 -1 -3 6 -6 9 -5 10 29 26 12 -11 24 15 -14 -17 -18 -15 -20 -21 -22 -7 -24 27 -25 -4 28 -8 -2
right_child=1 3 8 7 5 22 13 -9 -10 11 -12 -13 14 18 -16 16 17 -19 19 20 21 -23 23 25 -26 -27 -28 -29 -30 -31
leaf_value=-0.82671842571849474 -0.79851507829547819 -0.78206312563205183 -0.82175672570888991 -0.70908983036884043 -0.71061464549374331 -0.78612269836718307 -0.75973547558883048 -0.76777342960439021 -0.72464916837805393 -0.79992524566662904 -0.74378715412938656 -0.72345304426859558 -0.71710996186995324 -0.74485037556001621 -0.72033374021843966 -0.79992524566662904 -0.78206312563205183 -0.71851519858596014 -0.81064251768737527 -0.79424184383744534 -0.71710996186995324 -0.77394398016178956 -0.71605094289557114 -0.77862810254847936 -0.77714049412645969 -0.73352475597287481 -0.77519307946490679 -0.81621129628639055 -0.81395976855093966 -0.75654581129694165
leaf_weight=16.795318275690079 14.182713210582735 11.196878850460051 10.077190965414053 30.604802191257477 16.795318275690079 12.316566735506056 9.7039616703987139 9.3307323753833753 7.8378151953220359 9.3307323753833753 7.8378151953220359 17.915006160736084 8.21104449033737 20.154381930828094 12.689796030521391 11.196878850460044 11.196878850460061 9.7039616703987104 9.3307323753833753 12.316566735506056 8.2110444903373736 12.316566735506056 8.5842737853527087 14.55594250559807 47.400120466947556 8.5842737853527051 9.7039616703987104 19.034694045782089 7.8378151953220359 7.8378151953220359
leaf_count=45 38 30 27 82 45 33 26 25 21 25 21 48 22 54 34 30 30 26 25 33 22 33 23 39 127 23 26 51 21 21
internal_value=-0.764338 -0.760845 -0.788442 -0.735778 -0.764987 -0.746175 -0.769592 -0.722801 -0.770312 -0.756802 -0.78327 -0.749454 -0.756928 -0.778532 -0.749358 -0.758495 -0.769082 -0.752559 -0.766554 -0.776926 -0.767347 -0.75121 -0.759735 -0.749491 -0.787422 -0.761896 -0.798914 -0.800745 -0.783963 -0.783577
internal_weight=412.792 360.539 52.2521 51.1324 309.407 60.8364 248.571 39.9355 35.4568 102.265 27.619 80.2443 62.3293 146.306 52.9986 40.3088 32.0977 20.9008 62.3293 42.1749 32.8442 20.5276 44.0411 31.7245 83.9766 23.1402 19.7812 36.5765 17.5418 22.0205
internal_count=1106 966 140 137 829 163 666 107 95 274 74 215 167 392 142 108 86 56 167 113 88 55 118 85 225 62 53 98 47 59
is_linear=0
shrinkage=1


Tree=1
num_leaves=25
num_cat=0
split_feature=20 28 4 4 35 33 19 2 7 9 34 30 6 7 11 14 14 11 10 27 31 2 2 2
split_gain=9.29986 7.39741 11.0202 10.1125 6.5976 11.5015 5.10544 9.22275 2.73658 2.2348 2.04233 1.73553 1.71248 3.68538 1.93945 3.59506 2.47565 1.32072 1.57054 0.483104 0.365304 1.77636e-15 8.88178e-16 4.44089e-16
threshold=2.8116675858659441 -0.38387814856352215 0.025969745716184881 -0.0063403507398510231 28.500000000000004 3.5000000000000004 7.0764553739369811 -0.023626882051163731 -0.45870271413112068 0.11779068579031983 29.500000000000004 0.21351841276299374 0.0082496084194078126 -0.1388871062470485 0.2695565637526075 0.00021215687411938521 -0.0041607719640726869 -0.36511466612142179 -0.18387808449474358 0.41767448777896815 -0.0012718286836296145 0.11196782573107349 -0.03582119566409523 0.045502296725959825
decision_type=2 2 2 2 2 2 2 2 2 2 2 2 2 2 2 2 2 2 2 2 2 2 2 2
left_child=4 -2 3 -3 6 20 8 -8 -1 23 11 12 17 -14 16 -16 -15 18 -10 -19 -6 -21 -18 -4
right_child=1 2 9 -5 5 -7 7 -9 10 -11 -12 -13 13 14 15 -17 22 19 -20 21 -22 -23 -24 -25
leaf_value=-2.9949448592146042 -2.9134037249129285 -3.0366939199770622 -3.0732243481442127 -2.8508652201702516 -3.0366939199770622 -2.8968705569924507 -2.9166653702849956 -3.0732243481442127 -3.0170236894255194 -3.0001634918099116 -3.010600757000526 -3.0036425802067828 -2.9897262266192968 -3.0036425802067832 -2.9818982777263359 -3.0732243481442127 -3.0732243481442127 -3.0471311851676766 -3.0732243481442127 -3.0732243481442127 -3.0732243481442127 -3.0732243481442127 -3.0732243481442127 -3.0732243481442127
leaf_weight=1.9162108302116383 2.189955234527587 1.3687220215797427 3.0796245485544205 1.5740303248167018 1.3687220215797424 1.9846469312906263 1.9162108302116396 1.8477747291326512 2.6690079420804977 1.3687220215797422 2.3952635377645484 1.4371581226587284 2.3952635377645519 1.437158122658732 2.189955234527587 2.1215191334486008 3.3533689528703716 1.916210830211649 2.3268274366855577 21.831116244196895 1.3687220215797415 2.0530830323696128 8.2123321294784493 1.3687220215797422
leaf_count=28 32 20 45 23 20 29 28 27 39 20 35 21 35 21 32 31 49 28 34 319 20 30 120 20
internal_value=-3.03821 -2.9956 -3.01615 -2.9373 -3.04542 -2.98852 -3.0499 -2.99352 -3.05367 -3.05603 -3.05574 -3.05782 -3.05936 -3.04786 -3.0559 -3.02684 -3.06553 -3.06673 -3.0432 -3.07129 -3.05496 -3.07322 -3.07322 -3.07322
internal_weight=75.6903 10.9498 8.75982 2.94275 64.7406 4.72209 60.0185 3.76399 56.2545 5.81707 54.3383 51.943 50.5058 19.7096 17.3143 4.31147 13.0029 30.7962 4.99584 25.8004 2.73744 23.8842 11.5657 4.44835
internal_count=1106 160 128 43 946 69 877 55 822 85 794 759 738 288 253 63 190 450 73 377 40 349 169 65
is_linear=0
shrinkage=1


Tree=2
num_leaves=31
num_cat=0
split_feature=6 0 4 33 35 3 4 1 5 35 33 31 4 3 9 6 21 35 1 11 6 25 35 20 2 1 4 32 6 1
split_gain=13.5298 11.8583 11.2719 10.1158 13.2919 7.79887 10.389 10.6286 7.08955 6.68476 6.09636 13.8709 11.2382 8.44153 9.61128 7.76639 7.18849 5.62503 5.38559 7.43144 4.77976 8.61642 8.11408 5.00368 4.38121 10.2414 6.19113 4.32318 3.97926 3.26907
threshold=-0.37394796944986319 -0.017992735934103384 0.028329882335500906 5.5000000000000009 25.500000000000004 0.088275444350620944 0.0046753039556189134 0.060297563101371084 0.23793992293644164 2.5000000000000004 2.5000000000000004 -0.00083363921488572754 -0.147776107466108 -0.06429259547638437 -0.013983776187804752 -0.10988210811924386 44.972679942951473 11.500000000000002 0.030989298925704747 0.013422083919717191 -0.016115741778031347 0.75773115153716353 18.500000000000004 0.02357175817604484 -0.017295901396985766 -0.0023393778986561561 0.11796440633645257 0.00013800984296715783 0.042267248296433267 -0.010876511404337173
decision_type=2 2 2 2 2 2 2 2 2 2 2 2 2 2 2 2 2 2 2 2 2 2 2 2 2 2 2 2 2 2
left_child=1 -1 -3 5 17 6 7 9 -7 -2 12 15 -11 -13 -15 -12 -14 -5 -10 -20 24 23 -23 29 -8 -26 -27 -4 -17 -22
right_child=3 2 27 4 -6 8 20 -9 18 10 11 13 16 14 -16 28 -18 -19 19 -21 21 22 -24 -25 25 26 -28 -29 -30 -31
leaf_value=-0.66347709244412201 -0.76954094555943153 -0.68315180251107721 -0.71616834281404018 -0.7328823947264127 -0.69659838847406341 -0.75340055605449996 -0.66829473550302254 -0.67031642500095412 -0.68389062591563698 -0.69659838847406341 -0.65997013168801055 -0.7797513565194194 -0.75972727344173052 -0.68671457315084283 -0.7577544957864909 -0.73885169898083147 -0.72247601404758643 -0.77201619670124677 -0.76502480225020608 -0.70771768071268659 -0.69882224692178807 -0.72424635836469398 -0.67015250423085149 -0.77220957569670101 -0.75074450720127195 -0.67763018406700037 -0.7283677948701297 -0.76420368528489235 -0.68851163048233743 -0.74552327432400545
leaf_weight=17.612032234668732 9.3681022524833661 16.113135874271393 9.3681022524833697 14.239515423774717 11.24172270298004 31.102099478244781 12.365894973278044 8.243929982185362 7.8692058920860317 14.614239513874052 12.740619063377382 8.6186540722847003 34.849340379238129 10.117550432682039 8.9933781623840314 7.4944818019866934 20.609824955463409 25.855962216854095 9.7428263425827044 13.490067243576048 7.4944818019866952 13.864791333675386 13.864791333675383 7.4944818019866934 8.6186540722846967 25.481238126754761 7.8692058920860282 9.3681022524833661 8.243929982185362 7.4944818019866952
leaf_count=47 25 43 25 38 30 83 33 22 21 39 34 23 93 27 24 20 55 69 26 36 20 37 37 20 23 68 21 25 22 20
internal_value=-0.720647 -0.696916 -0.713815 -0.724086 -0.744647 -0.720688 -0.716724 -0.725439 -0.736521 -0.728789 -0.725766 -0.7135 -0.735605 -0.738671 -0.720145 -0.68899 -0.745884 -0.758118 -0.719641 -0.73175 -0.704729 -0.71585 -0.697199 -0.738852 -0.694451 -0.702158 -0.689602 -0.740186 -0.712483 -0.722173
internal_weight=414.445 52.4614 34.8493 361.983 51.3372 310.646 248.442 143.894 62.2042 135.65 126.282 56.2086 70.0734 27.7296 19.1109 28.479 55.4592 40.0955 31.1021 23.2329 104.548 50.213 27.7296 22.4834 54.335 41.9691 33.3504 18.7362 15.7384 14.989
internal_count=1106 140 93 966 137 829 663 384 166 362 337 150 187 74 51 76 148 107 83 62 279 134 74 60 145 112 89 50 42 40
is_linear=0
shrinkage=1


end of trees

feature_importances:
returns_50=7
returns_10=6
day_of_week=6
day_of_month=6
returns_3=5
close_open_range=5
days_to_month_end=5
returns_2=4
sma_20_slope=4
returns_5=3
returns_20=3
price_to_sma_50=3
price_to_sma_200=3
sma_200_slope=3
macd_hist=3
returns_100=2
price_to_sma_20=2
rsi_14=2
atr_pct_14=2
vwap_distance=2
returns_1=1
returns_200=1
macd_signal=1
bollinger_width_20=1
bollinger_percent_b_20=1
volume_ratio_20=1
high_low_range=1
gap_open=1

parameters:
[boosting: gbdt]
[objective: multiclass]
[metric: multi_logloss]
[tree_learner: serial]
[device_type: cpu]
[data_sample_strategy: bagging]
[data: ]
[valid: ]
[num_iterations: 300]
[learning_rate: 0.05]
[num_leaves: 31]
[num_threads: 0]
[seed: 0]
[deterministic: 0]
[force_col_wise: 0]
[force_row_wise: 0]
[histogram_pool_size: -1]
[max_depth: -1]
[min_data_in_leaf: 20]
[min_sum_hessian_in_leaf: 0.001]
[bagging_fraction: 1]
[pos_bagging_fraction: 1]
[neg_bagging_fraction: 1]
[bagging_freq: 0]
[bagging_seed: 3]
[bagging_by_query: 0]
[feature_fraction: 0.8]
[feature_fraction_bynode: 1]
[feature_fraction_seed: 2]
[extra_trees: 0]
[extra_seed: 6]
[early_stopping_round: 0]
[early_stopping_min_delta: 0]
[first_metric_only: 0]
[max_delta_step: 0]
[lambda_l1: 0]
[lambda_l2: 0]
[linear_lambda: 0]
[min_gain_to_split: 0]
[drop_rate: 0.1]
[max_drop: 50]
[skip_drop: 0.5]
[xgboost_dart_mode: 0]
[uniform_drop: 0]
[drop_seed: 4]
[top_rate: 0.2]
[other_rate: 0.1]
[min_data_per_group: 100]
[max_cat_threshold: 32]
[cat_l2: 10]
[cat_smooth: 10]
[max_cat_to_onehot: 4]
[top_k: 20]
[monotone_constraints: ]
[monotone_constraints_method: basic]
[monotone_penalty: 0]
[feature_contri: ]
[forcedsplits_filename: ]
[refit_decay_rate: 0.9]
[cegb_tradeoff: 1]
[cegb_penalty_split: 0]
[cegb_penalty_feature_lazy: ]
[cegb_penalty_feature_coupled: ]
[path_smooth: 0]
[interaction_constraints: ]
[verbosity: -1]
[saved_feature_importance_type: 0]
[use_quantized_grad: 0]
[num_grad_quant_bins: 4]
[quant_train_renew_leaf: 0]
[stochastic_rounding: 1]
[linear_tree: 0]
[max_bin: 255]
[max_bin_by_feature: ]
[min_data_in_bin: 3]
[bin_construct_sample_cnt: 200000]
[data_random_seed: 1]
[is_enable_sparse: 1]
[enable_bundle: 1]
[use_missing: 1]
[zero_as_missing: 0]
[feature_pre_filter: 1]
[pre_partition: 0]
[two_round: 0]
[header: 0]
[label_column: ]
[weight_column: ]
[group_column: ]
[ignore_column: ]
[categorical_feature: ]
[forcedbins_filename: ]
[precise_float_parser: 0]
[parser_config_file: ]
[objective_seed: 5]
[num_class: 3]
[is_unbalance: 0]
[scale_pos_weight: 1]
[sigmoid: 1]
[boost_from_average: 1]
[reg_sqrt: 0]
[alpha: 0.9]
[fair_c: 1]
[poisson_max_delta_step: 0.7]
[tweedie_variance_power: 1.5]
[lambdarank_truncation_level: 30]
[lambdarank_norm: 1]
[label_gain: ]
[lambdarank_position_bias_regularization: 0]
[eval_at: ]
[multi_error_top_k: 1]
[auc_mu_weights: ]
[num_machines: 1]
[local_listen_port: 12400]
[time_out: 120]
[machine_list_filename: ]
[machines: ]
[gpu_platform_id: -1]
[gpu_device_id: -1]
[gpu_use_dp: 0]
[num_gpu: 1]

end of parameters

pandas_categorical:null
