tree
version=v4
num_class=3
num_tree_per_iteration=3
label_index=0
max_feature_idx=49
objective=multiclass num_class:3
feature_names=returns_1 returns_2 returns_3 returns_5 returns_10 returns_20 returns_50 returns_100 returns_200 price_to_sma_20 price_to_sma_50 price_to_sma_200 sma_20_slope sma_50_slope sma_200_slope price_to_ema_12 price_to_ema_26 ema_12_26_spread macd macd_signal macd_hist rsi_14 atr_14 atr_pct_14 bollinger_width_20 bollinger_percent_b_20 volume_20 volume_ratio_20 vwap_distance adx_14 high_low_range close_open_range gap_open day_of_week day_of_month days_to_month_end news_sentiment_1d news_sentiment_7d news_article_count_7d earnings_proximity_days congress_buy_score congress_cluster_30d days_since_last_congress insider_buy_score insider_cluster_60d insider_value_60d ceo_bought_90d analyst_upgrade_score consensus_rating watchlist_research_score
feature_infos=[-0.18677152389618262:0.1808331725069616] [-0.24531422271223821:0.27006289308176101] [-0.27559921262881626:0.2846604294272061] [-0.28920041536863977:0.30286838223242096] [-0.33013202174475792:0.32051087121788058] [-0.46322187188848324:0.5735656196373945] [-0.50983743226344314:0.76800884955752224] [-0.61174692291081845:2.0695692518069935] [-0.6898552909255351:4.3737949167397021] [-0.31311412639183195:0.26101848477412648] [-0.38351664007158537:0.45280370204827836] [-0.52749617196268039:1.2033630185398543] [-0.028784870122629754:0.02232372965273707] [-0.015088940177036318:0.011486342059653322] [-0.0062905973192408839:0.0081144426234481155] [-0.23785529034842035:0.15668824591374245] [-0.31296333915809815:0.25652138018020648] [-572.95510446189473:851.75708921005207] [-572.95510446189473:851.75708921005207] [-511.53683497518466:866.70101240352471] [-344.49628125666788:247.02334704451573] [20.134460291163933:78.320573869477087] [0.0016715219534664571:1124.4027549109048] [0.040184324988442127:0.14524172549485226] [0.046945244013269001:0.58764021379750753] [-0.46755644601395413:1.4729784690039405] [365.75:45060.599999999999] [0.20998106271582934:4.9590344278440162] [-0.71804857506484721:0.82585321724933847] [34.730555020364612:99.477684528867471] [0.010359067683908449:0.45741732865324214] [-0.1873349209785668:0.18154983585754106] [-0.017659797727221878:0.021911349847354718] [0:6] [1:31] [1:31] none none none none none none none none none none none none none none
tree_sizes=3369 2822 3388 3418 3451 3412 3427 3459 3433 3410 3452 3432 3425 3473 3424 3432 3464 3423 3407 3471 3428 3420 3462 3427

Tree=0
num_leaves=31
num_cat=0
split_feature=21 33 3 31 34 7 23 6 15 32 15 32 31 34 31 5 6 8 1 16 34 15 31 24 2 3 31 7 34 33
split_gain=16.9817 14.6103 15.4145 12.7714 9.4604 7.62389 7.44435 7.36426 7.12522 6.55451 6.32168 11.8593 6.1414 5.99057 4.50168 7.54751 6.86649 5.34102 4.46906 4.37565 4.30843 3.12138 3.84341 3.16047 2.97877 4.53251 4.04623 3.87931 4.20267 2.67051
threshold=35.798028205818682 2.5000000000000004 0.053065719668774533 0.0037270408129835859 7.5000000000000009 -0.35136856996556215 0.090638048933074214 0.21220781784680184 -0.021895324718694782 0.00074180891876353861 0.016822633898940623 0.00022189749717991733 0.017254810568592977 28.500000000000004 -0.0016636727036537871 -0.212198852902171 -0.1938999812729367 0.46064520545310134 -0.017577028870765891 -0.016336656161596255 8.5000000000000018 -0.028940533796104114 -0.014251848631800495 0.16148703013559379 -0.012587068331154113 -0.046224743910009893 -0.014684254264100803 -0.15286043174354061 11.500000000000002 1.5000000000000002
decision_type=2 2 2 2 2 2 2 2 2 2 2 2 2 2 2 2 2 2 2 2 2 2 2 2 2 2 2 2 2 2
left_child=14 6 3 9 12 -6 10 -4 -7 21 13 20 -5 24 16 -16 17 29 -17 -10 -12 -3 -23 -24 25 -2 -27 28 -26 -1
right_child=1 2 7 4 5 8 -8 -9 19 -11 11 -13 -14 -15 15 18 -18 -19 -20 -21 -22 22 23 -25 27 26 -28 -29 -30 -31
leaf_value=-0.68625220455769786 -0.61021677790838524 -0.6863533603359453 -0.61109346131986286 -0.65525518393759485 -0.67248969472771958 -0.65843436553965662 -0.67512506895048141 -0.66797191034584225 -0.59167155189635767 -0.70482886315618642 -0.65843436553965662 -0.69404119948274945 -0.71852089781862571 -0.66356996658914125 -0.69976372636646078 -0.61170039598934745 -0.65672249852316178 -0.66399793334326496 -0.66399793334326496 -0.63474433489203452 -0.60947496886790409 -0.63618009432522371 -0.65175808417532677 -0.69616986890326049 -0.64591633798153814 -0.67178692826831643 -0.6272783858394505 -0.59167155189635778 -0.60572688108442063 -0.71963361137934734
leaf_weight=8.9870388507843035 13.480558276176451 20.595297366380692 20.595297366380695 7.8636589944362623 14.229478180408476 13.480558276176447 11.982718467712401 7.8636589944362631 11.982718467712399 22.093137174844742 7.4891990423202577 11.233798563480375 7.4891990423202515 9.7359587550163251 7.8636589944362667 7.4891990423202559 14.603938132524489 8.9870388507843 8.9870388507842982 11.608258515596397 11.233798563480375 10.110418707132341 7.4891990423202541 8.6125788986682874 11.982718467712401 9.3614988029003126 11.233798563480379 14.22947818040848 14.229478180408476 17.974077701568604
leaf_count=24 36 55 55 21 38 36 32 21 32 59 20 30 20 26 21 20 39 24 24 31 30 27 20 23 32 25 30 38 38 48
internal_value=-0.655901 -0.650423 -0.660263 -0.667287 -0.651683 -0.641378 -0.637633 -0.62681 -0.629436 -0.682382 -0.633699 -0.653427 -0.686117 -0.626685 -0.677128 -0.659461 -0.685634 -0.697379 -0.640226 -0.612866 -0.629059 -0.671787 -0.660342 -0.675513 -0.621866 -0.632756 -0.64751 -0.612689 -0.624099 -0.708506
internal_weight=365.098 290.206 164.013 135.555 66.6539 51.301 126.193 28.459 37.0715 68.9006 114.21 29.9568 15.3529 84.2535 74.892 24.3399 50.5521 35.9482 16.4762 23.591 18.723 46.8075 26.2122 16.1018 74.5175 34.0759 20.5953 40.4417 26.2122 26.9611
internal_count=975 775 438 362 178 137 337 76 99 184 305 80 41 225 200 65 135 96 44 63 50 125 70 43 199 91 55 108 70 72
is_linear=0
shrinkage=1


Tree=1
num_leaves=26
num_cat=0
split_feature=19 22 31 31 35 13 20 27 17 5 17 9 8 8 12 3 5 26 22 17 6 33 3 2 2
split_gain=8.89016 8.96273 4.78096 13.3397 4.07768 8.34382 5.9204 4.36588 3.47443 4.67209 8.63231 4.58111 2.61273 5.43469 2.36018 2.43382 1.72922 0.557813 0.52005 0.484665 0.445814 0.370547 1.77636e-15 8.88178e-16 2.22045e-16
threshold=-10.649462651524574 291.78226976905933 -0.0016636727036537871 -0.014980353423366602 24.500000000000004 -0.0063601777187319956 0.7639533246026301 0.46943315631900534 -0.0012281990270145459 -0.068801545916051962 -0.0084579927550234562 0.01593760807996469 -0.51218028311215436 -0.60060368905685924 -0.014076024282939437 -0.043576079895468342 -0.14222905376975201 414.65000000000003 0.012603973758916346 -9.7063869983477229 -0.068358357715216381 5.5000000000000009 -0.0045656102785108224 0.094061054284221887 -0.0042506287538221265
decision_type=2 2 2 2 2 2 2 2 2 2 2 2 2 2 2 2 2 2 2 2 2 2 2 2 2
left_child=1 -1 3 -3 8 -6 7 -7 9 12 11 20 13 -2 15 -14 -4 -10 -9 -16 24 22 -21 -19 -11
right_child=4 2 16 -5 5 6 -8 18 17 10 -12 -13 14 -15 19 -17 -18 23 -20 21 -22 -23 -24 -25 -26
leaf_value=-2.7621215751586186 -2.9473950166450473 -2.9288676724964047 -2.8825493121247976 -2.762121575158619 -2.7852807553444223 -2.8637231398447249 -2.8177036076045474 -2.9149721643849227 -2.9165161097306429 -2.9473950166450473 -2.7917653257964474 -2.8476323943062014 -2.9288676724964047 -2.8177036076045474 -2.9149721643849227 -2.8501264598646725 -2.9473950166450478 -2.9473950166450478 -2.9473950166450473 -2.9473950166450473 -2.9149721643849227 -2.9257797818049642 -2.9473950166450473 -2.9473950166450478 -2.9473950166450473
leaf_weight=1.6192283257842053 1.6963344365358355 2.6987138763070093 1.5421222150325773 2.158971101045609 1.5421222150325764 2.3902894333004934 1.5421222150325764 1.5421222150325773 1.6192283257842088 1.8505466580390928 1.9276527687907234 2.0047588795423508 2.6987138763070107 1.5421222150325764 1.54212221503258 1.5421222150325764 3.0842444300651541 13.339357160031794 6.2455949708819389 9.0214149579405802 1.5421222150325777 2.3131833225488654 4.8576849773526218 1.773440547287463 1.5421222150325773
leaf_count=21 22 35 20 28 20 31 20 20 21 24 25 26 35 20 20 20 40 173 81 117 20 30 63 23 20
internal_value=-2.91215 -2.87084 -2.8894 -2.85476 -2.9193 -2.89461 -2.909 -2.92283 -2.92575 -2.91659 -2.88537 -2.91137 -2.92756 -2.88564 -2.93374 -2.90023 -2.92578 -2.94441 -2.94097 -2.94176 -2.93726 -2.94431 -2.9474 -2.9474 -2.9474
internal_weight=75.1785 11.1033 9.48405 4.85768 64.0752 13.2623 11.7201 10.178 50.8129 34.0809 8.8672 6.93955 25.2137 3.23846 21.9752 4.24084 4.62637 16.732 7.78772 17.7344 4.93479 16.1923 13.8791 15.1128 3.39267
internal_count=975 144 123 63 831 172 152 132 659 442 115 90 327 42 285 55 60 217 101 230 64 210 180 196 44
is_linear=0
shrinkage=1


Tree=2
num_leaves=31
num_cat=0
split_feature=4 33 3 31 31 11 35 6 14 3 30 13 15 2 2 32 15 14 0 1 2 5 0 26 1 5 20 26 27 2
split_gain=19.2363 15.7671 12.4831 11.2959 9.40059 9.29073 7.82951 7.54998 7.31731 7.00963 6.89713 6.01023 5.74941 5.21897 10.2216 5.12815 12.9456 5.65242 4.75687 4.55527 4.34502 4.55675 3.93749 4.65571 8.72138 3.43084 4.24186 3.68219 2.67346 3.21779
threshold=-0.1312751613031872 2.5000000000000004 0.053065719668774533 0.0037270408129835859 -0.0040699791836563146 -0.18552420495149596 21.500000000000004 0.21220781784680184 -0.00062301706596995185 -0.11462162017495901 0.032512451694554953 -0.0030637165891282637 -0.047067108798890638 0.013755660080588051 -0.066495126432663768 0.00022189749717991733 0.022704716775906207 -0.0023897600653400557 0.012253169280863218 -0.021026026231016452 0.025319220475575787 -0.081895799420509882 -0.0040036451634892266 4502.2500000000009 -0.027973725478366133 -0.093586764011140591 9.7436495484304214e-05 17237.000000000004 0.67193463358804395 -0.023749803042918249
decision_type=2 2 2 2 2 2 2 2 2 2 2 2 2 2 2 2 2 2 2 2 2 2 2 2 2 2 2 2 2 2
left_child=4 10 3 8 5 -1 11 -4 19 -7 -2 20 -10 14 -6 17 28 -12 -8 -3 21 -5 23 -14 -25 26 -19 -27 -17 -30
right_child=1 2 7 6 13 9 18 -9 12 -11 15 -13 22 -15 -16 16 -18 25 -20 -21 -22 -23 -24 24 -26 27 -28 -29 29 -31
leaf_value=-0.78475084992052779 -0.89603433519710407 -0.83851508634809302 -0.89446557181711739 -0.81742652809417737 -0.88263883900243956 -0.86628709537171111 -0.86034100677871894 -0.83494625341281492 -0.7995823634177871 -0.80507287562590724 -0.83941009147292756 -0.89042538358850076 -0.87874556670940895 -0.88393659643344979 -0.80866666543485854 -0.8417594799256185 -0.79983193215451986 -0.83608179116494885 -0.81079026850378422 -0.79270424903343306 -0.88393659643344979 -0.8690123859768325 -0.82061498385140064 -0.79958236341778721 -0.87173767658195389 -0.89458112367656706 -0.88263883900243956 -0.85538593295122545 -0.85538593295122545 -0.89579541433750842
leaf_weight=17.979733943939209 21.649067401885986 7.7056002616882351 19.447467327117923 10.27413368225098 7.3386669158935591 9.1733336448669451 8.0725336074829119 7.3386669158935538 7.7056002616882315 9.5402669906616193 10.641067028045653 17.979733943939209 12.842667102813722 7.7056002616882315 12.842667102813721 7.3386669158935574 9.5402669906616193 8.8064002990722674 12.108800411224363 18.346667289733887 7.7056002616882315 7.3386669158935556 10.641067028045653 7.7056002616882333 9.1733336448669434 32.657067775726318 11.00800037384033 7.3386669158935538 9.1733336448669451 10.641067028045653
leaf_count=49 59 21 53 28 20 25 22 20 21 26 29 49 35 21 35 20 26 24 33 50 21 20 29 21 25 89 30 20 25 29
internal_value=-0.851752 -0.857194 -0.84693 -0.840851 -0.827049 -0.810419 -0.856331 -0.878159 -0.827593 -0.83508 -0.870294 -0.86832 -0.839159 -0.848931 -0.835566 -0.865092 -0.849935 -0.872987 -0.830611 -0.806254 -0.852621 -0.838921 -0.846715 -0.856059 -0.838797 -0.878961 -0.861947 -0.887389 -0.867539 -0.877087
internal_weight=357.76 293.18 164.386 137.6 64.5803 36.6933 63.4795 26.7861 74.1205 18.7136 128.794 43.2981 48.0683 27.8869 20.1813 107.145 36.6933 70.4512 20.1813 26.0523 25.3184 17.6128 40.3627 29.7216 16.8789 59.8101 19.8144 39.9957 27.1531 19.8144
internal_count=975 799 448 375 176 100 173 73 202 51 351 118 131 76 55 292 100 192 55 71 69 48 110 81 46 163 54 109 74 54
is_linear=0
shrinkage=1


Tree=3
num_leaves=31
num_cat=0
split_feature=21 33 3 31 34 7 32 15 23 30 1 31 15 32 34 6 25 6 31 15 31 30 34 19 2 3 30 7 34 29
split_gain=14.9233 12.962 13.8844 8.96447 10.9813 7.25059 6.97255 6.74755 6.72388 6.46141 5.84998 5.71241 5.65493 10.4074 5.46819 5.17163 4.82476 4.55769 5.132 3.99045 4.36612 9.37774 3.96265 3.12343 2.75787 4.24595 4.4369 3.66278 3.87529 2.6246
threshold=35.798028205818682 2.5000000000000004 0.06835032771144707 0.0037270408129835859 7.5000000000000009 -0.35136856996556215 0.00074180891876353861 -0.021895324718694782 0.090638048933074214 0.13747434123603777 -0.07838047514214698 0.017254810568592977 0.016822633898940623 0.00022189749717991733 28.500000000000004 0.18522471436337304 0.56759396261347661 -0.1938999812729367 -0.0016636727036537871 -0.028940533796104114 -0.014251848631800495 0.032797916996678347 8.5000000000000018 -1.769020533892802 -0.012587068331154113 -0.046224743910009893 0.034683923964106973 -0.15286043174354061 11.500000000000002 57.117218932520949
decision_type=2 2 2 2 2 2 2 2 2 2 2 2 2 2 2 2 2 2 2 2 2 2 2 2 2 2 2 2 2 2
left_child=9 8 3 6 11 -6 19 -7 12 10 -1 -5 14 22 24 -4 -9 18 -12 -3 -21 -22 -14 -19 25 -2 -27 28 -26 -8
right_child=1 2 15 4 5 7 29 16 -10 -11 17 -13 13 -15 -16 -17 -18 23 -20 20 21 -23 -24 -25 27 26 -28 -29 -30 -31
leaf_value=0.017543511644883294 0.043610857961983031 -0.028490894678239551 0.048795793075560714 -0.0023334957242878754 -0.016072661169221663 -0.0025552771760079356 -0.031907259985386294 0.058656227964596346 -0.018398524026992588 -0.061638897250134439 -0.044489937076934043 -0.060556503224570263 -0.0029691463181475662 -0.035697534580752109 -0.0076214225037263029 -0.0019153576868708205 0.012449697706681766 -0.020012190271101588 -0.0071097760632445259 0.022814931846463174 0.024809450299159489 -0.050926867123337619 0.044035626345479729 0.024600863547328461 0.0090380644114863677 0.03705017622205798 -0.010769747550571576 0.061572829821965748 0.047688715531725559 -0.06686053409307699
leaf_weight=11.605726718902586 13.429763972759245 20.618537545204163 15.281253397464754 8.2384887635707873 14.233991771936415 13.477144479751585 14.24365621805191 15.281990200281145 11.989418953657148 8.2445165514945966 24.733950287103646 8.6213897168636304 7.4846425056457582 11.246520996093748 9.7347148656845075 7.4927321672439566 8.9629138410091382 8.2391198575496656 14.603517234325414 12.336333960294725 7.4906702637672451 8.9956705272197706 11.183127284049986 7.4896603226661673 11.964944064617155 7.8399385213851955 12.721851050853727 14.150196492671968 14.160888552665709 8.6214152872562408
leaf_count=31 36 55 41 22 38 36 38 41 32 22 66 23 20 30 26 20 24 22 39 33 20 24 30 20 32 21 34 38 38 23
internal_value=1.09033e-05 0.00515326 -0.00411493 -0.00996109 0.00295641 0.0143343 -0.022255 0.025808 0.017218 -0.0198814 -0.0147178 -0.0321061 0.0209665 0.00229857 0.0276144 0.0321116 0.0415745 -0.0215172 -0.030613 -0.0116961 0.000318177 -0.0165156 0.0251896 0.00123145 0.032233 0.0217449 0.00746336 0.0410845 0.0299877 -0.0450866
internal_weight=364.719 289.802 163.896 141.122 68.8159 51.956 72.3063 37.722 125.906 74.9165 66.672 16.8599 113.917 29.9143 84.0023 22.774 24.2449 55.0662 39.3375 49.4412 28.8227 16.4863 18.6678 15.7288 74.2676 33.9916 20.5618 40.276 26.1258 22.8651
internal_count=975 775 438 377 184 139 193 101 337 200 178 45 305 80 225 61 65 147 105 132 77 44 50 42 199 91 55 108 70 61
is_linear=0
shrinkage=0.05


Tree=4
num_leaves=31
num_cat=0
split_feature=19 22 0 0 13 6 8 19 17 26 24 0 7 11 19 0 31 3 30 33 24 24 30 11 1 26 17 5 3 12
split_gain=8.05527 6.82475 4.16976 10.4108 3.79121 9.47069 4.22509 5.20536 3.4482 7.76906 4.48338 12.2059 1.95607 2.16588 4.03048 1.7624 1.51803 3.60361 0.480419 0.460386 0.402934 1.78239 7.00906e-06 6.91824e-06 3.8204e-06 4.43074e-06 3.2389e-06 2.34861e-06 1.6417e-06 1.28897e-06
threshold=-10.649462651524574 291.78226976905933 -0.0017446197417391879 -0.014974903401971646 -0.0034302726537959031 -0.1688663623735783 1.9164137555516054 34.691740705794842 -0.011130489762071342 2492.7000000000003 0.20158832306645794 -0.013787913854737028 0.094997750882814508 -0.35986796125898063 -2.7959689438260429 0.025510553501724268 0.033207239822076663 0.042899011460272245 0.087751436529817692 5.5000000000000009 0.16620447890119625 0.14628138884618741 0.033385937697096683 -0.3178088032147624 0.0036706935116791813 5970.2000000000007 -231.99732404990206 -0.10512222738601242 -0.018418693229207719 -0.01064531436411756
decision_type=2 2 2 2 2 2 2 2 2 2 2 2 2 2 2 2 2 2 2 2 2 2 2 2 2 2 2 2 2 2
left_child=1 -1 3 -3 5 8 16 -8 12 10 11 -10 13 14 -2 26 20 -18 28 23 21 -6 -22 -15 -24 -26 -4 29 -12 -25
right_child=4 2 15 -5 6 -7 7 -9 9 -11 18 -13 -14 19 -16 -17 17 -19 -20 -21 22 -23 24 27 25 -27 -28 -29 -30 -31
leaf_value=0.12634198725420237 0.059990652694573737 -0.01632550827036857 -0.035268240753100123 0.12639161009750913 -0.035210217157403349 0.12540030175074418 0.081813608029081969 -0.035177512218959796 0.15228977855921927 0.12373248749310373 -0.035212698891987054 -0.018689137299561943 0.028493382706132032 -0.035328030124657871 -0.035228249520024416 0.030819569391966131 0.062410809338411422 -0.035243819479431997 -0.0021745303629532521 -0.0081136967234575908 -0.035299628106323408 0.023676197616679374 -0.035188490233028745 -0.03522986408905128 -0.035208983379652233 -0.035303711777191847 -0.035164911954338123 -0.035262840275652123 -0.035277314067127766 -0.035183700542637183
leaf_weight=1.8529021814465512 2.099361851811409 2.6477169916033731 1.5543449595570562 2.4697949364781384 5.2949850186705687 1.5559193640947366 2.1359431892633434 1.7135644778609274 1.5988561883568762 1.5719607397913922 1.7407035902142514 3.0068479478359205 2.3514472097158423 1.8322705551981933 2.3614344149827984 1.5144124701619146 1.5360192731022828 2.4539310559630394 1.5134047344326971 1.8429036960005767 2.5176799371838596 1.696821369230747 8.6849752068519575 2.7480423077940941 3.5504501312971106 1.8923045396804807 1.4810063838958734 2.399452939629553 2.2584338262677206 3.3621509522199631
leaf_count=21 27 35 20 28 70 20 28 23 20 20 23 38 30 23 31 20 20 32 20 24 32 22 116 36 47 24 20 31 29 45
internal_value=-3.85016e-05 0.0384378 0.0215894 0.0525521 -0.00699479 0.00505548 -0.0193385 0.0297363 -0.00104629 0.0203195 0.00425338 0.0406657 -0.0141942 -0.0202244 0.00958414 -0.0132369 -0.0261765 0.00235048 -0.0261689 -0.0311372 -0.0309918 -0.0209192 -0.0352228 -0.0352399 -0.0352091 -0.0352419 -0.0352178 -0.0352209 -0.0352492 -0.0352045
internal_weight=75.24 11.5202 9.66728 5.11751 63.7199 32.2432 31.4767 3.84951 30.6873 11.6902 10.1182 4.6057 18.9971 16.6456 4.4608 4.54976 27.6272 3.98995 5.51254 12.1848 23.6372 6.99181 16.6454 10.3419 14.1277 5.44275 3.03535 8.50965 3.99914 6.11019
internal_count=975 144 123 63 831 417 414 51 397 150 130 58 247 217 58 60 363 52 72 159 311 92 219 135 187 71 40 112 52 81
is_linear=0
shrinkage=0.05


Tree=5
num_leaves=31
num_cat=0
split_feature=4 33 3 0 11 6 30 3 0 34 7 13 30 14 8 34 34 23 9 23 9 33 20 20 27 20 11 4 30 35
split_gain=17.1884 14.0126 10.9466 7.84231 8.59037 6.73847 6.32113 6.08431 6.00173 9.58275 5.34557 5.08795 4.91586 4.22204 4.95623 4.93898 4.03929 3.60698 4.76268 3.53444 3.41655 4.2026 3.88071 3.15973 3.14194 2.89753 3.44369 4.94812 2.60646 2.5354
threshold=-0.1312751613031872 2.5000000000000004 0.053065719668774533 -0.0042519081214640181 -0.18552420495149596 0.21220781784680184 0.032512451694554953 -0.11462162017495901 0.018543761875793294 9.5000000000000018 -0.33265377978461669 -0.0037802455185570552 0.026766465590884209 -0.00042783689965942369 -0.13637328492405196 22.500000000000004 8.5000000000000018 0.066799771725923454 -0.066765619858088168 0.05242661160344609 -0.081309780494540948 5.5000000000000009 0.32315696347623551 -9.0335889255957737e-05 0.86034879688005139 -2.8798865919337477 -0.11505533940990469 0.0033912956762383074 0.068532962955039078 11.500000000000002
decision_type=2 2 2 2 2 2 2 2 2 2 2 2 2 2 2 2 2 2 2 2 2 2 2 2 2 2 2 2 2 2
left_child=3 6 8 4 -1 -4 -2 -6 11 -10 -5 17 -13 14 15 16 -8 -3 -19 -15 -14 22 23 -22 -11 -21 27 -27 -12 -28
right_child=1 2 5 10 7 -7 13 -9 9 24 28 12 20 19 -16 -17 -18 18 -20 25 21 -23 -24 -25 -26 26 29 -29 -30 -31
leaf_value=0.06291997538742139 -0.042376460482746091 0.037789505131197956 -0.040524178560314997 -0.032060352382309754 -0.01438863332854862 0.015726937246213542 0.009228024186516838 0.043098976714126283 0.036216238057853616 -0.047861564308726304 0.037305971983354579 -0.022054625486650506 -0.018476839088566628 0.0081242594566004571 0.036997476808939125 0.018287423306637289 -0.035510444460754013 0.036964502470948325 -0.017271357967157491 0.0015263873430001211 0.0212872423884716 -0.010991957646291777 -0.0019399492375700555 0.057172421888087216 -0.0078058049785988256 -0.040969333923653928 -0.017102108912884138 0.008811020614892558 0.001353980514182973 -0.051654301965518505
leaf_weight=18.196570932865143 21.38863006234169 30.95249342918396 19.18006789684296 7.693053990602496 9.1663036048412341 7.3697014451026908 7.3581946194171932 9.2444218397140485 7.7804457545280483 10.579206079244615 8.8357020914554614 12.462949037551878 7.3745588958263388 9.1296458542346937 7.3409503102302542 11.74386954307556 16.050514847040176 7.7622621655464199 8.4588129520416242 8.4208757281303388 14.356138974428172 9.5350638031959516 8.8207481205463392 10.710855871438985 9.112506687641142 9.4538171589374524 7.3286033570766511 10.576658636331556 11.739377468824385 19.268581002950668
leaf_count=49 59 84 53 21 25 20 20 25 21 29 24 34 20 25 20 32 44 21 23 23 39 26 24 29 25 26 20 29 32 53
internal_value=-3.0213e-06 -0.00516696 0.00448991 0.0232806 0.0385569 -0.02491 -0.0175684 0.0144771 0.01015 -0.0107632 0.00349784 0.0153525 0.00608475 -0.0125941 -0.000369411 -0.00817278 -0.0214475 0.0277806 0.0086821 -0.0206883 0.0129886 0.0183325 0.0265835 0.0366206 -0.0293254 -0.0254668 -0.0303418 -0.0146839 0.0167931 -0.0421338
internal_weight=357.392 292.516 164.456 64.8754 36.6073 26.5498 128.06 18.4107 137.906 27.4722 28.2681 110.434 63.2603 106.672 42.4935 35.1526 23.4087 47.1736 16.2211 64.1782 50.7974 43.4228 33.8877 25.067 19.6917 55.0485 46.6277 20.0305 20.5751 26.5972
internal_count=975 799 448 176 99 73 351 50 375 75 77 300 172 292 116 96 64 128 44 176 138 118 92 68 54 151 128 55 56 73
is_linear=0
shrinkage=0.05


Tree=6
num_leaves=31
num_cat=0
split_feature=21 33 3 31 34 7 32 15 23 30 1 31 15 32 34 6 25 15 31 6 31 34 7 11 9 6 5 11 4 23
split_gain=13.2384 11.5581 12.4854 8.12108 10.043 6.67904 6.49432 6.29674 6.12739 5.98092 5.36842 5.21757 5.21342 9.54008 5.01657 4.62723 4.52049 4.2123 4.24932 4.10935 4.71651 3.73615 3.06969 2.95705 2.7968 2.59769 2.70535 2.3374 1.94339 3.73678
threshold=35.798028205818682 2.5000000000000004 0.06835032771144707 0.0037270408129835859 7.5000000000000009 -0.35136856996556215 0.00041686124134120579 -0.021895324718694782 0.090638048933074214 0.13747434123603777 -0.07838047514214698 0.017254810568592977 0.016822633898940623 0.00022189749717991733 28.500000000000004 0.18522471436337304 0.56759396261347661 -0.028940533796104114 -0.012824577361580441 -0.1938999812729367 -0.0016636727036537871 8.5000000000000018 -0.11255343670397526 -0.29888117075696036 -0.078963680671760281 -0.27154625374337782 -0.12882112114887467 -0.10205490824485287 -0.079129028549535463 0.050725635966006689
decision_type=2 2 2 2 2 2 2 2 2 2 2 2 2 2 2 2 2 2 2 2 2 2 2 2 2 2 2 2 2 2
left_child=9 8 3 6 11 -6 17 -7 12 10 -1 -5 14 21 25 -4 -9 24 -19 20 -12 -14 -8 -21 -3 -2 -27 -20 -28 -30
right_child=1 2 15 4 5 7 22 16 -10 -11 19 -13 13 -15 -16 -17 -18 18 27 23 -22 -23 -24 -25 -26 26 28 -29 29 -31
leaf_value=0.017175240181761191 0.049754013305181921 -0.0093025195123761419 0.046464299342412835 -0.002221594102442612 -0.015384444689001959 -0.0025544699706529328 -0.050264783065128708 0.056735646847146284 -0.017706799017080315 -0.058925728827726509 -0.042237139278163326 -0.057901152602118026 -0.0034092116454339711 -0.034425492684698897 -0.0074597116835650734 -0.0015672659801427441 0.0119357395208569 0.026885482441382863 -0.033584375593343783 -0.021399202131421692 -0.0063914488327600468 0.042295550783708426 -0.01279405939449429 0.022023477291697999 -0.048403223737102243 0.0024691337682807221 0.012556025141531363 0.0059210558871790817 0.0093924525173889762 0.045358639712479137
leaf_weight=11.588908791542051 14.434130221605299 9.7410224974155444 15.155474841594698 8.2372524440288561 14.235403269529341 13.472838670015333 20.214385926723484 15.178582340478899 11.987952530384062 8.2334840893745405 24.686356484889977 8.6002709567546827 7.4783511459827485 11.241555869579313 9.7334687113761884 7.4935433268547049 8.9515871703624708 11.193103760480883 7.4908407926559448 7.4876810908317557 14.606355667114263 11.120297461748121 7.4913314878940573 8.230279326438902 8.6206290721893293 10.05654275417327 11.154943853616706 7.4859443008899671 9.662430733442319 28.591925531625748
leaf_count=31 39 26 41 22 38 36 54 41 32 22 66 23 20 30 26 20 24 30 20 20 39 30 20 22 23 27 30 20 26 77
internal_value=1.97515e-05 0.00487267 -0.00388444 -0.00942276 0.00288784 0.013785 -0.0211265 0.0248277 0.0162892 -0.0187234 -0.0137533 -0.0306616 0.0198807 0.00193858 0.0262824 0.0305728 0.0401162 -0.00930129 0.00357974 -0.0202689 -0.0289122 0.0239181 -0.0401331 0.00133789 -0.0276599 0.0307266 0.0261081 -0.0138381 0.0309194 0.0362742
internal_weight=363.857 289.024 163.562 140.913 68.6759 51.8384 72.2373 37.603 125.462 74.8331 66.5996 16.8375 113.474 29.8402 83.6334 22.649 24.1302 44.5315 26.1699 55.0107 39.2927 18.5986 27.7057 15.718 18.3617 73.9 59.4658 14.9768 49.4093 38.2544
internal_count=975 775 438 377 184 139 193 101 337 200 178 45 305 80 225 61 65 119 70 147 105 50 74 42 49 199 160 40 133 103
is_linear=0
shrinkage=0.05


Tree=7
num_leaves=31
num_cat=0
split_feature=19 26 19 13 13 34 8 19 25 30 0 17 35 28 32 7 25 0 3 17 24 24 35 35 23 12 23 24 2 23
split_gain=7.27909 4.601 3.87984 3.58978 8.30397 4.53606 3.99198 4.51937 3.95584 2.97052 2.40143 2.28963 5.8514 3.03108 1.70061 1.50439 1.1671 0.983421 2.60202 0.549044 0.425969 1.92967 2.1102e-05 1.41482e-05 1.21467e-05 1.16421e-05 1.1574e-05 5.19176e-06 4.29878e-06 3.74358e-06
threshold=-10.649462651524574 10647.400000000001 -261.52579225923915 -0.0034302726537959031 -0.0036664233668266604 28.500000000000004 1.9164137555516054 34.691740705794842 0.31682484623401536 0.039151579558835754 -0.0026752461926723122 -0.011130489762071342 24.500000000000004 -0.61582869165087961 -0.00075754286079595258 -0.51578385350053135 0.028195580519783228 0.025774840433718488 0.038170441954433747 -0.013558788694160271 0.16620447890119625 0.14628138884618741 21.500000000000004 24.500000000000004 0.060649284220634321 -0.0027151302068320034 0.069112463017027129 0.18051098408204011 0.091325847661127654 0.057490320389088349
decision_type=2 2 2 2 2 2 2 2 2 2 2 2 2 2 2 2 2 2 2 2 2 2 2 2 2 2 2 2 2 2
left_child=1 -1 9 4 5 11 17 -8 -7 -3 -4 15 13 -13 -15 -2 -17 20 -19 22 21 -5 29 -22 -25 -16 -24 -12 -20 -18
right_child=3 2 10 6 -6 8 7 -9 -10 -11 27 12 -14 14 25 16 19 18 28 -21 23 -23 26 24 -26 -27 -28 -29 -30 -31
leaf_value=0.10130185373668479 0.025500679167840365 0.10985704063477673 0.027210592863989178 -0.035143255304864111 0.11287575874926103 -0.0037837662109293786 0.073189426630780638 -0.035109724097955264 0.10465500648232645 0.01862878551848457 -0.035124734966652547 0.05229860550173631 0.08559637655952472 0.020900747456222467 -0.035190679759354464 0.007335261643549907 -0.03523782054925869 0.037110989585836425 -0.035232900739572241 -0.0036874841052705319 -0.035123955067177075 0.028458762341937557 -0.035231870839914158 -0.035340060963463114 -0.035166752361244287 -0.035348112602879109 -0.035416471265834838 -0.035256694360160622 -0.035115208728060211 -0.035151319765159415
leaf_weight=2.186605066061019 1.6446520313620592 1.7191311269998544 3.1895145848393431 4.9753129556775191 1.6851413100957895 1.5901630967855447 2.3022220134735103 1.6563946455717085 1.7852160856127737 1.8552794903516767 1.448200084269047 1.7081961259245861 2.0636162832379332 1.7801840156316746 3.8871011212468134 2.3497725725173977 1.6060207560658453 2.070721633732318 1.677151717245579 1.5859999060630769 10.867697499692438 1.5685379132628439 1.7508391290903094 1.6027322113513935 2.7384282648563385 1.6826307699084293 1.6486341208219526 1.5358689129352567 1.4437937289476392 5.6550287455320358
leaf_count=22 21 20 38 68 20 21 28 23 22 24 20 20 24 23 52 31 21 26 22 21 150 20 23 20 37 21 20 20 20 77
internal_value=-6.57884e-05 0.0357531 0.0210496 -0.00681629 0.00480581 -0.00111887 -0.0190101 0.0278741 0.0535688 0.0625055 -0.0029527 -0.00786498 0.00961307 -0.00769742 -0.0216411 -0.0198339 -0.024942 -0.0258983 -0.00634546 -0.0311351 -0.0305649 -0.0198981 -0.0352186 -0.0351544 -0.0352307 -0.0352382 -0.0353214 -0.0351927 -0.0351785 -0.0351705
internal_weight=75.2608 11.9346 9.74799 63.3262 32.4232 30.7381 30.903 3.95862 3.37538 3.57441 6.17358 27.3627 11.1217 9.05811 7.34992 16.2409 14.5963 26.9444 5.19167 12.2465 21.7527 6.54385 10.6605 15.2089 4.34116 5.56973 3.39947 2.98407 3.12095 7.26105
internal_count=975 144 122 831 417 397 414 51 43 44 78 354 140 116 96 214 193 363 68 162 295 88 141 207 57 73 43 40 42 98
is_linear=0
shrinkage=0.05


Tree=8
num_leaves=31
num_cat=0
split_feature=21 33 2 35 32 15 0 11 1 27 30 1 30 13 33 0 7 31 32 27 23 34 28 32 9 28 3 27 10 19
split_gain=14.9464 10.4089 9.75335 8.20512 7.62757 10.9733 6.8487 6.48831 4.73828 5.86758 4.22686 5.61193 5.45883 7.18684 4.72132 4.63486 3.80989 3.74327 6.06552 4.24941 3.35433 3.49287 3.2784 3.82267 3.26325 3.2365 2.7584 2.25105 2.24632 2.05173
threshold=36.567617915612153 2.5000000000000004 -0.010761543047533973 24.500000000000004 0.00022189749717991733 0.022704716775906207 0.0069378802087217287 -0.18753260703754243 -0.038246165243364265 0.58611181040898186 0.13747434123603777 -0.075756074530078862 0.098758241471034638 -0.0045712458488157779 1.5000000000000002 0.0010828166997550552 -0.39777332187804565 0.0075624443780611074 0.0004730126148996333 0.76244311399122477 0.068932144447548305 16.500000000000004 0.34047446234916279 -0.00060862645812372843 0.055742856206559672 -0.41276807578060332 -0.045488723127308429 0.73291750924144539 -0.19936521693699708 0.0054400128175183205
decision_type=2 2 2 2 2 2 2 2 2 2 2 2 2 2 2 2 2 2 2 2 2 2 2 2 2 2 2 2 2 2
left_child=10 4 7 16 22 20 -5 -3 -9 -10 11 -1 13 14 -13 28 -4 18 19 -18 -6 -22 23 25 -19 -2 -15 -27 -16 -25
right_child=1 2 3 6 5 -7 -8 8 9 -11 -12 12 -14 26 15 -17 17 24 -20 -21 21 -23 -24 29 -26 27 -28 -29 -30 -31
leaf_value=-0.015750665113758271 0.0018675808257612417 0.042554372224658812 0.012055555310527327 -0.005799267576399798 -0.030348735420167618 0.047048214060184154 0.052100070069551356 0.031721036960928407 0.024089950037300911 -0.021775686426936211 0.050793948514508726 -0.0060675053988822232 0.06084406359592575 0.010566760928527383 0.03552735553088792 0.012935653028920619 -0.046871291088485131 -0.039488494900196097 0.024407616990429624 0.0039192967178196614 -0.02210229499973387 0.026295779731430935 -0.00033586035318671723 -0.04942923032330479 -0.0016736953195360437 -0.010351745340583444 -0.026035476697567606 -0.046124495382945413 0.071762166494674026 -0.023310001517547901
leaf_weight=12.838694542646406 12.730427443981172 18.892416656017303 10.622188925743101 11.363514900207521 15.518927842378618 9.6778535544872266 9.2770583331584913 13.662525862455366 11.415086537599565 17.919393301010132 8.9118194580078107 7.6755212545394818 7.4040572047233573 9.9624610841274279 8.1922837197780591 11.065603524446486 9.4769919812679344 26.727516651153564 9.9980113208293897 7.2828669846057883 7.2306467890739423 7.6954931914806366 10.551720052957533 24.777459770441055 7.2534438371658316 7.5973425507545498 10.649799525737768 10.441762775182722 8.9499770402908378 10.794089913368223
leaf_count=35 35 51 29 31 43 26 25 37 31 49 24 21 20 27 22 30 26 74 27 20 20 21 29 69 20 21 29 29 24 30
internal_value=-6.26949e-06 -0.00576237 0.00278392 -0.00754014 -0.0170019 0.000670215 0.020224 0.0181311 0.00739985 -0.00392774 0.0181999 0.0144147 0.0204755 0.015185 0.028701 0.0381617 -0.0155707 -0.0204021 -0.00641409 -0.0248006 -0.0140724 0.00285038 -0.0262232 -0.0303407 -0.0314167 -0.0174358 -0.00834463 -0.0310585 0.0544456 -0.0415034
internal_weight=356.557 270.907 153.891 92.0016 117.016 40.1229 20.6406 61.8894 42.997 29.3345 85.6502 76.7384 63.8997 56.4956 35.8834 28.2079 71.361 60.7388 26.7579 16.7599 30.4451 14.9261 76.8928 66.3411 33.981 30.7695 20.6123 18.0391 17.1423 35.5715
internal_count=975 743 420 252 323 110 56 168 117 80 232 208 173 153 97 76 196 167 73 46 84 41 213 184 94 85 56 50 46 99
is_linear=0
shrinkage=0.05


Tree=9
num_leaves=31
num_cat=0
split_feature=2 33 35 6 35 27 1 35 31 14 10 10 32 24 2 27 27 24 1 35 35 27 33 33 0 1 20 35 21 10
split_gain=11.9365 11.2965 9.89801 8.6721 9.97925 8.18844 8.44674 6.22016 5.84283 6.43319 6.19019 6.51038 5.63068 4.9024 3.70493 6.31297 3.4481 4.21149 3.44398 3.42808 5.02021 4.31333 3.95371 10.4453 3.26133 5.02989 3.08986 3.00635 2.94869 5.12217
threshold=-0.010761543047533973 1.0000000180025095e-35 24.500000000000004 -0.10988210811924386 24.500000000000004 0.51147163327947121 0.0041663675571105051 9.5000000000000018 -0.011285067255047672 0.0010879737849195073 -0.12099126074630633 -0.1444293674514768 5.8461296622467801e-05 0.2706427242720611 -0.058754943646061548 0.68902163278129358 0.86660039497295915 0.2335912137501899 -0.017421665036626434 7.5000000000000009 12.500000000000002 0.76244311399122477 3.5000000000000004 5.5000000000000009 0.015550661459807312 0.010201909116141548 0.00027998028008329709 9.5000000000000018 38.271025655754151 0.018844440117572556
decision_type=2 2 2 2 2 2 2 2 2 2 2 2 2 2 2 2 2 2 2 2 2 2 2 2 2 2 2 2 2 2
left_child=1 7 12 8 18 -4 -7 -1 9 -3 11 14 19 -11 -10 -16 24 -18 28 21 -21 -2 -22 -24 25 27 -23 -14 -5 -30
right_child=2 3 5 4 -6 6 -8 -9 10 13 -12 -13 16 -15 15 -17 17 -19 -20 20 22 26 23 -25 -26 -27 -28 -29 29 -31
leaf_value=-0.008797746352857112 -0.018931658657592495 -0.047135179243651688 -0.043428525790621265 0.024233638189172575 -0.04321527213943957 0.04177942320959406 -0.013645748758751533 0.047102243017310357 0.014560612073079066 0.015895745743309687 -0.04096851192293767 0.042697658632810637 -0.0039720993161295086 -0.036957713054653049 0.0064142800285409574 -0.058573126658301604 -0.028727210275016901 0.011950471502425612 0.027002402406800526 0.056153234505206207 0.035384013391224343 0.047846276543053345 -0.031744901881280305 0.047775661155234295 0.039700005669454447 -0.02638468020705664 0.0022223195708338315 0.036455649330444505 -0.031669557331123852 0.01970824859057603
leaf_weight=8.1999528110027331 8.9511383473873156 34.644404172897339 13.807934999465941 8.5849704146385175 10.450918674468992 9.6567268967628461 23.855446964502335 12.65900409221649 8.9426519572734851 8.9604712128639239 11.580294936895369 7.4284837841987637 7.8373380005359712 8.5964753925800306 7.4631953537464124 7.4845733940601349 13.746879398822786 11.846355885267256 19.343530625104908 14.741883695125578 23.169941574335098 7.4151008427143079 9.3198776245117205 7.4151131808757773 9.2427629530429822 8.5819647312164289 7.4290019273757935 11.127696633338926 11.926505386829378 8.1772458255290967
leaf_count=22 24 93 37 23 28 26 64 34 24 24 31 20 21 23 20 20 37 32 52 40 63 20 25 20 25 23 20 30 32 22
internal_value=2.30566e-05 -0.0093985 0.00875844 -0.0140876 0.00106321 -0.0110256 0.00232534 0.0251272 -0.0234048 -0.0346398 -0.00973356 0.00181569 0.0154063 -0.0099831 -0.0108961 -0.0261259 0.00419509 -0.00989871 0.0106974 0.0243223 0.0312196 0.00848215 0.0220085 0.00348989 0.0139996 0.00537642 0.0250129 0.0197488 -0.000296384 -0.0107715
internal_weight=362.588 174.443 188.145 153.584 58.4832 47.3201 33.5122 20.859 95.1006 52.2014 42.8992 31.3189 140.825 17.5569 23.8904 14.9478 62.383 25.5932 48.0323 78.4421 54.6468 23.7952 39.9049 16.735 36.7898 27.547 14.8441 18.965 28.6887 20.1038
internal_count=975 468 507 412 157 127 90 56 255 140 115 84 380 47 64 40 168 69 129 212 148 64 108 45 99 74 40 51 77 54
is_linear=0
shrinkage=0.05


Tree=10
num_leaves=31
num_cat=0
split_feature=19 25 16 4 10 13 6 8 19 17 26 24 31 7 11 35 31 3 10 31 35 17 28 35 7 27 24 24 21 6
split_gain=6.60214 4.32946 5.7984 6.11389 7.23789 3.40401 7.58394 3.79544 3.99241 2.95069 6.08117 3.76274 8.5702 1.85574 2.07105 3.90335 1.49641 3.07628 1.41069 0.486073 0.415361 0.411315 0.335299 1.68192e-05 1.03196e-05 8.74347e-06 8.60927e-06 1.09393e-05 5.28147e-06 4.33124e-06
threshold=-10.649462651524574 0.12851848175786926 -0.017146718219192756 -0.0023887539216104186 -0.12099126074630633 -0.0034302726537959031 -0.16685477747851474 1.9164137555516054 34.691740705794842 -0.011130489762071342 2533.0000000000005 0.20158832306645794 -0.012624545473784858 0.094997750882814508 -0.35986796125898063 12.500000000000002 0.033207239822076663 0.042899011460272245 -0.010410222709934918 0.023194094993426079 28.500000000000004 -0.013558788694160271 -0.58514522461410534 24.500000000000004 -0.34042013642641639 0.72681712812359434 0.17967707834069582 0.14628138884618741 35.618917390747292 -0.27908860837128407
decision_type=2 2 2 2 2 2 2 2 2 2 2 2 2 2 2 2 2 2 2 2 2 2 2 2 2 2 2 2 2 2
left_child=1 -1 3 4 -3 6 9 16 -9 13 11 12 -11 14 15 -2 20 -18 -4 25 22 24 -7 26 -16 -13 27 -24 -26 -30
right_child=5 2 18 -5 -6 7 -8 8 -10 10 -12 19 -14 -15 21 -17 17 -19 -20 -21 -22 -23 23 -25 28 -27 -28 -29 29 -31
leaf_value=-0.035393161636410833 -0.035178464981521149 0.091598794628313246 -0.035492416628887268 0.13969515330425314 -0.035367832235501058 -0.015929265795006028 0.10511721050788381 0.06651406474789387 -0.035043735703569716 0.1149031025672187 0.10253741904974074 -0.035275266499745078 -0.018765006607145637 0.027419110908063746 -0.035237569143479315 0.057902511156222372 0.05423694953990426 -0.035090290226294493 0.028593502418793992 -0.0015834017900829894 -0.0077942367474761525 -0.010295709284329787 -0.035086236888847322 -0.035221372770292636 -0.035170394341566671 -0.035125034178763843 -0.035057555246610847 -0.035222360126939564 -0.035014687999900838 -0.035125179618377016
leaf_weight=1.9284513741731633 2.3742103204131153 2.7462172284722315 1.9040744826197626 2.2787610068917274 1.8983989506959917 2.6103324294090369 1.7746114656329179 2.4493479803204528 1.5997732877731321 1.9904261305928228 1.8089919537305821 1.8556646257638933 3.0164544880390149 2.3899083212018004 2.7453614622354516 2.1428557261824608 1.6726481840014451 2.2743853181600571 1.5640852227807034 1.4877561926841734 1.8277998194098461 2.0090504810214034 4.1921352222561898 2.9505949318408957 3.1857064589858064 2.025767982006073 8.4671909585595113 2.2778991237282753 1.4375833980739132 2.3155568018555628
leaf_count=24 32 29 23 24 24 37 19 28 23 21 20 24 38 30 36 26 20 32 20 20 25 27 59 39 43 28 121 30 21 32
internal_value=-5.85824e-05 0.0334114 0.0461801 0.0726148 0.0397036 -0.0066161 0.0046103 -0.018671 0.0263894 -0.0011834 0.0179418 0.00319316 0.0343732 -0.0137124 -0.0197764 0.00897832 -0.0256156 0.00276423 -0.00659068 -0.0258829 -0.0306329 -0.0308843 -0.0326694 -0.0351123 -0.0351555 -0.0351969 -0.0350907 -0.0351342 -0.035123 -0.0350829
internal_weight=75.202 12.32 10.3915 6.92338 4.64462 62.882 32.5599 30.3221 4.04912 30.7853 12.1851 10.3761 5.00688 18.6002 16.2103 4.51707 26.273 3.94703 3.46816 5.36919 22.326 11.6933 20.4982 17.8878 9.68421 3.88143 14.9372 6.47003 6.93885 3.75314
internal_count=975 144 120 77 53 831 417 414 51 398 151 131 59 247 217 58 363 52 43 72 311 159 286 249 132 52 210 89 96 53
is_linear=0
shrinkage=0.05


Tree=11
num_leaves=31
num_cat=0
split_feature=4 33 3 31 31 11 34 13 3 8 6 33 30 31 33 1 3 32 15 8 1 12 34 20 28 23 23 22 13 11
split_gain=14.1655 11.1335 8.91913 8.03342 7.09528 7.31319 6.80236 7.01166 6.0118 5.87002 5.71458 5.63027 5.5898 5.32183 5.00592 5.51497 4.19361 3.85425 9.46137 5.19766 3.73778 3.36634 6.01062 2.69847 3.00732 3.98766 2.51577 2.21377 3.18359 2.03488
threshold=-0.1312751613031872 2.5000000000000004 0.053065719668774533 0.0037270408129835859 -0.0040699791836563146 -0.18552420495149596 7.5000000000000009 -0.0030637165891282637 -0.13303871541245185 -0.13448952482981977 0.21220781784680184 5.5000000000000009 0.032512451694554953 0.017722421553674299 3.5000000000000004 -0.0083406339010436963 -0.032428467755385985 0.00022189749717991733 0.022704716775906207 -0.41951478304020196 -0.021026026231016452 -0.011324017818479913 19.500000000000004 -2.3008774692085834 -0.49945937502654486 0.060309046142711535 0.058772205363915912 0.016556552440578649 -0.0028811781423769864 -0.13529662035834358
decision_type=2 2 2 2 2 2 2 2 2 2 2 2 2 2 2 2 2 2 2 2 2 2 2 2 2 2 2 2 2 2
left_child=4 12 3 9 5 -1 13 11 -7 20 -4 26 -2 -5 -11 16 -16 19 27 -14 -3 -6 -23 -21 25 -25 -8 -19 -29 -9
right_child=1 2 10 6 21 8 7 29 -10 14 -12 -13 17 -15 15 -17 -18 18 -20 23 -22 22 -24 24 -26 -27 -28 28 -30 -31
leaf_value=0.057866651239525502 -0.039552755901829662 0.0098016172198596083 -0.037673090105959907 -0.0036664576227642119 0.026705832179073231 -0.017780218350477626 0.034533718004270589 -0.022312877562088974 0.038965449370837381 -0.016005133830200035 0.014225682742266925 -0.029678375552993519 0.018611935193523745 0.054791594863905446 0.061152310801810487 -0.0040218102146368151 0.0156625425346903 0.0094075214696262392 0.044150395911799867 0.0012708263114408194 0.051049544305997119 0.016450728890556952 -0.040404772314772686 -0.034466779754459269 -0.035557362044047788 0.017544011372362191 -0.0019235927526819914 -0.039065228186315859 0.0026245909133639665 -0.055182572137527044
leaf_weight=18.323099404573441 20.85246804356575 7.7779531180858639 18.69576328992844 8.1062400341033918 9.2321412861347216 8.4619684219360369 10.240728706121446 10.427020579576494 10.40861529111862 13.657148241996763 7.4048828184604636 9.3576951324939746 8.4299971759319288 7.4910216629505149 9.3161931335926038 14.363088607788084 11.106403082609178 7.5894663333892849 9.7282148599624616 9.4367153942584974 18.689281016588211 9.9149591922760028 8.751602888107298 7.4632613956928235 36.346526920795441 7.2801515758037567 8.7966558635234815 11.530150145292284 7.5961523950099936 8.5855278968811017
leaf_count=49 59 21 53 22 25 23 28 29 28 37 20 26 23 20 25 39 30 21 26 26 50 27 24 21 102 20 24 32 21 24
internal_value=-1.11282e-05 -0.00473846 0.00385294 0.00892529 0.0210696 0.0353667 -0.00423295 -0.0136565 0.0135195 0.0199923 -0.0229492 0.00207811 -0.0158996 0.0244097 0.00964665 0.0197178 0.0364136 -0.01122 0.00193205 -0.0181709 0.038928 0.00200919 -0.0102053 -0.023294 -0.0278313 -0.00878437 0.0176878 -0.0134412 -0.0225078 -0.0371559
internal_weight=355.361 290.269 164.016 137.915 65.0924 37.1937 63.0049 47.4076 18.8706 74.9101 26.1006 28.3951 126.253 15.5973 48.4428 34.7857 20.4226 105.401 36.444 68.9567 26.4672 27.8987 18.6666 60.5267 51.0899 14.7434 19.0374 26.7158 19.1263 19.0125
internal_count=975 799 448 375 176 100 173 131 51 202 73 78 351 42 131 94 55 292 100 192 71 76 51 169 143 41 52 74 53 53
is_linear=0
shrinkage=0.05


Tree=12
num_leaves=31
num_cat=0
split_feature=2 35 6 34 1 32 11 12 20 34 5 31 5 6 4 34 34 26 5 0 31 0 1 35 6 13 35 9 23 8
split_gain=10.8643 8.87337 6.65009 5.94897 5.24026 5.05915 4.03897 3.92476 4.39811 3.78754 7.04175 3.77854 4.04628 3.61889 3.36334 5.27805 3.34001 3.5813 3.33357 3.26789 3.20389 7.18096 6.28531 6.37708 3.15786 4.83048 2.74457 3.46309 2.7074 2.69819
threshold=-0.010761543047533973 24.500000000000004 -0.10988210811924386 6.5000000000000009 -0.0053917887178194304 5.8461296622467801e-05 -0.30545605785105406 0.0049243156071603735 0.0024400083788429995 15.500000000000002 -0.212198852902171 -0.0014474092441104714 -0.0028668327595674351 -0.15156401849409465 -0.03731599137514794 18.500000000000004 27.500000000000004 613.87500000000011 -0.020268257770340959 -0.010090532401179611 0.019153629259286816 0.040404474247327717 0.012617347168538294 7.5000000000000009 0.035272251952327839 0.0026229976425288597 12.500000000000002 -0.01234010981526691 0.057490320389088349 -0.36452898042583609
decision_type=2 2 2 2 2 2 2 2 2 2 2 2 2 2 2 2 2 2 2 2 2 2 2 2 2 2 2 2 2 2
left_child=2 5 6 -4 -3 16 14 8 24 18 -11 -6 13 -13 15 -1 17 -2 19 -8 22 -22 23 -7 -5 -26 -19 -28 -25 -17
right_child=1 4 3 7 11 20 9 -9 -10 10 -12 12 -14 -15 -16 29 -18 26 -20 -21 21 -23 -24 28 25 -27 27 -29 -30 -31
leaf_value=0.0064784160249028201 0.002541099971299675 0.026080837010585535 -0.02746963240501021 0.025135700647690076 -0.047371539378230694 -0.0203041739122524 -0.0038283154606221052 0.039648461006248512 -0.030744623361472295 -0.049559872044370512 -0.0035916630415841391 -0.0041834623253892231 0.011370541896275423 -0.049802369958323614 -0.054079128315479966 -0.05716472755593674 0.0024838115634877398 0.048543102330668594 -0.027326727465589559 0.031804528154233978 0.054276500361390034 -0.0066396937716816018 -0.027537212495355956 0.008572370552786172 -0.027677739620189323 0.025161207447718714 0.0057135865915034674 0.039181292942012141 0.049590424420277543 -0.016281059334563915
leaf_weight=10.789314746856691 11.047086894512175 8.1531087160110456 12.652730584144591 19.674380302429199 8.5475928485393506 9.6902332007884997 15.967269480228424 9.5779388844966871 7.4306973814964286 13.427974641323088 21.949082016944885 9.3161135613918287 12.998722851276399 8.1510231792926806 10.414252132177351 8.8944401443004626 15.584815442562101 19.74814909696579 7.4305303096771231 10.777370303869247 8.8101107180118579 10.730148464441298 16.708451390266418 7.3717688620090511 9.6772375106811541 7.8210889995098105 13.573843479156492 17.952268809080127 8.8556557893753034 7.3875816464424124
leaf_count=29 30 22 34 53 23 26 43 26 20 36 59 25 35 22 28 24 42 54 20 29 24 29 45 20 26 21 37 49 24 20
internal_value=2.45389e-05 0.00838186 -0.00897529 0.00339952 -0.0103757 0.0146981 -0.0167021 0.0106083 0.0043723 -0.0095717 -0.0210397 -0.0179944 -0.00975227 -0.0254715 -0.0299321 -0.0206428 0.0231864 0.0283636 0.0022996 0.0105308 0.00406056 0.0208256 -0.00362471 0.0117911 0.011392 -0.00406073 0.0339271 0.0247715 0.0309568 -0.0386147
internal_weight=361.111 187.239 173.872 66.8341 47.1666 140.073 107.038 54.1813 44.6034 69.5522 35.3771 39.0135 30.4659 17.4671 37.4856 27.0713 77.9062 62.3213 34.1752 26.7446 62.1664 19.5403 42.6261 25.9177 37.1727 17.4983 51.2743 31.5261 16.2274 16.282
internal_count=975 507 468 180 127 380 288 146 120 187 95 105 82 47 101 73 212 170 92 72 168 53 115 70 100 47 140 86 44 44
is_linear=0
shrinkage=0.05


Tree=13
num_leaves=31
num_cat=0
split_feature=19 15 10 0 35 6 20 27 17 5 12 27 8 8 10 11 7 4 0 24 1 24 13 17 8 5 24 7 13 0
split_gain=5.95575 4.09555 6.10259 3.82044 3.23677 4.92465 4.99842 4.06376 3.3418 4.11979 6.19185 5.23214 2.50647 5.18543 2.30442 2.93021 1.81387 0.930177 1.54359 0.621196 0.521214 0.390312 0.000221746 8.77238e-05 5.2628e-05 3.82194e-05 1.74442e-05 1.68763e-05 3.37226e-05 1.46018e-05
threshold=-10.649462651524574 -0.057333704774079515 -0.12099126074630633 -0.0026752461926723122 24.500000000000004 -0.27316928163785975 0.7639533246026301 0.46943315631900534 -0.0012281990270145459 -0.068801545916051962 -0.0027998554654482116 1.0555579309963268 -0.51218028311215436 -0.59328516779544649 -0.21724974721892795 -0.098682255614861547 -0.15009421766626921 0.0041285528170750463 0.0007868411971805857 0.12222758727353746 -0.034132392125322548 0.19796727664748406 -0.0033222170700751828 -0.98002183635535534 1.3772705455651451 -0.093264065700084164 0.19411471018341556 0.077918656950039564 -0.0033488001394726932 0.028698960686957334
decision_type=2 2 2 2 2 2 2 2 2 2 2 2 2 2 2 2 2 2 2 2 2 2 2 2 2 2 2 2 2 2
left_child=1 -1 -3 -4 8 -6 7 -7 9 12 -11 16 13 -2 15 -14 23 24 -19 -10 -9 -5 -21 -12 25 26 -16 28 -22 -28
right_child=4 2 3 21 5 6 -8 20 19 10 11 -13 14 -15 17 -17 -18 18 -20 22 27 -23 -24 -25 -26 -27 29 -29 -30 -31
leaf_value=-0.035570050538830451 -0.035039205937571941 0.093636747838849635 0.05320366259003502 -0.035196992906127926 0.086609931349751326 0.044690671322383441 0.081736516299958914 -0.0026627413578640688 -0.00082130480762516956 0.11085756822502042 -0.035134846325486906 0.082276516282769233 -0.035082455273525368 0.091638133798646118 -0.035237218415605405 0.048929785904518824 0.027574772896131181 0.032707089947276217 -0.035212841582658472 -0.035499396660950214 -0.03533922800165782 -0.0015508804479155071 -0.035004418811784524 -0.035610990964805266 -0.035424856124614996 -0.035345187258171616 -0.035023736984938672 -0.035390817711376886 -0.035064267774591332 -0.035190570633873881
leaf_weight=1.9488569349050511 1.6621614061295988 3.8519157245755187 3.3722653090953818 2.0635392665863042 2.0397542864084235 2.4946027249097806 1.7053839191794384 1.5320276170968989 1.4604798778891552 1.708235517144203 2.5392107591032973 1.6975736171007154 1.8432736694812772 1.5717412754893256 1.5858722627162904 2.3754295557737306 1.5912480317056239 1.4729090854525559 1.9361131712794302 2.8483999520540229 2.2884912788867924 1.4802598431706426 11.0037909373641 1.562651179730892 1.6398522183299054 1.6482300609350318 6.7158173695206624 1.6887350156903265 2.1748762503266379 1.6298244297504423
leaf_count=23 24 37 37 28 21 30 20 20 21 21 35 20 26 18 21 31 21 20 26 34 29 19 162 18 20 21 98 21 31 22
internal_value=-5.95434e-05 0.0311281 0.0431995 0.0151084 -0.00641374 0.0148351 0.00251584 -0.0107571 -0.012515 -0.0035982 0.0250642 0.00523448 -0.0144281 0.0265285 -0.0207814 0.0122224 -0.0177379 -0.0291545 -0.00586722 -0.0318362 -0.0287579 -0.0211429 -0.0351062 -0.0353162 -0.0351598 -0.0351222 -0.0350852 -0.0352562 -0.0352052 -0.0350563
internal_weight=75.1335 12.7168 10.768 6.91606 62.4167 13.9239 11.8841 10.1787 48.4928 33.1801 9.09892 7.39068 24.0812 3.2339 20.8473 4.2187 5.69311 16.6286 3.40902 15.3127 7.68413 3.5438 13.8522 4.10186 13.2196 11.5797 9.93151 6.1521 4.46337 8.34564
internal_count=975 144 121 84 831 172 151 131 659 442 115 94 327 42 285 57 74 228 46 217 101 47 196 53 182 162 141 81 60 120
is_linear=0
shrinkage=0.05


Tree=14
num_leaves=31
num_cat=0
split_feature=4 33 31 11 21 30 7 31 34 8 33 25 7 28 32 16 4 23 13 32 25 5 25 12 4 31 34 27 21 7
split_gain=12.8392 10.1766 6.34452 6.668 5.99892 5.33587 4.54093 4.37 8.96087 4.95878 4.78922 4.73712 4.7008 4.50325 4.22334 4.22265 5.03174 4.07488 4.06336 4.69114 6.20964 5.31381 9.15563 5.09191 6.93669 3.52491 3.32314 2.55975 2.00402 1.94463
threshold=-0.1312751613031872 2.5000000000000004 -0.0040699791836563146 -0.18552420495149596 58.430687760326464 0.026434478049393792 -0.33265377978461669 0.0037270408129835859 7.5000000000000009 -0.13448952482981977 3.5000000000000004 0.22504190718158659 -0.39407347796307518 -0.30032574850555432 0.00014133276870801202 -0.010550811098113257 -0.089997551443913054 0.058118870502922242 -0.006905854633864404 0.00022189749717991733 0.70236903878327583 -0.093586764011140591 0.26778049798786424 0.00060292647316510979 0.038024024269220857 0.017722421553674299 22.500000000000004 1.047404211081626 34.027226629889029 -0.27543757950192693
decision_type=2 2 2 2 2 2 2 2 2 2 2 2 2 2 2 2 2 2 2 2 2 2 2 2 2 2 2 2 2 2
left_child=2 5 3 -1 7 -2 -4 9 25 17 13 -12 -10 -11 -13 16 -14 -3 29 21 26 22 -20 -23 -25 -9 -21 -5 -8 -7
right_child=1 4 6 27 -6 18 28 8 12 10 11 14 15 -15 -16 -17 -18 -19 19 20 -22 23 -24 24 -26 -27 -28 -29 -30 -31
leaf_value=0.055045595569436903 -0.048277692547767426 0.054810491233929309 -0.030912856370909726 -0.0027032577582071509 -0.027605526633503491 -0.014792946227008247 -0.0022177976574153033 0.0051676610889264517 0.016905542678890381 -0.045247479151655397 0.040974576278278718 -0.014396323360198896 0.0031842466313140791 0.009612303021389523 0.026728558547768417 0.0029082120887032889 -0.044570697384381651 0.015996805930544124 0.046100282267162541 -0.01957057749962017 0.039789197127912533 -0.042690247023843157 -0.021462464326317252 0.022191365532696152 -0.037972081764694979 0.050112696312887728 0.020288677412861292 0.034692724203019262 0.029301273531426877 -0.049014178498615585
leaf_weight=18.327732026576996 11.141339689493178 11.206808477640154 7.6129604876041439 11.101506590843202 14.004271537065504 7.1845073103904751 9.5711573660373706 8.4849154651165026 10.347738355398176 7.6713587939739227 11.929638952016829 14.898474097251894 7.5502739250659934 7.3007864654064161 10.74565216898918 12.853909462690352 20.472375839948658 17.050196617841721 8.0721848607063311 16.498798429965976 10.076119810342787 22.510169595479965 13.237001240253447 9.6679548621177691 9.4976034760475141 8.9786069691181165 7.6554787456989279 7.7849622964859 10.659726947546003 9.8329239487647992
leaf_count=49 32 30 21 30 39 20 26 23 28 21 32 41 21 20 29 36 58 46 22 46 27 64 37 27 27 24 21 21 29 28
internal_value=-1.23969e-05 -0.0045318 0.0200546 0.0335606 0.00368632 -0.0152487 0.00200326 0.00661774 -0.00265434 0.0144996 0.00541645 0.0149451 -0.013199 -0.0184965 0.00283623 -0.0208199 -0.0317039 0.0313904 -0.0120273 -0.00808188 0.00681702 -0.016179 0.00413114 -0.0265637 -0.00762298 0.0282755 -0.00693755 0.0127113 0.0143897 -0.0345665
internal_weight=353.927 288.869 65.058 37.2142 163.495 125.374 27.8438 149.491 68.6878 80.8029 52.5459 37.5738 51.2243 14.9721 25.6441 40.8766 28.0226 28.257 114.233 97.2153 34.2304 62.9849 21.3092 41.6757 19.1656 17.4635 24.1543 18.8865 20.2309 17.0174
internal_count=975 799 176 100 448 351 76 409 190 219 143 102 143 41 70 115 79 76 319 271 94 177 59 118 54 47 67 51 55 48
is_linear=0
shrinkage=0.05


Tree=15
num_leaves=31
num_cat=0
split_feature=21 33 21 31 34 32 30 1 30 1 1 32 34 26 26 27 7 24 14 5 27 31 28 16 15 20 14 30 20 32
split_gain=9.63526 8.90956 8.00321 5.85598 15.4306 7.94601 5.0345 4.73203 4.61725 4.60215 3.66916 4.99456 4.50707 4.12394 3.44291 3.42502 4.2358 3.52937 3.39558 4.08551 3.34426 3.29418 3.11027 2.98187 2.92122 5.1557 4.50963 3.82424 2.73012 2.23059
threshold=35.798028205818682 2.5000000000000004 58.430687760326464 0.01863734109831729 7.5000000000000009 0.00075070337969270601 0.13747434123603777 -0.040449218019213841 0.0322802692377697 -0.07838047514214698 0.0097871372169611656 0.00014977084199706918 8.5000000000000018 16831.250000000004 1517.0500000000002 0.96913710185528035 -0.19076417650543645 0.26696278937857787 -0.0023897600653400557 -0.16361859720500421 0.60543737276020215 0.011099432751098853 -0.47993495622032073 -0.0014381293585797423 -0.022389491289242554 0.0027826374580580009 0.00095085761337223922 0.031557102690543612 0.0015132321366946686 -0.00044468440565153432
decision_type=2 2 2 2 2 2 2 2 2 2 2 2 2 2 2 2 2 2 2 2 2 2 2 2 2 2 2 2 2 2
left_child=6 8 3 5 -5 7 9 -3 28 -1 13 12 -12 18 -6 16 20 -17 -10 -20 -11 24 -21 -13 26 -26 -9 -27 -2 -14
right_child=1 2 -4 4 14 -7 -8 21 10 15 11 23 29 -15 -16 17 -18 -19 19 22 -22 -23 -24 -25 25 27 -28 -29 -30 -31
leaf_value=0.017217940831186745 0.056053421214367988 -0.030890764831722629 0.032132071856800337 -0.051990836529985887 0.0055848557269147 -0.037134632390356963 -0.053265276068337655 -0.029758974503022662 -0.0041422762517952499 -0.041156489847003208 -0.011823170453326119 0.0017551658928871468 0.010912279073364983 -0.016946258744853466 0.039620857639310281 -0.011014246540864137 0.023546498544101537 -0.052820134937847166 -0.0042024364617269227 0.012864111548516534 -0.0039793476350249391 -0.023749248484934978 0.044966869929881748 -0.040434866159897942 0.038926339602658511 0.023173068324319986 0.01486816632745231 -0.02082853413519202 0.01867384623166363 0.049652582443277228
leaf_weight=11.530795633792875 9.3741782605648059 14.912509948015211 14.337469846010206 8.0457069575786573 12.525163620710375 25.885463744401932 8.0916367173194867 11.905261665582652 9.6482206583023054 9.6084839999675733 10.780649930238726 7.3988784849643734 7.2969267666339874 7.4487628936767569 18.26475527882576 9.2694527208805102 8.163007855415346 11.086804240942 7.8241125941276541 10.648819446563715 16.329158872365952 11.832504242658613 25.884777963161472 9.6506243646144849 13.244401872158056 8.8810029327869433 10.792737096548079 11.121927112340925 10.200157046318052 7.5706855058670026
leaf_count=31 26 40 39 22 34 70 22 32 26 26 29 20 20 20 50 25 22 30 21 29 44 32 71 26 36 24 29 30 28 21
internal_value=2.56271e-05 0.00419512 -0.00353035 -0.00699894 0.00966415 -0.012959 -0.0160421 -0.00539107 0.0142947 -0.0114777 0.0101073 -0.00115151 0.0127911 0.0179298 0.0257752 -0.0175538 -0.00786556 -0.0337833 0.0227401 0.0285872 -0.0177515 0.000219386 0.0356096 -0.0221259 0.00528878 0.0147291 -0.00853909 -0.00129248 0.036575 0.0306391
internal_weight=359.555 285.476 161.749 147.411 38.8356 108.576 74.0793 82.6903 123.727 65.9877 104.152 42.6978 25.6483 61.4547 30.7899 54.4569 34.1007 20.3563 54.0059 44.3577 25.9376 67.7778 36.5336 17.0495 55.9453 33.2473 22.698 20.0029 19.5743 14.8676
internal_count=975 775 438 399 106 293 200 223 337 178 283 116 70 167 84 147 92 55 147 121 70 183 100 46 151 90 61 54 54 41
is_linear=0
shrinkage=0.05


Tree=16
num_leaves=31
num_cat=0
split_feature=18 7 30 1 8 0 13 13 34 20 18 3 8 12 8 30 12 7 24 25 4 8 7 34 15 0 7 2 24 34
split_gain=5.48435 4.17776 4.7728 8.69895 4.72871 5.59284 3.67851 7.91534 4.59115 4.25919 2.47771 4.60083 5.25275 5.43448 2.43826 2.88439 1.69056 3.13571 1.3214 1.7764 0.515757 0.391967 7.57204e-05 5.26607e-05 3.93735e-05 3.02274e-05 1.95213e-05 1.7383e-05 1.18844e-05 1.18621e-05
threshold=-10.726354171152364 0.33203910651692398 0.052928392081505397 -0.0037692763853550298 1.0551305495204708 -0.00205160814800742 -0.0034302726537959031 -0.0036903981066264708 28.500000000000004 0.00098415954556705797 -0.011130489762071342 0.00093751637690895099 -0.22545078883150854 -0.0033314619118560702 1.3434775625357898 0.065885986808881761 -0.0089426080879448297 -0.2861186829379963 0.17765853867511058 0.67772586962826353 -0.074405083328620059 2.048924044563718 0.15284561679175798 7.5000000000000009 0.010307575764273868 0.039587468420138779 -0.39051249130427113 -0.010761543047533973 0.13778258575505023 25.500000000000004
decision_type=2 2 2 2 2 2 2 2 2 2 2 2 2 2 2 2 2 2 2 2 2 2 2 2 2 2 2 2 2 2
left_child=1 2 4 -4 5 -1 7 8 10 -10 16 12 -12 -14 18 -16 17 -2 19 20 -8 -17 27 24 -20 29 -13 -18 -22 -25
right_child=6 -3 3 -5 -6 -7 14 -9 9 -11 11 26 13 -15 15 21 22 -19 23 -21 28 -23 -24 25 -26 -27 -28 -29 -30 -31
leaf_value=0.087548776314189655 0.038573953950974689 -0.035535083573381115 0.015367302952262286 0.16981133915503191 -0.035588302259351674 -0.014195297745638588 -5.0463907640270256e-05 0.094500506896003283 -0.004889832163117884 0.10731862172242346 -0.035392280758654575 -0.035415562917151686 0.014310945273367702 0.11640038520046676 0.054357905129715806 -0.00023725426565955775 -0.035185103462301075 -0.035046139515488454 -0.035072917439069429 0.025091661165941248 -0.034963544771407208 -0.035394200526844319 -0.035496903729581357 -0.034916758988883544 -0.035372795651337989 -0.035167561765268085 -0.035189398900406406 -0.035035929604550937 -0.035142463399962999 -0.035056499583442695
leaf_weight=3.2315573915839177 2.7019373551011086 2.1841090247035018 1.9610575810074808 1.7038938663899887 2.7058372460305691 2.3206373043358326 1.4261788874864576 2.2978806495666531 1.6390689536929124 1.7471757903695104 2.0750273168087006 1.726122245192528 3.0172067210078239 2.2952209115028364 2.2275909557938567 1.4319781996309759 3.4677081517875186 3.1126055791974059 2.8809825517237178 2.484813429415226 2.5923039726913037 1.7761719077825544 1.4252538830041883 6.983319126069544 1.7653008624911306 1.8838334009051312 2.1333048902451992 4.4705924838781383 1.4457455351948736 1.9406897835433481
leaf_count=31 33 27 23 20 32 27 20 23 21 19 26 21 39 23 28 20 47 45 41 33 39 22 17 108 22 26 29 65 20 28
internal_value=-5.46282e-05 0.0280387 0.0396845 0.0871708 0.0186098 0.0450231 -0.00655714 0.00508415 -0.00180816 0.0530055 -0.00883229 0.00895381 0.0320684 0.0584184 -0.0195185 0.0106483 -0.0220117 -0.000835904 -0.0265252 -0.00995932 -0.0258985 -0.0197017 -0.0351613 -0.0350461 -0.0351869 -0.0349856 -0.0352906 -0.0351011 -0.0350276 -0.0349471
internal_weight=75.0551 14.1071 11.923 3.66495 8.25803 5.55219 60.948 32.1091 29.8112 3.38624 26.425 11.2469 7.38745 5.31243 28.8389 5.43574 15.1781 5.81454 23.4032 7.94904 5.46423 3.20815 9.36355 15.4541 4.64628 10.8078 3.85943 7.9383 4.03805 8.92401
internal_count=975 160 133 43 90 58 815 408 385 40 345 138 88 62 407 70 207 78 337 112 79 42 129 225 63 162 50 112 59 136
is_linear=0
shrinkage=0.05


Tree=17
num_leaves=31
num_cat=0
split_feature=21 27 2 32 1 26 14 14 27 27 28 2 23 27 23 2 17 2 1 5 31 6 22 31 27 19 27 35 34 9
split_gain=11.0499 6.5075 6.10233 7.08222 5.287 4.21324 4.74078 3.81325 4.44366 4.18065 6.20065 4.6353 4.21906 4.95216 3.69799 3.50328 3.48798 3.46603 5.5529 4.406 4.9195 4.19448 4.84755 3.13443 2.75324 2.68882 2.42924 4.42887 3.23176 3.98628
threshold=36.567617915612153 0.43419073025632327 -0.013351348393916952 0.00064206358112768363 0.027244524086723027 19614.925000000003 0.0023866644693743308 -0.0027157103720895945 0.54571995427602349 0.721163868153052 0.14560829998902039 -0.035985517503515675 0.059156493991563468 1.0339501310215498 0.064557304378726241 0.026652470683712081 -0.0063717896930976506 -0.13811791699804407 -0.075756074530078862 -0.21725723899574906 0.0037270408129835859 -0.19588914338872956 4.4981857380166934 -0.012824577361580441 0.64468268934446138 -3.075827292427296 0.53861122907232961 23.500000000000004 25.500000000000004 0.059713647932229011
decision_type=2 2 2 2 2 2 2 2 2 2 2 2 2 2 2 2 2 2 2 2 2 2 2 2 2 2 2 2 2 2
left_child=17 14 7 5 15 6 23 -3 -9 11 12 -10 -11 16 -2 24 -14 -1 -19 25 21 22 -21 -4 -5 -20 -25 28 29 -28
right_child=1 2 3 4 -6 -7 -8 8 9 10 -12 -13 13 -15 -16 -17 -18 18 19 20 -22 -23 -24 26 -26 -27 27 -29 -30 -31
leaf_value=0.041688139178405845 0.041907119406254086 0.032709959077436887 -0.036525521788929281 0.024351615666913278 0.025559332135304404 0.010280147411861739 -0.050166565711222848 0.035325047221168228 -0.051432309053011355 -0.031312650243420399 0.033821059806829444 -0.0031113665177986694 -0.0024561148483917159 -0.021908990500058706 0.002009622724493208 -0.038320159471884996 0.041629952125165431 -0.02175156024836894 0.061427507694743949 0.051420653255410786 -0.017728842042238156 -0.0099220377379830617 0.0072026217447264743 -0.038036360726182987 -0.015109978836757991 0.021761101132473832 -0.037486579248182883 0.01552719204821814 0.0025704608707557632 0.0048011174888028842
leaf_weight=11.105167150497435 10.648303002119066 9.5209324657917005 19.614513635635376 7.6836865246295991 16.768186062574387 10.191889494657515 14.249435663223265 7.7421640157699576 8.6940375864505786 12.109025418758391 12.399082124233244 11.564932703971861 8.7516185045242274 11.473023891448973 12.77637332677841 7.8651336729526511 9.2060143351554942 10.609489828348158 7.4638517200946835 12.647278219461436 12.382892489433287 9.1096511781215721 12.155147880315779 8.8811179697513563 10.406725794076918 9.9910482764244062 22.214338213205341 13.133539170026777 13.584585905075071 7.4391182363033286
leaf_count=30 29 26 56 21 46 28 41 21 24 34 34 32 24 32 35 22 25 29 20 34 34 25 33 25 29 27 64 36 38 21
internal_value=-1.45133e-05 -0.00502461 -0.00744609 -0.0135855 0.00367607 -0.0203322 -0.02348 0.00275919 -0.000720917 -0.00448213 0.00279155 -0.0238481 -0.00647037 0.0037508 0.0201461 -0.0104613 0.0201447 0.0156327 0.0117415 0.0173155 0.00924419 0.0190933 0.0297503 -0.0189993 0.00165086 0.0387228 -0.013731 -0.00990176 -0.0176258 -0.0268779
internal_weight=352.382 266.918 243.493 152.032 42.7237 109.309 99.1166 91.4608 81.9399 74.1977 53.9388 20.259 41.5397 29.4307 23.4247 25.9555 17.9576 85.4645 74.3594 63.7499 46.295 33.9121 24.8024 84.8672 18.0904 17.4549 65.2527 56.3716 43.238 29.6535
internal_count=975 743 679 427 118 309 281 252 226 205 149 56 115 81 64 72 49 232 202 173 126 92 67 240 50 47 184 159 123 85
is_linear=0
shrinkage=0.05


Tree=18
num_leaves=31
num_cat=0
split_feature=2 34 27 1 4 34 1 3 23 5 27 17 31 4 0 34 34 7 5 30 23 5 8 3 15 28 0 34 23 28
split_gain=8.93088 6.90692 7.33275 9.45199 5.86851 4.71404 6.5933 7.33259 7.8754 3.81944 3.72756 3.68826 3.62939 3.68221 4.08553 5.24972 5.68394 4.474 4.65724 3.57501 3.53083 3.87128 4.25253 3.07047 6.91491 3.05223 2.80225 5.14013 4.45017 3.71989
threshold=-0.010761543047533973 7.5000000000000009 0.51147163327947121 0.0041663675571105051 0.076031299230925289 23.500000000000004 -0.11173383881854627 -0.041254403417277659 0.061463879700880096 0.073198677662184922 1.5808971125831299 -3.7918489705761185 0.01863734109831729 -0.1312751613031872 0.01168410153761063 24.500000000000004 19.500000000000004 -0.22723275226635101 0.010522121279959327 0.036848235096831564 0.061766712531207697 -0.22974183430821318 -0.10186404992066302 -0.02749889697366906 -0.012252836963062652 -0.28692909665664862 0.013211490962574964 12.500000000000002 0.072380301249967194 -0.41548160736455025
decision_type=2 2 2 2 2 2 2 2 2 2 2 2 2 2 2 2 2 2 2 2 2 2 2 2 2 2 2 2 2 2
left_child=4 2 -2 -4 5 6 -1 26 23 -5 12 -10 13 -3 15 16 17 -15 -19 -17 -7 -22 -23 -9 -25 -14 27 28 -8 -29
right_child=1 10 3 9 -6 20 7 8 11 -11 -12 -13 25 14 -16 19 -18 18 -20 -21 21 22 -24 24 -26 -27 -28 29 -30 -31
leaf_value=-0.045359820782247484 -0.039549028361066149 -0.02139039573199096 0.042246684162504537 -0.025589823930121332 0.032609796626939247 -0.055547654113371807 -0.044866053146422946 -0.026204106896313202 -0.0075670163863965443 0.01707198559940112 -0.012518399046960624 -0.04915951193678967 0.04035198958749614 -0.003199455488591978 -0.01891291429285364 0.022988003883853234 0.052593136781539755 0.054964901845112782 0.0053725436583073405 -0.021297933948976767 -0.045251512554273975 -0.032229424802800728 0.011428855491344821 0.036834241100152064 -0.018351489579526477 0.010178323038793791 0.035304081377654027 0.0008590208714353469 0.0059975049155004375 0.034374214956917497
leaf_weight=9.5504321157932264 13.595136046409605 8.1452395617961866 10.985046595335005 18.111450999975208 8.3995798230171186 7.7276392579078665 7.7478591501712826 7.36483106017113 7.7511862218380001 7.3859004080295554 12.46479883790016 17.064011454582214 23.182589024305344 16.759270846843712 8.4441594779491407 7.3971177041530636 14.673723995685576 10.31893429160119 8.7471313178539258 11.869233310222624 9.2252364754676801 9.609708756208418 13.293574690818788 12.093718677759174 10.697432160377499 13.126746684312819 9.2436446249484998 17.285981684923165 9.6644881963729841 15.88950794935227
leaf_count=26 37 22 30 49 23 21 21 20 21 20 34 46 64 46 23 20 41 29 24 32 25 26 36 33 29 36 25 47 26 43
internal_value=2.86635e-05 0.00765456 -0.00820666 0.00347304 -0.0081538 -0.0102389 -0.00544284 -0.00212214 -0.0153053 -0.0132318 0.0135326 -0.0361678 0.0161798 0.0106029 0.0139349 0.0179107 0.0263825 0.0156468 0.0322129 -0.0042948 -0.025203 -0.0179044 -0.00688919 0.00186233 0.0109318 0.0294434 0.00999012 0.00536464 -0.0166349 0.0169112
internal_weight=357.815 185.206 50.0775 36.4824 172.609 164.209 124.353 114.803 54.9712 25.4974 135.129 24.8152 122.664 86.3548 78.2096 69.7654 50.4991 35.8253 19.0661 19.2664 39.8562 32.1285 22.9033 30.156 22.7912 36.3093 59.8315 50.5878 17.4123 33.1755
internal_count=975 507 136 99 468 445 337 311 149 69 371 67 337 237 215 192 140 99 53 52 108 87 62 82 62 100 162 137 47 90
is_linear=0
shrinkage=0.05


Tree=19
num_leaves=31
num_cat=0
split_feature=35 28 19 7 7 30 17 35 14 5 9 5 32 19 20 22 5 16 28 5 32 35 7 19 13 14 12 14 26 16
split_gain=5.09633 4.90039 6.22868 6.19527 7.97907 5.65489 4.74428 5.42558 3.18608 3.05651 8.92097 4.42651 3.94551 5.42698 1.98431 1.73252 1.2454 3.40556 0.855163 1.6228 0.543306 0.519181 0.46028 0.000260341 0.000219137 0.000116389 4.54661e-05 4.38206e-05 3.16055e-05 2.18456e-05
threshold=24.500000000000004 -0.52428395324845367 -0.00090273194323097601 0.2860478816047774 -0.20827733371914955 0.04130732921047716 -0.0012281990270145459 1.5000000000000002 0.0055360629196575745 -0.076821751378070555 -0.063192198667094773 -0.053036457691550631 -0.00062480696151742904 -2.8444604361339167 32.246635610350417 0.010724131393859934 -0.23541518875815834 -0.14164559631226328 -0.60233013720916118 -0.15668602711056648 -0.0038483815200506216 10.500000000000002 -0.18780245285615954 -10.649462651524574 -0.0033222170700751828 0.0024915422838904439 -0.01064531436411756 -0.00040806057402235609 1364.1750000000004 -0.013655176411851192
decision_type=2 2 2 2 2 2 2 2 2 2 2 2 2 2 2 2 2 2 2 2 2 2 2 2 2 2 2 2 2 2
left_child=6 22 3 4 5 -3 7 -1 28 12 -11 -12 13 -9 21 -15 17 -14 19 -18 -8 -13 -2 25 -22 -20 -25 -23 -4 -29
right_child=1 2 8 -5 -6 -7 20 9 -10 10 11 14 16 15 -16 -17 18 -19 23 -21 24 27 -24 26 -26 -27 -28 29 -30 -31
leaf_value=0.077647732715499726 -0.035321862975634673 0.11600998265307133 -0.035086252403542642 -0.011573734697468739 0.17458021739848251 0.0033499138623399242 -0.0043593407021358509 0.090576048703324752 0.0475299025756203 0.11371038885340981 0.068884473000603186 -0.0021987316209627285 -0.035372848860185505 0.033008469707004134 0.02348997356760904 -0.035090900206978297 0.032779293829683746 0.058980237732960419 -0.035824817653790621 -0.035244758828205748 -0.035432465723811549 -0.035476956164061733 -0.0005027199442773745 -0.035257556855196236 -0.034913154761955688 -0.035237463201709 -0.03500064932937251 -0.035078001166347218 -0.035400347028048292 -0.035327071984962363
leaf_weight=2.2010343782603732 2.8079734668135643 1.9718371033668516 1.4085757210850691 2.0426721274852753 1.8937856182456014 2.5598248764872551 1.6234211139380921 1.9825917370617387 1.8039360418915746 2.0060055851936331 1.9107911996543396 1.5113879404962078 2.4230594113469124 1.4646395295858372 2.5294053852558136 2.5777300633490086 1.4703744873404505 1.5799268223345269 1.935134969651702 2.1717083752155331 2.5079773664474478 1.8539912775158858 1.4337600730359579 2.2522866539657125 10.690969396382568 1.4950711987912653 7.3167978078126881 2.1807157956063725 1.8565002679824827 1.4763636663556146
leaf_count=24 37 20 20 21 17 29 23 25 21 22 22 20 31 20 28 37 20 17 21 29 31 23 19 30 166 20 109 31 23 19
internal_value=-3.75156e-05 0.0233423 0.0380363 0.0642769 0.08839 0.0523711 -0.00730931 0.00121368 -0.00580024 -0.00297771 0.0164378 -0.000585235 -0.012783 0.0228161 -0.0144822 -0.010417 -0.0231725 0.00186709 -0.0291956 -0.00778222 -0.0316546 -0.0281593 -0.0235525 -0.0351951 -0.0350118 -0.0355688 -0.0350611 -0.0352789 -0.0352648 -0.0351786
internal_weight=74.9402 17.7789 13.5371 8.46812 6.42545 4.53166 57.1614 42.339 5.06901 40.138 13.4687 11.4627 26.6693 6.02496 9.55186 4.04237 20.6444 4.00299 16.6414 3.64208 14.8224 7.02246 4.24173 12.9993 13.1989 3.43021 9.56908 5.51107 3.26508 3.65708
internal_count=975 207 151 87 66 49 768 548 64 524 165 143 359 82 121 57 277 48 229 49 220 93 56 180 197 41 139 73 43 50
is_linear=0
shrinkage=0.05


Tree=20
num_leaves=31
num_cat=0
split_feature=4 33 2 35 31 11 3 30 34 8 11 7 34 34 34 16 2 33 25 32 27 1 27 22 5 13 26 31 35 32
split_gain=10.7192 8.79597 7.28072 7.49569 5.49448 6.09049 5.56714 4.9129 4.81192 4.7776 4.48413 4.22252 4.10048 8.61783 5.71503 3.76459 4.92544 4.70269 4.45149 4.38819 4.13494 3.90354 3.6228 3.49197 3.44517 3.21692 4.00616 3.61891 3.18856 4.0444
threshold=-0.1312751613031872 2.5000000000000004 -0.010761543047533973 24.500000000000004 -0.0040699791836563146 -0.18552420495149596 -0.13303871541245185 0.026434478049393792 2.5000000000000004 -0.1403178259733743 0.13565680228175178 -0.33265377978461669 28.500000000000004 25.500000000000004 19.500000000000004 -0.021775780977105939 -0.028002869227765011 1.0000000180025095e-35 0.11984235374345158 -1.1235379962732073e-05 0.6424413185778175 -0.0048032317855288597 0.88907987499768659 11.25108360116023 -0.10999157852677492 -0.0045441120608792655 4288.1750000000011 -0.0060860523047946537 18.500000000000004 0.0003175725426537253
decision_type=2 2 2 2 2 2 2 2 2 2 2 2 2 2 2 2 2 2 2 2 2 2 2 2 2 2 2 2 2 2
left_child=4 7 9 10 5 -1 -7 -2 -5 -3 12 -6 13 14 28 16 17 -9 -19 22 -18 -21 -17 -23 -10 27 -27 -11 29 -4
right_child=1 2 3 8 11 6 -8 15 24 25 -12 -13 -14 -15 -16 19 20 18 -20 21 -22 23 -24 -25 -26 26 -28 -29 -30 -31
leaf_value=0.051568875745971299 -0.046406321286520613 0.036898396418457637 -0.011121418697585433 -0.01241567728815416 -0.030386373625279392 -0.019082752695001728 0.035480855739515059 -0.033877807652484972 0.010644718584328632 0.0033379606318643834 -0.048900806398940788 0.013430119209104106 -0.04317010961165247 0.036248072075172139 -0.041808097431821546 0.0048931393350520698 -0.0044654182853848803 -0.020142473011914831 0.026731358788196796 -0.016818386515150868 -0.042279569439040383 0.04330313745774475 -0.037975355185666422 -0.00021727144692889548 0.057164775880936505 -0.032753685655925027 0.0083138099851662612 0.048087017485528905 -0.018872920797923555 0.040730974502159824
leaf_weight=18.194438576698303 10.827267676591871 19.322653651237488 7.7781425118446368 8.3727447986602801 7.5542536079883602 8.4667790532112139 10.438105821609495 9.2793619930744189 7.7924470603466025 9.6283350288867968 8.1266501545906049 20.203893929719925 7.8207907378673545 10.474676519632338 13.134007126092909 9.190802216529848 10.111478328704832 8.2211630046367663 13.193665236234663 7.805936366319659 25.363170623779297 11.073979735374452 10.62698721885681 7.8953887522220603 8.1344104707241041 7.9614439606666592 23.370381355285645 8.5124584436416608 14.549535661935804 7.2806636989116669
leaf_count=49 32 52 22 23 21 23 28 26 21 26 23 55 22 29 38 26 29 23 36 22 74 30 31 22 22 22 64 23 41 20
internal_value=-2.12281e-05 -0.00418505 0.00346967 -0.00561709 0.0183301 0.0309184 0.0110439 -0.0142349 0.0182718 0.0158148 -0.01401 0.00150566 -0.00936457 -0.0043965 -0.0143571 -0.0111458 -0.018812 -0.00414653 0.00873647 -0.000258673 -0.0315013 0.0129425 -0.0180944 0.0251892 0.0344042 0.00758011 -0.00212148 0.0243362 -0.00218005 0.0139483
internal_weight=350.706 285.849 162.259 93.4641 64.8575 37.0993 18.9049 123.589 24.2996 68.7953 69.1645 27.7581 61.0378 53.217 42.7423 112.762 66.1688 30.6942 21.4148 46.5931 35.4746 26.7753 19.8178 18.9694 15.9269 49.4726 31.3318 18.1408 29.6083 15.0588
internal_count=975 799 448 261 176 100 51 351 66 187 195 76 172 150 121 319 188 85 59 131 103 74 57 52 43 135 86 49 83 42
is_linear=0
shrinkage=0.05


Tree=21
num_leaves=31
num_cat=0
split_feature=2 33 34 27 1 6 34 34 0 5 10 14 24 34 34 34 4 0 31 5 13 1 28 1 0 31 21 10 34 30
split_gain=7.99871 8.76195 6.30489 7.53754 9.1897 5.96623 7.41026 5.16996 4.92339 6.50327 8.62728 4.61592 4.99845 3.79321 11.6305 5.11678 5.07669 4.79221 5.78111 3.57738 3.53184 3.27415 3.09533 2.94549 3.42143 2.69183 2.56532 3.87868 2.48245 2.44336
threshold=-0.013351348393916952 1.0000000180025095e-35 7.5000000000000009 0.51147163327947121 0.0041663675571105051 -0.10179264372542436 6.5000000000000009 22.500000000000004 -0.010090532401179611 -0.21725723899574906 -0.12039812214363592 0.0010879737849195073 0.2706427242720611 24.500000000000004 19.500000000000004 15.500000000000002 -0.085531833777015565 0.015550661459807312 -0.017736430380924578 0.073198677662184922 -0.0036903981066264708 -0.017421665036626434 -0.39667171835043563 0.01275662840568648 0.0050149752914619697 -0.0027003842315232716 42.000493016396419 0.018844440117572556 20.500000000000004 0.042363008969284181
decision_type=2 2 2 2 2 2 2 2 2 2 2 2 2 2 2 2 2 2 2 2 2 2 2 2 2 2 2 2 2 2
left_child=1 7 3 -2 -5 8 -7 -1 11 -10 28 20 -13 14 15 23 -17 18 -15 -6 -3 26 -19 -4 -25 -20 -8 -28 -11 -23
right_child=2 5 13 4 19 6 21 -9 9 10 -12 12 -14 17 -16 16 -18 22 25 -21 -22 29 -24 24 -26 -27 27 -29 -30 -31
leaf_value=0.043536754450508808 -0.038908298277156812 -0.049119130522364274 0.030459843167424623 0.041545248816409572 -0.024680762225879688 -0.038122409946112934 0.017893949701474482 -0.0080624336066330501 -0.048691961254601256 0.033622134100695866 -0.03706909797688681 0.017146183407916141 -0.035398593917495252 0.021980381107828864 0.048726695518825774 -0.045604577148458468 0.005515444616930272 0.036739784952289835 -0.047284574124018208 0.016665434601268805 -0.010006710291282136 0.0097438832226677888 -0.004160168741237617 -0.020634689876929992 0.019213121848963118 -0.010296680421577007 -0.035069871827418511 0.013605223077194121 -0.00088848797011484163 0.047652984066390396
leaf_weight=12.113958775997164 14.225593775510786 27.114132583141327 22.213062167167664 11.271001636981962 18.050268262624744 9.9730490744113904 10.688180953264235 8.1006787419319135 7.4061020314693442 13.616931796073915 9.2698524892330187 8.887314051389696 9.2229681015014631 8.8156054913997668 23.644078314304352 7.4315895438194302 14.017054259777067 11.625415921211244 8.8135934174060857 7.3667333722114554 7.332740753889083 9.5333350598812157 7.6832557618618003 8.3495272994041461 15.181745767593382 11.13136455416679 9.2430656254291552 7.344943404197692 8.4412254691123945 7.670414298772811
leaf_count=33 39 75 62 31 49 27 29 22 20 37 25 24 25 24 67 20 39 32 24 20 20 26 21 23 42 30 25 20 23 21
internal_value=2.8733e-05 -0.00798917 0.00703876 -0.00801282 0.00396675 -0.0122678 0.000830871 0.0228592 -0.0200809 -0.00655526 0.00340607 -0.0300491 -0.00961313 0.0125556 0.0185662 0.00795323 -0.0121968 0.00119742 -0.011738 -0.0126972 -0.0407932 0.00956476 0.020465 0.0174012 0.00507405 -0.0266415 -0.00120874 -0.0135172 0.0204156 0.0266459
internal_weight=355.779 165.959 189.82 50.9136 36.688 145.744 54.453 20.2146 91.2913 38.7341 31.328 52.5572 18.1103 138.906 90.8371 67.193 21.4486 48.0692 28.7606 25.417 34.4469 44.4799 19.3087 45.7443 23.5313 19.945 27.2762 16.588 22.0582 17.2037
internal_count=975 452 523 139 100 397 148 55 249 105 85 144 49 384 253 186 59 131 78 69 95 121 53 127 65 54 74 45 60 47
is_linear=0
shrinkage=0.05


Tree=22
num_leaves=31
num_cat=0
split_feature=17 7 30 27 28 0 35 34 28 23 1 19 17 6 6 28 28 30 23 23 17 5 30 13 13 23 26 13 14 9
split_gain=4.7119 3.60513 3.91736 9.34516 5.1291 4.79188 3.47201 3.77399 3.76765 5.85806 7.00162 3.74983 2.00739 1.6832 3.49798 5.31616 2.87309 1.63728 2.12054 2.38164 0.625577 0.491288 0.472065 0.469583 0.000166296 0.000100799 5.58114e-05 4.36558e-05 3.83046e-05 1.84886e-05
threshold=-10.726354171152364 0.33203910651692398 0.052928392081505397 1.3483659856667722 0.12635652762366928 -0.00205160814800742 24.500000000000004 30.500000000000004 -0.50450238902152089 0.086033754798457193 0.015435236105197587 -0.0022331765047708938 0.00063093337492659354 -0.30898156360239637 -0.21042037958722717 -0.60143443063752311 -0.30958589716443047 0.13223819518711302 0.057806673752056011 0.054373953850913641 -0.0040944224065794987 -0.14975601235842237 0.046502859679924492 -0.0031217360445648418 -0.0033222170700751828 0.073232828532782027 3634.4750000000008 -0.0034039993883680495 -0.0034617642808150132 -0.032080618612237717
decision_type=2 2 2 2 2 2 2 2 2 2 2 2 2 2 2 2 2 2 2 2 2 2 2 2 2 2 2 2 2 2
left_child=1 2 4 -4 5 -1 7 12 22 10 11 -10 13 20 15 -15 21 18 19 23 28 -17 -8 -16 -14 27 -27 -20 -2 -23
right_child=6 -3 3 -5 -6 -7 8 -9 9 -11 -12 -13 24 14 17 16 -18 -19 25 -21 -22 29 -24 -25 -26 26 -28 -29 -30 -31
leaf_value=0.082673729086315068 -0.035286154406066472 -0.035443248562570411 0.14551598441131375 -0.0078730619521843008 -0.035542513741985117 -0.012807396624613575 -0.035198031024063763 0.065456842842022897 0.11885321108247399 -0.035360404388971096 -0.015926401522267122 0.033713389187008086 -0.035405287876611048 0.083801879586358 -0.035426792057347681 0.00073901558407681695 0.052556141236119285 0.034003417403214629 -0.035224393331040833 0.052899131149348723 0.0022446060417608219 -0.034997713245499454 -0.00022425420744471964 0.0031698063843262517 -0.034849652194624832 -0.03517243589129488 -0.035566858295326013 -0.034949093343730218 -0.035007473019361503 -0.035244479562139788
leaf_weight=3.3489234857261163 1.5912337377667425 2.0890157744288436 2.1997401341795912 1.8100317046046255 3.05720554292202 2.16260626912117 2.9999219365417948 1.4786585271358479 3.2125572562217704 2.5166529379785061 2.5567863248288631 2.1646890193223944 1.5893390588462342 2.5070014148950577 1.9756153821945188 1.3935127407312387 1.7041212096810285 1.4417363516986359 2.2164141349494395 1.6976874992251394 1.3353922367095856 1.5276388861238954 1.4222825057804582 1.3109888099134139 8.8172424137592298 1.728108808398247 1.8646469078958032 4.1109427176415965 5.4775359146296978 1.5086859986186034
leaf_count=29 21 27 21 22 37 24 41 16 28 32 31 26 20 29 25 20 21 19 30 23 19 23 19 20 142 24 22 63 81 20
internal_value=-2.63884e-05 0.0253836 0.0354857 0.0762754 0.016398 0.045209 -0.00622266 -0.0131077 0.014737 0.0311072 0.0521905 0.0845789 -0.0157601 -0.0097843 -0.00327387 0.0224566 -0.00261574 -0.0168756 -0.0217972 0.00480952 -0.029141 -0.0238399 -0.0239497 -0.0200311 -0.0349345 -0.0351656 -0.0353771 -0.0350455 -0.0350702 -0.0351203
internal_weight=74.8169 14.6675 12.5785 4.00977 8.56874 5.51153 60.1494 45.2765 14.8729 10.4507 7.93403 5.37725 43.7978 33.3913 24.9871 8.64096 6.13396 16.3461 14.9044 4.98429 8.40416 4.42984 4.4222 3.2866 10.4066 9.92011 3.59276 6.32736 7.06877 3.03632
internal_count=975 160 133 43 90 53 815 638 177 117 85 54 622 460 339 113 84 226 207 68 121 63 60 45 162 139 46 93 102 43
is_linear=0
shrinkage=0.05


Tree=23
num_leaves=31
num_cat=0
split_feature=4 33 3 31 31 11 3 6 30 13 34 8 33 1 7 3 32 33 13 32 15 5 25 12 3 1 2 32 27 7
split_gain=9.73745 8.09366 6.66347 6.01408 4.95026 5.60019 5.17483 4.91997 4.67696 4.64451 4.96611 4.18994 4.10509 4.48283 3.9549 3.7747 3.77159 5.85242 3.48277 3.79327 5.59587 4.53864 7.7723 4.4835 6.2821 3.15652 2.77549 2.45908 2.13866 1.80808
threshold=-0.1312751613031872 2.5000000000000004 0.053065719668774533 0.0037270408129835859 -0.0040699791836563146 -0.18552420495149596 -0.11462162017495901 0.21220781784680184 0.026434478049393792 -0.0030637165891282637 7.5000000000000009 -0.13448952482981977 3.5000000000000004 -0.0083406339010436963 -0.33265377978461669 -0.032428467755385985 -0.00075754286079595258 5.5000000000000009 -0.006905854633864404 0.00022189749717991733 0.022704716775906207 -0.093586764011140591 0.26778049798786424 0.00060292647316510979 0.038170441954433747 -0.021026026231016452 -0.048568948391564983 0.0012238649463338972 0.79396525226784764 -0.27543757950192693
decision_type=2 2 2 2 2 2 2 2 2 2 2 2 2 2 2 2 2 2 2 2 2 2 2 2 2 2 2 2 2 2
left_child=4 8 3 11 5 -1 -7 -4 -2 16 -11 25 -13 15 -6 -14 -5 28 29 21 27 22 -20 -23 -25 -3 -16 -21 -18 -10
right_child=1 2 7 9 14 6 -8 -9 18 10 -12 12 13 -15 26 -17 17 -19 19 20 -22 23 -24 24 -26 -27 -28 -29 -30 -31
leaf_value=0.049376780831795371 -0.045390376083094736 0.0065314597406408636 -0.034426978160060843 -0.023893326530941651 -0.029503258659937033 -0.016480190874142733 0.035893922926281456 0.014131001173118191 -0.01278242927228216 0.0115085967934275 -0.034114880772715905 -0.014862051344474329 0.056050750537706542 -0.0039823424405340648 -0.011602246989133268 0.012918048873145252 0.018685432609814753 -0.018915700025885336 0.042820967859153097 0.0080476307138731482 0.038438154685886738 -0.039800254417613125 -0.019604803003320476 0.021806779159666154 -0.035886006365075836 0.04447578193884065 0.026976662404429863 -0.02394876377799111 0.052932042787202677 -0.046337010929748103
leaf_weight=18.062126576900482 10.632575690746306 7.7708183228969601 17.876787304878238 7.1972422003746024 7.4965189695358303 9.1784476637840289 9.7012949585914594 7.3659447431564322 7.0186586380004909 8.8363686501979846 18.352724671363831 13.522634744644163 9.3320400416851026 14.176122486591337 7.303644180297856 11.112418979406359 11.983018755912783 8.0973511040210742 8.0973817706108111 13.232455790042879 9.7182981073856336 21.583962261676788 12.976826876401899 9.6373921334743518 9.2446873188018781 18.599833101034164 12.890151768922802 10.994204521179197 7.3580092787742606 9.3802231252193433
leaf_count=49 32 21 53 20 21 25 26 20 20 24 53 37 25 39 20 30 33 23 22 37 26 64 37 27 27 50 35 31 20 28
internal_value=-2.36524e-05 -0.00400874 0.00333995 0.00770897 0.0174933 0.0294735 0.0104321 -0.0202575 -0.0137006 -0.00381979 -0.0192874 0.0172745 0.00849944 0.0176243 0.00151038 0.0326063 0.00832233 0.0167727 -0.010689 -0.0070332 0.00638521 -0.0144347 0.00438117 -0.0242337 -0.00643967 0.0332945 0.0130235 -0.00647253 0.0317141 -0.0319758
internal_weight=348.73 284.098 161.581 136.339 64.6322 36.9419 18.8797 25.2427 122.517 61.8247 27.1891 74.5139 48.1432 34.6206 27.6903 20.4445 34.6356 27.4384 111.884 95.4852 33.945 61.5403 21.0742 40.466 18.8821 26.3707 20.1938 24.2267 19.341 16.3989
internal_count=975 799 448 375 176 100 51 73 351 173 77 202 131 94 76 55 96 76 319 271 94 177 59 118 54 71 55 68 53 48
is_linear=0
shrinkage=0.05


end of trees

feature_importances:
day_of_month=48
close_open_range=42
returns_2=31
returns_100=30
volume_ratio_20=29
high_low_range=28
returns_5=27
returns_20=27
gap_open=27
days_to_month_end=27
returns_1=26
day_of_week=26
returns_50=24
sma_50_slope=24
returns_3=23
atr_pct_14=23
returns_200=21
bollinger_width_20=19
price_to_ema_12=18
returns_10=17
price_to_sma_200=17
ema_12_26_spread=17
macd_signal=17
vwap_distance=17
volume_20=14
sma_200_slope=13
macd_hist=13
rsi_14=12
sma_20_slope=11
bollinger_percent_b_20=11
price_to_sma_50=10
price_to_sma_20=9
price_to_ema_26=7
atr_14=7
macd=2
adx_14=1

parameters:
[boosting: gbdt]
[objective: multiclass]
[metric: multi_logloss]
[tree_learner: serial]
[device_type: cpu]
[data_sample_strategy: bagging]
[data: ]
[valid: ]
[num_iterations: 300]
[learning_rate: 0.05]
[num_leaves: 31]
[num_threads: 0]
[seed: 0]
[deterministic: 0]
[force_col_wise: 0]
[force_row_wise: 0]
[histogram_pool_size: -1]
[max_depth: -1]
[min_data_in_leaf: 20]
[min_sum_hessian_in_leaf: 0.001]
[bagging_fraction: 1]
[pos_bagging_fraction: 1]
[neg_bagging_fraction: 1]
[bagging_freq: 0]
[bagging_seed: 3]
[bagging_by_query: 0]
[feature_fraction: 0.8]
[feature_fraction_bynode: 1]
[feature_fraction_seed: 2]
[extra_trees: 0]
[extra_seed: 6]
[early_stopping_round: 0]
[early_stopping_min_delta: 0]
[first_metric_only: 0]
[max_delta_step: 0]
[lambda_l1: 0]
[lambda_l2: 0]
[linear_lambda: 0]
[min_gain_to_split: 0]
[drop_rate: 0.1]
[max_drop: 50]
[skip_drop: 0.5]
[xgboost_dart_mode: 0]
[uniform_drop: 0]
[drop_seed: 4]
[top_rate: 0.2]
[other_rate: 0.1]
[min_data_per_group: 100]
[max_cat_threshold: 32]
[cat_l2: 10]
[cat_smooth: 10]
[max_cat_to_onehot: 4]
[top_k: 20]
[monotone_constraints: ]
[monotone_constraints_method: basic]
[monotone_penalty: 0]
[feature_contri: ]
[forcedsplits_filename: ]
[refit_decay_rate: 0.9]
[cegb_tradeoff: 1]
[cegb_penalty_split: 0]
[cegb_penalty_feature_lazy: ]
[cegb_penalty_feature_coupled: ]
[path_smooth: 0]
[interaction_constraints: ]
[verbosity: -1]
[saved_feature_importance_type: 0]
[use_quantized_grad: 0]
[num_grad_quant_bins: 4]
[quant_train_renew_leaf: 0]
[stochastic_rounding: 1]
[linear_tree: 0]
[max_bin: 255]
[max_bin_by_feature: ]
[min_data_in_bin: 3]
[bin_construct_sample_cnt: 200000]
[data_random_seed: 1]
[is_enable_sparse: 1]
[enable_bundle: 1]
[use_missing: 1]
[zero_as_missing: 0]
[feature_pre_filter: 1]
[pre_partition: 0]
[two_round: 0]
[header: 0]
[label_column: ]
[weight_column: ]
[group_column: ]
[ignore_column: ]
[categorical_feature: ]
[forcedbins_filename: ]
[precise_float_parser: 0]
[parser_config_file: ]
[objective_seed: 5]
[num_class: 3]
[is_unbalance: 0]
[scale_pos_weight: 1]
[sigmoid: 1]
[boost_from_average: 1]
[reg_sqrt: 0]
[alpha: 0.9]
[fair_c: 1]
[poisson_max_delta_step: 0.7]
[tweedie_variance_power: 1.5]
[lambdarank_truncation_level: 30]
[lambdarank_norm: 1]
[label_gain: ]
[lambdarank_position_bias_regularization: 0]
[eval_at: ]
[multi_error_top_k: 1]
[auc_mu_weights: ]
[num_machines: 1]
[local_listen_port: 12400]
[time_out: 120]
[machine_list_filename: ]
[machines: ]
[gpu_platform_id: -1]
[gpu_device_id: -1]
[gpu_use_dp: 0]
[num_gpu: 1]

end of parameters

pandas_categorical:null
